4912 50
EU 0.018517746 1.4631176 -0.18639173 1.3069087 0.21443413 1.0161471 0.20832239 0.08281942 -0.8169725 0.3771213 -0.8022201 1.0028068 -0.22655097 0.09523303 -0.18187046 -1.0263757 0.686662 0.24516387 1.2970364 -0.47986302 -0.6222423 0.13895805 0.83969325 -0.031511858 0.6807943 0.661211 1.7877787 -0.006412131 -0.23526877 0.1048236 0.17770965 -0.17608136 -1.023927 1.0216589 0.105304465 0.20172244 0.22776695 0.51708853 0.57368994 0.500883 -0.5196928 0.13940911 -0.5471797 0.2817869 0.38495344 0.32855317 -0.52647686 -1.5156964 -0.5300866 0.69649214
German -0.052740242 0.6678794 0.84176916 -0.34571463 0.22370756 1.3505585 -0.36008203 -0.159063 0.1999998 -0.3308527 0.57370526 1.6041828 0.08865332 -0.4745148 0.6611018 -0.6268653 -0.71474993 0.34908277 0.5248203 0.2505044 1.0231928 0.8497412 1.2412558 0.5527208 0.7830509 -2.0144293 1.9605677 -0.5387241 -1.6063477 0.45038757 0.7381068 -0.61447704 -0.438013 -0.69486094 0.6289104 -0.6616983 0.8887684 -1.5441527 0.62188506 -0.6062282 -0.08137771 -0.52961373 1.6022273 -0.51760286 0.083209835 -0.8350397 1.2687886 -0.5816227 -0.4794508 0.72755355
call -0.03737875 0.6868264 -0.10033521 -0.19992381 1.1185876 1.3376254 0.360839 0.39003468 -1.0978805 1.0570205 0.106565945 0.15863042 0.372718 0.6809125 1.2344537 0.32395932 0.007498826 -0.6629035 -1.1963631 -0.53098816 -0.32485723 0.65325946 -0.14747865 -2.493899 0.52097994 0.21772088 -0.12999704 0.016437525 0.84394896 0.14434977 -0.17480086 -1.1321039 -0.11743337 -0.51855004 -0.36627695 -0.68580997 -1.105511 -0.36030865 1.412997 1.4926174 0.0018493336 -0.0037333886 0.6840384 0.10622453 0.23345758 -0.5410508 0.27510005 -0.10967003 1.0020219 0.492283
to 0.9653805 -0.48893353 -0.37649179 -0.52662903 0.19682512 -0.06297605 2.3310435 0.07339262 -0.5460077 1.1357864 -0.16078246 0.9279719 1.667735 0.14121954 0.5196703 -0.23045217 -1.1863241 0.1347114 0.42741418 -1.05239 0.017422356 -0.0904541 0.91672903 -1.3728647 0.38252735 -0.010247722 0.30575928 0.357175 1.4416525 -0.20283096 -0.16974208 0.91848946 0.306737 -0.38573927 -0.077933356 -1.3482169 -1.8947444 0.032054026 0.96525484 0.41208684 0.057193283 -0.45322073 0.7241653 0.07903809 -0.7094699 -0.2796217 -1.2334265 -1.481128 0.103283696 2.3875365
boycott 0.30336744 -0.5261175 -0.17820667 -0.102936536 0.20192836 0.870332 0.039692834 0.24472062 -0.5529229 0.0337587 0.35358065 0.13120478 0.27660573 -0.04342895 0.6802731 -0.27971905 0.12450558 0.09824863 -0.17928758 -0.41805485 0.19683357 0.14703609 -0.28913358 -0.6644609 -0.1746338 0.1649478 -0.1406078 -0.5363723 0.43089476 0.64985925 -0.19845478 0.22858919 -0.5128218 -0.18632045 0.3262335 -0.63124293 -0.34037843 -0.27956384 0.032740958 0.5019488 -0.19881159 0.17544828 0.10570429 0.013594577 0.30824038 -0.3907967 0.15744422 -0.7853411 0.37050584 -0.0670491
British -0.82342905 0.90417784 -0.4061661 -0.10718162 0.6982169 1.8446296 -1.6503111 -0.7762137 -0.550975 0.557924 -0.523394 0.40762568 1.703979 -0.10045825 0.13556397 -0.92437184 -0.23755611 1.1657764 0.7898846 0.48146433 0.542648 1.9957552 0.89239043 0.407243 0.18201533 -0.8873276 1.379837 -1.3812714 0.025633749 -0.25813475 -0.02115748 -1.6734871 -0.059245348 -0.10245946 -0.35804218 -1.5246459 0.5491674 -0.22204524 -0.06895594 -0.09840565 0.17780921 0.7905307 1.4739645 -0.30965412 0.7426395 -0.80046654 1.548126 -1.1735923 0.79883265 1.2270352
. 0.32279307 -0.038597025 1.4559909 -0.023833634 -1.0595161 0.29626384 1.4623773 1.1151881 0.09182154 0.011210473 0.86736536 0.72245914 -0.41811985 -0.05932815 -0.062372666 -0.4170471 0.6105834 -1.1269335 -0.57685983 -0.63181984 0.34518102 1.1546022 0.6098166 -0.6471778 0.43590993 1.2356366 -0.5305433 0.90765226 0.29326147 -0.087387435 -0.7456103 -0.15074468 0.8921447 0.14030527 1.1026417 -0.14244166 0.794717 -1.5015571 -0.7153481 0.027378656 -0.720978 -1.2191213 0.16508895 0.13279352 0.56534725 0.5254932 -0.42391738 0.8095125 0.3624201 0.1976534
Peter 0.5538539 -0.8148455 0.258609 0.82173204 -0.71700615 -0.0014407884 -0.56580776 0.08297148 -0.12463898 -0.12976258 -1.2017103 -0.0688203 0.8557205 -0.24152753 -0.6027893 -0.8311669 0.3514122 -0.46920457 0.5714506 -0.30313313 0.23420413 0.3059779 1.1954727 0.2714205 0.93659407 -0.6856277 -1.2386212 -0.22440952 -0.14217809 0.10030546 -1.3455989 -0.5032123 1.1973451 -0.080374695 0.9905818 0.0855006 0.82726556 -0.34139806 -0.99022967 -0.160584 0.6150726 0.13759194 0.44768542 -0.06381856 1.0756208 -0.6154635 0.37509272 -0.11878371 -0.14204486 -0.08139993
Blackburn -0.44445318 0.059010837 -0.11357498 0.5617652 -0.3126179 -0.26773998 -0.03861478 1.1459478 -0.49425986 -0.2959648 -0.49752545 -0.7679356 0.4939831 -0.51987803 0.2521213 -0.69112104 -0.55339354 -0.85167867 -0.16352999 -0.24399859 0.05045415 -0.38290432 0.0074207787 0.038620718 0.7362084 -1.0071673 -0.014522926 0.06350952 -0.7810079 -0.033030264 0.20123075 -0.46943575 0.024235703 -0.23232341 0.5479327 0.07940807 0.44939578 -0.06740665 -0.17482507 -0.22097294 -0.37412465 0.060616158 0.11500063 0.1775956 0.95966285 -0.52491474 -0.06502307 -0.08440941 -0.5313074 -0.2821259
BRUSSELS 1.7215413 -0.447644 1.5763556 0.4707921 -0.5028512 -0.06008671 -0.88281465 0.71061724 0.48504314 -0.0075357216 -1.0958524 -0.67138636 1.3322387 -0.9875659 0.09342618 -0.6407564 -0.15237883 -0.1837602 0.87810516 -0.6871849 -0.03485349 -0.14939952 1.5856571 0.53291065 0.7107613 0.06291086 -0.57429844 0.3931606 0.23524651 -0.32698524 0.41644266 -0.3336286 -0.602165 0.5796446 1.5445123 1.1929202 1.4166466 -0.24839894 -1.1866038 -0.85859036 -0.1351564 1.4647127 1.2552019 0.8951881 1.8951979 -0.49180165 0.32017106 -0.92303926 1.0391772 -0.51814246
1996-08-22 0.65074825 0.1102592 2.0222542 2.2271552 -0.8923534 2.5799298 -1.1532738 2.4069128 2.3388443 1.4558954 -0.91244555 1.0647386 2.19092 2.726017 0.5338255 -0.22992536 -0.34488127 -0.2712447 -0.35823452 -2.9951265 -1.428156 -0.86676526 -1.5651132 0.10360245 0.68234116 0.6858265 -0.63798183 2.1768909 0.9845407 -2.2803345 -1.1575401 -1.3067359 -0.447479 3.4879692 0.3064132 0.82702124 1.89613 0.8982479 -2.1678658 -0.2752678 -1.755901 1.9278339 1.1336097 -0.14302371 2.1394484 -0.0005247426 -1.357967 -0.21256495 2.0650177 -1.3929335
The 1.7837298 0.42456734 -0.2967118 -0.6721599 0.67310864 -2.250793 -0.75474405 -0.117469944 -0.010425688 -1.3007379 -1.1332968 -0.8666877 0.27999064 0.13620155 -1.0429816 -0.8903891 -1.2910057 0.83534056 -0.3779059 -0.24937205 0.9688756 -0.32299638 0.46006417 -1.9663403 0.20209366 2.0335157 -0.8957221 0.44236824 0.8368304 -0.2143553 1.054543 -1.4991647 0.18547486 -0.5726894 0.2760144 -0.20816322 0.37271634 -0.076768875 1.4319601 1.5848328 -2.691299 1.1512147 2.5679734 0.51580733 1.8075827 0.014898799 1.1816392 2.00689 1.188512 0.15578012
European -0.4147322 2.193134 0.35857195 0.9130923 -1.7001954 0.38516444 0.67802966 0.8805475 -1.0856186 -0.7130615 0.33575815 0.0016006667 -0.88031137 0.2220077 1.3107399 -2.6634011 -0.25355697 -0.09163338 -1.1325327 0.33639267 0.039139587 0.45997047 1.5401866 1.0395212 -0.24240144 0.636447 1.4475442 1.346854 -2.20946 -1.247219 1.2075742 -0.61918676 -3.450996 0.3284823 -0.01898711 -1.3233373 0.8897881 0.25878587 1.4955872 0.90590256 -0.6099053 -1.602304 0.068835355 -0.5341995 1.5655113 -0.4654628 0.64619786 -2.152129 0.7433922 -1.519515
Commission 1.2258861 0.5359617 -0.97379756 1.3005334 0.5259003 1.6202893 0.18039829 -0.89030236 -2.161745 -1.1535766 -0.36793095 -0.10755947 -0.4279087 0.78432167 -0.5121909 -2.555884 -0.26907307 -0.82011706 -0.694885 -0.5399179 1.2891799 1.0340699 0.5811028 0.71329063 1.3538538 0.8221736 1.2356492 -0.013130494 -1.5631778 -0.55897665 1.0436308 -0.5098885 0.85374033 0.5295055 0.74739635 -0.50819886 2.3130653 -0.986915 0.9855165 0.43885934 0.34985715 0.09148581 -0.34387034 0.05382325 1.8343025 0.32792547 0.432787 -2.5395634 0.4485111 0.46400094
said 0.08804168 0.58068776 0.6107518 0.31566378 1.0766895 1.6162629 -0.6913968 -0.52747715 -0.98032326 -0.1311965 0.89280385 1.2426382 -1.1152955 0.3566212 -0.36358184 -1.5242567 -0.75915235 -1.9116896 1.1713966 -1.1033701 2.0437813 1.8029934 -0.30635837 -0.579586 -0.14996819 0.40020365 0.24700864 1.32302 0.7095003 1.1375648 -2.706937 -1.1385475 0.36176607 -0.04028927 0.010636468 -0.73973477 1.0334096 -1.9714568 -0.88701606 0.061012764 -1.6358116 -0.22385105 0.38665697 -1.8061 2.8917449 0.447213 -0.75111634 1.4335989 0.08189783 1.3006489
on -0.8743797 1.1539317 0.118091375 0.09440326 0.69983333 0.4650489 0.9700581 0.8949475 -0.8911947 -0.31101766 -0.19934076 -0.37689593 -0.5300556 -1.2190639 1.441122 -0.52595824 0.030223966 0.88118935 -1.3504688 -1.1215471 0.7122863 1.2233248 1.2150905 -0.64266026 1.5790365 0.77022517 0.5385607 -0.2873968 -0.12797962 1.325395 0.17122509 -0.7912614 0.26935834 -0.2616979 -0.24840064 -0.32155323 -0.49194548 -0.8972715 1.8214962 -1.2412318 -1.042298 -1.8530954 0.9603016 -0.3943187 0.32444653 1.1687778 -0.4536546 -0.336146 0.85365486 0.47596934
Thursday 1.4934698 1.0131702 -1.6853747 1.1114966 -0.10035278 0.19287914 -1.5262827 1.2563615 -2.5542624 -2.8334866 1.8344682 2.745519 0.80286264 -0.1260277 0.1209787 -1.2305355 -0.04089092 -3.4825237 0.8516977 -0.499337 0.45067778 2.038824 -1.9875642 -0.6180007 1.6543274 -1.3624617 1.6936663 -2.644667 3.16168 -1.93984 0.4211878 -0.21252769 1.4983144 1.8498871 0.014057608 -1.2207245 0.7222421 0.07094479 0.5092398 0.82084674 -1.763245 -1.499912 1.6402057 0.76849043 0.26104182 -0.9655637 -1.2455784 -0.74804145 -1.0277451 -1.7364547
it -0.10469202 2.3317187 0.13804564 -1.7870314 -0.86247253 3.2752135 1.9828795 -2.4753532 -2.0578158 -1.429475 -1.8459482 1.0029913 0.15506026 -1.7685337 -0.6550205 -1.2800572 -1.058139 -1.8967489 -0.90288943 -1.164307 0.15869866 0.99094653 -1.5941428 0.04779179 0.7256318 -0.9241377 0.04322729 -1.523843 -0.81379646 0.46781775 0.6860983 0.018866394 -0.0071884976 -1.866779 -0.46037063 -0.56869274 0.44367176 -0.5624943 0.7976026 -0.004408484 0.729216 0.20246188 -0.6000001 -0.5787571 -0.8387878 -0.13005184 0.49066597 0.58323145 1.1697735 1.3833407
with -0.54671735 0.61463916 -1.0339253 -0.49634078 -0.00700445 0.09854289 -0.25236025 0.018618492 0.8508115 -0.08251916 0.08923228 0.072566584 1.6465923 -0.60456926 -0.41277957 -1.352855 1.4538096 1.0846393 -0.64585537 -2.744505 -1.3775476 -0.19683488 -0.0622095 0.5158548 -1.5565952 -0.8218496 3.101941 2.5778246 -0.05795473 1.7939079 0.6043198 -0.5985304 -0.6691761 0.8155979 -0.17739643 -0.4274744 -1.684203 0.5185205 -0.15516731 2.1591907 -1.3207182 0.46601155 0.321682 -1.4736444 -0.76855457 0.21548289 0.8354503 2.1909997 0.41135928 0.0843832
advice -0.008778321 -0.29924384 -1.0605681 0.14674163 -0.30077112 0.46328142 -0.35663196 0.25350037 -0.2454309 -0.14344677 -0.17255005 0.48465917 0.46155336 -0.06656024 0.25284487 -0.24415936 0.04551561 -0.26309097 -0.6796725 -0.33231702 0.33482495 0.3146896 -0.09886929 -0.84338737 0.37218785 -0.0046910886 0.16399018 -0.3586002 0.10216753 0.067937575 0.12855744 0.09855046 -0.102560684 -0.21525773 -0.11191913 0.13026896 0.41985178 -0.15452228 0.28936914 0.67954224 -0.21466522 0.46949804 -0.3250441 -0.31060088 0.43838978 -0.18004362 -0.1355019 -1.110512 0.73096997 -0.108115055
consumers 0.7624505 -0.17455624 -0.8413322 -0.39875335 -0.6896635 1.6511232 0.27279124 -0.71089464 -0.9412066 0.25223702 -0.2584345 0.12200412 0.5561727 0.39351848 0.3784151 -0.16634984 0.18399645 -0.46125716 -0.1264457 -0.0778088 0.058768038 0.31185865 0.9995609 -0.27054492 0.19460365 0.44674784 0.17460583 -0.27937177 -0.11914237 0.9040783 0.49908525 -0.6666715 0.31827807 -0.92427343 0.14698583 0.009891377 0.06887039 -0.64681596 0.45838678 0.85120857 0.27030045 0.057291295 -0.70552254 -0.21001501 0.24967083 -0.4332301 0.64802754 -1.0328182 0.92836756 0.25279686
until -0.5004097 -0.5759796 -0.8760154 -0.4135726 1.1300093 -0.1538187 2.1819122 0.7125967 -1.6386917 0.6472986 -0.91231114 1.2352809 0.2720741 -0.2964671 0.15550235 -0.12174752 -0.27809373 0.75721365 -0.7037949 -1.7342046 -0.6977869 -0.036510713 -0.9767967 -0.33704546 1.50525 0.2674108 0.3415315 -1.2308303 -0.82611406 0.89996374 -0.3913849 -0.94737417 -0.7588259 -0.7999938 0.50011635 -0.33746138 -0.8625366 -0.9269268 0.74117005 -1.3427868 -1.021914 0.042342845 0.7488485 -0.9013587 -0.12432767 -0.45535135 -1.2926586 -1.4380763 -0.79131174 -0.45678017
scientists -0.34329027 -0.27916828 -0.6104752 -0.11695483 0.114061885 0.118639 0.27751634 -0.32665437 -1.139727 -0.29827157 -0.38495335 -0.21195018 0.51691276 0.026646588 0.6830314 -0.6161279 -0.3143203 -0.3412124 0.16323574 0.26687598 -0.0073459554 0.013146941 -0.09642292 0.2152477 0.4894876 0.06802285 0.9782159 -0.60140556 0.1229184 -0.038976874 0.023933634 0.63107044 0.17259079 -0.05231864 0.013169553 -0.1285375 -0.08761446 -0.37718755 0.24610017 0.16075166 -0.28954476 -0.14370733 -0.20719674 0.30956224 0.056163933 -0.18496054 0.31995767 -0.32359263 0.9623148 -0.49044976
determine 0.16223633 0.4028095 -0.83680874 0.016764969 0.30780602 0.738808 0.88430756 -0.2644904 -1.2941681 -0.49575296 -0.26733804 0.7131614 0.8418666 0.011971634 0.36264846 -0.5654529 0.6134373 -0.22062854 -0.6741623 0.99286205 -0.014807441 0.4298851 -0.013005347 -0.38028106 0.58708656 -0.48355746 0.75155187 -1.2695296 0.47895917 1.530838 0.016303994 0.5573621 -0.76440746 -0.41336268 0.44221058 -0.3354264 -0.61532766 -1.3564405 -0.15817884 0.8523141 0.33314195 0.1936315 -0.4523879 0.36435694 -0.4246203 0.091323905 1.0953709 -0.80952865 1.1658553 0.25495297
whether 0.16536167 -0.88551164 -1.5393249 -0.00031947638 0.93625546 1.7967247 -0.08458059 -0.8668326 -1.9043291 0.5672767 0.32480317 0.42613354 0.23684797 1.0402162 1.2440916 -0.8691373 -0.47286996 0.22987908 -0.44360623 -1.1231418 0.38661376 1.2424357 0.010337277 0.10756658 1.5241336 0.6227735 1.3615881 -1.3038279 1.65585 0.4140968 -1.0413545 1.3204403 1.2516551 -1.9957461 0.00787014 0.042603243 -0.99969554 -1.3329846 0.5492592 1.705343 -0.19079186 1.5171912 -1.2349684 -2.0718415 0.5169382 1.8659917 -0.21529903 -0.20579134 0.8581154 -0.2738421
mad 0.4153687 -0.288981 -0.5528419 -0.7241433 0.7873787 1.0124297 0.97271115 -1.6626816 -0.16463707 0.2826113 -0.059561335 -0.4108203 0.918911 0.5346528 -0.21074899 -0.49280715 -0.013323118 -0.41396627 0.82225096 -0.16424842 -0.20909886 -0.5154616 0.8226647 -1.0708433 0.76635474 0.21957624 0.54860395 -0.82848084 1.1769787 0.1703371 0.39308074 0.6735052 0.8429769 -0.76460856 -0.21497208 0.85642123 -0.5075519 0.17765252 -0.5445623 0.7251834 -0.46793255 1.0210056 -1.7381506 1.2741522 0.7591047 0.7676989 1.2546417 -0.11084381 0.8466687 0.33822605
cow 0.14253804 -1.1508458 -0.43456253 -0.7785745 -0.21520609 1.4782381 0.6841885 -1.0476369 -0.09487781 1.0464207 -0.10854668 0.3813515 0.44378275 0.40389588 0.1251964 -0.47686192 1.0574766 0.15228859 1.2448875 0.024073306 0.010695185 -0.60118616 0.7838792 -0.28025845 0.9935381 0.3234051 0.4383795 0.10786956 1.0545027 1.1175131 -0.46494937 0.47047302 -0.032700893 -0.40063056 0.03464882 0.021805285 -0.6552726 0.38852254 -1.0693058 0.5306314 -0.7936355 0.26052484 -1.8181573 -0.04526818 -0.06507442 0.6069426 0.60908693 -0.15981822 1.2365047 0.43536162
disease -0.5456075 1.3376986 0.6514465 -0.80824834 0.73422074 1.5850434 0.33223742 -1.3178766 -1.0521708 0.7699819 0.14585645 0.4117069 1.131998 -0.3544381 0.33908862 -0.14982894 -0.37562433 -0.92553276 0.47975603 -0.75700593 1.1127431 -0.16362488 0.39409775 -1.1404803 0.786346 0.16813456 1.0997664 0.082950264 0.9995693 -0.4681106 -0.33003348 2.0866227 0.24471979 0.08259553 0.048049413 -1.7044683 0.2749321 0.73227173 0.5408963 0.9746502 -0.21968983 0.012269469 -2.0413263 0.41854173 -0.019092984 0.76367116 2.1014676 -0.05652687 -0.46114475 0.14750229
can 1.1796023 1.0801758 -1.4780266 -1.3907037 1.9801729 -0.4018471 2.2194605 1.0999376 -0.84760743 1.0159408 -0.8771841 1.7922604 1.313508 0.10230285 -0.55912834 0.86529875 0.114299215 -0.572189 -0.22545321 0.5563779 -1.0629863 0.28805798 0.74723285 -2.8386288 -0.150743 -1.3539736 2.5263894 -0.88351357 0.22182865 0.6193547 -0.1683773 3.0555212 0.2817815 1.1719427 -0.6683787 -0.57191664 -0.037489012 0.2549098 -0.08811882 0.47621226 0.3229743 -0.65160745 -2.4474144 -1.5433291 0.107357495 0.007384457 1.1204579 -0.6044534 1.7279352 0.85314554
be 1.7109919 -0.46638513 0.20657514 -0.58728206 -0.3201099 1.8924099 -0.92642075 0.28355086 -2.3084617 0.1917896 1.7981446 -0.5757342 -2.9967427 -0.74983525 1.8661267 -0.08278868 1.3975528 -0.87522197 0.27213356 0.6854203 -1.3538007 0.42870334 -2.485108 0.8999045 2.5657706 -1.2302878 -0.84710044 -1.8875823 0.29784554 -0.61405224 -3.5129042 1.8747052 -0.09793704 -3.876435 -0.032813895 -2.339297 -3.2266417 1.6477796 2.6748674 0.94104445 -1.2432841 0.7871177 -0.18315828 0.74846464 2.026608 -2.1270456 -0.07014863 -0.74516445 4.3687115 0.6585979
sheep -0.10902547 -0.19467902 -0.6609918 -1.140098 -0.2907709 1.2541807 -0.6835552 -0.16133256 -0.485532 -0.70357585 -0.806392 0.77200013 1.2010014 -0.025013572 0.5234919 -0.6439938 -0.0088888295 -0.57746595 -0.38754627 -0.8889056 -0.085901104 0.030442854 0.29139704 -0.5423549 -0.18424368 -0.5042929 -0.14056776 -0.39083886 0.33036315 0.6437108 -0.1465376 0.66765636 0.2661786 -0.8982626 0.21528359 0.12202097 -0.46913385 0.16756585 0.6326213 0.4031472 -0.8066976 0.1549568 0.16031322 -0.68684685 0.16725972 -0.9188347 -0.14793968 -1.2602307 0.4842003 -0.47698492
Germany -0.030100133 -0.49578944 0.33937973 -0.21155594 -1.9725517 -0.14060827 -1.1955231 -0.463907 -0.97571015 -0.77522826 -0.668363 0.6022362 0.12140825 -0.39248115 0.26359358 -1.0609431 -0.75547147 -0.9424413 1.4723072 -0.12747067 0.026240943 0.92426103 0.8712542 -0.6644964 1.3717355 -0.4735159 0.35805392 0.8703708 -1.3988692 -0.46647486 0.29124546 1.3448853 2.0624237 -2.2664862 -0.271724 0.43120718 1.683349 -0.38987398 0.56709194 0.6885371 1.4466563 0.9354953 0.024377547 1.280438 2.4240754 -0.52721506 0.8239738 -1.5795163 -0.31785628 -1.7837563
's 1.6715721 0.63534427 -1.3513275 0.1435435 0.7990306 0.8225183 -1.69119 1.3814883 -0.72892416 -1.5287838 0.3257678 -0.63902915 -0.5283313 0.09613404 2.7859042 -1.091629 0.35902032 1.0354005 -0.62103665 1.3059813 -1.0861481 -0.9210964 1.5306733 -1.774828 0.6146111 0.87020826 1.779076 3.117908 -0.5855666 -0.113952495 -0.3431326 0.15886395 0.13162503 -0.9621152 0.90991086 1.1208422 1.2240577 1.598677 -0.47186336 -1.1847848 -0.41497305 -1.6221043 0.26947704 -0.7863872 0.4637157 1.7572381 -0.35999072 0.19107167 0.83331347 0.2550619
representative 0.43121204 -0.3994517 0.256085 0.36937302 0.1486077 0.5897961 -0.027509412 -0.2959086 -0.25613105 0.4312058 -0.28467813 0.4321154 -0.26422146 0.5688804 0.17101768 -0.30660522 0.44286412 0.0679457 -0.6192478 0.046267398 -0.45326877 0.43331832 0.05236276 -0.03790723 0.46254477 0.13806912 0.14675006 0.069992885 0.15625235 -0.041187916 0.19691502 0.04637089 -0.5163851 -0.16258065 0.027648713 0.06429551 0.023054184 -0.1653249 -0.19842261 0.5108203 -0.3783196 -0.022337373 -0.011850173 -0.39929873 0.5126726 -0.32556102 -0.12203396 -0.012153874 0.6509734 -0.35289946
the 0.19570924 0.6620452 -0.4374201 -0.7321328 -0.56386036 -1.0835711 -0.20252456 -0.6240724 -1.033424 -1.2518208 0.33030713 -0.27637517 0.8988524 0.73814255 1.0989444 -0.55406255 -0.19080524 -0.100771576 -0.20118204 -0.12844233 0.29506418 -0.14327948 -0.49573973 -0.9727376 -0.13030648 1.0275168 0.76141167 0.31494007 -0.7335128 -0.4216135 1.1826824 0.0644567 0.09006557 -0.54537773 -0.16603576 -1.1241088 0.30722183 -0.29078293 0.32670596 0.4155521 -1.3908204 -0.8115815 0.7329452 -0.013973335 0.05810381 -0.4508385 0.46416155 -0.16202573 0.7658369 1.0275408
Union 0.6153293 0.7191349 -1.2460765 0.7907332 -0.5603195 0.054704465 -0.08814997 0.012123637 -0.15100974 1.3019239 -0.12911473 -0.60595936 -0.2372595 0.4454999 -0.2088735 -1.6967071 -1.7328297 -0.76193154 -1.1410818 -0.290405 1.3364245 -0.56555915 1.129486 -0.14355583 -0.44048232 0.41979524 1.9491173 -0.396261 -1.9996505 -1.8986737 2.7050595 -0.59813225 -0.80037856 0.57377315 1.4669275 -0.43033245 2.978015 -0.17310847 -0.95083624 0.0713466 0.14937781 -0.1518942 -0.64778244 -1.2657282 1.7467647 0.27140465 0.6091827 -0.877294 -0.337194 -0.07094317
veterinary 0.19635405 0.24201728 -0.79038393 0.2654948 0.21838103 0.23975106 0.4073889 -0.42280474 -0.93698233 -0.33079535 -0.54435635 0.47260046 0.81307495 0.14198053 -0.01713751 -0.28010476 -0.15722604 -0.1015 0.28171134 -0.287341 0.2023398 0.3923481 0.95997113 0.4506432 0.27668297 0.5199603 0.72837377 -0.5760698 0.08130283 0.32691598 0.3143131 0.2605121 -0.13793227 0.25000232 0.044925086 0.26067737 1.0189635 -0.11573668 -0.034574248 0.51445585 -0.23099464 0.5445914 0.12571062 -0.12858352 0.26284721 0.33735555 -0.08052645 -1.0357822 0.8020211 0.32370117
committee 0.82937443 1.3047758 -0.016606528 -0.0050728708 0.52682275 0.7985114 0.41634247 -0.2734104 -1.941966 -0.08493239 0.05678731 0.10555358 0.2405836 0.0837674 0.59852576 -1.2252237 -1.0630467 -0.09469094 -0.5567019 -0.6275942 -0.04673363 -0.13657533 0.012136393 -0.2158618 0.44482177 0.63199556 0.8205389 -0.7532134 0.045037676 -0.6810457 0.0065391744 -0.17129745 -0.05036685 0.35038874 0.9237348 -0.047277994 0.51522934 -0.28626704 0.73718786 0.06173587 0.87307274 0.13286155 0.20987657 -0.8430086 0.45147827 0.27238142 -0.36739627 -0.6576352 -0.057447746 -0.31837875
Wednesday 0.3541685 0.8450405 -1.318167 0.55441225 0.24700102 -0.4554317 -1.5462517 1.6850841 -2.3605986 -2.8603125 1.7525911 1.947194 0.40188903 -1.0031673 0.49375674 -1.4113067 0.58300936 -3.4268296 -0.15936221 0.09479212 0.5712583 1.2192708 -1.2078109 0.05019065 1.9620959 -1.367901 1.7551537 -2.7785296 2.6883729 -0.8643336 1.1286668 -0.14554442 1.1748558 2.581289 -0.23952544 -1.1049477 0.40719298 0.52517855 0.8841658 0.7234399 -0.58112985 -1.841931 1.7893507 0.6144088 0.9103411 -0.2565084 -2.2196085 -1.4303708 -0.13379389 -1.9715862
should 0.25940633 0.5558131 -0.49038854 -0.45693073 1.7984694 -0.6293849 2.5810108 1.4595146 -1.4141669 0.35184938 -0.24074043 0.6794053 0.50666565 1.4532211 -0.16311345 1.1780987 -2.0110502 0.4987682 1.0017041 -0.56146765 -0.72294194 0.5813878 1.2555486 -2.084216 0.08322528 -1.6624433 1.723519 0.68478924 0.6086773 1.1850401 0.5829389 2.0769691 -0.29129544 -0.03207093 -0.020534748 -0.5449493 0.7783033 0.61628103 -0.3815414 0.26542017 1.1393974 -0.99414164 -0.39137146 -1.0939953 -0.13570988 -1.2290767 0.54450077 -1.9064476 0.4629452 -0.350855
buy 0.43712258 0.28667584 -1.3407689 0.6240076 0.06586087 1.285379 -0.4834596 -0.7383322 -0.1548561 0.20533904 1.01545 1.6559286 0.5435866 -0.8644011 0.48798686 0.282622 1.8550593 -1.3831177 0.060832396 -0.06402553 0.19188571 -0.42608523 -0.7418227 -0.37107214 -0.06871488 -0.72503287 -0.06524186 -0.7728192 0.017927831 0.62119174 -0.20147146 0.83145505 -0.93275005 -0.557102 -0.4433333 0.08453223 -1.2567675 -1.2335933 0.7627764 0.39302447 -0.88297564 0.4665815 -0.26437587 0.95200056 1.1354829 0.56656563 1.1126515 -1.1088742 1.113991 0.6770303
from -1.0236365 2.143185 1.4000232 0.43161392 0.14597319 0.2792778 0.22733538 -2.5074239 -1.1315616 2.8246121 -1.1896074 3.0503848 1.6893605 1.2390432 -0.5132202 -0.2323784 -2.2112713 0.59012216 -1.0156653 -1.0758743 -0.7104408 1.2093308 -0.8150393 -0.6666402 0.96932435 0.69596547 -1.6414341 -0.86102104 -2.7136285 1.044064 1.8813281 -1.4193307 -1.4777607 0.7598084 -0.8001963 -1.8777745 -2.1480122 0.7417278 -1.8118769 0.5951117 -2.4405835 -0.23769732 0.9477179 -0.60759383 -0.22763821 -0.4985134 0.008074552 -1.3501153 -0.63511014 -0.5240677
countries -0.9783251 1.2207695 -0.16645077 -1.2724098 -2.3870482 0.07695975 0.14603631 -1.2786258 1.231834 0.98445904 -0.18453133 -1.7459866 -0.416929 0.2562322 0.7290435 0.10545621 0.5764877 0.06560169 1.4291512 -0.7033347 -0.27656263 -0.32181802 -0.007825538 -0.6892258 -0.34851813 -0.007909138 -0.09929422 -1.7851574 1.1823866 -0.048806652 0.5870948 1.5444511 -1.0803087 0.16418763 -0.27319354 0.021617495 -0.65491325 -0.0033522495 -0.7544068 0.39341208 -0.7440989 0.7156822 0.011443903 -0.00877005 1.7025764 0.030536449 1.1694769 -1.0377637 0.43214083 1.5320169
other 0.72097605 2.3818514 -0.08047748 0.14114775 -2.0458078 -0.5386563 0.09807152 -0.0027758782 0.46319005 0.25075832 1.2325616 1.4148213 0.6024071 0.411142 -1.1142814 1.1075634 1.2671258 -0.6868542 1.2033625 -0.9539937 -0.35546598 -2.4371328 -1.8244895 -0.6001013 -1.6703025 -1.3760254 2.2521596 -2.3237486 2.1831398 -0.67467725 -0.9711899 1.4709288 -0.9191842 -1.384385 0.8196966 -0.39929226 1.471489 -0.14837542 -2.5560381 -0.038588583 -1.0581374 0.04740079 -1.3918858 -0.82461685 1.5864471 0.73907864 1.6842479 -1.8198926 -0.3677315 1.1216298
than -0.03536498 -0.13723451 0.41653293 -0.52024966 -0.7292602 2.1320927 0.30676627 0.10793536 -0.36840722 1.0242437 -1.4463056 3.0964181 -0.3805359 -1.8545737 1.7129451 3.0728729 -1.2749107 -1.3181975 -0.52280074 1.2074395 -1.0809532 -2.8688128 -1.7059001 0.02500552 0.3238724 0.89933157 1.6022705 -0.87286794 0.8187469 -1.2566683 -0.8276549 3.0401683 -1.2262739 -1.949665 0.17811655 -2.0507553 -2.8535316 -2.413015 -2.5433176 -0.09319452 -3.3618379 1.7341552 -0.5712797 0.8678035 1.468366 2.3938866 -0.684199 1.4760083 2.2975545 -1.7141668
Britain -0.22295421 -1.6281437 -1.3613057 -2.9110498 -1.179056 2.32275 -0.69727963 -0.019516185 -2.3123162 0.5814966 -0.8664227 -0.37970164 1.6026787 -2.108849 1.3869433 -1.1412934 -1.1393176 -0.77221125 -0.20161971 -0.27257892 -0.039498206 1.9760354 0.6854433 1.1750079 2.5689473 -1.2286519 1.1931908 0.05441428 -0.7861653 0.828344 -0.62448305 1.1094747 2.056644 -0.95229393 -0.32069385 0.5646007 0.9033672 -0.31211242 0.08542673 -0.5219914 -0.6137987 -0.055996515 -0.6579122 2.6588604 2.337321 0.22495009 -0.70558214 -0.8315041 -1.3248905 -0.22311185
scientific -0.09200138 0.37366563 -1.1785294 0.19363707 -0.01650791 0.578285 0.28298953 0.028231109 -0.50058216 -0.26391935 -0.8013876 0.26832232 -0.07387134 0.2820424 -0.28315678 -0.32031676 -0.37392777 -0.5472356 0.119067416 -0.15979545 0.4787505 0.17090094 0.2868114 0.32252476 0.899293 0.4222387 1.4090776 -0.11256818 0.15496089 -0.21052949 0.6240168 -0.33111218 0.36620057 -0.47839707 0.661943 0.78440356 0.8130505 -0.40185314 -0.21969666 0.48812178 -0.4713273 0.32183734 -0.42846358 0.3065625 0.384608 0.31451312 -0.0008018684 -0.69049203 0.76076 0.0015329643
was -0.6179445 0.11420525 1.8347322 -0.48724604 -0.4160915 -0.6953463 -0.21889497 1.6371492 -3.2885566 -1.039433 1.6344873 2.0583198 0.036631346 0.22046658 1.0524343 -1.5740334 -1.2885035 0.8602551 1.5364416 1.0726259 -0.4094816 1.368714 0.5013061 -0.357904 0.577257 -0.060289726 1.5728838 -0.852734 -2.549488 1.1563563 -1.9976737 0.043078214 -0.6219888 0.40955898 -0.6881982 -0.8631973 -0.9415684 -0.9758092 0.18800612 -0.6282712 0.99981546 0.3810499 -2.1013968 0.33060804 -0.69397795 -0.93436664 2.2750795 2.0168362 2.4324837 0.6050977
" 0.7955204 1.4736724 0.03251063 -0.7041585 -0.38620356 -0.22871247 0.75375086 -0.6364884 -0.80384135 0.043624073 0.8557653 1.038006 -0.917701 0.37238073 0.3426529 -0.60119903 -0.4205466 -2.1287084 -0.1870171 -0.7786556 -0.5505776 1.8357608 0.47078937 -1.7474908 0.60793245 1.5957624 -0.48220372 1.2083911 1.4219991 -0.6913796 -2.1454535 0.07166497 0.35750574 0.5641636 0.4312879 -0.67067754 0.5353611 0.047104865 -0.39186338 0.052779365 -0.2204617 -0.6471658 -0.45080763 -1.6692812 0.7026143 1.4957559 1.703269 0.15763977 0.23262076 0.32386404
We -0.15912268 1.9586164 -0.21303165 -3.3945334 2.4974887 -1.3139802 2.106006 -1.8959819 0.010857361 0.044159457 0.3490869 -0.8462574 0.32756475 1.3161418 0.6955388 -1.389926 -0.7875869 -1.2273985 0.92719 0.78215694 -1.7715037 -0.4198878 0.5880654 -0.26687634 0.09466933 1.3951141 -1.6355357 -0.5982362 1.8660083 -0.3357686 -0.52470297 0.5334729 -0.036481984 -2.1752958 -0.67633724 -0.89809865 0.280469 -1.1114666 1.0068734 1.4386946 0.6115772 2.3836176 2.153824 -0.24441083 3.2415636 2.0793846 -0.9662314 -1.41756 2.1228962 -0.6069843
do 1.5262455 2.098648 -0.9354655 -0.47483444 0.8773348 0.79546577 3.6034803 -1.8620416 -2.7081666 0.33322632 -0.23644225 -0.26072136 -0.11641584 0.7705547 1.2395334 -0.6156585 -0.86309665 -1.4160935 -0.49487913 0.6319556 -0.28378803 0.7686422 0.18860608 -1.4837527 1.3228123 -0.90098774 -0.5315494 -1.2034765 -0.56206304 2.4122036 -2.2702894 2.304868 0.4406331 -0.6076508 1.4185767 0.016870381 -0.38708058 0.5861406 -0.6989946 2.1603928 0.6478144 2.623951 -3.251374 -0.43587 2.181915 0.8546421 0.124205105 -0.37770048 1.1755947 -0.97830373
n't 0.5928054 0.05420173 -1.3913018 -1.137562 1.3248557 1.3491818 4.1023397 -0.8620073 -0.025732456 1.7733637 0.06723505 1.508034 3.3037972 -0.2544833 1.1332803 0.7729982 -1.2704113 -1.3499134 -1.9095852 -0.7670608 0.9653136 0.14022025 -1.2422554 -0.84501076 0.46110514 -1.2142975 1.147576 1.0088694 1.200287 0.8580024 -1.0549214 3.59262 1.495054 0.39215463 -0.73222715 -0.11571983 -1.0476714 0.27523237 -0.54271394 3.930183 1.5652354 0.91404605 -1.3099961 -3.3990228 2.1132598 2.1139061 0.35622734 0.37890702 3.2746463 0.4518083
support 0.866063 -0.065678135 0.2660441 0.04644281 -1.1849453 2.0531306 0.14380537 -0.649925 -0.005717146 0.52399516 -0.20556602 0.20511493 0.3323601 0.36517325 0.7409634 0.38749483 -0.5503823 -0.7135197 -0.63100064 -0.45646334 0.08606998 0.90924126 0.27704364 -1.9662839 -0.13111569 -0.027424727 2.0374243 -0.6006068 0.9728652 1.1818742 0.5095083 0.58157605 -2.0736883 -0.5658991 0.799397 1.0309361 -1.3360026 0.1382727 0.6364998 2.509444 -1.3205278 0.15958789 -0.3347258 0.20708705 -0.038080428 -1.018798 0.9846292 -0.12511207 0.37183344 0.3943544
any 1.1595119 0.3316158 0.51208913 -1.2404234 0.50871384 0.47247943 0.9609552 -1.3461233 -0.802079 -2.2709632 0.8492191 -0.720049 0.40343118 1.9341449 2.132281 1.8478056 -0.734241 -1.3136631 -0.30761832 -0.8331603 1.0504123 -1.2754167 -0.038359605 -1.5736979 0.19370295 -0.10199072 1.444935 -1.205687 0.733131 0.34076625 1.8781327 1.2497408 -0.1476468 -2.0041814 0.3915949 0.17410341 -1.0899733 -1.0308946 0.23381193 0.78691167 -0.7067943 0.8010601 0.32279083 -1.0727235 -0.035362553 -0.020176688 2.1277778 -0.15306519 1.0875359 0.84056926
such -0.41517103 1.1546929 -1.3331757 -0.17271867 -0.45624578 1.0891942 0.45038605 -2.1339366 -0.19983307 0.67507493 1.7883576 0.68827116 0.47460023 0.63352877 1.2629545 0.2789017 0.85935533 1.0447136 0.7560356 -0.6755755 0.62554157 0.7667505 -0.1545075 -1.7844881 -0.032497767 -0.2989904 0.50831616 -1.3673606 -0.3617038 -0.9024323 -0.10416265 1.2424225 -0.06295159 -1.0121603 0.4797987 -1.4280385 -0.11670795 0.02569204 -0.9577783 0.25588188 -0.41017875 0.6487703 -0.04287751 -1.4934283 0.1940021 0.45936805 0.28047255 -0.06633738 1.9852959 -0.021826753
because -0.29178482 -1.0084362 -1.9128727 -1.4218903 0.6353565 0.20443602 -0.24565072 1.100987 -1.520807 0.78160375 2.4930928 0.62144023 0.14536636 0.47687215 1.1806668 0.9230505 -1.8642612 1.1401325 -0.03659871 -1.6328789 -0.36034438 0.6943766 0.920225 -2.406477 1.8784802 2.0510743 0.4975533 0.046001025 0.3874257 -0.7253648 0.93282926 0.9021108 -0.17300436 -1.2869258 -1.6109102 -0.35719708 0.59304804 -1.8563695 1.3893071 1.0954336 -0.8249424 1.6108301 0.9219902 -2.399888 0.2798727 0.17703675 -0.25616485 0.115803756 0.0305129 -2.3877225
we -0.4626292 3.0850396 -1.8532823 -1.4043285 0.373072 1.5452828 3.9161508 -2.8670304 -1.0929168 -0.6738887 -0.72582823 -0.56980836 1.7965295 1.7875869 1.3880434 -0.50063276 -0.35471532 -2.9863632 -0.21824901 0.3247341 -1.362005 -0.42817098 0.4694567 1.0667655 0.16320917 -0.041358594 1.6255819 0.15040538 -0.92113 -0.0532595 -0.88945335 2.95957 1.0499092 -3.1651087 -0.2193155 -1.7118666 0.33417034 0.46978298 0.95569235 0.12678568 1.0281594 0.62551653 0.5064247 -1.9797237 1.3542356 0.80856687 -0.13861224 -1.3513837 2.0842597 0.44920406
see 0.93931717 0.41351134 -0.8527261 -0.26823047 -0.2048976 1.2710308 1.9189972 -0.72120696 -0.7146591 0.80596805 -0.4331157 0.9347806 -0.60599655 -0.20936924 1.1462098 1.4028441 0.8692634 -0.32359266 -0.6977218 0.27727398 -0.637514 -0.131806 -0.31060347 -0.28241444 -0.37471858 -0.18972695 0.5116953 -0.24002787 -0.5673747 1.7643545 -0.16791119 1.633136 -1.1183686 -0.38257754 0.14733477 -0.26072347 -0.6857089 -0.7798312 -0.3897138 1.0124984 -0.219948 1.2162347 -0.57143104 -1.20263 0.64658576 -0.0050994605 0.74249 -1.0810921 2.265577 0.48550662
grounds -0.10408319 0.11566473 0.07652331 -0.30456766 0.3106982 0.27724305 -0.11707244 -0.02098749 0.13528201 -0.3937347 0.088804424 0.2759643 -0.23653603 -0.25785455 0.3635104 -0.5004436 0.3816116 -0.004324944 -0.15264845 0.11320448 -0.03131849 0.25427705 -0.73609704 -1.5043572 0.6634418 -0.04233707 0.81269866 0.12748978 -0.21887264 0.34602854 -0.023208361 0.08321867 -0.10882473 0.3542872 -0.14233446 -0.19070654 0.13451447 -0.02451643 0.024373438 0.33114123 -0.32964838 0.46325323 -0.108892396 -0.039111048 0.34700608 -0.6074943 0.047371436 -1.1478721 0.11512081 -0.21894099
for 0.49336416 0.100400135 1.2069874 0.32951906 -0.19794221 1.2510766 1.987333 -1.1239165 -0.12969296 0.31780633 -0.40019828 0.36287755 0.81428456 -0.03934337 -1.1796398 -0.02394043 0.45819527 0.3722891 0.7036607 -0.8393384 0.926158 0.034383096 -0.35808516 -1.7011231 -0.19858074 1.0907534 0.9487808 0.63036084 -1.1523066 0.29246324 -0.29479235 -0.86326844 -1.0651993 -2.097054 0.18624564 -1.3648679 -3.1913393 0.72839147 -1.4766316 1.3772293 -1.5572677 -1.9595402 2.4833515 -0.7146881 -0.21692935 1.5940166 0.28650615 -0.5870363 -1.3655837 -0.71487695
, -0.14357126 -0.3961703 -0.30977955 -0.7686991 0.1330942 0.59826577 0.72338086 0.008922906 -0.3309914 -0.46741444 -0.25935906 0.256404 -0.58025295 -0.5134044 0.14337322 -0.8066597 0.5630879 -0.20464066 0.0014952336 0.45384565 0.55062133 -0.2120324 0.6509297 -0.5586662 -0.43478966 -0.42022172 -0.10533349 -0.52065784 -0.09789081 0.16895032 -0.25015953 -0.2874098 0.2993094 -0.50892663 -0.047722112 -0.72737837 0.679724 -0.8090647 -0.894742 0.10187895 -0.46758646 -0.04109997 0.39747646 -0.28354532 0.66375893 -0.16319008 -0.37352213 0.8463636 -1.0804455 0.37342817
chief 1.8475256 -0.6944074 0.2707234 -0.5341698 -0.8538654 1.8154517 -1.475918 -1.3547771 0.41708738 0.06054916 -0.7113261 0.5485046 0.96173567 0.07738808 0.6361927 -1.1658728 0.9144577 1.1277921 0.5216221 -0.6691621 1.9887041 2.108132 1.4372122 -1.5404822 -0.29698128 -0.044920206 1.4544723 -0.616204 0.5678609 0.062301405 -1.1017078 -0.30451232 -1.0188687 -0.084117696 0.21620077 -0.3989609 2.2704086 0.23987961 -1.7673339 1.12683 0.09036084 0.61970526 -0.994932 -1.9299445 0.72631174 -0.20794204 0.7366291 -0.09455258 -0.37679827 0.7292128
spokesman -0.6954567 -0.1830086 1.2467334 -0.30423772 -0.60078204 1.2518167 -0.5183195 -0.081007935 -1.5030494 -1.1562222 -1.9023532 0.06741773 -1.7869663 -0.00434768 0.7572043 -2.9118886 0.8828927 0.13667014 -1.0577748 -0.37538022 0.25634378 3.8102856 -0.44071138 -1.1547515 -0.8418799 -1.1481205 2.0249887 -0.2846328 2.8719387 -0.74566656 -0.6227238 -3.3803585 0.5264619 2.1188097 0.40118742 -2.388906 1.194126 -1.5848864 -2.9364982 1.0550646 -0.8992077 -0.4089704 -0.8080641 -0.6142011 1.9000216 0.28008476 0.78520554 1.5589162 0.75743985 0.3738259
van 0.25691512 -0.6180707 -0.009075855 0.6160981 -0.6388717 -0.7228006 -0.9008646 0.6386884 -0.46802762 -0.84914714 -1.1187382 -0.67680347 0.5766202 -1.3223171 0.69852424 -1.6871421 -0.8276492 0.07088534 -0.40069807 -0.19666319 -0.080559485 -0.1521494 -0.12528493 0.2622735 0.23505056 -1.0259193 -0.44425863 0.1608112 0.03523684 -0.51039225 -1.0368208 -1.1300528 1.0969528 0.37006664 0.7230173 -0.19101995 1.2404454 -0.13966928 -1.3168579 1.0151966 1.1098938 -0.7978481 1.1539128 -0.30702722 0.22975919 -0.5286066 -0.27956536 -0.3200481 -0.16545135 -1.0654017
der 0.016387714 -0.36437193 0.42172173 0.4087219 -0.15027258 -1.1984198 -0.8758044 0.7763825 -0.47780007 -0.8736952 -0.611128 -0.5008695 -0.33684102 -0.9987873 0.593178 -1.4671909 -0.49642643 -0.12214212 0.25861308 0.324457 -0.86656564 -0.09051682 -0.08432919 -0.22340474 -0.053032946 -0.7288332 -0.2915773 -0.49285293 -0.12068139 0.11557585 -1.1556671 -1.1961457 0.48704416 0.76578045 0.3247269 -0.226902 0.41307485 0.33191496 -1.0174046 0.17593206 1.1608254 -0.47343573 0.2756144 -0.32944775 0.93503654 0.1947291 0.51668954 -0.29652882 0.08594278 -0.66273785
told 1.5762817 0.7491331 -1.7276679 2.371373 3.4179158 0.054715417 -1.027507 -1.0450203 -0.22667597 -0.025910636 2.6801217 -0.1067562 2.0031223 -1.0396452 0.04072337 -1.501513 -1.7580476 -0.39849538 2.2915752 -0.8385082 1.7884343 2.984436 -1.3877703 0.44834152 -0.10761467 1.605024 0.7440912 1.220032 3.3150327 1.5974498 -2.4195719 -1.1528594 0.036848113 1.0656502 -1.0881269 -3.8146958 2.227435 -1.2709304 -1.7959213 3.0824096 -0.84943247 0.075716704 0.6465895 -4.743654 0.106581785 -0.36607367 0.2998226 1.1269813 -0.94905746 0.25275218
a 0.25615823 0.42839107 -1.0782393 -1.7954252 0.16438319 -0.16349384 -0.97632223 -0.36817947 -0.6875874 -1.3272231 1.1821678 0.26417518 0.25470933 0.16894622 1.0861154 0.09773872 -1.3896267 -0.9678784 -0.85282815 -0.5119224 0.31823522 -0.9675198 0.36104348 -1.9136255 0.6812713 1.4222031 -0.22988209 -0.13901679 -1.3988256 -0.119814835 0.001412316 -1.0948148 0.04217675 -0.37668765 -0.16502357 -1.0084788 -0.7036984 0.5796663 -0.6142003 0.0592173 -0.86875176 0.010059626 0.50228745 0.4121343 -1.330032 -0.05423716 1.2120169 0.527003 1.3070003 1.09887
news 2.7009466 3.7002184 -0.6608315 0.9564924 1.3460374 1.0912513 0.024800269 -0.48391664 -2.013914 -1.4322155 0.04819194 -0.18711457 0.07690994 -2.0516312 0.86496294 -0.70177805 -2.2228193 -0.7811681 -0.26000914 -0.2570637 1.3860809 0.72744 -0.8738875 -1.2471626 -0.22819474 1.6709206 0.7858797 -1.6498425 1.6423029 -1.4447672 -0.24662276 -2.6031442 -2.1586697 -1.136273 1.3614997 -1.960556 0.88992673 -1.414559 -0.19845754 0.75506395 0.66673356 -0.18983269 -0.17920396 0.020062355 -0.5118905 -1.633103 0.28772843 0.7917663 2.8320162 0.040024664
briefing -0.070673026 0.3077499 0.03093509 0.9364629 0.23568141 0.5361374 -0.14280146 0.12727475 -0.5136316 -0.46502826 -0.037811767 -0.047542065 0.34371647 -0.1891184 0.36380893 -0.92824244 -0.43537965 0.04353032 -0.11606692 -0.004885733 0.26621887 0.015304312 0.08086582 0.070874795 0.7080992 0.4171906 0.43552554 -0.1641587 0.30125472 -0.6364654 -0.61236125 -0.63897586 -0.5105575 0.3868111 0.80263966 -0.9370912 0.49419057 -0.4014645 -0.56214046 -0.06535493 0.29635248 -0.4156792 -0.16742381 -0.09606368 0.16227944 -0.40630198 0.32832426 -0.50424564 0.71904814 -0.13674201
He 0.45968977 1.6695119 0.05617078 -2.4428613 -0.46607226 -1.351501 0.87583643 -1.4116547 -1.1604115 -0.07360001 -2.6144779 -1.0565407 -0.75377464 -2.7287362 -1.3889741 -2.4016519 -1.4181179 1.0368737 0.3627516 -0.63996613 -0.38987386 0.21119314 -1.7545729 -1.7814487 -0.083667256 2.113278 -1.6727744 -1.9124262 2.4748237 -0.7932554 -0.04686785 -1.132892 -0.8022121 -2.4202034 -0.6251577 -0.46850646 -0.17097546 -0.36516714 1.4903256 0.7749096 1.1699058 0.43776312 1.8512375 -0.13584188 0.7336424 -0.47364125 1.8537955 1.5652057 1.9029372 0.30478075
further -0.57235354 0.82923555 -0.07900412 -0.24377078 0.6545666 1.2272924 1.2656635 0.11087366 -0.8421875 -0.53063464 0.5689671 1.7008661 0.13898566 1.0171264 0.31274632 -0.5406463 1.0168536 -1.1023694 0.8830741 -0.56512576 1.7004564 -0.26088443 -1.1880132 0.28896022 0.19980934 -0.99809474 0.53779995 0.49338868 0.17301768 -0.04054473 0.07310242 0.53846836 -0.40297958 0.36485988 -0.60973835 -0.533185 -1.111137 -0.94674736 0.9312655 1.0894862 0.23539092 -0.003488203 -0.1321421 0.06719003 0.98638356 1.2019025 1.583626 -0.9263409 2.8045986 -0.26433086
study 0.45924494 0.20865206 0.16398504 0.7043826 -0.25267938 0.898489 0.39014116 -0.26722178 -0.043524228 -0.12661098 0.029193347 0.6650777 0.2800028 0.18959476 0.28201985 -0.30883655 0.007891527 -0.49060777 -0.26527375 0.09057627 0.04566304 0.12170259 -0.6606359 0.21501376 0.17412405 0.335712 0.22925323 0.15331331 0.91623855 -0.64862543 -0.12291877 0.058234133 -0.25301227 -0.30488467 1.0687997 -0.31895295 -0.27765238 -0.5604279 -0.21711609 0.048390593 0.023874717 -0.16343088 -0.29173595 0.18871194 0.4677263 0.38354558 0.51876664 0.18387912 1.2827417 0.06536497
required 0.43797466 0.50781786 -0.73204345 -0.12901905 0.050684225 0.12591462 0.6585548 0.38678312 -0.06736091 0.3486358 -0.38066846 -0.079890646 0.42475775 0.2572023 0.4674993 -0.55805266 0.39929083 -0.8322799 -0.51647633 -0.4224357 0.90233034 -0.03980949 -0.20719463 -0.99879646 0.09097277 0.19010776 0.64424646 -0.47245288 0.27081734 0.40525806 -0.5606473 0.6262711 0.13243225 0.057846356 -0.19438888 -0.5494903 0.18256637 -0.0009444388 -0.22906576 0.43828723 0.24723136 0.055388875 -0.44683895 -0.02143635 -0.10699893 0.00036085478 0.38377252 -0.16836226 0.7339991 0.46596515
and -0.5636484 -0.12661682 -0.7173701 -0.44928783 -1.2573049 0.47204894 0.031908903 -0.59927106 -0.106334925 0.5723897 0.34366423 0.29234323 -0.537436 0.6953644 -0.119706266 -0.22398268 -0.08353981 0.5655027 -0.17100105 -0.7870972 -0.25620884 -0.67189205 0.76433617 -0.7586296 0.049424857 -0.38385245 -0.033075683 -0.98166597 0.05690121 -0.18785916 0.058028843 -0.30152538 -0.21456723 0.07105015 0.14370136 0.03944315 -0.48276874 -0.8477219 -0.916285 1.2846255 -0.78568333 -0.25275525 0.30129874 -0.31692114 0.024260726 -0.40176037 -0.5796152 0.38616914 -0.10342655 -0.16693345
if -0.2322605 -0.6470504 -1.7828008 0.48780563 -0.38429493 0.87011755 1.3911655 0.34583887 -1.7054945 1.0305027 0.032159206 0.85768557 0.23335816 1.0155843 0.6987234 1.0995677 -0.26466852 -0.60272336 0.12919821 -0.9920623 1.5941098 0.52061135 0.4463557 -0.73629 0.89528847 1.5055496 1.5457313 -0.5492799 1.2109141 0.02967534 -0.40243596 1.1583737 -0.8499971 -1.9611986 -0.6293708 -0.6557596 -0.7378304 -0.13113926 0.9149034 1.5072582 -0.47078827 0.32261676 -0.07095958 -3.227962 0.47932062 0.04098242 -0.6494357 -0.32713905 1.0292712 -2.1620533
found -2.209297 0.009953803 0.8786448 -0.56162745 -0.3565067 -0.9449978 -0.59293586 0.58073825 -1.4752922 0.3403697 -0.61078984 1.7588531 0.68048126 -0.788073 0.61065406 -0.2655079 -1.0388359 0.30568132 -0.21469784 -0.29006404 1.9150246 0.3589625 -0.18906203 -1.0711863 0.8503319 0.40106714 0.89178807 0.4849041 0.7354635 0.57217556 -1.800514 -0.5448432 -0.21600467 -0.81544316 0.15798153 -0.7495929 0.93978137 -1.4654318 -1.619116 1.275027 -1.4508572 0.88535637 0.48684534 -0.57334715 -1.1273795 -0.29502755 0.700531 0.93671244 -0.49126542 -0.8352567
that -1.7319378 -0.22521158 -2.352788 -2.4519491 -0.46851426 1.9243206 1.1663476 -1.0884504 -1.8859696 -1.2355593 1.0335406 -0.001535681 -2.2309911 -0.8152643 0.11450173 -1.5070184 0.77642834 0.35454124 0.5378508 -2.8876839 1.4458514 -1.2235575 -0.54962903 -0.7309015 0.7266605 0.585217 0.6035975 -0.7522006 1.0605383 -0.44022968 -0.52819085 0.85933936 -0.90230936 -0.99873984 1.0133301 2.1161616 0.5572152 -1.2379348 0.8044337 0.039240487 1.1575463 -0.44037858 0.05127431 -2.3513863 0.6519519 -0.8281403 -0.15525249 1.008074 0.6732828 0.009573706
action 0.90159965 0.056890894 -0.3092254 -1.119924 0.0021432678 0.088292144 0.21431531 -0.619383 -1.1528451 -1.8088408 1.7780415 1.6104989 -0.05737384 -0.8437429 1.550764 -0.06684257 -0.9441725 -0.37431213 -0.07371869 -0.040540826 -0.04668229 0.033991642 0.34446612 -1.711327 -1.0910296 -1.1832559 1.7753978 -0.7192812 1.357004 0.5308308 -0.2710284 -0.12620796 -0.31308478 -0.3959582 0.18956923 -1.0951632 -0.91339713 0.24764739 -0.20866469 2.0317628 0.50527275 0.2943624 -0.18712121 -0.056458343 -0.20188448 0.8806538 1.2551928 -1.6294141 0.5660815 0.3421852
needed 0.1289907 -0.43135813 -0.56800514 -0.91991603 0.539811 -0.3296216 0.18465775 1.4309158 0.17335092 0.4117665 -0.047028344 0.8282541 0.1893462 0.11814604 -0.398462 0.099528834 0.2115601 -0.38797948 -0.65102357 -0.043831788 0.28020167 -0.99877214 -0.034194257 -2.3552961 -0.56507415 -0.051161148 1.0639478 -0.5442142 -9.108798e-05 0.19636202 0.14948902 1.0439343 0.3669745 0.1996206 -0.88734055 -0.16222109 -0.6583333 -0.20569438 -0.15319245 1.3948247 -0.75871176 0.4781604 -0.18557914 -1.252639 -0.13280217 0.59984845 0.7561 -0.25796992 0.27953598 1.2232821
taken -2.509794 0.980945 -0.2689196 -0.63064784 2.0129302 0.06527679 -0.25033224 0.4063907 -0.5774959 0.19147217 0.74185544 0.48596552 1.5487897 0.8317065 1.6830717 -1.7875098 -0.73902464 -0.28228033 -1.3369039 -0.82302386 0.9003695 -0.54719335 -1.3331034 -0.821709 -0.5826733 1.0178976 -0.4090191 -0.5962116 0.17071141 0.4236436 -0.8507839 0.13500452 1.1764829 -1.377845 -0.5797354 -1.3513143 -0.23874606 0.4175796 -0.6074386 0.34100303 -1.4261519 0.3455328 -0.0868591 -0.8846618 -0.640662 -0.53478503 0.00341622 -0.53321296 0.7308071 -0.57454485
by 1.0238217 -1.5780748 -0.062461894 -0.4139651 0.29426166 -1.0875525 -1.9185151 1.5788116 0.55044603 0.7145357 -1.2766991 1.3905612 -0.90887827 -2.8268976 0.57165956 0.75689054 0.6351681 1.1883767 -0.8311372 -0.6320065 1.3938715 2.1862175 -0.08669769 0.6128949 3.2730742 2.0931754 1.2660052 -2.983907 0.32169804 1.6962308 2.3465886 0.17361303 -1.222038 -1.84857 -1.5433706 -2.5766222 -0.044211984 0.53900856 -0.02436594 -1.5663612 -1.2388356 1.12798 0.18562439 0.06743256 -0.3097965 -0.5339192 0.44188568 -0.15679498 -0.9803426 1.7755779
proposal 0.23648703 0.6474186 -0.15841313 0.5863882 -0.33104488 0.7401804 -0.04837222 0.012295896 -0.84173405 -0.1569019 0.70695776 0.682125 0.06451555 -0.50117767 0.75606436 -0.7860847 -0.4025701 0.045953583 -0.1629247 -0.57087314 0.5057178 0.3001275 -0.7755084 -1.0418164 0.5421538 -0.46041563 0.93665195 0.18495494 -0.12728311 -0.42133453 -0.065543585 0.4057954 -0.20509419 0.04819971 -0.28550717 -0.98789084 0.28194556 0.021271156 0.234543 0.41255155 0.057809714 -0.17344487 -0.08195038 0.7613303 0.33713126 -0.17876679 0.53125256 -0.4047947 0.24472295 -0.25872177
last -3.3184822 1.9400432 0.23729628 -2.965181 -0.8619816 1.9309789 0.50726414 0.63448924 -0.10610389 -2.8347287 -0.7527864 -0.61088735 0.781454 -2.3862846 -0.07924634 0.72111446 -0.24943255 -0.7647019 0.33474648 -1.3915983 -0.80367315 -0.07246064 -0.99091554 -0.71521854 4.166903 2.2102551 -0.4291054 3.3813636 1.1361586 2.7403002 0.35037303 1.1145376 -1.8794268 -0.30751702 -1.8845625 -0.6005133 0.60964 0.4929901 -0.010761116 -0.7037877 -2.443893 -2.3491247 -0.8906196 1.0725126 0.45271572 -1.8083913 0.22659689 -0.0062487014 -1.0755086 -1.1111751
month 0.83611375 1.9140614 0.50050485 0.496974 0.16257288 0.5717675 -1.3580939 -1.7277442 -0.16551983 1.648976 1.0118023 1.290586 1.7566429 -1.5297407 -0.8375133 -4.3900385 -0.83088905 1.1712145 -0.444012 -0.685408 -1.00131 -0.23687668 -1.2561226 -1.0285918 0.7471285 -0.42168778 2.2528672 -0.4631164 -0.33658564 -2.2104297 -1.3880876 1.6002997 -0.43167356 -0.17570119 0.27183428 -1.6186851 1.4657888 0.55089045 1.5374235 -0.8377457 -1.2249782 -1.4841603 -1.6593349 -0.36878154 0.9047637 1.7054759 -0.13617009 -0.055146985 0.41076744 -0.6856692
Commissioner -0.02551988 0.058604162 -0.12526384 0.38908577 0.008301398 0.82291 -1.1077324 0.23150451 0.48064888 -0.41053122 0.32575262 -0.42351076 0.5483351 0.07593855 -0.15126063 -0.7136959 -0.16845435 0.30242154 -0.584287 0.090862654 0.30792654 0.098847985 0.8947297 0.08251808 0.5850842 -0.31961593 0.2884394 -0.4592046 0.16295776 -0.43387553 0.45513868 -0.39488316 -0.18346693 -0.035714164 0.19960427 0.46583626 0.91351265 -0.1487379 -0.5828788 0.22918157 -0.5735903 -0.100636885 0.11036637 0.4025127 0.67410505 -0.87023675 -0.007091769 -0.4518738 0.32720003 0.4077759
Fischler 0.22518194 0.31201604 0.34864187 0.021358097 0.109541796 0.52102757 -0.32767323 -0.47335735 -0.723643 -0.10758469 0.15509167 0.29138628 0.738265 -0.4868416 0.20403968 -0.101567715 0.050312784 -0.0488567 -0.17302638 -0.41663894 -0.08872527 -0.010690951 0.6993079 0.36508211 1.0404611 -0.13344648 0.2723268 -0.54165125 0.89152384 0.24909003 0.7563335 -0.08830827 -1.0010339 -0.2921382 0.32320628 0.26680952 0.33652008 0.20920879 -0.10378743 0.19487636 -0.6382118 -0.20795661 0.26764065 0.43906236 -0.22990851 -0.45232475 -0.108204745 -0.284846 0.56435925 0.509331
ban 1.6548755 0.79010785 -0.08855595 -0.48759437 -0.030174 0.96282077 -0.41874987 0.80255497 -0.645944 -0.3755655 0.7087112 1.1130879 0.07099287 -0.3766771 1.7211965 -0.39405426 0.14212501 0.05576352 0.20954545 -1.1521615 -0.40815943 0.32745585 -0.54511964 -1.1890346 0.80380636 -0.59086794 2.0162451 -0.75822103 0.4952864 0.3785529 0.77544814 -0.07815183 -1.1794711 0.5802801 0.29625213 -0.8421011 -1.5582589 0.54934794 0.64527875 -0.17822702 -0.25957203 -0.088517435 0.7430468 0.3545576 -0.9048864 -0.28711647 0.060125668 -2.052359 0.19644853 -0.73515105
spinal -0.40111697 -0.27975705 -0.4853327 -0.24677885 0.15742236 0.61310905 -0.17675264 -0.030669346 -0.82430947 0.25422305 -0.24540517 0.2917025 0.1478518 -0.15287472 1.0579791 -0.08004128 -0.15599382 -0.22705607 -0.007859263 -0.36592308 -0.20267422 0.30512676 0.35666406 -0.6438776 0.36095193 -0.4814904 0.39921045 -0.28435096 0.071098514 0.316989 -0.033175506 0.25158313 -0.5662536 0.33182344 -0.034070864 -0.31892866 -0.38989118 -0.44187778 -0.1255199 0.25410122 -0.1226764 -0.10800041 0.15336083 -0.16638817 -0.3352176 0.00071016967 0.19863419 -0.18722384 0.020802746 0.33883637
human 1.0734316 1.0656613 1.358501 0.124882974 -0.9470194 0.9211957 -0.35099345 -0.53013396 -0.21898238 0.84517425 1.5830103 0.78393376 0.7814243 0.11922441 0.8119004 0.078999236 0.25265273 -0.22869273 1.1843271 -0.17736863 1.7265126 -0.66053355 0.94710314 0.08143969 0.17532691 -0.7802476 2.183769 -1.140897 0.6919836 -0.08105714 1.1251835 1.9251741 -0.9616475 0.23003027 1.088154 -0.06552733 -0.014485236 0.26038176 0.892411 1.9633752 -0.74048066 1.4314855 0.64463437 0.39132622 0.40832824 -0.30942482 1.7787937 -2.1264215 1.6333902 0.5346336
animal 0.25512692 -0.5547413 -0.0201227 -0.031237554 -0.4370204 0.29842424 -0.12626809 -0.37511757 0.27342266 0.42534375 -0.26912847 0.3965084 0.60404813 0.60193336 0.553701 0.5274896 0.42982534 0.10205918 0.56134146 -0.3172743 0.62514055 -0.060555626 0.7734019 0.16534688 -0.22519304 -0.216571 0.38388526 -0.8085227 0.31165266 0.7028324 0.10127278 -0.18281968 -0.67093956 -0.010123772 0.57133836 -0.31764126 0.6134229 -0.43270162 -0.80982816 0.33151376 -1.0846694 0.7395165 -0.101457156 -0.9035542 -0.07360218 0.26409787 1.0999637 -0.47335437 0.6576278 0.48625043
food -0.6424919 0.04186143 0.48055056 -0.18411787 -0.2232846 1.0759465 0.21448281 -0.32704163 0.30900607 -0.09106903 -0.6002967 0.31271318 -0.22928526 0.91775745 1.0873634 0.3382479 0.68317646 0.8050128 -0.36192182 -0.14915872 0.9821392 -0.334898 0.36032602 -0.6001089 0.22859652 -0.26948103 1.2295207 -0.58241236 0.4016029 0.27320644 0.06459229 1.1570246 -0.25424063 -0.2923718 0.34791136 -0.012940408 -0.5234805 -0.48134434 -1.128478 0.39566487 -0.598437 0.64175075 -1.0461599 -0.83022386 -0.1501135 -0.7191342 2.267721 -0.17817828 0.52242845 1.086269
chains 0.10572752 0.2604685 -0.017065864 0.16087095 -0.902379 0.5298929 -0.3984142 -0.61124253 0.04943913 -0.7613981 0.35062936 0.04745037 0.4089541 -0.9415849 0.55090094 -0.1804621 -0.66708094 -0.25209 0.079676785 -0.10062629 0.67865765 -0.26123124 -0.031386558 -0.24983105 0.11549685 0.11081309 0.29479674 -0.72898877 0.047306478 0.15483558 -0.30507946 0.7184833 -0.2603687 -0.3335452 0.5206681 0.50721294 0.035379317 -0.08172957 -0.40006238 -0.19600436 -0.30407184 0.4831777 -0.50656927 -0.025042813 0.109121814 -0.31904697 0.7705792 -0.053053856 0.24726309 0.18121946
highly -0.122634515 -0.3041304 -0.25182718 -0.24146847 0.025714038 0.16134878 0.48751953 -0.22362772 0.34932655 0.2578786 -0.39974076 0.5595745 0.16877897 -0.17638214 0.48600447 -0.016500065 0.2152478 -0.012921993 -0.43925458 -0.39192316 0.61931866 -0.41053602 0.36514568 -0.0027089636 0.10489952 -0.28696793 -0.019337725 0.1993832 0.51681453 -0.15061034 -0.071000166 0.54990697 0.15329766 -0.70009995 -0.29044583 -0.33614412 0.0054575456 -0.316214 -0.66872567 0.7695502 0.22000302 0.7007817 0.0730648 -0.9502949 -0.035004236 0.3884701 0.5847414 -0.2749054 1.021484 0.025019083
specific -0.25618297 -0.2060416 0.091041245 -0.13320662 0.35885784 -0.10131282 0.5880018 0.24005207 0.25682855 -0.009026763 0.34928256 0.51705295 0.09863814 0.28770915 0.39850858 0.056501362 -0.1343252 -0.6190851 -0.17038713 -0.51281345 0.00047707 -0.04368484 -0.53096634 -0.68848944 0.099358715 -0.32044303 0.6904965 -0.47288018 0.47711396 0.41551858 0.28354275 0.9343625 -0.28190047 -0.45008808 -0.30287609 -0.15062727 -0.929342 0.008193237 -0.2990049 0.59800637 -0.08412793 0.2768939 0.15285796 -0.926515 0.17217256 0.39631632 0.61006206 0.48671788 0.121817544 0.5611374
move 0.3768036 -0.3518088 -0.9062331 0.48121935 0.09657618 1.4667307 0.5181507 -0.16104206 -0.062158164 0.5445102 -0.08602172 -0.07525374 -0.2185559 0.47018042 0.90785813 -0.88488126 -0.008471491 -0.34063154 -0.65003926 -0.3549482 -0.3162024 1.0476538 -0.76693064 -0.7159869 0.08539524 0.12752284 -0.27187058 -0.10100842 0.22582515 0.74160075 -1.1176453 -0.21900089 -0.4814928 0.08813817 0.31215474 -0.34664446 -0.09026566 -0.6973927 0.2094763 0.6792963 0.0050023654 0.33948323 -0.33609262 0.14067322 -0.12623502 -0.30479738 0.62307245 -0.40643942 1.0322556 -0.6838688
health 0.39531904 0.47050557 -0.6991099 -0.49897578 -0.7091321 1.6166621 0.78849274 0.007873557 -0.24335228 0.70090246 0.022291113 -0.13133344 0.8244313 0.783311 0.77444917 -0.4651547 0.63724613 -0.6629906 -0.16340214 -1.0404391 1.7607366 0.42929757 0.6614358 -0.9588091 -0.30287382 0.69220793 0.026152577 -0.5858165 1.2363337 0.43458116 -0.6636924 -0.20749588 -1.344149 0.99915725 0.6862102 -0.74503815 0.775292 0.4787247 -0.04318548 0.13060343 0.012604805 0.74785477 -0.35042867 -1.0729672 0.038895424 0.13535279 0.9246069 -1.2195543 1.3739839 1.1903775
proposed -0.5417639 1.0151585 -0.08348437 0.5174839 0.45793593 0.8089657 0.37006244 0.08306578 -0.48626104 0.10847493 0.7849641 -0.76518136 0.62643874 -0.028121121 0.12964712 -1.1708337 -0.6147765 0.9299498 -0.4575196 -0.6828625 1.1469104 0.13040186 0.5798505 -0.6432722 0.98719215 0.22439075 0.4436451 -0.528173 -0.20617515 -0.33543605 -0.6403368 0.71970564 -0.27012232 -0.38301563 0.52423906 -0.962479 0.11414126 0.20428437 0.24190296 0.19635138 -0.8741773 0.114153184 -0.3711252 -0.25275457 -0.086394414 -0.7124706 -0.5888097 -0.68980336 0.5617332 0.2098359
measures 0.5026998 0.1658338 -0.6755903 -0.4189427 -0.17276111 0.56319636 0.6636735 -0.010673187 0.67187476 0.1539969 1.1478907 -0.0022858328 0.42128184 0.25906783 0.8688272 -0.6734851 0.07594647 -0.38132742 0.19851862 -0.49979997 -0.84020585 -0.49513814 -0.29942188 -1.0656954 -0.20025481 0.2120073 1.2153596 -0.9495881 -0.6581688 0.5906665 0.44017082 1.1965181 -0.858085 -0.40517795 -0.17409731 -0.12279236 -0.5147199 0.30035383 0.67568004 0.010122897 -0.9171921 -0.20105425 -0.93650305 0.27234483 -0.3449498 -0.3255992 0.4097744 -0.97349536 0.17637452 0.35316706
after -1.3547734 -0.022791665 -2.3863816 -0.51865196 -0.6695599 0.5326431 -0.2810686 1.7344948 -2.2768445 1.0256894 -2.4271865 0.93215215 0.8130893 -2.401646 -0.64901555 2.4464898 -3.28858 1.8285567 -0.9384143 1.663928 -1.1085638 -0.5802244 -2.0782273 -1.427878 2.924257 1.3744656 1.1368011 -1.9755584 0.9451939 0.9091267 1.4989628 -2.6696086 -1.8195624 0.08042693 -3.1794484 -1.6837183 -0.045510817 1.8246038 0.37074238 0.10485288 -3.8052578 1.4574506 2.4319923 -0.16583805 0.9228221 -1.3532857 0.20258816 0.77951485 0.48306078 -0.824961
reports 0.18633737 1.037199 -0.3270134 -0.49980143 1.4155575 0.61793125 -1.2203093 -0.21978863 -1.5732251 -1.355564 0.49397048 0.68606055 1.1598619 0.944916 0.011655754 -0.7631663 0.35959017 -0.22056201 0.02727159 0.101722196 0.6565926 -0.1187158 -0.28750876 -0.38802913 1.2886702 -0.05844269 1.8096366 -0.6870628 0.8942829 -1.2908745 -0.34163085 0.39987168 0.22674604 -0.041158587 1.0025307 -0.66791373 1.164818 -1.1883703 0.1742058 0.11027712 -0.6935999 -0.26283374 -0.056671675 -0.8843818 -0.25457507 0.29062212 0.012058652 -0.6170332 2.7270815 -1.0060995
France -0.37820318 -0.40737027 0.51080054 -0.72948116 -1.414834 1.8414778 -0.77970636 -0.39575285 -0.15595935 -0.19159941 -0.7161904 0.14473681 0.17178886 -0.18424089 0.23858508 -0.9616088 -1.4064815 -0.8960191 1.305456 -0.026781969 -2.3284392 1.1598321 0.14800486 0.17595245 1.5040617 0.27443647 0.89744353 0.12005863 -1.1522499 -0.51748884 -0.0716943 1.2237282 1.9503434 -0.7571242 0.3607377 0.25713933 1.0160753 -0.7967908 1.1794691 0.5024467 0.15584752 -0.526654 -1.5465602 1.4355415 1.3939705 -1.2139913 0.10025895 -2.210608 -0.36507446 -1.0363418
under 0.9969454 0.95549405 0.003827475 -1.500034 -0.051141974 0.06625132 0.02088902 0.61204404 0.8041454 0.66087717 -3.414321 2.1802304 -2.031386 -2.3375175 0.48220983 -0.4104072 -0.5959374 -0.52357364 -0.44216037 -2.0278344 -0.5752743 -0.37988278 1.8268306 1.3449988 2.3536727 0.29847497 3.257261 -0.44103524 1.4049494 -0.38425052 0.73816246 1.9791039 -1.7406698 -0.42962512 1.3106642 -0.9089798 -1.6368456 -0.2458899 2.7895672 1.1961731 -1.5510111 0.11501313 0.44606304 -3.0691779 -2.7961404 -2.557092 -0.52046674 0.38465345 -1.1333752 0.96657664
conditions -0.25799078 0.82322973 -0.42339835 -0.066261746 0.5618946 0.82606006 1.1748989 -0.6054445 -0.05382858 -0.6755592 0.5960484 0.05281561 0.009894128 0.8466526 0.6758797 -0.88921976 0.23080969 -0.6873677 -0.013824033 0.27073544 0.4044319 0.5727836 0.11986809 -0.71341664 0.46054736 -0.14934832 1.2899191 -0.47105837 -0.59740824 -0.6054028 -0.041383907 1.3161843 -0.2705546 -0.12929326 -0.29949805 -0.6909471 -0.30938256 -0.5189001 1.1792331 0.7347547 -0.67312753 -0.39797515 -0.36845726 0.29338512 0.077538535 -1.1963719 0.8368428 -0.06982003 1.0807827 0.16795361
could 0.71415794 0.39190012 0.503177 -1.0399183 3.5179653 -0.63936585 3.6812277 1.7568529 -1.5662994 -0.51652557 -1.661015 2.0496323 1.790339 1.0152926 -0.75107485 0.2236105 -0.8108091 1.4583865 0.8409924 -0.8130265 -0.12167936 0.3248924 -0.08982891 -3.6041808 -0.30499318 -1.2256508 3.5122242 -0.5924502 -0.09297029 0.024203248 -0.7579873 1.2974892 -0.5093933 -0.20830145 -0.71987027 -0.00455561 1.549443 1.9509859 -0.55176735 -0.70915884 -0.19549908 0.52021533 -0.5729251 -1.0545818 -0.5012501 -0.56517404 0.08017715 0.03350125 1.2556255 -0.39457047
contract 0.01836021 0.33059904 -0.07365955 -0.54282945 -0.08472409 1.3231628 0.65663296 -0.79244554 -1.372437 -0.15342534 -0.5636326 0.8428731 -0.38466424 -0.96254516 -0.054718908 -0.67663413 0.86051923 -1.6625046 -0.46537188 -0.80279225 0.4127966 0.14757644 0.09795588 -1.7079046 0.7370613 -0.25321767 -1.2988187 0.31941625 0.029505992 -0.62586355 0.4972937 0.36389616 -0.9843645 -0.446884 -0.3835028 -1.1903279 -0.7545346 0.5471065 0.85630417 -0.72400117 -0.9453212 0.59143925 -1.6783059 0.26000118 1.0150123 0.062482 -0.11812814 0.15091337 0.19642355 -0.11172605
( -0.17168985 -1.686513 0.30915216 1.0604103 1.5320009 -0.34580123 0.029766936 0.54910886 0.94972676 -1.0812638 -1.2968974 0.74462175 -0.55467755 1.3466882 0.25680956 -1.0278964 -0.052079402 -0.14390595 0.43190116 1.0931447 -2.3417273 0.38590726 -0.4310248 0.26372775 0.97009444 0.64607537 -1.5141423 0.5162586 -1.516803 -1.0135475 0.4321919 -0.6001245 2.07552 -1.0018911 0.6468097 -0.640295 0.1103395 0.6675994 -0.59138554 2.9720993 -0.9315427 -0.11879398 -0.4894103 0.529371 1.8182409 -1.1107644 -0.43020925 -1.5181252 -1.6901156 -0.4838132
BSE 0.47773808 -0.001865533 -0.9603497 -0.057860944 -0.35550168 0.73959213 0.14976539 -0.9069839 -0.6724336 0.4544979 0.21098997 0.19035713 -0.05577354 -0.79822767 -0.21788904 0.3381972 0.13463011 -0.3383571 0.717257 0.026514726 0.7771297 -0.94648093 1.0529877 0.35707936 0.42690724 -0.22388622 0.6946171 0.032062925 0.18779658 0.109071545 1.1586366 0.57136977 1.1704322 -0.54853654 -0.020319367 -0.24500744 -0.29018465 -0.0047853985 0.28044343 0.68376863 -0.63118577 -0.26823118 -1.6977085 -0.21900892 0.8745661 -0.017209535 1.7687635 -0.423162 -0.734003 0.3929922
) -0.29740402 -1.0830659 -0.25033557 -0.46168083 -0.47618487 -1.2432162 0.3847652 1.1307012 0.99141866 0.29371354 -0.61025584 1.0369563 -1.4620677 -0.18102229 -0.36840993 -2.0529196 0.26894215 -0.36924437 1.0508163 -0.31344855 -1.227809 -0.39547643 0.5201244 0.48339093 1.3647708 -1.054679 -1.4637141 0.42192107 0.12835768 -1.1724532 0.1364137 0.7259353 1.2377177 0.6396803 -0.70781255 -0.67164814 0.6147844 -0.6508175 0.2116364 1.4954722 0.12891147 -1.1139097 -1.1457329 -0.90392715 0.21869884 -0.84103096 -0.9801541 -2.599222 -0.21139798 0.28382677
-- -1.2372106 1.399006 -4.95145 -0.93168694 1.5220762 1.3888752 0.48673636 -0.9335575 -0.10621263 -0.111420505 -0.37343976 0.20545402 -0.4954592 -2.0701015 -3.1348708 -2.6681554 -0.004344566 1.4185781 1.9104782 2.321769 -1.4361116 -2.1475463 0.08863283 -2.358581 -0.059056684 0.35107037 0.5998374 0.05868523 2.328556 -0.20274551 -0.47960585 -1.9297644 -0.70612466 0.4097292 -0.43933055 0.55276966 0.49016684 1.8695413 -0.26441783 2.3302991 -0.9088876 2.345862 0.6845849 0.9935113 2.9222949 2.213173 0.804258 -0.16947763 -0.52391136 0.3156448
But 0.09955307 -0.14738336 -1.293425 -1.7039951 1.2634662 -3.0154483 -1.9878924 -1.4173621 -1.4387891 -0.17217347 -1.002979 0.3694281 -0.5277235 1.0009716 1.1666573 -0.78364474 -1.8622888 1.323624 0.26758796 -0.49543813 -0.040348828 -0.04193115 -0.3554015 -2.3163366 0.6121435 1.2405587 -0.30083612 -0.10523829 1.231084 -0.3804695 -0.43353653 -1.1293896 -1.7923787 -1.141515 -0.9805247 -0.42069015 0.111859486 -0.713475 0.21619087 0.71063983 -0.12618953 2.1972303 1.2915355 -1.7230761 3.1633394 0.0096544605 0.17801008 2.0014381 0.6246382 -1.5046998
agreed -0.8669502 1.4291162 0.86537755 -0.9695579 1.2261082 1.8685825 0.12965551 0.13840953 -0.789501 0.7035274 0.7753066 0.7709135 -0.29112557 0.5943522 -0.35638437 -1.7327874 -0.22382668 -0.5581892 -0.9420387 -1.8053807 0.61767536 0.39796492 -0.827515 -2.6122117 1.3278255 -0.19650868 0.587484 0.9218752 0.30195895 1.2048469 -0.35932842 0.36318183 -1.2638079 -0.46241614 0.6340251 0.39472347 1.4274821 1.1425254 -0.39717057 0.5012498 -1.9495875 -0.18377279 0.44048813 -0.18868922 -0.53833747 -0.7038914 -0.4474879 -0.35526407 0.84615916 0.9156401
review 0.13926387 0.41004726 -0.12287673 0.046220668 0.50988615 1.8028162 -0.38397354 0.40818426 -0.51081616 0.25940228 0.892238 0.20329508 0.14139694 -0.20809047 0.041003283 -0.4912427 0.048744567 0.22304663 -0.06718771 -0.6618053 0.35968783 0.3000611 -0.089636624 -0.038687266 1.0341079 -0.12503473 -0.092806675 0.024159526 -0.19143553 0.13348825 0.0310135 0.48906076 -0.1356117 0.2891002 -0.14496565 -0.23314197 0.0057586604 0.17410679 0.75311404 1.0750604 -0.396634 0.30062637 -0.043941073 0.53965265 0.62039995 -0.65290433 0.1620424 -0.5696116 0.45980185 0.11152965
his 1.8402733 -0.70127344 -1.2786468 -2.0351553 -0.5064128 -1.724919 -0.66323453 -0.18640964 -0.8325344 0.528884 2.5580063 -2.6182487 3.3932533 -1.7783902 1.7690979 0.21700658 0.5516553 -0.6484737 -0.16649896 -2.1389525 -0.304555 0.9039518 -1.829835 -2.2693253 -0.32510364 -1.3054858 2.5851035 -0.26875824 -1.2483306 -1.1858549 -1.9357114 -1.06653 0.23922879 -3.1769361 1.1864517 -0.8316577 0.7131577 -0.26196894 0.17527476 0.62062657 1.7978611 -3.3898141 1.3115209 1.1980532 -0.58502305 -0.7702895 1.5202767 1.198674 1.5530051 1.8950819
standing 0.15507504 -0.1368435 -0.6971123 0.114276364 -0.34604082 -0.069219664 -0.27110413 -0.16220272 -0.9802326 -0.08161252 -0.07617072 0.3281024 0.56675535 -0.16026936 0.4635507 -0.25847998 0.1997437 -0.6030876 -0.62389004 0.12548849 -0.014779897 0.28020132 0.8734579 -0.5828784 0.09364037 0.22147569 0.60302025 -0.49021477 0.42552334 0.1483628 0.13777891 -0.41798937 -0.6102449 -0.07280243 0.004635852 -0.23838645 0.32974157 -0.5010842 0.17766602 0.8361514 -0.29768863 -0.12666497 -0.3847438 -0.1424166 0.41988212 -0.64764786 0.51951766 -0.5198103 0.07103809 0.5061583
officials -0.6075092 2.7493691 2.2832155 -1.3441925 -1.1813384 0.93362457 0.57964754 0.035542503 -1.8114792 -1.1056316 -1.8234402 -0.85068774 0.45591098 0.4475806 0.06860405 -1.5296348 0.7227195 0.73440194 0.20260006 -0.876186 0.09595372 2.1566129 -0.013203962 0.14217621 0.035136443 0.56232953 0.46780854 -1.412223 1.3070201 0.91921544 -2.0030565 0.3541359 -0.464182 0.097122274 2.412036 -0.9288168 2.0031605 0.20470144 1.5507729 0.57403874 -1.4588062 -0.67152524 0.31368473 -1.4585674 0.20876081 -0.08893598 0.17794658 -1.4595354 2.1645513 -0.15059388
questioned -0.89387745 0.8208327 -0.32778478 -0.048261072 0.8586127 0.5819047 0.38316962 -0.10788372 -0.93383294 -0.6996541 -0.18278675 0.25174764 0.99253833 -0.39222693 -0.2577203 -0.33639812 -1.0841526 0.35506177 -0.4908484 0.0336187 0.28525898 -0.04197518 0.49330395 -0.17225045 -0.0386129 0.11721447 0.7165457 -0.95977724 0.85712886 0.48304823 -0.03536992 0.92344034 0.16694704 -0.6865644 0.22464837 -0.10481276 0.17305653 -1.1289536 -0.97372115 0.7104567 -1.0735646 0.48763797 -0.68841237 -0.6807458 -0.084849946 -0.058340877 0.4607082 -0.23131704 0.26332328 0.17336139
as -0.6414444 -1.2711273 -3.3521302 -1.9092405 0.751561 -1.0856518 0.66734713 0.9697006 -1.9737257 1.5997709 0.2379643 -0.59068054 1.6673986 -0.19685523 0.34107634 -0.36506563 1.6809562 0.3134296 0.9395113 -1.1020713 -0.9960969 2.9384227 -0.49345037 -1.2984085 0.6350306 1.5408654 0.60988563 -1.0516566 -0.74749583 -1.9636214 0.87653184 0.8941999 -3.6188376 -4.0222483 1.487428 -2.3293087 0.76795673 -2.0536735 -2.6421368 1.3527422 1.1863143 0.24548611 -1.1165444 -0.20553607 -1.2635975 -0.5739143 0.5332548 1.7052726 -2.3492088 -4.2049704
there -0.77495676 2.4146621 -0.85558957 -0.85271573 -0.7935357 -0.19650477 0.52296877 -1.378562 -1.5633456 -2.2673912 -1.8949398 0.9914472 -0.28652722 -0.59905756 0.78742 -0.3638177 0.98244804 -0.9603017 -1.0682988 -1.9066696 1.573635 0.17561449 -1.4359945 -0.6374161 -0.06128115 0.87482184 0.46192178 0.2719271 1.7359315 0.13344753 -1.7133181 1.4729829 -0.47272524 -1.4390234 0.027428975 -1.1833433 -0.00234905 -1.560513 -1.1990082 0.8893909 -0.64880705 -1.1023152 -1.7341902 -1.1235372 -0.52462536 1.8232567 1.2183689 -0.5366849 2.207974 0.51226693
only -0.42343038 0.3928446 -1.5013193 -0.4191303 -0.15142053 -0.16748224 0.79055387 0.65743387 -1.3264649 -1.8519388 0.21881981 0.12176635 -0.15640491 -0.7187533 1.2859104 0.645201 -0.3049435 -0.14619072 0.22607486 0.041175112 0.039274774 -0.05205093 -1.192464 -0.44642723 -0.60066366 1.9289335 0.66313064 0.47072527 0.05712383 -1.1650112 -0.37955227 0.85343975 0.35724354 -1.7560996 -0.22112921 -0.40991962 -1.2824527 1.2288747 0.0047331443 2.3529792 0.1910594 -0.3328083 -0.18724999 -1.0917618 0.5975987 0.6862537 0.29266655 0.18043669 0.34013498 0.70914423
slight 0.21933869 0.021256758 -0.04565936 0.30529067 -0.053315908 -0.04447897 0.38542503 0.33840412 -0.04907377 0.29329795 0.30271432 0.89452463 -0.102104545 -0.24271418 0.53111756 0.052239012 0.29489428 0.11046169 -0.14919399 -0.09057381 -0.01288795 -0.21201976 0.19124757 -0.9021551 0.598071 -0.40266788 0.115999945 -0.13085574 0.3097365 0.19229437 0.68045723 0.10818947 -0.55627894 -0.72353286 -0.11109447 -0.08955453 -0.7178703 -0.12641099 0.028978629 0.5952213 -0.044089533 0.37437442 -0.44826004 -0.20271209 -0.26569766 0.42048445 0.43701747 -0.2856148 0.7360147 0.3702132
risk 0.53073466 1.1560102 0.38256443 0.2657307 0.46578217 0.5980596 0.80391 -0.05991226 -0.245418 -0.4823935 0.4194527 0.22583514 0.0568797 -0.59154457 0.18410257 0.7934504 -0.84788585 -1.1497612 -0.625692 -0.44550824 -0.12827414 0.45071563 0.4401266 -1.1446141 0.10855057 -0.42977938 0.3792801 0.22814858 1.3626102 -1.0291889 0.78568435 0.6241409 -1.1228284 -0.9390613 -0.07696083 -0.30247596 -0.6407796 -0.5846514 0.3243216 1.0771409 -0.4706232 1.387085 -0.6243821 0.073409915 1.0700449 0.12752773 0.8793579 -0.7905716 1.2362393 0.72017366
Spanish 0.47279572 -0.40730634 0.41793808 -0.21412371 -0.26606452 0.3794567 -0.39158422 -0.08847638 -0.45339757 0.5620287 0.23733038 -0.5188855 0.30108172 -0.3588786 1.1085149 -0.19261447 -0.5246761 -0.036349397 -0.06850005 -0.20314206 0.61675334 -0.28773236 0.8699637 0.3073547 0.2837984 0.8337172 0.5835026 -0.10958216 -0.070197515 -0.079499125 0.24034342 -0.8785538 -1.1895968 0.40648437 1.0367758 -0.27989876 0.42481005 -0.115954235 -0.12084016 0.025237365 -0.47279683 -0.34570506 -0.09133932 0.06809041 0.39959085 -0.65678287 0.7748555 -0.4324082 0.30508876 -0.5343879
Minister 1.8042529 -0.8519304 -2.5371792 0.8049948 -0.46932468 3.5165415 -0.34857437 -0.6457628 -3.1755078 -1.4221859 -1.3726479 -3.4265273 2.2443662 -0.49604487 0.9329196 -0.3722765 -0.067919195 0.57375646 0.4384878 -0.6863775 1.6940039 2.5920343 1.395177 2.086432 1.4671797 -2.1051393 -0.07871283 -1.2765634 1.9572341 -0.86527914 -2.0602689 -0.38588676 -0.009800425 -0.53513 1.450305 -1.503312 3.4967458 -1.623203 -2.0709412 4.0988846 1.3539939 1.1463836 -0.6531373 -0.8843288 0.71981555 -0.24895285 -0.17643678 -2.8706167 -0.12523961 -2.1756623
de -0.5283048 -0.8363131 -0.008414816 0.42192432 -0.28052798 -0.033188872 -1.0252826 -0.6267919 -1.4997916 -1.5007268 -0.6793307 -1.2619236 -0.047518387 -1.3497345 0.026521955 -2.0538783 0.56065446 0.6863846 -0.4704534 0.5117456 0.14562875 0.70648444 0.3808869 1.1584486 0.26787287 -1.1531618 0.4105383 -0.80073243 0.3143904 -0.06585172 -0.39521682 0.57560617 1.2017155 -0.027214915 0.37414336 0.17313074 1.3997583 -0.07774574 -0.31434628 0.92215997 0.12498917 -0.94940066 -0.75621605 -0.827795 0.83648545 -1.3591132 0.3865057 -0.37522495 0.2966057 -0.4815355
had 0.9662913 0.018835887 2.6196465 -1.4576553 2.654903 -0.87380767 -1.714324 1.2415104 -3.290837 -0.75581515 -0.8865226 2.143541 -0.42751467 -1.8850272 0.7438674 1.5947924 -0.49960372 0.64073485 0.8033752 1.1684221 1.528146 0.5464782 -0.89382964 -2.4684758 2.07608 -1.7542299 0.20262365 -0.8974716 -0.46730283 2.7818336 1.3006171 -0.02151206 -3.930298 -2.3234534 0.9092475 -0.5544431 -0.08056313 0.3507635 -0.91830707 2.0423195 -0.6741168 -3.4549792 -2.7608435 -0.98233944 -0.21927272 2.5767446 -0.6958019 0.17575648 -0.45274335 0.93173444
earlier -1.661237 1.2433903 1.3229107 -1.2736288 0.81516457 1.3777635 -0.25468984 -0.7496028 -1.2443621 -0.74826276 0.026930897 1.6973438 0.1797165 -1.3804563 1.6463871 -0.8307308 0.4517207 -0.4776637 0.20179446 -0.022754217 0.5602216 0.6647052 -1.3516843 0.8304208 2.2180367 0.17907281 -0.31670704 0.89549166 0.805125 0.2555771 -0.9074145 0.864084 -2.4819734 0.9834998 -0.912619 -1.8605965 0.8864273 -0.0040672645 -0.54353803 -1.1318518 -1.2375352 -1.6426694 1.0575302 0.2673508 0.2594539 -0.69549984 -0.1396884 1.0268488 2.365037 0.7053004
accused -0.788036 -1.3944998 0.98949194 -0.55548286 1.1608341 1.1904318 -0.3487142 0.554582 -0.2624619 0.5057286 1.2950788 -0.5177324 0.9106427 -0.31061292 0.8559366 0.5365971 -1.2356989 2.1295955 -0.54354125 -1.2141722 0.39735052 -0.30981737 -0.27790704 -0.7788832 1.9963652 1.2145405 0.2685677 0.26132908 1.6576824 0.4157912 -0.77374744 -0.4061308 -0.97710866 0.37025514 0.47332838 0.05854629 1.5022396 -0.08705442 -0.8806774 1.3179984 -1.2928798 1.3607316 0.96031225 -2.009163 -0.60692084 0.2773602 -0.78928715 -0.02010809 0.14035556 0.31270587
at 0.71254486 2.5169415 -1.0646139 -0.400859 -2.2545962 -0.12904772 1.0517079 1.8241986 0.8474562 -0.13295177 1.0188489 1.3052726 0.34992865 -0.8599648 0.4025432 -2.755263 -0.24391845 -0.15994483 -0.68312585 1.166833 -2.368518 2.1096916 0.479963 2.7612839 2.7683077 1.4357378 0.65437555 -0.19370028 -1.015392 -0.5126448 0.50974566 0.2526182 -1.1683873 0.92335343 0.4572808 -2.504297 -1.0074842 -0.2763293 0.49676126 1.8865693 -1.3493563 2.3030946 1.2433286 -2.061979 -3.1820402 1.6886487 0.5308234 0.4894974 -1.3220286 1.0604448
an 2.8111215 1.6043177 -3.0993502 -1.3160206 2.4254377 0.50405455 -2.0368621 2.0560002 -0.5165453 -1.8216674 2.9575026 -0.5887073 -1.1818688 -0.572507 5.2584352 0.39066544 -2.214866 -3.308117 0.48154467 -2.7615924 3.451117 0.28747073 1.9408203 -0.53490835 0.98066163 -0.07759058 -0.4544211 -1.9652466 -0.35325974 0.2999375 0.28935763 -1.0280224 0.012892888 -0.8968602 -2.852111 0.3023453 1.2230506 -0.9385087 -1.2079732 -1.072373 -0.9218059 0.6750707 -2.0282135 1.6461006 -2.63225 0.22107595 0.25460744 1.4375736 -0.6930249 4.3000913
farm 0.32472563 0.82777286 0.15281054 -0.10760794 -0.17207679 0.9335655 0.20323542 -0.5457514 -0.7175665 0.72954303 -0.46056855 0.81461257 -0.5706052 -1.3379093 0.21989594 -1.1917516 0.022339918 -0.18765718 0.6195298 -0.4850359 0.8521431 0.64115757 -0.056636643 -0.875343 0.04472163 0.30971918 0.6421543 0.3441815 0.10531634 -0.27630302 0.927601 0.38738462 -0.28745142 0.77482504 0.04926229 -0.4141645 0.6413094 0.23002289 0.9322167 1.0915271 0.43266028 0.09615357 -0.5057988 0.342118 0.6884472 -0.087816104 0.70026857 -1.4178156 -0.6738831 0.10483199
ministers 0.9557564 0.12024364 -0.35036322 0.21603826 -0.3203189 0.5679131 0.4236823 -0.43100753 -0.30675104 0.03183628 0.14526755 -1.038712 0.20656939 -0.12398839 0.42360958 -0.5315629 0.6974005 0.27833593 -0.25451773 -0.22059773 0.82392794 0.30541274 1.1187478 0.5692745 0.42552683 0.45083818 0.77341926 0.29543385 1.2416303 -0.16111997 -0.13605422 0.78164494 -0.55458367 -0.021274783 1.3033445 -0.1996045 1.7068807 0.9879258 -0.80177957 0.43542883 -0.18354367 0.025568232 -0.024312444 -0.6268622 0.18437672 -0.58207333 0.39770174 -1.4783634 1.525807 0.3855034
' 0.4302983 1.0740031 -1.0389478 1.4314063 -1.6979563 -0.3629471 1.7664157 0.3134739 1.0827776 -1.3663019 1.351667 0.038149938 0.54767615 1.3769678 -2.2402349 -0.57503164 -1.1855835 0.042457197 -0.29341388 0.8895864 -0.5573119 -0.37577057 0.82869977 -0.2087517 -1.2629222 0.036128547 1.5482527 -1.0164772 -0.48448354 0.9620837 0.5047103 -2.263414 -1.5731508 -0.5440296 -0.24895304 -1.1366731 2.7648244 0.04482894 0.34791437 2.3876839 0.51716995 0.25400937 -0.5905168 -1.7464894 3.3755426 -1.1535144 0.43518156 0.015576474 0.21452112 -1.2869656
meeting -0.36192453 2.15051 -1.0221674 1.5302923 0.53736 0.15486209 0.28245553 -0.49346495 -1.0011253 -0.23300135 2.0165854 -1.3839533 0.9263171 -1.199735 1.0489748 -2.0941362 -1.1520892 1.4241446 -0.89650255 -1.111007 0.3897213 0.34747815 -0.5494682 -0.9764088 2.6284297 -0.07007335 1.9412849 0.3049521 0.5119815 -0.8337375 -0.6669046 -0.5861707 -1.2308332 0.038506232 0.2174019 -1.3396988 0.3027015 0.63266325 0.7510007 0.6808611 -0.18345891 -0.83909106 -0.08804648 1.0989969 -0.24706548 -0.08788372 -0.076620154 -0.43488398 -0.39731026 0.48456848
of 0.034340393 1.2423363 -0.8728181 1.3267806 0.680018 -0.6468032 -0.1269063 -1.2982999 0.5724829 -0.2965296 0.33533564 1.3660673 -0.7334416 0.2691218 1.8518873 -0.8366387 0.115519755 0.49073297 1.0740302 -0.3410312 0.8293895 -0.66617763 0.74171007 -0.45479006 -0.42066917 0.1875396 0.30222523 0.8467466 0.93295217 0.4161666 0.9493659 0.71074134 -0.742791 0.55601305 -0.7038135 0.006288008 0.035356842 -0.9355109 -0.6474286 -0.49158365 -0.881087 -0.6942616 1.0257835 -0.56565034 0.49099255 -0.56859595 0.25546783 -0.27951 -0.8398575 0.85113895
through -1.0004718 -0.74112904 -2.477187 0.120874695 0.9560273 0.0949669 1.646204 -0.25844055 -0.21363509 -0.103574954 -2.2133174 -0.2988377 -1.3901213 -0.7628516 -1.0532956 -0.617393 0.20093805 1.6512043 0.06615054 0.038891755 -0.70822537 -1.2006203 0.2318775 -2.4398055 0.5798459 -0.7598045 0.5574346 -0.20747267 -0.45655355 2.3897045 0.23483771 1.1848003 0.360759 -0.01205833 1.3460504 -1.1290147 -0.66399133 -0.93669975 -0.5720224 -1.3137964 0.35616794 0.4695604 -0.56623536 -0.17697279 1.6492732 -1.6324275 0.5385749 0.5191533 -1.5872473 0.40207535
dangerous 1.0662303 -0.07820887 -0.35468078 -0.3205893 -0.8319448 -0.024724754 0.33985513 -1.3331975 0.1327791 -0.5474166 0.56204844 0.15940015 -0.19548763 -0.3396948 1.071198 0.23869058 0.13051222 -0.64722586 0.19282033 -0.41440597 -0.08428948 -0.18643855 0.55387384 -0.6644965 -0.12770975 -0.30079025 0.33452323 -0.88296103 -0.42178527 0.7024416 -0.33789957 0.9490616 -0.012828402 -0.9697744 -0.14512804 -0.9697555 -0.5733663 0.3279306 -0.3655797 0.0568945 -0.21033439 0.2952988 -0.35243934 -0.056041688 -0.11055547 0.056556284 1.1506044 -0.70571405 0.52536017 0.03725385
Only 0.09100305 -0.18735752 -0.40691584 -0.60219175 0.3843514 -0.34632564 0.23439777 -0.24774441 0.05755426 0.14839506 -0.26948407 0.43898574 0.05944353 0.20310406 0.30852935 -0.4142151 -0.30446714 0.36281553 -0.060509413 -0.37995645 -0.28702578 0.16240238 -0.19406952 -0.2333405 -0.17565848 0.024879884 0.17407149 -0.4775313 0.729638 0.4348833 -0.106622815 0.48428464 -0.30402282 0.117654555 -0.123531915 0.14407617 0.1001207 -0.16080263 -0.57366765 0.6293241 -0.39970264 0.61063457 0.011542442 -0.42775065 0.7112646 0.30712166 0.030735271 -0.25376505 -0.042534307 -0.06317087
backed -0.068412825 -0.64332384 0.46028674 0.10512155 0.03911625 1.1809704 -0.13053426 0.23347317 0.26281542 0.21148984 0.1476215 0.6456389 1.2765533 -0.18399261 0.62253237 -0.6257599 0.18633963 0.53424484 -0.24459258 0.096602194 0.03626257 -0.2413411 0.5988245 -0.27969968 -0.08460119 0.37577805 0.040099077 -0.23005643 -0.30620417 -0.20879516 -0.74625105 0.57035226 -0.33051297 -0.041446123 -0.052865073 -0.2875938 0.3985787 0.16718788 -0.33745497 0.5471162 -0.0410142 0.14901419 -0.080124624 0.4375554 -0.25966832 -1.0985874 0.66537786 -0.7387853 0.24347726 0.39607272
are 0.80776155 0.9447302 1.1170839 2.314354 2.259421 -2.9312866 3.8361669 -0.053130258 -3.152508 -0.46787554 0.5417204 0.4077873 -3.2791414 -3.2554417 -0.041651096 -0.05734044 2.3322275 -1.1638463 1.6265919 1.1514121 -2.17925 1.168992 1.2717911 -1.0167226 -4.182511 0.098660395 2.4736757 -3.2443047 -1.4850216 0.31840608 -1.0499942 1.8863181 -0.2589063 1.6975125 1.1565511 -0.044196572 0.14956747 0.28214654 -0.1569566 -0.64629406 -3.8629684 2.400573 -3.3677607 -1.5390775 0.8248166 -1.739574 2.794322 -1.7784771 1.4835811 -0.57164687
due 0.760611 0.56571525 -1.4750391 -0.40556085 0.4538303 -0.36499473 0.96527666 2.9097688 -0.7880183 0.68697554 0.011491366 0.5606907 0.8369727 0.37345785 0.578797 0.23447302 -0.34729978 -0.9524354 -0.89545584 -2.5107968 0.1447053 -0.30421525 -0.45971182 -1.5198594 0.50987875 1.9971342 -1.1567435 0.5336329 0.5679396 1.4365531 0.30721232 0.86907166 -0.15727319 -1.0308253 -0.918895 -0.20439886 -0.37059876 -0.2287489 1.0505348 -0.28890407 -0.7455456 0.224758 0.6017739 -0.60169697 -1.2624105 -0.37893513 0.4024015 -2.3758261 1.2412372 1.437733
issue 1.756735 0.76331013 0.24404612 0.31344828 0.4154713 0.9834776 0.6599539 -0.16330086 -0.5544733 0.12957388 0.24785784 0.46876317 -1.2176112 -0.5816937 -0.70965904 -1.9823972 1.1184952 -1.4988704 0.65502286 -0.69430226 0.8484963 -0.12917383 -1.4683582 -0.99463445 1.0438439 0.632519 1.5572822 0.41120738 0.05466378 0.0867576 0.41347814 0.4584631 -1.2902639 -0.31426686 0.14018662 -1.6031415 0.41166717 -0.09487241 0.9794123 0.84084815 0.56728286 1.2669826 -1.2222719 0.6798969 0.3532184 1.2019753 -0.20709069 -0.34901905 0.41277054 1.2850688
early -2.2739046 1.5230587 -1.8553821 -0.60906565 0.7683087 1.2982956 1.8249271 0.18431927 -0.83483624 -0.48551852 -0.36367646 0.20432372 1.0675095 -1.1849451 3.0949008 -1.7087032 0.565305 0.17002207 -0.10418687 0.56910956 -0.3647515 1.1411109 -1.5617089 -1.0572785 0.7855274 1.3534417 -0.19989349 -0.58678114 0.021095568 -0.5169114 1.0453376 -0.9954296 -1.5153652 -0.49606353 0.24759744 -0.57434803 -0.2669256 -1.3355032 2.235207 -1.4580894 -1.6670713 -0.6481985 0.5921936 0.28039697 0.04945013 -0.27205393 0.3066933 -0.41984758 -0.07847765 -0.94625777
next -1.2384886 1.2659022 -1.2436428 -2.384524 0.2263421 2.0607958 1.1634269 0.1268437 1.6121916 -1.4158828 0.1629665 0.3188954 0.47416225 -1.5268892 0.8262611 0.22600904 -0.5722026 -1.4662777 -0.008872513 -0.94957805 -3.2440515 0.68130225 -0.64871705 -1.0417373 1.8263022 2.0711532 1.2855881 1.772406 1.6817857 0.9969653 -0.22272034 0.44048053 -1.6658938 8.4545994e-05 -0.12666997 -1.2879826 0.4590141 2.0638604 0.14594246 -2.4514148 -2.9588406 -1.1385193 -1.2076759 2.231219 2.3614686 -1.8266472 0.2980245 -0.28152975 -1.35839 -0.79491276
make 1.5178684 -1.2104678 -1.5795174 0.5478736 -0.35338432 1.1929514 0.28885823 -0.27726427 -1.5672377 -0.018724496 1.663928 0.33502805 -0.49790084 -0.6829131 0.9935004 -0.36927083 0.40030667 -1.511185 -0.86140364 -0.84966815 -0.20296526 0.015533729 -0.08167643 -1.8303281 0.44638297 0.54287004 -0.20104706 -0.5926746 0.37564602 1.6963553 -2.1331456 0.26399118 -1.6368215 -0.70403683 -0.683909 -0.804349 -1.6912186 0.5862873 1.410922 1.6019595 -0.055130586 1.2440641 -0.07478061 0.07629254 1.3929838 0.41581443 -0.2094048 -0.33325887 0.98542607 -0.98983234
senior 1.0631394 0.010319334 -0.105974816 0.12142619 -0.24871145 1.0249606 -0.919483 -0.5627862 -1.2589102 -0.3671487 1.2483494 1.1891816 0.37652874 -0.5036381 0.3141734 -0.45754972 -0.605228 1.4217204 0.7024719 -0.58384186 0.13321091 0.87947345 1.0429642 -1.720175 -0.37565124 0.17251389 0.32869262 0.30399874 0.4904102 -0.5405244 0.11480434 0.15921919 -0.36122674 0.10228833 0.034367934 -0.06924662 1.1816095 0.1289676 -0.48728326 0.23710026 -1.1397804 0.19875778 0.6215288 -0.2478427 0.972244 -1.0606225 -0.20569502 -0.041631278 0.59327817 -0.5421197
have 1.8963486 2.7973938 1.0198473 -2.6731641 -0.6721823 -0.834772 -0.51120985 0.3201148 -0.3426145 0.8737352 0.35502365 0.87717456 -1.2427753 -4.55176 0.7197656 1.2204788 2.5568466 -2.115166 0.3673931 0.6050423 -0.85847676 0.658109 -1.5155578 -0.82539606 -0.008919646 -1.5136286 -1.7796129 -1.2580664 1.6220717 2.6344285 1.2323444 0.120284826 -3.6546435 -2.8992028 2.2962565 0.49707878 0.3041466 1.2255777 0.71542734 3.5336936 -2.4138188 -1.4616566 -3.9126058 -2.5403984 0.2921078 2.7532156 -2.4577718 -0.6508097 1.7114218 0.03696688
long -0.06530534 1.0981237 -1.361579 -1.257075 0.24065356 0.88925254 0.97633386 -0.4528711 -0.3852693 0.22363827 0.34792686 0.7909193 0.36812332 -0.09649009 1.6955987 -0.57096326 -1.8293201 -0.7657466 0.15769944 0.51588845 -0.81483537 0.3014099 -0.08577427 -1.7134203 -0.10383813 -0.19302487 0.7446869 -0.24680604 0.099635005 -0.5257403 0.6383274 0.63215077 0.8512957 -0.7601587 -0.11747466 -0.8825872 -0.3791165 0.12153339 0.049408704 0.34573218 -0.07544941 0.09658125 0.7024383 -0.16351895 -0.7458473 0.6038741 -0.16537638 0.098753616 -0.07892187 0.2106369
been -2.237459 0.08054443 3.5851545 -0.66624206 1.8161715 2.379346 0.6121485 -1.6791477 -2.7070932 -0.5294954 3.8955457 0.42852795 -0.35832667 0.55094814 3.0273125 -2.0836246 -2.434701 -0.17765369 3.3634164 2.4524543 -2.5688102 0.22589636 -0.98170274 0.2573748 0.48846054 -1.1566737 -1.0027986 -2.3062994 1.0514262 -0.36717588 -0.1719087 1.1370002 -0.96997285 -1.7016376 1.583846 -0.49584347 -0.6142565 1.4057692 0.6282191 3.3951616 0.2112111 1.0573158 -1.4962227 1.5311174 -0.8579959 -2.3724887 0.6217356 1.7079877 1.2498417 -0.37813398
known 1.4559853 1.1543118 -0.21001205 -0.94306344 0.046436608 0.45083272 0.17950208 -0.66688013 0.83960205 -0.52410805 -0.15414071 0.73001546 -0.35712877 0.6732231 2.221507 -0.9483021 -0.023664203 -0.9214393 -0.27716866 -0.01599753 1.3078548 1.1421881 -0.5586085 -1.9094437 -0.5389894 0.43998662 0.52798647 -0.44295746 -0.8829988 0.63872886 0.04997469 1.6032579 -0.09640513 -2.297801 0.49553767 -0.9676279 0.32712936 -0.48864764 -0.6779922 0.7288014 0.96553177 -0.0388824 -1.1295354 -0.79292643 0.07766702 0.51507443 0.34554237 0.8681266 0.8375536 -0.75974566
similar 0.116611354 0.6153297 -0.6578403 0.15123577 0.6065605 0.95558137 0.15732877 -0.42461765 -0.4314729 0.7610868 0.7058982 0.9031045 0.77953714 0.5731211 -0.017133871 -0.5295586 1.039723 -0.6407481 0.28635705 -0.16832893 0.63788265 0.6028679 -0.6165569 -2.1004999 0.021169009 -0.028873784 0.06360182 -0.5362894 0.72582996 -0.019526573 0.4186893 0.64488316 0.025990425 -0.9034064 -0.37737697 -0.8551645 -0.120811805 -0.13814947 -0.08852412 0.85498923 -0.6441702 0.12286262 -0.24116902 0.01998725 -0.34060842 0.7266821 1.1927812 0.17912671 1.6123254 0.7467107
which -2.221454 -1.6462731 -0.3334887 -1.2471578 0.20360981 0.79632515 -1.5937065 0.82514006 -2.2227821 1.1613972 0.8592754 -0.85140634 -2.2511911 -0.2540257 -0.21123344 -0.8149424 0.17263307 -1.0723225 0.6065078 -3.4901185 0.7068451 -0.6513051 0.43738177 -1.1860915 0.97555107 2.6735384 0.87643605 -0.9682339 1.94396 -2.222134 0.042681523 -1.0110488 -0.28735483 -3.7543063 -2.1752064 0.21958148 -1.3330125 2.749738 2.6476564 1.8757391 -1.2648234 1.5544137 -0.25120565 -2.19849 0.21434498 -1.9889623 0.3204247 0.71104777 0.41035676 1.3369505
is 1.9126034 1.0748887 0.8668044 -0.083178245 0.37189594 -0.11035901 1.2927915 0.5489734 -2.9619265 0.2215323 1.0034733 1.6900092 -2.9247525 -0.75614923 0.7719076 -2.4601583 0.26460144 -1.0919421 0.7373243 2.1804981 -2.628148 1.385242 0.9991018 -1.1623685 0.04037753 1.2558225 2.8437927 0.33694193 -1.8454256 -0.56634796 -1.9423875 2.1571164 0.2627726 0.69622886 -0.67218935 -1.1104844 -0.02346721 1.9567599 -1.0291094 -0.9311959 -0.40130398 1.7858516 -0.35408217 -0.8712962 -1.7869856 -0.0032711648 3.506253 0.24168423 1.3511783 -0.17645566
believed -0.7371199 1.1282674 -1.0123242 -1.1594701 0.96198034 0.18330918 0.09421326 1.7473851 -0.4736201 0.13861167 -0.76181716 1.6534412 0.92633003 0.29189715 -0.4536356 -0.46081358 0.3536105 -0.2247909 -0.1577752 -0.2575755 0.9149952 0.16314104 -0.5220033 -2.2374537 -0.50504625 0.12207334 -0.20654386 -0.3047746 1.0306389 1.5539728 -1.214103 1.7312243 1.7831802 -0.88024896 -0.24821909 -1.0396583 0.7659395 -0.084857985 -0.88019943 1.8019786 -1.251333 0.88266766 -0.311435 -2.2376637 -0.19841276 0.51576763 0.46032035 -0.3948996 0.09540319 1.0788257
cattle -0.97916764 0.8054393 -0.992381 0.7148425 0.11045179 0.3411736 -0.40127957 -0.033163987 0.26693612 -0.0011672532 -0.34974435 0.501737 0.45077828 0.059313264 -0.11585787 -0.13526784 0.7774487 -0.18981159 -0.1380817 -0.5650085 -0.046003472 -0.59861344 0.08540915 -0.14755373 0.5325668 -0.26813877 0.16365726 -0.49255705 -0.27985746 -0.20859885 0.21962112 0.7593829 0.36501798 -0.14112304 0.030163178 -0.39952964 0.06493942 -0.29778272 0.9582701 0.7779236 -0.68660396 -0.22353464 -0.47790918 0.66987467 0.184638 0.62761563 1.5541817 -0.30170023 0.20497715 0.56728536
feed -0.54007095 -0.3523169 -0.12188742 0.75201917 -0.45979774 0.65355194 1.0694462 0.337557 0.70714295 -0.46279344 -0.6950609 0.7865776 0.3291919 0.29801843 -0.7129095 -0.15991215 1.1177143 -0.08009414 1.1316994 -0.3487784 -0.16229127 0.3934346 -0.112464316 -1.3073635 0.5176741 -0.25489476 -1.3713437 -1.2615166 -0.09033259 0.3915268 0.20010605 0.8797096 -0.44663242 0.41303578 -0.511207 0.28350908 -0.5237295 -0.5323741 0.21779743 0.0061650714 -0.91188973 1.7324123 -0.023726245 0.07000839 0.22414358 0.49843535 0.68309486 -0.925223 1.0202192 -0.29541472
containing -0.31139573 -0.31453133 -0.11836923 0.45688578 -0.52134526 0.05192139 -0.023741486 -0.10009725 0.34783354 0.033516034 0.08400485 0.1391899 0.32821855 0.22190724 0.5322086 0.2620323 0.42203254 -0.03843106 0.39992118 -0.29492596 0.020230545 -0.7049066 0.43445593 0.31932187 0.21940958 -0.0749909 -0.28782743 -0.7511048 0.04384929 0.35156175 0.09848307 0.40783432 0.24486275 -0.07775208 0.010503246 -0.31279898 -0.0960884 -0.25108442 -0.72584146 -0.049039964 -0.5380651 0.14453414 0.07541316 -0.37403363 0.01228144 -0.51150256 0.772446 -0.19387914 0.34022975 0.31278837
waste -0.49510124 0.28293115 0.34334028 -0.032881256 -0.1591617 1.0496261 -0.2824756 0.19135368 0.41865364 -0.13939573 0.6934673 0.2639181 0.9610445 0.17514972 0.70561635 -0.14846091 0.06739507 0.11146426 0.23210514 -0.046800535 0.7280528 -0.15998831 0.5728823 -0.6414294 -0.26914886 -0.082265966 -0.19538356 -0.6715244 0.154592 -0.47201613 -0.20548856 0.54465145 -0.0075750495 -0.2283903 0.37158096 -1.6250767 -0.19287214 -0.52080894 -0.116075136 0.5391171 0.06626403 0.2652593 -0.035719004 -0.007901292 0.042975657 0.011071352 0.86522615 -0.89296454 0.13029996 0.010843517
farmers -0.0308352 0.5465471 -1.0715358 0.73049664 -1.401737 0.96832234 0.80509216 0.019325042 -0.11903326 -0.09839505 0.45917517 0.40808898 1.0925441 0.22212948 0.40615812 -0.0621631 0.94014376 0.053311344 0.14365444 0.18905826 0.7636924 0.7017965 1.5618827 -0.11790208 0.06977627 -0.09555181 0.58285314 -1.2995952 0.091973685 0.16852127 -0.07969151 0.0069854413 -1.4005269 -0.5116211 0.73882955 -0.735437 -0.07203298 -0.102699466 0.5227188 0.7944187 -0.24931183 0.4858816 -0.34087083 0.46509716 0.3120726 -0.40836075 0.90339804 -1.4807333 0.7852773 0.7132531
denied -0.9746297 -0.040840417 0.67503357 -0.96161026 1.9989774 0.8668014 0.23969913 -0.6819193 -1.3517939 0.7553545 0.30321306 0.42569652 0.31494385 0.4571764 0.90243167 -1.00084 -1.2012308 0.59518176 0.3215087 0.41471502 1.6946452 0.8775172 -0.307084 -0.70200914 0.83811045 0.5019233 1.7009038 -0.82688046 1.4423143 0.4151065 -0.77663785 0.34663206 -0.33489972 0.2847818 0.17581023 -0.27564466 1.5719906 0.043920726 -0.4066771 0.96285397 -0.40681073 -0.6978617 0.88504857 -1.5747131 0.6029679 -0.5406064 0.67084026 0.22822067 0.7614613 -0.021063646
danger 0.0030576736 0.08901479 0.19887702 -0.11779726 -0.20603949 -0.0025711684 0.1990783 0.14534673 -0.4150181 -0.79561174 -0.87920064 0.25189263 -0.70825344 0.11623354 0.87999094 -0.64876837 0.0055161566 -0.30266574 -0.062502205 0.15449218 0.71279544 0.40280646 -0.8323171 -0.32254162 0.058676675 -0.49185693 0.6753635 -0.37846464 0.53092873 0.08792668 -0.5141423 0.68209714 -0.1812056 -0.98118013 0.14152837 -0.50410646 -0.5678535 -0.4892927 -0.1068703 0.553226 -0.11622897 0.77216023 -0.48477426 -0.6894255 0.031427298 0.53244776 0.7530642 -0.51643145 1.3070186 -0.38389394
their 1.5484656 0.5299405 1.1958449 -0.14534442 0.72187936 -2.234012 -0.10114137 0.3457607 2.6592965 -1.5059055 2.77244 -0.8169965 2.2565114 0.2014953 1.2587484 2.2805374 -0.47962543 -1.2448655 -1.0679626 -0.076886356 -0.09009404 -1.1818572 1.4137527 -0.92395765 -0.68180364 0.39770198 2.995334 -1.6685979 -1.1547737 1.5462923 -0.022463635 0.83943546 1.6822208 -2.1032946 2.0946252 -2.2738938 -0.2976563 0.026962623 3.49497 2.042571 -1.6670566 -1.4481716 0.90537435 0.14264221 1.0425097 0.1375363 1.8445051 -0.77435803 1.3655359 -0.55560714
but -2.5615423 0.5752776 0.5537491 -1.6883883 -1.673609 0.13734633 0.60253865 -1.0179894 -2.8740697 -0.92778236 -0.73589593 1.13776 -0.15532503 0.9998236 1.3829265 -1.2154194 -0.35909036 0.020428503 -0.7266349 -1.0271195 -0.43251273 0.38284162 -0.468919 -3.1562886 1.0314202 2.3265822 -0.4180055 -1.5521255 -0.3237541 -1.5541756 0.34974068 -0.22125521 0.13114975 -1.982481 -1.1504784 1.3314544 -1.5571793 -1.0835694 1.3844333 1.7343402 -2.239133 -0.43258014 0.10081636 -3.0726295 -0.5336494 -0.0953194 -2.3241034 1.2613895 0.7107404 -1.6537777
expressed -0.6087496 0.41691935 0.24668205 -0.30596006 -0.0016099804 0.97937936 0.25186926 -0.05798428 0.3907155 0.049104992 0.02807127 0.5690794 0.123303734 -0.017595038 0.116086006 -0.28196257 -0.5100179 0.67935663 -0.22612268 -0.43881345 0.1412197 0.3543216 0.29249653 -0.52756685 0.2910207 -0.32025644 0.48025683 0.26980215 0.12285577 0.83459526 -0.42882794 1.1163223 0.12766123 -0.2694133 0.59466106 0.29946804 0.47391185 0.88553387 -0.8854835 1.4074585 0.09694783 -0.53910726 -0.48931646 0.2470698 0.23614067 -0.5432404 0.24142118 0.2555074 0.6020823 -0.22345445
concern -0.33903515 0.3890802 -0.4509782 -0.66749835 0.37961504 -0.39528918 -0.16416337 -1.1016405 -0.22541499 -0.15429246 1.2647402 -0.040897485 0.42383134 -0.48621625 -0.27273342 -1.0643592 -0.54912674 -0.8554545 -0.34048992 -0.8913864 0.37284085 0.13126335 -0.58089197 -0.76545155 0.7843511 0.6641229 0.6580099 -0.2526417 0.21003124 0.021289283 0.28230193 1.4134394 0.34362906 -1.6013731 0.31291774 0.39783332 1.0470665 0.9220714 0.03518793 0.8815778 -0.70570743 -0.54763144 -1.2282449 0.804724 0.66085637 0.28924504 0.2500306 -0.8731292 0.66941607 0.4467223
government 1.7874755 2.4809399 0.8753653 -0.099743105 0.41464415 3.8650424 -0.22330059 -2.976119 -0.359862 -0.65426916 0.020783016 1.2946395 1.1263146 0.23230392 1.6622561 -0.8374276 -0.6896231 -0.19208038 1.7111688 -3.0282667 0.6379994 0.8848183 -0.91452384 -1.9654124 0.3199879 1.1875598 0.80922174 -1.294264 1.1846243 -0.6699673 -0.16768773 -0.15034302 -0.63420117 -0.5592943 3.0442803 0.3437336 -0.25644404 0.9331681 1.055836 1.3286504 0.81404656 -0.07351725 -0.29306218 -0.5959702 -0.4355748 0.6329306 -0.90397644 -3.1277618 -1.1131382 0.13027124
avoid 0.8305989 -0.08872894 -0.33559754 -0.33068576 -0.53007704 0.8574815 -0.1010916 -0.44728687 -1.1882185 1.1019688 0.78709984 1.1756163 -0.1332799 -0.3860496 0.7082517 -0.32579342 0.56450707 0.3854343 -0.15157971 -0.694456 -0.11535577 0.42251965 -0.1932337 -1.325675 0.3574467 -0.5425745 0.7428548 -0.5698057 0.23716597 0.8399448 -0.119441226 0.02399907 -1.0769337 -0.38718045 0.21981081 -0.4079422 -0.35990793 0.36987692 0.4538349 0.8516753 0.08671407 0.38691548 -0.53133476 -0.37620613 -0.456654 0.0054976223 0.58101046 -1.3761324 0.592184 0.12260982
might 0.45178568 0.64480144 -0.48754328 -2.298482 0.96537423 0.55651873 2.0883434 1.0247811 -1.451417 1.6804019 -0.7856242 1.9010651 1.3285896 1.2986095 -0.3223331 0.14290993 -1.3985009 0.22760335 1.1177169 -0.87207514 -0.02789116 0.8610832 1.092993 -1.8875842 -0.10281042 -1.0484565 1.838387 0.054703847 -0.31666103 0.578179 -1.2432643 1.6236305 0.1426815 -0.09194021 0.011648937 -0.40872824 1.3215592 0.5008266 -0.7724201 0.7047601 0.6707299 -0.16838166 0.39911047 -1.2310356 -0.12903118 0.27098048 -0.09185172 -0.3060042 0.51177114 0.18040515
across -0.50841326 -0.092913404 -0.5646934 -1.6565055 -0.67856866 -0.37021676 0.3021742 -1.577831 -0.3870755 1.9221433 -0.13654669 1.6195796 0.18570495 0.25656193 1.5755454 -0.62057996 0.36626977 0.24783137 -0.6741175 0.27539882 -0.08501085 -0.9853871 1.2826711 -0.8551374 0.21625812 0.5336355 0.44218698 0.020855531 1.024737 0.51972073 0.578781 -0.64247906 -0.63898295 -0.5189474 1.1374414 -0.68157613 -1.3196943 -0.5346234 0.33025235 -0.1664451 -1.2096909 0.006719222 -0.833715 -0.1383726 0.18322201 -0.42433533 0.79445714 -0.99847543 0.12458376 -0.012707311
Europe -0.7920679 -0.41627136 -0.9750937 -0.11523506 -0.2820481 -0.65445244 -0.35369748 -1.3224771 -1.5707027 0.5582513 0.6775659 -0.63807523 -1.1462997 -0.22842109 -0.16860822 -2.343211 -0.5182581 -1.3567606 0.43518615 -0.43770212 0.033743363 -0.24875887 -0.7037713 0.4454943 -0.3286186 -0.060007885 1.3628504 -0.45032042 -0.4957265 -0.91940844 0.06748499 -0.29644293 1.279108 -0.20626886 0.26495382 -0.38778463 0.79403657 -0.00341618 -0.15001026 0.30256137 -1.0346265 -0.9824577 -0.8421737 0.34552377 0.54467124 0.4901968 0.9660448 -1.7289335 0.6992133 0.010821481
What 1.0114632 0.6108237 -0.8643655 -0.5939811 0.6216289 -0.2073455 1.4144157 -0.970494 -0.26151296 -0.16517635 -0.8978855 0.5169341 -0.37770832 0.037870117 -0.51943594 -0.792659 -0.55455863 -0.36708313 -0.23742391 -0.6284886 -1.0836515 0.6696643 0.09880881 -0.05127895 0.26100868 0.617714 -0.14504509 0.33842975 0.58159757 0.5255227 -0.20104784 -0.18247163 -0.768142 -0.23881035 0.04893335 0.70759493 0.34735456 -0.97142506 -0.24136133 0.85083115 0.018452557 1.6494216 -0.020211246 -0.45686236 1.6287434 1.0598904 -0.41892433 0.20120452 0.85843176 -0.37490377
extremely -0.21001776 0.08022547 -0.8006216 -0.5358401 0.39596105 -0.09759256 0.60485655 -0.31281167 -0.4472511 0.122387126 -0.49360573 0.50423944 0.35901383 -0.60487723 0.27627522 0.12418589 0.45188916 0.08573122 -0.6872969 -0.8565256 0.65168077 0.098483175 -0.06321938 -0.83691347 0.047539108 0.45898587 0.14415261 0.18685852 0.24725215 0.0040168893 -0.013910856 0.93528444 -0.096029475 -0.68868613 -0.51911145 -0.5601168 0.16298692 -0.13682665 -0.7189434 0.7550323 -0.031852286 1.2863253 0.02633222 -0.83406097 0.15970045 0.51154274 0.32968938 -0.09567561 0.6865819 0.23182562
how 0.1988793 -0.6954758 -0.5653487 -0.99394685 -0.2061737 0.22404592 0.30562377 0.26941025 -1.651421 0.12048031 0.8712673 1.0339638 0.6917599 -0.4342291 0.98187035 0.49433857 -0.40500683 -0.42516863 -0.31367788 -0.86347044 -0.4281189 -0.3451271 -0.92081445 -1.003523 -0.1464992 0.7345254 0.18176796 -0.76273835 0.98111606 0.3678097 0.3565177 1.4371893 -0.5703137 -0.34059808 -0.06620009 0.95563453 -0.41283342 -0.31948224 -0.2886342 1.8691922 0.26222652 1.2787662 -0.65270865 -1.7360815 -0.19808409 0.32570904 0.1375507 0.07216421 0.51769364 -1.2172476
going 0.8395691 1.5263346 -2.7754824 -0.16092479 -0.6331025 -0.6926809 1.3291754 0.6863202 -0.07056283 -0.70258373 -1.467654 1.3668926 0.6157749 0.35003605 0.36244124 -0.28494546 -0.29414704 -2.4386232 -0.8743161 -1.9812809 -0.83903563 -0.22305952 -1.5181845 -2.8267586 -0.10965828 -0.25732976 1.1275402 1.2366163 -0.47354302 0.8512368 0.08323353 2.1132722 1.5918996 -0.96589833 -0.45345402 -0.6266123 0.3405141 -0.3305922 -0.22498988 0.3621299 0.12374625 1.644079 -0.30860287 -0.17137967 -0.5709968 0.39470533 0.81796056 -1.3178434 -0.2102156 -0.4417987
take -0.4791547 -0.24118176 -1.2536753 -0.7443997 0.18123597 1.3668629 0.9486506 -1.0061877 -1.4296286 1.2645894 1.800692 0.55326104 -0.10636527 -1.4017504 2.6620631 -0.36047214 1.4936363 -0.72184426 0.76547587 -1.0303246 -0.7650852 0.3577253 -0.8333472 0.25860023 -0.8258864 1.1392403 0.13503034 0.8188977 0.5334384 3.0038207 -1.1066889 -0.3192865 -0.87500924 -2.7285073 -0.9539762 -1.1365864 -1.399405 -0.40025568 1.5975686 1.1299686 -0.5551332 -1.203854 0.561317 -0.021015646 0.060227226 -1.3472512 0.35261825 -2.2511122 0.32856557 0.013915886
lead -0.10000882 -0.35732812 -0.6479469 1.0527607 -1.1206089 0.07955621 0.68875825 0.31501162 0.3422613 -0.35665336 1.0681387 -0.9465923 -0.66753644 -0.8575143 2.0408628 -0.99487245 -1.8947777 -1.6116303 -0.5311179 -1.1418955 -1.2491577 0.19024102 -1.1887378 -1.0932236 0.6259045 1.1779397 -0.94411844 0.5292386 -1.17954 1.4826157 0.022628833 -0.54167986 -0.9753692 -0.97112644 -0.611123 -2.5507548 -1.9671674 -0.06899017 0.95536125 0.12941684 0.40700996 1.349729 0.9742374 0.8124502 1.0095723 -1.309229 -0.62403554 0.005180874 -0.3196296 -1.3880779
National 0.9572221 0.66125804 -0.69256467 1.5608691 -0.33266917 -0.38929284 -0.19165209 0.33645442 -0.8801197 1.2329947 -0.41524962 -2.6412187 -0.5681989 0.5758848 0.3985142 -3.3804367 -0.5835246 -0.28470212 -0.410558 0.19976126 1.6113193 -0.62653327 0.08134819 0.08691491 0.19119129 0.8918787 2.047573 1.6910145 -1.5280925 0.16978547 1.2995639 -1.6238183 -0.44581202 2.2917256 0.32844868 -1.0579547 1.9488372 -1.3342228 -0.63325584 2.036377 1.174911 0.37961447 -0.17075592 -0.53624016 2.8321896 -1.5857737 -0.5495383 -1.3340677 -0.7997304 0.70005894
chairman 1.3059126 -0.23138216 -0.25277203 0.3481828 -0.10574933 0.57776576 -0.85423154 -0.6731189 -0.9722743 -0.8409877 -0.85530955 -0.57956046 -0.65032274 -0.5680741 0.8410118 -0.10560759 0.17617925 0.06315631 -0.27026802 -0.53823006 0.5120783 1.8415995 1.4852809 0.13219634 0.7793428 -0.39989027 1.0652106 0.9892242 -0.713688 -0.35824645 0.0028261542 -1.4359516 0.18730588 0.08039641 0.74548566 -1.0119565 2.2149744 0.42270932 -1.3611034 0.8218771 0.25293785 0.29915056 -0.37547174 -0.77164537 1.6768533 0.17257234 -0.17715105 -0.69156855 -0.2696112 0.4311055
John 0.22982243 -1.2106736 -0.8406551 -0.2840721 -1.5901294 -0.33641425 -0.84403217 -1.1933806 -1.1973152 -0.7053412 -0.5764284 -0.4178989 0.68762887 -0.5736658 0.14449747 -1.5294744 -0.4483915 -0.0490501 0.08362503 0.35779667 0.10608596 -0.045158036 -0.06703776 -1.2128233 0.62259716 -0.3598254 -0.56097746 0.2853519 -0.84975845 0.15436074 -0.9285732 -0.6513181 1.5387703 -0.84976965 -0.019110927 -1.4615965 0.62306565 -0.30860868 -1.6901734 0.8981292 1.7797809 -0.17759594 -1.0093236 -0.273658 0.657467 -1.0640695 -0.33363912 0.5434787 0.11858257 -0.872143
Lloyd 0.36859226 -0.731851 -0.04667627 -0.30948892 0.26437333 0.6606018 -0.084198765 -1.636333 -1.1997284 -1.5061269 -1.3118892 -0.07021236 0.544128 -0.5944602 0.6000887 -0.13065508 0.1100582 -0.5907896 -0.9204738 -1.7986827 0.9802311 0.14309303 0.72992164 -0.13196765 0.5088399 -0.2752361 1.5790758 0.11963045 0.34636635 0.30578765 0.38686404 -0.2550545 0.36034867 -0.0732414 -0.34157833 0.4740077 0.5298459 0.46562243 -0.9037983 1.2504727 1.0830768 0.7280804 0.13138002 -0.30663127 0.13084517 0.69304913 -0.096881375 -0.23426671 -0.0019648278 -0.10612753
Jones -0.6656317 -0.25699326 -0.329322 0.65441227 0.033763684 0.5477689 0.526976 0.17387314 0.6558205 -0.36185023 -0.33633858 -0.5097976 0.09578184 -0.60904366 -0.27052394 -1.295272 0.49161708 -0.14449537 -0.00664966 -0.34387827 0.6243645 -0.05641224 0.15608558 -0.48308197 0.5632601 -0.51891625 -1.0666851 0.01977583 -0.18581629 0.25021166 -0.25156116 -0.087851465 1.4260783 0.12243419 -0.810946 -0.19780695 0.2818474 0.6287225 -0.47078907 1.4511094 0.6729722 0.017404374 -0.26801634 0.13172099 0.72911996 -0.2577119 0.053326093 -0.52716315 -0.49135458 -0.17392421
