2475 50
EU 0.10097155 0.0095744 0.067099124 0.020785477 0.025738325 -0.0638755 -0.020854149 -0.19039623 0.066001475 0.035245553 0.0215705 0.05938587 0.022843596 0.017305486 0.026832486 0.041910514 -0.110380016 -0.079090394 -0.05180604 -0.0024646777 -0.12723371 0.0024439234 -0.023209026 0.0038588634 -0.029385189 0.015392251 -0.016255148 -0.17026587 0.03682463 0.019853722 0.08039275 0.04251297 -0.044027954 -0.009167959 0.07336368 0.020146038 0.14312989 -0.068491824 -0.09535288 0.10274826 -0.072927885 -0.051095188 -0.036803413 -0.064916715 0.081172355 -0.08292512 0.14810367 -0.006206736 -0.039095536 0.018437648
German 1.020139 0.004650244 0.6279628 0.37083268 0.2809441 -0.33481494 -0.4083554 -1.2259225 0.23140375 0.4894494 0.08430781 0.31658718 0.00082091044 0.17634973 0.5306348 0.54024655 -0.5123179 -0.7146074 -0.22921658 -0.15392262 -0.5855817 -0.39665705 -0.42247605 -0.33298498 -0.11771534 0.18660218 -0.30147 -0.10553239 0.24679236 0.18585381 0.05430795 0.7524961 -0.33938897 -0.38636056 0.44006935 -0.018965766 0.8490219 -0.7309039 -0.31325486 0.4967319 -0.44799066 -0.16787216 -0.11050818 -0.43615833 0.97921443 -0.29155582 0.7781499 0.4182373 -0.26460513 0.04055403
call 0.123422906 -0.36567852 -0.24237862 0.25688377 -0.115528874 -0.6099353 0.37855703 -1.7539672 1.1951271 -0.4989272 -0.20274228 -0.11183836 0.02092521 0.1699772 0.46820298 0.94029236 -0.8069477 0.047648434 -0.192593 -0.34248006 -0.42875347 -0.29605266 -0.19056992 -0.1311219 -0.009611874 0.45087376 -0.19679934 -1.1485366 0.32955635 -0.16361351 0.9804104 0.30474728 0.11108324 -0.060222615 -0.22406669 0.5361655 1.0638858 0.018019129 -0.50521445 0.2967081 -0.53152084 -0.04056596 0.12931035 -0.7386768 0.017712208 -0.91890013 1.2997657 -0.8123892 -0.66546804 0.19156457
to -0.43356365 -0.7996553 -0.9527237 0.34796083 -0.424952 -1.0414841 1.1118761 -3.1347907 2.5525868 -1.3988454 -0.5050691 -0.501851 0.040255092 0.31761628 0.74566793 1.9675783 -1.3913774 0.51688313 -0.22369519 -0.74381995 -0.49570692 -0.40144208 -0.07331726 -0.124922074 0.07017678 0.9772371 -0.22783908 -2.280733 0.6430718 -0.48788968 2.1462123 0.21339129 0.4643309 0.12473126 -0.8454499 1.259026 1.7724805 0.51213807 -0.7785684 0.31172037 -1.0400462 0.14709228 0.46525207 -1.5108738 -0.4817221 -1.7570761 2.3221345 -2.148442 -1.3233267 0.30369824
British 0.51535684 -0.08667932 0.24625947 0.2272019 0.100407146 -0.3681237 -0.07910349 -1.1376885 0.49024922 0.05695882 0.011504272 0.15726702 0.038705952 0.12550467 0.3479283 0.45705166 -0.5596039 -0.32867196 -0.20352988 -0.15041299 -0.48294786 -0.2339914 -0.24526797 -0.15849824 -0.08051692 0.19945708 -0.18582962 -0.5783376 0.21638021 0.05150898 0.3867474 0.41708064 -0.14908925 -0.18575945 0.19545424 0.16584289 0.7687634 -0.34249955 -0.3861831 0.37394702 -0.34300622 -0.16315165 -0.04498533 -0.41336042 0.41702062 -0.4820844 0.82188225 -0.07708911 -0.32284018 0.110265434
. 0.48030004 -0.36230618 0.0034525255 0.3682799 0.03154871 -0.7879426 -0.21362571 -2.0377266 1.0714028 -0.10585644 0.023339339 0.09719032 0.03974126 0.18363465 0.4458029 0.8222455 -0.9695525 -0.13012587 -0.4030127 -0.21563564 -0.7169813 -0.09725201 -0.29172096 -0.22428557 0.0072808247 0.43101305 -0.36273184 -1.511966 0.377437 0.0073971236 0.80280983 0.5560747 -0.12194958 -0.31408095 -0.05586311 0.41425595 1.1822305 -0.40184635 -0.52911574 0.6752935 -0.3537213 -0.11647146 -0.024061816 -0.72369087 0.35781842 -1.0609927 1.4587775 -0.3825179 -0.8123811 0.2578344
Peter 0.5247914 0.014666257 0.35400867 0.16906105 0.13836503 -0.30114785 -0.084352635 -0.92364794 0.33107433 0.12042349 0.058113858 0.27563578 0.09059095 0.07600015 0.24656075 0.23993541 -0.5184244 -0.39660317 -0.18761739 -0.08386777 -0.52476925 -0.16336364 -0.2114984 -0.08280059 -0.13218929 0.08044661 -0.15145104 -0.5727483 0.17067514 0.098670624 0.31170166 0.33365133 -0.18702729 -0.14604597 0.3473151 0.10478863 0.71033514 -0.36976454 -0.43071657 0.38061383 -0.26204735 -0.24291377 -0.12478483 -0.27967343 0.40646666 -0.38500425 0.70896655 0.03883438 -0.19235711 0.12240266
Blackburn 0.25196454 0.053560074 0.2287074 0.060271863 0.08260649 -0.14012931 -0.061422758 -0.44884795 0.14380197 0.089499064 0.082048155 0.19546084 0.06450598 0.027731149 0.044745922 0.06221061 -0.28675577 -0.26782048 -0.103506856 -0.033040296 -0.33102775 -0.017596355 -0.06391816 0.0017528422 -0.08637551 -0.008858474 -0.051414642 -0.3973246 0.08032476 0.06920842 0.15531875 0.13359804 -0.13208142 -0.051504657 0.26238173 0.042928137 0.36426622 -0.20252322 -0.25787959 0.24285866 -0.14126648 -0.1413809 -0.11925124 -0.122813374 0.23816745 -0.1791493 0.35638988 0.04015415 -0.038591675 0.065765515
BRUSSELS 0.24874483 0.040895466 0.24670258 0.060109407 0.10030385 -0.12584688 -0.16514623 -0.40976405 0.104887925 0.14909726 0.11806135 0.19904257 0.045713034 0.02441531 0.025502207 0.029098872 -0.26119632 -0.25033155 -0.11435724 -0.015748711 -0.32336834 0.04039063 -0.041553475 -0.023657288 -0.057543065 -0.016777333 -0.04897253 -0.39901072 0.08970813 0.0888915 0.11360942 0.1401504 -0.16470116 -0.0911655 0.24662572 0.020651424 0.2934954 -0.2468352 -0.19095689 0.2674173 -0.10264035 -0.10446356 -0.1060562 -0.11501797 0.2502123 -0.16356601 0.2946735 0.09684542 -0.060796216 0.055718094
1996-08-22 0.7537752 -0.44650042 0.7158547 0.29800484 0.5140578 -0.7820456 -2.8855448 -0.8392032 -0.23134823 1.0596706 1.2376018 0.5914306 -0.36502707 0.09508698 -0.14254792 -1.0737389 -0.6515537 0.50902724 -1.233237 0.6204148 -1.0204848 1.4063449 0.05924238 -0.52533275 0.48550048 -0.014055903 -0.26315674 -2.1055105 0.47427756 0.7227181 -0.26870954 0.5674186 -1.0735035 -1.5013379 -0.084653616 -0.37701973 -0.40521002 -1.6350102 0.5759377 1.3737825 1.2472681 0.050812185 0.051882524 0.051615536 0.3013644 -0.97806996 0.19217588 1.4050812 -1.1188961 0.34748653
The 0.031691868 -0.83256286 -0.6826665 0.3793512 -0.20790623 -1.087796 0.045455404 -2.322852 1.4916632 -0.75885063 -0.22070314 -0.328945 -0.024638465 0.1755006 0.55061656 0.9648314 -1.0133204 0.5983791 -0.5043235 -0.26077405 -0.40031213 -0.24218787 -0.36768624 -0.31401733 0.20454748 0.7159707 -0.32431713 -1.8237846 0.35631493 -0.23605797 1.243167 0.5400881 0.22512545 -0.40178928 -0.812603 0.6908185 1.1743778 0.028160755 -0.44446632 0.3889337 -0.1864353 0.040133543 0.22856632 -0.8980997 -0.26512468 -1.5194852 1.7008778 -0.9877171 -1.2553613 0.28765252
European 0.35241678 -0.14802197 0.13400355 0.20974877 0.0493526 -0.39058277 -0.00945902 -1.1437066 0.61106503 -0.073504366 -0.0013586597 0.12554878 0.032329302 0.11107045 0.3100658 0.4419456 -0.58121675 -0.17611808 -0.21024098 -0.15545744 -0.45914146 -0.16833736 -0.17180875 -0.111995324 -0.044417515 0.20633763 -0.16234379 -0.7720103 0.23065288 0.02182537 0.51193017 0.30401894 -0.10643589 -0.15470335 0.09994654 0.23730654 0.739152 -0.2590507 -0.37269998 0.35985532 -0.29868767 -0.14753029 0.0054115495 -0.4367975 0.23170678 -0.5581754 0.83100104 -0.23542221 -0.38896415 0.13819203
Commission 0.40235046 -0.073548995 0.10874566 0.19524403 0.056196764 -0.3611187 0.056572624 -1.0129148 0.5426688 -0.113465875 -0.029485665 0.11818991 0.046217386 0.1307764 0.33260846 0.43086457 -0.48938903 -0.1606106 -0.18924384 -0.10229753 -0.42506197 -0.21530451 -0.234078 -0.10982632 -0.064633906 0.19065316 -0.16047393 -0.5882737 0.23296008 -0.0007083237 0.4532138 0.2708858 -0.069414 -0.1293336 0.0990524 0.19149026 0.6534693 -0.2417048 -0.36704797 0.31652313 -0.23691216 -0.19735983 0.010744313 -0.35577232 0.21438225 -0.49566984 0.7815915 -0.17935318 -0.33602855 0.101652086
said 0.036364134 -0.9294758 -0.87127745 0.4339307 -0.30927455 -1.1565294 0.40358484 -2.8561761 1.8159543 -0.89178103 -0.47562695 -0.51887107 -0.0046731383 0.23267397 0.6689639 1.5001609 -1.1410055 0.49032697 -0.38519734 -0.4501465 -0.34630805 -0.4285696 -0.4557226 -0.34427372 0.16474465 0.9741771 -0.41339856 -1.6513214 0.34996736 -0.35148668 1.2890795 0.71463615 0.33920333 -0.2831032 -0.9759216 0.72750944 1.4828902 0.22483711 -0.49062064 0.3033498 -0.55016017 0.17051327 0.27434957 -1.1451634 -0.08971558 -1.6308486 1.9269919 -1.371573 -1.2953433 0.29016268
on 0.5376881 -0.5049614 -0.3716625 0.46092284 -0.031941395 -0.9891781 0.61056304 -2.486746 1.7409441 -0.96675956 -0.45957547 -0.025274076 0.037949145 0.29712695 1.0079585 1.2667421 -1.1496136 0.39755934 -0.4610439 -0.27920732 -0.68098944 -0.62744725 -0.5711147 -0.21925355 -0.0015729405 0.7143043 -0.39745715 -1.5029094 0.5907136 -0.18139559 1.5172035 0.36769885 0.16791272 -0.2112042 -0.4189911 0.6724218 1.5240723 -0.12526476 -0.8053792 0.5008164 -0.3320782 -0.4068718 0.42268828 -0.919114 -0.28875774 -1.5453188 1.9700665 -1.1061107 -1.1496307 0.2949739
Thursday 0.6821053 -0.08910874 -0.23581077 0.34339148 -0.11092104 -1.126914 0.012763297 -1.0989121 0.33671662 -0.44941545 -0.16352348 -0.0028320758 0.12845425 -0.08131365 0.5050069 -0.5392316 -0.7973569 0.54963565 -0.5702261 0.40139297 -0.5564748 -0.596923 -0.86035454 -0.16307968 -0.050956465 -0.04255035 -0.36350846 -1.2269592 -0.42063892 -0.05417981 0.6010123 0.6922011 0.2628053 -0.44107747 -0.05345927 0.39174196 0.9974416 -0.05447805 -0.9708321 0.0931756 0.76093525 -0.97244734 -0.27482808 0.2218711 -0.46968493 -1.3119744 1.2724067 0.2039809 -0.59745944 0.35233396
it -0.37120837 -1.0078561 -1.2184894 0.4331054 -0.5663477 -1.1982563 1.212285 -3.3304453 2.6222956 -1.5348507 -0.6907556 -0.75351876 0.019188525 0.3139764 0.90103817 2.1695588 -1.3470781 0.67182875 -0.24286631 -0.78532755 -0.3080629 -0.6862002 -0.31502837 -0.20848137 0.08980861 1.1583757 -0.3227281 -2.0730953 0.5773278 -0.62895006 2.1443706 0.3753653 0.6492202 0.065240875 -1.1385427 1.2716596 1.8904612 0.641 -0.7679924 0.20053871 -0.9962394 0.17792033 0.49587274 -1.5753788 -0.49331874 -1.8724236 2.5135264 -2.202368 -1.475074 0.3212298
with 0.10658574 -0.31036174 -0.18779431 0.24157052 -0.091754906 -0.5141534 0.5728263 -1.7702907 1.307812 -0.5755292 -0.25270876 -0.050065354 0.05491325 0.20046325 0.50659937 1.0394641 -0.8555351 -0.023414172 -0.11806288 -0.4207853 -0.46010754 -0.36482763 -0.1531675 -0.07390869 -0.07286645 0.44622004 -0.15534359 -1.1368719 0.40451404 -0.16771287 1.0939593 0.18292765 0.113971956 0.04029106 -0.14370942 0.5900833 1.1394887 0.044831585 -0.57186586 0.30036676 -0.6739107 -0.10798656 0.20786542 -0.8212137 -0.040735092 -0.8775009 1.3079613 -0.9868367 -0.63623744 0.18290667
until 0.27689907 -0.05228907 0.14777687 0.12302171 0.042533543 -0.26847532 0.07449284 -0.9182727 0.4819936 -0.05002808 -0.00876432 0.13792737 0.057745 0.07715528 0.21137325 0.39379263 -0.47385198 -0.2634887 -0.12005161 -0.15241861 -0.39658013 -0.13217953 -0.114051305 -0.048758257 -0.08618231 0.13964741 -0.10169873 -0.5980864 0.18884924 0.009841505 0.41604885 0.2140287 -0.083833985 -0.04458124 0.17027076 0.1851747 0.6389545 -0.17508636 -0.35964647 0.28053916 -0.32408032 -0.11620652 -0.054433838 -0.34450257 0.2609862 -0.38336647 0.6866931 -0.20528577 -0.2172162 0.09981617
determine 0.302287 -0.051572178 0.17244297 0.13418113 0.056386825 -0.2689922 0.021874929 -0.87173027 0.4302631 -0.013930161 0.015042687 0.14858933 0.061307352 0.0775519 0.19813403 0.33649096 -0.45505428 -0.2628118 -0.13589765 -0.13050063 -0.40114728 -0.12400658 -0.12508123 -0.054339897 -0.084589876 0.12628055 -0.10712894 -0.5823491 0.17953624 0.02317949 0.3745437 0.22748396 -0.10232755 -0.07299147 0.18189889 0.1641518 0.6075435 -0.20955393 -0.34448895 0.29998097 -0.2872662 -0.13034536 -0.058902662 -0.32536632 0.26746556 -0.37518665 0.65168256 -0.15198861 -0.21660547 0.097534075
whether 0.11509516 -0.3401493 -0.23070967 0.25069308 -0.11068201 -0.5584859 0.4067655 -1.7139329 1.1549436 -0.47396967 -0.22224173 -0.11998095 0.024080032 0.15361 0.47104296 0.9662181 -0.767797 -0.021464083 -0.16474573 -0.37879068 -0.3939083 -0.32590958 -0.18377043 -0.1129673 -0.027151626 0.4652852 -0.1813307 -1.023948 0.30987087 -0.1717558 0.9453106 0.3137655 0.11861449 -0.037659395 -0.20815992 0.5131149 1.0676326 0.04756859 -0.491327 0.2607682 -0.60204685 -0.039603055 0.13409735 -0.75807196 0.058961194 -0.848065 1.2627233 -0.8251493 -0.61649626 0.17525001
mad 0.20246449 -0.31793514 -0.14929785 0.26213223 -0.07121262 -0.62161267 0.32693133 -1.7309558 1.1085407 -0.4463255 -0.17619006 -0.015852634 0.04260393 0.13879259 0.43432304 0.78695434 -0.83949023 0.0009793466 -0.2310731 -0.28473774 -0.5234801 -0.27810255 -0.22064695 -0.0983687 -0.04023995 0.39292043 -0.19982769 -1.2091902 0.28868744 -0.121413335 0.95845604 0.3241586 0.061500106 -0.08789439 -0.103300266 0.509265 1.0947841 -0.033103663 -0.5801876 0.3482923 -0.48106438 -0.1451048 0.08622735 -0.6742258 0.03710528 -0.92710054 1.3103789 -0.7181407 -0.6328505 0.2203469
cow 0.14429267 -0.2889955 -0.14044826 0.2086366 -0.085850395 -0.54846805 0.35192832 -1.6721212 1.1022965 -0.43202958 -0.14041033 -0.017853433 0.07036571 0.15902592 0.35984835 0.83406967 -0.8146501 -0.083700895 -0.19304624 -0.3157912 -0.5027178 -0.22528948 -0.1347947 -0.08495841 -0.06357372 0.38829297 -0.16300417 -1.206803 0.32542202 -0.12220682 0.94367975 0.24780689 0.055109113 -0.023034215 -0.0794134 0.4983677 1.0535692 -0.013138485 -0.5515513 0.36963627 -0.52936596 -0.09141778 0.05328161 -0.69866323 0.08072452 -0.85262364 1.2580402 -0.76473415 -0.5724535 0.19205506
disease 0.20562875 -0.16509226 0.005949453 0.16603012 -0.006287649 -0.37121326 0.15314178 -1.1797131 0.7167378 -0.2004738 -0.056804262 0.052032195 0.04580355 0.11247331 0.27944377 0.56476593 -0.5740751 -0.14642513 -0.1576501 -0.2167177 -0.4118919 -0.16094336 -0.124465786 -0.07230084 -0.054133154 0.24940386 -0.12765458 -0.80150014 0.24902895 -0.04217643 0.60683995 0.2185694 -0.029032052 -0.05906008 0.027326718 0.3043032 0.7465595 -0.117633455 -0.38083264 0.30961284 -0.39131707 -0.07905276 0.027572088 -0.4832687 0.16380881 -0.5631188 0.8716787 -0.41517627 -0.37691405 0.12766807
can 0.1551728 -0.6023313 -0.46267366 0.40316972 -0.18384822 -0.82971513 0.45959586 -2.303972 1.5598766 -0.67885107 -0.3517673 -0.29574022 -0.026133558 0.23219664 0.7130703 1.3335348 -0.9642078 0.22667836 -0.25889155 -0.4648116 -0.39160952 -0.510626 -0.32122377 -0.267416 0.071316384 0.70239 -0.30014133 -1.2437719 0.40051273 -0.25347966 1.2116863 0.5101401 0.21661504 -0.16487598 -0.51781124 0.69467723 1.3266001 0.07626389 -0.5197521 0.28634068 -0.6652464 0.024899378 0.27668238 -1.0177683 -0.023265596 -1.205572 1.649952 -1.0737072 -0.9805921 0.22557248
be -0.1091339 -0.9787064 -0.9654248 0.5373563 -0.45205656 -0.96468043 1.0959102 -3.4095259 2.4802473 -1.1910799 -0.7590935 -0.77966577 -0.17180082 0.43899462 1.1439824 2.5622444 -1.1655705 0.33948803 -0.14684787 -0.948893 -0.19173847 -0.9029344 -0.32407412 -0.45152664 0.11115883 1.2841215 -0.3734936 -1.2583154 0.6151083 -0.5635023 1.8305594 0.6089078 0.49425808 -0.05123766 -1.0876197 1.134204 1.8816569 0.42562836 -0.48982632 0.16794363 -1.4365108 0.3450617 0.5377294 -1.8199867 0.05918953 -1.5091267 2.2872574 -2.0127041 -1.3675679 0.19152832
sheep 0.110968165 -0.08032885 0.011605993 0.089967124 -0.007956669 -0.19302694 0.087212905 -0.6089376 0.36703223 -0.09329572 -0.042815045 0.021316877 0.02783059 0.057503413 0.15142706 0.31003246 -0.29028556 -0.10070459 -0.06438443 -0.12171076 -0.20536356 -0.093747534 -0.06832287 -0.03859895 -0.032798424 0.13000418 -0.06675401 -0.3854935 0.1262781 -0.029658567 0.30083334 0.13310474 -0.012741311 -0.02042717 0.026725203 0.15152353 0.3957544 -0.05710465 -0.2050862 0.1477854 -0.22539921 -0.029925864 0.00361052 -0.25657326 0.11225489 -0.2771454 0.45583066 -0.21109475 -0.1837661 0.060582586
Germany 1.2132852 0.21397078 0.9530356 0.32932705 0.39470705 -0.14620592 -0.5405935 -0.96639365 -0.075103685 0.8060764 0.20113024 0.49687043 0.028508738 0.16754197 0.4376193 0.4168997 -0.40210605 -1.0854695 -0.16512637 -0.13401565 -0.6600292 -0.3585843 -0.3940381 -0.31230742 -0.20561782 0.037329983 -0.27119285 0.19870852 0.2257947 0.29080233 -0.22769463 0.77953684 -0.49448 -0.37094486 0.7724478 -0.19148366 0.76759374 -0.91308194 -0.2957123 0.56624246 -0.5263632 -0.18359509 -0.2486417 -0.332209 1.323607 0.0120295985 0.5669221 0.75137496 0.0040557464 -0.022793857
's 0.5843232 -0.21654743 0.23329002 0.31315404 0.14245401 -0.46802628 -0.15090302 -1.5260723 0.7318891 0.05378107 0.012786165 0.14621605 -0.01594382 0.20353484 0.4986341 0.7599522 -0.65060985 -0.2876733 -0.235926 -0.26078087 -0.5270669 -0.25175026 -0.2875919 -0.2590506 -0.01579721 0.32353225 -0.2715391 -0.7035916 0.36790785 0.052448 0.48483452 0.51960146 -0.18282285 -0.30467445 0.0655256 0.24347457 0.9047391 -0.4619581 -0.31003204 0.4780091 -0.49148777 -0.042478055 0.048995387 -0.6488127 0.50069684 -0.6071191 0.9957729 -0.1456267 -0.5303239 0.110628664
the -0.18844101 -0.8722943 -0.85719025 0.43090588 -0.33469844 -1.0804684 0.86805105 -2.8326313 2.2112176 -1.2341634 -0.49282593 -0.4734895 -0.04651637 0.1985176 0.8204065 1.6816205 -1.2457612 0.49006864 -0.26836076 -0.73736143 -0.40674964 -0.62932193 -0.27925768 -0.19661535 0.09836935 0.8986619 -0.28607395 -2.008529 0.49554676 -0.48974136 1.9385433 0.36830303 0.4500806 -0.049100127 -0.78692913 1.1103923 1.7371206 0.38873273 -0.7471124 0.23685189 -0.8861016 -0.03190743 0.39827603 -1.3687418 -0.49014935 -1.6398941 2.162514 -1.8286283 -1.2794548 0.32058614
Union 0.45521194 -0.021831539 0.10270829 0.19303867 0.066045135 -0.38081452 0.1903144 -1.0555193 0.6487839 -0.23463932 -0.055054408 0.15431637 0.07670288 0.17702428 0.38423857 0.4869118 -0.5329224 -0.15453927 -0.19261782 -0.09867094 -0.47850332 -0.24132995 -0.25803944 -0.081738845 -0.10270512 0.20106484 -0.14362028 -0.6506329 0.31638846 -0.027919449 0.5698873 0.18933763 -0.050998382 -0.077266686 0.13451138 0.2236913 0.71102446 -0.24443166 -0.4563741 0.3559426 -0.22845502 -0.28540692 0.058564197 -0.36798045 0.15525903 -0.5569023 0.88020515 -0.27431002 -0.3564932 0.09699377
committee 0.17538908 -0.15945546 -0.01847455 0.15067938 -0.02497484 -0.33492476 0.14532417 -1.0256833 0.62146217 -0.18907586 -0.058578916 0.015804997 0.041577104 0.093510635 0.23842533 0.48628432 -0.4970226 -0.111868314 -0.13311218 -0.18532877 -0.34203643 -0.15888338 -0.12423503 -0.069448456 -0.04425433 0.22183993 -0.11720174 -0.6873066 0.19456151 -0.047722846 0.5223087 0.21243416 -0.006298451 -0.04894152 -0.00274595 0.268557 0.65511876 -0.08230993 -0.3377563 0.2526502 -0.327307 -0.07529757 0.012808982 -0.42141658 0.13564701 -0.497549 0.7648357 -0.37211773 -0.33284947 0.1112228
Wednesday 0.6887701 0.044617545 -0.00952065 0.25599822 -0.030981941 -0.90316916 -0.0034940625 -0.8382583 0.13616624 -0.25463718 -0.07166389 0.15094042 0.1556374 -0.116253264 0.33408844 -0.6373647 -0.70774955 0.2665693 -0.48188367 0.38303876 -0.5972158 -0.47710726 -0.7298656 -0.07179427 -0.11997715 -0.15467641 -0.2942362 -1.0727061 -0.41328838 0.024658874 0.42652428 0.5812478 0.14324921 -0.33823612 0.20993675 0.26097068 0.888654 -0.11992982 -0.9383265 0.14419255 0.6399227 -0.9475536 -0.3600465 0.27444273 -0.28878343 -1.0200859 1.0541129 0.31584847 -0.34955895 0.31879738
should -0.13857223 -0.41751027 -0.42126194 0.20623378 -0.23473915 -0.6438299 0.60734 -1.9964083 1.4495239 -0.68850756 -0.2719031 -0.22514313 0.03720632 0.15267101 0.36426845 1.1537447 -0.8873661 0.07454179 -0.15627192 -0.47064775 -0.39446774 -0.2293703 -0.07717606 -0.085589506 -0.016252032 0.52458215 -0.17637172 -1.3928653 0.31315982 -0.24736495 1.1931816 0.2666052 0.2213105 0.056413263 -0.3322804 0.72432375 1.1897954 0.22978923 -0.5628247 0.2532435 -0.70870453 0.11960433 0.11222631 -0.8995771 -0.060148448 -1.0095109 1.4775145 -1.1125642 -0.7060835 0.20800194
buy 0.10382975 -0.12494924 -0.013012228 0.10378577 -0.013647392 -0.25341251 0.11991484 -0.8257276 0.50612277 -0.14827763 -0.036478706 0.023863116 0.03118613 0.077968225 0.17428438 0.4090147 -0.3984909 -0.106084235 -0.099564746 -0.1625792 -0.27197856 -0.09962302 -0.063497916 -0.03475051 -0.033962116 0.18464263 -0.08251756 -0.57103956 0.16879043 -0.038892906 0.43544254 0.150097 -0.007367033 -0.034654737 0.0022053185 0.22522202 0.5256694 -0.060467172 -0.25683293 0.20012422 -0.29644778 -0.03348801 0.006900144 -0.34833282 0.1357285 -0.39167196 0.61772925 -0.30992144 -0.26163894 0.083505906
from 0.30668354 -0.117667645 0.05589565 0.20130526 0.05637479 -0.43745482 0.15449065 -1.3688459 0.9121592 -0.28601286 -0.016078142 0.14262484 0.08877454 0.22155276 0.40582007 0.70294166 -0.6818518 -0.14437224 -0.20418772 -0.20717569 -0.57141954 -0.12696686 -0.1444086 -0.07031632 -0.073041216 0.30241254 -0.12962143 -0.95123065 0.46820787 -0.027109468 0.7685873 0.15765037 -0.08555258 -0.07269352 0.052106462 0.35968208 0.81182116 -0.2460617 -0.44741803 0.4449537 -0.38957158 -0.15238601 0.14408478 -0.5520566 0.18321322 -0.7043857 1.0533072 -0.49129727 -0.51399475 0.11158678
countries 0.28899223 -0.19341877 -0.0008459333 0.23127134 -0.0034428635 -0.45647782 0.22296655 -1.3744668 0.8541533 -0.26771438 -0.10712656 0.032621548 0.02876187 0.14443329 0.4149357 0.6890285 -0.6603285 -0.13116236 -0.17161666 -0.25581384 -0.442658 -0.28203934 -0.20035262 -0.119386904 -0.059646193 0.30076936 -0.1697949 -0.83853745 0.2736067 -0.06924084 0.7112963 0.29791564 0.0030458122 -0.0852556 -0.0044372967 0.36844736 0.893509 -0.1330246 -0.45697892 0.31718004 -0.4417536 -0.13054144 0.063570775 -0.56427115 0.1660218 -0.66490126 1.0392333 -0.47939053 -0.47362703 0.14064719
other 0.0461088 -0.43888924 -0.34854066 0.27315614 -0.15521148 -0.6683967 0.4627169 -1.9143159 1.3528361 -0.62480724 -0.25244328 -0.17731622 0.016113596 0.17269644 0.51300263 1.0587093 -0.870967 0.09864753 -0.20644633 -0.42112795 -0.41333705 -0.33249977 -0.18654118 -0.1220096 0.0011457141 0.54467416 -0.18298766 -1.2674863 0.360135 -0.21987553 1.1395863 0.3075586 0.16148065 -0.038578 -0.32929292 0.62542754 1.1677397 0.11038006 -0.53880537 0.288874 -0.6255771 -0.038114652 0.1924544 -0.85753214 -0.074284464 -1.0143431 1.4258611 -1.0212634 -0.75384367 0.2128509
than -0.027286904 -0.5406588 -0.43022573 0.3089566 -0.19994874 -0.72725046 0.6060606 -2.1941366 1.5825334 -0.7047141 -0.33360976 -0.24857594 -0.0010635183 0.19742218 0.61785895 1.3744121 -0.96221524 0.080124885 -0.17173989 -0.5679048 -0.40297002 -0.44069615 -0.17787571 -0.1619799 0.011335057 0.64926136 -0.22222133 -1.3075877 0.42735875 -0.28692004 1.3070174 0.33792487 0.22284295 0.011414245 -0.41174585 0.7417297 1.3344493 0.18053013 -0.56394315 0.27152923 -0.8210819 0.046485767 0.2437734 -1.0389581 -0.010197681 -1.0859079 1.6157506 -1.245073 -0.82833666 0.19096017
Britain 1.1908909 0.25983915 0.9462106 0.30246994 0.3722683 -0.11086464 -0.4288413 -0.8752176 -0.10765476 0.7756256 0.17131703 0.49189836 0.060097776 0.1547069 0.42098385 0.37066308 -0.38165346 -1.1021415 -0.13245857 -0.12711251 -0.64148664 -0.41310894 -0.4047322 -0.27361584 -0.2345663 -0.00032416635 -0.25504133 0.24785697 0.17691751 0.27103284 -0.22825208 0.7453862 -0.45687053 -0.30183357 0.81424946 -0.19987795 0.76847816 -0.8467541 -0.35677797 0.50104696 -0.5323463 -0.23308273 -0.2791176 -0.28194845 1.2700555 0.050258003 0.53443533 0.72309744 0.079116814 -0.02858839
was -0.17420241 -0.725597 -0.7831221 0.37363172 -0.3287186 -0.9570085 0.8039222 -2.7280614 2.0266035 -1.0546993 -0.46372017 -0.39823872 0.059696574 0.23301625 0.6829664 1.5659789 -1.1697413 0.39194274 -0.23081793 -0.5806745 -0.44197416 -0.46518138 -0.2429618 -0.1214149 0.057173368 0.82804096 -0.27031222 -1.7751268 0.4815804 -0.39802626 1.6388088 0.3583391 0.35543823 -0.010292339 -0.71618617 0.96334535 1.5856367 0.33560997 -0.7050616 0.28937712 -0.8254353 0.066089325 0.3445213 -1.2004623 -0.30821624 -1.5003229 1.9907134 -1.615256 -1.172184 0.30214986
" -0.62514746 -1.5020397 -1.7106311 0.5578289 -0.72877747 -1.5006196 1.3532594 -4.0733123 3.1431997 -1.8709656 -0.9430349 -1.0771792 -0.06225915 0.3193581 1.0368713 2.6793296 -1.5114508 1.0115428 -0.27563283 -0.932962 -0.11373303 -0.78328264 -0.3866967 -0.3365169 0.28821874 1.5306016 -0.5032772 -2.3906462 0.57776016 -0.7795553 2.4170523 0.58960485 0.8635297 -0.0328008 -1.742032 1.4600275 2.1719506 0.8699024 -0.69266534 0.12623438 -1.163621 0.50540817 0.6190588 -1.9078836 -0.6608389 -2.2648354 2.8885105 -2.7356446 -1.9133832 0.39773586
We -0.100341454 -0.3558741 -0.40246964 0.17256981 -0.19432285 -0.49412662 0.35410577 -1.2288852 0.8381034 -0.5037154 -0.20543708 -0.20844035 0.016972829 0.056397963 0.24714789 0.5956723 -0.5346883 0.20344278 -0.15756816 -0.21735892 -0.17389497 -0.19941474 -0.14183709 -0.06344282 0.028294848 0.35152468 -0.14481229 -0.8775915 0.07988151 -0.1768747 0.70613205 0.22066161 0.21561268 -0.031667773 -0.3488506 0.42557842 0.71979296 0.20363091 -0.35001034 0.10585488 -0.2813365 -0.004348092 0.055226617 -0.500311 -0.14181563 -0.70282406 0.92143184 -0.70498323 -0.48157376 0.16303411
do -0.18973488 -0.49621323 -0.5177899 0.23184022 -0.26508933 -0.60729384 0.7060498 -2.0486553 1.519061 -0.73064923 -0.33364385 -0.31088215 -0.006780148 0.13651867 0.4177131 1.340264 -0.84984994 0.082278766 -0.08029359 -0.5292141 -0.29333794 -0.29688156 -0.07062988 -0.08527802 0.016340379 0.6232569 -0.1941654 -1.2448694 0.33105883 -0.2824479 1.1967182 0.23740967 0.24530703 0.06943828 -0.42963994 0.698718 1.1857134 0.2766497 -0.49131 0.21532062 -0.8372039 0.18302007 0.1734402 -0.9839256 -0.01216081 -0.9494911 1.4838266 -1.2265428 -0.7101314 0.1924967
n't -0.09450136 -0.35902768 -0.32346645 0.17981705 -0.19796886 -0.47370812 0.51347554 -1.6202704 1.1588567 -0.4941118 -0.21413453 -0.1605315 0.02418775 0.10248969 0.2992297 1.0196024 -0.6928897 -0.028930282 -0.06586402 -0.42159063 -0.29560742 -0.20952395 -0.04657154 -0.03502655 -0.018304754 0.45477575 -0.15676092 -1.0106922 0.27401012 -0.1852596 0.90556484 0.20261195 0.1647341 0.036555767 -0.23747984 0.5330349 0.9743095 0.1749252 -0.4229862 0.20815177 -0.6685051 0.13184616 0.09100575 -0.758296 0.07272184 -0.7207093 1.168831 -0.90218776 -0.49824473 0.15624066
support 0.27897 -0.16243726 0.050477773 0.18715964 0.00972411 -0.4087557 0.11046531 -1.2366645 0.70875955 -0.16377266 -0.039290622 0.07888132 0.054460183 0.11162528 0.29262596 0.54376733 -0.6120217 -0.18288347 -0.18491757 -0.19512083 -0.45287707 -0.17427936 -0.15976682 -0.08367913 -0.061110917 0.24637689 -0.15019095 -0.838938 0.25439927 -0.02831655 0.5973384 0.27457505 -0.053336278 -0.08759501 0.060424633 0.29317448 0.7916759 -0.16743378 -0.41584724 0.34711188 -0.37330943 -0.11526744 -0.0033900589 -0.4849115 0.20984104 -0.5933416 0.92739993 -0.3611816 -0.39199546 0.14042412
any 0.19380386 -0.38983724 -0.2453547 0.3045949 -0.1171295 -0.5408107 0.3822461 -1.7632385 1.1359843 -0.40200755 -0.2622151 -0.20555755 -0.029439092 0.1928323 0.555172 1.1601063 -0.676126 -0.065240994 -0.12020392 -0.45072713 -0.2968697 -0.43319276 -0.23272538 -0.21028842 -0.010039185 0.53533477 -0.22677943 -0.7322492 0.32099196 -0.18424162 0.83894306 0.43170935 0.13257574 -0.087948956 -0.2932768 0.4926766 1.0419469 0.013105603 -0.38392785 0.23584904 -0.68674356 0.07728207 0.16476145 -0.819214 0.23800495 -0.7694794 1.2376213 -0.7652275 -0.6222735 0.11838215
such 0.23748945 -0.14427151 0.041588306 0.17792347 0.0050633284 -0.3741082 0.17229503 -1.1987847 0.7025459 -0.18226153 -0.061842788 0.06298459 0.047574066 0.10659127 0.2847012 0.5577265 -0.5880525 -0.18913426 -0.14908339 -0.21888967 -0.41916388 -0.19040583 -0.13126518 -0.06341594 -0.07187841 0.23742841 -0.13869935 -0.79319555 0.22755489 -0.04118659 0.5976933 0.24841441 -0.037088577 -0.05147717 0.06747659 0.29944846 0.78727037 -0.11866119 -0.41617 0.3107244 -0.40958583 -0.10765516 0.00041130185 -0.48438498 0.19322076 -0.5513348 0.88980746 -0.40334195 -0.3584978 0.14028765
because 0.08416767 -0.38067657 -0.26022714 0.26105508 -0.13157631 -0.5459383 0.43579385 -1.7821939 1.2160217 -0.48976254 -0.23972124 -0.15952662 -0.0012774727 0.17891596 0.48285708 1.0824254 -0.75817716 -0.015132411 -0.14636001 -0.4262381 -0.36719576 -0.34345365 -0.16237974 -0.14391403 -0.011909908 0.505303 -0.19200955 -0.9887257 0.33945101 -0.18475354 0.9671181 0.32564554 0.12346771 -0.035097945 -0.25807625 0.54001313 1.0673252 0.05466184 -0.44085175 0.25814626 -0.68055934 0.043075036 0.16196366 -0.83069927 0.10427417 -0.83255154 1.2754409 -0.87427634 -0.6257068 0.15518364
we -0.14575642 -0.5554898 -0.55280775 0.28434554 -0.283696 -0.7576981 0.7692017 -2.3570836 1.7326056 -0.8584038 -0.36136025 -0.2954787 0.035377573 0.17972256 0.53711164 1.39417 -1.0248009 0.12694305 -0.1586472 -0.567836 -0.42666265 -0.3766832 -0.14249314 -0.103202246 -0.0060372828 0.69290876 -0.19075437 -1.5502377 0.38232377 -0.32486326 1.4329329 0.28051934 0.30495948 0.0672351 -0.44924825 0.8446319 1.4103211 0.28242576 -0.6335043 0.2685961 -0.83897007 0.07257106 0.17628416 -1.0652635 -0.095996335 -1.2057246 1.7419428 -1.3844577 -0.84592414 0.2345747
see 0.21974827 -0.1867624 -0.027839229 0.21096103 -0.023709413 -0.3585992 0.31344512 -1.218849 0.7777485 -0.26851836 -0.1649766 -0.012279725 0.012344598 0.1225239 0.39269876 0.70739067 -0.5523152 -0.13984106 -0.09244553 -0.28173748 -0.32208496 -0.30794197 -0.17600855 -0.09672522 -0.05379064 0.29113165 -0.15585181 -0.59340495 0.22819996 -0.08131071 0.63202155 0.2719594 0.053493313 -0.028507303 -0.024853949 0.3412052 0.81349075 -0.053921055 -0.38062266 0.211856 -0.49887612 -0.07343686 0.07817439 -0.5480704 0.15789472 -0.5331298 0.9032364 -0.503722 -0.3713763 0.10915088
for 0.052364953 -0.45730036 -0.36196953 0.3029845 -0.11229776 -0.70255125 0.58195865 -2.1048155 1.5975884 -0.75265414 -0.31932455 -0.15725069 0.025471294 0.27593645 0.6707148 1.2238876 -0.9690699 0.20950095 -0.19449325 -0.41655734 -0.4256801 -0.37908855 -0.19030055 -0.108081825 0.03325266 0.598592 -0.19527009 -1.3864403 0.5409911 -0.20755458 1.3406132 0.21215478 0.18266927 0.0047745937 -0.38614896 0.67766607 1.2008246 0.079754375 -0.56753534 0.33030018 -0.62622225 -0.047397792 0.36626387 -0.9178217 -0.18885626 -1.1465361 1.5660182 -1.2331655 -0.89811283 0.2559494
, 0.80659133 -0.15886906 0.27643353 0.41436744 0.14328633 -0.39687458 0.34639755 -1.8903515 0.79123724 0.10363752 -0.4114983 0.06647401 0.09771382 0.22314908 0.81555516 1.3542467 -0.62477684 -0.799235 0.015315333 -0.44442782 -0.37475798 -0.88437647 -0.5325902 -0.23862298 -0.15626642 0.49303827 -0.37259036 0.037105702 0.38862547 -0.051569022 0.4220781 0.8034126 -0.015179411 -0.034863647 0.21438463 0.15169105 1.3257464 -0.3296931 -0.5371093 0.24437967 -0.98864484 0.05187631 0.023915064 -0.6927103 0.968553 -0.4512065 1.300096 -0.26342028 -0.34824356 0.11043966
chief 0.23818228 -0.09010845 0.10451543 0.12273862 0.041414104 -0.272952 0.027085472 -0.8626432 0.4538435 -0.055416863 0.00953884 0.10641916 0.043615583 0.07452521 0.19406727 0.34616482 -0.43887344 -0.19480371 -0.13468 -0.13336764 -0.3621858 -0.10422993 -0.10532771 -0.0528414 -0.053691987 0.14439316 -0.10481862 -0.59922254 0.17568506 0.006847883 0.38420153 0.20903936 -0.0768459 -0.07505705 0.11104989 0.18656893 0.5745185 -0.16811372 -0.3057131 0.27750543 -0.2785937 -0.09643709 -0.025744146 -0.32984856 0.21155185 -0.39059946 0.6329743 -0.20042424 -0.24525365 0.09367206
spokesman 0.27419314 -0.37885442 -0.17962703 0.28726333 -0.051842906 -0.6065539 0.06005969 -1.4618232 0.82262313 -0.28661215 -0.1295047 -0.10326559 0.028945394 0.12491947 0.42498025 0.63801175 -0.64478266 0.07600341 -0.25775275 -0.20267184 -0.34903535 -0.2945081 -0.29319024 -0.19235255 0.022856688 0.39854538 -0.23608264 -0.88438815 0.20832445 -0.09732509 0.6648534 0.4466848 0.063444436 -0.21331193 -0.24880898 0.36970684 0.8696926 -0.09816961 -0.3780109 0.28183457 -0.2734211 -0.083656125 0.07161063 -0.5586847 0.08264313 -0.81317145 1.0720034 -0.467914 -0.6442476 0.1812876
van 0.55316794 -0.15017019 0.2063237 0.28579158 0.10349215 -0.44365618 -0.068897784 -1.3276627 0.6053678 0.020318093 -0.014241137 0.14022513 0.037924282 0.1363809 0.42385092 0.5598074 -0.6309547 -0.31619743 -0.2354226 -0.18965104 -0.51777625 -0.28886437 -0.28364053 -0.18350883 -0.06557212 0.25868514 -0.21542744 -0.65098447 0.24689637 0.030719277 0.4704661 0.48560303 -0.13148054 -0.22282211 0.14009787 0.2261779 0.87867206 -0.35945413 -0.4179525 0.407032 -0.3767647 -0.15153882 -0.02236262 -0.4899771 0.43527368 -0.5754271 0.9448405 -0.13392457 -0.41144708 0.14078389
told -0.0927033 -0.6163354 -0.6312899 0.31038302 -0.28120956 -0.8816994 0.6942046 -2.3300066 1.693981 -0.9209074 -0.4112787 -0.33381674 0.05502555 0.17926474 0.55083084 1.2597 -1.040805 0.34229895 -0.22266458 -0.44031686 -0.39945918 -0.38407394 -0.2346432 -0.13382587 0.01871063 0.683631 -0.2555752 -1.6389514 0.35391125 -0.31003916 1.3976403 0.35738075 0.3267457 -0.013127553 -0.56467795 0.8131033 1.3970433 0.30095002 -0.6480698 0.22658147 -0.6383247 0.0037859867 0.20656347 -0.9788069 -0.24855891 -1.3229688 1.7378688 -1.345848 -0.94636464 0.271217
a -0.0562436 -0.80440676 -0.83921796 0.45418087 -0.3178883 -1.1466794 0.9179852 -3.0956862 2.3745499 -1.3080242 -0.52412355 -0.4491416 0.008137171 0.30439532 0.93819785 1.8056628 -1.3829813 0.53447694 -0.33278897 -0.64634186 -0.53797007 -0.6376254 -0.3579908 -0.2094923 0.07940572 0.97094977 -0.34946486 -2.080398 0.63473994 -0.4492034 1.9852723 0.38617438 0.41532868 -0.04172268 -0.79914993 1.1001472 1.8068721 0.34527132 -0.8388113 0.3223827 -0.8310187 -0.09012264 0.48463857 -1.3626171 -0.46637157 -1.79399 2.3601737 -1.8750137 -1.3837292 0.33775622
news 0.19865061 -0.3166522 -0.16031711 0.219513 -0.09032171 -0.56767976 0.26785284 -1.4977677 0.9467067 -0.396987 -0.14968024 -0.019852988 0.09403062 0.101729415 0.33408725 0.64566237 -0.7474528 0.00068601966 -0.22294961 -0.2439309 -0.45511672 -0.2274654 -0.22107229 -0.093215734 -0.040242434 0.35097143 -0.18566379 -1.1089286 0.23565388 -0.119629234 0.81071246 0.2895296 0.0571373 -0.081705146 -0.11456227 0.4413989 0.97344947 -0.02767752 -0.53350395 0.32791445 -0.3430239 -0.14710335 0.012109835 -0.57063985 0.020984482 -0.8448457 1.1860456 -0.62754947 -0.5771336 0.19336224
He -0.066392586 -0.42006642 -0.38805312 0.184825 -0.17119765 -0.5858583 0.31753758 -1.426496 0.99015844 -0.55652565 -0.19019541 -0.18479645 0.04236496 0.09529947 0.28703338 0.6531398 -0.6422982 0.25544748 -0.20075412 -0.22390714 -0.2677022 -0.1874263 -0.1588775 -0.07245052 0.041336365 0.3994816 -0.15181655 -1.120583 0.17981854 -0.1845313 0.86903596 0.23513587 0.18376517 -0.0655548 -0.36951125 0.49538547 0.8509793 0.15706001 -0.42137745 0.19152576 -0.27078667 -0.016247902 0.10851686 -0.5880344 -0.1844468 -0.87134576 1.0882446 -0.78215873 -0.6369858 0.19115879
further 0.118198745 -0.28418773 -0.1848752 0.20963775 -0.086386584 -0.47845784 0.29812175 -1.3908294 0.93190897 -0.39404806 -0.16366637 -0.0871683 0.02104126 0.12520134 0.38995084 0.74449366 -0.6345316 0.012635298 -0.15471217 -0.28390855 -0.33638602 -0.26385295 -0.16389148 -0.09510608 -0.011433345 0.3729107 -0.14632447 -0.87494975 0.2659896 -0.13276818 0.7801563 0.24850655 0.09004262 -0.055336792 -0.17757665 0.42085183 0.86015695 0.014981586 -0.40767682 0.23067723 -0.4430222 -0.06342618 0.12095631 -0.59965134 0.016144518 -0.7180782 1.0330659 -0.65408075 -0.5307787 0.14836062
study 0.0760864 -0.12024959 -0.059705313 0.094427 -0.022135051 -0.21509285 0.08526887 -0.6175603 0.38955843 -0.1463599 -0.05022202 -0.017586641 0.009345682 0.053397544 0.16276293 0.2984087 -0.28095785 0.0014461485 -0.08364024 -0.1055628 -0.16996166 -0.092806965 -0.07435776 -0.055386778 -0.0061156517 0.15003608 -0.07354164 -0.40655032 0.11977972 -0.03919104 0.31681207 0.12759487 0.0109359585 -0.045131225 -0.05850188 0.17272152 0.37429255 -0.024906926 -0.17840463 0.13603349 -0.1649234 -0.029479321 0.040802877 -0.25087073 0.0358469 -0.32502848 0.45324072 -0.24743001 -0.23622063 0.07290052
and 0.48470873 -0.20611154 0.04585647 0.34474367 0.03865674 -0.39506373 0.31364056 -1.4806273 0.881308 -0.20283686 -0.24864516 -0.02597848 -0.044967033 0.19844763 0.7044172 1.0187294 -0.5852661 -0.26504138 -0.09508992 -0.3883786 -0.31854492 -0.58462363 -0.32562825 -0.24687783 -0.051748835 0.42594567 -0.2525796 -0.33759588 0.32413703 -0.094086 0.6385592 0.46181458 0.027926207 -0.117155075 -0.03570228 0.33521906 0.96973896 -0.20299509 -0.37956756 0.20134433 -0.6566605 -0.0880739 0.19747461 -0.6983942 0.361718 -0.54809695 1.0485679 -0.47100347 -0.5006399 0.07328375
if 0.043375768 -0.17651296 -0.0553055 0.12098456 -0.0796616 -0.32779053 0.26096785 -1.1390642 0.7349464 -0.2359108 -0.08715664 -0.0026728585 0.052659806 0.08254234 0.19688758 0.61931324 -0.53309226 -0.16534477 -0.08623616 -0.26219836 -0.32668048 -0.107535645 -0.0308083 -0.015186863 -0.06409594 0.25249058 -0.089023426 -0.7646666 0.20770878 -0.080357455 0.5934857 0.1700411 0.013400324 0.0203904 -0.008509243 0.3111188 0.7194598 -0.003321371 -0.35858774 0.24656647 -0.4754269 0.02047119 -0.009081133 -0.5068347 0.15935549 -0.49134114 0.8283245 -0.5133449 -0.30659315 0.10952586
found 0.48724538 -0.087947614 0.13933033 0.26449007 0.09899534 -0.38416785 0.10449598 -1.1246678 0.5913836 -0.10272225 -0.097968936 0.11459639 0.023157166 0.13877706 0.4781941 0.5087723 -0.54123825 -0.18859905 -0.17543565 -0.15327175 -0.4100956 -0.3525687 -0.30323896 -0.14706273 -0.052879103 0.21966548 -0.20715128 -0.4930298 0.2306141 0.002846393 0.49641517 0.3539054 -0.05017442 -0.14792229 0.10693059 0.21460965 0.7486201 -0.25903153 -0.39567664 0.2675139 -0.3205593 -0.22450699 0.07510648 -0.39811146 0.22996859 -0.5242351 0.8401387 -0.21290395 -0.38928732 0.11869307
that -0.22183628 -0.7663283 -0.75636554 0.37137273 -0.37049314 -0.9154642 1.0025947 -2.8786125 2.1719422 -1.0831583 -0.5543672 -0.48605186 -0.01678014 0.24650903 0.7657661 1.9258766 -1.2036581 0.24108624 -0.16267191 -0.77853334 -0.37403938 -0.5845546 -0.19383994 -0.18080042 0.033698846 0.92303103 -0.2829585 -1.6582834 0.49066746 -0.44412214 1.7493274 0.38803026 0.407212 0.08979313 -0.7274019 1.0230092 1.7260388 0.42709085 -0.6750057 0.22000757 -1.1377234 0.14483276 0.33799452 -1.415932 -0.13744631 -1.4314008 2.0956638 -1.82934 -1.0806985 0.25606096
action 0.29448944 -0.30405524 -0.21300535 0.29537466 -0.06609041 -0.6452744 0.408531 -1.7448164 1.2256954 -0.5793489 -0.22498086 -0.054611538 0.04048443 0.23949938 0.59977734 0.93782836 -0.80408454 0.10125198 -0.25218922 -0.26573434 -0.48010817 -0.38708466 -0.3044541 -0.15571374 -0.022521475 0.47055715 -0.2204231 -1.0946171 0.42219663 -0.15860887 1.0315162 0.26439738 0.102288045 -0.08603513 -0.20771046 0.51106817 1.0562842 -0.06370118 -0.54623 0.3505526 -0.4125571 -0.20159742 0.22028546 -0.71119773 -0.03526527 -0.9820784 1.3605852 -0.7814815 -0.7328855 0.17266531
needed 0.13386126 -0.2889073 -0.22080529 0.22153051 -0.0920153 -0.49147505 0.3649855 -1.4310751 0.96208984 -0.42898515 -0.22145088 -0.111634806 0.02668106 0.14275604 0.43249696 0.7926726 -0.64844275 0.023795392 -0.14341256 -0.28793764 -0.32727563 -0.31822225 -0.19923 -0.11334564 -0.019227697 0.39695013 -0.172231 -0.8248193 0.2566937 -0.15258287 0.7852103 0.27686343 0.11462848 -0.027968137 -0.18968837 0.4274482 0.8902368 0.0424985 -0.42809206 0.1945682 -0.4591751 -0.061962295 0.13012944 -0.59473246 0.013102299 -0.73841566 1.0754527 -0.6841219 -0.5313754 0.15130734
taken 0.26423317 -0.15914485 0.011155398 0.19277318 -0.021252735 -0.4000995 0.25320557 -1.2957324 0.7540896 -0.22241311 -0.11288945 0.030067122 0.03825391 0.13088578 0.35408643 0.6774235 -0.6171345 -0.20802246 -0.14003344 -0.25923565 -0.42053688 -0.2801492 -0.17670493 -0.09482208 -0.08629299 0.28934345 -0.14320245 -0.72587794 0.22508913 -0.071011215 0.6387599 0.30330223 -0.0026704052 -0.041817285 0.036454465 0.32959476 0.87395406 -0.08407772 -0.4574102 0.27029613 -0.49780375 -0.12488039 0.013453971 -0.5555796 0.23126337 -0.58316773 0.9685332 -0.47658777 -0.3661457 0.12518568
by 0.1277864 -0.3469677 -0.16646165 0.24299291 -0.053803075 -0.51742595 0.33343112 -1.6455601 1.139797 -0.43682522 -0.19237204 -0.07118364 0.037454046 0.19037916 0.47545618 0.9297292 -0.75598127 0.01873831 -0.16376922 -0.34339428 -0.41190416 -0.26577067 -0.14698538 -0.13474241 -0.020167008 0.44959766 -0.165382 -1.0368384 0.40332624 -0.1338694 0.913908 0.24535555 0.04992532 -0.040495522 -0.19461024 0.47396797 0.9718154 -0.024322787 -0.4340902 0.29852724 -0.54867625 -0.01332836 0.21770948 -0.7248593 0.016988322 -0.8187654 1.1772933 -0.792714 -0.6457688 0.17093769
proposal 0.2251068 -0.15573512 0.00916508 0.16960615 -0.000776553 -0.35950792 0.120218754 -1.0876284 0.6586754 -0.18697558 -0.05391796 0.04497388 0.040604915 0.11813065 0.28790122 0.5081031 -0.5286348 -0.1113246 -0.1543589 -0.18018362 -0.37057203 -0.17399445 -0.1431565 -0.08529696 -0.04868209 0.2330357 -0.12953757 -0.71982574 0.23662065 -0.043250185 0.5585992 0.22912064 -0.024886223 -0.07220287 0.015128803 0.26904657 0.69043285 -0.13261731 -0.35486642 0.28422898 -0.3254612 -0.10113339 0.035568617 -0.43681225 0.14583576 -0.5374002 0.81371826 -0.3645861 -0.3775957 0.115486845
last 0.17057869 -0.2728988 -0.110546514 0.24153775 0.015380886 -0.5301495 0.46750262 -1.4842834 1.1103326 -0.52848905 -0.23226307 0.021488633 0.04792321 0.1536495 0.53803176 0.79251283 -0.76607317 0.11852458 -0.17289947 -0.29190323 -0.42820194 -0.39727238 -0.23099245 -0.06738291 -0.03000474 0.35593295 -0.21714215 -1.0191255 0.3952324 -0.10450816 0.9972897 0.14026855 0.07202068 -0.001227452 -0.13224743 0.47247142 0.982466 -0.043685023 -0.55950946 0.24607307 -0.45620003 -0.20184816 0.23982368 -0.6199245 -0.15558808 -0.80832404 1.1773739 -0.8164699 -0.6264902 0.20068283
month 0.27742022 -0.19478318 0.018686851 0.23585267 0.014358978 -0.4872103 0.29998675 -1.5977997 1.0136064 -0.308269 -0.11304708 0.08990489 0.09151468 0.17376056 0.4365802 0.78473544 -0.78245634 -0.19356129 -0.17739448 -0.30695325 -0.5554741 -0.26770476 -0.17563073 -0.08540247 -0.09590872 0.3428458 -0.17233752 -1.0609162 0.37339357 -0.070755765 0.8728809 0.26491138 -0.0033703127 -0.03502587 0.059235606 0.43064266 1.0291511 -0.14964813 -0.54337144 0.38669577 -0.5617851 -0.14096542 0.07001789 -0.65009594 0.1850884 -0.76051813 1.1972874 -0.6014492 -0.5184706 0.15872814
ban 0.56974906 -0.30654496 0.07764216 0.37959117 0.03623261 -0.71246755 0.05739556 -1.972559 1.0493053 -0.20155706 -0.091630526 0.09261344 0.04717967 0.18194441 0.5985778 0.8578418 -0.93470496 -0.2087862 -0.32789955 -0.2862249 -0.66347295 -0.38444486 -0.36535376 -0.2273045 -0.048774123 0.4283662 -0.29482675 -1.160853 0.3438713 -0.025975382 0.8521633 0.5864967 -0.07203458 -0.25455216 0.012413247 0.42921206 1.2615168 -0.32937932 -0.6074067 0.51585436 -0.50619406 -0.19923273 0.03662142 -0.7525392 0.3661016 -0.9717997 1.4373327 -0.4497532 -0.70455176 0.21835037
human 0.32540178 -0.21161489 0.009617968 0.22713017 0.017469462 -0.40960792 0.017634382 -1.14766 0.6030777 -0.11886206 -0.0675266 0.00017386426 0.005764318 0.12087839 0.37628582 0.5335443 -0.5031516 -0.091362104 -0.18353194 -0.18041374 -0.3369517 -0.2522842 -0.22646102 -0.1543521 -0.011456434 0.28708962 -0.1819775 -0.5728409 0.2020494 -0.03265572 0.4744125 0.36019105 -0.022384461 -0.1642513 -0.058932565 0.2389917 0.7032664 -0.18150188 -0.3030153 0.26700374 -0.3065807 -0.08423233 0.052852705 -0.4524686 0.22115341 -0.5456037 0.8135464 -0.2726113 -0.4324426 0.11137214
food 0.16498786 -0.13619095 0.0126934415 0.1379581 0.0014270599 -0.2959707 0.11046185 -0.9537005 0.5889798 -0.1532247 -0.044820014 0.04358789 0.030445278 0.09647157 0.23528199 0.46907556 -0.46787417 -0.103072174 -0.123164676 -0.1751585 -0.32123086 -0.12097791 -0.09279537 -0.058483552 -0.036177844 0.20563535 -0.103464596 -0.63726854 0.21871924 -0.027562391 0.48775828 0.1781783 -0.031653013 -0.05531125 0.006808941 0.2381048 0.59166723 -0.10287795 -0.29116052 0.2606048 -0.31915835 -0.05794925 0.03953161 -0.39586657 0.12814656 -0.45085448 0.69275373 -0.35263985 -0.3258165 0.105205275
move 0.14289953 -0.23012902 -0.095447235 0.18838692 -0.0466424 -0.41884154 0.25587198 -1.3204551 0.8609553 -0.3148545 -0.1184429 -0.0045159017 0.040649388 0.11602315 0.33608025 0.667278 -0.6317552 -0.074920714 -0.14605294 -0.26000035 -0.3724557 -0.20828122 -0.13174835 -0.06791124 -0.038333554 0.31395033 -0.13960852 -0.8794861 0.25922057 -0.093153715 0.73114246 0.2302813 0.02767164 -0.04049423 -0.0712511 0.3863724 0.8271132 -0.04659083 -0.41694295 0.2805286 -0.4457533 -0.063192554 0.07325218 -0.55882 0.08368221 -0.65060925 0.97618943 -0.56777656 -0.4653986 0.14019758
health 0.23010063 -0.18955265 0.0015342997 0.18956476 -0.00023916106 -0.40201735 0.16506208 -1.2490339 0.7471143 -0.21313073 -0.07928679 0.036045305 0.047193907 0.115652576 0.30547097 0.60043514 -0.59755415 -0.14713748 -0.1608147 -0.22904862 -0.4053769 -0.2007391 -0.14404897 -0.09061789 -0.05571728 0.2702663 -0.14052911 -0.8178928 0.24663055 -0.051331293 0.6287265 0.25687528 -0.016355991 -0.067925274 0.005668762 0.31208274 0.8049626 -0.11605393 -0.4051237 0.3042549 -0.4050214 -0.09238851 0.023575326 -0.513479 0.16768263 -0.5910899 0.9210452 -0.4409171 -0.4072776 0.14113224
proposed 0.25120977 -0.2631148 -0.0980085 0.24235198 -0.039689865 -0.53893334 0.26293114 -1.5763876 0.99811476 -0.3638127 -0.14459321 -0.017659822 0.043286726 0.16012707 0.44581768 0.7821488 -0.7482297 -0.07428809 -0.2079704 -0.27497435 -0.46878216 -0.28626084 -0.21945608 -0.11764345 -0.043176584 0.37835148 -0.18189567 -1.0033396 0.32002708 -0.10134191 0.8408258 0.31758562 0.030582547 -0.077750005 -0.08131606 0.4204721 0.9840814 -0.0852761 -0.50503266 0.33528638 -0.47578594 -0.12694328 0.09700572 -0.6399522 0.118075594 -0.8049974 1.1855026 -0.6296993 -0.56487155 0.17107232
measures 0.34183 -0.07197892 0.14076582 0.17608269 0.04950475 -0.31861937 0.04045346 -0.9548772 0.4868914 -0.054640826 -0.015235531 0.11423383 0.039255504 0.09570145 0.27774507 0.4017412 -0.47794053 -0.22571011 -0.15211174 -0.1378285 -0.40143737 -0.18344325 -0.17273134 -0.0902769 -0.06548268 0.15861961 -0.13677882 -0.56986386 0.18503726 0.014313262 0.4117711 0.2744683 -0.074342355 -0.10062412 0.13799149 0.1920121 0.64523697 -0.2081168 -0.35105878 0.2929478 -0.28838125 -0.14366129 -0.030634714 -0.3505886 0.25589663 -0.43316644 0.71915764 -0.16721141 -0.27309495 0.09895614
after 0.34673673 -0.11214236 0.042030964 0.20856686 0.03680179 -0.51289475 0.27888268 -1.194584 0.7549445 -0.34890047 -0.11781715 0.15837574 0.098094456 0.08767968 0.4262573 0.33340025 -0.7266019 0.034159895 -0.25446334 -0.0916809 -0.54021084 -0.2793688 -0.2583241 -0.043366734 -0.1013618 0.17732142 -0.1636791 -0.9695891 0.20464425 -0.0073552905 0.75579077 0.2084783 0.002657023 -0.08521614 0.09649644 0.3558685 0.90614706 -0.12249204 -0.6212813 0.27925494 -0.17778055 -0.3964386 0.06263534 -0.34918293 -0.09773652 -0.777536 1.0237696 -0.42355055 -0.45280123 0.21571645
reports 0.21466553 -0.325175 -0.16373964 0.24048063 -0.056413345 -0.6123891 0.16619381 -1.5586693 0.9620692 -0.38590413 -0.10877413 -0.045063216 0.042107675 0.14245556 0.39469305 0.66310316 -0.73652273 0.05855232 -0.2656986 -0.22343142 -0.462565 -0.21707621 -0.22129813 -0.12495069 0.003917189 0.37359834 -0.19296074 -1.1275772 0.28896004 -0.096341655 0.833012 0.31919965 0.041971628 -0.13741757 -0.17023678 0.42919603 0.92206866 -0.08214044 -0.47917292 0.3486323 -0.31997153 -0.13037051 0.08052987 -0.5947148 0.01733844 -0.8796449 1.1812898 -0.58378035 -0.6382907 0.19810076
France 1.3817725 0.31516466 1.1285841 0.3326727 0.45328832 -0.17455003 -0.56215584 -1.0621891 -0.123970084 0.9105064 0.26227072 0.6559522 0.101697825 0.16049339 0.39811558 0.3155302 -0.52093357 -1.2899377 -0.20358 -0.11391071 -0.8517032 -0.36232507 -0.4306243 -0.26848537 -0.2925481 -0.0425078 -0.28208002 0.04287081 0.2261891 0.3439299 -0.2221227 0.83366776 -0.5675278 -0.36422977 1.0066338 -0.2260722 0.9154346 -1.0249554 -0.4757816 0.6672004 -0.5647766 -0.31671908 -0.3670827 -0.31665182 1.4591941 -0.008276355 0.67211103 0.8575724 0.08413178 0.016812705
under 0.55308473 -0.022502862 0.19575493 0.23622935 0.08575145 -0.43921867 0.24955691 -1.2890147 0.6298063 -0.12242629 -0.17417957 0.19276038 0.07990985 0.067097224 0.47924477 0.42947337 -0.68280417 -0.31010053 -0.19873899 -0.10813211 -0.54382324 -0.42151108 -0.35787588 -0.05310337 -0.12642771 0.18973784 -0.2213598 -0.6774708 0.1830016 0.031930782 0.5532525 0.39200482 -0.047511112 -0.06473575 0.26277 0.18396918 0.97134537 -0.19577701 -0.65458846 0.27202892 -0.34582064 -0.33504134 -0.06305211 -0.31737795 0.24610233 -0.64228535 1.0361954 -0.21151309 -0.28874102 0.22342621
conditions 0.3223262 -0.20220628 -0.021506041 0.24079908 -0.012468118 -0.487791 0.2248853 -1.3808062 0.8615266 -0.30107248 -0.12510934 0.029793177 0.032007635 0.15409477 0.44238853 0.6721357 -0.6669716 -0.08437692 -0.19476876 -0.2233697 -0.43911538 -0.31064096 -0.2367342 -0.12520212 -0.049285885 0.31218562 -0.18836792 -0.84247065 0.27160418 -0.0725535 0.72456926 0.30367625 0.009946624 -0.099927776 -0.026108388 0.36606076 0.90221614 -0.13155523 -0.47267124 0.3150973 -0.3889908 -0.17351355 0.07388647 -0.5473411 0.1270184 -0.71166813 1.0532823 -0.48182362 -0.50353664 0.14846206
could -0.2923622 -0.6508089 -0.7367504 0.27841043 -0.38113675 -0.8629465 0.89716125 -2.6255946 2.0067177 -1.0457008 -0.4434019 -0.44515413 0.016637875 0.2251606 0.54325897 1.6211817 -1.1218277 0.3023894 -0.18629031 -0.6450884 -0.386446 -0.34900677 -0.10777854 -0.14553538 0.026201872 0.7758206 -0.22966148 -1.7566363 0.40330064 -0.39664894 1.6251737 0.32534057 0.38842 0.078683496 -0.6560989 1.0127321 1.5169406 0.42353418 -0.6587363 0.24193582 -0.90460336 0.22196822 0.25610265 -1.2173734 -0.2324181 -1.3712748 1.9350497 -1.6087799 -1.0264016 0.25839856
contract 0.26895925 -0.16117693 0.039103318 0.19164753 0.0023633768 -0.38679963 0.19356273 -1.2581677 0.7627887 -0.19865935 -0.08184552 0.054265957 0.04457309 0.13293754 0.34341255 0.6500648 -0.60055494 -0.19507919 -0.1454778 -0.23968306 -0.41917738 -0.23325253 -0.15679508 -0.09557118 -0.07001871 0.2721696 -0.15159836 -0.75179714 0.27312368 -0.048750058 0.6274989 0.26774356 -0.029552603 -0.058114745 0.04740576 0.31567016 0.82931453 -0.13710938 -0.42213342 0.30951542 -0.44334948 -0.095104985 0.037012603 -0.51603955 0.22376087 -0.57119036 0.9381853 -0.4279091 -0.38914084 0.11917733
( 6.761548 2.915397 6.962976 0.8308834 2.7131114 0.58772546 -3.6512277 -1.5540957 -3.3111484 6.029017 2.1773152 4.2308197 0.7971082 0.32529044 0.35485438 -0.8501713 -1.2056174 -7.5260463 -0.6488798 0.2072399 -4.1398726 -0.61219263 -1.352599 -0.64304745 -1.7691673 -1.6417559 -0.763935 1.7198193 0.49988887 2.297161 -3.1645455 3.1820495 -3.5015233 -1.3963746 6.6659203 -2.450279 2.5993164 -5.487713 -1.9040871 3.286926 -1.8933415 -1.7120022 -2.7593553 0.17551771 7.7830963 2.133689 0.7606433 6.312769 2.472538 -0.23769663
BSE 0.22980987 -0.0016446476 0.19469343 0.06252092 0.0742703 -0.11270531 -0.17682348 -0.38035187 0.11357717 0.12925556 0.09892567 0.14820322 0.015271092 0.038925715 0.054699965 0.08203555 -0.21375601 -0.18862592 -0.10070028 -0.026965158 -0.24820682 0.028018061 -0.04927326 -0.05588872 -0.027149083 0.02058068 -0.058182504 -0.28779405 0.10790746 0.07317579 0.08500712 0.14024095 -0.1496567 -0.107289456 0.15799567 0.0075164223 0.2372751 -0.23614421 -0.12699741 0.23406008 -0.09512607 -0.03994777 -0.06310206 -0.11748673 0.24112745 -0.13749388 0.25730753 0.083310895 -0.09249573 0.050923083
) 6.8160768 2.8149028 6.905286 0.9176686 2.7148852 0.66894776 -3.7944896 -1.5665034 -3.3646219 6.0340395 2.1638062 4.107108 0.6160012 0.36759052 0.6197867 -0.63301015 -1.1513445 -7.4810224 -0.59960294 0.2053646 -3.9333267 -0.7743388 -1.4923444 -0.83550495 -1.6433228 -1.5648483 -0.8994563 2.0873575 0.54521966 2.2816925 -3.272496 3.330306 -3.549821 -1.4986712 6.4945617 -2.4120648 2.5547445 -5.5636964 -1.6552088 3.1728382 -1.984539 -1.6110497 -2.620687 0.17903593 7.926916 2.1646905 0.71918344 6.396806 2.3381522 -0.32289025
-- 0.75000644 0.35630608 0.81839895 0.03548198 0.31896603 -0.07937196 -0.38825235 -0.6561485 0.03621447 0.4943292 0.36053526 0.72374606 0.26454672 0.046126474 -0.13858435 -0.04132498 -0.5405177 -1.0356759 -0.20379749 0.021958927 -0.9342545 0.21985911 -0.07393344 0.03771882 -0.28354475 -0.13820456 -0.0350665 -0.8402862 0.25858098 0.2857672 0.08171786 0.21917132 -0.5642869 -0.025045754 0.94452775 -0.1415607 0.6555263 -0.7381982 -0.5250064 0.76409924 -0.24724917 -0.2933367 -0.45182908 -0.12570658 0.88981426 -0.14142561 0.6212447 0.48030257 0.1428437 0.058829762
But -0.0040654163 -0.39554495 -0.30298448 0.22344355 -0.15169065 -0.588222 0.49281883 -1.8609611 1.2707411 -0.5521524 -0.23083021 -0.1489308 0.05967317 0.13712147 0.3745565 1.0359408 -0.8218126 -0.023348983 -0.1440706 -0.41939694 -0.40857258 -0.2630875 -0.14103296 -0.07347917 -0.032856658 0.47938207 -0.17397706 -1.2325088 0.31103167 -0.20230778 1.0393705 0.2845644 0.1397931 0.013485226 -0.24374987 0.58915013 1.1434826 0.11612618 -0.5324751 0.2911426 -0.68243164 0.032585878 0.090848446 -0.8304878 0.061914887 -0.9008804 1.36739 -0.98068386 -0.63306385 0.18288355
agreed 0.19373922 -0.322104 -0.21377192 0.2570377 -0.09218675 -0.60157233 0.37476838 -1.6856775 1.098493 -0.46788305 -0.22436531 -0.10121102 0.030657109 0.16100726 0.50274915 0.8619272 -0.7811052 0.02228347 -0.2070516 -0.30954012 -0.41810456 -0.37127107 -0.24590735 -0.13351697 -0.030811068 0.43376175 -0.20386729 -1.0171757 0.29369575 -0.1505879 0.9097931 0.34727097 0.11306562 -0.06700915 -0.18867691 0.48377675 1.0551499 0.011380586 -0.538765 0.26002982 -0.49808326 -0.115565084 0.12747546 -0.6820566 0.031645287 -0.88859135 1.270327 -0.74647254 -0.62139684 0.191669
his 0.047404017 -0.518196 -0.4250675 0.31089553 -0.18616407 -0.75903064 0.7246832 -2.2172515 1.6161096 -0.83610296 -0.38327268 -0.16760437 0.05376144 0.17350917 0.6267928 1.229664 -1.0428026 0.18148313 -0.1911012 -0.4662791 -0.4660007 -0.49879202 -0.26202127 -0.10412394 -0.014243515 0.5922566 -0.27351892 -1.4721613 0.41619444 -0.26616898 1.3886969 0.29115415 0.24615213 -0.00680552 -0.33125427 0.7552988 1.4308237 0.16993022 -0.7168875 0.25003603 -0.71829814 -0.11991226 0.25780877 -0.9636755 -0.18430628 -1.1646508 1.6819601 -1.2647207 -0.8736301 0.24167831
officials 0.21491414 -0.44788685 -0.2884226 0.29034907 -0.10448236 -0.7261189 0.16563073 -1.7683723 1.077807 -0.4551043 -0.17485298 -0.1470992 0.03655085 0.1437989 0.48721123 0.7811655 -0.80496347 0.14548601 -0.30281103 -0.2467406 -0.40569824 -0.3105033 -0.2903025 -0.18245436 0.031004777 0.47848886 -0.24394827 -1.1836809 0.2694421 -0.14457731 0.9007427 0.44060075 0.111443 -0.196722 -0.33296734 0.47956976 1.0342807 -0.03526051 -0.48742434 0.32017738 -0.32425064 -0.08654708 0.11115442 -0.67584985 -0.008964282 -1.0198706 1.3168763 -0.68979067 -0.77850676 0.22735357
questioned 0.1989025 -0.26186892 -0.1465039 0.22242935 -0.06361083 -0.524334 0.30965585 -1.486375 0.97923267 -0.40561023 -0.15907133 -0.042178117 0.040507022 0.14903541 0.41927114 0.7493398 -0.70787334 -0.020047901 -0.19185263 -0.26122907 -0.4220747 -0.28433108 -0.20562816 -0.09694373 -0.041615162 0.3691839 -0.16909479 -0.9720024 0.2937534 -0.124046095 0.8288821 0.26603708 0.06660696 -0.056512654 -0.116311766 0.42577943 0.93645924 -0.02624991 -0.48556867 0.2835102 -0.43291396 -0.13369903 0.10041463 -0.6040765 0.041006736 -0.7802481 1.1320345 -0.64967245 -0.5454196 0.1651714
as -0.23994918 -0.69675714 -0.6876666 0.3388201 -0.31491083 -0.7988039 1.0318519 -2.7083976 2.1226685 -1.0875957 -0.5092951 -0.34898627 0.0736945 0.23232724 0.6696652 1.6772833 -1.1955309 0.2178198 -0.10443257 -0.71889323 -0.4372581 -0.48896897 -0.15008844 -0.07411063 -0.0036378521 0.8359455 -0.20595737 -1.6883205 0.5238928 -0.40513882 1.7149937 0.23915713 0.34781742 0.123546794 -0.5714103 0.98943675 1.6612692 0.40743268 -0.7242489 0.25451642 -1.073728 0.07241836 0.3778823 -1.2969182 -0.27222633 -1.3612965 1.9876672 -1.8044394 -1.049504 0.30125493
there -0.31443873 -0.7962461 -0.84083384 0.35346213 -0.3811004 -0.9230937 0.9506347 -2.7554643 2.1448145 -1.1545874 -0.51208395 -0.49653473 -0.018882545 0.22058137 0.72676224 1.8076669 -1.1503041 0.32283866 -0.16602689 -0.7586935 -0.32869527 -0.51396334 -0.16768503 -0.15137605 0.07696783 0.9208706 -0.22429663 -1.7331278 0.5061737 -0.47088692 1.7668401 0.32591075 0.429776 0.074748136 -0.7807812 1.0287195 1.6145142 0.4530257 -0.6557764 0.19371623 -1.0301627 0.18139914 0.38230821 -1.3644534 -0.27925375 -1.4508221 2.0215633 -1.8344208 -1.1327593 0.2614897
only 0.26668626 -0.20758893 -0.00065599044 0.21545033 -0.0038186868 -0.4347858 0.23209256 -1.4342061 0.8811245 -0.2548324 -0.11456347 0.04363899 0.04710677 0.13966225 0.3834551 0.7606998 -0.67360336 -0.1947144 -0.15436171 -0.28394583 -0.45620003 -0.25815085 -0.1689954 -0.09234135 -0.066387124 0.33162567 -0.15908979 -0.881974 0.31635687 -0.06210455 0.728043 0.2759525 -0.020305427 -0.05611652 0.019517522 0.35852334 0.92675966 -0.13438302 -0.45541972 0.34612864 -0.5046365 -0.08865918 0.063660294 -0.6061359 0.21582909 -0.6541397 1.0566356 -0.53823084 -0.46148264 0.14586969
risk 0.1842048 -0.00816006 0.12944856 0.07424166 0.051501025 -0.14225484 -0.009863249 -0.50709164 0.24131942 0.017111449 0.031418238 0.11198655 0.03853956 0.04346517 0.0838561 0.18062598 -0.27630037 -0.18919884 -0.086101115 -0.07441114 -0.25807512 -0.04456716 -0.058640108 -0.021673482 -0.05571812 0.06318231 -0.057856426 -0.36408824 0.10985485 0.025855603 0.2148126 0.1295775 -0.07904491 -0.042036638 0.14802344 0.08710396 0.35663906 -0.1485427 -0.20517085 0.20169216 -0.17830552 -0.07577587 -0.051903848 -0.17749561 0.18946628 -0.20810366 0.37603548 -0.060607135 -0.11151522 0.04880272
Spanish 0.5126374 0.039843224 0.39927322 0.15015046 0.15766174 -0.26078343 -0.18887542 -0.8739848 0.27239284 0.20099962 0.13244247 0.30471718 0.07468681 0.07893543 0.16940689 0.20838729 -0.49974766 -0.4513875 -0.19012505 -0.08043941 -0.5469572 -0.08291596 -0.15391032 -0.078800365 -0.11765522 0.04821368 -0.13249038 -0.5972071 0.17934488 0.1199726 0.24812199 0.32170245 -0.2460969 -0.16385758 0.3861883 0.06958533 0.6362331 -0.41209432 -0.38094434 0.4324147 -0.2715687 -0.19370022 -0.15676805 -0.27346778 0.48164597 -0.32260138 0.6350538 0.10883376 -0.1544813 0.10718383
Minister 0.2873196 -0.2722844 0.010996692 0.19810155 0.008769928 -0.5128183 0.0094588 -1.3304598 0.71844095 -0.21991846 -0.025765667 0.055992246 0.077343196 0.089692734 0.27555415 0.41306424 -0.71988183 -0.034562692 -0.27276838 -0.12747961 -0.4998652 -0.13589293 -0.19708243 -0.13261211 -0.04729018 0.2624181 -0.17702295 -1.1016798 0.21785831 -0.006755639 0.67992514 0.3109238 -0.056939203 -0.16028713 -0.025582423 0.3129556 0.8524604 -0.18203343 -0.4830278 0.39955312 -0.222153 -0.18260221 -0.04427137 -0.47126433 0.055864844 -0.7705193 1.0112519 -0.37749714 -0.51275086 0.21644346
de 0.6529103 -0.1835314 0.26063842 0.33621806 0.09004332 -0.6105751 0.07244732 -2.020244 1.024544 -0.0902474 -0.034071628 0.21372674 0.09666759 0.20350285 0.52055407 0.8991416 -0.9791793 -0.5039334 -0.29035202 -0.31509748 -0.78351533 -0.34654135 -0.32927126 -0.17952955 -0.14469229 0.3777899 -0.26614854 -1.1789182 0.40207738 0.0013538562 0.830904 0.5533824 -0.1574578 -0.18960597 0.24516197 0.38986695 1.3283774 -0.41291055 -0.69481915 0.6031705 -0.6895159 -0.2131946 -0.05953303 -0.7767191 0.5988488 -0.86218816 1.4889473 -0.3981443 -0.5648925 0.20412947
had -0.3380961 -0.89259106 -1.0190606 0.43619725 -0.39269993 -1.0709286 1.0463045 -3.112435 2.399655 -1.3407878 -0.5803545 -0.4951553 0.028653324 0.2728058 0.78320515 1.7800581 -1.2894793 0.55913544 -0.20429312 -0.7145163 -0.4282848 -0.49209553 -0.22287393 -0.052756734 0.08381988 0.9819321 -0.26917502 -2.0199106 0.5707429 -0.5137598 1.9885218 0.320114 0.44899353 0.05113711 -0.92186034 1.1853344 1.7580541 0.55479366 -0.7830182 0.24290247 -1.0267254 0.11180191 0.5072431 -1.4018117 -0.525884 -1.7107157 2.2664714 -2.036017 -1.3658812 0.34794825
earlier 0.19342922 -0.24046862 -0.12565488 0.2173347 -0.04191403 -0.5464173 0.2977473 -1.4449682 0.9583857 -0.40984315 -0.14055409 0.002646859 0.07601483 0.14132409 0.41839156 0.63710296 -0.7191207 0.05275223 -0.21749158 -0.21135567 -0.4553172 -0.27148113 -0.21636096 -0.09126204 -0.046456903 0.32910004 -0.17633528 -1.0493597 0.305566 -0.0928988 0.8488115 0.22215834 0.06361148 -0.05474566 -0.0992068 0.430512 0.9154 -0.060075372 -0.5185809 0.2900607 -0.34750503 -0.1751735 0.10724104 -0.53416955 -0.026897723 -0.8117439 1.129104 -0.607917 -0.56866413 0.17534856
accused 0.18946642 -0.27019772 -0.11529535 0.21561235 -0.046830412 -0.50719756 0.2318226 -1.4644736 0.92366344 -0.33876765 -0.12920314 -0.02872954 0.034847442 0.13675654 0.38226286 0.70705366 -0.7023536 -0.045508094 -0.1949048 -0.2627239 -0.42569572 -0.239987 -0.18337166 -0.10313191 -0.035173003 0.35554728 -0.16718729 -0.96776813 0.2844288 -0.09054393 0.7776923 0.2935619 0.028019115 -0.076398626 -0.104908645 0.39441752 0.8940605 -0.05620086 -0.4525992 0.2973644 -0.44136718 -0.1015919 0.08946403 -0.5972261 0.08076898 -0.7589098 1.0893141 -0.6064903 -0.52281606 0.17616521
at 0.6851574 -0.20061319 0.035260282 0.43338645 0.06478597 -0.65397024 0.21514934 -1.8761804 1.0525787 -0.2350104 -0.22739953 -0.0013553426 0.02637399 0.29001302 0.80999637 1.1087579 -0.77851117 -0.20280826 -0.2612722 -0.30175483 -0.5249275 -0.60029674 -0.48678657 -0.32506788 -0.043491013 0.4860283 -0.33549407 -0.5887385 0.4284789 -0.08558257 0.7558928 0.6112806 0.022475645 -0.22947927 -0.061787955 0.38096425 1.1700894 -0.335197 -0.4922881 0.3768779 -0.54832065 -0.18847442 0.17190911 -0.7485917 0.45293295 -0.86331254 1.3924302 -0.40021345 -0.67682743 0.11627493
an 0.0461179 -0.923839 -0.8821001 0.52290636 -0.31321698 -1.13227 0.6579343 -2.8911903 2.0755315 -1.0759101 -0.5507996 -0.5754318 -0.07287448 0.2975205 1.0236489 1.7621164 -1.1562517 0.6035683 -0.33973864 -0.6127999 -0.31018722 -0.73670673 -0.45148626 -0.37185088 0.16434962 1.0245558 -0.38732594 -1.5413477 0.5012956 -0.42568207 1.6241941 0.6141838 0.42868912 -0.20929955 -0.9999704 0.9549629 1.61985 0.2618781 -0.58124745 0.220602 -0.7232431 0.049394276 0.49968436 -1.3003546 -0.29482257 -1.6535739 2.0921824 -1.5698774 -1.4109002 0.29541484
farm 0.1381423 -0.10301361 0.010764996 0.103559256 0.005733045 -0.2280017 0.068873815 -0.6895519 0.4057084 -0.10713147 -0.028840093 0.036427826 0.025492178 0.066524394 0.16786264 0.3016875 -0.3415869 -0.07628891 -0.102832645 -0.114695214 -0.2434351 -0.10375288 -0.083794825 -0.046232272 -0.027212132 0.14855234 -0.08295129 -0.4777706 0.14223059 -0.022104159 0.34647638 0.1466961 -0.025764536 -0.049367156 0.012554205 0.16802503 0.4383488 -0.08678769 -0.22708036 0.18863136 -0.20453507 -0.06530614 0.0074434136 -0.26617742 0.08515605 -0.34494206 0.51566976 -0.22817336 -0.2344335 0.074838705
ministers 0.29113784 -0.27002305 -0.028455226 0.21909414 -0.011816067 -0.54475135 0.10894381 -1.4587035 0.83252513 -0.283345 -0.062293373 0.030017149 0.07680258 0.11922067 0.33924496 0.56473386 -0.7432519 -0.06513527 -0.25682405 -0.19047982 -0.50294 -0.20473628 -0.21709186 -0.12727776 -0.04301897 0.3082748 -0.18555449 -1.0935771 0.254842 -0.049969222 0.7453015 0.33458483 -0.022884436 -0.13938281 -0.04486171 0.36483884 0.930629 -0.15526451 -0.5073334 0.388886 -0.3176986 -0.17422675 -0.010765838 -0.5536838 0.09963416 -0.804366 1.1165179 -0.47645122 -0.53817874 0.20039402
' 0.35662177 -0.047152475 0.24270341 0.14989147 0.09158486 -0.25146502 -0.048418634 -0.8596096 0.3715371 0.06345558 0.045619562 0.18294972 0.03994253 0.0687916 0.19337922 0.32772103 -0.42116526 -0.31380358 -0.14361127 -0.13267273 -0.40035975 -0.10481085 -0.12938568 -0.07938583 -0.07059006 0.1269096 -0.1364265 -0.5372464 0.19181484 0.069478974 0.30034265 0.2651465 -0.15307961 -0.113914624 0.22178367 0.1017391 0.56674975 -0.29856396 -0.3069787 0.34150267 -0.27466446 -0.08177015 -0.08152371 -0.30662996 0.3663696 -0.3469252 0.6356282 -0.05693017 -0.2060747 0.09434421
meeting 0.2882887 -0.29485536 -0.13314359 0.26778457 -0.056294292 -0.57895505 0.34264266 -1.5874717 1.0091513 -0.42316586 -0.20661132 -0.044461858 0.03183455 0.12994939 0.51882714 0.77338755 -0.76221025 -0.0058086873 -0.20554666 -0.26180962 -0.4434088 -0.39791086 -0.292022 -0.13729003 -0.0334872 0.3811975 -0.22039776 -0.9656738 0.25571862 -0.113223016 0.85434675 0.35133594 0.08815305 -0.094271444 -0.11177246 0.44868636 1.0409986 -0.05171428 -0.54682547 0.26958033 -0.42861292 -0.18125056 0.10365031 -0.6230099 0.040946838 -0.8470626 1.2239844 -0.6291706 -0.59260243 0.18453689
of 0.27694753 -0.43306208 -0.2143565 0.36718297 -0.04081722 -0.684957 0.21148801 -1.918649 1.371673 -0.529248 -0.21197239 -0.092042506 -0.03941089 0.2977708 0.71962494 1.0713097 -0.8719473 0.26097137 -0.290287 -0.31456563 -0.44967133 -0.35975897 -0.2704279 -0.259291 0.07010745 0.5816593 -0.25821245 -1.1356258 0.4949336 -0.13401368 1.0929823 0.32436413 0.06325599 -0.2430648 -0.40106001 0.56103164 1.0456672 -0.17817234 -0.41677156 0.40665075 -0.44278255 -0.10706032 0.39405409 -0.8414581 -0.07735179 -1.0767822 1.3348588 -0.87644005 -0.9765309 0.19240595
through 0.36806402 0.23447669 0.56086516 -0.0005172802 0.16367757 -0.08577532 -0.016514823 -0.6595317 0.19846669 0.22998449 0.22889921 0.48585406 0.18250225 0.0049692807 -0.12580338 0.038462736 -0.5356906 -0.7386716 -0.09870852 -0.09671801 -0.68546116 0.07960556 0.040834107 0.1309593 -0.25834182 -0.14927192 -0.008974403 -0.8288845 0.14863755 0.14840877 0.3005311 0.08871827 -0.31753474 0.06951477 0.73895943 0.07018757 0.68074715 -0.35226083 -0.5529028 0.48855838 -0.40117234 -0.27583057 -0.33412838 -0.21581396 0.5227312 -0.17946227 0.57227683 0.021403724 0.13567118 0.10801675
dangerous 0.239176 -0.02839769 0.1481772 0.10219077 0.047086943 -0.22498463 0.029493771 -0.7396229 0.3667605 -0.017177239 0.028321609 0.14258203 0.06265325 0.056022827 0.13320458 0.26436403 -0.40670124 -0.24099497 -0.11538103 -0.1080901 -0.36166614 -0.08320817 -0.09116648 -0.027001772 -0.084477276 0.0927658 -0.08478728 -0.5550067 0.14622313 0.023195008 0.3300776 0.17398119 -0.087681495 -0.047832552 0.18149307 0.1432022 0.5251182 -0.16764069 -0.3194071 0.26798847 -0.248425 -0.117344685 -0.066928186 -0.27321115 0.22183755 -0.32360393 0.56296474 -0.14400633 -0.16987686 0.08567069
are -0.19638084 -0.62091506 -0.6058105 0.29734275 -0.26955706 -0.7782966 0.6743906 -2.366819 1.8013185 -0.8856497 -0.35576624 -0.32711145 -0.0034553206 0.234328 0.55866164 1.4801997 -0.99176437 0.21342304 -0.19707118 -0.5861627 -0.3971915 -0.30244392 -0.08658605 -0.12592652 0.056423467 0.7331542 -0.1802092 -1.5463426 0.50300026 -0.34706348 1.4404342 0.2671227 0.23110506 0.046642143 -0.58732945 0.81021154 1.3322705 0.25956315 -0.5514339 0.3160824 -0.8158037 0.1877186 0.28599086 -1.126813 -0.12260037 -1.2291336 1.6855687 -1.4242353 -0.9669576 0.19425191
due 0.18992674 -0.09492953 0.05474472 0.123782314 0.017446917 -0.3177599 0.073545344 -0.89917564 0.51591 -0.13603964 -0.00565917 0.093544886 0.049298346 0.06899003 0.17956905 0.34581953 -0.48025948 -0.13656521 -0.15267658 -0.12867321 -0.38593143 -0.076224685 -0.091204934 -0.041814562 -0.06399713 0.16054645 -0.09799634 -0.7189098 0.18650128 -0.006527003 0.4598436 0.179154 -0.06350513 -0.061235543 0.08194409 0.21645713 0.59633535 -0.12936503 -0.34090146 0.28335547 -0.2520793 -0.10917653 -0.034280293 -0.33135775 0.14540139 -0.4556212 0.6939264 -0.25343218 -0.27416143 0.11580429
issue 0.16076055 -0.15824382 -0.04165623 0.14705116 -0.0222867 -0.36652654 0.15995455 -1.1081586 0.69279087 -0.2209709 -0.056062683 0.020071963 0.04713034 0.10555332 0.25041845 0.5197793 -0.5326824 -0.09066736 -0.14901859 -0.18775041 -0.37754527 -0.13939452 -0.11871611 -0.06487822 -0.05082396 0.24108632 -0.12116297 -0.77935344 0.22519176 -0.05750663 0.5795439 0.1990889 -0.006044497 -0.049869724 -0.013149421 0.2967098 0.6945108 -0.07954825 -0.36394507 0.2793897 -0.33114922 -0.07996865 0.02308034 -0.43851888 0.12633082 -0.55858296 0.8363548 -0.4102959 -0.37203965 0.12231232
early 0.2688595 -0.2719067 -0.091816224 0.26442993 -0.024009606 -0.5868884 0.2771679 -1.6838415 1.0788991 -0.38698858 -0.14591853 0.013420312 0.066703655 0.18064295 0.4908768 0.8204193 -0.8045801 -0.038645107 -0.22937913 -0.284201 -0.5210186 -0.30421454 -0.23342493 -0.12770875 -0.047708917 0.3952375 -0.20723829 -1.1021364 0.37599838 -0.09547703 0.921034 0.30675775 0.03923268 -0.085765146 -0.08261073 0.46607867 1.0468678 -0.120598294 -0.54268897 0.36105135 -0.4811615 -0.14147674 0.12515719 -0.6708411 0.10767495 -0.8698428 1.2699578 -0.652806 -0.6345679 0.17909186
next 0.13929804 -0.23489462 -0.09771273 0.17814276 -0.042328425 -0.41566342 0.239685 -1.1953906 0.8047123 -0.32109702 -0.13328835 -0.03394344 0.040283207 0.12339733 0.33938035 0.6170193 -0.57502216 0.021772256 -0.15217216 -0.22411472 -0.33090517 -0.22961397 -0.15647069 -0.10746778 -0.024598598 0.3011736 -0.15935169 -0.7888298 0.25004718 -0.08880902 0.6653489 0.20809668 0.036596138 -0.054432906 -0.10833618 0.3540362 0.7510977 -0.052789256 -0.37162825 0.23258792 -0.35263714 -0.06868344 0.09453416 -0.4945487 0.03100845 -0.61381894 0.90446454 -0.5286976 -0.46734312 0.13277853
make 0.083392955 -0.30667746 -0.20990129 0.19952208 -0.10127311 -0.50448036 0.3108475 -1.4418498 0.9727667 -0.4294069 -0.15973766 -0.07568265 0.0159707 0.12843838 0.36007252 0.7376292 -0.6742496 0.05125253 -0.17834914 -0.25929463 -0.36528483 -0.22168332 -0.14458549 -0.0918354 -0.013645407 0.37261084 -0.15372728 -0.9853905 0.25908053 -0.13325232 0.8132204 0.2305644 0.07797738 -0.049312163 -0.17214088 0.43943775 0.87195414 0.022161637 -0.42215422 0.2674675 -0.42787763 -0.057282463 0.09884965 -0.6143744 -0.0048825373 -0.765258 1.0691559 -0.66924465 -0.5491708 0.1640628
senior 0.20655039 -0.11798294 0.035633355 0.1448915 0.010422808 -0.29017732 0.11262624 -0.898973 0.52910453 -0.1330311 -0.045526575 0.055312175 0.036062844 0.08980421 0.24418801 0.42322695 -0.44138798 -0.13298747 -0.1179116 -0.15305288 -0.31479666 -0.1557205 -0.12258609 -0.0705293 -0.04526632 0.1891406 -0.111896604 -0.5729502 0.19049828 -0.02815386 0.4484528 0.19843104 -0.03118136 -0.057839915 0.04239668 0.21761541 0.5852987 -0.112478405 -0.2972794 0.23057827 -0.29479408 -0.08598878 0.022562305 -0.357603 0.14120798 -0.42679858 0.67000645 -0.28654113 -0.2898556 0.10277037
have -0.35556224 -0.79237807 -0.8051283 0.3607155 -0.3430672 -0.8450269 0.93960184 -2.8592405 2.1971402 -1.090079 -0.4512251 -0.39083967 0.0013657294 0.2525778 0.5843286 1.760566 -1.1631764 0.26705095 -0.13025464 -0.76505876 -0.41114178 -0.32978037 -0.027738674 -0.010876003 0.067685656 0.90226626 -0.193677 -1.8186303 0.58964133 -0.4429885 1.7769672 0.22895741 0.31054908 0.109008506 -0.71730894 1.0421526 1.5914887 0.4474978 -0.64310604 0.3070183 -1.183056 0.27550033 0.40075633 -1.3745431 -0.2405177 -1.3967484 2.0006244 -1.868219 -1.1288201 0.2810408
long 0.20727135 -0.3205011 -0.18805768 0.26051238 -0.07726309 -0.5453438 0.39126337 -1.6500243 1.0843724 -0.43463355 -0.23629321 -0.10438753 0.02086022 0.15008688 0.5139589 0.94358903 -0.73548734 -0.040336706 -0.15667604 -0.34580526 -0.37139404 -0.38994452 -0.23931588 -0.1312161 -0.018718034 0.45100358 -0.21014452 -0.8913173 0.2992306 -0.1467033 0.86890376 0.33593497 0.10562823 -0.04958055 -0.160751 0.46408454 1.0432206 -0.0018272176 -0.49355087 0.24989146 -0.5671125 -0.06459692 0.13345732 -0.69777226 0.09902403 -0.8034157 1.2308205 -0.73042125 -0.58515364 0.17114764
been 0.08047073 -0.63559365 -0.5514904 0.38547707 -0.19082636 -0.7451733 0.6644059 -2.5234926 1.6685307 -0.73489994 -0.443031 -0.5470767 -0.10888136 0.3271794 0.8110356 1.7862035 -0.9658196 0.045323893 -0.19729048 -0.7354332 -0.29889247 -0.6904568 -0.2893636 -0.30654272 0.0066833794 0.91162485 -0.3145622 -0.96510214 0.42275155 -0.36775443 1.2946247 0.6321407 0.32237452 -0.08104093 -0.6688793 0.7673886 1.3955398 0.29235464 -0.46118554 0.18718028 -1.1427985 0.044520937 0.33966634 -1.3718334 0.15369147 -1.1023562 1.7055874 -1.4948413 -0.86404455 0.16866769
known 0.096780345 -0.1897922 -0.07909651 0.15188836 -0.043203466 -0.32013378 0.2344 -1.0617465 0.6791439 -0.22887696 -0.11288236 -0.023774588 0.033627927 0.09326996 0.2572238 0.5817449 -0.47808388 -0.09140428 -0.08353814 -0.22707213 -0.27474585 -0.17891668 -0.09205652 -0.05647137 -0.027513975 0.2620333 -0.120842345 -0.64275926 0.20345159 -0.078705184 0.5559414 0.19088499 0.032939672 -0.014103819 -0.056512132 0.28822926 0.6588827 -0.020947015 -0.3141099 0.20707525 -0.3895402 -0.0044723144 0.05127288 -0.45886 0.11700697 -0.48113 0.7793554 -0.46481237 -0.339015 0.114986405
similar 0.2396687 -0.033642445 0.12558523 0.11668385 0.04715215 -0.22978826 0.050351128 -0.7593926 0.41167748 -0.04406333 0.014220477 0.11243624 0.0567306 0.090703756 0.18293607 0.33624884 -0.37979436 -0.20967042 -0.112259865 -0.12377003 -0.34689948 -0.094400786 -0.09503786 -0.044670742 -0.06897922 0.120516695 -0.08774493 -0.50376654 0.19351025 0.0089592645 0.3496041 0.16263327 -0.07465334 -0.039035957 0.14372358 0.15695952 0.5034491 -0.1652662 -0.2834261 0.25673428 -0.26053646 -0.099585846 -0.018976968 -0.28313679 0.2221303 -0.3278935 0.57767373 -0.16936177 -0.19971852 0.06959867
which 0.16906993 -0.32523584 -0.21964365 0.25734952 -0.08972367 -0.5315387 0.5303736 -1.7595085 1.2300131 -0.5132203 -0.29117352 -0.14643638 0.021177147 0.19886082 0.57857126 1.1198033 -0.7789393 -0.061245862 -0.119890474 -0.42458802 -0.3682162 -0.45095268 -0.21484102 -0.12882979 -0.052214846 0.5259634 -0.20737943 -0.88120365 0.38626397 -0.20409794 0.98593116 0.3056729 0.14153199 0.02445207 -0.19351168 0.49534208 1.1215823 0.061222043 -0.49914962 0.22142188 -0.69865906 -0.06390513 0.19723777 -0.7959358 0.07910686 -0.8266509 1.3010362 -0.922439 -0.60300475 0.1593662
is -0.252721 -0.83550274 -0.8675742 0.37791002 -0.38456476 -0.9517353 1.0025074 -2.977427 2.3018832 -1.1767938 -0.5509769 -0.4937606 0.019219503 0.2792132 0.7585744 1.9401717 -1.1911488 0.4105025 -0.17400849 -0.7134905 -0.37666184 -0.5561118 -0.21554048 -0.20588446 0.06141098 0.97687167 -0.30998358 -1.7792965 0.59893054 -0.45814693 1.7849761 0.32579476 0.4224083 0.035656855 -0.82432526 1.0426522 1.67751 0.40398037 -0.6570917 0.27571446 -1.0429658 0.21757424 0.41483998 -1.4120535 -0.24061993 -1.4806948 2.1231933 -1.8662748 -1.2363853 0.24894753
believed 0.12235609 -0.32150343 -0.22508052 0.2348787 -0.10535873 -0.5237354 0.39349157 -1.6311021 1.09013 -0.45343652 -0.21620451 -0.13436401 0.0104504945 0.16782983 0.45836142 0.939996 -0.71726495 -0.022528978 -0.15134695 -0.35845736 -0.35686338 -0.3263842 -0.17901829 -0.12253283 -0.02840574 0.4527664 -0.17875578 -0.9198208 0.30457968 -0.15827185 0.88016933 0.31136605 0.11767087 -0.029003719 -0.21523838 0.4833992 0.99374616 0.045904472 -0.45452583 0.23460178 -0.5827922 -0.024900988 0.1370693 -0.72723097 0.07787314 -0.79317105 1.1933221 -0.7839587 -0.5732194 0.1587022
cattle 0.22509046 -0.07861314 0.11824349 0.11736013 0.029520292 -0.2993024 0.08771538 -0.9738234 0.5409639 -0.09446754 0.012070367 0.13334867 0.07433829 0.07508951 0.16451068 0.3790419 -0.5305009 -0.23120604 -0.13597149 -0.16157061 -0.42763343 -0.099481486 -0.08643166 -0.027631126 -0.082302034 0.14521183 -0.09169377 -0.75834 0.20131227 0.00768837 0.48965043 0.18432508 -0.08597321 -0.034886796 0.16160925 0.22891745 0.66507626 -0.15123805 -0.38765168 0.32347205 -0.3284859 -0.12847982 -0.054818008 -0.37475896 0.19987603 -0.4552071 0.74091387 -0.28493863 -0.25335622 0.12427121
feed 0.21525407 -0.31463104 -0.19420327 0.26454824 -0.082941264 -0.6064613 0.3860776 -1.7697151 1.1434445 -0.46101132 -0.21705966 -0.08469909 0.046549235 0.17394827 0.5098004 0.9150507 -0.82917124 -0.036056153 -0.20575061 -0.3298995 -0.46442032 -0.35476017 -0.2452097 -0.122503735 -0.042059567 0.44601697 -0.20405024 -1.0681239 0.32856363 -0.14364682 0.9486112 0.36244085 0.09503689 -0.06259191 -0.15997027 0.5009344 1.1057794 -0.0027260124 -0.5650944 0.28832063 -0.55995977 -0.11743951 0.11895196 -0.7181253 0.069334954 -0.9089461 1.3327426 -0.7728109 -0.61454487 0.19531941
farmers 0.24482632 -0.1631401 0.025116611 0.16754766 0.0042481534 -0.39965135 0.113808475 -1.1584126 0.6568152 -0.18291464 -0.04292584 0.06835958 0.0546127 0.09402786 0.26667055 0.471609 -0.5851764 -0.14168487 -0.17781486 -0.18093675 -0.42374498 -0.16853426 -0.15081961 -0.07039892 -0.05594112 0.22201051 -0.136755 -0.8244434 0.2080076 -0.03510653 0.5738294 0.2624476 -0.034168657 -0.08223562 0.04841472 0.28589812 0.7561627 -0.13311142 -0.41372904 0.31428728 -0.32257605 -0.13432924 -0.012123935 -0.44181263 0.15133409 -0.58122504 0.88021886 -0.36348513 -0.37210706 0.14223363
denied 0.2673853 -0.25328708 -0.08300215 0.23339131 -0.03820066 -0.5202414 0.25914165 -1.5148726 0.91760576 -0.32070118 -0.15364645 -0.022867924 0.041237883 0.14336865 0.43264043 0.75281507 -0.712616 -0.10152733 -0.19130881 -0.26783603 -0.4371263 -0.31341887 -0.23533364 -0.119711 -0.0533997 0.36079276 -0.19307174 -0.8993182 0.26582202 -0.09869482 0.7642865 0.3519397 0.041142195 -0.08249937 -0.07660947 0.39432827 0.9686665 -0.07074956 -0.49447405 0.29117268 -0.46922266 -0.12403011 0.06069177 -0.6022888 0.14688429 -0.75441533 1.1385388 -0.57578915 -0.5112914 0.1608218
danger 0.2886214 -0.09372614 0.103888385 0.15804765 0.02514203 -0.38291463 0.11982085 -1.1194386 0.6158156 -0.14272882 -0.016347185 0.14455606 0.08457722 0.08121673 0.23438315 0.39872634 -0.608978 -0.21478125 -0.18590789 -0.14794338 -0.4835021 -0.15580015 -0.15794162 -0.042229556 -0.10029066 0.1670036 -0.1312895 -0.8611639 0.20012888 -0.0019002086 0.56521624 0.23449592 -0.064332776 -0.062629126 0.15975757 0.25749722 0.78197855 -0.16443144 -0.4816015 0.33896035 -0.31015614 -0.19331512 -0.053580146 -0.3974735 0.17665015 -0.55833286 0.87397325 -0.30888063 -0.31834897 0.15032195
their 0.077321 -0.35292947 -0.20446636 0.25357556 -0.094720125 -0.571376 0.37494344 -1.7223407 1.1971661 -0.48965558 -0.16553137 -0.071093254 -0.013445581 0.124451436 0.43455166 0.91166294 -0.81255025 -0.039345365 -0.17738464 -0.4251752 -0.44784677 -0.28014126 -0.116778485 -0.08958977 -0.019110942 0.4248525 -0.16994952 -1.2388188 0.33192116 -0.17713909 1.0715206 0.28377163 0.10323097 -0.03520415 -0.14184505 0.56821275 1.0854377 0.025180733 -0.5258268 0.29940367 -0.6458302 -0.05541669 0.123651154 -0.78330654 0.017985638 -0.87749654 1.3015865 -0.8631572 -0.61737156 0.20329337
but -0.34294334 -0.65190285 -0.723466 0.2599561 -0.36251926 -0.81749403 1.0433234 -2.6370006 2.0544016 -1.071545 -0.46873412 -0.44029614 0.037544597 0.20837781 0.5927338 1.6974275 -1.1358675 0.21701929 -0.11147328 -0.71129906 -0.38486126 -0.42921093 -0.08245933 -0.049931433 -0.0018568124 0.7881443 -0.19492319 -1.7016058 0.44287714 -0.41741896 1.6949984 0.25109133 0.4008607 0.17444418 -0.60668695 0.9976516 1.5860484 0.4736859 -0.7143401 0.20444222 -1.0678235 0.15842612 0.29057154 -1.273905 -0.20557107 -1.3224007 1.9649715 -1.7704769 -0.94677573 0.26362702
expressed 0.20797737 -0.2151376 -0.07935255 0.19407918 -0.041738443 -0.44867176 0.22508933 -1.2860692 0.8030963 -0.2980646 -0.119973354 -0.019830057 0.038121983 0.11741954 0.35382968 0.6159366 -0.6193719 -0.058825962 -0.17663194 -0.21835597 -0.38032445 -0.23907234 -0.18220404 -0.095745005 -0.035281897 0.30034372 -0.15209876 -0.82209986 0.23857152 -0.07856864 0.67543006 0.2699704 0.031263568 -0.06939458 -0.06635512 0.34572348 0.8116456 -0.056066513 -0.4205475 0.2607998 -0.37569872 -0.11403104 0.061229654 -0.51237565 0.09288688 -0.66003543 0.9721291 -0.5072014 -0.45398185 0.14915532
concern 0.27581635 -0.14597362 0.03973375 0.18278562 0.010881272 -0.37443662 0.11219807 -1.0814929 0.6137821 -0.15945037 -0.058195036 0.058818173 0.036524724 0.10597032 0.2987841 0.48426753 -0.5337256 -0.12560886 -0.16600762 -0.17358874 -0.3834899 -0.20513162 -0.17526618 -0.09724302 -0.04847083 0.22348018 -0.14507116 -0.6922875 0.20448233 -0.02543147 0.53299385 0.26730105 -0.03142917 -0.09427605 0.036082935 0.25441304 0.7098416 -0.14090674 -0.37149832 0.28342438 -0.3149286 -0.13050207 0.017006526 -0.41660386 0.15808715 -0.530738 0.8106674 -0.3145135 -0.36132982 0.12364436
government 0.26933855 -0.4347643 -0.2569361 0.32094857 -0.08876988 -0.67595303 0.19562668 -1.757506 1.1337185 -0.46002236 -0.19939363 -0.15600206 -0.016275661 0.19890925 0.5857104 0.88555086 -0.79530406 0.1738693 -0.28088173 -0.2663312 -0.3936448 -0.3898565 -0.30988905 -0.2424177 0.03362359 0.49883604 -0.25071928 -1.0608788 0.32328483 -0.14380854 0.9168846 0.4157549 0.09080518 -0.2009111 -0.34541178 0.48998728 1.0171056 -0.085216925 -0.44071585 0.31739107 -0.3783217 -0.1077594 0.18869255 -0.73228157 -0.0082584275 -0.99083036 1.2806761 -0.6888347 -0.81203574 0.19323131
avoid 0.12038661 -0.088669136 0.013350586 0.086563356 -0.0065475786 -0.20085374 0.06434224 -0.64981574 0.36592227 -0.08282285 -0.023742069 0.033063617 0.035807323 0.054509055 0.124378726 0.3091912 -0.31084213 -0.10990206 -0.078294836 -0.11167599 -0.21759893 -0.08237125 -0.06652164 -0.04170478 -0.03149552 0.13851418 -0.07237284 -0.4264997 0.11860088 -0.02116412 0.29467288 0.14592415 -0.02462325 -0.03921497 0.021300174 0.14351127 0.4133804 -0.06916923 -0.20172095 0.1727871 -0.21730638 -0.02536166 -0.006845228 -0.25693277 0.12962389 -0.29270944 0.47127977 -0.20754783 -0.19186656 0.06723489
might 0.25295448 -0.21228346 -0.06730356 0.23624481 -0.029997973 -0.48208794 0.29726392 -1.4997888 0.95686233 -0.33619854 -0.14952365 -0.0016540394 0.038284738 0.16749229 0.43816537 0.8027605 -0.6926795 -0.12305781 -0.16542052 -0.28979537 -0.43448356 -0.30183852 -0.20028867 -0.102561116 -0.0574267 0.36503375 -0.17671396 -0.87679344 0.31593075 -0.09897673 0.7934321 0.29516727 0.040163957 -0.056634348 -0.05209536 0.40734088 0.95061094 -0.079599045 -0.47391388 0.30430615 -0.51194423 -0.10858476 0.09376878 -0.6282105 0.16339578 -0.72595763 1.1193734 -0.59863186 -0.5011025 0.13534364
across 0.2741161 -0.03787085 0.17001194 0.119035885 0.057927527 -0.26529908 0.02966803 -0.89118564 0.4626753 -0.030770935 0.037166663 0.16152862 0.06387272 0.085005045 0.16786663 0.35184184 -0.47406554 -0.28139588 -0.13106194 -0.13770013 -0.41690707 -0.086241834 -0.09135869 -0.032051753 -0.09080499 0.120686434 -0.09482436 -0.6485802 0.19964859 0.021376127 0.40776935 0.19739291 -0.11450426 -0.05557781 0.19386311 0.17774245 0.6077934 -0.20448129 -0.35362378 0.31854597 -0.3089904 -0.12437879 -0.061590426 -0.33437625 0.27184972 -0.39003792 0.66844463 -0.19139495 -0.21731798 0.09866629
Europe 0.29323167 -0.06463533 0.18058883 0.14517136 0.059579026 -0.2770546 -0.0060211993 -0.88814384 0.46059263 -0.014901436 0.036844723 0.15711884 0.049198806 0.083727434 0.20066154 0.31770134 -0.47611126 -0.22807638 -0.15509942 -0.12212358 -0.41555452 -0.10078214 -0.10839767 -0.05974985 -0.06870465 0.12516786 -0.111934625 -0.6478708 0.19314931 0.03908741 0.3979522 0.21597022 -0.12270067 -0.093432784 0.17546356 0.16953202 0.59954923 -0.2361843 -0.32908735 0.32498163 -0.26481143 -0.13218474 -0.03470472 -0.3381608 0.23873866 -0.40539706 0.6511762 -0.15729755 -0.25078157 0.11027991
What 0.17115673 -0.18948837 -0.055043913 0.17678858 -0.035294574 -0.31931448 0.20860408 -1.1047862 0.66684574 -0.17681864 -0.13470176 -0.046519637 0.0040208623 0.108793974 0.3199587 0.68317723 -0.46598873 -0.13803576 -0.09009869 -0.25432268 -0.25759995 -0.23606731 -0.13760576 -0.111224465 -0.025334897 0.294656 -0.14589955 -0.5051881 0.20145749 -0.07452936 0.5009059 0.26919448 0.025608957 -0.05099013 -0.074649364 0.26881903 0.68656605 -0.05073789 -0.27251685 0.18723422 -0.45230463 0.010701211 0.05197299 -0.50846887 0.22067079 -0.4624257 0.77426714 -0.41963676 -0.33952212 0.08995929
how 0.11795158 -0.19355166 -0.06274571 0.15498516 -0.042813987 -0.39662626 0.25085646 -1.2099888 0.7625479 -0.28386328 -0.095123 0.022359636 0.057624828 0.09453 0.24955378 0.5705262 -0.6031881 -0.09956239 -0.13609858 -0.229632 -0.3770469 -0.16988519 -0.101241946 -0.035714246 -0.0592983 0.26173565 -0.119633235 -0.88593763 0.21154639 -0.07351881 0.6628251 0.20638601 0.023183266 -0.023545612 -0.013144371 0.34910917 0.78563565 -0.023752704 -0.43048882 0.27009267 -0.40510136 -0.081236236 0.0065571894 -0.48567614 0.09669584 -0.5936851 0.91677564 -0.5132682 -0.39056736 0.14575557
going 0.13090426 -0.40834966 -0.3595274 0.30076107 -0.15835972 -0.66140103 0.5964192 -1.8665185 1.3242873 -0.66246617 -0.36034325 -0.21010491 0.01778508 0.16064805 0.6359862 1.0932232 -0.8319161 0.11735407 -0.15288544 -0.38666108 -0.34487635 -0.51321924 -0.2985546 -0.15000139 0.0022212532 0.539369 -0.24709173 -1.0228832 0.31486624 -0.22045533 1.0863881 0.33652416 0.23392095 -0.011778397 -0.31723487 0.5882835 1.1797515 0.12250388 -0.5668495 0.18876483 -0.5752623 -0.076909326 0.21525851 -0.781495 -0.07273764 -0.98088235 1.4352787 -0.95187896 -0.7224391 0.20937724
take 0.12607975 -0.28399265 -0.16099961 0.20889178 -0.09240208 -0.49702227 0.35206887 -1.5343391 1.0171818 -0.41288155 -0.16525398 -0.046253312 0.026564695 0.14770767 0.39219224 0.81785303 -0.7156619 -0.0451774 -0.15695353 -0.29878825 -0.41239986 -0.2635146 -0.14266247 -0.08846296 -0.05018994 0.38995993 -0.14895388 -0.99174726 0.28708437 -0.1278234 0.85949516 0.25214863 0.055890426 -0.023406424 -0.11539765 0.4596508 0.9741688 -0.00022322718 -0.48417327 0.28140533 -0.5259462 -0.0729131 0.084727004 -0.66931224 0.08410878 -0.7693983 1.14879 -0.7033872 -0.5367566 0.16198136
lead 0.3330907 -0.25495788 -0.026411474 0.28699586 0.0077580754 -0.5496424 0.22667135 -1.545646 0.9453932 -0.326213 -0.15400904 0.040924877 0.02426184 0.14829016 0.49338496 0.7236534 -0.74889815 -0.07678023 -0.22465295 -0.25270283 -0.49090204 -0.33391708 -0.25167182 -0.13574189 -0.039593447 0.3521362 -0.20902286 -0.96303725 0.29877228 -0.07181011 0.8175886 0.3520129 -0.0008900491 -0.13038217 -0.035331998 0.41105974 1.0093814 -0.14853564 -0.50718427 0.32689497 -0.44793108 -0.19085646 0.104471035 -0.61676604 0.10665557 -0.80572057 1.1653463 -0.5472173 -0.5718087 0.17748636
National 0.4341877 -0.07017133 0.16891234 0.2046128 0.071924955 -0.3737571 0.102175765 -1.1068444 0.6157277 -0.12698182 -0.029739436 0.17510873 0.057686552 0.12940514 0.34631497 0.44012764 -0.5948153 -0.2138727 -0.19600882 -0.13385704 -0.49383438 -0.24457721 -0.22228555 -0.087668516 -0.099049814 0.1781784 -0.15168457 -0.7388659 0.25168824 0.0053726435 0.54529124 0.2582897 -0.09321662 -0.10132504 0.18466641 0.23092534 0.7865421 -0.27133203 -0.4657188 0.36047155 -0.29952762 -0.26311085 -0.016778298 -0.4015431 0.21059029 -0.55137396 0.862454 -0.24336508 -0.3473522 0.12883274
chairman 0.4160988 -0.15795553 0.11274762 0.23806266 0.053283982 -0.4051913 -0.0003255512 -1.1685991 0.5657346 -0.0514138 -0.052341055 0.0729848 0.02859036 0.11537733 0.3662411 0.5141313 -0.536943 -0.20351684 -0.18959425 -0.17127669 -0.40149787 -0.2621598 -0.24492475 -0.16025442 -0.043818865 0.24291752 -0.19083421 -0.5827023 0.20334972 0.003316076 0.4408152 0.39482197 -0.06943606 -0.17406681 0.056009702 0.21870925 0.7615638 -0.2460768 -0.34924883 0.31235054 -0.32790443 -0.124584764 0.0012883975 -0.44174612 0.3095106 -0.5211081 0.8362893 -0.18842918 -0.38902703 0.115171716
John 0.5804758 0.10943079 0.4918113 0.14418124 0.19084142 -0.15326582 -0.17002282 -0.7253274 0.14963093 0.31719905 0.121958375 0.31958768 0.08832311 0.07092818 0.17688495 0.2400921 -0.40348026 -0.60857934 -0.11885306 -0.10277744 -0.50050163 -0.13630198 -0.16722278 -0.07729024 -0.14762639 0.017932193 -0.11933759 -0.30285534 0.15847212 0.13528205 0.09808822 0.34936893 -0.2584565 -0.11974482 0.48120034 -0.00081345555 0.59249747 -0.44042265 -0.3348311 0.38475287 -0.3394538 -0.15985575 -0.18414703 -0.2399623 0.6223637 -0.14797215 0.518511 0.21675548 -0.02396548 0.051601425
Lloyd 0.16967955 0.008259805 0.14780131 0.04816635 0.043721866 -0.108979784 -0.040037517 -0.39600497 0.15442654 0.05724455 0.05119276 0.12392553 0.03243862 0.02216818 0.055444226 0.12201772 -0.22421165 -0.19765273 -0.063956514 -0.04950066 -0.23063454 -0.015895214 -0.03820382 -0.017612953 -0.05823196 0.02670401 -0.04370819 -0.3065854 0.08311698 0.03861526 0.14267863 0.10754079 -0.08976232 -0.03523968 0.15457396 0.048928894 0.28751618 -0.14195888 -0.16808547 0.17560579 -0.14460267 -0.06423283 -0.06527975 -0.13898113 0.18681087 -0.14020392 0.28529766 -0.006941684 -0.063769676 0.050092123
Jones 0.6902577 0.120866686 0.5221445 0.19364375 0.20149268 -0.2863254 -0.18549529 -0.94930625 0.2571741 0.2601712 0.13643748 0.3811504 0.09618159 0.089539185 0.25204977 0.2251574 -0.5428874 -0.59860545 -0.20210627 -0.079110615 -0.64881504 -0.16502705 -0.24345359 -0.08807195 -0.16792274 0.018810848 -0.166176 -0.5608588 0.19121929 0.14576587 0.23811117 0.39931917 -0.27648684 -0.16842976 0.53286695 0.053171363 0.7439272 -0.5095169 -0.4745035 0.4848762 -0.30317175 -0.28771612 -0.19679426 -0.2737935 0.6143687 -0.33118743 0.7354481 0.21168521 -0.120805554 0.10306063
radio 0.19292013 -0.06274315 0.063970014 0.10269683 0.018952204 -0.23920439 0.004977708 -0.6340377 0.31751174 -0.04552146 0.0024768435 0.07686639 0.04298201 0.041020148 0.14141065 0.2185812 -0.3316125 -0.123784 -0.11666694 -0.07144105 -0.27713078 -0.08831572 -0.11059279 -0.044998124 -0.050634373 0.097660035 -0.08659419 -0.45928672 0.10160949 0.006261718 0.2827088 0.1763697 -0.04408436 -0.064310834 0.086442925 0.13612778 0.43491977 -0.12049083 -0.2512349 0.20311818 -0.14591499 -0.10253701 -0.04089066 -0.21474744 0.13936615 -0.3240724 0.49223804 -0.11943848 -0.19297685 0.079802975
has -0.32791442 -0.78365433 -0.8158678 0.34407288 -0.32105663 -0.8541835 0.8301386 -2.7193196 2.0570152 -1.039265 -0.426387 -0.39468786 0.032923933 0.23481195 0.559199 1.54901 -1.1121712 0.3390929 -0.14565346 -0.66796124 -0.40929586 -0.3198779 -0.09033341 -0.008180237 0.072129406 0.8450507 -0.19575322 -1.7834332 0.538596 -0.4102871 1.658284 0.25926194 0.30895326 0.06354915 -0.7280423 1.0034225 1.4956237 0.43775484 -0.61632365 0.27565786 -1.0132829 0.20481643 0.37549633 -1.251732 -0.33161882 -1.3802162 1.9068668 -1.7448901 -1.1187357 0.2958621
led 0.2748954 -0.68492156 -0.5462455 0.49684176 -0.20977314 -1.167022 0.8157612 -3.219885 2.18885 -1.0391973 -0.49681473 -0.28088942 0.02745956 0.29852936 1.0121537 1.7067479 -1.4909068 0.19055746 -0.36851677 -0.61127466 -0.72190326 -0.73304784 -0.4702677 -0.2409439 -0.019884774 0.8917882 -0.3771913 -1.931876 0.5737939 -0.33815 1.8343792 0.61388487 0.284604 -0.0999829 -0.51686317 0.9758848 1.9853191 0.13217418 -0.9760722 0.41654965 -0.9400134 -0.22882995 0.34506541 -1.3260335 -0.12645407 -1.7519181 2.4249723 -1.5944403 -1.2510477 0.37208945
efforts 0.3095348 -0.04899376 0.18508057 0.13486928 0.07307004 -0.2980441 -0.0055035083 -0.9324746 0.46734035 -0.027515208 0.045822386 0.17790212 0.06663405 0.088082924 0.18377544 0.31961614 -0.51165605 -0.25957778 -0.16986996 -0.118961595 -0.45748433 -0.08740936 -0.11159618 -0.044851024 -0.08592303 0.121470496 -0.10721683 -0.7237913 0.2109684 0.039537665 0.42299715 0.21680701 -0.12953436 -0.0742428 0.20528762 0.17273404 0.63146293 -0.23412661 -0.37822893 0.3510333 -0.27490336 -0.14914317 -0.06274067 -0.33187965 0.25298363 -0.43156764 0.7085758 -0.16496535 -0.25184736 0.120830715
public 0.70283026 0.06929243 0.49243048 0.2167001 0.20147246 -0.23564798 -0.14293706 -1.0136788 0.27740747 0.30374932 0.07975664 0.29307365 0.062049452 0.13203874 0.31241718 0.43095237 -0.48283124 -0.66362447 -0.14929537 -0.1563688 -0.5477407 -0.25627032 -0.24668022 -0.15469332 -0.15795353 0.107950635 -0.18236761 -0.30156913 0.20851137 0.12001742 0.15528333 0.48107395 -0.2581048 -0.16456783 0.4504211 0.032118637 0.7682247 -0.48848593 -0.38599706 0.41647378 -0.4583091 -0.17423913 -0.15952978 -0.38039416 0.73636234 -0.23538905 0.6954469 0.15478294 -0.11981748 0.06289317
consumer 0.26893562 -0.14606024 0.04191459 0.1826525 0.005968085 -0.37324795 0.144677 -1.1207172 0.6611214 -0.18097141 -0.070439875 0.06438997 0.041921306 0.11186872 0.3174221 0.5140036 -0.55553615 -0.133086 -0.15738122 -0.18435535 -0.3929481 -0.2060927 -0.17192756 -0.08734962 -0.057438545 0.23201866 -0.14387476 -0.70639384 0.2231753 -0.033698466 0.55718905 0.25108907 -0.027246807 -0.07813633 0.039841607 0.26514277 0.734349 -0.14235151 -0.38941935 0.2799753 -0.33724678 -0.12825589 0.031543132 -0.4356775 0.15427959 -0.5478366 0.84398603 -0.3513104 -0.37475678 0.12503701
confidence 0.2923432 -0.21638978 -0.0065284455 0.22657225 -0.0062308637 -0.4380028 0.1698862 -1.3196279 0.7682506 -0.20992944 -0.11078339 0.008249729 0.029537316 0.1333751 0.38794088 0.6654787 -0.6110613 -0.13474868 -0.16923429 -0.24022174 -0.3932281 -0.28154957 -0.20826809 -0.13062117 -0.04665759 0.31415057 -0.17861171 -0.7337025 0.24968426 -0.055712875 0.62142485 0.33527908 -0.0038946045 -0.10298288 -0.029738085 0.32213855 0.8414136 -0.12992167 -0.40013495 0.2927032 -0.4215968 -0.09988069 0.053183705 -0.54451084 0.19827855 -0.6202383 0.9608874 -0.43308797 -0.4551463 0.13262817
in 0.35933423 -0.49031526 -0.27620292 0.47041714 -0.042877704 -0.7106409 0.5780442 -2.2745278 1.6312033 -0.67306626 -0.4286123 -0.17419897 -0.05168128 0.3404467 1.0104163 1.4928336 -0.98240733 0.14900443 -0.17771581 -0.5197432 -0.42474192 -0.73508775 -0.39681697 -0.305651 -0.00020647794 0.7215723 -0.3200808 -0.92721575 0.55824655 -0.22819103 1.282572 0.44548643 0.17392649 -0.14493327 -0.41321644 0.6945096 1.3836823 -0.06758778 -0.54926515 0.2729669 -0.80653805 -0.114776015 0.4723354 -1.0729915 -0.02338478 -1.129351 1.5965787 -1.1146708 -0.9990443 0.19449563
March 0.74721646 0.18721728 0.69372654 0.14949296 0.26816383 -0.20802364 -0.27660275 -0.88024575 0.1385114 0.42835996 0.22388259 0.49609843 0.12312537 0.07703054 0.14701663 0.14235267 -0.5473865 -0.7852529 -0.1956431 -0.07041042 -0.7242453 -0.083747074 -0.17704351 -0.066226706 -0.21703403 -0.054272998 -0.13666111 -0.5527118 0.20359422 0.19766153 0.14054121 0.38859114 -0.37958485 -0.15327998 0.7113675 -0.024433227 0.73635614 -0.6014236 -0.48058516 0.549675 -0.36084905 -0.2897173 -0.28144166 -0.24656671 0.76455534 -0.21097182 0.6439944 0.32312295 -0.009786596 0.09363844
report 0.122270234 -0.41328135 -0.3154766 0.24898203 -0.123174064 -0.6677286 0.26053873 -1.655611 1.0809501 -0.5125082 -0.17737976 -0.1495968 0.035912532 0.13958101 0.42574507 0.7520793 -0.75659466 0.1879113 -0.26221326 -0.25583473 -0.3986334 -0.2580115 -0.23349273 -0.13775475 0.02761668 0.44606546 -0.2019254 -1.1745528 0.27735466 -0.15590224 0.9222531 0.3180328 0.12500863 -0.12798256 -0.32240328 0.5027134 0.9578928 0.027282113 -0.47312966 0.29584503 -0.32696587 -0.09953833 0.12544923 -0.656152 -0.09465182 -0.96827346 1.2535609 -0.736185 -0.71866375 0.21122761
beef 0.10236967 -0.26846084 -0.17649652 0.19262086 -0.06201477 -0.31627113 0.23332208 -1.1161395 0.70795214 -0.25515854 -0.17849183 -0.18964456 -0.0467428 0.14144363 0.37367633 0.77762777 -0.42107856 -0.018531095 -0.08884844 -0.3045328 -0.15396163 -0.29917768 -0.14015909 -0.15703756 0.00661027 0.38296807 -0.15814203 -0.38973883 0.20989726 -0.13260804 0.520434 0.2961005 0.09458185 -0.06523651 -0.24026848 0.31031135 0.626267 0.037742343 -0.18922502 0.11504357 -0.4938865 0.047089938 0.1384775 -0.58328825 0.14486852 -0.46702233 0.7407284 -0.54855794 -0.38789704 0.070883736
year 0.08794055 -0.36702555 -0.32284474 0.31082043 -0.091234796 -0.6406359 0.5776616 -1.9511161 1.505904 -0.70477396 -0.2638794 -0.10809194 0.084871896 0.29175872 0.6922549 1.1255494 -0.87716395 0.15601355 -0.1779889 -0.3878028 -0.52681905 -0.37800342 -0.212852 -0.13839126 -0.03922448 0.54869163 -0.19923238 -1.302761 0.56266874 -0.22516394 1.284147 0.15684238 0.19596386 0.034084007 -0.26415277 0.6609016 1.1147122 0.020508252 -0.5392735 0.3166015 -0.6179533 -0.11097851 0.34392536 -0.8172197 -0.12214153 -1.0685164 1.4976361 -1.0373578 -0.83110005 0.15149358
nearly 0.26046443 -0.21767679 -0.035511628 0.22644618 -0.0098324055 -0.49579054 0.22288601 -1.45667 0.9177777 -0.2966317 -0.10292125 0.036815908 0.063851796 0.15803531 0.4129329 0.7037885 -0.70369434 -0.0882743 -0.19782507 -0.25006965 -0.4801576 -0.2485859 -0.19508925 -0.10365663 -0.054073203 0.33080176 -0.172586 -0.9558632 0.32884985 -0.07256057 0.78144675 0.27120346 0.004211139 -0.07578554 -0.026927942 0.39339313 0.9241059 -0.13373473 -0.47965044 0.34092247 -0.4341498 -0.12780237 0.08757358 -0.5799292 0.13603565 -0.738149 1.0996866 -0.5401561 -0.5267738 0.15434508
half 0.2884735 -0.14048469 0.036777012 0.20976482 0.030261384 -0.36147407 0.1777821 -1.1836095 0.7157998 -0.19493532 -0.07990068 0.104469106 0.030348528 0.14315063 0.32273194 0.5675726 -0.5430136 -0.14968836 -0.15328239 -0.21040697 -0.42349494 -0.20104402 -0.15177843 -0.065651305 -0.049752105 0.23736368 -0.1595591 -0.69932526 0.28174508 -0.04530925 0.59922165 0.22677349 -0.026673876 -0.07615371 0.05346583 0.2977038 0.74535656 -0.16756494 -0.38593146 0.29758972 -0.40314072 -0.1148887 0.07765616 -0.4698261 0.16386539 -0.5266951 0.85851675 -0.37187308 -0.39496526 0.11179402
total 0.40552253 -0.107505046 0.149883 0.21144475 0.066687 -0.40586016 0.084420376 -1.2524693 0.674332 -0.1020517 -0.037738614 0.12764773 0.06454311 0.1530867 0.35300437 0.57636255 -0.6092655 -0.26512632 -0.17220561 -0.18892987 -0.48529622 -0.24329393 -0.2083567 -0.110347845 -0.08416294 0.22833675 -0.16720973 -0.74388635 0.28949392 -0.0066025597 0.5627471 0.32440922 -0.0877919 -0.10440372 0.15014675 0.25046486 0.832598 -0.25395352 -0.44474906 0.37020746 -0.39366958 -0.15133354 -0.0018645019 -0.46760857 0.31670627 -0.5593452 0.9404526 -0.2730338 -0.376445 0.11999994
imports 0.2878162 -0.13308407 0.08393367 0.1758688 0.032917354 -0.40606955 0.06905943 -1.1899284 0.66937375 -0.14187585 -0.00657967 0.11849263 0.0582284 0.11288569 0.26677877 0.4807908 -0.6080146 -0.1896171 -0.19519034 -0.17378472 -0.47857472 -0.13638243 -0.1452067 -0.07056606 -0.061338875 0.2144423 -0.14092895 -0.8803461 0.2589124 -0.008908445 0.5829568 0.25179347 -0.07399134 -0.08758134 0.10812201 0.2722255 0.7701478 -0.19456378 -0.4282184 0.3698301 -0.3291067 -0.1362422 -0.017458145 -0.44413885 0.20677939 -0.582574 0.9005784 -0.31237602 -0.3812708 0.14019746
It 0.13144496 -0.48175442 -0.3577159 0.299259 -0.1494905 -0.5778019 0.3346037 -1.6909513 1.1052263 -0.46859843 -0.28550416 -0.26046252 -0.021367755 0.18704987 0.5321823 1.0508916 -0.6493251 0.122659765 -0.16438529 -0.35969266 -0.22226861 -0.4125039 -0.27548912 -0.2319131 0.06122331 0.557009 -0.24708657 -0.76414514 0.290853 -0.19418776 0.8188325 0.41292396 0.1864287 -0.13041717 -0.44002128 0.47143167 0.9503434 0.051198177 -0.32734004 0.17723559 -0.51047987 0.11602764 0.19559003 -0.7587707 0.09581678 -0.8171153 1.1780881 -0.76447535 -0.72639287 0.126235
brought 0.24081548 -0.09751682 0.08029264 0.1536046 0.016200013 -0.34679595 0.17483427 -1.1430146 0.66377497 -0.15195267 -0.041526627 0.114758514 0.071587935 0.100617126 0.23706631 0.5109338 -0.5938147 -0.24460357 -0.14043827 -0.20540886 -0.45706302 -0.16689523 -0.11913849 -0.031072956 -0.09622306 0.20169428 -0.12221019 -0.7973834 0.2225318 -0.023785762 0.5824368 0.22525582 -0.054888155 -0.02429488 0.13885021 0.27956367 0.78719985 -0.1399073 -0.4467451 0.32244095 -0.41947198 -0.12672332 -0.030357448 -0.4568996 0.22618866 -0.52579325 0.8725755 -0.37464237 -0.30111188 0.13254318
tonnes 0.45344573 -0.03994089 0.18171002 0.21868537 0.09379017 -0.37987578 0.055362113 -1.1408795 0.6330068 -0.1025698 -0.012092187 0.16203646 0.060512707 0.16883923 0.39410105 0.5426418 -0.5598293 -0.26121897 -0.18851416 -0.14789759 -0.51237756 -0.22599821 -0.22964272 -0.11218873 -0.08911518 0.20352511 -0.16707265 -0.649008 0.3217415 0.012595538 0.5340963 0.28416365 -0.10308539 -0.10844385 0.17825702 0.2313194 0.74663734 -0.3087364 -0.4335685 0.38242134 -0.34261698 -0.19625278 0.026943916 -0.41982338 0.31987345 -0.5287366 0.89554715 -0.19001666 -0.36472663 0.08728651
some 0.20951451 -0.30509922 -0.14763074 0.2621644 -0.049518324 -0.53117555 0.31217507 -1.649995 1.0852479 -0.39576417 -0.17977451 -0.051271245 0.017969102 0.1765686 0.46336845 0.90352875 -0.7372065 -0.057059344 -0.18453099 -0.3445087 -0.43835104 -0.29815102 -0.1982421 -0.13023712 -0.02301693 0.42073223 -0.19605523 -1.0022213 0.33916232 -0.12824236 0.8822271 0.30629265 0.05914491 -0.07961876 -0.13810487 0.45267642 1.0087568 -0.06544408 -0.46031526 0.3206762 -0.5536536 -0.046385407 0.12281834 -0.7151174 0.120935075 -0.7980045 1.2125628 -0.7000828 -0.59591025 0.15473591
