2475 50
EU 0.09629136 -0.0042664497 0.050745033 0.027929353 0.0149492435 -0.07278168 -0.0016681064 -0.21856001 0.101468086 0.015333829 0.011226358 0.04402935 0.017832309 0.026429312 0.04459744 0.08213551 -0.11166817 -0.06462004 -0.046126924 -0.013647776 -0.11687346 -0.013344807 -0.031353876 -0.0032949294 -0.027027618 0.028877622 -0.02026664 -0.17515671 0.0479624 0.0117641715 0.101765625 0.05353929 -0.03354438 -0.0060270824 0.05261378 0.034069408 0.15154675 -0.05740497 -0.09480773 0.096034504 -0.086041294 -0.042444248 -0.016605927 -0.08312464 0.07122582 -0.0982115 0.16939321 -0.033019535 -0.06382358 0.014949409
German 0.982025 0.0180836 0.6871834 0.3685995 0.25539535 -0.28684834 -0.3413309 -1.2746048 0.32232425 0.60073626 0.033565257 0.3869203 0.0637355 0.14687032 0.62635505 0.5465111 -0.43336678 -0.8016379 -0.21211745 -0.10521818 -0.47489366 -0.41854522 -0.6123001 -0.36934468 -0.16850875 0.0030626906 -0.3017548 -0.16435876 0.19352412 0.13062638 0.11939267 0.82189924 -0.42013016 -0.36036834 0.55180657 0.044907987 0.8135228 -0.6357955 -0.29614663 0.40586033 -0.4404285 -0.27144697 -0.036499895 -0.49615023 1.0505877 -0.2918662 0.781441 0.37329236 -0.19133937 -0.17201112
call 0.16690859 -0.40805292 -0.18371005 0.20968294 -0.19635268 -0.5566869 0.40708587 -1.6567379 1.2535605 -0.5372374 -0.15785344 -0.13801955 -0.020437866 0.1548477 0.5244238 1.1004765 -0.6526522 0.03861847 -0.047709502 -0.45763305 -0.39972895 -0.39338887 -0.17382064 -0.17727418 0.0605356 0.47059506 -0.23064457 -1.135325 0.32879308 -0.08895907 0.9617866 0.381728 0.1204969 -0.02181746 -0.24899817 0.5437058 1.0355276 -0.062607475 -0.5288697 0.30435693 -0.5642252 0.0039113206 0.19290504 -0.722743 -0.08704751 -0.81001645 1.2330769 -0.75632626 -0.726842 0.1953554
to -0.19887926 -0.8341515 -0.7057866 0.20425569 -0.53607994 -0.90164113 1.1530956 -2.8326309 2.6015763 -1.4568839 -0.38435596 -0.5421076 -0.06834139 0.30055752 0.8876703 2.2728434 -1.0629125 0.47886524 0.08107717 -1.0229294 -0.5044423 -0.6674531 0.0453595 -0.25890392 0.2483128 1.0326916 -0.32728538 -2.1027236 0.7062 -0.28310812 2.0715728 0.36175346 0.46032965 0.16163397 -0.85149115 1.1959963 1.7071092 0.18912095 -0.87645787 0.41285336 -1.1209189 0.23981151 0.6221884 -1.4531499 -0.6580102 -1.4589236 2.1251907 -1.8838449 -1.4353464 0.35474294
British 0.48014453 -0.10825949 0.24374771 0.21939512 0.065011315 -0.36250517 -0.059448812 -1.1322441 0.5545561 0.04485221 0.031354714 0.17258506 0.033263065 0.11235957 0.36578074 0.49226272 -0.5121132 -0.31512406 -0.17021054 -0.1521947 -0.4548346 -0.22768842 -0.2807042 -0.16572173 -0.081297636 0.15841474 -0.18753323 -0.6725531 0.21573947 0.056855083 0.42208472 0.43302783 -0.1631864 -0.15903243 0.20229979 0.196964 0.74089366 -0.31549272 -0.3875508 0.35906157 -0.31876877 -0.18573813 -0.0003965458 -0.4141775 0.3527108 -0.4886487 0.8216186 -0.10711341 -0.34722856 0.074015714
. 0.40007097 -0.48028317 -0.07494463 0.30709457 -0.17731565 -0.7160541 0.116855934 -2.0578446 1.342881 -0.3176052 -0.09153418 0.01386581 -0.023482904 0.18400119 0.55673903 1.1902518 -0.8455632 -0.058217 -0.18006946 -0.3848465 -0.6104362 -0.29225227 -0.3126718 -0.26925874 0.06593252 0.5283769 -0.383263 -1.4834328 0.40768212 -0.04728255 0.95954406 0.5848936 -0.038697444 -0.15597568 -0.17017974 0.5121586 1.2080799 -0.2807286 -0.5916663 0.5663677 -0.49653876 -0.041476414 0.14918594 -0.81533074 0.14022793 -1.029942 1.4530678 -0.6342446 -0.90738094 0.23870184
Peter 0.52404475 0.02357449 0.3664388 0.18987435 0.14321494 -0.2905412 -0.084645234 -0.93537104 0.35251814 0.1383581 0.07335506 0.29650894 0.10194742 0.07563613 0.24821517 0.25529063 -0.4959281 -0.42180717 -0.18138401 -0.073262215 -0.4954076 -0.14801246 -0.25016317 -0.07140981 -0.16240086 0.039464157 -0.1426699 -0.5939941 0.17820497 0.10129902 0.3054318 0.35167712 -0.20590253 -0.13035735 0.3700699 0.11158335 0.70110583 -0.3445361 -0.4231699 0.3666402 -0.27437308 -0.2631334 -0.11154816 -0.29210526 0.4321521 -0.37519342 0.71745414 0.030514132 -0.19053908 0.08554007
Blackburn 0.21851256 0.06592984 0.20704965 0.06689428 0.08893514 -0.1272308 -0.06213365 -0.38103083 0.110321455 0.086089104 0.087096214 0.18250637 0.059898492 0.030266846 0.007747444 0.021307206 -0.26725024 -0.24464732 -0.101024926 -0.012190669 -0.29406303 0.0033092787 -0.05236581 0.025412375 -0.10374948 -0.027721545 -0.030761639 -0.35998973 0.07507501 0.06363599 0.12699434 0.106562614 -0.12483426 -0.03946228 0.25598025 0.027537225 0.31394726 -0.1617101 -0.2257779 0.2126529 -0.12514141 -0.13761969 -0.12039606 -0.09490554 0.22486085 -0.15731163 0.31524697 0.037343558 -0.023473585 0.062601276
BRUSSELS 0.23141967 0.041063122 0.23199345 0.07662278 0.09659328 -0.15089573 -0.15254688 -0.4515503 0.13990074 0.1423927 0.11848319 0.19833371 0.03964038 0.03985971 0.00889466 0.042583086 -0.29626715 -0.25261796 -0.126377 -0.010358267 -0.33835113 0.040805727 -0.043531045 -0.011642651 -0.089179076 -0.016503628 -0.041993584 -0.45144522 0.113388605 0.060145877 0.15798858 0.1393442 -0.16951396 -0.07300171 0.2618969 0.033470336 0.30929604 -0.21369337 -0.2005896 0.27236235 -0.11969991 -0.115814276 -0.10131596 -0.12990178 0.25154674 -0.20517029 0.34084874 0.05481309 -0.07534186 0.06468132
1996-08-22 0.33584714 -0.41547626 0.5139493 0.25640598 0.28105593 -0.7728351 -2.8712454 -0.7382886 -0.26470882 1.345327 1.3193082 0.7115263 -0.61932194 0.17712781 -0.4085072 -0.87500954 -0.7742234 0.33185327 -1.1984621 0.82604617 -1.2824305 1.4953073 0.12639792 -0.54302734 0.17194241 0.14489388 -0.20258912 -2.2604606 0.65131044 0.21755303 -0.07994226 0.43871927 -1.1915917 -1.08196 0.19533086 -0.3733555 -0.5954942 -1.3242179 0.66717553 1.4610949 1.2874762 -0.055297833 0.06552935 0.17219076 0.14614798 -1.1529521 0.18997046 1.1412678 -0.954027 0.51653254
The 0.056907117 -0.8300094 -0.50843626 0.29572502 -0.3678975 -0.9194829 -0.011441729 -2.024172 1.4614216 -0.64584607 -0.045696996 -0.22068134 -0.16743544 0.16735971 0.5408568 1.222348 -0.7934014 0.42072573 -0.25407565 -0.335494 -0.48716655 -0.24902377 -0.27642903 -0.34604782 0.21978068 0.757503 -0.31447062 -1.8513507 0.39589092 -0.18045866 1.1424397 0.57723653 0.12638025 -0.23360758 -0.616737 0.65381527 1.0552623 -0.118569955 -0.40660375 0.4391284 -0.19887519 0.057912674 0.23068966 -0.76463044 -0.40559915 -1.2982035 1.4863539 -0.8947045 -1.2218084 0.30440268
European 0.35240746 -0.15913318 0.15002699 0.20334059 0.015722029 -0.3781087 -0.0010663877 -1.1217405 0.6416703 -0.072391905 0.022819653 0.12980425 0.015530274 0.09991929 0.3266121 0.5028443 -0.5217323 -0.19316123 -0.15974092 -0.18411972 -0.4427322 -0.18922623 -0.19161578 -0.1240389 -0.043116502 0.19331636 -0.17573574 -0.80107945 0.23383154 0.035840746 0.51118785 0.3410168 -0.11380204 -0.12078557 0.115613036 0.24571283 0.71985424 -0.26430318 -0.381968 0.35780448 -0.30525395 -0.15278798 0.034576733 -0.4249862 0.18988802 -0.52567977 0.8233298 -0.22356455 -0.4024527 0.12698495
Commission 0.36060637 -0.09125318 0.09890486 0.18021557 0.018493596 -0.34617552 0.08233011 -0.9877824 0.5846574 -0.15605795 0.0030388236 0.12164293 0.03836161 0.116586536 0.32916743 0.47504377 -0.4507226 -0.13793871 -0.14334016 -0.111383 -0.4120276 -0.18694921 -0.23090875 -0.09536517 -0.05079571 0.17905164 -0.15584622 -0.6564857 0.24192491 0.027935293 0.45632982 0.26558852 -0.052519966 -0.07880859 0.07995566 0.21379097 0.6408369 -0.23201196 -0.3991164 0.32708704 -0.21049862 -0.20442441 0.036635235 -0.34250784 0.11819597 -0.4913219 0.7746246 -0.20414892 -0.3807611 0.114586055
said 0.10312155 -1.0235757 -0.7007021 0.33559525 -0.53426164 -1.0178459 0.51856214 -2.7497418 2.0464137 -0.9323167 -0.37901133 -0.47811005 -0.12902649 0.2503515 0.8552908 1.9796131 -0.85608083 0.43302095 -0.07735513 -0.6589644 -0.36828098 -0.6339641 -0.42426547 -0.42509663 0.3006156 1.0274147 -0.4411455 -1.7581371 0.39227334 -0.25581062 1.3574526 0.8445173 0.3024917 -0.15338026 -0.9244385 0.8132176 1.4663532 0.08454078 -0.5211446 0.28183717 -0.6634273 0.23246536 0.41437814 -1.1269983 -0.31745148 -1.4442168 1.8031921 -1.3707818 -1.40526 0.25805533
on 0.48522773 -0.5186433 -0.3169868 0.38662884 -0.11082203 -0.89516705 0.64495987 -2.3315587 1.7579291 -1.0882224 -0.27154312 -0.0017718673 0.024443949 0.23111181 0.9685475 1.4431475 -0.97743076 0.3730989 -0.27615383 -0.3928157 -0.72053534 -0.53847325 -0.44639486 -0.15490974 0.08903177 0.70897955 -0.39539602 -1.6518903 0.6227883 0.0038016513 1.4364539 0.3454074 0.25367302 -0.029766351 -0.44070482 0.71463287 1.5563495 -0.21323928 -0.9625497 0.5989465 -0.32571948 -0.39756712 0.42928088 -0.856708 -0.5404027 -1.3905867 1.9299989 -1.084188 -1.2333272 0.4093552
Thursday 0.7070806 -0.2903023 -0.44929847 0.50652057 -0.21208552 -1.085044 -0.04342905 -1.207374 0.44762084 -0.5968291 0.031464115 0.12697452 -0.02233491 -0.036304798 0.65646887 -0.10026444 -0.8639587 0.53194225 -0.48420542 0.42958653 -0.586907 -0.47738525 -1.0496707 -0.20571892 -0.084425084 0.38043913 -0.32966074 -1.2257072 -0.30138847 0.1376409 0.27460447 0.7178231 0.30273315 -0.386416 -0.24379005 0.29922116 1.0643502 -0.11365294 -0.83668834 0.12912047 0.8215233 -0.92555934 -0.28696167 0.28298992 -0.59219116 -1.2586156 1.2203988 0.06745381 -0.7983255 0.48661807
it -0.08937614 -1.0145426 -0.85298896 0.29861382 -0.6844018 -0.98623985 1.1208811 -2.920945 2.546969 -1.4333072 -0.5213037 -0.7028152 -0.100867 0.26456782 1.0395963 2.3895695 -0.95704925 0.51574695 0.08972865 -0.98407817 -0.3246938 -0.8934946 -0.26162633 -0.3506447 0.2795791 1.1374898 -0.4039248 -1.883323 0.53369164 -0.36190552 1.933577 0.59491545 0.5504937 0.0657748 -1.0226898 1.1850054 1.7559574 0.25520128 -0.8057823 0.25747186 -1.0079979 0.24498764 0.5716876 -1.4389557 -0.59654105 -1.4910834 2.2055683 -1.8141332 -1.5141621 0.29322138
with 0.1862434 -0.37560055 -0.16990303 0.20724574 -0.14089216 -0.52736944 0.5336346 -1.7135003 1.3550538 -0.6539037 -0.20425567 -0.11891591 0.021552863 0.17050597 0.6045523 1.170813 -0.6899655 0.057849165 -0.024521662 -0.52619904 -0.41388816 -0.45382565 -0.15093492 -0.14355381 0.041903224 0.48574087 -0.225173 -1.1213197 0.4239955 -0.06590181 1.0677294 0.30485868 0.1507595 0.021219078 -0.25809625 0.5843747 1.1062633 -0.07515983 -0.60950404 0.320842 -0.63879055 -0.07234469 0.31292033 -0.79259413 -0.17576894 -0.81920356 1.2846946 -0.87522596 -0.7606836 0.20582494
until 0.29550412 -0.051280387 0.17763108 0.12466475 0.035465818 -0.28031978 0.05553616 -0.9096471 0.5018638 -0.05052705 0.027472204 0.14678234 0.051759362 0.0771006 0.20251235 0.3880264 -0.46078813 -0.2647299 -0.10701162 -0.16524078 -0.41098112 -0.1374087 -0.11900071 -0.04928996 -0.09039655 0.11272398 -0.10339761 -0.6674309 0.19004408 0.036444403 0.4287917 0.23885842 -0.09731499 -0.047278 0.1886895 0.1933575 0.6380164 -0.19480284 -0.38068312 0.29826102 -0.3189548 -0.1331616 -0.04852048 -0.33710328 0.2407941 -0.38549188 0.6935238 -0.17864223 -0.24375251 0.1029481
determine 0.3012665 -0.06582146 0.17116989 0.13740991 0.03325123 -0.27030748 0.039887477 -0.8651612 0.46890628 -0.03478746 0.020911075 0.13499342 0.0528839 0.07656949 0.2161197 0.3754929 -0.42061162 -0.24775484 -0.10637044 -0.14991257 -0.3759721 -0.1477999 -0.14168762 -0.060663894 -0.08118645 0.11606404 -0.11255005 -0.6018372 0.18184327 0.030668529 0.38923234 0.2523133 -0.09715655 -0.06247928 0.17000915 0.17972544 0.59939545 -0.20092243 -0.34962767 0.28470272 -0.29154554 -0.13391176 -0.02862492 -0.32815328 0.23358668 -0.37056246 0.65565085 -0.16173777 -0.24568783 0.08423795
whether 0.21219262 -0.3458292 -0.116565146 0.20851097 -0.1591148 -0.5092532 0.41212526 -1.6111505 1.1816887 -0.47217652 -0.17460506 -0.11864853 0.0038038888 0.13667312 0.5511233 1.0741167 -0.62190723 -0.06824764 -0.041742254 -0.4750915 -0.3778574 -0.4369595 -0.19751863 -0.16874586 0.029665366 0.4451576 -0.2178945 -0.9930261 0.30340838 -0.07198108 0.91898113 0.40311834 0.10078825 -0.031345233 -0.18429534 0.50696725 1.0514388 -0.07219495 -0.52409345 0.26975337 -0.6259439 -0.030392826 0.18699375 -0.7320351 0.008757239 -0.7381327 1.2007589 -0.71307415 -0.6544267 0.14596814
mad 0.22434981 -0.3652837 -0.14016247 0.23322305 -0.14496167 -0.59806067 0.36235833 -1.663694 1.1811955 -0.5241455 -0.12333633 -0.05910475 -0.00057805394 0.13288128 0.48211637 0.9489065 -0.722897 0.02451439 -0.105333574 -0.39520425 -0.5014321 -0.35501817 -0.19314088 -0.12715618 0.021614933 0.4469504 -0.22080849 -1.2254077 0.30177233 -0.04398904 0.9445532 0.3766816 0.09438999 -0.046022475 -0.16101046 0.51898146 1.082157 -0.086963944 -0.59878767 0.34790486 -0.50359946 -0.10206243 0.13916907 -0.65072304 -0.0926279 -0.84680575 1.273833 -0.69950044 -0.70904845 0.25498018
cow 0.23072831 -0.31831735 -0.07868721 0.19416659 -0.14232297 -0.53115857 0.36908874 -1.618047 1.1619118 -0.47087106 -0.10526643 -0.044884633 0.021845471 0.15808299 0.44088632 0.9824348 -0.70404965 -0.07803633 -0.082538664 -0.40618962 -0.4899989 -0.3377514 -0.13726243 -0.13366619 -0.006750702 0.40974095 -0.20443174 -1.1742795 0.33501935 -0.04973493 0.9255599 0.34088978 0.063721344 -0.013606523 -0.10304159 0.505431 1.0504464 -0.10382277 -0.58930445 0.37757158 -0.5524963 -0.06754977 0.1138391 -0.6823923 0.0042547397 -0.78233063 1.230958 -0.69299316 -0.6516204 0.20467135
disease 0.24480115 -0.19619426 0.02387051 0.16169202 -0.04917561 -0.3665286 0.1816891 -1.1634105 0.77061087 -0.23209298 -0.05530157 0.018288637 0.02449131 0.11121276 0.3475931 0.66914 -0.494215 -0.13114311 -0.086804345 -0.27628827 -0.37699097 -0.24807349 -0.15168324 -0.11131711 -0.018978674 0.2592511 -0.15939026 -0.7782959 0.24746798 -0.010443124 0.6135959 0.2888337 -0.011714285 -0.05022693 -0.0041604475 0.32122347 0.74790674 -0.14797628 -0.40081805 0.29550412 -0.40360776 -0.07262437 0.085055955 -0.48839867 0.10593454 -0.5339223 0.8696959 -0.39637268 -0.43339145 0.118815556
can 0.23636976 -0.66182625 -0.33649325 0.32750836 -0.3014083 -0.7485121 0.46314707 -2.1964622 1.6568527 -0.67859966 -0.2730219 -0.28384492 -0.08609741 0.19805051 0.8436224 1.5638605 -0.7391456 0.1796502 -0.06593928 -0.6068038 -0.372657 -0.6330547 -0.34701666 -0.36379316 0.17871687 0.70479125 -0.3631734 -1.2830688 0.3966178 -0.14434326 1.1970243 0.64369583 0.17896669 -0.12717609 -0.5024236 0.71386546 1.2778572 -0.06836308 -0.5431816 0.3026044 -0.68442076 0.05243376 0.38339886 -0.9921807 -0.1531605 -1.0623287 1.5548699 -0.96848804 -1.0466117 0.18586066
be 0.045142174 -1.1240147 -0.73234344 0.3451567 -0.67370427 -0.8914521 1.1515515 -3.3018243 2.748506 -1.2125493 -0.6926825 -0.82888937 -0.24786499 0.36762035 1.4267977 2.8895483 -0.7811111 0.31730998 0.16448677 -1.2155898 -0.12305813 -1.2091986 -0.40328056 -0.70623285 0.37070906 1.2446647 -0.5004414 -1.3916621 0.55975765 -0.40846968 1.9195143 0.89658713 0.4217801 -0.10398309 -1.1151265 1.2223288 1.794167 0.13846618 -0.58729005 0.18228161 -1.426758 0.39279133 0.7638703 -1.8069875 -0.17953375 -1.3513907 2.1507442 -1.8096147 -1.5312009 0.027084313
sheep 0.14901319 -0.07071038 0.059109006 0.08309348 -0.013685393 -0.18050225 0.07067425 -0.5676169 0.353637 -0.07220567 -0.020058265 0.03765193 0.027051657 0.053392768 0.1563743 0.3051708 -0.2551185 -0.11929943 -0.040374983 -0.12568086 -0.20699239 -0.11166337 -0.08045028 -0.04843054 -0.029154342 0.10084195 -0.07255968 -0.38378146 0.11496791 -0.002931464 0.27964467 0.16350263 -0.028425265 -0.024539398 0.05521512 0.14180848 0.38347185 -0.09111239 -0.21629648 0.15355736 -0.2123085 -0.043756362 0.0050506652 -0.23648095 0.11105316 -0.24791007 0.43102852 -0.15995136 -0.18708266 0.04999995
Germany 1.1737748 0.24742247 1.010423 0.349787 0.40376168 -0.1227905 -0.46991053 -1.0579193 0.0043462566 0.95275605 0.10494862 0.56877595 0.13180658 0.14135829 0.5294468 0.32851413 -0.36307758 -1.1716974 -0.20777972 -0.03259656 -0.5175729 -0.37939832 -0.64150625 -0.3397406 -0.29158172 -0.21535619 -0.26089963 0.14744279 0.1443504 0.1947189 -0.13964419 0.8570861 -0.5859737 -0.38171378 0.9035805 -0.117507115 0.7373782 -0.765344 -0.27218872 0.4430459 -0.50504124 -0.32248467 -0.1878021 -0.41568527 1.468894 -0.03761968 0.60238874 0.6970598 0.1021394 -0.2916983
's 0.59229875 -0.2532604 0.28508106 0.28952682 0.06644696 -0.45302203 0.024036549 -1.6335186 0.9159857 0.037640724 -0.052462675 0.14684081 0.0145261325 0.17705922 0.6262699 0.9469921 -0.5745679 -0.36718255 -0.12730312 -0.36449313 -0.46841568 -0.41529897 -0.3830787 -0.30305964 -0.031186959 0.27378303 -0.30912215 -0.77764994 0.35134363 0.016549405 0.6258038 0.625048 -0.18712457 -0.23054126 0.12046884 0.32975262 0.9880704 -0.40974855 -0.39434713 0.42007068 -0.5984251 -0.11258569 0.13776569 -0.73853093 0.46234745 -0.59570867 1.0743197 -0.25667715 -0.5228267 0.020810552
the -0.09251081 -0.93478614 -0.682298 0.32448608 -0.49148056 -1.0019993 0.77352583 -2.5981467 2.2849457 -1.24408 -0.33197945 -0.5022056 -0.1807174 0.17715022 0.9178683 1.9880973 -0.9678151 0.41990882 -0.002892639 -0.9917985 -0.44368568 -0.70529705 -0.165127 -0.34087825 0.26042917 0.9938203 -0.3989504 -2.0536242 0.55819327 -0.29173023 1.9321097 0.4803419 0.3962608 -0.033338036 -0.78997725 1.1086379 1.6672558 0.05486124 -0.7269572 0.35641363 -0.9571689 0.08862024 0.5148337 -1.3297408 -0.6811046 -1.4353266 2.023904 -1.6427466 -1.4153098 0.3287751
Union 0.41508082 0.015180511 0.11847974 0.16707377 0.06636213 -0.3408039 0.21409732 -0.9414911 0.6085882 -0.28941366 0.009270375 0.1847709 0.08729723 0.14817786 0.3298564 0.43956345 -0.49654308 -0.12834747 -0.16053651 -0.070181824 -0.48373207 -0.14588694 -0.21029656 -0.015358 -0.09723674 0.14488819 -0.12552652 -0.6797209 0.32156506 0.04821842 0.5124451 0.12830956 -0.016962687 -0.005434321 0.13939837 0.21934009 0.68979317 -0.25626147 -0.5321052 0.39378387 -0.15921569 -0.32453018 0.050817892 -0.30474985 0.038392607 -0.5200732 0.83797425 -0.24893144 -0.37667042 0.143977
committee 0.20348765 -0.18396465 0.0039572837 0.14199413 -0.06624515 -0.33626598 0.16710845 -1.0202873 0.68251204 -0.22512458 -0.038861606 0.0059218197 0.019718308 0.091538936 0.27917564 0.57026637 -0.450707 -0.097907536 -0.07580322 -0.22931188 -0.33942413 -0.20971107 -0.12989981 -0.088871926 -0.017413396 0.230246 -0.1346309 -0.7263108 0.20056874 -0.015882403 0.5403516 0.25962618 -0.0011656309 -0.034130692 -0.0154754575 0.2899369 0.66265655 -0.11376317 -0.36999476 0.2581205 -0.3337791 -0.07156172 0.04882782 -0.41665572 0.07032841 -0.48463333 0.77082866 -0.36208797 -0.38818678 0.117823094
Wednesday 0.70661575 -0.13189647 -0.27445984 0.4423972 -0.09519577 -0.94097 -0.057069864 -0.9725508 0.23028915 -0.4557423 0.08514888 0.23801948 0.03341295 -0.06907839 0.46896932 -0.33308873 -0.8316378 0.34756094 -0.46591407 0.45695883 -0.61986697 -0.37164274 -0.9237955 -0.077510625 -0.15972605 0.2289014 -0.2585438 -1.1210213 -0.32760307 0.19410843 0.15425785 0.5862508 0.22170807 -0.31265107 -0.014854772 0.18775728 0.9761893 -0.12599209 -0.84057796 0.14972013 0.75651413 -0.9533263 -0.39061862 0.36273715 -0.45733044 -1.0593858 1.0702884 0.17035133 -0.56719035 0.48263338
should -0.040419143 -0.4892912 -0.34664455 0.15102154 -0.3471018 -0.61064965 0.6284825 -1.8485794 1.5315294 -0.772994 -0.22055832 -0.2822885 -0.049265634 0.1523364 0.4561503 1.3279309 -0.72588325 0.12479595 0.007096875 -0.6190983 -0.38327268 -0.40873724 -0.05303711 -0.16345231 0.09653109 0.57157916 -0.22106628 -1.3861551 0.3102083 -0.1581078 1.1992656 0.36698556 0.24388662 0.06848159 -0.39051804 0.7312561 1.1643099 0.10320582 -0.59771436 0.2712415 -0.7251511 0.17370419 0.19203861 -0.8601802 -0.22664122 -0.91158044 1.3970451 -1.0199103 -0.8273692 0.24177684
buy 0.093582995 -0.14783898 -0.03318386 0.08525247 -0.062545665 -0.23781554 0.17090645 -0.7482998 0.5354263 -0.20557381 -0.045918137 -0.024876067 0.007990065 0.07028937 0.20401551 0.45923942 -0.32178763 -0.051551163 -0.033763763 -0.20248108 -0.2215309 -0.1658694 -0.060002428 -0.051416192 0.0018173273 0.19515124 -0.09101393 -0.53041965 0.14965616 -0.02549307 0.43719667 0.16791475 0.026019597 -0.017211676 -0.048777062 0.2397957 0.49170455 -0.05042807 -0.25807458 0.1581343 -0.28812525 -0.017594587 0.049950354 -0.32667685 0.040547322 -0.35468087 0.5743012 -0.3104727 -0.29295823 0.08049437
from 0.2588209 -0.13492106 0.03922579 0.13876271 -0.008182321 -0.4183196 0.31333482 -1.3430468 1.0317765 -0.43276483 -0.018624805 0.0818766 0.07507349 0.21690258 0.4126025 0.8344098 -0.6294199 -0.07683598 -0.11232695 -0.2867246 -0.56680936 -0.16769254 -0.06426402 -0.06219477 -0.035364155 0.31993052 -0.14298843 -0.9891808 0.5145102 -0.0045135585 0.85751253 0.13209856 -0.009746574 0.017744543 -0.022865586 0.4092911 0.8407507 -0.23421289 -0.5591131 0.473859 -0.41659233 -0.14734672 0.22733317 -0.5832715 0.007005857 -0.69606704 1.0823845 -0.5761667 -0.5960607 0.16867477
countries 0.3080471 -0.22744305 0.022256263 0.21297629 -0.050078813 -0.44218215 0.2183272 -1.3300681 0.8991615 -0.29524106 -0.069821924 0.018513095 0.0043739746 0.12756152 0.46517357 0.77408946 -0.5626493 -0.10953727 -0.0994841 -0.3090347 -0.41368994 -0.3190954 -0.21596144 -0.1551261 -0.0128342165 0.30040818 -0.19804992 -0.8602417 0.2768469 -0.01045952 0.7010618 0.3490504 0.008463494 -0.07409562 -0.03704373 0.37786317 0.8662549 -0.18656759 -0.4668447 0.32781714 -0.42384952 -0.12083801 0.12296712 -0.55043024 0.077716805 -0.6203994 1.0123483 -0.43547723 -0.53421545 0.13362071
other 0.12479331 -0.48459908 -0.28571302 0.23398726 -0.25010765 -0.6287691 0.51423377 -1.8076926 1.4265076 -0.69388473 -0.22547142 -0.22410038 -0.03546935 0.1506128 0.6400119 1.2634062 -0.6938379 0.10154839 -0.03691755 -0.5587847 -0.37148002 -0.49450347 -0.19591002 -0.1952663 0.093164615 0.5841113 -0.24470462 -1.2162527 0.35246885 -0.11943196 1.1351187 0.40589792 0.19107576 -0.0067184726 -0.37364736 0.64523196 1.1684195 -0.0032076512 -0.57668084 0.2775199 -0.66175663 -0.0062121996 0.27661696 -0.83339745 -0.2132607 -0.90576565 1.3796798 -0.9479964 -0.84484154 0.20679708
than 0.044983547 -0.62720156 -0.3714887 0.23266071 -0.33362004 -0.69981027 0.6339039 -2.0792665 1.7109101 -0.80180115 -0.28621778 -0.33044663 -0.07808933 0.17985636 0.7602343 1.5914136 -0.748287 0.14929059 0.011814121 -0.7408094 -0.35816053 -0.6010655 -0.17417623 -0.28208402 0.16352382 0.70163554 -0.30813554 -1.3341509 0.42979792 -0.17780666 1.3529031 0.45819026 0.24320751 -0.003330744 -0.5058373 0.7825145 1.2873117 0.036189526 -0.5844138 0.2762374 -0.8204237 0.10000258 0.3933102 -1.024328 -0.22086006 -0.9955445 1.5451322 -1.1620373 -0.96705186 0.17567256
Britain 1.1296086 0.29419765 0.97747105 0.32254162 0.40377995 -0.11890059 -0.40608767 -0.95080996 -0.057503607 0.87511194 0.1252627 0.5836088 0.16664582 0.121249296 0.44187528 0.18858242 -0.39168313 -1.1369514 -0.21488926 0.007976204 -0.5428608 -0.34728602 -0.6058627 -0.25604126 -0.3161163 -0.24770868 -0.22368525 0.08635319 0.09961136 0.20968953 -0.15169555 0.7749371 -0.5463398 -0.3264181 0.9309126 -0.14047289 0.73250204 -0.7029763 -0.3454195 0.4127585 -0.45037726 -0.37841773 -0.25688133 -0.3219981 1.3624218 -0.033762354 0.578845 0.6729623 0.1593597 -0.241824
was 0.027885547 -0.7675142 -0.5990086 0.29383326 -0.43901348 -0.8377318 0.7645369 -2.4395843 2.0068402 -1.0349913 -0.3492245 -0.4105321 -0.044571396 0.20671436 0.8361774 1.7996254 -0.83475816 0.37776634 0.008909667 -0.7416155 -0.40589976 -0.6619934 -0.24071567 -0.24986298 0.21181227 0.85711724 -0.34642538 -1.5713933 0.45592874 -0.23233804 1.4798344 0.54122484 0.33262655 -0.008674169 -0.73624086 0.912789 1.4678919 0.09317465 -0.69814694 0.29588366 -0.8033189 0.111968115 0.4499096 -1.0953238 -0.44785792 -1.2334853 1.7692823 -1.3576981 -1.2358352 0.2915533
" -0.3363002 -1.6821729 -1.4050322 0.40467545 -1.0570989 -1.3488348 1.3768442 -3.9293594 3.431492 -1.9304664 -0.8179463 -1.1161242 -0.24451187 0.30404228 1.3954871 3.3778408 -1.0467799 0.945511 0.20067324 -1.3228799 -0.12461472 -1.1837457 -0.37289557 -0.5802352 0.59596455 1.6455548 -0.6359943 -2.4334786 0.5819985 -0.57714033 2.4478574 0.95015484 0.8259936 0.042768423 -1.7576027 1.5689199 2.174283 0.48392707 -0.77389395 0.15511073 -1.298758 0.6527101 0.8261831 -1.9063685 -0.9544281 -1.9878244 2.7508903 -2.55699 -2.177297 0.35053852
We 0.01837942 -0.37156644 -0.28621447 0.15967414 -0.23815231 -0.45849577 0.32799977 -1.1846669 0.86516786 -0.48813432 -0.11877245 -0.16375238 -0.031903245 0.06828665 0.29945204 0.7321894 -0.46096057 0.12086938 -0.04761215 -0.29780936 -0.22355075 -0.2748695 -0.13781351 -0.099339895 0.061902706 0.38650116 -0.1555387 -0.8897712 0.089889154 -0.078198686 0.64648855 0.302208 0.17190218 -0.022763401 -0.2824984 0.40248668 0.7391883 0.069569 -0.37432465 0.13923553 -0.32526937 0.0068080127 0.053821705 -0.45745367 -0.15938234 -0.6010224 0.8679414 -0.61613256 -0.5205424 0.17912476
do -0.021410342 -0.5018374 -0.31750172 0.15518747 -0.32734585 -0.534753 0.6657601 -1.8629397 1.5245115 -0.692703 -0.2603696 -0.31463516 -0.05095762 0.13673958 0.5004715 1.439912 -0.6543343 0.03473538 0.07963797 -0.6655492 -0.29897612 -0.47005963 -0.05607417 -0.17657597 0.11585418 0.58695906 -0.23707344 -1.1885982 0.3099045 -0.16329171 1.1602657 0.37921804 0.19019523 0.04729178 -0.3791266 0.67852634 1.1354308 0.075491935 -0.5268494 0.24380188 -0.86341697 0.21160688 0.23613672 -0.93659526 -0.07395702 -0.7944356 1.3587987 -1.0318629 -0.7698429 0.16495241
n't -0.026286194 -0.45044583 -0.2803802 0.13155372 -0.29523927 -0.4547487 0.5142248 -1.5332583 1.2426935 -0.54505444 -0.20183957 -0.2484427 -0.04019973 0.107326485 0.39798066 1.181712 -0.5236391 0.045237023 0.06699411 -0.55040973 -0.23206449 -0.37691662 -0.04538307 -0.1360401 0.10607033 0.49444675 -0.2058873 -0.9836339 0.25677538 -0.13218221 0.928249 0.3337948 0.17370497 0.0046433406 -0.32821426 0.5498477 0.9203671 0.08448476 -0.4030388 0.17814505 -0.6805199 0.20548256 0.19361833 -0.75618505 -0.05408167 -0.65100825 1.0898184 -0.84039783 -0.6186222 0.13352652
support 0.27819118 -0.17914963 0.06666034 0.16956969 -0.034282126 -0.40034875 0.14736702 -1.2038622 0.7647489 -0.20796587 -0.013677203 0.06243589 0.033891946 0.107224256 0.3083367 0.6181125 -0.5621566 -0.17228441 -0.120126106 -0.24571207 -0.44433606 -0.21383777 -0.1465464 -0.08997223 -0.044403605 0.24592537 -0.15866053 -0.8876853 0.2600606 0.0012242551 0.62047005 0.3026844 -0.04383111 -0.052923642 0.05429668 0.3139941 0.7888752 -0.17544328 -0.44729507 0.34307677 -0.38944846 -0.11345471 0.03284391 -0.47875786 0.12732187 -0.5708263 0.9237917 -0.3737914 -0.43422478 0.15058808
any 0.30751267 -0.3931362 -0.06933766 0.24804918 -0.17364575 -0.46880817 0.3647148 -1.6608474 1.1754259 -0.32046223 -0.22331677 -0.16549589 -0.03546047 0.16699086 0.67568976 1.2539546 -0.49644858 -0.15031616 0.0023303016 -0.5253678 -0.26797745 -0.5501337 -0.30691177 -0.30249095 0.05555163 0.44265905 -0.2723368 -0.7211774 0.28713185 -0.10175979 0.8267957 0.56707036 0.062056117 -0.10288651 -0.2178355 0.50813305 0.9983778 -0.12508385 -0.40770647 0.23955177 -0.6855029 0.062015872 0.23832147 -0.8103027 0.22669125 -0.66251755 1.1553773 -0.6203452 -0.64202154 0.011867926
such 0.25557092 -0.17132694 0.055048622 0.16771273 -0.036127623 -0.37555668 0.18159826 -1.1735214 0.7527757 -0.22169422 -0.03616712 0.037224766 0.02740535 0.10242227 0.3142461 0.62528133 -0.52634484 -0.16381243 -0.09310706 -0.27078676 -0.39977038 -0.23538357 -0.12906907 -0.082488745 -0.041289613 0.24042602 -0.15535143 -0.83034587 0.22648658 -0.0019398057 0.61235696 0.2933502 -0.027786044 -0.04580703 0.041198827 0.31676996 0.77998483 -0.14413227 -0.43171817 0.30763096 -0.4136546 -0.09700865 0.04009949 -0.48224446 0.12153837 -0.52914786 0.8847509 -0.39027244 -0.4147373 0.14475034
because 0.1754737 -0.39644715 -0.13279144 0.1986032 -0.18936118 -0.49756423 0.44963077 -1.6893615 1.2778858 -0.48877072 -0.19464085 -0.16716966 -0.023656918 0.16371262 0.57497656 1.2038336 -0.6028477 -0.051361177 -0.013844304 -0.5431264 -0.35000888 -0.4659967 -0.16322649 -0.21340863 0.06130314 0.4764503 -0.23373745 -0.9853613 0.34213766 -0.09624165 0.9770037 0.41846803 0.09501809 -0.0307214 -0.23471344 0.5460008 1.0377252 -0.07161199 -0.48369947 0.27562904 -0.70666885 0.053688582 0.24547096 -0.81484073 0.034210406 -0.72763693 1.211433 -0.76975405 -0.67028105 0.118812606
we -0.04156084 -0.62895733 -0.43480524 0.207427 -0.3990229 -0.70712864 0.7845186 -2.230275 1.8448765 -0.93408734 -0.2891814 -0.35717562 -0.039927304 0.1766147 0.6262932 1.6308694 -0.8276688 0.13504913 0.047865532 -0.7720598 -0.4189922 -0.53733426 -0.076042406 -0.18305556 0.13233799 0.7447139 -0.24335137 -1.5748479 0.39418063 -0.19676481 1.4538447 0.39946747 0.31260818 0.07616426 -0.49416068 0.86724234 1.3995336 0.10688135 -0.67401934 0.30736014 -0.9038701 0.16761722 0.26685175 -1.0506103 -0.254774 -1.070431 1.6688585 -1.287905 -0.98305154 0.2577533
see 0.27928188 -0.1680238 0.06277826 0.17957492 -0.027296325 -0.31244043 0.28684995 -1.1169083 0.7492557 -0.23088257 -0.122168064 0.0016104196 0.028943937 0.09147078 0.41921595 0.70178956 -0.43030462 -0.19053142 -0.021944508 -0.32644084 -0.2810551 -0.34366497 -0.19528429 -0.116649374 -0.026508035 0.2234564 -0.16941096 -0.5559756 0.19863532 -0.0006174323 0.5705327 0.32547122 0.026194198 -0.036132153 0.014052609 0.31637692 0.7702471 -0.124103345 -0.39204136 0.20856974 -0.49509263 -0.081537105 0.0975175 -0.5104476 0.15677205 -0.4263486 0.8274979 -0.3903617 -0.3481306 0.06633008
for 0.11969997 -0.45800924 -0.23470555 0.22186199 -0.16860902 -0.6093996 0.54087734 -1.9444557 1.5489668 -0.73327225 -0.21388887 -0.17421876 -0.006361637 0.22194622 0.65147746 1.3326598 -0.7557948 0.15219493 -0.031067282 -0.5629395 -0.4203047 -0.44090027 -0.0814124 -0.14810742 0.10760431 0.5778538 -0.24063516 -1.3486484 0.51691777 -0.075062506 1.2454292 0.29938787 0.17610838 0.043345302 -0.37354913 0.65345585 1.1616766 -0.06003687 -0.6225172 0.38848782 -0.6840749 0.008793467 0.3935822 -0.8936447 -0.25952554 -0.94782794 1.4563053 -1.0548769 -0.91541183 0.29366717
, 0.7550709 -0.114620134 0.415091 0.35846865 0.120182775 -0.32812375 0.26770896 -1.7989252 0.7868464 0.14584133 -0.34352714 0.15017727 0.23360375 0.1521028 0.750877 1.1058604 -0.49645615 -0.76021004 0.022351705 -0.3730762 -0.31185588 -0.7737981 -0.58076245 -0.16859584 -0.12350235 0.18765222 -0.31292778 -0.326457 0.24745855 0.034915477 0.4723006 0.8104045 -0.07792666 -0.053497314 0.30274087 0.22761276 1.2675457 -0.2761758 -0.57608783 0.19470072 -0.87035555 -0.052497428 0.0041560438 -0.71242356 0.8871976 -0.4422573 1.2814554 -0.23213364 -0.35135537 -0.032165427
chief 0.2667695 -0.0843356 0.15639861 0.12381301 0.03315624 -0.2777695 -0.010473446 -0.85561186 0.45771122 -0.023993684 0.0499446 0.12888643 0.030114321 0.07158664 0.18327287 0.35194144 -0.42806682 -0.22816838 -0.12009681 -0.14000049 -0.38666552 -0.10610215 -0.1064237 -0.05805118 -0.06465953 0.11787391 -0.110931076 -0.66100097 0.18118624 0.027204249 0.38675442 0.24566975 -0.108816184 -0.07075051 0.1595322 0.18265042 0.57414633 -0.19923776 -0.3221744 0.30305666 -0.28146887 -0.109867826 -0.02912769 -0.32071123 0.21758103 -0.38535044 0.64260757 -0.16237234 -0.25906336 0.09706416
spokesman 0.2895734 -0.42453802 -0.12552376 0.26323274 -0.1388396 -0.5475941 0.09283668 -1.4463997 0.9360305 -0.2986922 -0.09249276 -0.078077994 -0.028603831 0.12087628 0.50891197 0.85613364 -0.5332447 0.047125477 -0.13060085 -0.2723622 -0.34148255 -0.3377992 -0.30624408 -0.23799159 0.06827622 0.42252055 -0.25637934 -0.9369117 0.23659785 -0.06347399 0.6746826 0.50247514 0.033193633 -0.1487007 -0.23220931 0.3972188 0.84198016 -0.14161178 -0.36705413 0.27652198 -0.31067953 -0.059245303 0.1505564 -0.56758803 0.00067416026 -0.7451659 1.0276753 -0.49068964 -0.69025844 0.14674132
van 0.555363 -0.1478751 0.26637784 0.27839938 0.07563194 -0.42606983 -0.089433834 -1.3157781 0.6455375 0.0654844 0.03359496 0.20036748 0.037932564 0.12004937 0.44405356 0.57722396 -0.5821639 -0.35669002 -0.20431699 -0.18022855 -0.5203142 -0.27090627 -0.33937532 -0.19611107 -0.07750899 0.19004166 -0.22239426 -0.7678433 0.24469021 0.054925207 0.48692396 0.52723944 -0.18889193 -0.20131393 0.2143722 0.24269402 0.85345227 -0.37310526 -0.42735678 0.41455075 -0.35026246 -0.20054911 0.008214277 -0.47759202 0.41344622 -0.5657315 0.94044465 -0.11247244 -0.41325554 0.090211794
told 0.07464561 -0.6410944 -0.44661054 0.24501668 -0.36641052 -0.7671049 0.6744433 -2.1479082 1.7207477 -0.9221788 -0.3005708 -0.31040218 -0.024006896 0.18091212 0.6480626 1.4989499 -0.81005245 0.27226546 -0.0078089144 -0.5979529 -0.41567853 -0.52006096 -0.19206734 -0.20467587 0.12588157 0.7250877 -0.29416427 -1.5556356 0.37957814 -0.14977488 1.293403 0.47053576 0.29478255 0.019978104 -0.5360505 0.7684899 1.3495996 0.090499155 -0.66449106 0.26551726 -0.69067705 0.06340986 0.27853763 -0.9196041 -0.33563307 -1.102321 1.5829024 -1.1805437 -1.0128036 0.28216952
a 0.034637988 -0.9018326 -0.69588006 0.3405387 -0.49787647 -1.0257895 0.96206534 -2.8887093 2.4910383 -1.3862998 -0.40239558 -0.5087762 -0.08954867 0.26238737 1.0651482 2.2017572 -1.064597 0.48416898 -0.011785234 -0.93334186 -0.51340264 -0.7947509 -0.24268971 -0.32216626 0.2552408 1.0752652 -0.4417896 -2.027145 0.65793425 -0.2562083 1.9361205 0.53576124 0.43659586 0.022383068 -0.87277025 1.1134641 1.7836618 0.105436236 -0.88350433 0.3856546 -0.937808 0.046729643 0.6084066 -1.3562076 -0.67885685 -1.5367563 2.2163715 -1.7581807 -1.5099105 0.37517783
news 0.26379406 -0.33976686 -0.1077049 0.21158537 -0.1559935 -0.53534055 0.2956289 -1.4523664 1.006236 -0.4479667 -0.107082956 -0.01807244 0.044753376 0.110162705 0.3926431 0.81296 -0.6637081 0.0009218075 -0.123551875 -0.3106989 -0.4626935 -0.27916563 -0.20231529 -0.11004803 -0.0006892932 0.3890797 -0.20725869 -1.1233147 0.26242912 -0.04628565 0.78217036 0.34616587 0.06685902 -0.03349096 -0.121644326 0.4521595 0.97900105 -0.093186736 -0.5643029 0.3327062 -0.3656823 -0.12151652 0.045881514 -0.55753386 -0.06612442 -0.7804412 1.1613628 -0.6080494 -0.64997464 0.2151455
He -0.025535172 -0.5108694 -0.37111446 0.16765061 -0.27831766 -0.54529595 0.3104906 -1.3670627 1.086941 -0.60668933 -0.13466847 -0.22720519 -0.059512652 0.10302286 0.3777464 0.917497 -0.49540466 0.28264648 -0.046967402 -0.34419295 -0.25184152 -0.2773325 -0.12915978 -0.1421254 0.1334442 0.50189316 -0.189597 -1.1075296 0.21100189 -0.13261135 0.8491373 0.32113326 0.19371267 -0.03330745 -0.43348008 0.5182537 0.8147328 0.066446 -0.38539973 0.18875852 -0.30836225 0.06661068 0.1882304 -0.5714298 -0.31463718 -0.7797991 1.0253787 -0.7647041 -0.74074805 0.20966695
further 0.17736435 -0.28952232 -0.09527537 0.1747944 -0.12821649 -0.44034237 0.30586326 -1.3314981 0.9711929 -0.3998993 -0.11258984 -0.079009436 0.00012723575 0.10968672 0.43180388 0.84927976 -0.5393711 -0.039800923 -0.053570192 -0.37166807 -0.34801948 -0.325819 -0.1468712 -0.12500975 0.025855085 0.36780524 -0.17395872 -0.89661264 0.2758862 -0.054375965 0.7765743 0.3033331 0.06931231 -0.030386807 -0.14362839 0.4240572 0.86612827 -0.079376824 -0.4474339 0.26122442 -0.48583105 -0.053058084 0.15352674 -0.59083754 -0.028494786 -0.6355991 1.0054176 -0.5899881 -0.56211394 0.14332484
study 0.08215521 -0.13694204 -0.047856748 0.08135219 -0.054730278 -0.20521793 0.12047507 -0.6178585 0.44390962 -0.179017 -0.04258163 -0.029320968 -0.0021223112 0.0522941 0.19281678 0.38390636 -0.24411796 -0.0026147014 -0.030945774 -0.15447558 -0.16682555 -0.13132116 -0.06718382 -0.066435024 0.012671919 0.16546844 -0.08527098 -0.42764091 0.13220912 -0.021681147 0.34277746 0.14706649 0.02057561 -0.019378526 -0.0671676 0.19227615 0.39003357 -0.04194033 -0.2019113 0.14092006 -0.19460924 -0.016996404 0.071076594 -0.26215813 -0.0075218133 -0.30653244 0.4624802 -0.26166114 -0.26699266 0.07671377
and 0.54936945 -0.17839415 0.14924581 0.31179792 0.05642922 -0.3987713 0.21302326 -1.4279813 0.8898667 -0.15904999 -0.16525169 0.04869966 5.544722e-05 0.14678855 0.7959607 0.92041916 -0.47356176 -0.24452077 -0.08067974 -0.3658809 -0.31690785 -0.55605835 -0.41836196 -0.2966125 -0.008189465 0.29419205 -0.28799912 -0.48900214 0.2967218 0.03804453 0.62685955 0.52181643 -0.03043138 -0.16958737 -0.0036597678 0.34271032 0.91127425 -0.32121965 -0.4158816 0.24242833 -0.5161049 -0.1986958 0.2781965 -0.64138025 0.25861746 -0.53935397 1.00615 -0.32281306 -0.5290347 0.02713983
if 0.09200734 -0.2207697 -0.030014254 0.106522754 -0.13382931 -0.33486155 0.26437393 -1.0995013 0.79297996 -0.2701102 -0.081036255 -0.052606024 0.017289758 0.08584422 0.25358656 0.70559955 -0.44735205 -0.11858655 -0.019358339 -0.33198 -0.29900774 -0.20937832 -0.038292088 -0.0674834 -0.0070466376 0.26536345 -0.11836852 -0.7601648 0.19951417 -0.054654077 0.6169116 0.24510525 0.020033829 -0.0036373148 -0.059582643 0.33114803 0.70248115 -0.05575962 -0.3625348 0.23453134 -0.47862417 0.05372696 0.04526649 -0.5056621 0.09143696 -0.4703389 0.80373794 -0.47342354 -0.38732323 0.0998182
found 0.4426533 -0.120970055 0.12224821 0.24926853 0.07028719 -0.3701273 0.1057762 -1.1286432 0.6596758 -0.14126967 -0.056955382 0.10858422 0.030778933 0.11465974 0.5158675 0.5790377 -0.46651718 -0.1640659 -0.13061975 -0.19176807 -0.36875865 -0.32157654 -0.32155907 -0.16133027 -0.022282965 0.21000296 -0.2204131 -0.5753817 0.24885 0.060257334 0.5138311 0.36114708 -0.043604814 -0.12667891 0.06109794 0.24626401 0.73322475 -0.2716635 -0.3988468 0.28222078 -0.30208236 -0.22760135 0.14050263 -0.4199767 0.14062758 -0.50721645 0.8444312 -0.23268346 -0.43663314 0.10241356
that -0.060285248 -0.9157406 -0.6451254 0.26540098 -0.55516857 -0.91203827 0.9822638 -2.7664614 2.3628798 -1.1931211 -0.46225128 -0.5699652 -0.12568556 0.22431807 0.9648971 2.2099354 -0.93432194 0.34034905 0.075848095 -1.0001639 -0.35660708 -0.82181454 -0.20082487 -0.36902094 0.2538904 1.0078115 -0.39406615 -1.756839 0.5027292 -0.28270838 1.7925897 0.5945267 0.40383005 0.024828201 -0.8606573 1.0714487 1.6665481 0.17450505 -0.72636396 0.2648923 -1.0996712 0.21673442 0.5269571 -1.3780549 -0.41344902 -1.3341161 2.0027976 -1.6741284 -1.3102393 0.25015092
action 0.3198761 -0.3155498 -0.1488444 0.24996658 -0.1221517 -0.5955639 0.41167238 -1.6408517 1.2476717 -0.62674147 -0.13127132 -0.04074683 0.0046983226 0.20505244 0.62927693 1.0450095 -0.68635154 0.09967492 -0.13984413 -0.3283546 -0.49462628 -0.38033164 -0.26712185 -0.16428381 0.037545845 0.4638746 -0.24967366 -1.1336718 0.43866003 -0.043473393 0.97782147 0.29508972 0.12265207 -0.023724055 -0.21918708 0.51872814 1.0420449 -0.16996339 -0.6288724 0.41561088 -0.3773862 -0.20582414 0.26254097 -0.66387534 -0.18812564 -0.8999191 1.30785 -0.7048204 -0.80800045 0.22145267
needed 0.23226853 -0.28343022 -0.10486527 0.19585866 -0.118356414 -0.45565438 0.34464717 -1.3756909 0.9801373 -0.4139364 -0.14716339 -0.073276095 0.019333253 0.12814328 0.48068202 0.8740811 -0.55619174 -0.043604705 -0.056470945 -0.35261482 -0.3546439 -0.37195143 -0.2097293 -0.14262818 0.017744565 0.37425733 -0.20115303 -0.85701674 0.25633824 -0.048637472 0.74785274 0.35553935 0.084563754 -0.021645037 -0.1381125 0.41889453 0.9045837 -0.07548064 -0.4815026 0.23842691 -0.47246927 -0.072952144 0.14604326 -0.57305247 -0.005782915 -0.6529024 1.0505704 -0.57710314 -0.5638754 0.14624053
taken 0.30734843 -0.16905189 0.07229344 0.1726392 -0.040736277 -0.37916598 0.24338047 -1.2424855 0.77641714 -0.21879525 -0.07597109 0.029570816 0.03671765 0.11809063 0.388875 0.71600395 -0.52965254 -0.22641012 -0.076814994 -0.30369508 -0.39504635 -0.324774 -0.19239992 -0.117401876 -0.055976402 0.25693208 -0.15870364 -0.74574786 0.21803856 -0.0024161788 0.621269 0.35455948 -0.017728655 -0.051271304 0.047606867 0.3232772 0.8507368 -0.13768283 -0.4665886 0.27066603 -0.4965753 -0.116854 0.0506238 -0.53468376 0.2072444 -0.5257738 0.9364289 -0.4100928 -0.39327842 0.09597525
by 0.22846428 -0.42034855 -0.11679889 0.21969539 -0.13415685 -0.527403 0.33387947 -1.6688743 1.249089 -0.46861124 -0.16913873 -0.10751936 -0.0028144629 0.17231724 0.60292155 1.1298501 -0.62383235 0.028587274 -0.058513567 -0.45656797 -0.39911762 -0.39259326 -0.18107429 -0.23422153 0.06297441 0.4793755 -0.2355885 -1.0505646 0.41091245 -0.08117564 0.9349611 0.39556575 0.04959952 -0.04379148 -0.2508729 0.51362705 0.9938272 -0.13222006 -0.4882817 0.32648402 -0.55875134 0.006067965 0.30642426 -0.75096536 -0.057762153 -0.782643 1.1905231 -0.7159088 -0.75241596 0.15929785
proposal 0.24741171 -0.16969265 0.039453764 0.15748307 -0.03401172 -0.36455646 0.12858625 -1.0870383 0.7150345 -0.21778604 -0.014999587 0.051123165 0.022012139 0.11368022 0.31085813 0.5736863 -0.4969024 -0.10786435 -0.10743309 -0.21834767 -0.3938805 -0.19598055 -0.13919656 -0.09805297 -0.03146548 0.23414059 -0.14771879 -0.79907733 0.2552384 -0.004272553 0.5840596 0.2619246 -0.027353883 -0.05044892 0.020523902 0.2877808 0.70236355 -0.17439362 -0.40158066 0.31504408 -0.32504028 -0.11353204 0.06557769 -0.43144444 0.07635671 -0.5327748 0.83139837 -0.35069928 -0.43049046 0.13407269
last 0.21645617 -0.2538329 -0.08004552 0.21399593 -0.013323372 -0.48943278 0.55753475 -1.4650983 1.1774828 -0.6441723 -0.18893203 -0.010911163 0.060281597 0.1205339 0.58749956 0.94803977 -0.65999186 0.104121454 -0.039389327 -0.43703043 -0.41475704 -0.47105864 -0.16965157 -0.05345368 0.017918432 0.3804615 -0.25561035 -0.9968922 0.4168309 0.014081237 0.9932174 0.16045783 0.14329945 0.06331989 -0.1760078 0.49617913 1.0636519 -0.11317866 -0.6684079 0.28679746 -0.54559654 -0.19847126 0.28502515 -0.63731134 -0.2632698 -0.6914314 1.2064335 -0.7865355 -0.66971356 0.267694
month 0.29026115 -0.2286268 0.032768834 0.20481019 -0.037432503 -0.460792 0.33813927 -1.52978 1.0712157 -0.38024127 -0.100697756 0.037205838 0.07301614 0.15675882 0.48199838 0.8919637 -0.6641564 -0.15123507 -0.07648244 -0.39730853 -0.50208217 -0.33189136 -0.15167245 -0.10317925 -0.03720093 0.35144693 -0.19672456 -1.0444163 0.37626296 -0.015117976 0.8852901 0.30698264 0.035901766 -0.0044574 -0.0027818005 0.44666654 1.0138223 -0.18005064 -0.5679856 0.3762563 -0.5801948 -0.11617027 0.14408019 -0.6537397 0.0673535 -0.7004635 1.1741904 -0.5855667 -0.5860476 0.17088018
ban 0.5563562 -0.3317103 0.11709363 0.3474372 -0.03928093 -0.66352004 0.08173637 -1.898823 1.1254674 -0.21466935 -0.036138568 0.11548368 0.013004697 0.16128813 0.6496931 0.97726625 -0.8129066 -0.21843873 -0.22067879 -0.33297822 -0.635063 -0.40717378 -0.39303893 -0.2577088 -0.022638807 0.4071631 -0.3091748 -1.2322637 0.35194412 0.023352915 0.85426414 0.6304831 -0.09868614 -0.19564307 0.03277607 0.4492723 1.2051579 -0.3514134 -0.6121072 0.5043166 -0.49478844 -0.21050248 0.11096096 -0.7261762 0.25607306 -0.90712994 1.3826641 -0.438657 -0.7373067 0.18413715
human 0.32914937 -0.2368451 0.05494582 0.20760411 -0.030566884 -0.38400513 0.0155300535 -1.1382748 0.6707398 -0.10423838 -0.03358822 0.029468903 -0.014837819 0.10817143 0.4245973 0.6230642 -0.43353927 -0.11115361 -0.122469574 -0.20935304 -0.33126655 -0.2662736 -0.25474104 -0.18905927 0.011865457 0.26374882 -0.20153312 -0.6522365 0.21032768 -0.006460773 0.49706373 0.40507826 -0.05988394 -0.13896318 -0.031756822 0.2625813 0.67863923 -0.21361783 -0.30586842 0.27504814 -0.300383 -0.09390165 0.108572006 -0.4553484 0.17026088 -0.5214158 0.7970241 -0.26494786 -0.46074727 0.07404111
food 0.17038536 -0.16171147 0.026082207 0.1216012 -0.04020085 -0.30496812 0.16143979 -0.9914067 0.6805563 -0.20548417 -0.03693289 0.019200416 0.018398875 0.09311041 0.26205093 0.5751574 -0.43852317 -0.099849336 -0.06532406 -0.24875827 -0.32794154 -0.17596094 -0.073285036 -0.07066845 -0.014379605 0.21723033 -0.1260365 -0.7102815 0.23521493 -0.008791914 0.55472744 0.21377057 -0.018716287 -0.027138561 -0.004884666 0.27862647 0.63394296 -0.11898175 -0.3420634 0.27703273 -0.37111196 -0.04662608 0.07657898 -0.4288203 0.07105601 -0.4504058 0.7397598 -0.38155478 -0.37957507 0.11666565
move 0.14818066 -0.26614177 -0.08323496 0.15194544 -0.10661925 -0.38778403 0.30458158 -1.2567999 0.93393064 -0.3771237 -0.10618393 -0.05980257 0.006211425 0.11012617 0.3878479 0.80057526 -0.51482195 -0.043104615 -0.039519962 -0.35672617 -0.32580927 -0.28384402 -0.10241914 -0.10321951 0.022686822 0.33685118 -0.16239995 -0.8530449 0.27008712 -0.05259875 0.7475819 0.26738083 0.051743973 -0.010987502 -0.12529816 0.4068828 0.7948852 -0.08141338 -0.42369556 0.2666579 -0.47564256 -0.020526947 0.1490819 -0.5618635 -0.01787178 -0.5819202 0.93512607 -0.5639865 -0.52150077 0.13729016
health 0.28259677 -0.18700366 0.07594329 0.17493983 -0.021773314 -0.38218743 0.13703708 -1.2048781 0.75804013 -0.18665779 -0.03405904 0.053259335 0.032984458 0.1064059 0.32617384 0.6478788 -0.52705526 -0.18463321 -0.10114657 -0.26649693 -0.40938225 -0.23216109 -0.14571418 -0.10782933 -0.03930769 0.24233755 -0.15882073 -0.8407998 0.24904555 -0.0022284996 0.61071074 0.31601903 -0.044257578 -0.05890133 0.045352343 0.305724 0.7897163 -0.17751962 -0.4228311 0.32147935 -0.41353205 -0.09430989 0.045221437 -0.49437612 0.15260123 -0.5388756 0.8962305 -0.37448162 -0.42804343 0.13142993
proposed 0.28299564 -0.28876948 -0.05714322 0.21606924 -0.09556671 -0.5247601 0.28483307 -1.5384519 1.0708737 -0.41848806 -0.08900121 -0.02236742 0.017141186 0.15249322 0.49335176 0.8957798 -0.66708595 -0.064740874 -0.11671867 -0.3443564 -0.47879127 -0.336302 -0.21073864 -0.14311042 0.0012870507 0.38953853 -0.21034595 -1.0751657 0.33733106 -0.025015691 0.8554425 0.36476552 0.039206173 -0.049492862 -0.096719496 0.44224298 0.9900218 -0.15254782 -0.55775934 0.36520162 -0.47672978 -0.12801538 0.1508724 -0.6282425 0.00834762 -0.7656025 1.1816818 -0.6000835 -0.6418488 0.1921426
measures 0.35227066 -0.07044303 0.17517217 0.17312802 0.037498396 -0.29443625 0.04763072 -0.929324 0.5082979 -0.042857178 0.0040810993 0.12553798 0.038811564 0.09240146 0.29965875 0.4397049 -0.42977214 -0.25127894 -0.11369715 -0.15694657 -0.37996542 -0.1955168 -0.19639361 -0.09871645 -0.066356696 0.12997052 -0.13971305 -0.57017535 0.19177057 0.04076481 0.4026754 0.2969279 -0.087663785 -0.08280669 0.1571369 0.19299318 0.63226205 -0.22317359 -0.3549801 0.2934452 -0.29696423 -0.15355483 9.45174e-05 -0.3528454 0.24451768 -0.3998666 0.7024815 -0.15159604 -0.28353068 0.07316775
after 0.31756023 -0.16073121 -0.02497363 0.20110495 0.00676272 -0.5006484 0.27647856 -1.1709659 0.7909887 -0.45412657 -0.03283387 0.12241469 0.072255865 0.0705499 0.39585063 0.4593993 -0.6602514 0.06291969 -0.18645953 -0.17190702 -0.5186889 -0.23254198 -0.19598249 -0.021244962 -0.076566115 0.27129087 -0.15841433 -1.0067916 0.24811381 0.07553225 0.69097 0.19594274 0.054967843 -0.03845931 -0.01442667 0.34407276 0.9053697 -0.14320253 -0.623586 0.31592658 -0.19720642 -0.33590826 0.07582568 -0.33361158 -0.19102626 -0.7074058 0.9985946 -0.44202596 -0.5131907 0.2917356
reports 0.2610121 -0.35046262 -0.10066784 0.2226716 -0.12435609 -0.5602994 0.18053861 -1.5093287 1.0209746 -0.38845515 -0.05809712 -0.03839406 -0.01267501 0.15067835 0.45735973 0.8545944 -0.6335612 0.014571591 -0.1461666 -0.30167675 -0.46811017 -0.27704507 -0.21511137 -0.16789353 0.039924495 0.41023946 -0.22065036 -1.1124436 0.32085103 -0.037734143 0.8092111 0.38443154 0.029617548 -0.08711563 -0.16038881 0.43290952 0.91012365 -0.16096975 -0.48790625 0.36940816 -0.35877758 -0.101088844 0.13700582 -0.58950305 -0.047093615 -0.79944533 1.1398939 -0.5516325 -0.69350135 0.20228435
France 1.2843486 0.35235265 1.1384014 0.3591489 0.48357558 -0.16968177 -0.55980754 -1.0931532 -0.107588194 1.0349468 0.21758433 0.7337253 0.19773272 0.13230813 0.38796005 0.10465725 -0.519142 -1.3099705 -0.29351392 0.05396677 -0.7195846 -0.2776393 -0.6363396 -0.24365781 -0.39220068 -0.3005081 -0.23928635 -0.08718599 0.14481074 0.25562686 -0.16254362 0.8490956 -0.664456 -0.37996772 1.124107 -0.1818647 0.832471 -0.8423501 -0.41580874 0.55317646 -0.47169265 -0.45726094 -0.34775478 -0.3373901 1.5580815 -0.090047814 0.68594164 0.8035214 0.17742297 -0.20714933
under 0.5383485 -0.015129728 0.19331768 0.26050052 0.1115131 -0.37119988 0.23071119 -1.2202926 0.6027741 -0.14673723 -0.12821972 0.18450123 0.11649191 0.07136285 0.48276737 0.46955413 -0.5670861 -0.30960548 -0.14496581 -0.13639298 -0.45632064 -0.40882462 -0.36399737 -0.020334613 -0.11314737 0.16071674 -0.19193809 -0.63305855 0.17136885 0.11802755 0.47656855 0.37798315 -0.021069527 -0.037550144 0.20199619 0.18161982 0.95095146 -0.18652368 -0.61235934 0.2416199 -0.3693345 -0.31460366 -0.04126356 -0.34255224 0.22505039 -0.53836673 0.9905918 -0.20416085 -0.3160383 0.2069699
conditions 0.35136884 -0.2472107 -0.0037552535 0.23565815 -0.063927434 -0.4731369 0.2225423 -1.3587031 0.9247468 -0.3298869 -0.08580562 0.01549521 -0.004944127 0.13904898 0.5262943 0.79572076 -0.5659165 -0.063426174 -0.11687963 -0.27758646 -0.40346187 -0.35373878 -0.27218157 -0.17706724 0.00079492066 0.32417437 -0.22610454 -0.8495069 0.27736646 -0.006179476 0.6965439 0.3715425 0.018308988 -0.08945226 -0.07100717 0.38177845 0.8804941 -0.1910737 -0.48221713 0.3228213 -0.36844173 -0.16649753 0.14129244 -0.53900236 0.035834834 -0.66332257 1.0246978 -0.43984398 -0.57674843 0.14193632
could -0.10023645 -0.73456764 -0.5694209 0.20265375 -0.51496065 -0.820152 0.85908675 -2.4384966 2.0855381 -1.0981592 -0.33151844 -0.4626235 -0.09803437 0.21250612 0.6721915 1.8362327 -0.91069 0.3074681 0.021100821 -0.8305759 -0.43070304 -0.57477957 -0.09267588 -0.26243243 0.1791818 0.82578456 -0.3027933 -1.784995 0.4036646 -0.24625494 1.603852 0.49428272 0.37068754 0.07592556 -0.6729545 1.0015807 1.4980054 0.17664027 -0.7305183 0.3217972 -0.908692 0.26590556 0.3380058 -1.1506449 -0.41051978 -1.2329983 1.8337864 -1.4066466 -1.1785096 0.3061721
contract 0.25782597 -0.21131456 0.020353565 0.17002837 -0.056758165 -0.37434354 0.22643274 -1.2036269 0.8265842 -0.26105046 -0.080119625 -0.00073226535 0.01807697 0.11981862 0.40175712 0.73649853 -0.49356243 -0.12092021 -0.0682228 -0.29259336 -0.3512077 -0.2931706 -0.16827513 -0.13054937 -0.010583494 0.2769784 -0.17482097 -0.74868923 0.26352406 -0.019098418 0.63832814 0.31189743 0.001750203 -0.0468266 -0.029536577 0.34103608 0.78652126 -0.1427615 -0.41905263 0.27598363 -0.42462215 -0.072966576 0.1156429 -0.51096123 0.101646625 -0.53828806 0.89950556 -0.42770615 -0.45954764 0.1060133
( 6.4967356 3.2917027 7.083968 1.272683 3.213307 0.43576193 -3.723411 -2.269361 -3.3557303 6.9215307 1.703191 4.6371827 1.4360988 0.38256904 0.2538157 -2.1508062 -1.7295543 -7.8452544 -1.4711261 1.2211195 -3.5607586 -0.20989224 -2.5089107 -0.42923316 -2.56628 -2.9916496 -0.5043576 1.4220324 0.18728845 1.6563253 -2.8781526 3.3005595 -4.013316 -1.6996946 7.4135666 -2.281247 2.5034704 -4.4713726 -1.5821328 2.7401721 -1.7011144 -2.4407969 -2.8397684 -0.20235173 9.0487995 1.4522642 1.200251 5.961375 3.0251055 -1.3717177
BSE 0.2132395 0.01621238 0.2050922 0.06304757 0.0683728 -0.12197659 -0.17236124 -0.38514492 0.120431505 0.14969628 0.10542826 0.17054684 0.019220544 0.04197863 0.024966538 0.056129944 -0.23422286 -0.20560202 -0.1092626 -0.0055974596 -0.2692123 0.038059447 -0.05575376 -0.04210341 -0.06414192 -0.00914222 -0.04830403 -0.34614605 0.113473885 0.047916733 0.11681161 0.13553528 -0.16799948 -0.08411869 0.20478709 0.014047912 0.23870365 -0.20930643 -0.14429598 0.24105395 -0.08946724 -0.07212156 -0.06983529 -0.11296313 0.24097125 -0.16483219 0.27802438 0.06767363 -0.08133005 0.051081955
) 6.3550835 3.0621831 6.7501516 1.2954961 3.0929844 0.457411 -3.5267153 -2.2879515 -3.1779866 6.59524 1.5816008 4.393502 1.2772454 0.37815326 0.6075893 -1.7917932 -1.5977573 -7.555493 -1.3896177 1.1422384 -3.2823787 -0.4684491 -2.6504128 -0.6116049 -2.3680654 -2.814446 -0.63632804 1.6509674 0.1832687 1.5448384 -2.7314072 3.3693945 -3.875462 -1.6786858 6.972624 -2.1056175 2.484513 -4.333477 -1.4361936 2.4755266 -1.7232141 -2.3621387 -2.5929465 -0.24896348 8.834028 1.4007244 1.2345695 5.7733297 2.811514 -1.4856616
-- 0.694084 0.45566428 0.8332504 0.06612725 0.3610796 -0.05451716 -0.28409767 -0.55741894 -0.05338542 0.5149457 0.2953526 0.70929354 0.28048757 0.090311326 -0.26174212 -0.19528368 -0.60237074 -1.0075586 -0.25531104 0.11620921 -0.87339926 0.25949135 -0.027113447 0.14543259 -0.39594617 -0.27060723 0.024109285 -0.715748 0.24817377 0.20926657 0.08575098 0.15214962 -0.53882563 0.030709447 1.0192566 -0.15025128 0.64974105 -0.58306354 -0.54545444 0.6831318 -0.27330062 -0.33404657 -0.49420083 -0.13169137 0.9360672 -0.15603527 0.6095875 0.40067258 0.19004846 0.046147306
But 0.051176853 -0.4448561 -0.23921902 0.16850564 -0.22920625 -0.54638296 0.47683638 -1.6940612 1.313385 -0.60389775 -0.174768 -0.19485366 -0.003850282 0.13303123 0.43805414 1.1519165 -0.6355 0.048537847 -0.007216131 -0.5250833 -0.36738056 -0.3665187 -0.09168856 -0.12590392 0.07461204 0.49449474 -0.2000244 -1.2095736 0.31728062 -0.12116571 1.0243443 0.34648794 0.14135464 0.015235679 -0.29888448 0.58836037 1.0548422 0.011524253 -0.51809984 0.28218418 -0.6613189 0.085927255 0.1884798 -0.77062935 -0.10181827 -0.7931916 1.2529833 -0.89253247 -0.72065073 0.18860896
agreed 0.2660126 -0.32185602 -0.119472526 0.22313614 -0.123648226 -0.5326645 0.36090213 -1.5462008 1.0878326 -0.46655676 -0.14767642 -0.07599173 0.0112921335 0.14209688 0.5514976 0.936671 -0.63627446 -0.013960483 -0.09114084 -0.37024304 -0.3991846 -0.42892623 -0.25007692 -0.15960133 0.0151137365 0.4139723 -0.22487648 -0.98744744 0.28461897 -0.03561217 0.8315012 0.40287092 0.09899207 -0.04763495 -0.16653337 0.45806488 1.0109171 -0.08918448 -0.56046116 0.2743515 -0.48515466 -0.12264416 0.16879398 -0.6270903 -0.04035649 -0.75784016 1.1775728 -0.637167 -0.6447446 0.18714431
his 0.1441388 -0.63179815 -0.4046165 0.28902176 -0.30790922 -0.77484876 0.7227965 -2.2278087 1.7833939 -0.9617037 -0.30952555 -0.25789306 -0.01579164 0.15046503 0.77985275 1.5377511 -0.8615269 0.23808034 -0.0164694 -0.6818327 -0.4318482 -0.65886104 -0.25506786 -0.20622888 0.12304374 0.71650887 -0.36931926 -1.521104 0.42580572 -0.14502299 1.419537 0.46963164 0.29568243 -0.029264152 -0.4737129 0.8038046 1.4719007 0.015505297 -0.74982417 0.27750513 -0.7815242 -0.06178687 0.37239906 -0.9984904 -0.38028243 -1.0843123 1.6994963 -1.2258025 -1.0515702 0.283324
officials 0.2597229 -0.48365015 -0.23979583 0.27346122 -0.20624222 -0.6691916 0.24498479 -1.7228314 1.1747231 -0.5065501 -0.13781951 -0.12877849 -0.0121159125 0.12779775 0.58524406 1.0191802 -0.6909104 0.106129415 -0.13707635 -0.33452317 -0.40715685 -0.4185316 -0.30893782 -0.2095874 0.06551194 0.521562 -0.26984134 -1.2140138 0.26947805 -0.08175084 0.8898447 0.5130448 0.12668225 -0.104679435 -0.3140105 0.51874614 1.0675769 -0.07992423 -0.5386292 0.30704266 -0.3706475 -0.082675286 0.15441689 -0.65889376 -0.12285553 -0.9382371 1.2998625 -0.6950172 -0.8386476 0.23454201
questioned 0.21177587 -0.30131647 -0.13636528 0.19331734 -0.13113073 -0.5002203 0.34368917 -1.4105873 1.0425707 -0.484855 -0.1159847 -0.07219719 0.00019967408 0.13568188 0.4731348 0.87446475 -0.5985961 0.025177633 -0.08728062 -0.33691773 -0.39702505 -0.33711162 -0.18903999 -0.124167114 0.021955706 0.3975904 -0.19520862 -0.9903777 0.30046055 -0.047955453 0.8202652 0.30319571 0.09811178 -0.026349768 -0.17450646 0.44601026 0.91563874 -0.082505904 -0.5156994 0.28997943 -0.4214672 -0.11088921 0.16344635 -0.57900625 -0.10192671 -0.72199047 1.0926867 -0.6248629 -0.6269401 0.18890537
as -0.04691206 -0.7551396 -0.5430671 0.24022903 -0.41866773 -0.78952485 0.9324393 -2.4898474 2.1086419 -1.1240833 -0.3763159 -0.40373766 -0.0021428922 0.18209106 0.7453778 1.7955 -0.9335884 0.27785632 0.073486045 -0.8882128 -0.443427 -0.6426206 -0.08949931 -0.18104348 0.16919196 0.8543429 -0.29989296 -1.691155 0.48316896 -0.22089036 1.6175977 0.42629212 0.34320343 0.06517464 -0.6314119 0.9561276 1.5757685 0.16135007 -0.7762759 0.30252185 -1.002239 0.13705084 0.43029898 -1.179563 -0.43654546 -1.1857287 1.8459847 -1.5168747 -1.1503125 0.34441233
there -0.10642049 -0.8268289 -0.60455626 0.25359783 -0.50021374 -0.8609715 0.88357526 -2.5407584 2.177375 -1.1368068 -0.38267887 -0.50330144 -0.10447434 0.18525833 0.8452335 2.0001361 -0.88962156 0.2500967 0.06831641 -0.9623539 -0.37220192 -0.7028927 -0.13668866 -0.28455862 0.22288723 0.92568207 -0.32121384 -1.7453573 0.48803908 -0.26854566 1.7254865 0.5054396 0.37228605 0.047504716 -0.72741085 1.0102637 1.5804242 0.14277464 -0.710644 0.27032575 -1.0516361 0.22325043 0.45404997 -1.2821072 -0.40550724 -1.252621 1.889278 -1.5656006 -1.2292094 0.25359184
only 0.2836038 -0.24265814 0.014779758 0.19641723 -0.064001806 -0.42889917 0.27618575 -1.4010828 0.9616617 -0.31558302 -0.10381475 -0.00019940463 0.020265842 0.123515874 0.4519818 0.8629362 -0.5726092 -0.14507681 -0.06903939 -0.36393586 -0.41345692 -0.33812755 -0.17645349 -0.13037162 -0.012577458 0.32493517 -0.19270357 -0.9061394 0.30373314 -0.015599031 0.7611973 0.3349817 0.006552105 -0.044336632 -0.026110988 0.40050748 0.9205904 -0.16271658 -0.4852843 0.32819545 -0.51349205 -0.08224325 0.13474368 -0.61044544 0.10384524 -0.6179359 1.0457168 -0.5261656 -0.53032756 0.13610677
risk 0.1806035 -0.029370613 0.11872811 0.08362056 0.03384786 -0.17218436 -0.0012815091 -0.5516234 0.29458925 -0.008789056 0.040009942 0.104275316 0.03277844 0.048789904 0.08905525 0.20889188 -0.2929461 -0.1691255 -0.08368704 -0.08471714 -0.27066377 -0.056624446 -0.0651034 -0.020583035 -0.059275974 0.0677089 -0.0642415 -0.44189465 0.12112998 0.02406945 0.25794882 0.14814547 -0.07591199 -0.039534964 0.13884294 0.11127517 0.38353187 -0.14216398 -0.22900042 0.2132053 -0.18116704 -0.08490613 -0.04112578 -0.1922409 0.16001435 -0.24757276 0.42138606 -0.089284904 -0.1566021 0.061108764
Spanish 0.4898406 0.04380214 0.39418885 0.16841142 0.15515578 -0.25504687 -0.17582203 -0.8700409 0.29226598 0.21990001 0.12265487 0.30748656 0.07734674 0.08520047 0.17226726 0.21042576 -0.48067027 -0.4533239 -0.18467565 -0.0597922 -0.505959 -0.087258704 -0.19365422 -0.07295431 -0.14993955 0.006871656 -0.12460685 -0.59891784 0.18435638 0.09561091 0.26051688 0.33216047 -0.25935864 -0.14461125 0.4046574 0.076462746 0.60755366 -0.36113504 -0.35944122 0.3996188 -0.27252665 -0.21355283 -0.12828505 -0.2791324 0.48741817 -0.33052397 0.6380053 0.08415528 -0.15377253 0.070006974
Minister 0.33137932 -0.28239396 0.028334 0.21580012 -0.032606266 -0.49904156 -0.007339415 -1.2824186 0.73892945 -0.23457205 0.024994876 0.07858037 0.017944343 0.09177666 0.31004316 0.52097124 -0.65433204 -0.037190728 -0.21047713 -0.15025713 -0.51205474 -0.16146857 -0.1999215 -0.15360558 -0.043754492 0.299173 -0.1928462 -1.099176 0.2482993 0.025327839 0.6344348 0.34643474 -0.06728956 -0.12231355 -0.019363448 0.30588683 0.8242362 -0.22742732 -0.48534313 0.40612724 -0.22071014 -0.19630969 -0.010043133 -0.43026224 -0.014873625 -0.7279788 0.97807604 -0.34612805 -0.55556005 0.23999926
de 0.63458234 -0.19804877 0.29542947 0.30621466 0.03179109 -0.5718764 0.10995757 -1.9323069 1.0966878 -0.11177826 -0.005510634 0.2086509 0.0816574 0.19235478 0.55184084 0.9624406 -0.8639452 -0.47451982 -0.2034373 -0.35261175 -0.72885233 -0.38238785 -0.3470069 -0.19915491 -0.12398703 0.31607842 -0.26684973 -1.2262787 0.40023676 0.03051176 0.8602874 0.5865542 -0.17002988 -0.15496014 0.24865519 0.42377335 1.2632184 -0.4078561 -0.7003692 0.5733996 -0.6769514 -0.22721078 0.01995719 -0.77026725 0.4980563 -0.81625015 1.4387323 -0.39743719 -0.60680425 0.15106799
had -0.19370183 -0.9997244 -0.90976363 0.32261953 -0.5562894 -1.0404485 1.0530623 -2.8930392 2.4753356 -1.4626261 -0.4533669 -0.59276485 -0.091536485 0.22235826 0.8914987 2.0524452 -1.0337217 0.622501 0.058971994 -0.9573283 -0.45630926 -0.70955217 -0.116777994 -0.17250927 0.3027721 1.1094587 -0.3628381 -2.0537724 0.5381611 -0.30872837 1.9391499 0.49773416 0.47620323 0.075363405 -1.0249871 1.182229 1.7214477 0.31803322 -0.8444205 0.28125238 -0.995193 0.19580103 0.570603 -1.3047606 -0.8154607 -1.5327309 2.1384585 -1.8550882 -1.5211637 0.45447212
earlier 0.23286906 -0.2615921 -0.065831006 0.1937252 -0.08053813 -0.4892963 0.29449922 -1.377899 0.99489737 -0.433719 -0.07523625 0.0021091327 0.035608467 0.13376732 0.44580156 0.78428614 -0.6192678 0.019460434 -0.112970956 -0.30678347 -0.45104215 -0.29688028 -0.17169522 -0.109338515 -0.00058593665 0.36074445 -0.19675997 -1.0292565 0.33968928 -0.018454736 0.81763476 0.2659454 0.06482289 -0.015380627 -0.10834326 0.42379293 0.90787524 -0.14352657 -0.533822 0.32825586 -0.39612105 -0.13891047 0.15441856 -0.54056233 -0.0878812 -0.7140964 1.0880295 -0.5663501 -0.61591375 0.20073147
accused 0.21497934 -0.27423477 -0.07867015 0.18345068 -0.09388248 -0.45896995 0.2551415 -1.3240156 0.9261045 -0.3745342 -0.08773559 -0.042794485 0.007615758 0.123949416 0.42143723 0.7765445 -0.5713846 -0.032627616 -0.09139317 -0.31637368 -0.39124477 -0.30198085 -0.17502232 -0.12377215 0.0062379274 0.34944695 -0.18428592 -0.92706674 0.27822948 -0.021965442 0.738882 0.3188934 0.043614816 -0.04384371 -0.11793492 0.38715965 0.8426596 -0.105575345 -0.46732128 0.2851863 -0.42221248 -0.10098405 0.14261647 -0.54572856 -0.024928628 -0.66579896 1.0128142 -0.5451594 -0.551042 0.17951801
at 0.60164666 -0.14993885 0.13881895 0.2999568 0.015823 -0.5267347 0.2484437 -1.634108 1.0467018 -0.22961952 -0.094412774 0.12347086 0.06488952 0.2259756 0.7187973 1.00534 -0.6536665 -0.23163646 -0.16774698 -0.25828028 -0.53622645 -0.45293763 -0.45069274 -0.27559692 -0.043985564 0.33127654 -0.2787933 -0.75898314 0.43088913 0.0061549703 0.7265084 0.5236489 -0.032932676 -0.12893711 0.03884451 0.38043213 1.0518383 -0.3637846 -0.5805512 0.43602803 -0.42819652 -0.26675466 0.19712129 -0.65373063 0.30285436 -0.7617582 1.2393001 -0.35245767 -0.63370353 0.07433446
an 0.16244784 -0.95333093 -0.6701247 0.40517813 -0.45924523 -0.9920677 0.5997493 -2.6156898 2.1176414 -1.0388501 -0.38667244 -0.49891815 -0.16717489 0.2411737 1.1749474 2.0019658 -0.8267299 0.527953 -0.0822387 -0.76183677 -0.3288932 -0.8215445 -0.4511586 -0.50338763 0.31675816 1.0142449 -0.46976995 -1.5813612 0.50405186 -0.23021942 1.5406176 0.73898745 0.3526145 -0.1594944 -0.9366588 0.94399047 1.4965104 -0.0061197653 -0.6006692 0.2818475 -0.6660007 0.059794866 0.62810624 -1.1940919 -0.5124612 -1.4260637 1.8831972 -1.3513361 -1.4670287 0.26580247
farm 0.14230128 -0.09570935 0.035251345 0.08675802 -0.00854919 -0.1809081 0.08074842 -0.58540636 0.37563312 -0.097688965 -0.022066908 0.02544142 0.013321004 0.05538505 0.17786622 0.31817392 -0.25557417 -0.08079318 -0.046722233 -0.13542998 -0.1951179 -0.13262759 -0.079040945 -0.055154238 -0.015661882 0.128059 -0.08507145 -0.39194295 0.12514646 -0.0010108704 0.2988555 0.15814893 -0.022713186 -0.02993796 0.013469931 0.15164389 0.38255274 -0.09146745 -0.20646453 0.1566522 -0.20262928 -0.055495743 0.031722102 -0.23786463 0.05944771 -0.26550695 0.4377871 -0.19041465 -0.21415253 0.056547485
ministers 0.3181751 -0.28252724 0.009600876 0.21391305 -0.060383175 -0.51035666 0.08783666 -1.3804414 0.8517159 -0.29092434 -0.00017499935 0.050034832 0.02448076 0.11689682 0.35634112 0.66221166 -0.6560976 -0.0699215 -0.17840758 -0.22254184 -0.5095539 -0.20943606 -0.19912082 -0.14388451 -0.024222128 0.32273984 -0.19614935 -1.1069689 0.28496718 -0.003414405 0.70409375 0.35976282 -0.040279146 -0.101128 -0.03460009 0.35731494 0.8840088 -0.21303634 -0.5049254 0.40477 -0.31131893 -0.1666994 0.02932945 -0.5135986 0.020460287 -0.7448835 1.0610315 -0.435573 -0.58280116 0.21196568
' 0.4098629 -0.011868659 0.3620574 0.16515215 0.11866902 -0.2969481 -0.120782584 -0.9675524 0.42091697 0.13366643 0.124710165 0.28193593 0.062198766 0.07580599 0.14079988 0.29165003 -0.5187415 -0.4124872 -0.18002526 -0.12548408 -0.5344247 -0.05271949 -0.1216696 -0.046209544 -0.13180616 0.057941534 -0.12855507 -0.7946235 0.23849423 0.08828563 0.38685015 0.29314774 -0.24525467 -0.10751652 0.37517145 0.12265375 0.65446776 -0.35759553 -0.39165568 0.44917145 -0.30445412 -0.15639141 -0.12253399 -0.33551878 0.4234206 -0.4163121 0.749962 -0.044781353 -0.22443292 0.115088746
meeting 0.32860366 -0.3172119 -0.0752069 0.24603403 -0.09578355 -0.5331558 0.34327918 -1.5368342 1.0742992 -0.45719624 -0.13934684 -0.03328655 0.012049105 0.112839244 0.5868246 0.91364014 -0.6456239 -0.021520825 -0.09539862 -0.35316142 -0.42680833 -0.43174788 -0.28573638 -0.17160523 0.015233693 0.39674586 -0.24249347 -0.9887649 0.28432745 -0.0057154945 0.8213866 0.3949103 0.080865376 -0.06416969 -0.12794349 0.4527089 1.0253776 -0.1435761 -0.56743264 0.29476824 -0.45278907 -0.16229895 0.16927387 -0.6168223 -0.050126243 -0.7505116 1.1732259 -0.5825019 -0.6491976 0.19110228
of 0.30081204 -0.40026224 -0.17910965 0.27615517 -0.11234639 -0.6617728 0.3522528 -1.8334635 1.430369 -0.656434 -0.14373183 -0.05081232 -0.024468025 0.21826473 0.74968314 1.1500193 -0.7546363 0.24275236 -0.1430207 -0.38006625 -0.5086242 -0.39662883 -0.2410306 -0.22301733 0.084233396 0.5594863 -0.28165644 -1.264748 0.507055 -0.029883672 1.0971198 0.32021847 0.11639038 -0.09371457 -0.3595976 0.5820395 1.078703 -0.22093394 -0.6235006 0.4692901 -0.38456205 -0.20418766 0.4325441 -0.7360457 -0.2995804 -1.0092363 1.350574 -0.8195713 -0.9688263 0.28651407
through 0.3298558 0.22439772 0.46547192 0.04763855 0.18573102 -0.15583111 0.03763913 -0.67302805 0.22416575 0.12001359 0.18052468 0.37598115 0.17209038 0.025254436 -0.16740498 -0.0024498287 -0.56894135 -0.62808114 -0.12039471 -0.114191905 -0.616261 0.051469553 0.07644295 0.18505482 -0.27793324 -0.13773006 0.011679421 -0.7998414 0.15022916 0.11970945 0.34313157 0.06265837 -0.24720415 0.05174571 0.6505785 0.08554088 0.67633826 -0.25002822 -0.5372279 0.41855282 -0.43122426 -0.24104336 -0.323829 -0.21873327 0.483629 -0.219442 0.61455446 -0.04441175 0.09150797 0.1390585
dangerous 0.20537521 -0.05061746 0.11744427 0.09976975 0.018912239 -0.2258376 0.054575574 -0.7145127 0.40844724 -0.066056766 0.029640902 0.104510635 0.043850187 0.05935156 0.13127384 0.30583614 -0.36895344 -0.19160955 -0.083454706 -0.13410494 -0.32598034 -0.09275626 -0.07255584 -0.022646591 -0.07052813 0.09917974 -0.08245891 -0.5691351 0.15274781 0.022585813 0.35179442 0.17044991 -0.0660878 -0.030780373 0.13844377 0.16162416 0.4974178 -0.14137994 -0.30710825 0.24728163 -0.2524349 -0.092852525 -0.03395318 -0.27363375 0.15843773 -0.31882352 0.55318964 -0.17620246 -0.20641321 0.08788545
are -0.09067066 -0.6060085 -0.43816856 0.19195615 -0.3762278 -0.70456344 0.6565633 -2.0809522 1.7716423 -0.9021486 -0.24676625 -0.32677034 -0.06950601 0.19642222 0.57487136 1.5570726 -0.7766045 0.19147006 -0.0023530892 -0.7046004 -0.43699428 -0.4205146 -0.020225063 -0.17071775 0.15604684 0.69804966 -0.22472394 -1.5473851 0.48043624 -0.2144304 1.4016047 0.33529976 0.21297847 0.08797602 -0.5202049 0.78698605 1.2674309 0.06395273 -0.62684333 0.3700498 -0.7850823 0.19378437 0.32183728 -1.0007538 -0.29574245 -1.0609876 1.5481349 -1.2181666 -1.0170623 0.22658052
due 0.21505614 -0.116948724 0.0551712 0.13279627 -0.012579775 -0.3364601 0.105722226 -0.92488396 0.58492786 -0.18577102 0.0107615935 0.077859335 0.022599949 0.07534685 0.21759555 0.42728838 -0.47452906 -0.12787935 -0.11170054 -0.17242238 -0.3992433 -0.13757128 -0.099854074 -0.05667349 -0.059498943 0.18878214 -0.112164594 -0.7547651 0.20136087 0.013358959 0.4903745 0.21568333 -0.053792927 -0.04514896 0.068473056 0.23572454 0.63061285 -0.14875449 -0.3825345 0.29383284 -0.27549353 -0.123482116 -0.008612918 -0.33825698 0.08567341 -0.46035597 0.7244864 -0.2690187 -0.33095703 0.14252135
issue 0.2181385 -0.15232705 0.0237025 0.13553149 -0.039822932 -0.33941147 0.14526908 -1.0204676 0.67663777 -0.20917463 -0.015677618 0.041143503 0.024626805 0.100026146 0.27078885 0.5416825 -0.46502036 -0.1055342 -0.0922939 -0.20571037 -0.38137153 -0.1748786 -0.12256365 -0.07659607 -0.035482783 0.220464 -0.13450496 -0.75592965 0.22505365 -0.009365181 0.5401184 0.23833258 -0.022191532 -0.037826374 0.015230441 0.278809 0.665207 -0.13951164 -0.3877636 0.29397553 -0.3076994 -0.09741124 0.042651083 -0.39554355 0.08374502 -0.50208515 0.78687686 -0.33698192 -0.3928642 0.13020916
early 0.31206626 -0.27677247 -0.012579167 0.22684422 -0.07347336 -0.5274292 0.26312804 -1.5557543 1.0734324 -0.38023528 -0.0741414 0.025231237 0.03657895 0.15648566 0.5071622 0.89147943 -0.6790852 -0.07206762 -0.12318743 -0.34716737 -0.5074684 -0.33274105 -0.21647139 -0.15167974 -0.009736089 0.37830102 -0.22704053 -1.0852331 0.3697824 -0.017870845 0.8695135 0.363142 0.031353753 -0.05539336 -0.06065836 0.45147666 1.0073601 -0.19814344 -0.56203693 0.3807169 -0.47458038 -0.13639496 0.15790278 -0.6319379 0.036202367 -0.7622524 1.1922491 -0.56135684 -0.6567526 0.18380028
next 0.20304127 -0.22777438 0.005651459 0.15418784 -0.06349303 -0.379393 0.19532515 -1.1457499 0.8199007 -0.2889169 -0.05792987 0.0077390564 0.0138611635 0.112027176 0.34755996 0.67670304 -0.5064066 -0.030458903 -0.087647386 -0.27598798 -0.37037766 -0.23655619 -0.12983944 -0.13086452 -0.0014905279 0.2809582 -0.17887913 -0.8360001 0.2726818 -0.02245074 0.64888716 0.25322106 -0.004932058 -0.03913973 -0.05285616 0.34674352 0.7389498 -0.15645428 -0.4024451 0.29808366 -0.36575758 -0.06785402 0.11372461 -0.4847338 0.008570016 -0.54381937 0.8723753 -0.440677 -0.49347344 0.14262694
make 0.12749274 -0.32420644 -0.15934235 0.1595831 -0.15430465 -0.4625291 0.32065567 -1.321407 0.98702294 -0.4556446 -0.109062955 -0.092916824 -0.019141166 0.114333265 0.39354265 0.8311434 -0.54851943 0.048628855 -0.06467123 -0.33623713 -0.34982073 -0.29259026 -0.124934025 -0.12007511 0.037378464 0.38636294 -0.17135483 -0.9554239 0.2554824 -0.06458567 0.76943964 0.2766613 0.085760176 -0.018576268 -0.18280768 0.4252614 0.8286503 -0.05020797 -0.44232512 0.27040198 -0.42402437 -0.036565125 0.13797022 -0.56136626 -0.10346293 -0.6654182 0.9903066 -0.5985035 -0.5854146 0.18011059
senior 0.22986877 -0.10004431 0.08805748 0.12861583 0.0054614483 -0.26374108 0.098607786 -0.8365813 0.51923513 -0.11615159 -0.006572608 0.0730206 0.031719457 0.079521514 0.24071194 0.42897725 -0.3843553 -0.15701137 -0.07792451 -0.17202604 -0.3133868 -0.15962057 -0.10939921 -0.07044489 -0.041755047 0.15476152 -0.114290774 -0.5759013 0.1923893 0.011898201 0.42407182 0.21283004 -0.051868364 -0.044247996 0.07613252 0.20464875 0.55660605 -0.14850508 -0.3096837 0.24230392 -0.29326496 -0.095656075 0.035072632 -0.3330933 0.12390012 -0.37293947 0.63083106 -0.23466411 -0.28411016 0.098074645
have -0.257818 -0.90642893 -0.70026755 0.24013667 -0.4885394 -0.84657866 0.9475124 -2.7284024 2.3497305 -1.1941249 -0.3739158 -0.5369444 -0.10987353 0.23520671 0.6846521 2.0184639 -0.9427376 0.3536741 0.097102515 -1.0332936 -0.43348196 -0.5634388 0.09866 -0.15056174 0.2865918 0.99219894 -0.29785636 -1.9068481 0.5863028 -0.3182293 1.8686452 0.40518034 0.30631292 0.09807668 -0.8234789 1.0882618 1.5532559 0.22882585 -0.69184095 0.35461232 -1.2110487 0.38492715 0.51853985 -1.363359 -0.49658063 -1.2950323 1.932092 -1.7485577 -1.3192837 0.3457499
long 0.2992162 -0.31468868 -0.060565952 0.22284533 -0.10871744 -0.4808893 0.35787854 -1.5466534 1.0839112 -0.40034407 -0.16740979 -0.07292345 0.013636605 0.12867711 0.56984895 1.010644 -0.58908516 -0.09312451 -0.051789638 -0.41175985 -0.35607964 -0.4442419 -0.2491407 -0.17237933 0.03233274 0.402874 -0.23647742 -0.8812926 0.28749558 -0.0387211 0.8098427 0.4146737 0.06580099 -0.048147418 -0.120614834 0.44696876 1.0063131 -0.1207418 -0.51537067 0.27052096 -0.56653005 -0.06437508 0.17551695 -0.67035776 0.06473599 -0.68207693 1.1490916 -0.6070378 -0.6082957 0.1425967
been 0.16832463 -0.71217275 -0.36411694 0.25815427 -0.31469393 -0.6800941 0.68433964 -2.4211104 1.8336514 -0.72706896 -0.38147315 -0.55145025 -0.11767146 0.30287758 0.9860526 1.9937505 -0.69406056 -0.005835555 0.009894887 -0.9077204 -0.22616038 -0.8773539 -0.3094517 -0.45430973 0.15995058 0.8321839 -0.39862984 -1.0984164 0.42362902 -0.20125385 1.3769672 0.7802477 0.2803796 -0.14284937 -0.642252 0.82237357 1.3354806 0.11178539 -0.5031637 0.21079159 -1.1447202 0.10804865 0.53061986 -1.374361 0.06202979 -0.9834059 1.6741134 -1.3483483 -0.95971495 0.04064112
known 0.14026909 -0.16400938 0.0039105383 0.11918261 -0.054511003 -0.2765639 0.2165382 -0.950844 0.6514951 -0.20741294 -0.07032619 -0.0096826395 0.033789 0.08472732 0.25062543 0.5775359 -0.3911454 -0.11761028 -0.019960497 -0.26144224 -0.2713825 -0.20746925 -0.067338236 -0.055893406 -0.007667914 0.21416615 -0.12337355 -0.6304037 0.1931424 -0.024954595 0.52604973 0.21389693 0.010411504 -0.0033473794 -0.013466243 0.2698714 0.62054217 -0.0786923 -0.3298012 0.21569897 -0.38998598 -0.005547029 0.062243003 -0.4215514 0.09182382 -0.40264776 0.71584576 -0.38426617 -0.33503875 0.108136974
similar 0.2535102 -0.043042433 0.14466287 0.11611745 0.029109072 -0.23911239 0.08133172 -0.7985793 0.48013404 -0.075024955 0.020250175 0.10919175 0.054554477 0.095668845 0.20218648 0.3945167 -0.38136905 -0.2064608 -0.08899252 -0.15364754 -0.35661232 -0.11564112 -0.09723158 -0.050131615 -0.0661259 0.11361062 -0.09852972 -0.5563926 0.21501407 0.021916755 0.39575616 0.18593349 -0.07258011 -0.025972914 0.14171723 0.1818509 0.5380811 -0.1794431 -0.32562512 0.27893075 -0.28195646 -0.10771095 0.010924977 -0.3140817 0.1932648 -0.34914717 0.62201464 -0.19118574 -0.24796502 0.07525242
which 0.26520988 -0.3280193 -0.10113657 0.20611738 -0.12419642 -0.49194106 0.51940155 -1.6767639 1.2462198 -0.524393 -0.24287854 -0.15903784 0.040094897 0.16296011 0.65897864 1.1840531 -0.6193828 -0.09679724 -0.006973444 -0.5184085 -0.33012572 -0.55138904 -0.229344 -0.17155002 0.020303631 0.4720006 -0.25078836 -0.8912427 0.35230333 -0.06659634 0.9520338 0.40992376 0.14090067 0.0043865195 -0.18609568 0.4951184 1.1191616 -0.058831982 -0.55945235 0.22292474 -0.70709676 -0.0573893 0.25108573 -0.7883963 0.032668944 -0.721029 1.2579601 -0.7969558 -0.64530593 0.12810902
is -0.06702404 -0.8905683 -0.64291394 0.25563326 -0.53955233 -0.855171 0.96501493 -2.7306244 2.3131065 -1.1677929 -0.4355836 -0.5095758 -0.055072363 0.22460781 0.839546 2.1367168 -0.8699168 0.36661214 0.09215157 -0.90870404 -0.3630767 -0.75137746 -0.17270002 -0.30570918 0.22761498 0.9619117 -0.39002538 -1.7510287 0.52183944 -0.3031381 1.6924064 0.552397 0.38779998 0.05197665 -0.79848534 1.0212233 1.6054735 0.16129366 -0.7286261 0.30273667 -1.0479964 0.28003228 0.46282065 -1.3180656 -0.40629965 -1.2437572 1.9433773 -1.6116472 -1.3139459 0.25029677
believed 0.18139066 -0.3502872 -0.14577483 0.1886998 -0.1654931 -0.4890761 0.39103922 -1.5400904 1.1368016 -0.470065 -0.15984914 -0.14028895 -0.019635705 0.14920999 0.5191624 1.0335531 -0.5839813 -0.028103862 -0.038671926 -0.44239846 -0.3433021 -0.41137993 -0.18018025 -0.17327608 0.040827923 0.43838653 -0.21226531 -0.9498821 0.29317105 -0.07094551 0.87172157 0.38846067 0.1064857 -0.02918344 -0.2170209 0.49123514 0.96368456 -0.05023879 -0.48363006 0.24898607 -0.5789073 -0.011587341 0.19559477 -0.69806397 -0.00982262 -0.7092977 1.1369144 -0.69525033 -0.6298662 0.1443827
cattle 0.22905855 -0.08572083 0.12591521 0.112953335 0.012494439 -0.2978583 0.09716134 -0.93797624 0.5667345 -0.1248707 0.032004047 0.11126325 0.054561283 0.077874616 0.15936022 0.41667953 -0.49277392 -0.21152812 -0.09475917 -0.19648696 -0.41630036 -0.12172728 -0.060472716 -0.022825575 -0.073727794 0.1472954 -0.09549704 -0.7715866 0.21480377 0.029341089 0.49761978 0.1954719 -0.07759628 -0.019492036 0.14943337 0.23138084 0.6460479 -0.1591007 -0.3929138 0.32165155 -0.34140444 -0.11393664 -0.029623022 -0.36374435 0.15296449 -0.43255177 0.7294742 -0.2800659 -0.28567463 0.14088942
feed 0.29538605 -0.32073373 -0.10026788 0.23609109 -0.12251994 -0.5637709 0.38844585 -1.6927861 1.1826811 -0.47840482 -0.14409243 -0.06687221 0.030443246 0.16300462 0.56951004 1.0256845 -0.7129907 -0.076161675 -0.09349335 -0.41168496 -0.47052658 -0.4281126 -0.25100577 -0.15425959 0.0051011294 0.436289 -0.2345404 -1.0916322 0.33265504 -0.03140861 0.9203955 0.43393075 0.08428318 -0.04684504 -0.1383463 0.50014424 1.1067656 -0.10966778 -0.6133779 0.31932792 -0.5768886 -0.12233576 0.1631634 -0.69541407 0.006939237 -0.8140785 1.2985717 -0.68716127 -0.66587883 0.19551724
farmers 0.2588489 -0.16712976 0.06435351 0.15698986 -0.022078833 -0.35682613 0.10687706 -1.0658352 0.6529719 -0.17721464 -0.0087898895 0.064625405 0.02831069 0.09031091 0.27855253 0.5273384 -0.49463636 -0.15189299 -0.10947808 -0.21797593 -0.39388305 -0.19036768 -0.13747129 -0.08351525 -0.04037159 0.21263482 -0.14140081 -0.7861066 0.21579683 0.0020040707 0.5387213 0.28284854 -0.04259473 -0.059128378 0.054859307 0.27387032 0.7069001 -0.16476564 -0.39430118 0.30488434 -0.3299796 -0.11497969 0.021730244 -0.41969386 0.11256628 -0.5069906 0.8174063 -0.32360896 -0.3867889 0.13088056
denied 0.29577103 -0.28374666 -0.03761151 0.20997316 -0.089972615 -0.49158755 0.26774225 -1.4686035 0.98568773 -0.35198632 -0.101985775 -0.026188102 0.016585987 0.1374208 0.48609087 0.86958766 -0.61394036 -0.10504542 -0.09932189 -0.33820784 -0.42412347 -0.3642451 -0.23739195 -0.15086775 -0.006530529 0.36260018 -0.2151384 -0.9492328 0.27572596 -0.02837978 0.77032226 0.4056499 0.036732126 -0.06621088 -0.088638924 0.41313866 0.9553437 -0.13083383 -0.5138096 0.30468118 -0.48071662 -0.11267565 0.12048525 -0.60041183 0.06959262 -0.69832975 1.1165091 -0.54716986 -0.57315326 0.15058607
danger 0.27638125 -0.1208333 0.08131992 0.16065852 -0.010218727 -0.3724929 0.15544844 -1.0933696 0.6752322 -0.21218997 3.2830983e-05 0.10448516 0.05653485 0.085971594 0.25393966 0.49951047 -0.54962933 -0.17661999 -0.12250772 -0.2039115 -0.44724926 -0.18433379 -0.13483308 -0.040178727 -0.07824399 0.19552405 -0.13430567 -0.8603123 0.21943782 0.024440492 0.5723447 0.24210599 -0.03297482 -0.030277792 0.1072926 0.27513823 0.7695222 -0.16092518 -0.4792751 0.32438576 -0.33781978 -0.15975758 -0.011140046 -0.39925528 0.10019685 -0.52673227 0.8662677 -0.3371637 -0.3741149 0.16549209
their 0.122551136 -0.37025422 -0.1505637 0.21497582 -0.16781989 -0.5517933 0.4230824 -1.6416303 1.2711638 -0.54474074 -0.13665858 -0.12231271 -0.052994885 0.12012532 0.5038069 1.0656917 -0.68301976 -0.059786037 -0.03134732 -0.5774209 -0.42502153 -0.4016687 -0.088284895 -0.14779319 0.03323928 0.45966995 -0.22299264 -1.2294754 0.34089035 -0.089191526 1.1084465 0.33580267 0.12457447 -0.018678583 -0.16209732 0.5843639 1.0966359 -0.07670034 -0.5460885 0.31487995 -0.71948797 -0.02777777 0.19605066 -0.78252506 -0.08707104 -0.7882373 1.2759321 -0.81565857 -0.6826017 0.21147916
but -0.14566195 -0.6907149 -0.54571384 0.16411738 -0.4587192 -0.7435716 1.052033 -2.4070418 2.0880752 -1.1321326 -0.39129615 -0.5049569 -0.01307398 0.18285452 0.70330876 1.8762662 -0.8708009 0.21160422 0.123203196 -0.93498504 -0.3605803 -0.6790754 -0.024375841 -0.14621921 0.15941799 0.81212753 -0.25859457 -1.6013215 0.41315168 -0.23126945 1.6358907 0.40947366 0.4050867 0.14525989 -0.64471275 0.9801334 1.5529006 0.23828189 -0.7801755 0.2253217 -1.1109549 0.24781798 0.37629825 -1.2092372 -0.33460745 -1.1081895 1.8276651 -1.5442353 -1.0425949 0.2800915
expressed 0.25149387 -0.21927212 -0.015652115 0.17426091 -0.07020508 -0.42063922 0.20173015 -1.2208138 0.81756276 -0.2947706 -0.055961456 -0.00045266256 0.016420044 0.10999594 0.37777504 0.6763609 -0.5430158 -0.084061 -0.10819168 -0.2598972 -0.3912756 -0.26353496 -0.1772655 -0.11456637 -0.009387078 0.29139727 -0.16825645 -0.85055876 0.2500381 -0.0077673406 0.64603835 0.31165287 0.012115842 -0.05578923 -0.044445507 0.3371706 0.7914507 -0.12971936 -0.4414555 0.28965268 -0.37047264 -0.11494685 0.08946044 -0.48394176 0.046910733 -0.59948575 0.9363245 -0.43931147 -0.4872426 0.15435892
concern 0.2748051 -0.1815452 0.04090322 0.1737277 -0.035712544 -0.36059514 0.165487 -1.100304 0.71076035 -0.21174093 -0.051283758 0.032235023 0.017099889 0.10309321 0.36065197 0.6212355 -0.47246763 -0.11826276 -0.0907005 -0.24457386 -0.35302123 -0.2582741 -0.18120728 -0.12085743 -0.018865455 0.24186336 -0.16510394 -0.71456206 0.22326055 0.0033435284 0.5650943 0.30333877 -0.01645713 -0.062003773 0.0029851908 0.28933385 0.7215231 -0.1524174 -0.39044458 0.276651 -0.35767716 -0.110163294 0.07991487 -0.4451617 0.09533784 -0.5019876 0.8240465 -0.34484982 -0.4132045 0.11532374
government 0.32985693 -0.46269378 -0.18966487 0.283126 -0.16612285 -0.60304195 0.2915823 -1.7041106 1.2336813 -0.50616115 -0.17660844 -0.13873047 -0.05604869 0.16661893 0.73273695 1.1126868 -0.6381037 0.1306426 -0.11489172 -0.36914968 -0.35780472 -0.5098699 -0.34452638 -0.2977607 0.083218545 0.5143362 -0.29379418 -1.0197625 0.33245134 -0.06352447 0.88963443 0.48684135 0.09952213 -0.11721021 -0.3375468 0.5084151 1.0067897 -0.15673275 -0.5066659 0.30501252 -0.40674448 -0.12217367 0.28959027 -0.71535134 -0.13404377 -0.8680894 1.2322288 -0.66432476 -0.8432255 0.17817296
avoid 0.12620632 -0.10181855 0.02407978 0.07736637 -0.033754084 -0.18978067 0.07368856 -0.6117172 0.38614956 -0.095462814 -0.016064405 0.018832028 0.018105425 0.055864446 0.14287512 0.3435269 -0.26345125 -0.09019912 -0.042865735 -0.13224238 -0.19784342 -0.11641824 -0.068426505 -0.055305634 -0.013958403 0.13365242 -0.07637147 -0.42358348 0.11469283 -0.010515959 0.2981181 0.16854876 -0.023926288 -0.03182497 0.011274855 0.1503687 0.38937852 -0.07687798 -0.19828402 0.15773232 -0.21396507 -0.019890081 0.02055297 -0.24675529 0.08571019 -0.27158841 0.4459437 -0.19639558 -0.21509121 0.0598199
might 0.27324376 -0.26313826 -0.050848912 0.20889296 -0.10239718 -0.4798716 0.3617474 -1.5129914 1.0866741 -0.42622748 -0.12745611 -0.036834106 0.019911313 0.15846165 0.5137539 0.9629424 -0.61374813 -0.09096057 -0.06821132 -0.384941 -0.41923553 -0.3796889 -0.20314868 -0.1396419 0.0018593764 0.38574755 -0.21105044 -0.9528855 0.33493698 -0.03988694 0.8521827 0.35263106 0.07064377 -0.031587083 -0.1070622 0.45796055 0.9875292 -0.1263205 -0.5358889 0.32171646 -0.53908706 -0.095878 0.17164083 -0.6592485 0.04234427 -0.71070075 1.1510433 -0.61767584 -0.60750335 0.14071196
across 0.2592951 -0.06610227 0.14339662 0.11965729 0.024261566 -0.28171557 0.074954964 -0.90110517 0.5363365 -0.09559014 0.030883623 0.12316768 0.0476465 0.089294575 0.19450356 0.41329 -0.45448804 -0.22771674 -0.098285414 -0.17196059 -0.39410457 -0.12509112 -0.08986044 -0.039491843 -0.07754661 0.13374658 -0.104598604 -0.68816483 0.21483767 0.02437603 0.45787445 0.21054564 -0.08805263 -0.038246144 0.14921096 0.207672 0.6145875 -0.18587726 -0.37410966 0.30587462 -0.31558838 -0.120844565 -0.01356629 -0.34846407 0.19094558 -0.40964726 0.6942544 -0.23397508 -0.27994975 0.10878706
Europe 0.29229823 -0.06944843 0.18749934 0.14642873 0.042461578 -0.27704647 -0.007432998 -0.8695776 0.47177872 -0.013644769 0.051547553 0.1505713 0.03852671 0.07773449 0.19594634 0.33917356 -0.44100437 -0.23431177 -0.12890221 -0.13594005 -0.39946565 -0.11227923 -0.11731435 -0.059215628 -0.074496396 0.10869188 -0.11827717 -0.6668741 0.1929096 0.044145502 0.3957231 0.24249102 -0.124930955 -0.07462106 0.18527526 0.17087685 0.582856 -0.23045932 -0.33365715 0.32060385 -0.26904795 -0.13433976 -0.021966899 -0.32789475 0.21650638 -0.38855165 0.6505739 -0.14589162 -0.26059696 0.106374204
What 0.20646141 -0.22908287 -0.010199959 0.14384776 -0.09275199 -0.3252639 0.21142812 -1.0942607 0.7476715 -0.19332775 -0.10738948 -0.045037117 -0.0094865225 0.0983715 0.373688 0.73733085 -0.3991019 -0.115153074 -0.03378287 -0.2916343 -0.25211313 -0.29300532 -0.17411868 -0.16064064 0.018753445 0.2727322 -0.16830035 -0.59929276 0.19571938 -0.043836776 0.54211265 0.338076 0.0037812477 -0.0666596 -0.0819525 0.30060175 0.671277 -0.09892244 -0.3046842 0.19620419 -0.42297122 -0.0032938407 0.10740935 -0.5031264 0.14638728 -0.4628412 0.76592946 -0.39143988 -0.40150166 0.058807313
how 0.15646835 -0.200238 -0.03348411 0.13537619 -0.078410015 -0.3556163 0.25378495 -1.083572 0.7495577 -0.30376458 -0.069055274 -0.007984954 0.026266193 0.08913412 0.2799927 0.62383205 -0.4865014 -0.079544954 -0.0517061 -0.2788444 -0.33030257 -0.23624499 -0.09260317 -0.061295908 -0.020847281 0.2653331 -0.13082902 -0.7985272 0.19959916 -0.020330833 0.60666615 0.24420972 0.034417268 -0.017442336 -0.040165942 0.32832164 0.72559327 -0.06629201 -0.4151783 0.24226521 -0.39808866 -0.05757786 0.04795558 -0.44135645 0.030354729 -0.5018801 0.82840663 -0.44331774 -0.41343623 0.14295194
going 0.21538892 -0.46185678 -0.28288478 0.26798585 -0.23166126 -0.6141918 0.61670285 -1.8362137 1.4325911 -0.7347204 -0.2980855 -0.2291693 -0.0033319085 0.13725935 0.7645572 1.3079865 -0.6695359 0.11354379 0.004980935 -0.53735775 -0.31624314 -0.6219215 -0.30314553 -0.21591796 0.10092308 0.57496697 -0.29516715 -1.048522 0.32132348 -0.07758331 1.0724226 0.4358627 0.24481604 0.0031127145 -0.37442198 0.61387753 1.2038404 -0.015710963 -0.61834896 0.21353523 -0.6244665 -0.04804713 0.3049177 -0.8036546 -0.20575364 -0.8689111 1.3983479 -0.89711756 -0.8315049 0.21375632
take 0.19366951 -0.28789562 -0.077548526 0.17125976 -0.1254778 -0.46270168 0.3347283 -1.4257935 1.0149447 -0.4089189 -0.1083678 -0.050595846 0.0031903759 0.12806962 0.41763145 0.8692758 -0.5999966 -0.069944136 -0.059024777 -0.36396703 -0.40733463 -0.32955715 -0.13056472 -0.11637592 -0.0042866874 0.37518594 -0.17013587 -0.9842875 0.27432102 -0.046903316 0.8122427 0.31481552 0.04044248 -0.014663481 -0.09723011 0.43653965 0.93665504 -0.089398965 -0.5091868 0.29323986 -0.51987165 -0.059922088 0.11181652 -0.6156426 0.02414326 -0.67412156 1.0775748 -0.5975241 -0.56622696 0.16485125
lead 0.32455942 -0.30845362 -0.030203534 0.26081124 -0.060915902 -0.55461097 0.22255883 -1.5522755 1.0428376 -0.38326102 -0.08517938 0.018319944 -0.004715467 0.12940733 0.5346134 0.85973746 -0.6651439 -0.060164765 -0.139797 -0.33864087 -0.48752442 -0.35132998 -0.23746449 -0.16470577 0.008180484 0.38627192 -0.23628904 -1.0806094 0.32671198 -0.010000748 0.8414354 0.40131804 0.009206682 -0.10108637 -0.080011815 0.44497794 1.0082914 -0.19804196 -0.53398097 0.35644975 -0.45569173 -0.16578211 0.16130532 -0.61815935 -0.004118648 -0.7763906 1.1795102 -0.53943497 -0.65629 0.19744262
National 0.40739578 -0.092810184 0.14561379 0.20561466 0.049607664 -0.392014 0.089439005 -1.0930911 0.64570653 -0.1816919 0.02009441 0.17150436 0.039667923 0.10615665 0.34116834 0.45725963 -0.5669913 -0.16122216 -0.1760244 -0.13586076 -0.4859339 -0.2008446 -0.215522 -0.07071147 -0.088369146 0.1710786 -0.15630043 -0.8412178 0.2572663 0.05354763 0.5283166 0.25892642 -0.06868063 -0.069427736 0.15034634 0.24801576 0.76951957 -0.27403364 -0.49870142 0.38284263 -0.2437702 -0.27637002 0.002088696 -0.3671486 0.095469125 -0.55514365 0.8646521 -0.23892146 -0.40577722 0.16693875
chairman 0.41594386 -0.15808521 0.16718324 0.22069533 0.023137089 -0.36981666 0.00072205014 -1.1345327 0.5997949 -0.021348843 -0.01666133 0.110858425 0.026010392 0.09920591 0.38625675 0.5527122 -0.47379977 -0.24471003 -0.13849981 -0.18319027 -0.38673246 -0.26085925 -0.2737734 -0.1691501 -0.044024967 0.19014959 -0.19249885 -0.64467317 0.20005392 0.029603384 0.44234508 0.422781 -0.10926829 -0.1423372 0.11000651 0.22915842 0.73110723 -0.2583386 -0.35474083 0.30981514 -0.32490823 -0.14655948 0.029513502 -0.4339641 0.28847095 -0.48099196 0.8083606 -0.17326795 -0.38333783 0.071766704
John 0.5558678 0.15855749 0.5239466 0.14989246 0.21787435 -0.13773552 -0.17500927 -0.66767126 0.107814915 0.37251416 0.11877487 0.35703638 0.13030018 0.05923533 0.12630004 0.104972415 -0.39155188 -0.6271505 -0.14693207 -0.0345939 -0.45697433 -0.09421887 -0.20897666 -0.03574678 -0.20352398 -0.10732628 -0.088482164 -0.32864296 0.12116277 0.11662317 0.09364906 0.33563587 -0.2965004 -0.1163557 0.55602145 -0.0060453075 0.54478025 -0.37365255 -0.32269105 0.34096628 -0.3040876 -0.21855818 -0.20263237 -0.21829234 0.66494113 -0.14588316 0.49294397 0.22508381 0.036738608 -0.016178288
Lloyd 0.18951966 0.020815227 0.15882815 0.06229649 0.046882983 -0.11933754 -0.031139003 -0.3961029 0.1580693 0.05764287 0.04777718 0.12790121 0.035220724 0.025141587 0.061502993 0.11313972 -0.2263549 -0.20217703 -0.065114126 -0.041023083 -0.22638859 -0.036851015 -0.062181734 -0.013689403 -0.0759499 0.0057783676 -0.04544934 -0.30712554 0.07832881 0.035859656 0.14803296 0.123591214 -0.0920308 -0.034380183 0.17359486 0.0514458 0.29505473 -0.1353956 -0.18207812 0.16630082 -0.14299928 -0.08921155 -0.06589501 -0.13438296 0.19227184 -0.14846183 0.30021176 -0.0005762578 -0.06525261 0.043164898
Jones 0.6299584 0.14157853 0.49583903 0.20978679 0.20413613 -0.26612875 -0.13946635 -0.9023818 0.2531101 0.25450793 0.12235894 0.38545355 0.124054715 0.08316633 0.22709873 0.17456697 -0.5209591 -0.5890578 -0.1983823 -0.037556063 -0.5737639 -0.1346334 -0.28687137 -0.047746703 -0.21355414 -0.04937214 -0.13570385 -0.55147 0.17089486 0.13487032 0.22930612 0.37058306 -0.26775768 -0.13416651 0.54533255 0.056358863 0.7102476 -0.4175102 -0.45726708 0.42556763 -0.28412136 -0.32161528 -0.18617222 -0.26319572 0.60074866 -0.32321337 0.7166745 0.16599612 -0.09705493 0.05645937
radio 0.18711463 -0.07365539 0.076230034 0.10047116 0.0043322784 -0.21411046 -5.7462355e-05 -0.60243785 0.3383698 -0.044747848 0.022723366 0.080104396 0.023752643 0.04928306 0.14836518 0.26668245 -0.2937126 -0.12315837 -0.084354036 -0.086348146 -0.26354158 -0.08177219 -0.10016403 -0.050434973 -0.043706227 0.101409964 -0.0839517 -0.45655176 0.12813613 0.017993802 0.27754036 0.17536141 -0.055453375 -0.046852365 0.084322065 0.13312401 0.4024174 -0.1311849 -0.22818159 0.20499319 -0.15295464 -0.08432205 -0.0077433023 -0.21625437 0.11510484 -0.2971303 0.46257338 -0.12512583 -0.21431804 0.072258025
has -0.14758205 -0.84722203 -0.6602436 0.26074266 -0.41702867 -0.8323844 0.766716 -2.5221007 2.108723 -1.0796325 -0.3137223 -0.4638557 -0.08968086 0.22222051 0.69268095 1.7467052 -0.89316165 0.3948103 0.040299553 -0.8583518 -0.4612205 -0.532034 -0.006370254 -0.14978866 0.2595491 0.91448164 -0.2925745 -1.7813476 0.545499 -0.26063335 1.6539749 0.4228674 0.26695946 0.037857708 -0.7762328 0.98652107 1.4227818 0.16645095 -0.64406264 0.34511402 -0.9691483 0.24437384 0.47376353 -1.1864879 -0.54389286 -1.2497566 1.7954835 -1.528977 -1.2606838 0.35983285
led 0.3795835 -0.72853374 -0.42348728 0.42312595 -0.31292295 -1.0785058 0.804121 -3.023486 2.2501016 -1.1115806 -0.33793283 -0.2775577 -0.025519049 0.26055396 1.1244091 1.9393157 -1.2196419 0.1662215 -0.13336864 -0.78106964 -0.70746934 -0.84425783 -0.4479043 -0.3098773 0.10584473 0.9178813 -0.43934005 -1.9660114 0.5738713 -0.10753561 1.7446145 0.73002356 0.29577944 -0.0635736 -0.54786676 0.9738322 1.9461101 -0.070429645 -1.038589 0.46545002 -0.93386984 -0.19875312 0.44325152 -1.2527008 -0.31974283 -1.545015 2.3104386 -1.425825 -1.3605987 0.39788872
efforts 0.28901118 -0.059532706 0.16185527 0.13820755 0.042874556 -0.305294 0.032938663 -0.92654115 0.5158289 -0.08138073 0.053078536 0.14957869 0.05098633 0.092860505 0.18799873 0.37029308 -0.49518386 -0.22620372 -0.1354986 -0.1451223 -0.44280586 -0.110214345 -0.10064763 -0.03650825 -0.08801351 0.1278378 -0.10875789 -0.75546795 0.22101206 0.044458985 0.45535967 0.22095834 -0.103767335 -0.043513294 0.1818195 0.19867612 0.6365124 -0.21010289 -0.40101656 0.34174323 -0.2880035 -0.15189673 -0.034392115 -0.33589497 0.18268836 -0.4397351 0.7324867 -0.20276107 -0.29533452 0.13902305
public 0.62824166 0.065210864 0.50197875 0.20300591 0.189754 -0.23469031 -0.14285444 -1.0079014 0.326723 0.33344516 0.07933984 0.3108498 0.08996582 0.111176506 0.29078558 0.35455534 -0.46043336 -0.63844305 -0.16109361 -0.116783716 -0.49183822 -0.20806931 -0.28870988 -0.14182708 -0.17848028 -0.0056310617 -0.16626228 -0.44058287 0.1839681 0.09706921 0.21968108 0.47931135 -0.30115715 -0.16594158 0.48597586 0.06491978 0.7113654 -0.41560116 -0.36194733 0.3782951 -0.41897988 -0.21183659 -0.12365015 -0.3892381 0.71475995 -0.27242064 0.6907986 0.11671418 -0.1066822 -0.019917896
consumer 0.30738208 -0.16973414 0.07566776 0.18374552 -0.025147464 -0.3791432 0.15657152 -1.1607581 0.7387591 -0.2045738 -0.040122658 0.06514443 0.027843848 0.10675977 0.36832416 0.6152026 -0.5194737 -0.14689745 -0.10652733 -0.23922049 -0.4008222 -0.24841611 -0.18864052 -0.11126998 -0.03947309 0.23634069 -0.1680322 -0.77018017 0.23800005 0.009356455 0.58163285 0.3091847 -0.031600576 -0.06482523 0.03946897 0.29275635 0.7688624 -0.18532932 -0.4317526 0.30359748 -0.3650747 -0.13491961 0.06653434 -0.45715165 0.11520693 -0.5367577 0.8786717 -0.34207806 -0.43119788 0.12909761
confidence 0.30102813 -0.24447721 0.02000306 0.20285356 -0.058565363 -0.42103586 0.17932074 -1.279961 0.8307052 -0.23798506 -0.07469689 0.0030831953 0.00768892 0.11642969 0.4361459 0.74657327 -0.5229055 -0.11875685 -0.096259564 -0.2869979 -0.3703139 -0.3168998 -0.22167483 -0.15946643 -0.007889673 0.2985706 -0.19858639 -0.7932904 0.24712783 -0.009890153 0.6334992 0.38121775 -0.010381634 -0.08385308 -0.038818795 0.346786 0.81455976 -0.16360924 -0.416672 0.2914618 -0.40919775 -0.10238215 0.10748552 -0.5321501 0.11063488 -0.58449376 0.9395752 -0.41179448 -0.49990714 0.11537095
in 0.42447555 -0.5978913 -0.23414451 0.3887868 -0.17655095 -0.7172321 0.53615016 -2.2948632 1.7464588 -0.7003594 -0.34723035 -0.21096751 -0.08490859 0.23869295 1.1420107 1.6840061 -0.7488021 0.16835949 -0.040683232 -0.65801316 -0.3644969 -0.80443084 -0.46972647 -0.4498502 0.13630468 0.7224139 -0.41796616 -1.0604233 0.49876833 -0.09549312 1.2506126 0.6604247 0.1791496 -0.1714025 -0.50337756 0.7380599 1.3473827 -0.18886039 -0.59910333 0.30435157 -0.7461934 -0.10399269 0.58126795 -1.0672703 -0.16371068 -1.0432645 1.5673841 -0.96089745 -1.0843894 0.14793162
March 0.6698191 0.17555271 0.626998 0.1878286 0.26684558 -0.2547707 -0.24253568 -0.9449352 0.19940601 0.3987908 0.19500028 0.4706888 0.14675087 0.07995306 0.12103994 0.09592998 -0.59040016 -0.7337507 -0.23388728 -0.029084146 -0.66876316 -0.06317948 -0.22515541 -0.027648313 -0.26806802 -0.108444095 -0.11557679 -0.65700656 0.1905853 0.14697297 0.21537331 0.38671964 -0.36827868 -0.14384082 0.6969795 0.018329209 0.7431827 -0.47588742 -0.47151622 0.495676 -0.35560697 -0.32292756 -0.26753253 -0.27677065 0.74805427 -0.29793298 0.71803606 0.22307517 -0.032839805 0.06315945
report 0.17679049 -0.45359156 -0.2422152 0.21828666 -0.2049224 -0.59424096 0.2819048 -1.5804498 1.1553749 -0.5242276 -0.12234826 -0.15156206 -0.035449613 0.14835715 0.5133271 0.9968259 -0.6129673 0.14705867 -0.109840594 -0.36367533 -0.39200374 -0.33796 -0.21581848 -0.1995113 0.091202766 0.5018702 -0.23661159 -1.1300695 0.3174317 -0.08291556 0.88703287 0.39196208 0.11145005 -0.074631855 -0.3306816 0.50525236 0.92531025 -0.074961245 -0.4669557 0.31129724 -0.37617835 -0.044909477 0.20681085 -0.6496833 -0.17916058 -0.85364753 1.1759752 -0.6956679 -0.78226835 0.20887451
beef 0.14554664 -0.29238236 -0.08269704 0.13852768 -0.111410744 -0.2867132 0.22250241 -1.0636394 0.7593294 -0.21970318 -0.1464334 -0.1726217 -0.050718423 0.123100735 0.43951663 0.82919157 -0.30729792 -0.05003589 -0.012178073 -0.35395882 -0.13064818 -0.36522657 -0.1719017 -0.22506146 0.061652835 0.32766926 -0.190939 -0.45043668 0.19473527 -0.07624534 0.54215217 0.37173426 0.054036867 -0.09108781 -0.20638575 0.32548645 0.58486515 -0.040258028 -0.20348406 0.1244936 -0.47275895 0.04892366 0.20530611 -0.5718784 0.11334737 -0.41789016 0.70583045 -0.4669278 -0.41152105 0.0038404837
year 0.13862298 -0.45239922 -0.28172806 0.2525121 -0.19789386 -0.62080246 0.64423263 -1.9335858 1.6595604 -0.85072005 -0.22679758 -0.17665441 0.03406343 0.27148345 0.7965214 1.3926123 -0.73501897 0.21190634 -0.021869702 -0.57198244 -0.50829035 -0.47003937 -0.1483491 -0.19472955 0.08758901 0.617293 -0.26389816 -1.3356725 0.5957562 -0.12627175 1.346396 0.241022 0.276803 0.08070455 -0.38634673 0.72251767 1.1768714 -0.10546763 -0.65005213 0.38435748 -0.6515221 -0.06874533 0.46748608 -0.87208074 -0.3443572 -1.0153655 1.5295979 -1.0299202 -0.99375343 0.2297954
nearly 0.2958165 -0.22156243 0.031976905 0.19749482 -0.04945205 -0.45392543 0.20204195 -1.3564426 0.91381866 -0.28725538 -0.042313807 0.045614585 0.037974004 0.14046395 0.42143402 0.7540867 -0.60394555 -0.10922364 -0.11814126 -0.2954618 -0.47142005 -0.2672257 -0.18024106 -0.12414134 -0.024612382 0.3108125 -0.18976592 -0.9579497 0.32521588 -0.009897997 0.7444531 0.3200301 -0.0047482126 -0.055177607 -0.008477023 0.3816232 0.88849276 -0.19774441 -0.49491888 0.36047047 -0.4213787 -0.12373583 0.114771016 -0.5483671 0.07642386 -0.6600887 1.0411762 -0.46318004 -0.55196416 0.15973303
half 0.29772648 -0.16276899 0.044068497 0.19056574 -0.006732377 -0.34552765 0.19078995 -1.1314744 0.73719734 -0.21957974 -0.0699486 0.062230583 0.022755148 0.1260531 0.3607645 0.62310624 -0.4508243 -0.13061446 -0.085418634 -0.25835198 -0.37280825 -0.24598879 -0.16914953 -0.08956644 -0.01073782 0.2330031 -0.18217377 -0.6727271 0.26303968 -0.01062665 0.5897495 0.2789063 -0.010562376 -0.060405806 0.015695296 0.30602023 0.7237724 -0.18821177 -0.38796386 0.28331852 -0.38637498 -0.113064386 0.11806192 -0.45710513 0.09071928 -0.48777544 0.83452475 -0.3451881 -0.43001488 0.10107266
total 0.44051334 -0.09596113 0.201026 0.205494 0.04549124 -0.36490926 0.1350375 -1.2268224 0.706579 -0.10775258 -0.03605373 0.1331189 0.074752405 0.14835437 0.40894234 0.64967257 -0.530257 -0.2962279 -0.106692046 -0.22129183 -0.44461188 -0.29443738 -0.2512949 -0.1227497 -0.08185616 0.18311834 -0.18281254 -0.7025143 0.28682724 0.028780742 0.5518071 0.37028152 -0.08303494 -0.07206783 0.16879784 0.26169756 0.83387166 -0.26904792 -0.48045698 0.35452092 -0.4156422 -0.17302833 0.04270877 -0.48199958 0.30414334 -0.5061867 0.9331656 -0.25276387 -0.39164272 0.078825146
imports 0.30847016 -0.13293597 0.120351695 0.17028722 0.0029828013 -0.39681834 0.08138225 -1.1693019 0.704963 -0.15736328 0.029896133 0.12278064 0.037359953 0.11727707 0.27153254 0.5440244 -0.57830983 -0.20662963 -0.14358714 -0.20965472 -0.49471813 -0.15770833 -0.13485356 -0.07144756 -0.061838843 0.21040483 -0.14866793 -0.91984767 0.27559644 0.022504793 0.59503263 0.28073743 -0.0801117 -0.05645205 0.13129778 0.28224546 0.7777138 -0.22234322 -0.46262422 0.3906965 -0.34994167 -0.14293467 0.0014503152 -0.4393549 0.16247275 -0.5639816 0.9092651 -0.30346578 -0.41696647 0.15569569
It 0.18015598 -0.5253587 -0.24708034 0.23062009 -0.26150465 -0.4888612 0.34991992 -1.5570422 1.1676857 -0.4355457 -0.24448878 -0.24359763 -0.052418604 0.1495074 0.63063943 1.2110834 -0.4345417 0.08433529 0.0075487653 -0.44930184 -0.16774593 -0.51034474 -0.31492624 -0.3036137 0.14139186 0.513335 -0.2772527 -0.7582652 0.24847318 -0.14420453 0.7968792 0.5246241 0.1458008 -0.097065784 -0.40199423 0.50627553 0.8852788 -0.036090054 -0.32771367 0.14663891 -0.50538564 0.13262427 0.2712943 -0.7199217 -0.0029793084 -0.68358123 1.0608907 -0.68107504 -0.74385524 0.04547656
brought 0.22991733 -0.13305505 0.064220145 0.14106323 -0.024811637 -0.3430585 0.19897306 -1.0885853 0.71120626 -0.2145727 -0.02655772 0.061406717 0.044889163 0.09758062 0.25530377 0.5749479 -0.51565593 -0.18603648 -0.079702236 -0.2605994 -0.40951392 -0.20587888 -0.10162208 -0.043356635 -0.057113864 0.21270382 -0.12876968 -0.8003128 0.22650681 0.0036817903 0.5957691 0.24565804 -0.026370928 -0.017481148 0.076182306 0.29512107 0.75194556 -0.14147158 -0.44112197 0.30048198 -0.4198865 -0.094248116 0.022030462 -0.44968775 0.13243504 -0.4944419 0.84435374 -0.37696332 -0.3588131 0.13526212
tonnes 0.41153708 -0.042036038 0.18162917 0.19083555 0.056319 -0.3696506 0.12427733 -1.1264533 0.6912907 -0.1674392 0.013763619 0.16325141 0.07726802 0.1544172 0.37897998 0.5722531 -0.54596007 -0.24775887 -0.14503641 -0.1669402 -0.5121978 -0.20062348 -0.22233614 -0.08388788 -0.08821952 0.1781163 -0.16796903 -0.7450945 0.330065 0.04567867 0.5795245 0.26885477 -0.072848365 -0.051492132 0.17468615 0.26103336 0.7792142 -0.29313132 -0.5056045 0.40480876 -0.332999 -0.22654378 0.04971709 -0.42549837 0.2158434 -0.54043883 0.9253999 -0.23770332 -0.40864253 0.10441058
some 0.24130635 -0.35399306 -0.13537219 0.2312368 -0.1405852 -0.5240182 0.405668 -1.621981 1.2157693 -0.5061505 -0.17601332 -0.10479608 -0.013620447 0.16253339 0.58570445 1.084392 -0.6150311 -0.0054900157 -0.056337055 -0.46187705 -0.3986598 -0.42898875 -0.217903 -0.18408798 0.050286245 0.44662362 -0.24196945 -1.0179539 0.3389878 -0.06575544 0.9370335 0.37349358 0.10781071 -0.044518467 -0.20012754 0.5086703 1.0355952 -0.113808684 -0.52363974 0.30239078 -0.57216585 -0.047025803 0.21992356 -0.71852237 -0.0489686 -0.7582908 1.2164242 -0.7049652 -0.6953889 0.15479621
