4912 50
EU -0.12108027 -0.10240047 0.034586996 -0.043040045 -0.15763804 0.14179787 -0.04570103 -0.016295906 -0.10652885 -0.041670088 -0.04865849 0.067041956 -0.19511244 -0.059062067 0.14742428 0.032833103 0.024178492 0.03229901 -0.046403915 0.011488709 0.03376751 -0.041358087 0.06666262 0.02660803 0.08017783 0.07341458 0.01881025 0.046636917 0.078622654 0.07859706 -0.012855269 -0.057327982 -0.15526682 -0.11913335 0.12844561 -0.11212072 0.08691261 -0.12736821 -0.027905263 0.1629504 -0.04026493 -0.17622373 -0.15656051 0.1122482 -0.013096625 -0.027872562 -0.115629196 0.052309312 -0.042888332 0.01596629
German -0.4116918 -0.6846673 0.026133437 -0.09042773 -1.1652765 0.9767515 -0.25991866 -0.024159152 -0.27972996 -0.4063091 -0.5055388 0.21584418 -1.0274596 -0.38699478 1.0853751 0.26500985 0.09135077 0.35587546 -0.37997618 -0.009503228 0.12452334 -0.5104072 0.40590084 -0.16286859 0.29922095 0.23052908 0.19052108 0.22897838 0.5870271 0.30761513 -0.113616444 -0.19391614 -0.92708397 -0.5701775 0.80600697 -0.72863746 0.49371615 -0.82801527 -0.35615972 0.9055212 -0.20394146 -0.85666686 -0.8243904 0.49178118 -0.035923935 -0.13565364 -0.7769497 0.50329036 -0.193785 -0.041160014
call -0.79250616 -1.4794143 0.36285254 -0.5629666 -0.97743094 0.4770985 -0.2564468 -0.1253153 0.005894751 -0.4918741 -0.5429101 0.59313196 -1.3168199 -0.10413993 1.289364 0.42886275 -0.16943564 0.5655852 -0.32343742 0.30818653 -0.3414888 -0.019039169 0.5690581 -0.18443908 -0.020654721 0.86145175 0.24036695 0.66524065 0.35661438 0.21384154 -0.041628882 0.19434756 -0.41670945 -0.56347847 0.6068767 -0.21481854 0.07765164 -0.32742563 -0.7454703 0.7212969 0.1637586 -0.95370346 -0.883536 0.39394224 -1.0689731 -0.42872983 -0.40665224 0.11247794 -0.11225653 -0.12934105
to -0.9377451 -1.861979 0.29837736 -0.840845 -0.75924397 0.24869275 -0.32088074 -0.25186098 -0.09442818 -0.54232055 -0.67186207 0.6261267 -1.748 0.14698125 1.3603569 0.172912 -0.13314545 0.5478548 -0.11468755 0.28030372 -0.31738982 0.3362876 0.99544436 -0.010273436 0.07074379 1.0044732 0.15784065 0.80142933 0.32609352 0.55381596 0.057131037 -0.08572503 -0.3971977 -0.57675374 0.53556824 -0.18430395 0.20930544 -0.1372957 -0.8972086 0.75879425 0.2590134 -1.3323532 -1.1711888 0.42395592 -1.0060508 -0.26273614 -0.48165008 -0.12521124 -0.18428 0.03180337
boycott -0.22474399 -0.28929958 0.054923877 -0.10714252 -0.29331693 0.20953389 -0.08957341 -0.038639896 -0.13642447 -0.10527431 -0.11399462 0.12448616 -0.38249257 -0.073774405 0.2994107 0.08312623 0.005509132 0.09323417 -0.08947614 0.043779504 0.014603818 -0.049603153 0.14078727 0.018311184 0.10659994 0.17389558 0.056130618 0.11986214 0.13462417 0.122984305 -0.01248751 -0.041439097 -0.22544676 -0.19146751 0.22433338 -0.1609619 0.11707272 -0.20027027 -0.09739224 0.2684392 -0.033807155 -0.31027743 -0.27864638 0.17859842 -0.11128338 -0.06456228 -0.19038402 0.0881033 -0.06997392 0.0045254217
British -0.6077765 -0.82260364 0.18153153 -0.2724635 -0.90912646 0.640583 -0.25398445 -0.068539985 -0.2600092 -0.32430416 -0.35481656 0.37701955 -1.0160747 -0.24627896 0.928793 0.29112464 -0.010595085 0.33255208 -0.2998295 0.14436269 -0.022384234 -0.2130622 0.3652855 -0.041139778 0.22691101 0.5047012 0.17948617 0.36514285 0.39205444 0.2682098 -0.052711856 -0.035669006 -0.6175938 -0.5341131 0.64048386 -0.43382105 0.27314427 -0.56674516 -0.34292245 0.7466969 -0.070185564 -0.7955731 -0.7433344 0.46614093 -0.41713664 -0.23189835 -0.51312715 0.27276993 -0.14726652 -0.057334106
. -1.7913202 -1.052742 0.6229145 -0.21653603 -1.9422952 1.1819636 0.05969832 -0.029210646 -0.36462104 -0.4432584 -0.30974138 1.18261 -1.0326784 -0.71110344 1.8569087 0.99760664 -0.09102885 0.62230325 -0.5093805 0.14620993 -0.27299196 -0.0075144004 0.013244235 -0.18326342 0.8123075 1.1699057 0.23581967 0.74634176 0.42982996 0.4003003 -0.13755399 0.06448852 -0.9518038 -1.175306 1.3805152 -0.58933604 0.20292462 -0.7129878 -0.73473525 1.4645301 0.14245364 -0.91984904 -1.2897177 0.91256267 -1.0699942 -0.85675573 -0.7892913 0.5875814 -0.04249132 -0.3295771
Peter -0.6132658 -0.76213104 0.19643387 -0.26619065 -0.9148522 0.6591091 -0.31093597 -0.06874834 -0.32858127 -0.3029857 -0.3207772 0.39823073 -1.0160441 -0.2596927 0.8631836 0.30545327 0.0016387765 0.29870003 -0.30848074 0.12383078 0.017715605 -0.25697684 0.3255067 0.02373662 0.25319242 0.51777047 0.17875275 0.33040056 0.3925608 0.2648562 -0.04531337 -0.050255377 -0.6198076 -0.56361705 0.65380615 -0.4668356 0.28834423 -0.61963177 -0.28365967 0.7952877 -0.12466439 -0.7992049 -0.7466653 0.5347235 -0.42217356 -0.20783013 -0.51846635 0.2897896 -0.1881872 -0.040509798
Blackburn -0.28191584 -0.25095472 0.05503079 -0.10133689 -0.35316554 0.2929495 -0.14587036 -0.051902328 -0.28794974 -0.10216499 -0.09717685 0.13262282 -0.48900694 -0.116166145 0.3030854 0.07450286 0.03901148 0.059228424 -0.09102143 0.027300227 0.09711679 -0.09373141 0.15802136 0.10409023 0.19532853 0.18802662 0.054147396 0.10429261 0.16111481 0.19378102 -0.007965892 -0.119531795 -0.34165552 -0.26032788 0.2956898 -0.24932446 0.20064317 -0.32489818 -0.020551028 0.37646183 -0.113028 -0.43013647 -0.35929295 0.2844474 -0.034253847 -0.03082268 -0.26667768 0.13364887 -0.11513663 0.050497826
BRUSSELS -0.21789637 -0.16588518 0.034050453 -0.061899014 -0.2473985 0.19712754 -0.06448601 -0.0263068 -0.16218929 -0.06606494 -0.06449906 0.08659425 -0.29186812 -0.08688586 0.23351921 0.059951592 0.024409844 0.052372497 -0.057145897 0.0072263977 0.054081295 -0.03887817 0.09812855 0.042291425 0.14295155 0.12181791 0.043158308 0.08368544 0.114907935 0.13633397 -0.01047968 -0.08669859 -0.23248106 -0.1750428 0.2072979 -0.15820214 0.12838565 -0.18060704 -0.032654066 0.24568416 -0.05151043 -0.26118067 -0.23418857 0.17030324 -0.014615543 -0.033478606 -0.18434486 0.089548044 -0.0662758 0.0140331965
1996-08-22 -2.055943 0.6855356 0.05654131 0.54487646 -1.0314348 1.4172988 0.40100688 0.5327679 -0.7380858 0.15738255 0.69037217 0.12378683 0.07595893 -1.1315818 1.1986623 0.27910957 0.2671276 0.11777048 0.20661908 -0.1524793 0.6526645 0.17511582 -0.7058013 0.022602659 1.5139421 0.522428 0.48169756 0.50643045 0.61278296 0.6452674 -0.40912405 -0.74054754 -1.3023331 -0.8735052 1.187055 -0.79280096 0.60272884 -0.60421497 0.5308056 0.7160366 0.04666743 -0.20542718 -0.77514267 0.4049272 0.6571955 -0.2634215 -0.987809 0.74886054 0.5138795 -0.45335507
The -1.4527133 -0.8696121 0.75687134 -0.08395509 -1.6426866 0.9448825 0.26064742 -0.05615529 -0.19222568 -0.2367052 -0.04323976 1.1410836 -0.5089378 -0.77923715 1.5012157 1.0258586 -0.078946665 0.66533744 -0.5873626 0.21461369 -0.51856464 -0.04920263 -0.30824688 -0.4003385 0.5216803 0.9643354 0.29933852 0.70364624 0.29529473 0.06329179 -0.14262189 0.41667253 -0.63301235 -0.908264 1.20134 -0.20384264 -0.05095658 -0.5242815 -0.5823603 1.0858034 0.2382654 -0.41903123 -0.70277876 0.53395903 -1.0740325 -0.93831664 -0.51757437 0.55631745 0.07944768 -0.47208315
European -0.58808994 -0.7912719 0.1822481 -0.31093708 -0.7886032 0.5446854 -0.2552528 -0.04926417 -0.19936821 -0.29657438 -0.3222059 0.3613937 -0.9500291 -0.20236948 0.83889526 0.2811875 -0.0401953 0.32022497 -0.26104057 0.18040219 -0.040844265 -0.1409054 0.34786013 -0.023582984 0.17594871 0.5133487 0.19785236 0.36045575 0.34886053 0.23801085 -0.04372255 -0.001646365 -0.5053096 -0.47889352 0.55298865 -0.3555126 0.19964649 -0.45962203 -0.31385854 0.6390624 -0.04208257 -0.7031198 -0.6863553 0.40303499 -0.4663053 -0.227831 -0.42112118 0.20537035 -0.11987304 -0.062385652
Commission -0.5667268 -0.8760736 0.25002632 -0.3167342 -0.8923449 0.5948 -0.30372354 -0.05299698 -0.14292069 -0.3143444 -0.3511903 0.44123414 -0.96250504 -0.23068123 0.87722874 0.3782958 -0.085833974 0.35760024 -0.34216037 0.22370268 -0.12779278 -0.21171992 0.3278372 -0.06396133 0.10032688 0.58096534 0.18441717 0.36386296 0.34117097 0.13859263 -0.04805909 0.13709474 -0.45827866 -0.4836883 0.57455057 -0.337997 0.11923349 -0.5280858 -0.37069446 0.6628055 -0.014023205 -0.6829146 -0.6655342 0.4387835 -0.6591627 -0.30613992 -0.37102747 0.24007909 -0.11749089 -0.12563531
said -1.4668186 -1.6867917 0.75344557 -0.51643395 -1.7686528 0.62009436 0.1956688 -0.20507444 0.19302799 -0.56858057 -0.63182604 1.2135777 -0.96862227 -0.37201235 1.9048367 0.9528084 -0.25530756 0.8799799 -0.5107372 0.22639662 -0.82856524 0.09228687 0.18464679 -0.569494 0.31391823 1.2809424 0.3098096 0.9909616 0.4866349 0.15197688 -0.16511399 0.39637357 -0.42166817 -0.82331145 1.0694153 -0.09543617 -0.13339397 -0.18612795 -1.2270097 1.1634516 0.34376436 -0.5794151 -1.0533155 0.5554885 -1.6489953 -0.99956304 -0.5800658 0.29994962 -0.004728606 -0.40654218
on -1.1822306 -2.0640683 0.6955774 -0.8413404 -1.9176816 1.0167718 -0.7353984 -0.07665183 0.061399072 -0.77878624 -0.82536286 1.18557 -1.9074353 -0.45886898 1.7471883 0.96683997 -0.33902586 0.9131856 -0.81525433 0.69668436 -0.6750647 -0.30479226 0.7143799 -0.18991649 0.016413346 1.5550743 0.42538184 0.86491525 0.7125003 -0.017038666 -0.015409239 0.61147964 -0.4800819 -0.92761934 1.165631 -0.41215074 -0.115874484 -0.9819068 -0.9503415 1.3445796 0.05610386 -1.0131756 -1.2042382 0.860124 -1.9968514 -0.88542545 -0.52709305 0.26026583 -0.11903112 -0.5118028
Thursday -0.7157143 -0.8033544 0.85076034 0.06113386 -1.4533607 1.333507 -0.5824217 0.1051387 -0.2246504 -0.18013738 -0.20410019 0.99479645 -0.6703482 -0.69967103 1.5688056 1.1479752 -0.343821 0.49540082 -0.6818777 0.01970016 -0.18487807 -1.0921581 -0.24964571 -0.32471678 -0.3534163 1.0093993 0.051172264 0.3536475 -0.012334983 -0.59838057 -0.054426435 0.744431 -0.29718405 -0.9487125 0.8486336 -0.37484303 -0.012625216 -1.1056684 -0.66897124 1.1233532 0.024487326 -0.86525035 -0.6131114 1.191371 -1.8354177 -0.8111886 -0.28825212 0.6625176 -0.20276764 -0.581184
it -1.2163072 -2.4693866 0.72878 -0.80118537 -1.570232 0.44041553 -0.04705168 -0.27189052 0.3906758 -0.7951915 -0.8262284 1.170144 -1.7223173 -0.1225631 2.0108714 0.8081404 -0.35668376 1.0592527 -0.6541368 0.61562914 -0.88591963 0.16483486 0.72474533 -0.60298765 -0.29556072 1.3917642 0.37557715 1.1646756 0.40281627 0.15165779 -0.056394223 0.7179855 -0.4274673 -0.72950053 0.8916041 -0.019813381 -0.16454226 -0.18647552 -1.411406 0.8911915 0.5652669 -1.1939728 -1.0685592 0.27229026 -1.9670657 -0.93707836 -0.40823984 0.16050756 -0.025270661 -0.33018488
with -0.72561437 -1.1979951 0.19079576 -0.59831727 -0.80992526 0.42110395 -0.34507596 -0.12397469 -0.1761427 -0.39395675 -0.45506898 0.44495443 -1.3225065 -0.062763624 0.9661074 0.2301136 -0.06515425 0.38375255 -0.2162955 0.24719019 -0.13786864 0.045775414 0.6032205 0.02598332 0.20315686 0.7282238 0.24312815 0.5438853 0.4521839 0.39339396 0.0040558707 -0.07764182 -0.47297326 -0.5181093 0.5667133 -0.3280667 0.19707136 -0.3447943 -0.46363497 0.71037537 0.017829178 -0.91108555 -0.8886357 0.41665217 -0.6400485 -0.21985926 -0.45047188 0.09332692 -0.17173566 -0.019854901
advice -0.40674835 -0.6043215 0.16743448 -0.21309471 -0.5729747 0.33771235 -0.14800143 -0.04986822 -0.07843001 -0.21924818 -0.22891796 0.2973301 -0.6251589 -0.13104859 0.6080351 0.23055701 -0.041712698 0.2504742 -0.21095423 0.13672853 -0.106559426 -0.084426 0.21508825 -0.0699006 0.07907414 0.38714764 0.1301349 0.28089365 0.22024308 0.120440006 -0.027698291 0.06918659 -0.30078366 -0.31827012 0.37432775 -0.18719801 0.086841635 -0.2768625 -0.28198832 0.42491943 0.016648656 -0.45076677 -0.44062114 0.24654253 -0.42146322 -0.21021117 -0.25540185 0.14035039 -0.06794629 -0.06676558
consumers -0.66525346 -1.1160805 0.2843765 -0.41994852 -0.91163826 0.53497446 -0.26428014 -0.08721161 -0.104105696 -0.38185567 -0.4155481 0.4960361 -1.1236559 -0.17128904 1.0238261 0.37011626 -0.108835764 0.44521338 -0.33471662 0.2671125 -0.19517615 -0.11062997 0.4219242 -0.10369919 0.07667986 0.6878732 0.21722828 0.48894325 0.36233327 0.20354375 -0.04741038 0.14126596 -0.4707035 -0.5206845 0.59187305 -0.29805192 0.13158338 -0.43081722 -0.5026724 0.6960022 0.049076203 -0.80865705 -0.75465196 0.41257823 -0.775496 -0.34292418 -0.4026422 0.17736572 -0.12134893 -0.10279913
until -0.48901355 -0.69487 0.16354781 -0.24779604 -0.64864916 0.45862547 -0.21001141 -0.074444555 -0.24346876 -0.24463613 -0.28230873 0.29620525 -0.841478 -0.15079723 0.7082175 0.20961839 -0.010099245 0.24575137 -0.19303963 0.09870215 -0.011481348 -0.118560605 0.323598 0.014967199 0.16320518 0.41959742 0.117094 0.2913975 0.27196023 0.24047853 -0.017243547 -0.055987526 -0.45069423 -0.41804418 0.46623185 -0.31947386 0.22286518 -0.40634537 -0.27641732 0.579059 -0.05511105 -0.6866623 -0.6026122 0.3966561 -0.35504872 -0.16439226 -0.3889239 0.17861511 -0.14047617 -0.012395997
scientists -0.48860523 -0.6891065 0.1687186 -0.2489693 -0.67361856 0.45026535 -0.20450346 -0.052770168 -0.16563112 -0.25205746 -0.2700373 0.32126433 -0.788231 -0.16552447 0.71170706 0.24696268 -0.033909213 0.2686835 -0.23286079 0.14366414 -0.06029813 -0.12699573 0.27844366 -0.027289 0.13248824 0.4350721 0.14614032 0.3055042 0.2780156 0.18530312 -0.036007054 0.025142346 -0.41868597 -0.4011501 0.4632068 -0.28314087 0.15767394 -0.38136357 -0.28634387 0.5478336 -0.019201448 -0.5992486 -0.56240314 0.34481558 -0.423462 -0.20547684 -0.33948246 0.17143342 -0.110258065 -0.054386627
determine -0.5049862 -0.742195 0.16542752 -0.2714772 -0.6840439 0.44080707 -0.20345604 -0.080536254 -0.20465456 -0.269821 -0.29391488 0.3238722 -0.856703 -0.14381248 0.7326753 0.22666503 -0.019821228 0.273443 -0.22107388 0.12902898 -0.052737717 -0.10894393 0.32300508 -0.0108905565 0.15728565 0.4395241 0.13945101 0.32260552 0.28419814 0.22740301 -0.025050571 -0.016515186 -0.4540716 -0.42204186 0.48322034 -0.3044218 0.19525586 -0.39564157 -0.3035987 0.5777019 -0.032335658 -0.6747539 -0.60822165 0.3626764 -0.39961317 -0.18441252 -0.3813613 0.17148864 -0.12872167 -0.022222484
whether -0.6545052 -1.2070228 0.25859606 -0.44704425 -0.88553137 0.4567691 -0.21902123 -0.12938584 -0.075903356 -0.41704276 -0.4721931 0.47836533 -1.1567523 -0.13070863 1.0647223 0.33336043 -0.088283256 0.46613428 -0.32647866 0.2584754 -0.23130094 -0.06548583 0.4825041 -0.1390217 0.038591772 0.66557837 0.24026348 0.5332272 0.37551847 0.24590483 -0.03483989 0.123654574 -0.47350088 -0.4879706 0.5720089 -0.2852582 0.14461565 -0.35740322 -0.56691885 0.6736061 0.08223153 -0.84526736 -0.7676082 0.3466077 -0.7534614 -0.33948213 -0.43234125 0.16817708 -0.13414651 -0.08608624
mad -0.82715356 -1.5040635 0.3905785 -0.5915848 -1.0801413 0.5323433 -0.2811188 -0.1277038 -0.045333087 -0.5091612 -0.5669943 0.6380331 -1.385616 -0.11166026 1.3353424 0.4478058 -0.1925658 0.5796138 -0.3702344 0.32059118 -0.3363804 -0.07934966 0.57390803 -0.1835152 -0.021932697 0.95427245 0.2783585 0.6966035 0.39034906 0.21178913 -0.025021786 0.19216834 -0.4564722 -0.59153366 0.6439014 -0.27412513 0.082126394 -0.36088648 -0.73130673 0.80936944 0.12814681 -1.0055954 -0.917069 0.45588177 -1.1482173 -0.47425583 -0.43134952 0.13724591 -0.16494979 -0.14756656
cow -0.8902196 -1.5063981 0.38064784 -0.5877274 -1.1287501 0.5959349 -0.29666597 -0.13939224 -0.09946178 -0.5008322 -0.5609911 0.6417672 -1.4633977 -0.15530822 1.3386984 0.46201995 -0.15602858 0.57870835 -0.3822458 0.3419771 -0.28659815 -0.052558724 0.5909561 -0.13852954 0.07116018 0.91635454 0.2566232 0.67544794 0.4388061 0.28395608 -0.05440012 0.15127027 -0.55984807 -0.64179456 0.7334609 -0.33756396 0.1399873 -0.46061713 -0.7023092 0.8534058 0.10874938 -1.054468 -0.991487 0.49361184 -1.0336467 -0.43761328 -0.4823463 0.18415909 -0.1390156 -0.13103603
disease -0.5808772 -0.9942392 0.23588547 -0.3840425 -0.7349324 0.38447657 -0.20143327 -0.09598316 -0.07655805 -0.33230716 -0.36499405 0.4088673 -0.9742389 -0.10583557 0.87262297 0.28086594 -0.095123395 0.37703368 -0.25236025 0.22168812 -0.17796774 -0.032968994 0.39815196 -0.08311489 0.05314194 0.594941 0.1880589 0.44896942 0.29415447 0.2053232 -0.029796606 0.09777012 -0.3791061 -0.41606477 0.47422612 -0.22089222 0.10346024 -0.3054903 -0.44741592 0.5625085 0.06550695 -0.70592123 -0.65230757 0.31610456 -0.65958834 -0.27899772 -0.3270134 0.11689779 -0.10434389 -0.078136586
can -1.1253743 -1.8885586 0.47230634 -0.667319 -1.4950961 0.86759377 -0.3535349 -0.12831603 -0.08204172 -0.6699831 -0.73922783 0.80020124 -1.7845198 -0.24534391 1.8369515 0.620845 -0.19093981 0.7672981 -0.49671587 0.35778552 -0.37304047 -0.14436984 0.72069466 -0.26105282 0.103892066 1.1098727 0.34955862 0.87718904 0.5587722 0.33706394 -0.07975655 0.18258214 -0.7577983 -0.8428728 0.98093635 -0.45325044 0.2161483 -0.6126213 -0.961247 1.1350133 0.15474181 -1.3273822 -1.2826601 0.6160311 -1.2926499 -0.5802657 -0.69019413 0.28945154 -0.17691408 -0.19782047
be -0.84408855 -2.8703427 0.5224976 -0.7884072 -1.2894903 0.19110954 0.10981455 -0.36024767 0.63394094 -0.9806885 -1.1869655 0.8014887 -2.0657928 0.152567 2.0416443 0.35226613 -0.42183512 1.2253225 -0.51729673 0.5736648 -0.74003464 0.24505639 1.3008747 -0.8549975 -0.62088615 1.2102102 0.32707393 1.1782343 0.54238373 0.3445841 -0.11727025 0.51264215 -0.5651415 -0.47636852 0.71446896 -0.09128024 0.11002383 -0.035612278 -1.6956406 0.6503102 0.6691967 -1.5705988 -1.1055222 -0.036372192 -1.7060356 -0.70563865 -0.60309976 0.008291569 -0.025761973 -0.15646802
sheep -0.27408987 -0.42828447 0.09707791 -0.15562412 -0.34792596 0.19910918 -0.08505359 -0.05666186 -0.08307913 -0.14490364 -0.16738728 0.18530287 -0.45191014 -0.053977538 0.4039427 0.11920718 -0.01628814 0.14810333 -0.111410886 0.074283324 -0.05480944 -0.019639025 0.18251427 -0.019479157 0.06533332 0.24377538 0.07137665 0.18823491 0.139197 0.13101266 -0.009580758 0.009940966 -0.20919727 -0.20758052 0.24502333 -0.12791769 0.08694281 -0.16212276 -0.18564834 0.28988972 0.016608251 -0.35675517 -0.31926048 0.16951711 -0.24803439 -0.11797141 -0.18137726 0.07729106 -0.0615984 -0.010142114
Germany -0.17500222 -0.36030918 -0.116309784 0.065136544 -1.0102254 0.9495357 -0.21032408 -0.023832608 -0.3456913 -0.33985737 -0.46227762 0.013094187 -0.82919306 -0.37125617 0.8608654 0.11381453 0.1766859 0.2240946 -0.29983714 -0.14603226 0.2777609 -0.5696415 0.36673748 -0.12740599 0.33635658 -0.055304788 0.10993467 0.038347285 0.5659277 0.33664432 -0.102375604 -0.35620987 -0.9631695 -0.46862188 0.72239137 -0.7951094 0.6029083 -0.84567624 -0.21419424 0.824014 -0.29694822 -0.7679732 -0.69814104 0.43486795 0.37280658 0.032451004 -0.8041836 0.5310923 -0.21305752 0.043727476
's -0.7902283 -0.72338265 0.090110645 -0.28188288 -1.0071354 0.7763591 -0.27710354 -0.12482318 -0.56898713 -0.35740304 -0.3533775 0.36567807 -1.1872463 -0.3281852 0.9691551 0.26684895 0.12876515 0.2799886 -0.17407715 0.018863827 0.1927735 -0.19209297 0.41950682 0.13128133 0.5439234 0.51273245 0.21946204 0.34714165 0.5070118 0.49596757 -0.04254944 -0.35729817 -0.87325937 -0.6524954 0.78396845 -0.62847865 0.49225545 -0.6899944 -0.21718492 0.96844566 -0.24183965 -0.9985633 -0.9116398 0.6352737 -0.11473291 -0.106042184 -0.705328 0.37812907 -0.26351005 0.037140764
representative -0.54397446 -0.89720505 0.22199948 -0.34504417 -0.7383038 0.43409127 -0.22608499 -0.06847804 -0.09314331 -0.31371644 -0.33858132 0.39118928 -0.91950226 -0.136051 0.83000165 0.29233077 -0.08801948 0.3481279 -0.26318732 0.21443331 -0.14717506 -0.092517875 0.35100693 -0.07594736 0.058903683 0.56770045 0.18127514 0.40530077 0.29180712 0.16893774 -0.030524382 0.09762859 -0.38336006 -0.42073673 0.47459203 -0.24090174 0.109304726 -0.35084748 -0.39597952 0.5590586 0.038023442 -0.6667217 -0.62097275 0.33683178 -0.6291093 -0.26954272 -0.32601175 0.14267498 -0.10446174 -0.083259396
the -1.0050701 -1.7698028 0.40415224 -0.72579354 -1.0235139 0.55937773 -0.33843142 -0.11124601 -0.045018665 -0.53847355 -0.45921683 0.75839907 -1.6239833 -0.26993704 1.2648431 0.6501921 -0.13293467 0.6985958 -0.5942474 0.7088348 -0.45856348 0.037138224 0.55270725 -0.10108618 -0.07065616 1.0076215 0.6160112 0.86917 0.36904505 0.19210778 0.023431791 0.59951264 -0.5549903 -0.6491619 0.7571374 -0.19969411 -0.03885761 -0.39868638 -0.58677113 0.7086143 0.20906375 -1.1247408 -0.8861965 0.18790027 -1.2824323 -0.59898937 -0.2995922 0.24246974 -0.132584 -0.19926402
Union -0.5572192 -0.9121979 0.2313075 -0.4013043 -0.93096334 0.6609868 -0.43368724 -0.04257234 -0.18766999 -0.32718143 -0.3729861 0.44250867 -1.0951369 -0.24362071 0.8198923 0.39151332 -0.09519991 0.33526137 -0.3774272 0.3094245 -0.11334097 -0.24001314 0.38818946 0.031540353 0.114885174 0.6370807 0.20796283 0.35482317 0.39246097 0.14252625 -0.04550215 0.16398929 -0.47988 -0.5037572 0.59541935 -0.38509053 0.11224433 -0.6419345 -0.29776007 0.70477074 -0.06283502 -0.72209436 -0.7242462 0.49425614 -0.70269495 -0.29832137 -0.3628296 0.23443879 -0.13224787 -0.13353388
veterinary -0.46557835 -0.6364217 0.15031283 -0.23703186 -0.6288921 0.429413 -0.19901331 -0.06378906 -0.21175876 -0.23669828 -0.2523175 0.29195967 -0.7761037 -0.14992306 0.65923756 0.21337014 -0.010451884 0.23375426 -0.20832087 0.11836861 -0.02128114 -0.12027096 0.2728528 0.005547695 0.15957141 0.40627605 0.13503003 0.2793688 0.26547277 0.20495655 -0.026322912 -0.019596493 -0.42413685 -0.39423415 0.44577637 -0.29168555 0.18692051 -0.383782 -0.24446267 0.540892 -0.04717496 -0.6046002 -0.55320376 0.34974644 -0.34982878 -0.1657848 -0.35170215 0.17098998 -0.12304901 -0.027048226
committee -0.50585526 -0.80861205 0.21958765 -0.3020395 -0.65149957 0.3620501 -0.1776468 -0.06901268 -0.074895285 -0.26926237 -0.29444978 0.37517196 -0.8038046 -0.114197835 0.75092834 0.26827565 -0.08130031 0.3170137 -0.22626679 0.1770955 -0.1502729 -0.06006336 0.29977202 -0.07428199 0.056604654 0.51088 0.14604956 0.36570257 0.24342093 0.147714 -0.03220028 0.08958875 -0.3250528 -0.37900832 0.42453974 -0.19788788 0.08263448 -0.29651907 -0.3747948 0.4913367 0.04407983 -0.5844471 -0.54683894 0.30401683 -0.57837486 -0.25562873 -0.28428903 0.12176826 -0.08076138 -0.08020332
Wednesday -0.66082376 -0.746498 0.77846014 0.032117918 -1.3480505 1.2448833 -0.5883301 0.08266462 -0.28028476 -0.17449637 -0.20895079 0.9036781 -0.69200206 -0.63640636 1.4437492 1.0384351 -0.31607097 0.4325839 -0.63173896 0.004174339 -0.13061106 -1.0497525 -0.20949471 -0.2597185 -0.31262392 0.9355628 0.044123538 0.3207014 0.006984739 -0.5322553 -0.05183713 0.6441879 -0.30558586 -0.8884029 0.7875203 -0.38491994 0.022389045 -1.0715954 -0.598019 1.0767634 -0.026957624 -0.8607751 -0.5981936 1.1598276 -1.68105 -0.7176491 -0.29113904 0.6160706 -0.22436184 -0.51125926
should -0.78958035 -1.550062 0.3923962 -0.5510793 -0.76897705 0.2876699 -0.12413671 -0.21564807 -0.049170587 -0.5029696 -0.58022386 0.5673798 -1.2896919 0.05084013 1.3156639 0.2884549 -0.12695312 0.5362509 -0.12619562 0.10550057 -0.35435015 0.14635405 0.6958578 -0.1523409 0.013491002 0.765352 0.08630927 0.68784016 0.22077563 0.3340402 0.0057296855 -0.009650549 -0.3559897 -0.51423645 0.5517545 -0.14956434 0.15455374 -0.13274547 -0.89949846 0.7032404 0.2264912 -1.0971943 -0.95604324 0.37024435 -0.93154335 -0.33127508 -0.43510863 0.0039681355 -0.15732488 -0.005211236
buy -0.3183896 -0.58135945 0.12555839 -0.22222003 -0.4117885 0.21020862 -0.10959436 -0.06104127 -0.05598738 -0.19317277 -0.22360477 0.22605523 -0.56199133 -0.045004044 0.50365865 0.15800552 -0.055821117 0.20566992 -0.13703917 0.11681443 -0.09927585 -0.01622651 0.23991023 -0.047097635 0.023460878 0.32331485 0.09408331 0.24971285 0.17294374 0.13320155 -0.011074996 0.040050086 -0.21615608 -0.24029125 0.26825112 -0.12556432 0.084812544 -0.16847733 -0.262358 0.30711693 0.04364065 -0.41863158 -0.3766758 0.17128828 -0.35385224 -0.15746473 -0.20389484 0.06981332 -0.06560066 -0.028838405
from -0.60228825 -0.9727764 0.04131189 -0.5016735 -0.7536635 0.51363987 -0.40614015 -0.09973164 -0.27762797 -0.33889186 -0.42009336 0.30546644 -1.2555232 -0.08949644 0.7735515 0.15077068 -0.004512265 0.2627472 -0.18065841 0.24878289 0.023613028 -0.020324672 0.58531874 0.16105974 0.25332657 0.60363096 0.19826666 0.39256456 0.4480238 0.4293336 -0.018820591 -0.14577442 -0.5560596 -0.48805943 0.51111627 -0.42820808 0.2831887 -0.49693215 -0.24409975 0.6783483 -0.06189414 -0.8888897 -0.8615877 0.45688564 -0.39647484 -0.116035625 -0.46622115 0.1354707 -0.16582194 -0.0023160598
countries -0.67238927 -1.1713074 0.26353675 -0.4744349 -0.90705425 0.5336248 -0.30505967 -0.08375116 -0.08314016 -0.4010987 -0.44891393 0.48297077 -1.1848388 -0.1559328 1.0368221 0.3635149 -0.11620378 0.4541381 -0.33146 0.28980124 -0.20094678 -0.09900428 0.47267085 -0.092047326 0.061464425 0.6989849 0.23523675 0.5074568 0.3823748 0.20660149 -0.04463176 0.12999263 -0.4511472 -0.52149385 0.58588004 -0.3032836 0.11830186 -0.4365741 -0.5101534 0.67497563 0.04697595 -0.82419467 -0.7876943 0.39832857 -0.792616 -0.33365834 -0.39122102 0.16557282 -0.11567363 -0.11968397
other -0.766702 -1.333083 0.31507748 -0.51602966 -0.97255135 0.52867264 -0.27444786 -0.112433895 -0.07336246 -0.43827215 -0.47292382 0.56064004 -1.2758752 -0.1625774 1.1472672 0.4165994 -0.117018454 0.52315766 -0.38470072 0.34638804 -0.28343278 -0.06905438 0.48466247 -0.1334704 0.04507907 0.7747238 0.29680818 0.6072951 0.40965456 0.23691157 -0.045032796 0.2165216 -0.49917588 -0.5497204 0.6299011 -0.2829103 0.10608279 -0.39819717 -0.58330035 0.7322433 0.10384992 -0.89213234 -0.83178324 0.3719322 -0.9128388 -0.4099301 -0.4276852 0.1723034 -0.12313065 -0.12871872
than -0.89728814 -1.6315551 0.26322034 -0.63197815 -1.0979617 0.57216746 -0.26491624 -0.17477775 -0.116294116 -0.5671613 -0.5830376 0.6133047 -1.5341258 -0.15679227 1.3397336 0.4230133 -0.10344942 0.59647965 -0.38944045 0.3422185 -0.2880822 0.011546254 0.6565079 -0.13980168 0.12505545 0.8568115 0.350912 0.72767186 0.44953954 0.36091277 -0.021816226 0.12801331 -0.6340057 -0.6191213 0.74111944 -0.33078802 0.20491728 -0.41108477 -0.67933387 0.83018965 0.1251058 -1.1263309 -0.997539 0.3835861 -0.882782 -0.42506093 -0.55763006 0.17672956 -0.1542546 -0.08107374
Britain -0.34094384 -0.5076952 -0.010908167 -0.062298816 -0.98488235 0.8686971 -0.2637574 -0.058627285 -0.4059512 -0.3281084 -0.4213558 0.15153357 -0.96024626 -0.33595666 0.8687377 0.1571828 0.12427394 0.23183087 -0.30333346 -0.06457277 0.22514601 -0.4748881 0.38724214 -0.042692497 0.33723682 0.14962414 0.11194619 0.12924112 0.51267266 0.34782147 -0.07685219 -0.29686365 -0.8967874 -0.52488816 0.7237291 -0.716873 0.5344297 -0.8103634 -0.21585761 0.8497763 -0.26678556 -0.8543707 -0.76052517 0.5187475 0.1428446 -0.033954293 -0.7374992 0.4606088 -0.22110243 0.048414603
scientific -0.39866757 -0.5611675 0.1307485 -0.20372118 -0.55023736 0.36541298 -0.16152899 -0.04764185 -0.14982152 -0.20750822 -0.23115829 0.25769413 -0.6555494 -0.1276924 0.57925373 0.18934238 -0.020988317 0.21560057 -0.18452153 0.10849292 -0.039915398 -0.099345826 0.24165805 -0.018103955 0.11980399 0.34802058 0.11191269 0.24810407 0.22905564 0.16744693 -0.027289895 -0.0028891908 -0.3542214 -0.3290216 0.3819913 -0.24257065 0.14400461 -0.3136406 -0.23415887 0.45686808 -0.026652962 -0.5046648 -0.47280613 0.2867086 -0.3174839 -0.1571207 -0.29068375 0.14163905 -0.096791945 -0.029153133
was -0.9898836 -1.875138 0.47483352 -0.7876082 -1.1372184 0.31900558 -0.18192656 -0.21946755 0.08250445 -0.64003295 -0.75116146 0.7778722 -1.531726 0.047787648 1.5534242 0.5060297 -0.25942537 0.7025916 -0.2806423 0.3339332 -0.5460921 0.11866641 0.7119543 -0.20600592 -0.057943497 1.1759341 0.357893 0.9282694 0.40365884 0.29184344 -0.0109542515 0.21981694 -0.33009073 -0.5889533 0.6290173 -0.1229471 -0.007984549 -0.063365415 -1.0365913 0.84553194 0.26047972 -1.0909603 -1.0927641 0.42574915 -1.4970672 -0.6092033 -0.36681804 0.0700753 -0.19807117 -0.15879144
" -1.6917557 -2.0817504 1.0197852 -0.614339 -2.0517848 0.71834624 0.2642897 -0.17792071 0.5041331 -0.7115709 -0.6031882 1.5554187 -1.0753325 -0.45952505 2.2962108 1.2781591 -0.40860832 1.1206529 -0.6685041 0.47381642 -1.144513 0.15774322 0.17148642 -0.7786887 0.09625238 1.5408249 0.42224586 1.2403207 0.4100618 -0.01513296 -0.16116703 0.7902765 -0.29253057 -0.91276985 1.2349658 0.07826647 -0.40539783 -0.14718337 -1.5080372 1.145082 0.61111385 -0.5586062 -1.0746094 0.4218998 -2.3032217 -1.3472404 -0.38060266 0.33953023 0.12578326 -0.6486522
We -0.73357177 -0.8492181 0.4113209 -0.2082222 -0.8795111 0.41961667 0.027590416 -0.13941431 -0.06284596 -0.24709895 -0.22634369 0.645498 -0.6405849 -0.2524642 0.95543355 0.47730955 -0.10404906 0.42322147 -0.3291049 0.12940747 -0.32932386 -0.046279628 0.09209452 -0.2538211 0.093046255 0.60512626 0.074303254 0.4510765 0.15738018 0.07052029 -0.06732775 0.2304946 -0.33607033 -0.4829441 0.5740935 -0.11326524 0.02312532 -0.2929232 -0.53575647 0.6341436 0.16931963 -0.52043986 -0.52070504 0.36345628 -0.79261845 -0.46545365 -0.32549396 0.18740782 -0.031325694 -0.17002682
do -0.81317174 -1.5866205 0.36754242 -0.58297545 -0.9542545 0.30804068 -0.063487336 -0.23317018 0.015335106 -0.5513275 -0.6037486 0.6156521 -1.3313639 -0.019453103 1.2969182 0.3717171 -0.19645357 0.60448575 -0.26274475 0.2577774 -0.4019531 0.14477171 0.63216424 -0.22182584 -0.043280378 0.85888904 0.22626819 0.7265629 0.32110924 0.3221778 -0.017656121 0.13802472 -0.40328187 -0.479502 0.5932724 -0.15772904 0.09236942 -0.13666788 -0.8278786 0.6867467 0.24956368 -1.016993 -0.89543355 0.31761214 -1.0278543 -0.46469742 -0.40966472 0.07211585 -0.141244 -0.07944603
n't -0.60618925 -1.0365523 0.20729992 -0.34493187 -0.67197895 0.26294833 -0.06453167 -0.1947421 -0.16544719 -0.35212073 -0.36576384 0.4032013 -0.97943556 -0.053945124 0.8751356 0.1812351 -0.046308547 0.36239678 -0.14349334 0.12561338 -0.15506436 0.11762207 0.46517605 -0.09502852 0.109582424 0.53904784 0.084269956 0.46208403 0.21376537 0.34686592 0.022456894 -0.051826682 -0.3964158 -0.4323542 0.47725457 -0.19638155 0.17046382 -0.19051501 -0.5004967 0.5572516 0.12533017 -0.81673145 -0.67281073 0.2806564 -0.50787586 -0.21587919 -0.39368767 0.06364482 -0.13031645 0.0006771311
support -0.60836536 -0.9895691 0.24463701 -0.37761766 -0.83556986 0.50785977 -0.2630937 -0.08087547 -0.15343572 -0.33357915 -0.37872717 0.42686346 -1.0584686 -0.16221486 0.9206556 0.32072204 -0.08586353 0.3799515 -0.29095858 0.22350411 -0.13166995 -0.12044658 0.4008209 -0.060850736 0.08858406 0.6155888 0.19541991 0.43435815 0.33428282 0.21242096 -0.031243213 0.080974974 -0.47076404 -0.4897308 0.5499071 -0.3010786 0.15367708 -0.42697904 -0.41808867 0.65184814 0.016891526 -0.791092 -0.71172416 0.4093623 -0.65956795 -0.28786895 -0.38320318 0.17114805 -0.13633113 -0.076336764
any -0.4601013 -1.013624 0.15913628 -0.29335007 -0.86078846 0.517793 -0.17285694 -0.09418479 -0.030877275 -0.40960687 -0.49855348 0.3381979 -0.9986634 -0.14012936 1.0125693 0.2758374 -0.04362678 0.4265659 -0.2956726 0.14332311 -0.15345822 -0.14445706 0.46183723 -0.21093164 0.03360587 0.4520058 0.19115658 0.40477037 0.38525423 0.22533986 -0.04368167 0.03555944 -0.51877373 -0.4162056 0.54749596 -0.35054564 0.22255902 -0.3857836 -0.54614455 0.61664647 0.061541356 -0.76402694 -0.6962188 0.2711549 -0.4924524 -0.24350922 -0.45921016 0.22536257 -0.11882325 -0.071798936
such -0.6679459 -1.0733953 0.23918357 -0.41630858 -0.8585338 0.49247777 -0.26287878 -0.12008226 -0.2017819 -0.37163964 -0.3963434 0.44681713 -1.1636595 -0.14976525 0.95860445 0.30392453 -0.061127428 0.38457116 -0.294805 0.23733711 -0.1362908 -0.09063799 0.46195373 -0.051850032 0.13219151 0.63344866 0.21097253 0.47294605 0.35553762 0.2720141 -0.03035907 0.054502092 -0.52692384 -0.5166143 0.5924019 -0.31489587 0.20018873 -0.44087344 -0.44884798 0.6995013 0.010130193 -0.8787747 -0.7737915 0.41877234 -0.6477623 -0.2738447 -0.4331784 0.17663567 -0.16059266 -0.043882135
because -0.6619057 -1.3117155 0.25883034 -0.48467636 -0.8621035 0.40323287 -0.19839326 -0.1454632 -0.030050365 -0.4503263 -0.51784563 0.47889423 -1.2114302 -0.07435781 1.1006116 0.302656 -0.11150482 0.49347273 -0.29504648 0.2594119 -0.25643557 -0.006088358 0.5603382 -0.16227983 0.015523559 0.7107745 0.21912368 0.5716117 0.36009482 0.2622772 -0.030417057 0.0986896 -0.44089678 -0.46861118 0.5501984 -0.24820928 0.1387808 -0.3028227 -0.6342655 0.63768244 0.11835912 -0.88605344 -0.7879842 0.31747878 -0.7981307 -0.3264487 -0.41963482 0.117836475 -0.11579627 -0.06837038
we -0.8765855 -1.7380064 0.43316042 -0.6052901 -1.0033685 0.3762281 -0.1686648 -0.21329042 0.07586139 -0.54173607 -0.5959173 0.7123709 -1.4158467 -0.06156738 1.3985802 0.45535776 -0.16756342 0.670711 -0.37561122 0.33737278 -0.43796763 0.059805747 0.6245278 -0.28717947 -0.106043905 0.9290022 0.24485525 0.7765883 0.36120355 0.2576853 -0.04562422 0.25873291 -0.40906337 -0.5520475 0.6219101 -0.14129208 0.038547404 -0.24932624 -0.89216375 0.71397257 0.27722374 -1.0561032 -0.9085698 0.33977392 -1.201122 -0.49423254 -0.41158295 0.09461058 -0.0975867 -0.14502767
see -0.5874514 -1.115779 0.21532562 -0.4548317 -0.78800744 0.4517309 -0.28950578 -0.10629542 -0.124971166 -0.38884026 -0.41823083 0.40536442 -1.172887 -0.11270513 0.9438311 0.2829732 -0.08152684 0.41038814 -0.29019257 0.25589126 -0.15224318 -0.094211526 0.48044518 -0.051191103 0.05691721 0.60954136 0.2095048 0.46776232 0.35608086 0.24344616 -0.024143113 0.07427747 -0.45659304 -0.4671312 0.5306774 -0.2887171 0.17011046 -0.41560477 -0.45970628 0.6387801 0.018913973 -0.8343009 -0.73546 0.37642974 -0.6786394 -0.2508172 -0.3881505 0.14260119 -0.14013292 -0.044207312
grounds -0.510322 -0.80429184 0.15394096 -0.3092491 -0.83683527 0.63345724 -0.34614772 -0.056169666 -0.25745857 -0.30784023 -0.3512883 0.33613238 -1.0329741 -0.226855 0.8211827 0.28161308 -0.032574568 0.29935145 -0.29731548 0.16587077 -0.007473964 -0.25357208 0.37443936 0.02660526 0.1650975 0.48855186 0.1808599 0.31459782 0.3687032 0.22277966 -0.036565173 -0.0045579467 -0.5461921 -0.49523893 0.5796138 -0.42801484 0.233827 -0.57911134 -0.27704832 0.7019363 -0.10242993 -0.7795132 -0.7143032 0.47250977 -0.45900512 -0.19854166 -0.44804773 0.25660563 -0.17109485 -0.060458846
for -0.80821675 -1.497598 0.17607796 -0.83343935 -0.8243295 0.3880718 -0.5056104 -0.13600078 -0.115527354 -0.46366176 -0.5529619 0.49947587 -1.6212931 0.012447084 1.0192473 0.24001756 -0.13140462 0.4586119 -0.26788276 0.4426051 -0.21164903 0.13758995 0.77676487 0.1115501 0.11992972 0.92611045 0.33986664 0.6707888 0.5425012 0.4146116 0.006163646 0.03813052 -0.4238233 -0.5444163 0.5347275 -0.29564777 0.12236881 -0.31832823 -0.4936525 0.69105875 0.04033517 -0.9974349 -0.99028796 0.4166089 -0.91946024 -0.24922861 -0.38929698 -0.019779865 -0.17693469 -0.028313603
, -0.9809434 -1.5662044 0.3303484 -0.5196754 -1.625793 0.7822936 -0.114490956 -0.2465079 -0.05869955 -0.62633604 -0.79901004 0.80699235 -1.4345782 -0.3066641 1.7065789 0.55882263 -0.04240561 0.7043925 -0.50049233 0.17879394 -0.40646973 -0.1507581 0.5888957 -0.3200721 0.27863124 0.8545137 0.3074286 0.71583474 0.6526734 0.42997536 -0.073337525 0.060547706 -0.8281871 -0.7841306 0.99310124 -0.4796106 0.2655388 -0.49707496 -0.945264 1.2200464 0.08509682 -1.0124205 -1.1541072 0.52103996 -0.8953504 -0.5732641 -0.76995176 0.3649433 -0.22698773 -0.11845379
chief -0.47181588 -0.5900437 0.13177629 -0.22022997 -0.6122138 0.43803263 -0.19365482 -0.072503835 -0.26966906 -0.21504611 -0.23204497 0.26422712 -0.7780845 -0.15822156 0.6345896 0.18094929 0.01076923 0.20334835 -0.1838881 0.08965751 0.023197783 -0.105750084 0.27977276 0.02638234 0.20962575 0.3710662 0.11847872 0.26439556 0.2681128 0.2502469 -0.025919657 -0.07371808 -0.4622241 -0.40201202 0.45369443 -0.315814 0.23920083 -0.3911213 -0.20661958 0.5509453 -0.07095851 -0.6325275 -0.5635274 0.36947888 -0.2565131 -0.13728715 -0.38239697 0.17998227 -0.1352571 0.006359057
spokesman -0.72626686 -0.9596867 0.35353857 -0.28317606 -1.0161098 0.5664574 -0.13778247 -0.03692357 -0.009344406 -0.34540886 -0.34709746 0.59136784 -0.8380529 -0.2540499 1.0915263 0.48313987 -0.11217628 0.45967937 -0.36608297 0.21570602 -0.28404647 -0.11746286 0.22574458 -0.22390795 0.12656648 0.6729419 0.2165884 0.502483 0.32308924 0.10931111 -0.071783714 0.21376027 -0.42913514 -0.54663396 0.65035266 -0.24290414 0.05340004 -0.38572714 -0.54810643 0.69353664 0.11136781 -0.5965888 -0.67688435 0.36906785 -0.8301389 -0.45170444 -0.37888944 0.24972886 -0.052084703 -0.19599445
van -0.7398307 -0.9748252 0.22163104 -0.3061737 -1.091607 0.79079247 -0.29458562 -0.058327336 -0.2796381 -0.39122406 -0.42395034 0.46034646 -1.1624669 -0.31762394 1.1443357 0.37772036 -0.026141716 0.40071407 -0.3606597 0.16616036 -0.038682304 -0.25094208 0.4027741 -0.086322114 0.2664598 0.6066076 0.2238562 0.4446013 0.46112102 0.30625162 -0.07310964 -0.01805037 -0.7333457 -0.63618344 0.76310873 -0.51004565 0.30907014 -0.64781225 -0.42066073 0.893967 -0.05778601 -0.92092043 -0.88574535 0.54789656 -0.52523786 -0.29593387 -0.61285883 0.3366749 -0.16221686 -0.08250767
der -1.308584 -2.0537179 0.5410977 -0.7765563 -1.8270779 1.127377 -0.60957336 -0.15098727 -0.2965238 -0.7048574 -0.77092165 0.97853243 -2.153524 -0.38897818 1.938873 0.7621357 -0.18523522 0.81415254 -0.6762152 0.4881963 -0.3122637 -0.34746188 0.7578967 -0.13401233 0.1828704 1.3441107 0.43691868 0.9059849 0.7268452 0.35891172 -0.083307885 0.25989637 -0.9449388 -1.0520325 1.1872313 -0.64721316 0.27162182 -0.96257293 -0.8871476 1.4265614 0.0039030383 -1.5481299 -1.4604243 0.90717405 -1.4969566 -0.6524857 -0.8012525 0.40586066 -0.2751502 -0.23606767
told -0.9360265 -1.5215718 0.46081573 -0.5718541 -1.0530068 0.48508635 -0.19127823 -0.17453963 -0.040236253 -0.4501994 -0.5724232 0.7317381 -1.2767426 -0.101138614 1.3996285 0.47513974 -0.15405205 0.5929601 -0.3110219 0.2608317 -0.4153759 0.034060284 0.56516415 -0.19966339 0.052407693 0.97548014 0.19967885 0.7033954 0.3233741 0.2439684 -0.019621568 0.18865739 -0.37852904 -0.6232776 0.6845003 -0.17566694 0.092209436 -0.27140814 -0.8572207 0.8432486 0.18922168 -0.9335279 -0.9537447 0.51028275 -1.1846913 -0.5305269 -0.43567565 0.11147428 -0.14473899 -0.14361106
a -1.0403883 -1.9525361 0.47914058 -0.7769427 -1.2891086 0.68622255 -0.42505696 -0.14592814 -0.038163856 -0.6210151 -0.64435804 0.8307971 -1.7874025 -0.22088216 1.6020738 0.6575339 -0.20255369 0.74692184 -0.5198947 0.55258226 -0.45447826 -0.091765195 0.69062465 -0.17872424 -0.06238493 1.1724502 0.4200957 0.8781323 0.43716398 0.2267613 -0.051752187 0.44172952 -0.5997074 -0.74841857 0.8370951 -0.2914389 0.069578886 -0.5092577 -0.8599367 0.95088273 0.1789454 -1.2693148 -1.1015742 0.52319646 -1.5082453 -0.60236317 -0.43855023 0.1994705 -0.17684202 -0.22539863
news -0.7379179 -0.9879655 0.3074123 -0.35242045 -0.9929678 0.5863487 -0.26488417 -0.07418419 -0.19721322 -0.34102672 -0.3574226 0.56490815 -1.0353467 -0.22241178 1.0037717 0.42288697 -0.07452211 0.37767896 -0.3386909 0.21913652 -0.15950775 -0.14228784 0.3123462 -0.07208454 0.17346996 0.7103496 0.18557219 0.45778248 0.3422219 0.1873726 -0.056082178 0.10464108 -0.5067127 -0.5864721 0.6566643 -0.3317617 0.15221146 -0.47008097 -0.44379026 0.77618504 0.013161693 -0.7912465 -0.7703671 0.50083303 -0.74005276 -0.37459737 -0.42837736 0.23163475 -0.1455633 -0.112518854
briefing -0.53700876 -1.0071319 0.24589923 -0.425617 -0.7424108 0.42147744 -0.28024024 -0.0705472 -0.05367288 -0.32754618 -0.35654467 0.42382073 -0.9895966 -0.12050739 0.8490992 0.31978014 -0.11938352 0.36956203 -0.28779227 0.28540072 -0.19735327 -0.095035784 0.38168263 -0.06543892 0.009726089 0.6145092 0.21280223 0.43604752 0.2910857 0.14237444 -0.024095368 0.1650637 -0.32860482 -0.41858727 0.46461147 -0.20788184 0.06762921 -0.34641153 -0.42257544 0.55137306 0.0398653 -0.6769306 -0.61896664 0.33555102 -0.747531 -0.29617977 -0.2822743 0.11611897 -0.10481416 -0.10332151
He -0.82125735 -1.0032583 0.49698916 -0.26705498 -1.0409458 0.46530652 0.0056263953 -0.098535135 0.0010629594 -0.31034848 -0.24985726 0.7407853 -0.71268463 -0.2887905 1.0969834 0.58434933 -0.12883675 0.5064089 -0.38733196 0.21892819 -0.4118609 -0.019904524 0.09830513 -0.29243353 0.11406753 0.75110996 0.18425514 0.5630595 0.23008992 0.05759729 -0.04688371 0.334087 -0.33321095 -0.55097145 0.6817464 -0.10436458 -0.049618647 -0.3020434 -0.5996536 0.68918806 0.19869314 -0.50169617 -0.57869816 0.32201695 -0.96907115 -0.5785125 -0.3048567 0.24707283 -0.006294623 -0.24125788
further -0.5983495 -1.0029773 0.23007132 -0.38932207 -0.7811549 0.45165753 -0.22648664 -0.08970146 -0.11019667 -0.34115902 -0.37172234 0.42203483 -1.0246229 -0.14379703 0.88675624 0.30826753 -0.075272165 0.3856647 -0.2927555 0.24703941 -0.1693484 -0.07763896 0.39712632 -0.07433185 0.07422653 0.5924877 0.2315917 0.45536414 0.33586234 0.21511795 -0.030875336 0.11300746 -0.4381056 -0.4497505 0.5175833 -0.27092728 0.12989692 -0.36422828 -0.42609754 0.6016073 0.04221519 -0.74177706 -0.6720912 0.3316389 -0.64426136 -0.28974038 -0.36882675 0.16066854 -0.11968213 -0.082213245
study -0.3069393 -0.4761332 0.12434619 -0.18138906 -0.4013567 0.22580338 -0.094724245 -0.036546048 -0.040959742 -0.16291903 -0.17316477 0.21728942 -0.46598577 -0.07756123 0.44531962 0.17176251 -0.03941554 0.19262776 -0.13582411 0.11085443 -0.101075344 -0.033111475 0.17299427 -0.054692023 0.045797832 0.30449152 0.097766526 0.22120932 0.15229055 0.093713544 -0.019795272 0.055505503 -0.19441625 -0.21951003 0.26028123 -0.11357573 0.04606973 -0.16758524 -0.21252935 0.29185495 0.031641636 -0.33441728 -0.32253924 0.1728842 -0.33882016 -0.16277964 -0.17393644 0.08477103 -0.04263441 -0.05583859
required -0.6498108 -1.2662703 0.29078677 -0.46674532 -0.8411101 0.4024307 -0.2198018 -0.12035927 -0.023174725 -0.4222285 -0.48120916 0.48548487 -1.1554551 -0.07659506 1.0817214 0.31668377 -0.13198577 0.47957167 -0.3030666 0.26544324 -0.27905187 -0.037251677 0.49739 -0.16231677 -0.01601775 0.72726625 0.20633599 0.56149167 0.33555558 0.2082592 -0.034665857 0.15984908 -0.40561217 -0.4720779 0.5164756 -0.20152761 0.104285635 -0.2977219 -0.61733335 0.63961595 0.11957265 -0.83960354 -0.73573804 0.32819933 -0.8705867 -0.3463204 -0.37678546 0.10064469 -0.10984712 -0.10183321
and -0.46010736 -1.0207955 0.048348736 -0.450114 -0.77832407 0.54660326 -0.3649264 -0.07382419 -0.103723824 -0.39132032 -0.4878893 0.253689 -1.1979768 -0.1308499 0.8559747 0.16010307 -0.0064930446 0.34179685 -0.29041818 0.2457547 -0.045641176 -0.15353107 0.57294285 -0.05104478 0.121700585 0.45300347 0.26784417 0.38905048 0.5056457 0.3316316 -0.043960206 -0.059507966 -0.5628597 -0.43005008 0.53738713 -0.43428835 0.2773027 -0.47151265 -0.36888888 0.6066135 -0.068375885 -0.81555176 -0.773506 0.33102337 -0.35307166 -0.11845149 -0.5076125 0.18079904 -0.14655595 -0.004650545
if -0.5045968 -0.8143703 0.17285939 -0.29821837 -0.5862946 0.28671944 -0.12915409 -0.12274522 -0.14540778 -0.2728393 -0.31634718 0.33640566 -0.83906794 -0.06276777 0.72622013 0.17556292 -0.037008487 0.294253 -0.15728363 0.1284011 -0.10429755 0.009829507 0.36826888 -0.03225425 0.1027238 0.4591584 0.13304514 0.3651375 0.23053993 0.24560237 -0.008595736 -0.018546995 -0.344231 -0.36253634 0.41213003 -0.20738424 0.15162215 -0.22255439 -0.37241653 0.4889207 0.043006882 -0.6606177 -0.5834226 0.28994665 -0.4409661 -0.19270699 -0.33519202 0.09728322 -0.13037805 0.004109452
found -0.62611544 -1.1844963 0.21518257 -0.5311006 -0.90309083 0.5747158 -0.42762142 -0.07595541 -0.11221703 -0.4175187 -0.46219116 0.4399162 -1.2900333 -0.15778694 0.9954195 0.33722532 -0.12519047 0.43512103 -0.35285664 0.3169487 -0.15944353 -0.1755504 0.51932466 -0.029765101 0.04458951 0.7294465 0.28504965 0.49417856 0.4303334 0.2064576 -0.03594493 0.12101615 -0.45467338 -0.5196239 0.5721015 -0.34406596 0.12836027 -0.4849105 -0.443435 0.69911355 -0.003206185 -0.8572433 -0.81053364 0.4381954 -0.82227093 -0.30326286 -0.40234765 0.16411923 -0.15036163 -0.105584905
that -0.89130807 -1.9448425 0.3748023 -0.7254509 -1.0604082 0.27500322 -0.10610635 -0.26367944 0.11883703 -0.63973397 -0.6974321 0.72618747 -1.5420791 0.012844279 1.4344069 0.39378026 -0.18164453 0.74423224 -0.3805312 0.40438786 -0.5189323 0.23674251 0.7748882 -0.29503807 -0.06197791 0.9723143 0.31847793 0.8528601 0.4016483 0.35415775 0.0013101787 0.23133864 -0.43178666 -0.5510936 0.6462564 -0.14269254 0.064382106 -0.15362443 -0.9749312 0.69350135 0.30234364 -1.0764157 -0.9676206 0.2380539 -1.1372124 -0.50422674 -0.47116944 0.031636287 -0.09926486 -0.08086229
action -0.7742818 -1.4626518 0.3945454 -0.6190445 -1.1885929 0.7139305 -0.49111405 -0.058297306 0.021414926 -0.48140138 -0.54683965 0.6657942 -1.4193352 -0.24295293 1.2250981 0.5804464 -0.21407983 0.5948551 -0.50424135 0.48122576 -0.34677008 -0.21434674 0.5356854 -0.12886615 -0.041596647 0.9641062 0.3164115 0.6071426 0.45180908 0.086611375 -0.05530164 0.3931143 -0.45016906 -0.62034094 0.7126889 -0.32105684 -0.013958223 -0.60705227 -0.62159425 0.80498904 0.085512064 -0.88094157 -0.90019655 0.50940245 -1.2533543 -0.5113524 -0.36141035 0.20820695 -0.1093389 -0.25389475
needed -0.6902361 -1.4803772 0.34560624 -0.55000037 -0.93608546 0.40777037 -0.23261821 -0.13938998 0.056782935 -0.4890981 -0.5601785 0.5582942 -1.2684885 -0.045202203 1.2397476 0.38325435 -0.18294984 0.564054 -0.3426862 0.30871052 -0.3788968 -0.032316223 0.56115425 -0.23016281 -0.08833252 0.8336109 0.23433259 0.65112656 0.35607708 0.18682332 -0.046220917 0.22895229 -0.37605777 -0.49119523 0.5462082 -0.16951542 0.059640765 -0.26705757 -0.7643477 0.6744104 0.17884338 -0.89357436 -0.7981972 0.33138713 -1.0853791 -0.4206966 -0.37491247 0.08179126 -0.112055615 -0.14136702
taken -0.61931795 -1.2443631 0.26067457 -0.41267183 -0.8428672 0.43321007 -0.21185356 -0.1451491 -0.07176528 -0.41954383 -0.48377764 0.45157728 -1.1742934 -0.088355795 1.0749525 0.2875222 -0.09650435 0.45827135 -0.3248432 0.23233274 -0.23573233 -0.08107266 0.5002816 -0.1874824 -0.008044287 0.6600593 0.179527 0.53095025 0.3466345 0.22782141 -0.044267308 0.124751106 -0.4818351 -0.48191407 0.5442391 -0.2587821 0.17921439 -0.37470832 -0.594631 0.6493599 0.09669413 -0.88592744 -0.7319213 0.33697107 -0.75977457 -0.30546588 -0.4324546 0.14105678 -0.11931462 -0.07230021
by -0.73943263 -1.182755 0.12575187 -0.5751877 -0.8379077 0.5040743 -0.33183077 -0.13302132 -0.3269186 -0.41107967 -0.47612393 0.37717533 -1.4488506 -0.07737242 0.98183924 0.16045788 0.0027216673 0.3626203 -0.21573775 0.25905758 -0.0073475866 0.051345542 0.6716328 0.11694063 0.28305078 0.67968845 0.27350074 0.5134164 0.4786909 0.5000077 -0.01835937 -0.18059464 -0.64763093 -0.55427176 0.588117 -0.43841732 0.32536295 -0.44083852 -0.3830751 0.77689636 -0.056379754 -1.0606924 -0.9601436 0.44441697 -0.4394808 -0.15323997 -0.5638201 0.13456154 -0.2076062 0.066102535
proposal -0.5893651 -0.95498925 0.23028234 -0.37376335 -0.7847302 0.46664798 -0.25430575 -0.06947256 -0.11178421 -0.32187557 -0.35569057 0.41680828 -0.98621756 -0.14708205 0.8746116 0.31424272 -0.08673444 0.36660427 -0.27802587 0.23573437 -0.14516823 -0.09771003 0.38088113 -0.06373613 0.07383302 0.59735274 0.19375026 0.43090302 0.31437302 0.18949872 -0.031556744 0.10305346 -0.416526 -0.4582101 0.5121578 -0.26383317 0.123575196 -0.38920158 -0.41044846 0.59985733 0.027436925 -0.7145326 -0.66739756 0.36941892 -0.6574009 -0.27884558 -0.35038376 0.15651534 -0.11075401 -0.08600311
last -0.812689 -1.488839 0.20749928 -0.7196344 -1.0205748 0.57518774 -0.4623823 -0.08443664 0.040070366 -0.554967 -0.48338053 0.60987556 -1.3979918 -0.15884738 1.1213536 0.50979275 -0.16276483 0.6108091 -0.4027668 0.50227445 -0.27769554 -0.09016773 0.6197943 0.031385306 -0.01489244 0.9065224 0.44022524 0.6635916 0.4866124 0.14198712 -0.022952877 0.28814963 -0.4919448 -0.6022783 0.6288608 -0.27095553 0.041052308 -0.43296206 -0.5013338 0.7259663 -0.022599453 -0.8244218 -0.77776945 0.33863914 -1.0357643 -0.37381557 -0.30379674 0.16139936 -0.08416191 -0.21040268
month -0.826604 -1.3180101 0.28592652 -0.54841954 -1.084559 0.6229175 -0.3721868 -0.10893641 -0.11781408 -0.4439625 -0.47885245 0.57087255 -1.3785214 -0.20184012 1.1886324 0.44330233 -0.07590046 0.50626266 -0.3917362 0.33014986 -0.18231681 -0.15171726 0.5406135 -0.06962359 0.1288622 0.824804 0.28683633 0.5873192 0.5052592 0.29716694 -0.05960702 0.11152425 -0.5609415 -0.60022616 0.70590204 -0.35961288 0.14722987 -0.54961956 -0.53846556 0.8326796 0.005541429 -0.95706344 -0.9151814 0.5123337 -0.8904121 -0.37231636 -0.45573106 0.2475729 -0.13443896 -0.12473535
Commissioner -0.50578517 -0.74329543 0.20576823 -0.26340315 -0.74163103 0.48642448 -0.23084359 -0.053929374 -0.14001876 -0.26709062 -0.2905215 0.36826152 -0.8189455 -0.18530583 0.7603449 0.3014989 -0.06007107 0.301461 -0.27017727 0.1686357 -0.09427902 -0.15789455 0.27679977 -0.05590037 0.10550602 0.4848709 0.15603858 0.32068118 0.28647062 0.14712341 -0.04026329 0.07888808 -0.40755445 -0.41879693 0.4885438 -0.28809768 0.12790099 -0.4219504 -0.32072055 0.56757855 -0.01243796 -0.6012519 -0.57653385 0.36554727 -0.52339876 -0.24682416 -0.33488867 0.19825576 -0.10459877 -0.08676387
Fischler -0.3067485 -0.39954206 0.11051017 -0.14728764 -0.40925404 0.27848986 -0.13767073 -0.03677234 -0.13734524 -0.14121738 -0.15034293 0.20591228 -0.48461005 -0.10716275 0.41034752 0.15376125 -0.01163897 0.14628819 -0.1381645 0.07787102 -0.020505385 -0.090900786 0.16261809 0.010242045 0.098948486 0.27249804 0.08797474 0.17863762 0.16195288 0.11647323 -0.021584705 -0.0014986302 -0.26474658 -0.25621468 0.29257762 -0.18471693 0.108466044 -0.25843778 -0.15270874 0.35456187 -0.036000833 -0.37789077 -0.35019574 0.23975134 -0.24528505 -0.120544896 -0.21450116 0.11365732 -0.080559775 -0.023166826
ban -0.98840135 -1.4666929 0.4002307 -0.48269802 -1.4466394 0.984209 -0.41874236 -0.07222941 -0.22984357 -0.5344958 -0.57976186 0.70746213 -1.561144 -0.37355143 1.5880872 0.5955482 -0.124681726 0.6173835 -0.5149323 0.28926316 -0.18856455 -0.3246767 0.5270806 -0.16436103 0.19478962 0.9560965 0.30597124 0.6668847 0.54413897 0.2709641 -0.082937725 0.15962322 -0.81428957 -0.84091634 0.96299684 -0.5401784 0.27739015 -0.78566986 -0.6838674 1.1126958 0.012792255 -1.1961054 -1.1397783 0.70300007 -1.0352128 -0.5057422 -0.681174 0.38927904 -0.19236672 -0.1995361
spinal -0.5079752 -0.7280193 0.16357465 -0.2902684 -0.709865 0.48543447 -0.2589309 -0.05081331 -0.18719654 -0.26574478 -0.28788367 0.32992557 -0.868613 -0.17364347 0.7303254 0.26124486 -0.042266488 0.27289426 -0.2508308 0.16248961 -0.053331375 -0.15289931 0.31069914 -0.006775307 0.14112039 0.46932968 0.16631867 0.31678358 0.2987484 0.18238765 -0.031230202 0.02485712 -0.43842435 -0.43573418 0.48904192 -0.31501895 0.16845994 -0.43295404 -0.2792713 0.57787377 -0.04756903 -0.6421717 -0.6046447 0.3820329 -0.45708957 -0.20739247 -0.35421252 0.1898159 -0.123237334 -0.053642422
human -0.607857 -0.8169081 0.20241837 -0.25591356 -0.9092233 0.6226546 -0.20836817 -0.046145774 -0.17734315 -0.31505033 -0.35565385 0.39728314 -0.9326827 -0.24996002 0.947159 0.33113748 -0.032699384 0.35433847 -0.303782 0.15077381 -0.07828101 -0.19693778 0.30447105 -0.09679471 0.19378743 0.51180375 0.19158888 0.38623634 0.3674029 0.22337167 -0.06862808 0.021718983 -0.56719035 -0.5055069 0.62140214 -0.38016185 0.2228984 -0.4997417 -0.37572435 0.69924325 -0.028529162 -0.7100554 -0.70049065 0.41172865 -0.4823293 -0.26931337 -0.47179642 0.2748513 -0.11844264 -0.09296792
animal -0.40987024 -0.65064573 0.15194501 -0.25515133 -0.53223145 0.3134769 -0.15974577 -0.056982912 -0.098148726 -0.21934657 -0.24166174 0.28274313 -0.6830347 -0.103019334 0.59503835 0.20157513 -0.047201008 0.23892651 -0.18789251 0.14421378 -0.09479321 -0.0535338 0.26025698 -0.030858494 0.0812093 0.3971839 0.13111977 0.2944475 0.21975143 0.15178676 -0.023140883 0.05118326 -0.29748133 -0.31881216 0.35999686 -0.1876994 0.10049226 -0.26273024 -0.2722795 0.41376194 0.0178778 -0.50363964 -0.46474463 0.24855453 -0.4166831 -0.18417542 -0.24702616 0.10631857 -0.080434084 -0.045887064
food -0.40961978 -0.6832572 0.119310446 -0.29779968 -0.4981223 0.27688164 -0.17730135 -0.06339511 -0.10223519 -0.23673582 -0.2560682 0.2556633 -0.73976034 -0.06493486 0.5858682 0.1652661 -0.043666225 0.24537204 -0.15829912 0.16155916 -0.081492476 -0.013922136 0.31346753 -0.004941233 0.087545864 0.40499553 0.13747369 0.3053583 0.24239653 0.18965413 -0.012322595 0.0146153895 -0.31098711 -0.30565792 0.34272164 -0.18937397 0.11075618 -0.23963967 -0.2690579 0.40555018 0.008648696 -0.5255176 -0.49130508 0.23958063 -0.39068028 -0.14958076 -0.25650406 0.07230485 -0.09002005 -0.023278315
chains -0.5420434 -0.8233015 0.17748013 -0.29550877 -0.78855443 0.5463125 -0.2582857 -0.07611534 -0.21811298 -0.30382115 -0.34673777 0.35021764 -0.9770778 -0.18465675 0.841846 0.26065648 -0.03294447 0.30756736 -0.27275875 0.1466997 -0.046298813 -0.17143942 0.36859253 -0.030321222 0.15107383 0.492693 0.16474538 0.35819396 0.34616986 0.23380624 -0.034164157 -0.004126042 -0.5227673 -0.47650507 0.5457324 -0.3657486 0.22741172 -0.4785203 -0.33291823 0.663174 -0.048623394 -0.7557079 -0.67773664 0.41926312 -0.45062262 -0.21236467 -0.43241176 0.21406019 -0.15670995 -0.040122896
highly -0.48012954 -0.74934363 0.16332752 -0.28291884 -0.6310189 0.40112206 -0.19321634 -0.074777365 -0.14995417 -0.26356634 -0.28423187 0.31575796 -0.8189352 -0.1320348 0.7120956 0.22744721 -0.036474288 0.28130522 -0.2179056 0.15209608 -0.076339185 -0.093651764 0.31146553 -0.036747046 0.09884758 0.45246375 0.1436283 0.33326703 0.26310128 0.19570851 -0.023210734 0.022770012 -0.39192992 -0.38350117 0.43684563 -0.25512314 0.1547193 -0.33570042 -0.31515378 0.51659805 0.0018445536 -0.6290178 -0.5598197 0.31462607 -0.44774422 -0.20183037 -0.3262011 0.14670113 -0.11821541 -0.043557547
specific -0.42195717 -0.5873242 0.13319384 -0.21281375 -0.5472905 0.34727854 -0.14189668 -0.06526087 -0.16468468 -0.21477076 -0.23312119 0.26411337 -0.68043095 -0.12285666 0.5974022 0.17868082 -0.018716216 0.21722224 -0.17138647 0.0999578 -0.039272476 -0.07354143 0.2579207 -0.0125834765 0.13459861 0.36449018 0.113441676 0.2689285 0.22637604 0.19440252 -0.02185735 -0.021537196 -0.3653084 -0.33499202 0.3833367 -0.23372173 0.15997387 -0.2979238 -0.25183603 0.4661462 -0.020227293 -0.5416975 -0.4857117 0.2854421 -0.3184181 -0.1557954 -0.30468118 0.13917132 -0.09706361 -0.017715266
move -0.60535294 -1.0415688 0.2176537 -0.41799176 -0.7780349 0.41907123 -0.21264122 -0.10016899 -0.10620927 -0.3621899 -0.39326957 0.40743998 -1.0721517 -0.098668925 0.9038546 0.26798844 -0.08773673 0.38984078 -0.25018764 0.22824353 -0.14484103 -0.03823109 0.45231077 -0.06708806 0.065098256 0.62924415 0.2102799 0.4658211 0.3390543 0.25574315 -0.03041199 0.056265306 -0.42587802 -0.44063532 0.49475545 -0.2600323 0.14081357 -0.32536373 -0.444111 0.6063805 0.04347925 -0.78629977 -0.7090197 0.34497207 -0.6585732 -0.28629926 -0.36593074 0.12996796 -0.12737066 -0.05373065
health -0.5649883 -0.8370263 0.20959178 -0.31247625 -0.755695 0.4513447 -0.18478978 -0.08033115 -0.13067162 -0.2960104 -0.31980798 0.39191657 -0.88204646 -0.16527618 0.8157205 0.29132393 -0.048648085 0.32429874 -0.26433638 0.1794647 -0.12932466 -0.0900485 0.3226439 -0.067827806 0.13540955 0.51809394 0.17526992 0.38186437 0.30484074 0.20533812 -0.034891658 0.06028023 -0.43017176 -0.4314243 0.5151657 -0.26964417 0.14719142 -0.3718655 -0.374839 0.58929545 0.017676685 -0.64868516 -0.6234639 0.33935675 -0.5298912 -0.26013526 -0.3674226 0.18513902 -0.107302845 -0.07583468
proposed -0.80511844 -1.5354255 0.36749664 -0.5789551 -1.0431584 0.5143848 -0.29492328 -0.13052233 -0.0129747875 -0.50328225 -0.56911606 0.60921043 -1.3988596 -0.10690728 1.3177195 0.4251887 -0.16907865 0.5856705 -0.38861486 0.35212997 -0.3454799 -0.06024628 0.5867399 -0.1938507 -0.036002252 0.90857774 0.26465288 0.6901604 0.4079583 0.22218764 -0.047199693 0.22713183 -0.47837052 -0.580793 0.63596463 -0.24428406 0.101773754 -0.38701397 -0.74050677 0.7751835 0.14779961 -0.9965783 -0.8894531 0.41509873 -1.108626 -0.44365248 -0.434329 0.13164608 -0.1248795 -0.14545748
measures -0.5097051 -0.8414574 0.18952672 -0.31875896 -0.73534894 0.47991008 -0.24178475 -0.06726867 -0.1462804 -0.2945074 -0.33630928 0.34740892 -0.9274429 -0.15248168 0.8028961 0.27570587 -0.056704525 0.31557027 -0.25818947 0.17375988 -0.09209674 -0.13873994 0.3470079 -0.048969287 0.08610133 0.50229466 0.1650454 0.35025236 0.30312455 0.18308659 -0.031004779 0.055778816 -0.43063906 -0.42449296 0.49075702 -0.29570448 0.16260129 -0.41979697 -0.34018067 0.5813552 -0.007028897 -0.6957227 -0.622924 0.3654755 -0.5259145 -0.23019616 -0.3548183 0.17823642 -0.12400972 -0.069607206
after -0.6628401 -1.0636036 0.2728605 -0.5386695 -0.86927664 0.5197037 -0.49063787 -0.05699711 -0.17521325 -0.3411586 -0.37853712 0.5478461 -1.1796937 -0.16861391 0.8756977 0.39072648 -0.13312544 0.38218853 -0.33972692 0.30754092 -0.1323271 -0.19588526 0.4126421 0.08334184 0.08913779 0.8130368 0.2513934 0.46468082 0.3910266 0.14841266 0.013118154 0.1462068 -0.35637683 -0.5668136 0.56026685 -0.30658042 0.07566839 -0.5106596 -0.37930235 0.7437618 -0.08231571 -0.76546586 -0.771117 0.55892384 -0.9171359 -0.3172769 -0.3375714 0.13942422 -0.16899557 -0.12738205
reports -0.7533809 -1.2010814 0.3640819 -0.42384657 -1.0331354 0.590102 -0.26235005 -0.07405161 -0.07318694 -0.3924817 -0.42973945 0.5925589 -1.1344694 -0.21769704 1.1507791 0.47053817 -0.14694862 0.5072237 -0.3905777 0.29933536 -0.25758106 -0.14016266 0.37316155 -0.15301433 0.05092482 0.8094463 0.2362747 0.5496961 0.3641441 0.14796211 -0.058035783 0.23376036 -0.45814285 -0.5782959 0.64235663 -0.27604207 0.07365694 -0.44278795 -0.5649617 0.75553745 0.08626615 -0.8228311 -0.7837554 0.46013412 -0.9829428 -0.448479 -0.40363812 0.19619007 -0.12210052 -0.17301662
France -0.33706477 -0.4458948 -0.0467756 0.025518134 -1.1523275 1.0671088 -0.26828772 -0.043633185 -0.47870556 -0.34697425 -0.4612507 0.11891154 -0.98016757 -0.43648368 0.9871756 0.1937223 0.17490463 0.23442924 -0.3344651 -0.13995075 0.29859486 -0.6062266 0.36532187 -0.08383104 0.42100284 0.077139795 0.11696285 0.09189683 0.579611 0.38166463 -0.100076035 -0.36397162 -1.0524379 -0.6006674 0.84190255 -0.8533968 0.6490367 -0.9596166 -0.21822703 0.98431396 -0.33449668 -0.91368014 -0.8320553 0.5940879 0.26802367 -0.022078058 -0.881839 0.5755792 -0.2507759 0.039401148
under -0.68670195 -1.1573924 0.31304768 -0.43620512 -1.1058578 0.74001116 -0.4386417 -0.05386543 -0.16804138 -0.4085561 -0.46175975 0.54381406 -1.2244632 -0.2750973 1.1447328 0.46256846 -0.14036898 0.48100948 -0.42898527 0.26356208 -0.1514828 -0.34790814 0.43323073 -0.08872935 0.03583943 0.79645324 0.26490834 0.4703581 0.44853535 0.13180381 -0.049785513 0.16732305 -0.53153527 -0.61058384 0.67710763 -0.42577732 0.16094449 -0.62967545 -0.5080227 0.86655945 -0.033347502 -0.88632405 -0.8330367 0.5892843 -0.9323184 -0.39945546 -0.4714681 0.2649589 -0.17863026 -0.17852859
conditions -0.6914228 -1.2415524 0.3291868 -0.4933784 -0.9847081 0.60202754 -0.37081265 -0.049800053 -0.020594075 -0.41158226 -0.45640546 0.55579954 -1.2047256 -0.19376822 1.1048067 0.46213406 -0.16444317 0.50453293 -0.39923403 0.35278642 -0.25720742 -0.17694092 0.44536287 -0.12497974 -0.016542353 0.7916355 0.2553661 0.53196174 0.3699547 0.112506896 -0.046840142 0.26787475 -0.41488993 -0.5507258 0.6155195 -0.28602776 0.052384514 -0.48708653 -0.5527746 0.69909555 0.06729824 -0.8169721 -0.7810218 0.44251826 -1.0038763 -0.411331 -0.3514082 0.18326624 -0.102840595 -0.17479219
could -1.0267422 -2.117986 0.5530757 -0.78437775 -0.99082 0.28947937 -0.15131941 -0.2635143 0.11045212 -0.67391384 -0.76768523 0.7736217 -1.6395308 0.10692119 1.728376 0.42196095 -0.23395947 0.7630567 -0.17704326 0.21439293 -0.56537235 0.24471603 0.90483534 -0.25708288 -0.0936555 1.0734304 0.15728469 0.9500053 0.2768116 0.3488554 0.0054224012 0.1020789 -0.32615414 -0.6155026 0.65622777 -0.097451754 0.07289751 -0.051606964 -1.251156 0.8126087 0.3782818 -1.3236983 -1.1899334 0.38722315 -1.4032991 -0.49764422 -0.4595536 -0.040531136 -0.15317412 -0.07597693
contract -0.6428593 -1.1173918 0.24604377 -0.44939864 -0.86983114 0.48151794 -0.26174527 -0.099203095 -0.08578215 -0.38272408 -0.42129326 0.46742427 -1.1221212 -0.13527477 0.9754978 0.33799702 -0.09726166 0.43082994 -0.30486825 0.2713719 -0.18459919 -0.07261622 0.4598951 -0.07816512 0.075537786 0.667606 0.21729545 0.48084584 0.36498666 0.23040329 -0.034391284 0.10876072 -0.4482221 -0.4866567 0.5693667 -0.27868277 0.12784696 -0.394026 -0.4922423 0.6476125 0.04543052 -0.7990002 -0.7448662 0.3798775 -0.7277396 -0.31366506 -0.38391024 0.15757878 -0.11631821 -0.081735335
( -0.20302436 1.179784 -1.1440268 0.9565207 -2.0601916 2.9205456 -0.48301297 -0.11958839 -2.690501 -0.24546392 -0.6180083 -0.9186316 -1.7507744 -1.2426004 1.1064792 -0.5802691 1.2715902 -0.49784932 -0.13087402 -1.368202 2.3075466 -1.7639133 0.6948668 0.77243865 2.2376578 -1.3808784 -0.023062127 -0.86033535 1.5465695 1.8471576 -0.1971263 -2.6465855 -3.6163876 -1.3498422 2.0343027 -3.0609202 2.8732262 -2.9873495 0.88893896 2.5129268 -1.7537158 -2.3801148 -1.9757359 1.7259109 3.863211 1.2000331 -2.9516766 1.8103527 -0.9865916 0.85466903
BSE -0.24398185 -0.22545937 0.03184579 -0.069088005 -0.29374146 0.24339473 -0.07559749 -0.030259341 -0.17924227 -0.08855923 -0.096138544 0.09715448 -0.34912252 -0.094560824 0.29103106 0.05530424 0.028884526 0.073447905 -0.07155615 0.019141598 0.052989356 -0.039357547 0.13354282 0.03989299 0.1659353 0.1439979 0.061174266 0.09675626 0.14550354 0.16101573 -0.020906966 -0.09814353 -0.279756 -0.19896841 0.23351619 -0.18515451 0.15400843 -0.20117274 -0.06053899 0.28467774 -0.05400598 -0.3135596 -0.28946733 0.18697657 -0.02148681 -0.042965177 -0.2200937 0.09294992 -0.07156116 0.018475374
) -0.23545578 1.0010796 -1.0809954 1.0911832 -2.346186 3.1488745 -0.59038603 -0.123423226 -2.5505342 -0.35803917 -0.66192204 -0.75977474 -1.6996429 -1.372983 1.3648021 -0.3853413 1.2432423 -0.36542237 -0.22445053 -1.2877667 2.1254077 -1.9643192 0.6218457 0.41034737 2.1175947 -1.2557611 -0.09315051 -0.7485323 1.49685 1.6782842 -0.31837738 -2.452927 -3.6124501 -1.4086443 2.178495 -3.0616915 2.789978 -3.0596466 0.8276971 2.575038 -1.6556717 -2.3153682 -1.9464536 1.730908 3.6325657 1.0603328 -2.9250078 1.9044585 -0.9460255 0.700034
-- -0.97058785 -0.7153076 0.20016003 -0.22773354 -1.2417319 0.95501053 -0.25006515 -0.1501057 -0.6649442 -0.28307247 -0.28376013 0.52207214 -1.1734068 -0.4518839 1.0452638 0.3821098 0.12377945 0.25431406 -0.27992404 0.055679746 0.13918161 -0.22407743 0.32456443 0.121102914 0.6226881 0.6013392 0.14580403 0.3475885 0.49298444 0.49799532 -0.084105715 -0.2840882 -0.9784333 -0.7599603 0.9628853 -0.6591989 0.500108 -0.8435732 -0.19372855 1.1255857 -0.2012511 -1.0153731 -1.0202631 0.7843671 -0.16567606 -0.2515263 -0.790604 0.47896588 -0.25949392 0.016016036
But -0.82366973 -1.2113076 0.40754083 -0.4564592 -0.96782917 0.40470934 -0.09444708 -0.13541879 -0.014839097 -0.3936393 -0.39094606 0.64120895 -0.9853352 -0.14195757 1.1300848 0.46724048 -0.13772942 0.5181971 -0.31680182 0.24008039 -0.3751274 0.045999143 0.33805135 -0.20576534 0.08828853 0.8000533 0.2283922 0.609715 0.31835064 0.18006156 -0.0385587 0.1784457 -0.3468755 -0.52266455 0.6142435 -0.14074834 0.026103595 -0.22506748 -0.6424991 0.6835415 0.16856 -0.6830417 -0.7276518 0.34479052 -0.95380163 -0.47559598 -0.35486698 0.15571852 -0.07049247 -0.16493472
agreed -0.7361937 -1.5514845 0.37477294 -0.5645035 -0.9615264 0.42754057 -0.24954532 -0.13751884 0.056432247 -0.4949 -0.57541734 0.5868418 -1.3267379 -0.053116616 1.3056048 0.39266852 -0.19382969 0.59087044 -0.36392656 0.32204026 -0.38790998 -0.044084024 0.5758796 -0.24242085 -0.108522795 0.8812544 0.23474753 0.68753165 0.36117643 0.17930228 -0.046517257 0.25069857 -0.4017357 -0.5254715 0.5654908 -0.17560582 0.06351705 -0.29522023 -0.79491013 0.7067839 0.18553407 -0.9434361 -0.81932986 0.35198832 -1.1489922 -0.43675232 -0.38826942 0.081814416 -0.1059487 -0.14427061
review -0.43036813 -0.709525 0.17451157 -0.26860023 -0.57352424 0.32666704 -0.16283998 -0.0565255 -0.07126211 -0.2433116 -0.26587024 0.31529713 -0.7130707 -0.09828085 0.6481432 0.22824772 -0.06943278 0.2720033 -0.19532353 0.15546155 -0.121413134 -0.048941683 0.2726206 -0.06130522 0.05536425 0.44632435 0.13341482 0.322447 0.21882196 0.13983132 -0.02697233 0.07815218 -0.29349273 -0.32463908 0.36937758 -0.17825374 0.08323974 -0.2544323 -0.3172721 0.43465036 0.032620847 -0.5209246 -0.48736733 0.25618538 -0.49248338 -0.21667477 -0.25335044 0.107066706 -0.07780006 -0.062440865
his -0.95988613 -1.7183387 0.4179197 -0.6663394 -1.1672876 0.600211 -0.35449243 -0.13712558 -0.003927001 -0.5562083 -0.54090834 0.7955405 -1.5185788 -0.2161969 1.4051982 0.6375494 -0.21347949 0.7166014 -0.46741232 0.47854677 -0.38047406 -0.11452688 0.5799445 -0.14269857 -0.06311137 1.0585083 0.4265566 0.8019206 0.40237013 0.152736 -0.03614914 0.39958692 -0.5003582 -0.6629976 0.7638947 -0.21868135 0.035911884 -0.40726593 -0.7653743 0.84837276 0.13195388 -1.0576632 -0.9005159 0.43471345 -1.3462572 -0.56301844 -0.35266224 0.23088333 -0.12661229 -0.22628088
standing -0.7343015 -1.2767453 0.324839 -0.5206768 -1.1505781 0.7721381 -0.48443812 -0.0818312 -0.21955027 -0.44132927 -0.47624195 0.5794267 -1.4195577 -0.26670974 1.1727234 0.4770739 -0.13129112 0.46534288 -0.4630382 0.36050013 -0.17162411 -0.31559741 0.49440902 -0.033555243 0.10110901 0.8046847 0.27784517 0.52160424 0.45458132 0.20339863 -0.048183728 0.18441449 -0.5968292 -0.65173674 0.757999 -0.43039343 0.18807289 -0.7121428 -0.4752462 0.90763277 -0.060411245 -1.0174339 -0.91049886 0.60894686 -0.9314548 -0.38625064 -0.4875143 0.27533653 -0.19449511 -0.12661918
officials -0.8441151 -1.1739311 0.44088203 -0.37598035 -1.1134136 0.5907533 -0.1880868 -0.06619865 0.010282535 -0.38783127 -0.3909847 0.7133779 -1.0033698 -0.2541515 1.2301397 0.5651539 -0.15894763 0.53404796 -0.43177584 0.293721 -0.37033218 -0.10034611 0.28191677 -0.24051426 0.07281595 0.83222663 0.2407112 0.59872556 0.32948047 0.09415036 -0.0533469 0.31287324 -0.42738542 -0.6209548 0.7009737 -0.21183701 0.014180742 -0.4146844 -0.6508295 0.76176417 0.1639416 -0.69954246 -0.74885744 0.423238 -1.0550653 -0.5356545 -0.368353 0.23402378 -0.063698456 -0.22731595
questioned -0.686348 -1.3511481 0.33135477 -0.5267784 -0.9301203 0.46665797 -0.29091075 -0.10332563 0.013541355 -0.44033235 -0.49743795 0.5427938 -1.2278754 -0.10226252 1.1333503 0.39509812 -0.17236358 0.5179252 -0.36285886 0.3388261 -0.32363907 -0.0723482 0.5060925 -0.16961448 -0.047805917 0.8105596 0.2409595 0.59419745 0.3650256 0.16247146 -0.04093438 0.24522074 -0.38744685 -0.5031423 0.55353326 -0.2146443 0.046409857 -0.35570484 -0.63234264 0.66502005 0.13422567 -0.83682024 -0.7745664 0.3633295 -1.0224617 -0.40820694 -0.35471898 0.1142184 -0.1009227 -0.14864787
as -0.9937837 -1.8942618 0.36804014 -0.87405074 -1.1233895 0.3325355 -0.28720725 -0.23798132 -0.079752386 -0.6594556 -0.7412724 0.73273945 -1.7317716 0.054969996 1.4643905 0.35496667 -0.19303048 0.63169074 -0.28134954 0.3791982 -0.39678732 0.18150724 0.82814527 -0.0960261 0.067127645 1.162357 0.38535255 0.9056092 0.47366747 0.48025954 0.000752751 0.06890617 -0.45178217 -0.609332 0.6559647 -0.22943546 0.10825299 -0.13784853 -0.9214059 0.8893279 0.17182031 -1.2363487 -1.1795965 0.44881353 -1.264724 -0.4780184 -0.47690395 0.050301015 -0.22987261 -0.055803753
there -1.0064557 -2.0754704 0.48013315 -0.7928202 -1.1407752 0.3879774 -0.1565168 -0.23662952 0.15535945 -0.6501987 -0.6829212 0.79904014 -1.6570934 -0.052854735 1.5852152 0.5269179 -0.21871789 0.8047574 -0.47481668 0.5299741 -0.6070612 0.1927293 0.7337462 -0.32510838 -0.14172183 1.0839918 0.41765442 0.95171857 0.42060632 0.2878959 -0.017256116 0.4221501 -0.43674392 -0.6065828 0.706227 -0.11831201 -0.011490107 -0.17405921 -1.0139534 0.74076164 0.36856848 -1.1451944 -0.9979845 0.21802507 -1.392501 -0.62097055 -0.42951763 0.089371696 -0.10293281 -0.17420079
only -0.6905247 -1.2556295 0.28493983 -0.48439264 -0.9228324 0.46794328 -0.24477206 -0.11780271 -0.049827836 -0.43948075 -0.48078394 0.5104671 -1.1916944 -0.12708366 1.0825197 0.35369805 -0.12011192 0.4906886 -0.33407223 0.29346445 -0.26187807 -0.041833583 0.5077524 -0.14228567 0.04140399 0.7301054 0.23271966 0.54767746 0.38638583 0.23117685 -0.030622829 0.1378193 -0.4405631 -0.4991225 0.5831892 -0.25740993 0.11447602 -0.36183548 -0.58274055 0.675758 0.09105498 -0.820368 -0.7717119 0.3708481 -0.832768 -0.35921904 -0.39871025 0.13707076 -0.11762085 -0.11772208
slight -0.5991067 -1.015071 0.23801887 -0.40262595 -0.7894389 0.47032255 -0.26401687 -0.082367435 -0.12047445 -0.34541497 -0.38645157 0.42747286 -1.0497096 -0.13641462 0.912074 0.30563667 -0.08783746 0.37656805 -0.28179502 0.22373962 -0.15994166 -0.10829179 0.41443706 -0.062438972 0.06302856 0.6217946 0.19189118 0.4429265 0.31811166 0.19448444 -0.024670724 0.09298607 -0.42479455 -0.47144008 0.5197631 -0.27363086 0.1374045 -0.3968315 -0.4421851 0.62919456 0.022352474 -0.76300377 -0.6934502 0.38910443 -0.6890913 -0.28740847 -0.36664918 0.1499236 -0.12639242 -0.0747197
risk -0.32321763 -0.42243394 0.09634027 -0.1590253 -0.3957612 0.27498972 -0.12718906 -0.0530143 -0.16871741 -0.1520554 -0.16605681 0.18589672 -0.52675885 -0.09406407 0.41673148 0.11860192 0.00089433923 0.14511834 -0.11852555 0.063338965 -0.0048128515 -0.063204184 0.2028236 0.021867692 0.12289641 0.2630245 0.07388706 0.18807791 0.17914599 0.16835093 -0.020172914 -0.03869985 -0.29040956 -0.25465843 0.30201334 -0.2023736 0.1427738 -0.2532853 -0.14801353 0.35764435 -0.03113094 -0.42725763 -0.37587985 0.22879162 -0.19092564 -0.10041023 -0.23847729 0.10661776 -0.09462953 -0.004371339
Spanish -0.47631717 -0.55779153 0.111007646 -0.17481402 -0.69715315 0.52116376 -0.186737 -0.06015405 -0.2947188 -0.23324415 -0.26057664 0.25701463 -0.7935709 -0.20428458 0.6823967 0.1855224 0.031888995 0.21629323 -0.20271009 0.06645901 0.060974456 -0.17166424 0.27811536 0.013503405 0.24987835 0.34114212 0.12455053 0.24139634 0.3162907 0.26753974 -0.039457772 -0.11700182 -0.5532505 -0.4264678 0.5174549 -0.3920886 0.27740437 -0.4724547 -0.19765015 0.61887926 -0.0981771 -0.6617219 -0.60174227 0.40100694 -0.18520756 -0.12617378 -0.4510787 0.2319755 -0.1431385 -0.005128472
Minister -0.7460094 -0.7637948 0.29057682 -0.21952355 -0.9560695 0.644675 -0.24812791 -0.07711772 -0.37743923 -0.27115798 -0.26814866 0.48884434 -0.9877781 -0.28138024 0.92708707 0.36468577 -0.020612756 0.30428025 -0.3093399 0.13532776 -0.0005305978 -0.19112417 0.23716258 0.026257 0.30410507 0.6027968 0.18371773 0.3756284 0.3645298 0.26882365 -0.066653 -0.005019296 -0.6418882 -0.6169242 0.67624056 -0.4506104 0.25590968 -0.6013757 -0.2811685 0.84145546 -0.08402 -0.7955841 -0.7414441 0.58732265 -0.4827422 -0.2615255 -0.49996212 0.29217654 -0.17599401 -0.06874224
de -1.0847077 -1.742992 0.41116452 -0.61566585 -1.5278305 0.9489672 -0.4307203 -0.16790636 -0.32438946 -0.6177548 -0.7085132 0.74255973 -1.8747872 -0.295284 1.7020142 0.54972506 -0.0909893 0.6583405 -0.5169047 0.33961117 -0.2101425 -0.23887953 0.7106896 -0.12422847 0.22322756 1.0408095 0.31466192 0.7561502 0.61257964 0.42097303 -0.054451253 0.07414099 -0.9217381 -0.903308 1.0248615 -0.5947615 0.34532362 -0.80590785 -0.77893084 1.2315301 -0.0012431238 -1.4454283 -1.3024756 0.75910753 -1.0486846 -0.48278278 -0.787103 0.35731348 -0.26420498 -0.11065681
had -1.0321729 -2.278811 0.50886065 -0.9709627 -1.2503386 0.14956321 0.002582004 -0.28630534 0.14719677 -0.85537905 -0.96609986 0.7698499 -1.8478254 0.2632422 1.8769529 0.30933017 -0.3407332 0.86013097 -0.19322547 0.35872313 -0.5979131 0.37255308 1.0301313 -0.35697487 -0.19266653 1.4719813 0.49545628 1.1870309 0.5117571 0.52019775 0.012133251 0.08768912 -0.36714628 -0.52909577 0.49094623 -0.08972029 -2.2494367e-05 0.2617007 -1.2570937 0.8894774 0.39263245 -1.3679664 -1.2301306 0.2737037 -1.6725361 -0.65058976 -0.4562084 -0.11798324 -0.25836375 -0.1102348
earlier -0.7327876 -1.1638021 0.3065701 -0.46973792 -0.95643574 0.506018 -0.31872296 -0.10432863 -0.082046226 -0.37997457 -0.39823672 0.56750154 -1.1542959 -0.17477614 1.0440389 0.44700482 -0.10878324 0.47422925 -0.3541799 0.29723907 -0.20714997 -0.13324249 0.42438233 -0.08062917 0.052161247 0.77005345 0.24181752 0.5363181 0.3790337 0.18391015 -0.049033314 0.17186673 -0.43469948 -0.5404491 0.60346305 -0.26270536 0.07401864 -0.44776058 -0.51145035 0.72663057 0.027725907 -0.80850446 -0.7564274 0.44093627 -0.90311086 -0.37246606 -0.34981483 0.19646299 -0.11646653 -0.14267807
accused -0.69154805 -1.3620996 0.2970461 -0.51839644 -0.87235427 0.3997911 -0.22240368 -0.13137108 -0.024058549 -0.4505598 -0.51501524 0.4965669 -1.2394372 -0.055732187 1.1479824 0.319287 -0.14020635 0.49989095 -0.31158352 0.28402093 -0.30240113 -0.014877217 0.54845554 -0.17249013 -0.014969325 0.7828199 0.22569233 0.6085779 0.36091372 0.2373058 -0.040172037 0.15109387 -0.42832908 -0.4920312 0.53422785 -0.21265791 0.112139896 -0.29311305 -0.6522293 0.66691124 0.13178717 -0.8932758 -0.78437364 0.33767983 -0.9154568 -0.35703132 -0.40057352 0.08205637 -0.116422474 -0.09450445
at -0.62139535 -1.3090748 0.14248486 -0.52087814 -1.1388037 0.7802461 -0.4550406 -0.10967716 -0.15693931 -0.4857526 -0.65284044 0.4220379 -1.4727665 -0.18336768 1.2149764 0.3153222 -0.05918514 0.49557793 -0.349392 0.22183153 -0.10349537 -0.24549344 0.72837967 -0.051229842 0.14076215 0.71162105 0.21484204 0.47339204 0.57332534 0.3561066 -0.039923232 -0.061904863 -0.6709103 -0.61763203 0.72626483 -0.56759083 0.32748055 -0.683834 -0.54801255 0.8813519 -0.037608698 -1.0505041 -1.031036 0.560235 -0.665162 -0.25047234 -0.64085823 0.23091766 -0.18535459 -0.099886745
an -1.0685259 -1.9954331 0.49844173 -0.6887803 -1.4637197 0.7705903 -0.33546427 -0.075713344 0.1724862 -0.6791585 -0.76465195 0.85430026 -1.6631083 -0.23750003 1.8485446 0.70345116 -0.2501995 0.8625463 -0.58243567 0.49912125 -0.5432238 -0.11259967 0.6592083 -0.40731 -0.0559453 1.1580957 0.43675297 0.9491051 0.56487375 0.18987128 -0.10447416 0.44990972 -0.61943656 -0.7523113 0.905497 -0.31588632 0.057207987 -0.47528297 -1.0435423 0.9626368 0.27868885 -1.1407446 -1.1482428 0.42926148 -1.5050166 -0.69338113 -0.54719305 0.2429971 -0.094284065 -0.2906745
farm -0.32857314 -0.5358287 0.12615234 -0.21198736 -0.42809784 0.23469152 -0.13205639 -0.045910932 -0.07409187 -0.1771568 -0.20180364 0.22988534 -0.56273866 -0.07727345 0.48314092 0.15169261 -0.046559107 0.20192577 -0.14931057 0.122773334 -0.07450631 -0.048580423 0.22567114 -0.022846168 0.04572867 0.33493176 0.10632475 0.23634438 0.17831881 0.11968391 -0.012675273 0.043614343 -0.23418397 -0.24960612 0.277724 -0.1499822 0.078606404 -0.20414218 -0.22397679 0.33661377 0.011428622 -0.41542447 -0.36994135 0.20028852 -0.34738484 -0.1477381 -0.20001473 0.07786145 -0.07088572 -0.030816281
ministers -0.7944023 -1.0347925 0.3526977 -0.3265569 -1.0771644 0.6636996 -0.25746924 -0.09679772 -0.2600548 -0.35697034 -0.3697546 0.5730205 -1.134672 -0.26708484 1.1046644 0.43824828 -0.07621688 0.42233565 -0.3866783 0.2238442 -0.13727431 -0.17405374 0.31995746 -0.06773343 0.22074093 0.7264724 0.20534669 0.4804344 0.39131698 0.23812567 -0.072362095 0.108384736 -0.6280343 -0.6507796 0.7214534 -0.40379715 0.1995881 -0.58667284 -0.44184294 0.87059677 -0.006054045 -0.87535286 -0.81919235 0.56472695 -0.73209566 -0.36657616 -0.504766 0.26849183 -0.16171524 -0.10903961
' -0.49019852 -0.47792327 0.09443871 -0.17258467 -0.62004685 0.45755973 -0.14196244 -0.06849724 -0.33817 -0.18322551 -0.20683683 0.2487363 -0.7201193 -0.20950513 0.5734648 0.14992936 0.056411967 0.17827958 -0.14669168 0.03393306 0.082695566 -0.09988539 0.23667158 0.08019141 0.30714053 0.30727297 0.115051396 0.22874798 0.27936852 0.3074834 -0.03759502 -0.1483294 -0.50055975 -0.42012107 0.48257047 -0.3709375 0.26621944 -0.41625842 -0.1473731 0.5841676 -0.093720995 -0.5929639 -0.58062404 0.39991665 -0.09474351 -0.111302584 -0.4145925 0.20726036 -0.15762149 0.036976196
meeting -0.6838124 -1.3327957 0.33164853 -0.56198543 -0.96459496 0.54980814 -0.3873238 -0.08073615 -0.04164297 -0.4289959 -0.46732533 0.55918264 -1.2929518 -0.14990874 1.095033 0.4298898 -0.17861032 0.49631563 -0.3920852 0.3905604 -0.27854657 -0.14152853 0.50241774 -0.09168813 -0.015607335 0.832818 0.2670069 0.5660315 0.37618777 0.15486154 -0.036655743 0.24691482 -0.40926605 -0.5360835 0.5995124 -0.25988096 0.05813715 -0.4611488 -0.5545142 0.70929617 0.052399587 -0.87352675 -0.8013113 0.4403618 -1.0308801 -0.39352039 -0.33466834 0.1431574 -0.1374725 -0.14495072
of -0.815377 -1.1566899 0.09236217 -0.7326418 -0.8275527 0.48735735 -0.5335864 -0.042212777 -0.1441167 -0.37966934 -0.4303635 0.4502456 -1.4248283 -0.07436636 0.84777564 0.22845349 -0.08858248 0.37074834 -0.24464104 0.4494626 -0.09310517 0.111604646 0.63449836 0.15474376 0.27329862 0.8040314 0.3667956 0.50879174 0.539738 0.40750402 0.005686177 -0.08236526 -0.42764735 -0.5689358 0.5416608 -0.37190995 0.109106794 -0.42857835 -0.28857976 0.64769334 -0.025617763 -0.78517365 -0.9740815 0.43236297 -0.63709795 -0.20063336 -0.39661965 0.03641676 -0.11308373 -0.06413665
through -0.5813956 -0.6883645 0.09783912 -0.31383497 -0.6791516 0.48927402 -0.27743942 -0.15413241 -0.5400588 -0.2608195 -0.2779078 0.2785462 -1.1180729 -0.14497976 0.63000244 0.10906472 0.078837216 0.15079045 -0.18673034 0.0881855 0.14404428 -0.10583396 0.43269646 0.21673024 0.36252308 0.3965838 0.123130694 0.27452937 0.32846928 0.45096496 0.0038796547 -0.24439773 -0.6727647 -0.5015005 0.5679135 -0.46533415 0.39834347 -0.5630106 -0.123841524 0.7417189 -0.19172442 -0.94203293 -0.76764655 0.5094651 -0.103680454 -0.04988372 -0.53123724 0.20522977 -0.2482854 0.14311863
dangerous -0.41590047 -0.5609871 0.11966955 -0.22015916 -0.5432885 0.36512098 -0.16972154 -0.07279583 -0.21435016 -0.20451744 -0.22135945 0.25331494 -0.7102106 -0.12903179 0.5618959 0.16752705 -0.004298758 0.19391638 -0.17183791 0.100907125 -0.009439757 -0.08685579 0.26061767 0.022980528 0.15351021 0.34333333 0.11118891 0.24640208 0.2362752 0.2082496 -0.017006319 -0.040936444 -0.3921854 -0.34382775 0.3970758 -0.2676893 0.17911221 -0.34229496 -0.20969507 0.47803387 -0.04939182 -0.5676029 -0.500263 0.31048128 -0.27764684 -0.13578661 -0.3182896 0.14578289 -0.12026619 -0.004097195
Only -0.49681756 -0.76928973 0.17068705 -0.28066525 -0.6621224 0.4002281 -0.16951238 -0.0843594 -0.13802963 -0.27517307 -0.30626586 0.31730768 -0.8201054 -0.12028506 0.74466205 0.23015143 -0.0439605 0.29227856 -0.20946774 0.14363147 -0.09652372 -0.0859569 0.33067903 -0.05692673 0.10114567 0.4461838 0.14892004 0.3400782 0.27306852 0.20658842 -0.027855866 0.013636514 -0.39900467 -0.38373324 0.4429617 -0.25516132 0.15728089 -0.33198288 -0.33797792 0.52707916 0.011048961 -0.6203032 -0.5707397 0.3079162 -0.43959445 -0.2130153 -0.34708655 0.1563314 -0.10714105 -0.046235785
backed -0.76536566 -1.5114857 0.36091825 -0.5665098 -1.0071898 0.5001682 -0.3016116 -0.13807249 -0.028400352 -0.49562204 -0.56533575 0.5841575 -1.3816066 -0.092262715 1.2961109 0.40252703 -0.1649285 0.5614536 -0.37151834 0.32430124 -0.33969283 -0.0788309 0.5847509 -0.18455537 -0.047210343 0.8888892 0.24892598 0.6656429 0.38891792 0.22333376 -0.04123419 0.20613247 -0.46046042 -0.5690897 0.6145883 -0.24488002 0.11212802 -0.3779359 -0.72803867 0.7660286 0.13694374 -1.0027313 -0.87215555 0.42165175 -1.0912381 -0.42514238 -0.4273433 0.11745561 -0.13651127 -0.1303332
are -1.0080779 -1.8041285 0.46929887 -0.7356328 -1.1398731 0.4617044 -0.19504607 -0.21960767 0.014402981 -0.58846486 -0.6616249 0.7319825 -1.5753233 -0.04013 1.5196047 0.48060507 -0.20439185 0.6701992 -0.3213623 0.35460013 -0.42444453 0.10872168 0.69379836 -0.20138046 -0.006953214 1.0733936 0.3236167 0.8424482 0.42698953 0.31722805 -0.033633426 0.19138615 -0.44700208 -0.6333538 0.68904513 -0.24429785 0.08644477 -0.25426295 -0.893118 0.83491737 0.28155255 -1.130707 -1.0743937 0.4278564 -1.271541 -0.571524 -0.47124952 0.10853441 -0.14204079 -0.1505229
due -0.48035285 -0.9088421 0.20120952 -0.36052385 -0.58692133 0.30686423 -0.17495401 -0.07946613 -0.05646733 -0.30460054 -0.33263832 0.33575672 -0.8753781 -0.047101505 0.74500084 0.20708287 -0.09280378 0.3311252 -0.18419 0.2081447 -0.15239 -0.00842626 0.39650682 -0.058044646 0.024933707 0.52649415 0.16486667 0.3927466 0.2511528 0.19251278 -0.010865475 0.07742337 -0.3219483 -0.33217093 0.38740888 -0.18066864 0.10806639 -0.23748815 -0.40968212 0.44988808 0.060256086 -0.64464575 -0.55485934 0.2550958 -0.57914 -0.22414635 -0.27176508 0.074978374 -0.092495665 -0.041256513
issue -0.4905632 -0.80086064 0.20783162 -0.32071373 -0.63481903 0.34298828 -0.18193577 -0.075500056 -0.08699329 -0.26559383 -0.29838696 0.3655991 -0.80809677 -0.09231088 0.71955526 0.25776428 -0.081105195 0.30538574 -0.20773157 0.18158193 -0.13315853 -0.057605423 0.31426275 -0.05552812 0.05639897 0.51006675 0.14474818 0.35968557 0.23662874 0.16317394 -0.018876592 0.085786246 -0.31507987 -0.36005715 0.40499565 -0.20127536 0.08936481 -0.26987666 -0.37079152 0.4939743 0.041688237 -0.5960208 -0.5471326 0.30362135 -0.5741505 -0.24239697 -0.2672434 0.11254627 -0.091861054 -0.067070074
early -0.80665815 -1.3385345 0.33750257 -0.5174875 -1.0978028 0.64196986 -0.3694353 -0.10372252 -0.10970795 -0.45284966 -0.4867291 0.61040115 -1.3294566 -0.21378787 1.2341927 0.4941338 -0.13303827 0.5296157 -0.40158033 0.3165721 -0.22747342 -0.18353087 0.5009453 -0.104948126 0.042778287 0.8497599 0.26726988 0.59458846 0.4211179 0.20287593 -0.038683746 0.18787888 -0.5217536 -0.61856306 0.696577 -0.33690315 0.12865582 -0.54410213 -0.58967483 0.8374646 0.040369283 -0.9600607 -0.8803976 0.5179297 -1.0020815 -0.42211327 -0.43225947 0.2337207 -0.14769536 -0.16534227
next -0.61971056 -0.95801795 0.19335479 -0.40781048 -0.795546 0.4616171 -0.24808864 -0.07102256 -0.09584287 -0.34719372 -0.3509128 0.44687214 -0.9643953 -0.14725949 0.86467665 0.3419654 -0.08230496 0.3938265 -0.26645872 0.241199 -0.14742988 -0.08007398 0.38752487 -0.028006887 0.08535107 0.6085741 0.2253123 0.43900582 0.32088998 0.17361782 -0.03975432 0.09522338 -0.42476657 -0.4683328 0.52297604 -0.24768792 0.11665244 -0.3542065 -0.39774072 0.6066298 -0.0048204423 -0.67905974 -0.6426752 0.33955064 -0.64082 -0.28062388 -0.32733867 0.1595823 -0.09803861 -0.102843314
make -0.6481289 -1.241049 0.30797675 -0.46752217 -0.8354174 0.39537743 -0.21858348 -0.11086465 0.0001528595 -0.4029776 -0.45392722 0.5023339 -1.1309085 -0.09229218 1.0307943 0.34587762 -0.15673435 0.48929378 -0.2979202 0.2897545 -0.25195864 -0.035364922 0.49328005 -0.14657038 -0.039833136 0.7383535 0.20965771 0.55333114 0.31067434 0.18501201 -0.029867815 0.18657543 -0.3577655 -0.46326447 0.5128945 -0.19374514 0.06285667 -0.2936335 -0.60219294 0.60255194 0.12981424 -0.81657785 -0.7153833 0.33272848 -0.9070469 -0.3746769 -0.32674924 0.10833993 -0.11171289 -0.10835226
senior -0.44520202 -0.70738107 0.13882512 -0.29643178 -0.58189917 0.36318862 -0.20623368 -0.06865912 -0.14098296 -0.25236174 -0.2712191 0.28579307 -0.8057169 -0.10003586 0.64146835 0.19321299 -0.040045787 0.25088874 -0.2002177 0.15738022 -0.0681451 -0.06903372 0.31734774 -0.0021200906 0.106636524 0.4311521 0.14893772 0.3138812 0.26603955 0.198884 -0.015127409 0.0065300707 -0.36515343 -0.35787025 0.40102246 -0.242395 0.14524154 -0.31678054 -0.27658674 0.48051894 -0.017135883 -0.583095 -0.5339474 0.29702893 -0.40876907 -0.17171985 -0.3054049 0.122801125 -0.10995702 -0.02604934
have -0.96784246 -2.1058667 0.42834333 -0.8907247 -1.1207327 0.12552883 0.12208466 -0.30050927 0.1089513 -0.81351507 -0.87204516 0.6373318 -1.8027492 0.26679745 1.6894455 0.17719118 -0.32367525 0.80110574 -0.110138535 0.33303067 -0.46122438 0.4521623 1.0615087 -0.32111508 -0.17388743 1.2940506 0.46764317 1.0998982 0.49417314 0.6097594 -0.00047396647 0.004801171 -0.43956777 -0.43821135 0.4545456 -0.12620662 0.11191065 0.2605511 -1.1307483 0.77242446 0.40336803 -1.3707207 -1.1567423 0.16834556 -1.3651739 -0.57471377 -0.48236802 -0.13240737 -0.2293644 -0.04286855
long -0.66362244 -1.2510684 0.27128744 -0.51254874 -0.8857925 0.48086196 -0.30379125 -0.10430942 -0.0690658 -0.41909188 -0.461965 0.50132483 -1.2268668 -0.112831585 1.0594738 0.34602296 -0.12671728 0.45114776 -0.3213297 0.32147023 -0.23931018 -0.076147825 0.5164864 -0.095123954 0.033347007 0.7334213 0.23490076 0.5435856 0.37338236 0.2267898 -0.038702145 0.14411655 -0.4398483 -0.49395415 0.57297313 -0.26009798 0.12077184 -0.38296822 -0.54304194 0.67398524 0.07227711 -0.85796684 -0.78284097 0.37764117 -0.83976597 -0.33795765 -0.38659418 0.13159846 -0.13257825 -0.10452991
been -0.93442917 -2.5601156 0.41181 -0.5742435 -0.9704697 0.045859214 0.02193578 -0.387372 0.24545501 -0.7957493 -0.9683071 0.64415056 -1.897094 0.19387926 1.9121846 0.18428364 -0.1449489 0.91054815 -0.6219486 0.42520124 -0.76489455 0.20492992 0.9042845 -0.7902153 -0.377044 1.058213 0.12394254 1.132036 0.46456507 0.29088926 -0.16731821 0.43239537 -0.7217891 -0.58975613 0.574039 -0.045350224 0.22582655 -0.20365824 -1.3551577 0.7056115 0.5406125 -1.4418955 -0.9059168 0.04512701 -1.3725618 -0.4854224 -0.6866898 -0.09689424 0.01629027 -0.056820657
known -0.5322751 -0.93566525 0.21356753 -0.37210876 -0.6798744 0.33205494 -0.15390572 -0.10635454 -0.08442369 -0.3261442 -0.35036355 0.37797242 -0.90515405 -0.07376171 0.8177488 0.24761645 -0.07632701 0.34064478 -0.2147282 0.18998626 -0.17813335 -0.006467042 0.38762084 -0.081230946 0.051949397 0.5504131 0.1713456 0.42734268 0.27068326 0.21392828 -0.019932939 0.069318876 -0.34601632 -0.3787862 0.43138018 -0.19662264 0.09998314 -0.24179365 -0.428079 0.51644695 0.07425097 -0.66678655 -0.5994441 0.2849771 -0.5963556 -0.2617233 -0.31407025 0.098983616 -0.108634695 -0.05432018
similar -0.4197025 -0.6181688 0.1305076 -0.24582952 -0.5591196 0.36181644 -0.18287171 -0.07332277 -0.17156096 -0.22022375 -0.24127191 0.25701421 -0.7339844 -0.118661806 0.5887831 0.18367054 -0.017462676 0.21619399 -0.17275213 0.12576191 -0.036686596 -0.08168625 0.2769888 0.010669784 0.12860578 0.38132635 0.124751575 0.27113584 0.24460942 0.20281628 -0.02596689 -0.018597929 -0.37415236 -0.334137 0.3849085 -0.24502623 0.15397894 -0.3263324 -0.22846948 0.46552923 -0.018689042 -0.5624954 -0.50394374 0.2979509 -0.3340831 -0.15087242 -0.29901 0.14500447 -0.10524427 -0.02687009
which -0.7185758 -1.4683284 0.27557668 -0.5554734 -0.8915892 0.36104986 -0.19213332 -0.19489719 0.0011553129 -0.47729275 -0.5381354 0.52544767 -1.2940838 -0.04623333 1.1660721 0.3016432 -0.0986032 0.5250001 -0.3771072 0.35586283 -0.34584063 0.031010479 0.58251995 -0.22407801 -0.0018564184 0.74981135 0.2634622 0.6416056 0.417908 0.2812251 -0.054446016 0.18143587 -0.47631416 -0.48958963 0.5579164 -0.20420721 0.14112106 -0.2889246 -0.6934192 0.65819436 0.16644293 -0.91255105 -0.7831194 0.28584453 -0.85847056 -0.3586298 -0.4521823 0.1089148 -0.11165416 -0.0678723
is -1.1672571 -2.0711012 0.5159496 -0.86647254 -1.3850241 0.5146086 -0.25873002 -0.24006402 0.08758295 -0.6896585 -0.76947284 0.922699 -1.7556494 -0.088780746 1.7313924 0.66299516 -0.26915216 0.85347563 -0.40052477 0.4489496 -0.5131465 0.055495102 0.7683673 -0.23798534 -0.026102606 1.2609934 0.40202716 0.9925878 0.5115031 0.2988564 -0.06718908 0.29040158 -0.49503362 -0.6996751 0.8361725 -0.22482604 0.03466676 -0.2595572 -1.0991508 0.9883101 0.2656836 -1.2152653 -1.1810799 0.47685477 -1.5647655 -0.6539613 -0.4366165 0.18199822 -0.15710673 -0.201635
believed -0.7071113 -1.545185 0.33414897 -0.55051875 -0.906383 0.35235387 -0.17543538 -0.17047578 0.06786512 -0.5164184 -0.5915415 0.5461591 -1.3103194 -0.013368737 1.2679023 0.32576448 -0.16369449 0.58085424 -0.31654823 0.29901317 -0.37917715 0.026617782 0.6231143 -0.2574149 -0.082157485 0.81450313 0.21959038 0.68269944 0.36028764 0.24648848 -0.045813475 0.19055986 -0.4198848 -0.48670572 0.5454303 -0.17265655 0.096893966 -0.23240262 -0.8064201 0.6665191 0.20291835 -0.9569451 -0.8215495 0.28576332 -1.0195673 -0.3988661 -0.41213012 0.06533013 -0.10734491 -0.097074136
cattle -0.5576832 -0.82440025 0.18857494 -0.3229806 -0.68774575 0.4194146 -0.2105538 -0.09167598 -0.20342536 -0.28247932 -0.30604172 0.3546146 -0.93737453 -0.12773016 0.7640011 0.23197003 -0.036208384 0.29127982 -0.22889507 0.16738829 -0.07631427 -0.070472576 0.35493216 -0.00498346 0.1404474 0.5140118 0.15134145 0.3682497 0.2799877 0.24467644 -0.023892248 0.0039051578 -0.44406253 -0.42768177 0.48415765 -0.2769379 0.17782015 -0.37589413 -0.32922587 0.58449376 -0.015231195 -0.7213438 -0.6399789 0.3642206 -0.47605267 -0.20506962 -0.37228373 0.14788823 -0.13202119 -0.019462463
feed -0.9005074 -1.9244355 0.44948548 -0.7023647 -1.1803012 0.50679976 -0.28368124 -0.19120115 0.055041455 -0.6278252 -0.72124094 0.70212835 -1.6409012 -0.04745638 1.6058811 0.4639574 -0.22602771 0.72800195 -0.43506205 0.39317513 -0.4921546 -0.026512044 0.7259696 -0.29464734 -0.11316853 1.077415 0.29180568 0.85535884 0.45565194 0.2537649 -0.05810756 0.28359073 -0.5026696 -0.64357674 0.69006467 -0.21618535 0.094395466 -0.34309828 -0.979401 0.8703684 0.22732416 -1.18417 -1.0198694 0.4277648 -1.3793719 -0.5336191 -0.49579975 0.09507968 -0.13834944 -0.16507775
containing -0.7141028 -1.3541697 0.30367267 -0.5539532 -1.0244534 0.58347696 -0.3617303 -0.101295345 -0.0678481 -0.46161205 -0.5121387 0.55267674 -1.3501751 -0.16127838 1.1620244 0.41551393 -0.14378534 0.51812375 -0.39365306 0.35683858 -0.24935956 -0.14977965 0.54783446 -0.10818328 0.024916027 0.80276394 0.27826703 0.5739855 0.43190643 0.21546085 -0.0459796 0.18991534 -0.49582186 -0.5630747 0.64911675 -0.31660557 0.12173574 -0.48043108 -0.58689207 0.75779647 0.04778738 -0.934371 -0.85631955 0.44182444 -0.938735 -0.37722385 -0.4149591 0.18303847 -0.14520913 -0.12624487
waste -0.5476855 -0.7949155 0.20278732 -0.31960723 -0.69446826 0.41868415 -0.21928123 -0.09200712 -0.19699281 -0.27872258 -0.30475184 0.3749472 -0.8863538 -0.13029632 0.7558056 0.26971367 -0.05102975 0.28647584 -0.22003874 0.15375806 -0.087790534 -0.09911202 0.32251707 0.015380135 0.13038832 0.522156 0.1576309 0.36093897 0.2757892 0.20427392 -0.01981622 0.021029266 -0.410658 -0.4261749 0.47076228 -0.27500075 0.16328692 -0.36822227 -0.31874982 0.5933942 -0.025870053 -0.68145204 -0.6188243 0.3963345 -0.5212489 -0.22779934 -0.33325788 0.1618162 -0.14535907 -0.04029012
farmers -0.6179442 -0.9144989 0.24518327 -0.32522395 -0.8324199 0.5137925 -0.23261763 -0.08086028 -0.18248928 -0.3165751 -0.34385562 0.43272102 -0.99227035 -0.1891921 0.89813656 0.31339595 -0.062577955 0.35618466 -0.3012381 0.19725163 -0.11442437 -0.12970969 0.34987262 -0.05479786 0.13374099 0.5910551 0.18176794 0.4097451 0.33004105 0.21282719 -0.043053787 0.07372282 -0.4881259 -0.49872303 0.5626573 -0.312389 0.17138237 -0.44261017 -0.39108953 0.6668804 0.002853729 -0.7544373 -0.6896044 0.41443908 -0.6023942 -0.28185284 -0.40500686 0.18773313 -0.1345703 -0.06711628
denied -0.71946186 -1.497769 0.3536339 -0.5403711 -0.9690856 0.43754306 -0.23637673 -0.14371352 0.03888608 -0.49785006 -0.5704066 0.5625934 -1.3058591 -0.060622774 1.2772678 0.38871726 -0.16693388 0.5725303 -0.3721438 0.31299043 -0.37221673 -0.043686755 0.5619296 -0.24887533 -0.07901678 0.84322727 0.23142111 0.6600607 0.37542364 0.1887316 -0.043706425 0.23472624 -0.4249665 -0.5271954 0.5767986 -0.19388917 0.08356274 -0.3158663 -0.76602507 0.71262217 0.16957244 -0.92874897 -0.81296855 0.3410798 -1.0670702 -0.4264187 -0.40777764 0.10454662 -0.116557084 -0.13799709
danger -0.62515795 -0.8658591 0.2191278 -0.33258647 -0.8306691 0.5483895 -0.26089534 -0.09224106 -0.2552966 -0.31043693 -0.3298419 0.4185336 -1.0237321 -0.19527863 0.8647973 0.3045671 -0.03736977 0.32274333 -0.28288594 0.17648868 -0.060614478 -0.15966764 0.35750353 -0.004427206 0.17718582 0.5531153 0.1781753 0.38427046 0.34384325 0.24662927 -0.03589458 0.013796508 -0.52653617 -0.51305276 0.5851952 -0.36378598 0.21276411 -0.49940836 -0.34338644 0.70176226 -0.047600746 -0.786784 -0.71849424 0.4570681 -0.52643 -0.24851708 -0.43645185 0.22052768 -0.15737644 -0.051868256
their -0.71286905 -1.3074069 0.23810133 -0.5322549 -0.76464945 0.46138775 -0.30002573 -0.11809301 -0.16288473 -0.4011417 -0.4072991 0.45880923 -1.3538057 -0.15694769 0.9944931 0.34102827 -0.07224737 0.46206266 -0.33725438 0.37814465 -0.1908681 -0.01548207 0.5376957 -0.021093596 0.009729264 0.7115945 0.33534956 0.5807239 0.34290817 0.26522914 0.0080461735 0.1949047 -0.5087325 -0.5005809 0.58019215 -0.26876447 0.13297126 -0.36959177 -0.4545514 0.6299109 0.07703299 -1.0017779 -0.7786201 0.30413654 -0.7865814 -0.31976995 -0.36202458 0.15379581 -0.154862 -0.0622749
but -0.9445266 -2.0300388 0.448979 -0.8027701 -1.1008536 0.29049248 -0.18951665 -0.27737516 0.12567224 -0.65010643 -0.73888 0.75893223 -1.6140373 0.07513179 1.5644883 0.4553692 -0.22520724 0.7341998 -0.3593293 0.3755054 -0.5572628 0.18895005 0.7752923 -0.29520386 -0.12881225 1.0899101 0.3080945 0.913305 0.42988893 0.3122205 -0.017399848 0.25053674 -0.37795922 -0.5815401 0.6300403 -0.12651223 0.042366795 -0.11931559 -1.061198 0.7631769 0.31966755 -1.1392027 -1.0215067 0.33464783 -1.3615972 -0.54397 -0.43381855 0.050843008 -0.1421109 -0.12003934
expressed -0.6781584 -1.2598139 0.30457562 -0.472598 -0.87185246 0.44760093 -0.24407992 -0.116850235 -0.05943653 -0.41601208 -0.46663538 0.4990619 -1.1777728 -0.097863875 1.0922239 0.3429409 -0.13172582 0.46883643 -0.31485152 0.26786163 -0.2624807 -0.058133073 0.48639745 -0.13981889 0.0053680814 0.74284285 0.20584272 0.5608815 0.3387791 0.2097167 -0.03702407 0.15772523 -0.42078945 -0.5006117 0.54444623 -0.22695607 0.11359943 -0.34354368 -0.5995599 0.6707499 0.10680289 -0.8607232 -0.76255536 0.37429598 -0.8818019 -0.35895097 -0.38816842 0.1174681 -0.11957911 -0.101753786
concern -0.6062532 -1.0373248 0.24755596 -0.39854813 -0.8091584 0.45845127 -0.23893505 -0.081375256 -0.06725031 -0.3553944 -0.38645893 0.4454712 -1.0217782 -0.13931668 0.93417025 0.3292232 -0.1014174 0.4123633 -0.29526103 0.24230841 -0.18749332 -0.08839494 0.39957425 -0.10178176 0.05034786 0.62600064 0.20604816 0.45822194 0.3252569 0.1883504 -0.035504255 0.12342848 -0.4029743 -0.46142018 0.5263087 -0.25617227 0.106236905 -0.36743426 -0.47269642 0.6026924 0.051555064 -0.7245172 -0.68555504 0.3526382 -0.7065745 -0.30484858 -0.35091743 0.1535317 -0.10014714 -0.10096152
government -0.74283147 -1.2674853 0.36080354 -0.46791512 -1.0893008 0.62256134 -0.34949237 -0.031159455 0.062105235 -0.42712095 -0.47918674 0.618438 -1.1795652 -0.21795341 1.1932548 0.51663846 -0.20070894 0.5572909 -0.4501891 0.37757066 -0.30561206 -0.16059378 0.40624353 -0.20502385 -0.028555414 0.8453645 0.26992223 0.5630218 0.4007705 0.07768826 -0.06717996 0.31744924 -0.4253505 -0.5723278 0.64328396 -0.27086657 0.007790768 -0.48717064 -0.62162244 0.6934264 0.1047327 -0.7682075 -0.78827506 0.4236462 -1.0826771 -0.4636437 -0.3408742 0.20867759 -0.061871495 -0.22296888
avoid -0.3260992 -0.42987835 0.115728304 -0.15603516 -0.38920724 0.21215312 -0.0613349 -0.05946678 -0.10100595 -0.15245838 -0.17266484 0.20552784 -0.4534005 -0.07282381 0.4362462 0.1358737 -0.01748889 0.16199253 -0.113463745 0.062152315 -0.05539895 -0.019268993 0.16889347 -0.02985839 0.10453651 0.269234 0.07946314 0.21225066 0.15233853 0.13979726 -0.020760188 -0.015342322 -0.23372005 -0.22928767 0.27236524 -0.14441232 0.09809484 -0.17399979 -0.19875292 0.32215723 0.0068942606 -0.35635915 -0.3476235 0.19046354 -0.24576484 -0.13468522 -0.20707078 0.092206135 -0.07036786 -0.018207967
might -0.67642134 -1.2688965 0.284993 -0.49624768 -0.92512685 0.50894725 -0.29801765 -0.11932937 -0.07061732 -0.43177116 -0.48846897 0.5133801 -1.2319477 -0.124260254 1.101754 0.36582735 -0.11944955 0.46815452 -0.32746983 0.27905196 -0.24983612 -0.09929521 0.51321346 -0.109564774 0.022960788 0.74546635 0.21945544 0.5438438 0.36841005 0.2088893 -0.029351601 0.14887336 -0.45276955 -0.5312407 0.58860266 -0.27555767 0.1213768 -0.4106252 -0.5754577 0.71456546 0.06930352 -0.8768129 -0.80991614 0.41266933 -0.8787824 -0.35827777 -0.4032959 0.14972836 -0.14074358 -0.11299556
across -0.4804844 -0.6846986 0.11838474 -0.2744363 -0.6187745 0.39831942 -0.20344977 -0.083400495 -0.22901957 -0.24858695 -0.27123472 0.28045323 -0.84670067 -0.12117613 0.65005076 0.17461722 -0.00018532181 0.23280701 -0.18044955 0.12773274 -0.016023422 -0.066526674 0.33686247 0.03149928 0.183886 0.41357493 0.13171868 0.29755986 0.28006497 0.26889083 -0.021570021 -0.070695035 -0.44956136 -0.38757533 0.44633618 -0.30026016 0.21286616 -0.36440033 -0.24459802 0.55179465 -0.0452817 -0.64984405 -0.5933317 0.34960547 -0.3089553 -0.14490569 -0.37477946 0.14230306 -0.12906265 0.0051738657
Europe -0.46443692 -0.61707944 0.13488147 -0.24802157 -0.6136133 0.42525372 -0.20806114 -0.053751808 -0.18959361 -0.23174036 -0.25322297 0.2800498 -0.76887244 -0.15635781 0.6361889 0.20590341 -0.018323876 0.23681644 -0.20586382 0.13369639 -0.0128923245 -0.112410404 0.28504404 0.0071963756 0.15647644 0.39626458 0.15060176 0.27282035 0.2748457 0.21420988 -0.029850222 -0.028356608 -0.41500115 -0.38317358 0.4382867 -0.29138857 0.17110924 -0.3774793 -0.22863024 0.51553816 -0.05367089 -0.5792894 -0.5535229 0.33141202 -0.33329704 -0.15963672 -0.34444773 0.16010132 -0.107356966 -0.031473555
What -0.33394238 -0.656871 0.12875216 -0.20804934 -0.5202343 0.2484902 -0.05695138 -0.08659904 -0.02504068 -0.2382345 -0.27985337 0.2589931 -0.58563256 -0.064681575 0.61442995 0.1644668 -0.039393447 0.2756487 -0.15019615 0.07992517 -0.1335466 -0.011020515 0.27768764 -0.11468673 0.046701476 0.33075342 0.0961014 0.27419648 0.20992708 0.16954975 -0.019929023 0.0043239812 -0.26600507 -0.26078328 0.33533344 -0.16074346 0.10309332 -0.1811285 -0.35091493 0.36911428 0.054975733 -0.43650836 -0.42645463 0.18104479 -0.33371815 -0.17559473 -0.2798421 0.09116436 -0.056734994 -0.037375342
extremely -0.37990302 -0.57482356 0.13136517 -0.21363276 -0.5016777 0.31313333 -0.13751675 -0.070035666 -0.14407714 -0.20145671 -0.22391337 0.25022975 -0.6444972 -0.09473864 0.5555522 0.17269859 -0.024312438 0.20844407 -0.15822986 0.1026106 -0.050050393 -0.0666304 0.2505885 -0.016574953 0.10471461 0.34372285 0.103085704 0.25247508 0.20444947 0.1688427 -0.015719524 -0.008142737 -0.32088792 -0.30370423 0.3505697 -0.21205898 0.13891774 -0.27297056 -0.24246375 0.41962942 -0.008411025 -0.5069596 -0.4454154 0.2601513 -0.3137842 -0.14463837 -0.27192008 0.12054267 -0.09254425 -0.019115983
how -0.5990276 -0.9440798 0.2270862 -0.36380187 -0.73627883 0.4153315 -0.19098434 -0.11108694 -0.16251954 -0.31811604 -0.3537212 0.40677875 -0.98361737 -0.119547725 0.8635085 0.2747764 -0.06456154 0.33936694 -0.23562431 0.18172868 -0.13059361 -0.05974189 0.38740593 -0.058823533 0.10806168 0.5711116 0.1684557 0.42715946 0.29734677 0.24740657 -0.028193682 0.03041209 -0.42930004 -0.45066428 0.5025318 -0.2618643 0.15368517 -0.34610632 -0.4186894 0.60915214 0.024750637 -0.7581348 -0.66722435 0.3760111 -0.57538736 -0.2615592 -0.37752908 0.14928754 -0.1288319 -0.047261264
going -0.748593 -1.7325872 0.4198308 -0.7376325 -1.0626466 0.4999422 -0.40947458 -0.1156172 0.13001816 -0.5373161 -0.60207504 0.67179567 -1.4960971 -0.085315414 1.3239248 0.50650287 -0.26691303 0.64754695 -0.44393918 0.5195915 -0.4671172 -0.07477539 0.635852 -0.19990696 -0.17775372 0.9985038 0.32680246 0.7271529 0.4041077 0.11928225 -0.032488625 0.40371838 -0.3170139 -0.5386025 0.6036822 -0.1558598 -0.045538723 -0.35471365 -0.7964814 0.69428355 0.19246118 -0.9607923 -0.8610441 0.37239206 -1.3800163 -0.51026654 -0.2915985 0.09229986 -0.12126388 -0.20225407
take -0.665133 -1.3060361 0.28522882 -0.48981494 -0.858815 0.41679466 -0.21412164 -0.14303578 -0.05063044 -0.4350215 -0.49207336 0.49195853 -1.2382221 -0.08185518 1.0689083 0.31191075 -0.13505344 0.48605308 -0.29260477 0.29224157 -0.23803665 -0.019615917 0.55737215 -0.14178853 -0.012228194 0.7389475 0.21504472 0.5621113 0.34552127 0.2537894 -0.027307738 0.13719445 -0.44611368 -0.48439798 0.5557959 -0.24043733 0.14168641 -0.33166143 -0.6046479 0.6439651 0.12306415 -0.92446065 -0.77670884 0.34217092 -0.8388949 -0.34178343 -0.39427474 0.11804631 -0.12651008 -0.071956925
