2475 50
EU 0.11645584 0.016115021 0.07286081 0.022668803 0.024864074 -0.06058454 -0.035720535 -0.1777709 0.05589407 0.04967372 0.026629904 0.064176366 0.019520922 0.018401489 0.044936173 0.0389109 -0.100217566 -0.07957812 -0.05326964 0.003791135 -0.12244145 -0.0050009973 -0.02796227 -0.006462084 -0.026945587 0.015499996 -0.019263532 -0.13624954 0.036117766 0.02473756 0.057384476 0.048307784 -0.049425524 -0.016103037 0.06375677 0.012407344 0.13374326 -0.08298544 -0.086399175 0.10138922 -0.060455672 -0.048826344 -0.03192889 -0.05377011 0.0959719 -0.0741859 0.12687662 0.016163094 -0.038068715 0.016888868
German 1.004594 0.04338639 0.6443699 0.25203353 0.29260874 -0.30768794 -0.4964158 -1.2981288 0.10897811 0.57059956 0.08874871 0.35924804 0.03381244 0.00040261762 0.43929076 0.4848451 -0.4793476 -0.7824334 -0.18416798 -0.03098123 -0.5489666 -0.30919984 -0.43317994 -0.372126 -0.046949305 0.17955486 -0.3944293 -0.07843242 0.27919248 0.14388645 -0.0122436015 0.62349063 -0.35871893 -0.36278802 0.40524924 -0.0350935 0.7683971 -0.76805 -0.39733374 0.52594423 -0.4222241 -0.2175558 -0.078424424 -0.47082675 1.0543299 -0.19724567 0.76833886 0.4028248 -0.21819401 0.08099613
call 0.26925683 -0.31291518 -0.12510155 0.20067133 -0.08262842 -0.49117926 0.28042614 -1.6915866 1.2851906 -0.40558422 -0.12924078 -0.07454117 -0.0025209032 0.17038232 0.7455568 1.0307245 -0.7508505 -0.0622275 -0.12832172 -0.5328633 -0.43972838 -0.34377253 -0.22977905 -0.18087576 0.097144455 0.36306718 -0.23914476 -1.0805119 0.33698645 -0.11761274 0.8743549 0.49833253 0.10401924 -0.0002674374 -0.22516407 0.4914126 1.2101307 -0.2001957 -0.47708485 0.34158427 -0.5384488 -0.007845073 0.11333703 -0.7856236 0.033656064 -0.7782662 1.181143 -0.6087692 -0.6228306 0.21031982
to -0.16386655 -0.67624 -0.707806 0.21665002 -0.2950412 -0.750716 1.1251152 -3.01194 2.871523 -1.3258394 -0.44811457 -0.4307531 -0.037785262 0.36908853 1.4631516 2.3274052 -1.2873333 0.31332955 -0.079283506 -1.3099827 -0.5134598 -0.5981969 -0.12669158 -0.2084174 0.29755634 0.7434127 -0.26837003 -2.0427585 0.6693919 -0.37158427 2.0502446 0.66512495 0.46763366 0.28900284 -0.75532895 1.2269537 2.2019448 0.05748357 -0.68425786 0.42369634 -1.2173898 0.20769095 0.4475557 -1.7364812 -0.5043727 -1.3764586 2.1407914 -1.7424053 -1.2232007 0.3274771
British 0.5170729 -0.07903265 0.24751976 0.178609 0.07748104 -0.34474316 -0.12950732 -1.17918 0.56094843 0.06498982 0.05363678 0.17272875 0.032242224 0.09023492 0.4236334 0.5019176 -0.55331415 -0.34108874 -0.17817734 -0.19392374 -0.48298854 -0.19930336 -0.23209234 -0.18452139 -0.018335413 0.19706933 -0.21629676 -0.62669283 0.24685557 0.04769315 0.37550694 0.42202967 -0.1524737 -0.15028028 0.12547073 0.18081436 0.8116339 -0.40447825 -0.39670056 0.4078488 -0.3321449 -0.13342957 -0.022002542 -0.4456266 0.4137298 -0.460801 0.79589105 -0.06948007 -0.3385733 0.13608716
. 0.35545257 -0.4419094 -0.10115958 0.27147684 -0.15575556 -0.68187237 -0.08019668 -2.226831 1.6236143 -0.36687228 0.048497662 -0.0029827221 -0.07042028 0.25495183 0.7483752 1.1892948 -1.035269 -0.069628395 -0.29029462 -0.5979512 -0.7120311 -0.06223455 -0.2182431 -0.26270643 0.19179897 0.532874 -0.31553677 -1.8856747 0.5238479 -0.034297496 1.0670251 0.6435772 -0.032096412 -0.07901111 -0.32277006 0.6129468 1.4938704 -0.3906217 -0.5644023 0.7285415 -0.46461442 0.09851473 0.06719523 -0.9385432 0.10061657 -1.1339998 1.5076755 -0.6349595 -0.9869118 0.32913166
Peter 0.49159092 0.005564674 0.33407012 0.14470513 0.111627825 -0.29592964 -0.13017875 -0.9264775 0.37001303 0.13019331 0.08917467 0.28698412 0.09240243 0.05704326 0.27454033 0.25248215 -0.51524174 -0.38250053 -0.19778378 -0.095932476 -0.529005 -0.12836298 -0.16607803 -0.07907422 -0.12125785 0.08706522 -0.15608431 -0.62289274 0.18372665 0.09161075 0.29641017 0.30662984 -0.20099 -0.13662095 0.28306118 0.105548 0.7181479 -0.40008917 -0.41176006 0.40455675 -0.2528874 -0.21083358 -0.12895553 -0.2870359 0.4162366 -0.38651344 0.67333454 0.027634496 -0.19403283 0.13818255
Blackburn 0.25484645 0.058600172 0.23241971 0.06793436 0.07458887 -0.14819476 -0.061967492 -0.46620384 0.16613434 0.10088538 0.09338685 0.20851438 0.06467355 0.030084763 0.077987194 0.07740292 -0.29763478 -0.27846846 -0.12355327 -0.034851063 -0.3477206 -0.026451835 -0.047049604 0.0019976993 -0.09738426 -0.0030664701 -0.04686465 -0.39153057 0.08301902 0.07907947 0.15033543 0.13861923 -0.1462668 -0.059371334 0.25645104 0.052834462 0.39003277 -0.21415356 -0.24900259 0.25368473 -0.14736292 -0.13499105 -0.1318949 -0.12277634 0.28440365 -0.18865195 0.35673866 0.053167228 -0.030000046 0.073690504
BRUSSELS 0.23935252 0.057385612 0.25228494 0.06393593 0.07263725 -0.13100378 -0.20781475 -0.38019556 0.086822174 0.15702581 0.15552689 0.21952786 0.03009967 0.036551826 0.01117046 0.00073255855 -0.25297013 -0.24502113 -0.13238946 0.009909314 -0.32839185 0.07160308 -0.0182387 -0.032120746 -0.067487516 0.00032392892 -0.025101451 -0.39787006 0.10260633 0.10608822 0.09092078 0.12148216 -0.19066031 -0.093162626 0.22526044 0.020678617 0.25633538 -0.23822458 -0.16837028 0.27962118 -0.06295454 -0.08601303 -0.10491946 -0.06402467 0.27234125 -0.17037623 0.25738615 0.12617624 -0.06824773 0.058412995
1996-08-22 0.91787916 -0.14103015 0.9067405 0.44260865 -0.03378234 -0.80103296 -3.1386719 -0.8635233 -0.10367627 0.87392664 1.6717782 0.8080209 -0.6069274 0.5171199 -0.37037897 -0.8857018 -0.745588 0.2545159 -0.9397166 0.57770306 -1.0687089 1.6008222 0.13157856 -0.75899917 0.27620962 0.4738528 -0.00990552 -2.314982 0.86365896 0.74618715 -0.18609355 0.3827315 -1.2800138 -1.0470912 -0.3596677 -0.24519838 -0.5532919 -1.3408816 0.38753235 1.526016 1.2871053 0.27415484 0.31470004 0.59501195 0.2587885 -1.1510441 0.036753505 1.1731839 -1.5204434 0.23508993
The 0.28209153 -0.68283516 -0.45390072 0.32181373 -0.3006145 -0.8212352 -0.13496195 -2.1171048 1.7440325 -0.66641253 -0.006993211 -0.27328548 -0.13795932 0.28497693 0.8691043 1.163895 -0.9258047 0.386976 -0.2330985 -0.59883755 -0.37082723 -0.22002198 -0.4242374 -0.3586205 0.3135939 0.6994065 -0.28981522 -1.9197093 0.5001287 -0.1672524 1.1188774 0.7208613 0.20721827 -0.15539409 -0.87379134 0.6090339 1.3656971 -0.1904632 -0.42833754 0.38566828 -0.15341292 0.18562077 0.274781 -0.82144165 -0.3848701 -1.3744644 1.3774621 -0.8511873 -1.2530626 0.2878086
European 0.4052736 -0.13778806 0.1434732 0.18390732 0.020005321 -0.37333572 -0.07336426 -1.1605914 0.69267327 -0.06965852 0.03937386 0.13079539 0.010827683 0.11613931 0.4510177 0.518184 -0.56807166 -0.18231535 -0.17981851 -0.2367807 -0.45091382 -0.17811581 -0.18502201 -0.15752517 0.011406646 0.20867728 -0.19355069 -0.7731984 0.25759417 0.022723828 0.4764219 0.37118638 -0.1062995 -0.11622958 0.01219209 0.23785204 0.79912895 -0.3475021 -0.3608986 0.38814375 -0.28000796 -0.108412266 0.027069654 -0.44456095 0.21642385 -0.5340914 0.7869941 -0.1847225 -0.41947538 0.14918768
Commission 0.41132772 -0.050565388 0.11428385 0.15118167 0.029974025 -0.32961103 0.019386886 -1.022412 0.6358037 -0.11617998 0.020952832 0.1369787 0.04158469 0.13858992 0.42663354 0.49217126 -0.48759604 -0.17461634 -0.17021215 -0.17544465 -0.4298717 -0.17647672 -0.20535772 -0.11020404 -0.031248441 0.18035941 -0.17116585 -0.6381102 0.24291949 -0.0041081384 0.42892644 0.29455295 -0.096087754 -0.09353742 0.038893607 0.19597241 0.72072035 -0.33097526 -0.37380323 0.37325555 -0.24039312 -0.1625931 0.022578685 -0.38641393 0.19733071 -0.47225815 0.72089493 -0.17470495 -0.35705462 0.11160966
said 0.20029783 -0.83138317 -0.658959 0.29314238 -0.32828528 -0.8236866 0.2702824 -2.7011447 2.1586413 -0.83001333 -0.32481796 -0.48738062 -0.07391106 0.2777641 1.0789891 1.7321945 -0.9906313 0.316141 -0.12965067 -0.86013484 -0.31473488 -0.41518447 -0.50693935 -0.34274888 0.38363802 0.878706 -0.39923537 -1.8716961 0.53442866 -0.31766436 1.2639946 0.924972 0.37626278 -0.008745898 -1.0214003 0.6512569 1.7468891 -0.027895313 -0.55152303 0.2984813 -0.56944406 0.3142175 0.33821958 -1.2149183 -0.32420948 -1.4368458 1.6675118 -1.2518682 -1.2878718 0.33115473
on 0.64286214 -0.33925593 -0.20360076 0.3201932 -0.04985729 -0.7741759 0.46466807 -2.1223295 1.6913624 -0.7754305 -0.30553207 0.07449924 0.10492027 0.30292904 1.2073535 1.2530222 -1.0267264 0.2104013 -0.35002005 -0.50209105 -0.6805335 -0.5830813 -0.5014081 -0.138876 -0.027231816 0.4863441 -0.42721847 -1.4022394 0.4492646 -0.1633912 1.1773796 0.4918139 0.10672006 -0.077668086 -0.36804575 0.49934837 1.6660066 -0.44653422 -0.8134993 0.58689713 -0.35072544 -0.33798468 0.25321403 -0.8679535 -0.25515777 -1.2582481 1.6108001 -0.8330592 -0.9506289 0.26656088
Thursday 1.0057505 -0.061857495 -0.1994341 0.42758372 -0.36728537 -0.9215129 -0.099103495 -0.8634086 0.68011254 -0.31978223 0.14627956 -0.007424534 0.16062339 0.12000336 0.6896849 -0.3052049 -0.82373035 0.3299124 -0.32470512 0.22217576 -0.5952163 -0.5517478 -0.8278393 -0.16973391 -0.09335006 0.16377246 -0.37637898 -1.355047 -0.2580403 -0.06285786 0.42275465 0.6567912 0.28487828 -0.2633757 -0.2832313 0.24331577 1.1462569 -0.2473749 -0.9673432 0.07223536 0.735029 -0.6912099 -0.26596627 0.32529503 -0.35167882 -1.4983398 0.8866431 -0.03407872 -0.6144435 0.2535135
it 0.05682628 -0.8600044 -0.86122483 0.29599145 -0.43186742 -0.82903886 0.92476827 -3.010599 2.7205272 -1.2320722 -0.5194233 -0.67022675 -0.06960344 0.29869553 1.4899812 2.253341 -1.1423144 0.41889846 -0.04140059 -1.1887838 -0.29077047 -0.7792403 -0.47238293 -0.31257507 0.38397536 0.88842094 -0.41132224 -1.857261 0.55441713 -0.4833826 1.8092254 0.8445509 0.6326685 0.16425082 -1.0574238 1.0897064 2.160977 0.09971471 -0.68630457 0.23951964 -0.9102167 0.23791564 0.44368517 -1.6184112 -0.51424956 -1.4838846 2.1069658 -1.6181576 -1.3337773 0.3527073
with 0.22533172 -0.34638768 -0.14995998 0.20364098 -0.044627167 -0.49394542 0.4328927 -1.8215847 1.4228076 -0.5071851 -0.22136503 -0.0525427 0.032379463 0.17606163 0.8622026 1.1504169 -0.8353243 -0.02543401 -0.11666239 -0.6484002 -0.46955273 -0.46266326 -0.19333853 -0.14861646 0.06517715 0.3602091 -0.25013372 -1.1014947 0.36457616 -0.13724124 1.0139359 0.47542384 0.1331746 0.031907912 -0.22185372 0.5641571 1.3362526 -0.19631141 -0.51241946 0.34983984 -0.68772405 -0.07226402 0.1827402 -0.9136109 -0.055306222 -0.79261893 1.2768089 -0.7615536 -0.6496513 0.23186626
until 0.29528266 -0.047213558 0.17203508 0.102944344 0.04941674 -0.2585056 0.039230585 -0.94884354 0.54312617 -0.029909847 0.01957581 0.16177721 0.052471105 0.06389528 0.3154647 0.42069873 -0.4882243 -0.27786818 -0.137433 -0.21100488 -0.4308092 -0.13763069 -0.10157372 -0.06117969 -0.056147456 0.1105471 -0.112917595 -0.6391359 0.1899538 0.031124284 0.41309324 0.2699865 -0.09495558 -0.04090999 0.15875338 0.2005331 0.71743804 -0.24688813 -0.35466972 0.31673077 -0.3278738 -0.11047089 -0.073438376 -0.37695375 0.27863428 -0.37141663 0.683384 -0.14577337 -0.21315484 0.12835394
determine 0.30737495 -0.036480494 0.18780878 0.10842337 0.05340541 -0.24240729 -0.0023751995 -0.8494045 0.45684344 0.0067631355 0.039655026 0.16537587 0.05673428 0.062040083 0.26666227 0.34724602 -0.43835562 -0.27843168 -0.13515201 -0.1671939 -0.4054915 -0.11893944 -0.10926402 -0.05625372 -0.0596525 0.10150686 -0.109690405 -0.5754134 0.17560524 0.036317445 0.34349912 0.25350815 -0.11115377 -0.059270613 0.16607983 0.16188207 0.6403076 -0.2574796 -0.32924157 0.31455985 -0.2770224 -0.1157889 -0.0723497 -0.32983539 0.2829857 -0.33896193 0.60882616 -0.10121971 -0.19344218 0.11189645
whether 0.22777636 -0.3010712 -0.1130394 0.17946057 -0.049660034 -0.4247123 0.33121678 -1.6284688 1.1980253 -0.36839563 -0.18588796 -0.0820413 0.010961625 0.110460676 0.73362714 1.0246229 -0.6907876 -0.10711586 -0.099842146 -0.5503347 -0.38872084 -0.3857312 -0.20579575 -0.15059349 0.08399654 0.34603894 -0.23373184 -0.90629274 0.29771915 -0.12383055 0.83612436 0.47401705 0.12125526 0.011888253 -0.18561459 0.4686155 1.1864574 -0.15903656 -0.44776896 0.27929083 -0.6228422 -0.020324508 0.10646418 -0.8088322 0.074672714 -0.6673109 1.1432521 -0.6092271 -0.5396908 0.19872141
mad 0.3261723 -0.28707954 -0.07737217 0.22387712 -0.06941812 -0.533858 0.2527167 -1.6945479 1.24817 -0.38365796 -0.10860771 0.0051788986 0.030657334 0.15864481 0.72453105 0.8981757 -0.80828565 -0.06943273 -0.1803746 -0.48467967 -0.5433092 -0.33999285 -0.23855665 -0.13541594 0.045303512 0.33407235 -0.23766911 -1.1800426 0.29523236 -0.08386985 0.8778421 0.49949795 0.07011963 -0.02632977 -0.14545564 0.48203155 1.2591231 -0.22196786 -0.5505419 0.3800084 -0.49645248 -0.09482611 0.062611856 -0.7144707 0.04222111 -0.8454453 1.2160833 -0.5673395 -0.60684955 0.24455304
cow 0.26795325 -0.24722609 -0.0631556 0.17275862 -0.06115866 -0.4592971 0.32458234 -1.6494887 1.241828 -0.3865059 -0.106325105 -0.00065298425 0.039716482 0.17552614 0.6701584 0.96739334 -0.7755014 -0.14930488 -0.15019956 -0.5068129 -0.50943 -0.31326014 -0.17139968 -0.12559977 0.029664649 0.3154424 -0.19930382 -1.1247092 0.3264031 -0.08669687 0.87860453 0.4394768 0.063142605 0.022249212 -0.095713384 0.48681882 1.2285341 -0.19773723 -0.5248038 0.39624566 -0.5531417 -0.063036986 0.04634253 -0.75892144 0.09109539 -0.74775344 1.1799206 -0.60027176 -0.5457922 0.21314584
disease 0.26204568 -0.14801459 0.03276953 0.13661529 -0.002066317 -0.3258933 0.12447222 -1.1562165 0.785199 -0.1824892 -0.03917699 0.055007845 0.027417852 0.10695241 0.46160918 0.6254595 -0.53980565 -0.1576998 -0.13412474 -0.32104066 -0.39758542 -0.20866139 -0.14477204 -0.10338936 0.011081272 0.20721553 -0.15654823 -0.7434487 0.23670876 -0.028012687 0.5592356 0.32133216 -0.015708372 -0.031333506 -0.01502802 0.299836 0.8316492 -0.21700452 -0.3590107 0.31599578 -0.38197318 -0.06387215 0.029069483 -0.5073368 0.14880314 -0.4974662 0.81425774 -0.31907213 -0.36689168 0.14463797
can 0.37942147 -0.5345446 -0.2728503 0.29712346 -0.12442457 -0.64802223 0.24815856 -2.2735012 1.6732006 -0.5213211 -0.2379217 -0.23659371 -0.07098587 0.20395353 1.0683211 1.4832966 -0.87907255 0.054378342 -0.126851 -0.717068 -0.39369664 -0.5324815 -0.39520195 -0.3683456 0.2650058 0.6005149 -0.39648786 -1.1788819 0.47362548 -0.19769537 1.0611448 0.7472108 0.19143243 -0.07026736 -0.5433768 0.6137036 1.485092 -0.26117286 -0.4973104 0.3691574 -0.68205935 0.086114936 0.3082886 -1.1103303 -0.011738462 -0.9860376 1.4928701 -0.8067458 -0.9539942 0.2546546
be 0.11824636 -0.8728635 -0.7123611 0.2536321 -0.2426123 -0.6319146 0.9343343 -3.2749126 2.5443788 -0.99469256 -0.70490897 -0.7145517 -0.20032988 0.23379472 1.621125 2.641824 -0.9625774 0.1306184 0.07986549 -1.3261639 -0.12721023 -0.9548564 -0.42930365 -0.55343735 0.50324965 0.9507457 -0.49949238 -1.0689414 0.6273321 -0.4832444 1.6326454 0.92270243 0.5524479 0.11966965 -1.0000067 1.0541146 2.075393 -0.012526251 -0.48587143 0.20735912 -1.4335878 0.3272233 0.55387414 -1.9828241 -0.04753965 -1.0222552 2.0550702 -1.5316607 -1.2084783 0.27525076
sheep 0.15779135 -0.058044657 0.0486211 0.07095793 0.006792021 -0.16402565 0.061891742 -0.59302557 0.37810734 -0.058940634 -0.026716825 0.03998124 0.025255201 0.04398041 0.23004247 0.31595537 -0.2750182 -0.12970607 -0.057223875 -0.15379165 -0.21262455 -0.1099042 -0.0853065 -0.05113776 -0.005263709 0.095808305 -0.08263147 -0.35344136 0.115660235 -0.013768154 0.26292282 0.18509886 -0.017857807 -0.01772303 0.037109617 0.13941167 0.44097137 -0.1234518 -0.20642732 0.16065708 -0.21494739 -0.03892738 -0.010974546 -0.26621848 0.13174717 -0.23726067 0.42428073 -0.13815004 -0.16171855 0.07021939
Germany 1.1406113 0.24154757 0.9468859 0.20404588 0.43856356 -0.16295023 -0.6022116 -1.0939853 -0.2906332 0.8954711 0.15981326 0.55052626 0.08376072 -0.06825016 0.23706022 0.30007434 -0.38102502 -1.1432227 -0.17614895 0.103617534 -0.6256848 -0.24845076 -0.39592445 -0.33870277 -0.15820943 0.03422328 -0.36678514 0.25205886 0.24469896 0.24199909 -0.27841645 0.5808174 -0.53116673 -0.40967795 0.7795435 -0.19354992 0.6300055 -0.8967132 -0.39506045 0.59949434 -0.49978912 -0.2796267 -0.22691776 -0.38330907 1.467256 0.09989203 0.62353915 0.7147041 0.07162314 0.028935295
's 0.6529192 -0.18113808 0.2811022 0.22898506 0.13519382 -0.4484852 -0.24395695 -1.5909228 0.7718352 0.060702685 0.0411634 0.2053257 -0.015149133 0.14363682 0.621525 0.8010831 -0.65932465 -0.31861806 -0.18691719 -0.30785233 -0.53381056 -0.24333361 -0.31025517 -0.31369415 0.058143407 0.30551133 -0.33715346 -0.7540386 0.42575347 0.04820969 0.47263357 0.54078925 -0.20202716 -0.2398225 -0.0011309119 0.24273032 0.97428113 -0.5820383 -0.37141374 0.5531453 -0.4653207 -0.080524825 0.08558124 -0.67082137 0.46146643 -0.5548508 0.99075556 -0.10284914 -0.56400174 0.1652368
the 0.07219051 -0.8024124 -0.62365824 0.354111 -0.2794071 -0.8602722 0.69778687 -2.6807046 2.430008 -1.0903876 -0.3876911 -0.4285727 -0.106206656 0.2002555 1.4100894 1.8939474 -1.1760195 0.36218575 -0.11486644 -1.1665298 -0.43242005 -0.73373663 -0.334606 -0.28622243 0.3122936 0.7053942 -0.41358787 -1.8999723 0.5014731 -0.36755136 1.7915868 0.7442582 0.4707285 0.070710644 -0.7961116 1.0757328 2.0657516 -0.04804417 -0.60660344 0.28255978 -0.9369852 0.062424414 0.33494434 -1.4326525 -0.52361053 -1.3831247 1.9768989 -1.4344682 -1.2085934 0.3528078
Union 0.43703416 0.033194512 0.08722886 0.13382648 0.03971305 -0.3277626 0.1963733 -0.9524736 0.69854933 -0.25088325 -0.016282342 0.17206345 0.07968738 0.19222078 0.46411857 0.51634485 -0.4893411 -0.14070944 -0.18150978 -0.15383093 -0.44913447 -0.18730767 -0.20666657 -0.046526976 -0.09725391 0.14904338 -0.14630638 -0.6114905 0.2570402 -0.040244915 0.484938 0.19496085 -0.0898674 -0.054764662 0.07918255 0.20782807 0.75898117 -0.34097412 -0.44392785 0.40501305 -0.20972349 -0.26091948 0.044092674 -0.37571067 0.12548438 -0.48557824 0.73243517 -0.25207892 -0.33803922 0.07850135
committee 0.22594658 -0.12804733 0.017792586 0.11799312 -0.015961347 -0.28320673 0.13524929 -1.002156 0.7034281 -0.17657109 -0.033780556 0.032370288 0.028748276 0.09866115 0.3959949 0.5447409 -0.47519287 -0.13441598 -0.10642438 -0.27912366 -0.34557 -0.18876506 -0.12960522 -0.08196673 0.008289957 0.17798609 -0.13103579 -0.66339153 0.20130144 -0.03158989 0.49508232 0.28535077 -0.00460126 -0.011013759 -0.018474853 0.26504263 0.7341524 -0.17714016 -0.33037862 0.2701848 -0.32782665 -0.066854276 0.018955406 -0.4459707 0.1177108 -0.4423481 0.70819 -0.30029044 -0.31766963 0.12660556
Wednesday 0.96171623 0.052385278 -0.044771638 0.37793854 -0.29221892 -0.8245607 -0.1045334 -0.5939177 0.4275656 -0.18255769 0.2013842 0.13478355 0.20267554 0.06965473 0.49241766 -0.5577458 -0.775643 0.20693785 -0.3392645 0.31030917 -0.6624509 -0.46086884 -0.70605886 -0.05883008 -0.19310316 0.016890464 -0.30433586 -1.2714511 -0.3316382 0.020185692 0.30122158 0.5272034 0.19108617 -0.23413672 -0.034664504 0.15479857 0.9984061 -0.24587093 -0.9499624 0.096428774 0.73030066 -0.7660745 -0.38482144 0.4611232 -0.26169267 -1.3240011 0.74384695 0.108065896 -0.39315856 0.25252202
should -0.010467217 -0.36162376 -0.29994777 0.13565578 -0.18118589 -0.47699583 0.56128 -1.844371 1.5820869 -0.61484253 -0.21624628 -0.20349963 -0.015483985 0.16315594 0.7571007 1.2569958 -0.8112423 0.00059690623 -0.08787271 -0.72598535 -0.37922725 -0.33503065 -0.12983437 -0.13821971 0.1373622 0.38519788 -0.18475947 -1.2776988 0.3190119 -0.1671076 1.1022873 0.51548237 0.2511631 0.1322868 -0.31620133 0.6794047 1.3621626 0.008985268 -0.49505746 0.26092845 -0.71095705 0.15010893 0.10048569 -0.9625177 -0.1116298 -0.8340602 1.3179734 -0.8519356 -0.6387728 0.24691372
buy 0.09234234 -0.13971972 -0.061381105 0.07630003 -0.028170181 -0.19749609 0.16285709 -0.76554126 0.583985 -0.19155525 -0.06669597 -0.033158507 0.0050256005 0.06966818 0.3302814 0.48271713 -0.33342877 -0.04587492 -0.05091971 -0.25898716 -0.19563162 -0.16114901 -0.08124494 -0.058200266 0.04530715 0.16947508 -0.09709035 -0.470804 0.15265676 -0.052705076 0.4192691 0.21060774 0.056414045 0.008063244 -0.08932668 0.24173363 0.5608527 -0.073153436 -0.20888236 0.14139229 -0.28661126 -0.0006476686 0.046654623 -0.3775763 0.04287651 -0.33250347 0.5492064 -0.2895699 -0.26322833 0.090300076
from 0.38292897 -0.013254041 0.120710224 0.13669361 0.076604016 -0.352124 0.16656478 -1.2970443 0.9389137 -0.2718465 0.026694108 0.21127176 0.05703819 0.23989215 0.57002664 0.76835304 -0.6254313 -0.21183868 -0.18483916 -0.30583927 -0.5649197 -0.1296964 -0.12399283 -0.09484093 -0.04562724 0.23439382 -0.13128862 -0.772819 0.41502735 -0.0023033828 0.6702909 0.24202074 -0.15550268 -0.053125035 0.069562845 0.34538972 0.9071285 -0.3939419 -0.4391227 0.5291699 -0.41360942 -0.16869056 0.14729108 -0.5889453 0.2227012 -0.5438285 0.9154652 -0.36647034 -0.47690696 0.09940369
countries 0.35615572 -0.17306966 0.03101784 0.18185443 -0.005254242 -0.4043108 0.14433536 -1.3270233 0.91291636 -0.22979473 -0.056024507 0.045129094 0.017178493 0.1291377 0.5917111 0.7302349 -0.62300545 -0.14465418 -0.14323102 -0.35802132 -0.4331084 -0.2904492 -0.21247527 -0.15207641 0.017728452 0.24693125 -0.21145351 -0.81057173 0.26155517 -0.049963433 0.6282128 0.40009716 0.0036848148 -0.057881184 -0.062255137 0.3396188 0.9676448 -0.27378818 -0.4275672 0.34845865 -0.40509427 -0.1063783 0.0570489 -0.57793415 0.14665197 -0.59053767 0.94512135 -0.36155388 -0.46347478 0.15689962
other 0.20482785 -0.3831354 -0.1948211 0.21487634 -0.091071114 -0.515907 0.37568957 -1.8239478 1.4263802 -0.49983618 -0.20658271 -0.13068372 -0.009506141 0.15153746 0.8486187 1.1621987 -0.78674346 -0.019978298 -0.12019667 -0.6404255 -0.41121057 -0.42381427 -0.22803777 -0.17155817 0.115869984 0.41997862 -0.24893115 -1.1156939 0.34927738 -0.15917645 1.0052506 0.5214554 0.15481955 0.02902035 -0.2997909 0.5686464 1.3339589 -0.14605857 -0.48644438 0.31125924 -0.6627904 -0.005009929 0.16006437 -0.90334946 -0.044071533 -0.8109263 1.2899839 -0.75876915 -0.67762405 0.22780068
than 0.1580008 -0.509815 -0.2957093 0.2194027 -0.11293965 -0.56540364 0.46600178 -2.140112 1.6893998 -0.60214096 -0.29576394 -0.23482531 -0.055318713 0.15677993 1.0295453 1.5211322 -0.859971 0.006501011 -0.07938251 -0.827239 -0.36630008 -0.5159983 -0.2539716 -0.25907984 0.22428979 0.5274313 -0.32114372 -1.1491964 0.44355488 -0.21879944 1.176064 0.6092084 0.23364882 0.0535969 -0.44355872 0.6905746 1.505606 -0.12592672 -0.4698577 0.3125479 -0.8250304 0.09341369 0.26598096 -1.1423439 -0.034580275 -0.85708827 1.4814873 -0.94979197 -0.8004429 0.2294756
Britain 1.0685716 0.2511313 0.8856014 0.18246329 0.40417457 -0.14722867 -0.45031986 -0.9826928 -0.26508474 0.8119969 0.12338273 0.51385117 0.12193333 -0.06616051 0.239438 0.26317292 -0.37334234 -1.087351 -0.16054219 0.095430516 -0.6026228 -0.30829102 -0.38225797 -0.28263164 -0.18457255 -0.0052989544 -0.33952728 0.25359935 0.1884957 0.21113147 -0.23840423 0.5303177 -0.4726079 -0.3499381 0.7799822 -0.18599573 0.6394337 -0.813269 -0.43508315 0.52142125 -0.49214754 -0.3186726 -0.24425736 -0.35111758 1.3523307 0.095145494 0.59910834 0.6332224 0.13057356 0.020652557
was 0.09290721 -0.65185887 -0.60689646 0.27368924 -0.24593644 -0.72832996 0.74676955 -2.635904 2.2702923 -0.94743955 -0.4121354 -0.3733799 0.017262863 0.25432736 1.2798469 1.8451645 -1.0648338 0.23835818 -0.079363085 -0.9941416 -0.43990642 -0.6517938 -0.35748163 -0.20609336 0.26350528 0.690793 -0.37272003 -1.6099254 0.5109502 -0.3398011 1.519759 0.73586595 0.39369377 0.10817141 -0.72383416 0.9011079 1.9141499 -0.04826573 -0.6727303 0.3156984 -0.9140946 0.12034943 0.35472232 -1.3546475 -0.35924155 -1.2581671 1.8322905 -1.3198583 -1.1006219 0.3335852
" -0.30194935 -1.4137185 -1.4324341 0.33615035 -0.6724846 -1.0660653 1.1387454 -3.880783 3.6280801 -1.732441 -0.79163766 -1.1178788 -0.1896782 0.3497712 1.837593 3.0501106 -1.336743 0.8016015 0.050115235 -1.6314342 -0.061803643 -0.87861776 -0.5695331 -0.4254713 0.71216404 1.2917554 -0.5652897 -2.5349598 0.7105069 -0.6946874 2.3044538 1.1717906 0.98430854 0.27069306 -1.7938167 1.381626 2.6518898 0.35971898 -0.6813769 0.1155046 -1.1639664 0.695049 0.64622664 -2.122665 -0.97655684 -1.9451962 2.5887372 -2.3373566 -1.8810191 0.4768048
We 0.032090563 -0.28808975 -0.28294826 0.14146379 -0.1785452 -0.3451521 0.27689388 -1.0464586 0.91297364 -0.41159853 -0.11916584 -0.18936157 -0.007069463 0.08798464 0.45833978 0.6475451 -0.45277184 0.11319089 -0.059974898 -0.3775541 -0.16583893 -0.22934963 -0.16875477 -0.07982822 0.10861996 0.27233747 -0.13155676 -0.8131989 0.11708867 -0.120727465 0.6046601 0.3396738 0.21553239 0.045168914 -0.32595953 0.36381844 0.796172 0.037517216 -0.3064592 0.09402398 -0.26097766 0.039282307 0.047695585 -0.48687017 -0.16821924 -0.5841811 0.7416074 -0.53696305 -0.42429522 0.16118051
do -0.045737267 -0.4577723 -0.3953644 0.14310741 -0.18701181 -0.44957733 0.6194726 -1.9670869 1.6698685 -0.66078657 -0.29579863 -0.31061244 -0.060858786 0.12426589 0.8262075 1.4628832 -0.7679563 0.039010525 -0.0050126966 -0.800023 -0.27018368 -0.38596106 -0.1505264 -0.15926501 0.2191778 0.48034877 -0.23432533 -1.1571817 0.346329 -0.2074477 1.1271861 0.52397156 0.28422257 0.12330102 -0.4353984 0.67803514 1.3678737 0.025557537 -0.4329204 0.23081581 -0.8195765 0.20506424 0.18669342 -1.0937517 -0.10402852 -0.77004373 1.3670973 -0.95424724 -0.6866397 0.23978296
n't 0.041430958 -0.34233472 -0.21281397 0.12655768 -0.1358806 -0.3864231 0.40133184 -1.5927966 1.2581526 -0.41444942 -0.16857328 -0.14493534 -0.013335461 0.08264296 0.5995278 1.080106 -0.6584081 -0.074307024 -0.039525006 -0.60134983 -0.311698 -0.27082926 -0.11488248 -0.094612 0.13106461 0.35212898 -0.19115564 -1.0035903 0.28344485 -0.11126155 0.85254556 0.44274473 0.17897885 0.045476556 -0.22359599 0.5139154 1.1355904 -0.026954858 -0.39365116 0.23874053 -0.63713706 0.1363623 0.06982451 -0.83122253 0.040682174 -0.6227121 1.1116154 -0.66377115 -0.4838678 0.20983507
support 0.31325895 -0.14341857 0.078280486 0.15106803 0.0039142384 -0.3606992 0.10453362 -1.2400225 0.82688457 -0.16535442 -0.00801246 0.09000373 0.0385849 0.117942706 0.46541265 0.6238489 -0.60278636 -0.20462978 -0.15812835 -0.31057778 -0.4614006 -0.200419 -0.15228143 -0.09659047 -0.004520761 0.2140639 -0.1622534 -0.848749 0.26495087 -0.013812822 0.58798945 0.35566905 -0.050472777 -0.03834517 0.024662705 0.30749774 0.9009118 -0.2548996 -0.40800127 0.37030154 -0.38272431 -0.092639126 0.0033162206 -0.52577925 0.18562862 -0.549074 0.8840313 -0.31056967 -0.3889773 0.16435266
any 0.33242306 -0.3466498 -0.13350569 0.1972601 -0.035346717 -0.40765664 0.28166577 -1.7649621 1.1868459 -0.3040235 -0.2436658 -0.17667742 -0.04795217 0.10599887 0.8170962 1.2502441 -0.60071135 -0.15546414 -0.033642057 -0.59805965 -0.26740628 -0.4668391 -0.30917874 -0.28587434 0.17030337 0.4326308 -0.32614955 -0.63204485 0.34556457 -0.15643367 0.74707013 0.5901331 0.1427788 -0.046144508 -0.3023776 0.45749396 1.1561451 -0.21474501 -0.38428393 0.26744592 -0.693873 0.07304691 0.19856472 -0.93112946 0.22883691 -0.58302915 1.153682 -0.5802139 -0.5864944 0.15633556
such 0.25940287 -0.15042123 0.041541144 0.14482069 -0.0059821294 -0.33133596 0.12903641 -1.159867 0.7786936 -0.17456014 -0.036106613 0.04673042 0.0230648 0.09390597 0.44494313 0.60288167 -0.5484609 -0.16556948 -0.12862909 -0.32193106 -0.39458543 -0.21096076 -0.13413674 -0.09160829 0.0064430637 0.19884181 -0.15974629 -0.7758615 0.21139055 -0.02669435 0.5575379 0.34348485 -0.01123877 -0.03006032 -0.0074940976 0.30335253 0.85289264 -0.19493623 -0.37069875 0.30394623 -0.383728 -0.068959706 -0.0018667362 -0.508312 0.15195443 -0.5023051 0.82108593 -0.31942344 -0.35640952 0.15902467
because 0.21784894 -0.34794253 -0.17285945 0.17909065 -0.07133952 -0.43116507 0.37512523 -1.7524271 1.3031164 -0.42255804 -0.22430503 -0.14633243 -0.022166599 0.12991881 0.79365206 1.1884536 -0.6867772 -0.077757515 -0.072556034 -0.6207639 -0.3421139 -0.42926395 -0.22246884 -0.20695385 0.14355846 0.3967983 -0.26344022 -0.8705652 0.33836848 -0.15106218 0.8866425 0.51981246 0.15225695 0.019406583 -0.2767923 0.51910394 1.217997 -0.15531664 -0.41746902 0.27103132 -0.6954168 0.046840243 0.16959399 -0.9177916 0.08144044 -0.6643351 1.1919289 -0.6702914 -0.586108 0.19234398
we 0.051122215 -0.4882745 -0.3584344 0.20356013 -0.18733424 -0.55792147 0.6420166 -2.2104373 1.8500979 -0.7146933 -0.27990466 -0.23925412 -0.013666279 0.17023993 0.9659822 1.5017326 -0.9325954 -0.0021167323 -0.0798188 -0.8589361 -0.4493425 -0.44970104 -0.19814616 -0.16146469 0.16881192 0.52181655 -0.22797151 -1.4318722 0.38744175 -0.21771076 1.2939986 0.57595795 0.29384333 0.1237174 -0.38872832 0.7850229 1.625398 -0.043394003 -0.5543411 0.32049394 -0.8439976 0.10768418 0.13601336 -1.1403041 -0.09703583 -0.9777218 1.5674173 -1.0302302 -0.7623363 0.2712927
see 0.30657986 -0.16145846 0.036742713 0.15224595 0.036726806 -0.29636213 0.22707164 -1.1666387 0.73994833 -0.16772996 -0.15623353 0.008322366 0.021847656 0.054220278 0.55846614 0.72683895 -0.48468778 -0.19119999 -0.06062712 -0.35486212 -0.30058804 -0.35443503 -0.20977148 -0.13990791 0.028796256 0.197684 -0.23152782 -0.4443938 0.19753008 -0.06213001 0.51119524 0.37719074 0.055560153 -0.03355703 -0.022517636 0.28900227 0.8559408 -0.22147729 -0.34749198 0.2287543 -0.4972396 -0.085470356 0.055698328 -0.59009963 0.20684321 -0.39117393 0.8267169 -0.32744694 -0.30294627 0.12667815
for 0.1726819 -0.41530183 -0.24305892 0.23496835 -0.08186863 -0.59227645 0.47505197 -2.090185 1.7183901 -0.6577606 -0.24567522 -0.11417854 0.011208447 0.27006963 1.005007 1.3215551 -0.93386585 0.094712935 -0.15165503 -0.7119382 -0.48005566 -0.4571542 -0.18696897 -0.13438319 0.11695343 0.45504037 -0.24736248 -1.3916317 0.46004748 -0.16979666 1.22409 0.5085651 0.17210715 0.0697736 -0.36347008 0.6508455 1.4673564 -0.1784388 -0.5548352 0.4119437 -0.69198424 -0.0055841994 0.26409572 -1.0076487 -0.1903427 -0.9805285 1.486026 -0.9591123 -0.83697355 0.292808
, 0.7228622 -0.21700746 0.3027269 0.22941545 0.26003516 -0.33001518 0.14106442 -2.0249815 0.6923007 0.27932844 -0.46671382 0.027368866 0.1874651 -0.04716547 0.8187995 1.205349 -0.5868824 -0.82339716 -0.046747435 -0.368904 -0.40654796 -0.8058114 -0.6042229 -0.21926874 -0.0120492065 0.36813608 -0.51849365 -0.17885765 0.32677406 -0.1239022 0.32798553 0.84536356 0.039489277 -0.11700127 0.22796525 0.097037666 1.3952985 -0.48682117 -0.65254045 0.2706719 -0.9000372 -0.03221899 -0.06357059 -0.91289866 0.97942626 -0.38296983 1.3858173 -0.17235874 -0.25875908 0.21456812
chief 0.2874688 -0.07677247 0.1464087 0.11057223 0.039138794 -0.25396326 -0.044808365 -0.86931545 0.4836757 -0.0105650555 0.047762323 0.12827314 0.025449336 0.06954563 0.28595534 0.36702007 -0.4308862 -0.22119024 -0.13384575 -0.17464216 -0.37768617 -0.10649384 -0.11299347 -0.08219694 -0.019039648 0.13117643 -0.12206426 -0.5991612 0.18648914 0.02957473 0.34181127 0.27342892 -0.09627663 -0.07199575 0.09020892 0.1766889 0.6209658 -0.246284 -0.29126117 0.30604562 -0.2578565 -0.07826437 -0.033607475 -0.33140197 0.23973328 -0.36490634 0.59973276 -0.11664531 -0.24894598 0.11202523
spokesman 0.37883285 -0.34209114 -0.09295612 0.23146895 -0.07418027 -0.4860537 -0.046009574 -1.4646384 0.9807274 -0.22939931 -0.044207793 -0.080302306 -0.0106395725 0.14377043 0.60956144 0.7677569 -0.6143623 -0.017959928 -0.15125738 -0.35827222 -0.35483643 -0.2723188 -0.3167117 -0.23167488 0.12521087 0.39605832 -0.26823246 -0.9629456 0.29995075 -0.08581322 0.61357725 0.53203225 0.052602995 -0.10906386 -0.31040052 0.33188462 0.9740071 -0.25379837 -0.38374737 0.3163685 -0.2777315 0.0051969313 0.111387014 -0.5970738 0.05087162 -0.7465782 0.9643416 -0.4140084 -0.6552707 0.19782203
van 0.60372084 -0.12688449 0.24778569 0.22841358 0.09359813 -0.39746284 -0.17824057 -1.3609236 0.6457497 0.076982625 0.04295122 0.16680266 0.02572577 0.09192511 0.5172504 0.601839 -0.60872304 -0.36423826 -0.19549036 -0.22757939 -0.5151303 -0.252009 -0.29596946 -0.23135448 0.013941774 0.25255817 -0.26929596 -0.6725547 0.29182854 0.034121893 0.41315764 0.5123346 -0.15171109 -0.18793763 0.075410284 0.20859511 0.9115899 -0.4699156 -0.4273121 0.4500114 -0.3531937 -0.12240577 0.007342233 -0.51713794 0.4563432 -0.52321535 0.892674 -0.078593835 -0.41985208 0.16416161
told 0.09384196 -0.54423213 -0.43509004 0.21617302 -0.21709076 -0.61954206 0.5711952 -2.1710196 1.8686215 -0.7774834 -0.31836918 -0.2945324 -0.004574248 0.21668978 0.9588831 1.4590797 -0.90514547 0.17703928 -0.09046971 -0.7859164 -0.38060924 -0.43728068 -0.25461662 -0.17795931 0.18818034 0.55522674 -0.2711878 -1.5195447 0.42206421 -0.230211 1.2424184 0.6197744 0.3102792 0.10449469 -0.55253583 0.7096188 1.5890324 -0.014751452 -0.54699385 0.2666518 -0.7045428 0.11975066 0.20774744 -1.0865296 -0.26040265 -1.0522375 1.487867 -1.0823512 -0.859712 0.27867568
a 0.16332953 -0.81375825 -0.7639652 0.36084497 -0.35455564 -0.9460942 0.8499145 -3.0095766 2.7650144 -1.2937156 -0.45133543 -0.5124958 -0.05325018 0.33165768 1.6049258 2.1200423 -1.2984648 0.494534 -0.1468823 -1.1601536 -0.48365137 -0.805307 -0.45095465 -0.29971156 0.33528775 0.8436289 -0.47020015 -2.0418553 0.587458 -0.42301306 1.8819592 0.8320629 0.53276205 0.12007649 -0.98440677 1.0952349 2.2391932 -0.0056945677 -0.7685634 0.3186794 -0.8697013 0.032388583 0.47717658 -1.5062485 -0.6545065 -1.6200547 2.165012 -1.6481723 -1.3929007 0.37284663
news 0.31071374 -0.25538808 -0.07003087 0.17793418 -0.094251014 -0.45226964 0.22423834 -1.4130923 1.0784802 -0.3395804 -0.07336856 0.013938213 0.062308587 0.14116743 0.5514602 0.7123477 -0.71756434 -0.084435076 -0.17753816 -0.39972094 -0.48941323 -0.23820876 -0.21489216 -0.08582476 0.015464327 0.28610495 -0.18638422 -1.135435 0.25114143 -0.08100497 0.7418558 0.40824464 0.047444995 -0.0026736138 -0.11361858 0.4082699 1.118363 -0.17900819 -0.5279081 0.35319036 -0.33067462 -0.0973759 -0.019742101 -0.57864684 0.010774917 -0.7766271 1.0516845 -0.5149676 -0.5298944 0.20561877
He 0.11887493 -0.34127945 -0.23492324 0.16639891 -0.15981457 -0.4477756 0.17239062 -1.2908746 1.0892813 -0.4404589 -0.06617035 -0.12947157 -0.008052777 0.15514493 0.5190692 0.7153493 -0.5791825 0.14100012 -0.11059706 -0.4009305 -0.29092342 -0.20123118 -0.1924852 -0.101203375 0.11055097 0.33437538 -0.14783224 -1.1075444 0.22934328 -0.1149598 0.74495304 0.39372325 0.15039182 0.0025957942 -0.35284156 0.41194168 0.94888735 -0.04917055 -0.37467724 0.21613789 -0.23519674 0.03990082 0.09804449 -0.55244505 -0.1888338 -0.7672632 0.8989247 -0.57849365 -0.5989655 0.19514307
further 0.2136544 -0.23703973 -0.06438484 0.15606044 -0.03994695 -0.37316495 0.22496371 -1.3349004 0.97751534 -0.29672053 -0.11054466 -0.032758236 0.012349553 0.10393619 0.58535534 0.79664415 -0.59381086 -0.09087519 -0.106117114 -0.42811435 -0.3624436 -0.29146773 -0.16299416 -0.1133355 0.055802755 0.27847973 -0.17939806 -0.8213514 0.26555586 -0.08564894 0.69328713 0.3728736 0.06319989 -0.006086934 -0.13305598 0.3821961 0.97463244 -0.16553941 -0.38175273 0.2736434 -0.47617984 -0.044793304 0.08205719 -0.63474023 0.054084197 -0.57871705 0.94193286 -0.48126996 -0.46307355 0.1665704
study 0.12057464 -0.113828324 -0.030135594 0.08121288 -0.022889115 -0.19315702 0.06490678 -0.65291774 0.47445136 -0.14153986 -0.02611405 -0.006538958 -0.0009964426 0.0638239 0.27338266 0.3682618 -0.28909427 -0.026848836 -0.06321071 -0.18856634 -0.18819697 -0.109533854 -0.083697386 -0.07231818 0.029876713 0.14051613 -0.08901553 -0.43787476 0.1408158 -0.030230608 0.3215271 0.19138497 0.009249748 -0.016924104 -0.07602978 0.17866728 0.4600193 -0.09538674 -0.18515366 0.16511434 -0.18418083 -0.0121328635 0.04567903 -0.2877291 0.028703185 -0.31079713 0.45095435 -0.21705581 -0.25061494 0.086334124
and 0.58913124 -0.22467116 0.0988164 0.2447381 0.104138665 -0.38146487 0.09725136 -1.5655777 0.8350157 -0.08228521 -0.21071196 0.0008310931 -0.034339163 0.046778675 0.8518893 1.016177 -0.55485743 -0.27413532 -0.07074874 -0.43839636 -0.31696415 -0.5450055 -0.37343234 -0.35524067 0.10596776 0.33260798 -0.4145434 -0.31626227 0.29371402 -0.085905194 0.5335694 0.5783171 0.02086229 -0.166175 -0.108521454 0.31569046 1.0215625 -0.4380738 -0.3707554 0.285618 -0.6291409 -0.10773873 0.19672261 -0.8061447 0.39318857 -0.43449682 1.032614 -0.29838473 -0.50401175 0.11894977
if 0.14714265 -0.18338315 0.0003235424 0.109502435 -0.04081264 -0.30243838 0.20576075 -1.2221662 0.840065 -0.19383079 -0.080654405 0.0020029284 0.020985616 0.068249226 0.43564412 0.72017354 -0.531302 -0.19698554 -0.08281084 -0.3917383 -0.34162042 -0.1885076 -0.09141086 -0.07817991 0.03280696 0.21583861 -0.13367215 -0.7416402 0.22151108 -0.042842392 0.5830549 0.35209948 0.026758805 0.007728923 -0.026992038 0.32353777 0.86869067 -0.1375582 -0.3463922 0.2676831 -0.49019212 0.02987571 -0.0090454165 -0.5921025 0.1797598 -0.45249048 0.8436036 -0.37609264 -0.32604992 0.1494614
found 0.51065403 -0.10305457 0.0969915 0.2145681 0.06321812 -0.38412932 0.05948114 -1.1508168 0.65992516 -0.10752235 -0.07578548 0.09472737 0.043872874 0.09439847 0.6108322 0.5548588 -0.53287303 -0.1557053 -0.14462951 -0.22118546 -0.39421913 -0.36048144 -0.30759445 -0.1733141 0.0049221436 0.20141312 -0.28444058 -0.51381123 0.19691457 -0.025019266 0.45664877 0.39800155 -0.014840411 -0.124354966 -0.0072791735 0.21950403 0.82812905 -0.34893686 -0.41533703 0.28780687 -0.30688444 -0.2150339 0.07056855 -0.43955228 0.18973897 -0.51668584 0.8151825 -0.21085374 -0.39847824 0.13860513
that 0.053648558 -0.73087156 -0.54774594 0.2391993 -0.2366085 -0.6878889 0.7683935 -2.7821136 2.30618 -0.9098275 -0.4881379 -0.45935062 -0.09729354 0.18589625 1.3140291 2.0934365 -1.0540924 0.14151618 -0.02789396 -1.1566646 -0.32511297 -0.6879313 -0.29822862 -0.32319883 0.3518591 0.7115233 -0.39908898 -1.4686443 0.5156712 -0.33567962 1.5577413 0.7883777 0.43215227 0.13783345 -0.75855786 0.9388889 1.9343683 -0.010772279 -0.54489523 0.2703066 -1.1307257 0.21057028 0.3584906 -1.5631646 -0.1885903 -1.0999378 1.8813175 -1.384209 -1.0359983 0.3220543
action 0.41132239 -0.21734637 -0.09788098 0.21623197 -0.05014003 -0.5293444 0.32736552 -1.6749725 1.3256598 -0.50014865 -0.12944813 0.011145775 0.029853899 0.25610098 0.82789415 1.0365828 -0.7653206 -0.020960826 -0.19624913 -0.45339322 -0.50419647 -0.36618194 -0.2844244 -0.15999192 0.035021216 0.36849943 -0.25415918 -1.0645897 0.39563102 -0.12795031 0.89962226 0.41218278 0.04149585 -0.021674905 -0.2009032 0.46356893 1.222968 -0.31061321 -0.54453105 0.45347223 -0.44340858 -0.16104695 0.18077262 -0.76198405 -0.008158107 -0.8313348 1.2032403 -0.61857915 -0.6880146 0.17460501
needed 0.24993408 -0.21989572 -0.07662595 0.16089332 -0.039417963 -0.39356384 0.2689852 -1.377679 1.0073801 -0.31044972 -0.12809023 -0.025432203 0.035031833 0.1204922 0.60717285 0.802439 -0.629973 -0.10771359 -0.116286464 -0.41834638 -0.39709374 -0.31345353 -0.19729221 -0.116536476 0.04142021 0.27935573 -0.20054059 -0.84423035 0.2469229 -0.0928706 0.69664145 0.40528736 0.07360851 0.010268993 -0.110410415 0.38113967 1.0238595 -0.16321239 -0.4371489 0.2701277 -0.47009572 -0.06412218 0.06778896 -0.62512696 0.06895512 -0.6202517 0.98482054 -0.49094486 -0.44986203 0.17560987
taken 0.3450727 -0.1291245 0.09995043 0.14520763 0.029991742 -0.332163 0.16428696 -1.2563413 0.752116 -0.12135438 -0.06905225 0.078841254 0.04019308 0.08476035 0.5003689 0.6780217 -0.5708987 -0.27033186 -0.12522374 -0.32906854 -0.4332714 -0.29419452 -0.17897435 -0.12145352 -0.013372721 0.202494 -0.18128619 -0.65513027 0.21341105 -0.028116304 0.5391759 0.3876514 -0.025900908 -0.04111546 0.056904946 0.28664562 0.9260479 -0.23990795 -0.4239164 0.3062648 -0.48535258 -0.11813878 -0.009029801 -0.5752047 0.28628317 -0.4650196 0.8793076 -0.30426604 -0.30882257 0.14687869
by 0.3467471 -0.31282592 -0.07449469 0.20835033 -0.015715113 -0.46926445 0.18396823 -1.6597612 1.1870328 -0.33750227 -0.14304379 -0.03995216 0.006203862 0.17302248 0.7840014 1.0014697 -0.7049178 -0.046877477 -0.12856384 -0.48653632 -0.4230737 -0.35347342 -0.24742836 -0.23581089 0.09352937 0.38141224 -0.26055795 -0.92801726 0.3850119 -0.10344644 0.7883429 0.48659688 0.036591075 -0.038157407 -0.23774129 0.4243628 1.1214557 -0.27265257 -0.43568757 0.35399246 -0.511461 -0.02244586 0.21032776 -0.7694449 0.053014126 -0.7172862 1.1134844 -0.53573257 -0.6498518 0.19335109
proposal 0.2705355 -0.13010731 0.034330737 0.1333699 -0.009111113 -0.31426167 0.087697804 -1.0522524 0.7271745 -0.17645836 -0.018601919 0.056365415 0.024520705 0.118468896 0.428017 0.55336875 -0.50355726 -0.12578282 -0.12821613 -0.27023885 -0.36735633 -0.18618654 -0.14708602 -0.10424624 0.003795546 0.19487554 -0.14588106 -0.7073665 0.22949933 -0.031025127 0.5146639 0.3029787 -0.02390996 -0.03520661 -0.024564818 0.2635456 0.76298255 -0.22389859 -0.34249365 0.30370024 -0.30773526 -0.08171479 0.032783393 -0.44896883 0.12165002 -0.4845362 0.74296045 -0.28902662 -0.36940703 0.1277141
last 0.28063977 -0.26412517 -0.04964212 0.19817215 0.028390348 -0.47114393 0.36188018 -1.4649056 1.1880099 -0.46029586 -0.20447096 0.023916233 0.04411479 0.151053 0.801924 0.95518595 -0.7259377 0.06852529 -0.13795199 -0.49954155 -0.42483026 -0.465051 -0.22303867 -0.11917656 0.02545411 0.2906843 -0.29711202 -0.9083819 0.35236886 -0.11306923 0.87533665 0.33899534 0.06451899 0.0033932885 -0.18754664 0.429553 1.135341 -0.2719402 -0.47080392 0.31721103 -0.51887935 -0.1452588 0.19255601 -0.70811814 -0.114099674 -0.66883653 1.104634 -0.6420255 -0.60292584 0.19634295
month 0.3234783 -0.18778154 0.049093876 0.18429968 0.01993776 -0.43562275 0.22418204 -1.5385814 1.0919155 -0.28355673 -0.066450685 0.10447693 0.068833046 0.1628757 0.64471984 0.830726 -0.7464788 -0.19001117 -0.17409715 -0.44028324 -0.55967396 -0.27808478 -0.17042762 -0.10330715 -0.019026063 0.27764368 -0.19828372 -1.0547063 0.34172058 -0.049707476 0.80917156 0.3964168 -0.011216539 -0.02051081 0.008085329 0.4134493 1.139953 -0.29486808 -0.4979637 0.43084922 -0.5303927 -0.11775501 0.044145312 -0.6760995 0.15016827 -0.68514407 1.1123275 -0.46701512 -0.5048749 0.18908781
ban 0.64753926 -0.28752 0.094847284 0.30967274 -0.004109805 -0.6262509 -0.040652636 -1.9747711 1.2136554 -0.187887 -0.018943658 0.08710031 0.009385465 0.17407608 0.83932775 0.9907462 -0.8879165 -0.22722387 -0.24103723 -0.43746093 -0.6333924 -0.378242 -0.38916403 -0.29156348 0.0853896 0.42555287 -0.3556727 -1.1802654 0.40189424 -0.029859528 0.7932108 0.678148 -0.056536175 -0.1633488 -0.1380088 0.41603485 1.3582125 -0.48390886 -0.592877 0.54622614 -0.4769248 -0.12811534 0.09876359 -0.7968318 0.30197835 -0.909989 1.3256294 -0.3951964 -0.74329424 0.24159011
human 0.3842363 -0.18448217 0.058386333 0.17395131 0.013486447 -0.34674942 -0.060570337 -1.1600511 0.66862357 -0.07666743 -0.019990807 0.025322266 -0.008705693 0.09543921 0.4935688 0.5907597 -0.48191607 -0.14194311 -0.12577492 -0.25690314 -0.33423626 -0.2371957 -0.24088383 -0.19145966 0.06733392 0.2658556 -0.22559129 -0.5908949 0.23915814 -0.025471294 0.42936608 0.4066563 -0.030242903 -0.10901781 -0.105960645 0.22461227 0.7593047 -0.2919319 -0.3141332 0.29983696 -0.29848626 -0.054981604 0.0776441 -0.48192042 0.21036358 -0.48441568 0.7544735 -0.21623507 -0.43605593 0.13200489
food 0.1784547 -0.12048418 0.028666295 0.10405655 0.00028609333 -0.25518522 0.114055775 -0.9459215 0.66165745 -0.15790652 -0.03647625 0.046601877 0.016196392 0.08953545 0.37179792 0.5309527 -0.44613856 -0.114341184 -0.102823235 -0.2735778 -0.3170705 -0.15203303 -0.08853185 -0.07042495 0.010649089 0.16813262 -0.11680117 -0.6149923 0.20687975 -0.02002596 0.47183207 0.25158724 -0.020492157 -0.017642226 -0.01638557 0.25101632 0.675592 -0.16602506 -0.27887484 0.2716494 -0.33455876 -0.042909417 0.032814477 -0.42990053 0.10683157 -0.39372206 0.6616307 -0.29284528 -0.31074956 0.119440265
move 0.18855925 -0.19729051 -0.05085045 0.13637143 -0.024680085 -0.337095 0.22773348 -1.2704486 0.9506702 -0.2945235 -0.08580164 0.0095135085 0.019707588 0.11891675 0.5358694 0.74742025 -0.58546156 -0.10915172 -0.11037857 -0.40457737 -0.37046674 -0.23304252 -0.12667806 -0.08753664 0.036472887 0.2535784 -0.15300727 -0.82777065 0.26390383 -0.065657884 0.68465704 0.33577117 0.027915053 0.0062545347 -0.08801948 0.37636098 0.9180332 -0.17383917 -0.37421748 0.30669653 -0.45600185 -0.034892663 0.07337497 -0.60117555 0.06287243 -0.54750645 0.89806706 -0.45484102 -0.43548405 0.15742701
health 0.27750823 -0.15542379 0.056667656 0.1430816 0.015423733 -0.33028406 0.1101574 -1.1871924 0.7821926 -0.15978193 -0.042210303 0.058405675 0.032731246 0.09758414 0.45061567 0.6300169 -0.54948634 -0.18768512 -0.12981497 -0.32273003 -0.39981595 -0.2156569 -0.14136381 -0.10522981 0.003920005 0.20784792 -0.15779786 -0.7665687 0.23992124 -0.026663799 0.55670106 0.34073937 -0.020759562 -0.03219716 -0.0014206073 0.28780773 0.86323166 -0.22608052 -0.37370738 0.31875667 -0.39505848 -0.069228835 0.0075469534 -0.52320397 0.1726735 -0.493678 0.831223 -0.3179371 -0.36259317 0.15671672
proposed 0.33190563 -0.22067481 -0.04209087 0.18949522 -0.04083109 -0.45483288 0.20943306 -1.5000066 1.089861 -0.3261479 -0.08379192 0.0073085576 0.029071057 0.15630955 0.662473 0.8305201 -0.7041976 -0.109351344 -0.16221212 -0.41410878 -0.4699681 -0.31092745 -0.22883168 -0.14034693 0.037370067 0.29971892 -0.21087971 -0.97768617 0.29418895 -0.07427374 0.76154435 0.4372303 0.03599333 -0.02432252 -0.118734345 0.40078294 1.0983466 -0.23645324 -0.48807374 0.36057064 -0.45059144 -0.10517339 0.08193439 -0.65530396 0.08620478 -0.7139828 1.0655041 -0.49588978 -0.53450537 0.18757372
measures 0.36605543 -0.049134426 0.16489217 0.1385358 0.045997553 -0.27595642 0.013123167 -0.9313175 0.50891864 -0.020537762 0.01197503 0.1293593 0.042312775 0.07183493 0.36146453 0.42966977 -0.45720425 -0.26128048 -0.13175115 -0.18140021 -0.39645326 -0.1836993 -0.16561739 -0.10072922 -0.032900795 0.13189583 -0.15726957 -0.53206545 0.18083918 0.021401264 0.35799414 0.3032744 -0.081633456 -0.0761021 0.11752552 0.17881499 0.6875487 -0.27768937 -0.34393328 0.3115842 -0.28687608 -0.1316356 -0.03908246 -0.36575985 0.28204313 -0.3765579 0.6622236 -0.1166613 -0.242263 0.11043354
after 0.37872303 -0.13478595 0.060674574 0.19318224 -0.00382835 -0.47520405 0.12453353 -1.1083016 0.8414737 -0.28652227 -0.0019458552 0.19118191 0.10197295 0.14066187 0.5417221 0.3940864 -0.71262604 0.02120819 -0.24589892 -0.24061139 -0.5752951 -0.22877714 -0.15561077 -0.039264727 -0.102994196 0.16207795 -0.15925357 -1.0395082 0.20968126 0.017495984 0.66255736 0.26704815 -0.04802601 -0.06753715 0.004095287 0.29663464 0.96162707 -0.28161347 -0.51810086 0.36239302 -0.19793886 -0.2801832 0.013870249 -0.34362698 -0.07781056 -0.74727494 0.87696296 -0.35238978 -0.45615864 0.21199511
reports 0.33064708 -0.24083163 -0.04546391 0.19682051 -0.06393604 -0.48663342 0.105062746 -1.4822111 1.0810986 -0.32322988 -0.015737703 0.0113528045 0.009914401 0.18624549 0.60825175 0.76774853 -0.6961943 -0.055897214 -0.18739091 -0.39090198 -0.48239127 -0.22291335 -0.21157816 -0.14546318 0.058416337 0.31797126 -0.19829836 -1.0967231 0.3190208 -0.05247324 0.7495531 0.4279181 0.007423697 -0.04828388 -0.16882412 0.39547887 1.0424957 -0.25191614 -0.46431977 0.39777184 -0.34317926 -0.07959831 0.079309694 -0.60665476 0.03041172 -0.766685 1.034603 -0.46329403 -0.6012332 0.19912504
France 1.3112664 0.31088218 1.0827307 0.23194233 0.49475223 -0.21001907 -0.5855459 -1.2343882 -0.31605217 0.9901547 0.18034531 0.6707357 0.1587999 -0.0744854 0.2465368 0.2575548 -0.49503604 -1.3284736 -0.22814508 0.13041914 -0.7903798 -0.3145031 -0.45103946 -0.30905086 -0.25139943 -0.013599251 -0.3982694 0.17092824 0.23940328 0.27486396 -0.2753735 0.6483636 -0.58474827 -0.42773336 0.974231 -0.2287281 0.7980794 -0.9962719 -0.5575735 0.67107177 -0.5669308 -0.40070844 -0.33122578 -0.39997742 1.6443374 0.058677185 0.75969386 0.7886827 0.14611726 0.059729088
under 0.5352257 -0.016595181 0.22344486 0.20012262 0.09340552 -0.3846899 0.16287154 -1.2041843 0.62862855 -0.0255911 -0.12076902 0.22437869 0.15414566 0.03666703 0.54343545 0.38010532 -0.6722902 -0.3393218 -0.23107177 -0.14923432 -0.611494 -0.40170446 -0.28579468 -0.0006318321 -0.15512624 0.12019388 -0.24194847 -0.7428293 0.12580954 0.024958534 0.4584981 0.3925228 -0.06187031 -0.06428742 0.2595386 0.13803807 1.026732 -0.31288108 -0.6465846 0.3145551 -0.34571666 -0.32514155 -0.15732524 -0.3404078 0.2907881 -0.6105529 0.9621458 -0.14608103 -0.20609668 0.23250961
conditions 0.3929384 -0.18293945 0.01731553 0.18926851 -0.010584721 -0.41961223 0.17283747 -1.3768111 0.96204704 -0.26040387 -0.0851725 0.03901548 0.020008108 0.14309981 0.6421127 0.7824722 -0.6369433 -0.13549322 -0.14405149 -0.36542833 -0.43092012 -0.33176708 -0.23872553 -0.15992144 0.027353693 0.26623517 -0.23733583 -0.8038246 0.2750825 -0.06463005 0.6548863 0.4099339 0.008202894 -0.053400498 -0.08044934 0.35175908 1.0134844 -0.285517 -0.44983912 0.3571379 -0.41552508 -0.12798432 0.07551257 -0.6095349 0.13572073 -0.619014 0.9758806 -0.3958201 -0.4900683 0.161618
could -0.063551866 -0.54033124 -0.51060367 0.1787764 -0.28612193 -0.640274 0.8065681 -2.4478216 2.1988056 -0.925418 -0.32552937 -0.35812786 -0.040599007 0.24946009 1.0723962 1.7458687 -1.0602016 0.13756011 -0.09753461 -1.0072738 -0.43358666 -0.46999916 -0.1806497 -0.20487584 0.22015378 0.55994976 -0.24441917 -1.6913277 0.43181553 -0.2720813 1.5179888 0.6758727 0.39110962 0.1938171 -0.5661857 0.9449107 1.7982776 0.06275343 -0.6189286 0.312537 -0.92132735 0.23060437 0.21741006 -1.3026375 -0.28308624 -1.1406323 1.7498599 -1.2306676 -0.93201256 0.31575936
contract 0.30576837 -0.1565319 0.048111502 0.145019 0.005149296 -0.34997833 0.16287993 -1.2570207 0.8519462 -0.191334 -0.060889263 0.05184838 0.033505898 0.11135043 0.5145236 0.70138085 -0.5835216 -0.19245997 -0.12857993 -0.34200832 -0.41611713 -0.257048 -0.17130695 -0.11586785 0.0058308803 0.22481963 -0.18361588 -0.7640597 0.2592398 -0.0399576 0.5972458 0.3673843 -0.013700996 -0.032933917 -0.003045777 0.31827965 0.9323834 -0.23705778 -0.4140474 0.328867 -0.42624956 -0.082015224 0.030847868 -0.5585918 0.18721552 -0.5255435 0.89549404 -0.35207155 -0.38635534 0.1493298
( 5.9482155 2.9389396 6.7042203 0.53911996 2.8558722 0.09416978 -3.804112 -2.0721984 -4.8223143 6.418819 1.9503484 4.5080805 1.1463816 -0.7129453 -1.4410545 -2.0166786 -1.2784264 -7.5106697 -1.2684361 2.164208 -4.1197925 0.0657775 -1.0609202 -0.5429073 -2.0853019 -1.485589 -0.87126994 1.939737 0.45333448 2.1284742 -3.316667 1.7059078 -3.9095433 -2.0748034 6.9000273 -2.3965168 1.4209659 -4.8345222 -2.2038448 3.3803473 -1.5873011 -2.2624054 -2.8318508 0.25683266 8.921043 2.089183 1.2309871 5.9020433 2.8578787 -0.054720536
BSE 0.19135857 0.022736365 0.193604 0.043775145 0.045988478 -0.10361161 -0.19172569 -0.33938926 0.09453489 0.119833514 0.12574017 0.16570975 0.0055603418 0.03638968 0.020235399 0.041769575 -0.20039356 -0.18299626 -0.10182331 -0.0088678 -0.24625869 0.06729899 -0.018936662 -0.05000965 -0.03382338 0.021710886 -0.029155523 -0.30497143 0.11092516 0.07929206 0.07773178 0.10305369 -0.16258858 -0.08307934 0.146232 0.016331825 0.20147574 -0.20601584 -0.12445515 0.2387962 -0.062409632 -0.03442273 -0.06391479 -0.07268185 0.22816549 -0.12845571 0.22030051 0.0864057 -0.086341046 0.05643826
) 5.5967484 2.6442864 6.2028375 0.55082405 2.7182212 0.15217885 -3.5181847 -2.1409903 -4.4843335 5.953889 1.6884639 4.1198063 0.96595883 -0.7168671 -1.0873615 -1.5796591 -1.1987252 -7.0795135 -1.105777 1.94363 -3.698583 -0.13597819 -1.1770954 -0.6495819 -1.8222972 -1.3005052 -1.0208259 2.0569613 0.45197076 1.9095265 -3.0906796 1.728633 -3.5966814 -1.9436523 6.351225 -2.172059 1.4748746 -4.539809 -1.9988711 3.0625162 -1.6664038 -2.093556 -2.5507915 0.14578247 8.434683 1.970284 1.2582079 5.495537 2.6045885 -0.10460307
-- 0.6694071 0.3745615 0.71232533 0.07027029 0.25433406 -0.15780814 -0.2366564 -0.7714864 0.15190537 0.3602241 0.31851348 0.694069 0.19982395 0.09862453 -0.09703059 0.04005459 -0.56458944 -0.9489208 -0.32288077 0.0957879 -0.9195123 0.23219895 -0.047556527 0.049990773 -0.3349875 -0.045366123 0.016510865 -0.81302226 0.2500459 0.26241535 0.16869989 0.18747455 -0.59405744 -0.09101838 0.8819923 -0.02481389 0.7313593 -0.6414321 -0.56000495 0.7811824 -0.21391693 -0.2998694 -0.4092862 -0.16554247 0.9253495 -0.24967141 0.6619621 0.34043705 0.045735776 0.058167856
But 0.09515213 -0.39277554 -0.27297193 0.17345372 -0.13910536 -0.4948263 0.411818 -1.7642838 1.4440054 -0.5527953 -0.18470328 -0.17169084 0.007734433 0.15004648 0.7220275 1.1148096 -0.7457871 0.032781266 -0.08936835 -0.63694435 -0.36879745 -0.33529264 -0.19740616 -0.1221279 0.12981053 0.3922027 -0.20141487 -1.2302644 0.320838 -0.16178998 0.9908108 0.49464726 0.19297467 0.057899084 -0.34365374 0.57114655 1.2805318 -0.055034082 -0.4645516 0.2691612 -0.6014897 0.06842653 0.119801946 -0.8600858 -0.094512895 -0.8214627 1.2370242 -0.80086786 -0.6502019 0.22462508
agreed 0.28604922 -0.26477835 -0.12004068 0.18879814 -0.065197535 -0.46163023 0.28323394 -1.4990364 1.1199994 -0.3701322 -0.14670901 -0.06439906 0.029762594 0.14217573 0.711414 0.8544688 -0.6863344 -0.035262946 -0.13652249 -0.446985 -0.40068808 -0.3950429 -0.24904768 -0.14543737 0.055853028 0.3121278 -0.23083948 -0.921886 0.2565601 -0.11231475 0.7606629 0.4588913 0.11712314 -0.004587011 -0.19668974 0.41111717 1.1100351 -0.16749473 -0.4895806 0.26255012 -0.4583682 -0.091577835 0.10677595 -0.66261005 -0.0009536822 -0.73020667 1.0640955 -0.5545377 -0.5364972 0.1976945
his 0.21935192 -0.5479968 -0.34690693 0.2617673 -0.15309684 -0.649371 0.5843125 -2.2317545 1.8308471 -0.74103487 -0.34610328 -0.20200284 0.021710683 0.15590703 1.0944006 1.488592 -0.9925238 0.130491 -0.10494606 -0.8132204 -0.44849968 -0.6275054 -0.33061057 -0.20622802 0.16390514 0.5080455 -0.4049622 -1.3910526 0.4128879 -0.24281561 1.2994448 0.63626486 0.31484237 0.026996281 -0.44236723 0.7335876 1.6984978 -0.1400618 -0.6158853 0.2813461 -0.787481 -0.030144399 0.23038974 -1.125221 -0.20123728 -1.030318 1.6236051 -1.0423324 -0.87048274 0.28000304
officials 0.32752386 -0.37765586 -0.20097847 0.23602416 -0.14010029 -0.57136416 0.11740799 -1.6678132 1.2467062 -0.40374774 -0.08026491 -0.11953362 0.013223721 0.16975811 0.7333149 0.8764759 -0.76075745 0.039435603 -0.17582844 -0.4441531 -0.41996044 -0.33888543 -0.3148349 -0.18647598 0.1125065 0.42695257 -0.25716513 -1.2332344 0.30270967 -0.12492238 0.82517433 0.5567444 0.13346414 -0.04974071 -0.35950312 0.4513473 1.1980218 -0.18363202 -0.5101875 0.31802076 -0.31587535 -0.021975508 0.09987106 -0.6755482 -0.07251511 -0.94580823 1.1591918 -0.5955216 -0.7342589 0.24426685
questioned 0.26912105 -0.24192306 -0.11227236 0.1758527 -0.06695143 -0.4403062 0.2653079 -1.4224466 1.1021417 -0.38370156 -0.11278285 -0.0422262 0.018604279 0.15813273 0.6571057 0.83640134 -0.6596184 -0.03377295 -0.14057738 -0.4243918 -0.40305766 -0.31748077 -0.21714652 -0.12077981 0.04902246 0.30655178 -0.20130005 -0.9435305 0.27923596 -0.10561947 0.7597405 0.39850035 0.082618 -0.0024989804 -0.18549068 0.4073533 1.053839 -0.1741946 -0.4497707 0.29906073 -0.42021117 -0.086186565 0.10337881 -0.63964814 -0.012694788 -0.69770575 1.01463 -0.542182 -0.53641814 0.17984621
as 0.031949233 -0.6414037 -0.50244486 0.24236596 -0.18627682 -0.65505373 0.80753005 -2.5575922 2.2292936 -0.92770267 -0.4188021 -0.2919991 0.028388772 0.22326678 1.2091297 1.7491618 -1.0922956 0.17239933 -0.06825416 -1.045088 -0.471127 -0.618351 -0.22767863 -0.1695872 0.21710953 0.60722136 -0.3118167 -1.5811747 0.4869721 -0.2939257 1.5411164 0.6400052 0.3533306 0.14016038 -0.56873626 0.89981353 1.8883352 -0.019006234 -0.6244601 0.32175535 -1.0102906 0.08966987 0.32870382 -1.3600162 -0.32977366 -1.1346545 1.8114822 -1.32008 -0.9804936 0.35673922
there -0.048147734 -0.72397494 -0.58950955 0.24942596 -0.25977838 -0.6991047 0.78833795 -2.650399 2.3069398 -0.97416425 -0.43063352 -0.43206072 -0.070369676 0.17709889 1.2687172 1.9479107 -1.0589416 0.15907377 -0.047018662 -1.138042 -0.3656817 -0.6201417 -0.26271904 -0.23188825 0.30793127 0.69798636 -0.31830174 -1.6428275 0.5002063 -0.34145272 1.6200052 0.7255468 0.43866247 0.16004923 -0.7014849 0.9709703 1.931682 0.035914715 -0.5809556 0.24829347 -1.0458099 0.21525663 0.3145109 -1.4669919 -0.2953599 -1.1764613 1.8640437 -1.3911862 -1.0354812 0.31989938
only 0.29868576 -0.20466776 0.02407558 0.16057572 0.010991999 -0.37017882 0.175243 -1.382745 0.92974854 -0.21985903 -0.104055755 0.03512835 0.027899075 0.10809571 0.57046914 0.80339926 -0.61300695 -0.18232094 -0.12645324 -0.39726087 -0.420193 -0.29277983 -0.18140559 -0.119416095 0.018925576 0.2648523 -0.19843312 -0.8242336 0.28969038 -0.050361704 0.651457 0.38586444 -0.00057832967 -0.031007815 -0.036397766 0.33325762 0.9967366 -0.2514371 -0.4090069 0.34658414 -0.4804099 -0.061685406 0.05881915 -0.64045644 0.17423761 -0.5529577 0.9662411 -0.41725972 -0.43824074 0.16995999
risk 0.18599983 -0.014213767 0.117746405 0.07215638 0.03685467 -0.15910529 -0.0031308902 -0.56578505 0.3266877 -0.00828154 0.041702155 0.11568069 0.0314559 0.04867274 0.15807965 0.22401756 -0.30502155 -0.17632855 -0.10001019 -0.11327184 -0.28024438 -0.05466399 -0.056085136 -0.028753715 -0.03865094 0.067837544 -0.06170244 -0.42242515 0.11914937 0.029624064 0.24873234 0.1628649 -0.07610956 -0.03465742 0.11718283 0.120071985 0.42783454 -0.16905285 -0.21637374 0.22228213 -0.17919117 -0.07055137 -0.04934828 -0.20418943 0.17791139 -0.24047823 0.40431544 -0.066611506 -0.13994521 0.06918822
Spanish 0.5017235 0.055861223 0.3959336 0.13320805 0.13279855 -0.25847727 -0.21422683 -0.8811382 0.27820966 0.21482399 0.15331103 0.32425833 0.07175391 0.05563366 0.19440904 0.20517398 -0.49476475 -0.45721242 -0.19817743 -0.06413137 -0.5486265 -0.069685124 -0.13331093 -0.08974894 -0.110005036 0.056472994 -0.13555782 -0.58811677 0.18697505 0.12382097 0.22351784 0.3013017 -0.2600312 -0.15535647 0.35010168 0.079588994 0.63797647 -0.42163932 -0.37801915 0.44355777 -0.2521734 -0.18449937 -0.15726638 -0.25610697 0.519438 -0.3161955 0.6107409 0.124716096 -0.14572667 0.12398566
Minister 0.3794337 -0.24962404 0.04696137 0.2086826 -0.054671124 -0.4694241 -0.11128425 -1.3041276 0.8727259 -0.19387466 0.07392662 0.07469158 0.02955848 0.16107865 0.45864436 0.48975614 -0.71248955 -0.052183397 -0.23655033 -0.25545084 -0.5229925 -0.13681108 -0.20001599 -0.17017256 -0.00062597846 0.27879956 -0.1803634 -1.189903 0.27116552 0.016398976 0.6318383 0.40618765 -0.06968499 -0.09967495 -0.12982295 0.29187295 0.94094974 -0.2947401 -0.45666048 0.42287198 -0.18622042 -0.100831 -0.02966211 -0.43279806 0.022238687 -0.79371005 0.90897626 -0.3093016 -0.56105137 0.22030677
de 0.7117717 -0.14927965 0.30414188 0.25991163 0.10999955 -0.5197138 0.016497195 -2.0194662 1.0991039 -0.036835574 -0.010516764 0.2339494 0.07704211 0.15150394 0.74388385 0.99640906 -0.91635376 -0.54506916 -0.2477716 -0.4203577 -0.7603857 -0.37056598 -0.34269628 -0.23042 -0.035416566 0.33170977 -0.32319802 -1.0731328 0.41797307 0.011753543 0.75265664 0.6389888 -0.16025484 -0.15399025 0.18152241 0.38477415 1.4126164 -0.56319433 -0.6753443 0.63131815 -0.69488955 -0.19153653 -0.027479395 -0.85248125 0.6241439 -0.7364442 1.4004296 -0.28750214 -0.5386728 0.2323354
had -0.039615076 -0.7879504 -0.80552757 0.32095045 -0.28897092 -0.8100504 0.8994058 -2.878809 2.5626426 -1.1544479 -0.45123145 -0.43539926 -0.0011469679 0.28731522 1.3872794 1.8779036 -1.1644318 0.37986374 -0.075984426 -1.1344293 -0.46290535 -0.65213376 -0.31571952 -0.12493955 0.31676477 0.7755467 -0.3455641 -1.8798426 0.51224744 -0.37404817 1.7717764 0.7647429 0.4703329 0.17214452 -0.86741054 1.0922606 2.0803647 0.13815974 -0.70466536 0.2606481 -0.99386185 0.16297473 0.4205339 -1.45462 -0.5793893 -1.4390805 2.026108 -1.5530288 -1.2227838 0.4131136
earlier 0.27864057 -0.20971413 -0.053016305 0.1756462 -0.044383697 -0.44096586 0.22788423 -1.3596363 1.0570614 -0.35635352 -0.071723305 0.026544042 0.044017863 0.16381769 0.62025714 0.74409 -0.66995203 -0.014848783 -0.16611265 -0.38751858 -0.4516497 -0.27842608 -0.19649997 -0.10855457 0.013425516 0.27947557 -0.19121198 -0.9979874 0.30096146 -0.07241195 0.75739694 0.3475932 0.040068045 -0.0017389153 -0.13612367 0.390222 1.023719 -0.2241434 -0.46111226 0.33240703 -0.37809214 -0.109813645 0.087553106 -0.5716936 -0.019893724 -0.69913656 0.99270934 -0.49195442 -0.53545004 0.17499837
accused 0.27178937 -0.23625042 -0.05212992 0.17960846 -0.046319235 -0.43741843 0.1853681 -1.4343792 1.0449579 -0.3093842 -0.069767244 0.0018175415 0.020154007 0.14323454 0.60929906 0.7755574 -0.6808799 -0.08749271 -0.15535374 -0.4172718 -0.4491893 -0.2784424 -0.19163491 -0.12806654 0.039784957 0.2879507 -0.19313632 -0.9759903 0.27870795 -0.059108168 0.736472 0.41963574 0.032448925 -0.01941693 -0.1326408 0.3918866 1.0321766 -0.19982783 -0.44496343 0.3281958 -0.44022453 -0.07929433 0.08051722 -0.6234376 0.052722026 -0.6922441 1.0138336 -0.48631868 -0.50762224 0.19881323
at 0.7272191 -0.09599677 0.13765715 0.2476529 0.09217607 -0.49602264 0.044745885 -1.75779 1.0227352 -0.13257256 -0.08400129 0.10567424 0.016275119 0.1985579 0.83417535 1.103532 -0.6865697 -0.31071052 -0.17348471 -0.36041555 -0.50770986 -0.40040833 -0.42680493 -0.34819382 0.07515293 0.37882194 -0.37788847 -0.5761053 0.45409846 -0.06275989 0.6032411 0.58539265 -0.07340079 -0.17905137 -0.07284174 0.31885612 1.1503328 -0.57334965 -0.49844328 0.52597064 -0.51797944 -0.15915024 0.18368568 -0.8157433 0.47358215 -0.63826233 1.1603637 -0.28528956 -0.62503296 0.12628616
an 0.36240342 -0.804942 -0.60365313 0.3765967 -0.24075958 -0.8389917 0.3364622 -2.7266157 2.2012484 -0.8604785 -0.3670749 -0.4921502 -0.15332685 0.2841215 1.4784484 1.932206 -0.9960492 0.40113676 -0.11725773 -0.9621514 -0.2856604 -0.7275539 -0.5301557 -0.51799226 0.43881544 0.8644095 -0.52006376 -1.4170537 0.59084564 -0.34386498 1.3818302 0.8960982 0.3866988 -0.06047799 -1.0535215 0.8246402 1.7691073 -0.21312413 -0.5031248 0.3184651 -0.7163933 0.15536204 0.56666374 -1.3733697 -0.34535086 -1.3165354 1.7701693 -1.1990659 -1.3768212 0.3028109
farm 0.14912072 -0.09300595 0.027852507 0.08032429 0.0018721678 -0.18855761 0.0601277 -0.6800782 0.46047935 -0.09720086 -0.013137093 0.03717734 0.010639241 0.064592116 0.25688845 0.3550447 -0.32260066 -0.098657414 -0.07886848 -0.18917383 -0.23683801 -0.113061905 -0.07434079 -0.05606357 0.008968922 0.12883762 -0.08960546 -0.46309766 0.14385737 -0.013868451 0.32766947 0.19670133 -0.021499999 -0.018058404 -0.008153568 0.17131057 0.48955444 -0.13273317 -0.2093336 0.19588877 -0.22246097 -0.036417183 0.004492575 -0.29250383 0.083203994 -0.2991238 0.47880098 -0.19127299 -0.22099172 0.0851792
ministers 0.38209397 -0.22703399 0.042890947 0.20156585 -0.042572707 -0.4709481 0.0024163323 -1.4174913 0.956784 -0.22886506 0.035886545 0.06986907 0.042854335 0.16148897 0.514714 0.62761027 -0.72357804 -0.13020456 -0.21507546 -0.3213644 -0.5315155 -0.19128636 -0.2117862 -0.14642122 0.00887711 0.28283152 -0.18767004 -1.1544296 0.2897625 -0.01386756 0.676691 0.43463153 -0.052512284 -0.08195695 -0.090525754 0.33356252 1.0351744 -0.2950407 -0.48710337 0.42813703 -0.29757085 -0.10645356 -0.020052958 -0.5385113 0.09892829 -0.7703037 0.9996339 -0.37320048 -0.53907454 0.20956306
' 0.4059002 -0.037279606 0.2965904 0.1426084 0.08573848 -0.29025048 -0.13163704 -0.99196744 0.45918924 0.08874898 0.099077836 0.23528117 0.03686777 0.06391093 0.28006834 0.35842887 -0.4980003 -0.3523097 -0.1825708 -0.16572249 -0.48988575 -0.08589499 -0.13345763 -0.10196997 -0.058996916 0.13026771 -0.15261167 -0.69764876 0.23415379 0.09269674 0.33932406 0.32155624 -0.19666661 -0.12096274 0.22161858 0.13232325 0.68236095 -0.38551745 -0.35731906 0.42980957 -0.26768953 -0.10362363 -0.09989148 -0.3390786 0.4026504 -0.40423346 0.7070294 -0.022804022 -0.25080162 0.13908641
meeting 0.4226565 -0.27325284 -0.05946668 0.22334877 -0.04295271 -0.49629933 0.25839284 -1.5699954 1.1170245 -0.340032 -0.15307796 -0.027591081 0.03758775 0.12043589 0.77957964 0.8848186 -0.7308949 -0.08132002 -0.14237627 -0.43079504 -0.4542811 -0.45556068 -0.32271838 -0.17908807 0.046914764 0.31638104 -0.2944617 -0.91983306 0.25488585 -0.10010775 0.757715 0.50256926 0.09959324 -0.04336846 -0.15694378 0.40595445 1.1891817 -0.2627491 -0.533886 0.305889 -0.4530719 -0.1464323 0.085138485 -0.68596494 0.059120707 -0.75483984 1.1327015 -0.5035549 -0.5628611 0.20080565
of 0.3672796 -0.4049933 -0.2421473 0.2755797 -0.104144365 -0.6615505 0.2354126 -2.0303435 1.6640444 -0.6415103 -0.17754553 -0.08435504 -0.043306857 0.31823727 1.055019 1.2803808 -0.90117115 0.2271094 -0.17970541 -0.62891525 -0.47351405 -0.42347074 -0.2859344 -0.28306964 0.16411354 0.52926874 -0.31222123 -1.2858139 0.497329 -0.17534651 1.1188744 0.5098714 0.10308767 -0.071419045 -0.5264782 0.6062748 1.3484242 -0.34680173 -0.5017197 0.49661142 -0.5062738 -0.07339305 0.38972053 -0.9347831 -0.23663175 -1.0323296 1.3349806 -0.85599756 -1.0204415 0.23644891
through 0.3110063 0.20274629 0.4891993 0.04783062 0.16012998 -0.1574433 0.077446036 -0.66146094 0.22051744 0.2043314 0.16748472 0.45422933 0.18679386 -0.009598576 -0.0352691 0.008184558 -0.5489516 -0.65845865 -0.19256365 -0.07869305 -0.68809515 -0.019782562 0.05944424 0.16476715 -0.29262754 -0.16760074 0.01970962 -0.7647697 0.064345054 0.1674984 0.31320235 0.13634813 -0.28313434 0.00528427 0.7282642 0.115107514 0.7326044 -0.28871414 -0.500914 0.42280602 -0.38154614 -0.29044056 -0.40156376 -0.18284126 0.5737626 -0.22947167 0.60679126 0.07496053 0.18800104 0.13919728
dangerous 0.24258785 -0.013120074 0.16270839 0.089240655 0.041933034 -0.2091787 0.01154402 -0.71919423 0.39801452 0.0010183215 0.05370324 0.15760764 0.05659556 0.05209939 0.19848649 0.26860723 -0.39894202 -0.24968056 -0.12446848 -0.14037551 -0.374965 -0.08187614 -0.0739375 -0.023756014 -0.07061634 0.06829629 -0.07931642 -0.56166345 0.13842635 0.04224425 0.3098391 0.20513372 -0.095439576 -0.041081097 0.17481905 0.14723246 0.56193054 -0.20521057 -0.30300805 0.2795474 -0.23494057 -0.104385406 -0.08880952 -0.26770175 0.23855294 -0.3072108 0.5310184 -0.09004405 -0.14844789 0.10095825
are -0.092774585 -0.52130455 -0.45823717 0.18643542 -0.2266288 -0.60224205 0.6347708 -2.2136168 2.004716 -0.8555651 -0.25575465 -0.25803742 -0.04648646 0.23709536 0.9395132 1.5456941 -0.9433846 0.125917 -0.11330883 -0.9093002 -0.45326242 -0.3246469 -0.10733621 -0.12431491 0.20559561 0.54521286 -0.16974506 -1.627386 0.4837248 -0.24038175 1.4037527 0.5274082 0.23274411 0.17370084 -0.51635915 0.81952614 1.6069196 0.013805032 -0.53196 0.36908722 -0.79040754 0.19809778 0.22274876 -1.1663646 -0.25545004 -1.0544072 1.5461025 -1.1467603 -0.8931384 0.2555767
due 0.23673992 -0.08091978 0.06370978 0.120575264 0.004556429 -0.29738092 0.08222202 -0.9074641 0.6300078 -0.15483543 0.022764832 0.10182011 0.028482536 0.09441092 0.33891818 0.42591923 -0.4857135 -0.13928084 -0.13692938 -0.22175442 -0.3967371 -0.11768467 -0.09928729 -0.061990183 -0.029442983 0.15152828 -0.10729099 -0.71132916 0.1985718 0.005042865 0.46585593 0.2473098 -0.05897551 -0.027091676 0.039584655 0.2366595 0.68951184 -0.19836971 -0.33111238 0.30197278 -0.25908217 -0.09823461 -0.022266477 -0.35584792 0.1274003 -0.44838968 0.6668433 -0.21886143 -0.29289263 0.12990989
issue 0.23488112 -0.109471135 0.019747078 0.11880588 -0.016932832 -0.3133374 0.119070664 -1.049704 0.75800437 -0.1924769 0.0033364296 0.06239851 0.031148944 0.12118734 0.3962536 0.53866094 -0.5142203 -0.13015752 -0.1331716 -0.2714888 -0.40072644 -0.14456621 -0.12585868 -0.07128993 -0.008731682 0.18984596 -0.12201419 -0.78125864 0.22543944 -0.02344618 0.5333494 0.28153718 -0.028308986 -0.019862704 -0.010049263 0.28285372 0.7783862 -0.1951066 -0.36249706 0.3174605 -0.29904836 -0.07659107 0.011004039 -0.43322223 0.11704556 -0.508239 0.75625145 -0.3022892 -0.35712636 0.13788812
early 0.388831 -0.22780201 -0.015008379 0.20794606 -0.02038802 -0.48691005 0.19662757 -1.5994002 1.1451774 -0.3223141 -0.08568964 0.039208684 0.04707688 0.1728482 0.7148073 0.8890483 -0.74487513 -0.108373486 -0.17312838 -0.4325569 -0.5117016 -0.33187455 -0.25869137 -0.16133362 0.029582715 0.32919028 -0.24874344 -1.028927 0.3510744 -0.07556292 0.805612 0.4535279 0.03202335 -0.041013155 -0.116486035 0.41977444 1.16842 -0.30158415 -0.51527035 0.39638767 -0.46701768 -0.11378702 0.100847885 -0.6938493 0.11169854 -0.7490246 1.1362884 -0.49739465 -0.59608525 0.19012772
next 0.2363262 -0.17136799 0.038023174 0.12929489 -0.011215097 -0.33270958 0.1167063 -1.1519998 0.83130777 -0.2165947 -0.035603426 0.04568034 0.018974112 0.1253133 0.4572997 0.6473911 -0.5611415 -0.10150114 -0.13509935 -0.33842945 -0.39322892 -0.18732639 -0.13036852 -0.12825553 0.016873745 0.22694232 -0.1611903 -0.8119234 0.27098888 -0.033913996 0.5859532 0.31107584 -0.029165136 -0.026201703 -0.047202524 0.318066 0.8373491 -0.23391299 -0.34745347 0.33133227 -0.36474878 -0.04251268 0.04706556 -0.51760423 0.1022078 -0.5073598 0.8203735 -0.35514832 -0.4230156 0.14391431
make 0.17227827 -0.28613794 -0.16790754 0.1557177 -0.09459806 -0.40815657 0.27550912 -1.3785865 1.0873187 -0.39481297 -0.1297974 -0.08844919 -0.007659355 0.13593307 0.6199954 0.8493666 -0.6127167 0.014265987 -0.10460589 -0.4457617 -0.3351439 -0.2913901 -0.17825712 -0.12956332 0.08533625 0.31588942 -0.18578719 -0.9027968 0.25898582 -0.11502011 0.74147487 0.3846033 0.11436777 0.021087224 -0.2272382 0.41835645 0.9887301 -0.117734596 -0.38349417 0.26062346 -0.43490103 -0.010881693 0.10751451 -0.6517958 -0.048352372 -0.66082287 0.96197873 -0.5436692 -0.5302888 0.17844883
senior 0.25638628 -0.09134826 0.08630401 0.12001452 0.021075286 -0.26569122 0.060388576 -0.9088212 0.57637495 -0.0939412 -0.0035130398 0.0937852 0.03208207 0.08068404 0.3515055 0.4506627 -0.4429942 -0.17147875 -0.11441443 -0.21989988 -0.34945032 -0.15945813 -0.116390176 -0.084258646 -0.013024038 0.14789367 -0.13170435 -0.59108335 0.19130701 -0.0038945943 0.41877174 0.26390448 -0.052259885 -0.04473148 0.04590652 0.21491396 0.66183984 -0.21201633 -0.2981023 0.27496472 -0.29774994 -0.08334706 -0.00027515602 -0.37830603 0.16434555 -0.38910085 0.644252 -0.20105143 -0.27434888 0.124394596
have -0.23710585 -0.7075396 -0.6788471 0.22035098 -0.22957343 -0.6149567 0.870487 -2.6796124 2.4048162 -1.04753 -0.36686233 -0.36453894 -0.059634708 0.27264142 1.1121522 1.8613358 -1.04913 0.21025142 -0.05450865 -1.1556684 -0.42944163 -0.4090187 -0.049678124 -0.06888855 0.3148071 0.7059585 -0.20073062 -1.7417487 0.5705442 -0.30514407 1.6969314 0.5865098 0.3354479 0.23100577 -0.68778574 1.0473932 1.8346 0.1517982 -0.52196234 0.33853656 -1.1382794 0.31255186 0.37659103 -1.4682052 -0.39540407 -1.1426078 1.8378872 -1.4699364 -1.0528573 0.35340244
long 0.38660946 -0.2547931 -0.0363571 0.19272465 -0.006678921 -0.425342 0.23497213 -1.5696362 1.0548681 -0.2663946 -0.17177361 -0.046205033 0.022194011 0.10229304 0.7305121 0.9656174 -0.65604645 -0.1708411 -0.1108531 -0.4508253 -0.38515446 -0.41705215 -0.2977466 -0.185038 0.07893571 0.34103215 -0.28733468 -0.75927585 0.28644043 -0.10142073 0.69514704 0.5013813 0.07746521 -0.042202357 -0.119826205 0.37737247 1.1365049 -0.26155153 -0.4786823 0.30240571 -0.545704 -0.06419963 0.093033455 -0.7379375 0.18894683 -0.63094366 1.1036592 -0.47188357 -0.5095643 0.18321228
been 0.17723303 -0.6512193 -0.3624995 0.24221195 -0.06630266 -0.54290015 0.5028693 -2.706063 1.9041348 -0.651212 -0.3982507 -0.4892523 -0.16645052 0.20680991 1.2147514 2.016291 -0.8530557 -0.08480554 -0.06653612 -1.0898716 -0.22776437 -0.7099984 -0.28035295 -0.4163145 0.36105615 0.71998745 -0.41635808 -0.8993871 0.5101444 -0.30933622 1.2406634 0.8563185 0.32724082 0.0075530084 -0.7072179 0.7748937 1.5798801 -0.022176689 -0.3797653 0.2686404 -1.259719 0.16831899 0.4436823 -1.6037711 0.13616921 -0.7593958 1.6472546 -1.2246956 -0.8668937 0.23068833
known 0.14968605 -0.1476335 0.0034944538 0.104829825 -0.0026427608 -0.24418221 0.15480419 -0.9751264 0.66733146 -0.15294954 -0.066985324 0.01642821 0.028391773 0.07021864 0.36571962 0.56257844 -0.4261776 -0.1408702 -0.071058035 -0.2960687 -0.2872286 -0.17340945 -0.09279469 -0.061979976 0.02417211 0.18121465 -0.13013218 -0.60228944 0.1922523 -0.039169084 0.47551307 0.27347407 0.011062858 -0.0042937547 -0.019214716 0.25168714 0.6979313 -0.138956 -0.2851961 0.23412459 -0.36239374 -0.004023608 0.017625034 -0.4616528 0.1322455 -0.37596783 0.69191486 -0.30872592 -0.28199208 0.12933691
similar 0.25819337 -0.023552464 0.14160568 0.09399722 0.04663756 -0.2127328 0.045662943 -0.7973291 0.47592247 -0.042827882 0.028356696 0.1276154 0.048347246 0.085831776 0.2721541 0.39364782 -0.385114 -0.22909652 -0.11734052 -0.17625418 -0.35778862 -0.097012274 -0.09015549 -0.056611285 -0.041931827 0.109918974 -0.09922724 -0.50369185 0.19335589 0.016442612 0.34327704 0.21296363 -0.09030109 -0.03586607 0.12773183 0.17006944 0.58019125 -0.22513549 -0.28363994 0.2937311 -0.274642 -0.09020498 -0.021985916 -0.32865378 0.24268484 -0.30440038 0.5717387 -0.13911717 -0.20345019 0.085074306
which 0.30437532 -0.31713685 -0.12573479 0.18157358 -0.014040929 -0.43878976 0.40605485 -1.7322212 1.2642245 -0.41333523 -0.26340452 -0.12482145 0.020057315 0.12956817 0.85749143 1.1400313 -0.7114864 -0.100424536 -0.09532248 -0.5796161 -0.3710395 -0.5125275 -0.25607154 -0.17637005 0.08292516 0.38338983 -0.30034024 -0.8066127 0.32492104 -0.17672965 0.868638 0.5037013 0.15443394 0.0191425 -0.20757513 0.45028025 1.2601268 -0.18381236 -0.47252095 0.25916633 -0.68266934 -0.07957212 0.16715045 -0.8808404 0.08407317 -0.6650278 1.2097857 -0.69437164 -0.54890496 0.18864468
is 0.022006258 -0.69368535 -0.60270685 0.22242269 -0.26139373 -0.6665419 0.7938566 -2.6440487 2.3056166 -0.94959307 -0.43925965 -0.42465585 -0.025304044 0.22814459 1.1983435 1.9675065 -0.9989842 0.22094186 -0.038745865 -1.0363092 -0.34951735 -0.62061095 -0.32691976 -0.26416543 0.28085205 0.7145809 -0.3720234 -1.5759597 0.554476 -0.3551848 1.5093992 0.71624255 0.4180479 0.13065155 -0.7300455 0.8916907 1.8623729 -0.009894632 -0.5913261 0.29487836 -0.97425556 0.23452935 0.33852717 -1.4360591 -0.2847416 -1.1148386 1.8112373 -1.3458002 -1.0671723 0.2842406
believed 0.23563834 -0.27227905 -0.11598946 0.16961487 -0.059482064 -0.4249201 0.30604476 -1.5750476 1.1593086 -0.36768863 -0.14749615 -0.082346015 -0.00010618457 0.13429062 0.690508 0.96082866 -0.675208 -0.09930788 -0.108566664 -0.50745004 -0.38291958 -0.35385248 -0.20615536 -0.15033224 0.07966853 0.3343889 -0.21815208 -0.90328413 0.2861813 -0.10720435 0.79580665 0.46715686 0.114554584 0.0129954 -0.19037506 0.45028278 1.1254277 -0.14852823 -0.44707844 0.27677646 -0.56526494 -0.02463622 0.10416466 -0.7590489 0.07305041 -0.6706516 1.0958456 -0.57911104 -0.51878023 0.19313417
cattle 0.27201912 -0.058878824 0.16877416 0.11008026 0.03790365 -0.27814 0.052254096 -0.98143154 0.59930277 -0.055278577 0.050384406 0.16719684 0.06315327 0.0795574 0.2876236 0.4137941 -0.53467757 -0.2744032 -0.14737695 -0.23214237 -0.4653772 -0.11891149 -0.07836216 -0.0362042 -0.05983982 0.11282992 -0.09461193 -0.7650633 0.20042832 0.042411763 0.4659897 0.26762927 -0.10660214 -0.028997188 0.17352878 0.23262148 0.7555534 -0.23418334 -0.3723216 0.35771647 -0.33411333 -0.11467644 -0.08736802 -0.38664582 0.247957 -0.42882767 0.72237647 -0.18905446 -0.23176512 0.14732519
feed 0.32035786 -0.25130716 -0.0772696 0.2032416 -0.049920797 -0.49298945 0.2926907 -1.6651877 1.2157899 -0.36465073 -0.12071128 -0.016118264 0.047847807 0.15953308 0.7380782 0.9267439 -0.78424096 -0.12188362 -0.1634917 -0.48158056 -0.5062379 -0.3659439 -0.244455 -0.13004698 0.03933686 0.32343662 -0.2322949 -1.0611504 0.3040222 -0.0872022 0.84751123 0.49736565 0.07672597 -0.0107799405 -0.13176201 0.45700216 1.2329673 -0.20891252 -0.5500215 0.3404436 -0.5412635 -0.10837677 0.0758497 -0.7291229 0.07397816 -0.78769666 1.1967392 -0.5746731 -0.5425189 0.21904773
farmers 0.26309446 -0.14506687 0.04626358 0.13671586 -0.012361834 -0.33030358 0.08020395 -1.0789768 0.7201155 -0.16066651 -0.003477033 0.067410596 0.031339873 0.09875899 0.39920598 0.5124018 -0.5357349 -0.15513754 -0.14043927 -0.27854276 -0.40103593 -0.17675892 -0.13693675 -0.07995746 -0.004477078 0.1849201 -0.13642511 -0.7916363 0.2024646 -0.016908763 0.51659316 0.3259075 -0.026638139 -0.03806137 0.0016442986 0.27196854 0.8017231 -0.20395115 -0.3676175 0.30725273 -0.30746397 -0.08647916 -0.017656578 -0.44049615 0.12857795 -0.5138892 0.77361447 -0.28907618 -0.34598368 0.14938459
denied 0.37279773 -0.21487118 0.015259763 0.18911721 -0.010277476 -0.4458162 0.18509237 -1.5195297 1.0211194 -0.24607068 -0.08383744 0.035151564 0.04240228 0.12877274 0.6451004 0.8143531 -0.7047975 -0.18853764 -0.15951604 -0.4019181 -0.48785576 -0.33790255 -0.24618109 -0.13865721 0.019358382 0.2858021 -0.23397762 -0.9229792 0.2757337 -0.06096829 0.71022314 0.47095755 0.021073626 -0.04214719 -0.06499498 0.3727369 1.1167313 -0.25360984 -0.5045759 0.35196295 -0.48251393 -0.11694393 0.039843027 -0.6517507 0.17498823 -0.6786643 1.0800692 -0.44286823 -0.47802377 0.19004972
danger 0.31212652 -0.07019192 0.13777821 0.14259954 0.013643026 -0.34241778 0.079304665 -1.0719709 0.69000894 -0.10939899 0.038268536 0.17011233 0.07540562 0.09640456 0.35854813 0.43043575 -0.5969904 -0.24003059 -0.18560408 -0.23166114 -0.51033324 -0.15418988 -0.12713763 -0.03518198 -0.08274136 0.12966685 -0.12349774 -0.8837221 0.19758865 0.026318701 0.52588224 0.29326898 -0.08025953 -0.038420156 0.14414711 0.24938059 0.85359716 -0.25078112 -0.45015693 0.36552665 -0.30300453 -0.1575582 -0.08704511 -0.39211163 0.19469352 -0.5308545 0.805608 -0.22918902 -0.29034385 0.16338941
their 0.1471112 -0.3433298 -0.14211316 0.21282223 -0.080215104 -0.48181775 0.35130453 -1.6711185 1.3115572 -0.44715884 -0.15625368 -0.07377512 -0.027489517 0.099139996 0.759428 1.0167555 -0.7766726 -0.07048505 -0.116903834 -0.64346045 -0.4402951 -0.384566 -0.13570993 -0.13621245 0.08743568 0.32535905 -0.23085198 -1.1499503 0.29450187 -0.12486167 1.0111957 0.4815892 0.15569158 0.028333385 -0.16588728 0.58082044 1.2652715 -0.13446218 -0.45162433 0.2864271 -0.67853534 -0.01964025 0.0749458 -0.8214969 -0.006013038 -0.7531677 1.2431391 -0.67422795 -0.5646533 0.24176216
but -0.03423303 -0.6407947 -0.5530184 0.20009361 -0.23206843 -0.6411609 0.93101156 -2.6071198 2.2534697 -0.9479476 -0.4494407 -0.43269476 -0.00489408 0.18319607 1.2314492 1.8912598 -1.0342631 0.13226213 -0.025705839 -1.091201 -0.3742445 -0.66428536 -0.23360506 -0.16531006 0.2560747 0.6065951 -0.31568167 -1.5021027 0.42666844 -0.33139485 1.5666806 0.7086796 0.47384503 0.20132767 -0.60708743 0.9399162 1.9135495 0.08646141 -0.63622075 0.2105632 -1.0841409 0.16151236 0.2776402 -1.4322292 -0.24139449 -1.0950831 1.8613425 -1.3630335 -0.89651126 0.32648107
expressed 0.29240364 -0.16719899 0.008661298 0.15512708 -0.02691153 -0.37718767 0.1541628 -1.2453367 0.8713848 -0.23031174 -0.04593175 0.033071492 0.032775722 0.11603669 0.5184048 0.6506544 -0.6039523 -0.13590485 -0.14962055 -0.33097824 -0.41864952 -0.24309751 -0.17766395 -0.10774891 0.016826538 0.23029317 -0.17080265 -0.8295636 0.2390875 -0.038375977 0.6098628 0.36834276 0.006100678 -0.029954586 -0.050983813 0.3213033 0.91713357 -0.20625587 -0.4148009 0.3115459 -0.37500432 -0.09657728 0.032422274 -0.5270482 0.117869444 -0.58452046 0.8901398 -0.3756904 -0.4148538 0.16654138
concern 0.29913566 -0.13585481 0.05815515 0.1442189 0.0023285209 -0.32585427 0.106532685 -1.1037825 0.7223884 -0.15249561 -0.034669522 0.063331865 0.027403217 0.098646805 0.44860765 0.5850512 -0.52748346 -0.16421463 -0.12911229 -0.29307082 -0.38681307 -0.22615387 -0.16174337 -0.112542845 0.0045723086 0.19607666 -0.16776618 -0.69915926 0.21711235 -0.021120017 0.5208429 0.33630517 -0.024117013 -0.042547297 -0.0017891437 0.26720235 0.81566304 -0.22515042 -0.36490685 0.30843973 -0.3574292 -0.09306264 0.015305348 -0.47603732 0.16000555 -0.47823262 0.784646 -0.28263098 -0.34876677 0.14284602
government 0.3750011 -0.36488962 -0.15251495 0.2289018 -0.0860076 -0.52482 0.1381236 -1.7234954 1.2870461 -0.41574904 -0.11881493 -0.11883762 -0.047145043 0.21821344 0.8229701 1.0511874 -0.7385866 0.04659188 -0.15755053 -0.49712768 -0.383327 -0.39350167 -0.292308 -0.2761278 0.13922603 0.4363781 -0.28344107 -1.0260476 0.38410842 -0.13125443 0.8287961 0.5203475 0.07059648 -0.05456261 -0.39070615 0.44458288 1.1332793 -0.28057322 -0.42872664 0.3762012 -0.4357808 -0.02952686 0.23395225 -0.79588866 -0.042109407 -0.81565 1.1300064 -0.59921485 -0.78163797 0.20106636
avoid 0.14739431 -0.071596034 0.04774535 0.06598394 -0.0014541108 -0.16417713 0.013697276 -0.6040085 0.3716374 -0.05025067 0.008846855 0.047607575 0.020997856 0.048138272 0.18390992 0.29969937 -0.28243887 -0.12370269 -0.06992412 -0.14231887 -0.21478659 -0.07514008 -0.069318764 -0.051984597 0.0029689446 0.11055143 -0.07210062 -0.42090988 0.12335529 0.00023921771 0.25571933 0.18645999 -0.033369064 -0.029197726 0.015908377 0.12485779 0.425049 -0.11957439 -0.18489634 0.17940257 -0.18632077 -0.015340998 -0.012074216 -0.2455248 0.12356744 -0.25333378 0.41374895 -0.13424382 -0.17832871 0.0793747
might 0.31393006 -0.18918468 -0.018992197 0.17480122 -0.006577382 -0.39930594 0.23916177 -1.4670728 1.0404898 -0.29500782 -0.10648283 0.020286446 0.028270474 0.14747728 0.641281 0.87738067 -0.64760184 -0.16345042 -0.13126571 -0.42361593 -0.42949662 -0.3134905 -0.207344 -0.13003406 0.033547115 0.29967737 -0.21432433 -0.8330047 0.30710572 -0.075860135 0.72249854 0.4112062 0.032769028 -0.028143644 -0.08085133 0.38963738 1.0624571 -0.23886445 -0.44505793 0.34961957 -0.51492786 -0.08083157 0.090119526 -0.6934119 0.15220226 -0.61613244 1.0303354 -0.4779757 -0.48247486 0.1551595
across 0.27113223 -0.025708169 0.1789977 0.093152665 0.056873854 -0.23471905 0.027049221 -0.88336897 0.51097256 -0.026743948 0.047978126 0.16873857 0.047784712 0.0779091 0.2622164 0.3949174 -0.45519537 -0.28724486 -0.13287273 -0.19335552 -0.41230562 -0.09313931 -0.07113538 -0.042361625 -0.059695914 0.10222616 -0.09411466 -0.6159319 0.1978786 0.036259938 0.38728753 0.23694482 -0.12277955 -0.04249185 0.17151722 0.18725304 0.65249175 -0.24845725 -0.32392952 0.3331674 -0.3150714 -0.101739705 -0.063522756 -0.35837632 0.28355607 -0.34292328 0.6301683 -0.14315213 -0.20341377 0.11236873
Europe 0.3375133 -0.06472589 0.18175353 0.13870046 0.039581146 -0.28909186 -0.048507854 -0.9373217 0.5345451 -0.01731795 0.05893637 0.16110493 0.03164829 0.08879291 0.32145292 0.38384017 -0.4843862 -0.22795825 -0.1558703 -0.17804539 -0.42338827 -0.12194302 -0.12491397 -0.097190976 -0.034399897 0.13287064 -0.13734972 -0.65881544 0.20930292 0.042383008 0.3850863 0.28399098 -0.12589829 -0.085455224 0.11135552 0.182416 0.66968983 -0.3044652 -0.3246407 0.35497293 -0.25369185 -0.11128683 -0.027882114 -0.35382643 0.24795748 -0.41101646 0.6517696 -0.114100635 -0.28255823 0.12421938
What 0.2168249 -0.18120846 -0.023931915 0.107606895 -0.005923872 -0.25348333 0.13250679 -1.0776428 0.6965183 -0.14046009 -0.11662169 -0.045484677 -0.020993609 0.059031107 0.44982097 0.71685135 -0.40820962 -0.14065856 -0.045721177 -0.3349724 -0.2182189 -0.23262939 -0.16549431 -0.15838078 0.09149718 0.23826359 -0.1847846 -0.4632119 0.21635522 -0.058254562 0.4468047 0.3481234 0.038273368 -0.03490472 -0.1219295 0.2508438 0.71272814 -0.16222931 -0.2459545 0.19998951 -0.42238873 0.02646631 0.080209985 -0.5609741 0.18002672 -0.36084935 0.69962996 -0.31727257 -0.33621743 0.12018912
how 0.15884885 -0.18989573 -0.059612148 0.123377874 -0.040622894 -0.3104804 0.22799766 -1.1053631 0.81780535 -0.2609375 -0.0907566 -0.0116328 0.028265228 0.09179182 0.4542691 0.63685983 -0.51543623 -0.08172411 -0.08623142 -0.35155717 -0.31417462 -0.23369013 -0.12185297 -0.06908196 0.027821647 0.21633926 -0.13974391 -0.74811256 0.1908031 -0.060665693 0.57932913 0.31988224 0.06466857 0.0076110093 -0.0855149 0.32559663 0.8269107 -0.10773582 -0.35321665 0.22871666 -0.38540384 -0.034439098 0.021653442 -0.5019855 0.051686548 -0.49183506 0.79202896 -0.40070516 -0.3620204 0.15057318
going 0.30589893 -0.4105352 -0.28429762 0.23896846 -0.11755902 -0.547506 0.49401888 -1.8587897 1.4654942 -0.56716645 -0.33080247 -0.23090504 0.01106112 0.12902074 1.0098182 1.2625452 -0.7694947 0.05684077 -0.06550488 -0.6287795 -0.32234153 -0.614172 -0.37820494 -0.22540376 0.15318784 0.45218796 -0.3653364 -0.9290297 0.29669493 -0.21407273 0.97389877 0.5854665 0.28176352 0.027133591 -0.39711604 0.54185885 1.3854603 -0.15537733 -0.5387506 0.21189843 -0.6115092 -0.04030071 0.20948903 -0.9221278 -0.09060057 -0.8484256 1.3378805 -0.7817867 -0.70570177 0.2314666
take 0.24486715 -0.24224906 -0.061344787 0.15925997 -0.046269514 -0.4046949 0.2665927 -1.4603219 1.0601989 -0.31453264 -0.111829594 -0.010247908 0.01530796 0.12992348 0.6193798 0.85216886 -0.66158646 -0.11723769 -0.11612379 -0.4368644 -0.42549464 -0.3095075 -0.16903368 -0.12341368 0.038384184 0.29547036 -0.18365702 -0.91386676 0.2728691 -0.07914165 0.7514526 0.40294713 0.051626574 0.011850003 -0.10159342 0.41422054 1.074099 -0.18421674 -0.44731128 0.30793974 -0.50663614 -0.05758743 0.061323103 -0.68416727 0.09813631 -0.6420379 1.0343738 -0.49559364 -0.48525286 0.18612696
lead 0.42340863 -0.23197556 0.042954862 0.23916969 0.003771537 -0.51474273 0.1122862 -1.5750126 1.0715823 -0.27170488 -0.05571896 0.09338713 0.023237385 0.15062022 0.6957708 0.795269 -0.76759034 -0.14078683 -0.20389245 -0.40808982 -0.55805665 -0.3264856 -0.23334965 -0.16073641 0.020777635 0.29354867 -0.24783 -1.0611315 0.31792104 -0.038887534 0.77585053 0.47250557 -0.030572964 -0.08307715 -0.06722219 0.40433252 1.1587933 -0.33793765 -0.5036752 0.41720435 -0.45604584 -0.15543613 0.07044784 -0.6564796 0.11936 -0.7635906 1.1238934 -0.42637235 -0.5724768 0.21179076
National 0.44770023 -0.07317494 0.15523201 0.17353891 0.047048822 -0.37481824 0.067169346 -1.1468364 0.737855 -0.14120248 0.006057027 0.17782427 0.05099473 0.14210947 0.48096886 0.5255022 -0.6082862 -0.20209052 -0.1977909 -0.22929467 -0.5070742 -0.23250872 -0.1921547 -0.094648056 -0.068951495 0.16519803 -0.17463063 -0.80317503 0.2583946 -0.0019553397 0.5264736 0.30999464 -0.10939848 -0.0717528 0.095360376 0.23917538 0.8775069 -0.37011868 -0.45107114 0.4193273 -0.30211073 -0.21847112 -0.0118172895 -0.4426129 0.19183502 -0.54303485 0.8268799 -0.22926447 -0.3771503 0.1432172
chairman 0.4651378 -0.13764513 0.15542638 0.18515684 0.04841569 -0.3530327 -0.082649596 -1.1876025 0.61473286 -0.00050978706 -0.006068895 0.094896525 0.019058034 0.07929817 0.46656153 0.56217057 -0.5203467 -0.25274676 -0.14735106 -0.2289573 -0.40152577 -0.24105066 -0.2499316 -0.19539692 0.026180122 0.22683412 -0.23383783 -0.5983751 0.23926201 0.007633872 0.39489847 0.427313 -0.08152194 -0.13318293 0.010527334 0.20514908 0.8079197 -0.34947395 -0.35684237 0.34750858 -0.32274595 -0.0994578 0.016449459 -0.47549766 0.32286647 -0.46653464 0.7864526 -0.13842379 -0.3859829 0.13807943
John 0.5646663 0.14411949 0.5512041 0.108193345 0.21993798 -0.16895024 -0.24651457 -0.7666128 0.0658335 0.39918983 0.16266972 0.4025647 0.11189889 -0.0020482799 0.09773405 0.14481348 -0.42792255 -0.6697169 -0.1808943 -0.0066287164 -0.56371176 -0.05845908 -0.12693481 -0.06405887 -0.16467093 -0.012504122 -0.12275267 -0.3554187 0.16599007 0.16344672 0.06775678 0.2929927 -0.33102596 -0.16382073 0.55010915 -0.006792484 0.57173157 -0.47920266 -0.36323312 0.45168188 -0.31384632 -0.20064355 -0.23307352 -0.23267001 0.7468046 -0.12984744 0.53634715 0.27588204 0.027573854 0.08398413
Lloyd 0.18155012 0.006360435 0.13703255 0.052019604 0.03324421 -0.11751277 -0.056055497 -0.39267737 0.16097711 0.058425393 0.05213802 0.118658684 0.024375282 0.017014984 0.0969763 0.11859894 -0.218421 -0.17383318 -0.07372308 -0.044411942 -0.2225284 -0.0339246 -0.04963905 -0.03201172 -0.044890817 0.030624218 -0.05322028 -0.2878553 0.07725755 0.04073558 0.1282489 0.12607826 -0.08317271 -0.04387259 0.12171267 0.051954232 0.2935614 -0.15233669 -0.1606447 0.16734037 -0.114826456 -0.06641253 -0.060938105 -0.1254675 0.18402085 -0.14979695 0.27377558 0.01704543 -0.07231053 0.06014253
Jones 0.6424478 0.14387305 0.50058544 0.15381075 0.17648545 -0.26728725 -0.17558953 -0.90222824 0.21631052 0.2835081 0.14517559 0.39530554 0.11807024 0.03446931 0.23181291 0.1911511 -0.5161301 -0.60735 -0.21086432 -0.024579385 -0.6276191 -0.13206802 -0.19924352 -0.07117519 -0.17542168 0.011705162 -0.16975583 -0.5010385 0.16467208 0.13653345 0.18016648 0.3304987 -0.28906548 -0.16477264 0.50608146 0.049945947 0.71744525 -0.5024671 -0.46986452 0.48143026 -0.2803786 -0.28626856 -0.21898206 -0.25552142 0.67436576 -0.29411128 0.6749338 0.20755109 -0.06360612 0.11158176
radio 0.20298047 -0.05051555 0.084847584 0.08547075 0.008000642 -0.19765307 -0.035959885 -0.5998468 0.3571771 -0.027164787 0.0447119 0.090454295 0.026347674 0.054031856 0.1947715 0.24328095 -0.31182003 -0.1370995 -0.10153934 -0.11033381 -0.27623445 -0.06136438 -0.090009466 -0.050698962 -0.025971735 0.09632083 -0.07844948 -0.46441808 0.12784295 0.02095942 0.25508383 0.18688893 -0.0613414 -0.044143684 0.05918835 0.12507775 0.4431283 -0.1652917 -0.22014911 0.219039 -0.13546795 -0.06341764 -0.0283967 -0.21129188 0.14052583 -0.29834843 0.42696634 -0.09296519 -0.19323067 0.082128264
has -0.109261766 -0.72455156 -0.6515686 0.25216773 -0.20991674 -0.65164137 0.7095197 -2.6260972 2.2895567 -0.95455253 -0.34566498 -0.35523 -0.031509183 0.2834089 1.1394246 1.7316407 -1.0283725 0.253007 -0.06737876 -1.0564028 -0.43896207 -0.4680118 -0.16531412 -0.11422414 0.30886325 0.7088159 -0.256828 -1.7005699 0.56444204 -0.29048446 1.5659695 0.64394 0.3140586 0.15668806 -0.7421618 0.96888095 1.7725056 0.080360875 -0.513958 0.32652757 -1.002108 0.25654197 0.38835007 -1.3719021 -0.4308613 -1.168666 1.776003 -1.374037 -1.0874491 0.3594168
led 0.4820309 -0.60124314 -0.3493494 0.38750926 -0.15809034 -0.9569602 0.6471399 -3.0704052 2.396551 -0.88580066 -0.33337322 -0.18751596 0.028289001 0.29381827 1.5056278 1.8250922 -1.4070913 0.04446388 -0.25802088 -0.9742487 -0.77925384 -0.7874951 -0.4733344 -0.2747746 0.15126538 0.6799285 -0.45952398 -1.9191476 0.54399806 -0.25868818 1.6577771 0.9042725 0.27651152 0.021204386 -0.52809304 0.8959178 2.2629733 -0.27675357 -0.932475 0.50911874 -0.95066106 -0.16739042 0.29163283 -1.394185 -0.15604554 -1.5223405 2.1802323 -1.2635701 -1.1510469 0.40370497
efforts 0.32380587 -0.02585727 0.19551091 0.123504594 0.052688096 -0.276614 -0.020763263 -0.9037421 0.51432914 -0.022310045 0.07409777 0.1895114 0.053115796 0.09763073 0.2807244 0.34369704 -0.49782932 -0.26308006 -0.17121181 -0.16569354 -0.46172807 -0.1005807 -0.09734162 -0.05195263 -0.072858885 0.10348946 -0.10531545 -0.7007315 0.19645044 0.05148799 0.3916954 0.25733843 -0.13658814 -0.056783278 0.1757656 0.18106847 0.6777551 -0.27894244 -0.35994628 0.3640749 -0.25899583 -0.13522972 -0.0723573 -0.32385257 0.25755796 -0.40814233 0.65945864 -0.11375441 -0.24379571 0.13031444
public 0.62297666 0.060241867 0.46838164 0.1379758 0.22157446 -0.22065811 -0.15422969 -1.0574001 0.2490774 0.3210961 0.06463165 0.30500686 0.07246586 0.020975038 0.28323147 0.40821877 -0.46138638 -0.65106297 -0.15399607 -0.10856111 -0.52446586 -0.20100462 -0.20953894 -0.15577413 -0.09883889 0.085098065 -0.213528 -0.30327606 0.21356048 0.1070075 0.14968286 0.40471292 -0.2649778 -0.16450773 0.41939646 0.050257493 0.73493445 -0.4936051 -0.3892621 0.42981303 -0.45164704 -0.18462703 -0.14481147 -0.42850378 0.75765496 -0.17452975 0.6967952 0.14550312 -0.081109665 0.106034644
consumer 0.3294691 -0.12455534 0.09023596 0.1511967 0.009778106 -0.33933312 0.09739965 -1.1401277 0.74181813 -0.1442975 -0.027349027 0.09434263 0.036272865 0.10379546 0.46530113 0.5771808 -0.560475 -0.18279773 -0.14319202 -0.28451133 -0.4255874 -0.22003582 -0.1693853 -0.10725126 -0.015396383 0.19156843 -0.17300698 -0.72637355 0.22646298 -0.016290797 0.52606255 0.3367119 -0.04124619 -0.050495926 0.027643522 0.2658703 0.84468335 -0.26178294 -0.39361498 0.32843357 -0.35528868 -0.11485953 0.010324169 -0.4769304 0.17698263 -0.5042807 0.81756204 -0.27324632 -0.36333773 0.14564496
confidence 0.36139637 -0.18733154 0.05299047 0.17274934 0.0065392614 -0.37910095 0.097921014 -1.3187004 0.8380148 -0.15802786 -0.05956963 0.038699716 0.022829542 0.10549355 0.5453003 0.71258295 -0.5930928 -0.18795533 -0.13429958 -0.34156168 -0.41094223 -0.28583297 -0.21713035 -0.15630785 0.028052647 0.2566081 -0.21722695 -0.75110877 0.2611731 -0.034609936 0.5699635 0.42189053 -0.012206955 -0.06274418 -0.04732306 0.30581927 0.93521446 -0.26590917 -0.4033298 0.33392757 -0.41625327 -0.0846511 0.043905772 -0.5795262 0.2012358 -0.54919624 0.9087859 -0.32924598 -0.43227792 0.16163485
in 0.5480343 -0.47752994 -0.19523075 0.33078215 -0.0063798726 -0.67564726 0.28451174 -2.3196392 1.6767433 -0.54865694 -0.3051015 -0.107473716 -0.05916144 0.24751854 1.2752088 1.5469695 -0.94469273 0.10081762 -0.121298775 -0.73528254 -0.44519967 -0.682059 -0.43374902 -0.4132116 0.19437079 0.58739704 -0.47035697 -0.99162114 0.53433025 -0.19526981 1.1071961 0.69040596 0.14076467 -0.12461205 -0.52429026 0.61664486 1.5296929 -0.43406343 -0.53680265 0.4293306 -0.76217407 -0.08127531 0.44166625 -1.1582601 -0.037792414 -0.9704279 1.4990664 -0.82362944 -1.0131023 0.25185025
March 0.69121486 0.16277547 0.6268206 0.14407013 0.22765836 -0.2740681 -0.27939886 -0.95007557 0.1460247 0.4083438 0.2142966 0.4911624 0.13445053 0.02244425 0.14628182 0.11033528 -0.5745254 -0.72770053 -0.2529677 0.006078101 -0.7289502 -0.0766491 -0.16172695 -0.07081725 -0.21996394 -0.02412397 -0.15347856 -0.59593976 0.18242389 0.18159048 0.15481998 0.34805706 -0.37265614 -0.18846394 0.6382775 0.016977403 0.74671465 -0.56170464 -0.4958571 0.5493558 -0.31241482 -0.3071801 -0.29484212 -0.23642415 0.8000783 -0.27998278 0.68840826 0.28815857 -0.021273699 0.12991078
report 0.2470351 -0.33135918 -0.19277637 0.19341981 -0.120933205 -0.5072279 0.22255528 -1.571155 1.2483622 -0.4582264 -0.09382053 -0.10450147 -0.0015558018 0.19117814 0.6943082 0.9085873 -0.70197487 0.06728519 -0.14984915 -0.47981408 -0.4024309 -0.2846013 -0.22623065 -0.15979066 0.10950067 0.3804922 -0.21120234 -1.131978 0.32515708 -0.1150799 0.84774256 0.4482217 0.10845155 -0.00867718 -0.33007747 0.46647814 1.1048245 -0.16076767 -0.45050165 0.33185506 -0.37840718 -0.030424476 0.1425908 -0.6982616 -0.11275128 -0.8280759 1.0896916 -0.62274116 -0.67794997 0.21220155
beef 0.16125399 -0.25261983 -0.08889559 0.11650791 -0.007702261 -0.2344192 0.14452344 -1.1541702 0.7540205 -0.19778542 -0.14579456 -0.15163189 -0.06382268 0.075014174 0.5060924 0.8200138 -0.37476018 -0.08135069 -0.035752457 -0.41036195 -0.13823245 -0.2865798 -0.15144856 -0.20477553 0.1431483 0.29783347 -0.20337985 -0.3695776 0.2382079 -0.10486836 0.47548792 0.3759635 0.087736376 -0.031227874 -0.23822497 0.2976109 0.68092537 -0.10151034 -0.17820607 0.15661205 -0.5047457 0.06718474 0.16545399 -0.6508865 0.14040242 -0.3277124 0.69950163 -0.41481933 -0.37409753 0.10224521
year 0.24186063 -0.3973462 -0.27857536 0.24897203 -0.08250055 -0.5694257 0.5444394 -2.0387669 1.7544471 -0.7186534 -0.26638266 -0.12593378 0.04787216 0.31067473 1.1157336 1.4004344 -0.86635303 0.11280306 -0.1313189 -0.6988577 -0.5119647 -0.48004553 -0.27519944 -0.19634925 0.089257285 0.50653356 -0.29802305 -1.2646028 0.5175901 -0.24591818 1.240585 0.46841794 0.2092612 0.06962245 -0.3788502 0.6575027 1.4539382 -0.23897766 -0.5449534 0.40045652 -0.6842166 -0.06873424 0.33610323 -0.99508935 -0.18028834 -0.96735823 1.4756172 -0.9375446 -0.8819809 0.19015111
nearly 0.34328994 -0.17447221 0.031311113 0.1708281 0.00028248524 -0.40055242 0.1603133 -1.3702271 0.9511257 -0.23383409 -0.057617903 0.059425015 0.047641333 0.1456063 0.5871347 0.75298196 -0.63848895 -0.1519088 -0.15303122 -0.36484683 -0.4643515 -0.26445526 -0.20446117 -0.12758552 0.01026496 0.2690674 -0.20111166 -0.8632152 0.30415705 -0.052152313 0.6720468 0.3840665 -0.005606203 -0.039256573 -0.044504587 0.35147947 1.0064844 -0.27775645 -0.44588405 0.36705914 -0.42473567 -0.10011195 0.065805115 -0.59838235 0.15345572 -0.61278826 0.97457784 -0.399969 -0.47795853 0.1612209
half 0.34197748 -0.11286864 0.07147697 0.16444604 0.038032964 -0.34075662 0.108310245 -1.1714134 0.7588918 -0.16697799 -0.03739238 0.14154309 0.037199773 0.13492113 0.4594641 0.5825972 -0.54293406 -0.16706929 -0.1530381 -0.28661746 -0.44609565 -0.19752684 -0.14927204 -0.08204941 -0.011884917 0.19137445 -0.18740787 -0.7237551 0.26501945 -0.019840209 0.55441546 0.3047075 -0.050280467 -0.06837415 0.030961692 0.28928706 0.83827585 -0.2948266 -0.3792569 0.35765192 -0.379138 -0.12169579 0.042664554 -0.48190814 0.16088988 -0.48800218 0.8249349 -0.27443802 -0.38626477 0.14462827
total 0.4359058 -0.050538287 0.21597329 0.15341593 0.08253755 -0.34994295 0.07416604 -1.2443726 0.72084934 -0.063704 0.0041749277 0.17946985 0.076124005 0.12836947 0.45237795 0.6073587 -0.6021163 -0.34906337 -0.1687506 -0.25635096 -0.5279158 -0.2262406 -0.18167788 -0.095984116 -0.06458582 0.16576867 -0.17855857 -0.750534 0.28098825 0.008940976 0.52524483 0.36351165 -0.12216452 -0.069034494 0.18977594 0.24789694 0.932319 -0.3607737 -0.46782997 0.43244842 -0.4161796 -0.16136596 -0.04047434 -0.5135667 0.36902168 -0.48065436 0.9018142 -0.20020685 -0.31706572 0.13527046
imports 0.34433535 -0.08532902 0.14726754 0.15079112 0.02508098 -0.35609436 0.013898664 -1.1505624 0.723431 -0.10063148 0.057415273 0.15686108 0.038729854 0.12808199 0.39187613 0.51057315 -0.5915241 -0.24376372 -0.18519221 -0.25035134 -0.50291955 -0.13047808 -0.13460484 -0.081173345 -0.034493726 0.17728291 -0.1392363 -0.87222016 0.25823286 0.02513655 0.52632535 0.32546237 -0.105850406 -0.059453167 0.10675513 0.26120132 0.84341216 -0.29597652 -0.41395566 0.41160634 -0.31432095 -0.116706125 -0.03743112 -0.4392317 0.2345359 -0.5309615 0.8234199 -0.21330145 -0.36011037 0.15142168
It 0.26232368 -0.39758143 -0.21521753 0.18180393 -0.09195791 -0.40287554 0.23512122 -1.5546819 1.1390284 -0.36734444 -0.22564197 -0.2085345 -0.031745523 0.13312024 0.7309106 1.1026297 -0.5484842 0.01040411 -0.028663138 -0.5110666 -0.18945093 -0.41192934 -0.32708564 -0.25412118 0.1893298 0.43941236 -0.2903567 -0.711349 0.3369993 -0.16720535 0.71339035 0.5130631 0.18238303 -0.030626424 -0.40862748 0.40216067 1.0328541 -0.15808108 -0.34039247 0.1978248 -0.48607028 0.11500534 0.21578814 -0.7982574 0.03389915 -0.6128784 1.0150409 -0.5900632 -0.65430987 0.15567875
brought 0.2755854 -0.0924987 0.09205474 0.12894024 0.025535565 -0.311522 0.17617458 -1.128389 0.73424745 -0.13228492 -0.03663676 0.11084968 0.06871888 0.08342856 0.40311846 0.5595303 -0.56812173 -0.25572965 -0.13139556 -0.2992689 -0.45298374 -0.2220794 -0.12916695 -0.039417543 -0.046210196 0.15617938 -0.14102034 -0.7528561 0.19515026 -0.008887066 0.5464597 0.3223649 -0.0331685 -0.009883646 0.11425636 0.28087726 0.88629997 -0.21624736 -0.42687127 0.31671384 -0.42484847 -0.1130329 -0.053448346 -0.48986724 0.22905616 -0.47410804 0.831724 -0.28925183 -0.26720178 0.1557335
tonnes 0.49769968 0.031849764 0.23037064 0.15407299 0.0927973 -0.32603285 0.064773 -1.1016389 0.6418252 -0.06870571 0.026518868 0.20850429 0.076340616 0.13607153 0.46806374 0.55611223 -0.54673195 -0.3471636 -0.17662466 -0.18127903 -0.5246029 -0.19674224 -0.21359344 -0.10003874 -0.080965884 0.15100986 -0.18744853 -0.5898531 0.2723258 0.01840578 0.4586024 0.31173572 -0.1429057 -0.08396865 0.21073242 0.2167269 0.83777565 -0.40503895 -0.46667275 0.4394579 -0.3479504 -0.22081023 -0.017135717 -0.44256255 0.38305596 -0.4425451 0.82628965 -0.12935144 -0.29925206 0.092606805
some 0.31619686 -0.26799372 -0.09107644 0.20068179 -0.040173016 -0.46419764 0.2705981 -1.625468 1.212875 -0.3785875 -0.14231168 -0.03767009 -0.0007344728 0.16115329 0.7392324 0.9977248 -0.70906967 -0.08098305 -0.13129312 -0.51562506 -0.4384839 -0.35624412 -0.23181863 -0.17124604 0.08249533 0.3389401 -0.25033027 -0.9678665 0.32527336 -0.10632452 0.83521765 0.4546905 0.07835087 -0.023470314 -0.18030049 0.45931074 1.1718247 -0.24064559 -0.4596344 0.3515915 -0.5429441 -0.05026632 0.12079189 -0.7716048 0.069799416 -0.7083046 1.1443758 -0.56682265 -0.58824164 0.18560328
