2475 50
EU 1.1463646 0.08796183 -0.49647292 -0.46713975 0.22493336 -1.3547678 0.6307581 0.69439054 -0.7441035 0.4271889 -0.46668193 -0.76913273 -0.42489898 0.5171876 -1.1919768 0.45349157 -0.55298495 0.21485674 0.2338171 0.46978062 -1.1365856 0.22761042 -0.031229477 1.2408051 -0.5879734 0.23688196 0.5486573 0.45139143 -0.6648988 0.37153915 -0.34624696 0.28887022 0.0014113827 0.0634422 0.87097126 -0.085838065 -0.20119683 0.4326087 0.05743665 1.3673326 0.17545426 -0.29006734 0.43488857 -0.3293618 0.21200308 -0.06511098 0.5528362 -0.16468036 -0.13477853 -0.056307774
German 0.5580767 0.5689647 0.26919 -0.18328133 -0.07917952 -0.1890295 0.42803693 0.04656891 -0.5440046 0.6469222 -0.28210747 -0.64843065 -0.33790666 -0.40489328 0.26502132 -0.46070203 -0.04377148 -0.44600227 -0.23006594 -0.31242818 -0.0049704993 0.11598878 0.008736158 0.17731632 -0.80122936 -0.01616001 0.13419788 0.68844193 -0.13791339 0.8630508 0.10459978 0.5572294 -0.123088636 0.038372986 0.38204697 0.48928785 0.3096856 0.1932128 0.79425627 1.1340317 -0.15089962 -0.02029478 -0.26996592 0.06858772 0.49818686 -0.41990057 -0.2354566 0.06104645 0.2846796 -0.85684514
call -0.059532896 -0.3181442 -0.2574839 -0.07789849 0.6825665 -0.6262658 0.49233133 -0.17051214 0.70847946 0.6065449 -0.21525176 -0.42257482 0.64210814 0.2672624 0.101054385 0.2900203 -0.3062757 -0.38883042 0.050195396 0.12955834 -0.009888846 -0.97133553 -0.067150354 0.18572232 0.040954646 -0.3296654 0.3935867 -0.10056497 -0.74305815 0.29598156 -0.92475295 0.022260593 -0.43332314 0.23800062 -0.27039927 0.25449312 -0.00016427762 1.2148771 -0.047206234 0.15493485 -0.2649439 0.3167443 0.5980868 -0.66076106 0.16840139 -0.01041349 0.3584971 0.6603843 0.25469217 -0.49506876
to 0.43210492 0.037438888 -0.03780984 0.07907226 0.13583969 0.025284149 -0.06672299 0.003967142 -0.10171176 0.2554615 0.08303062 -0.029542489 0.27680197 0.08162231 -0.03614695 -0.21122979 -0.2332741 0.3603312 -0.031584743 -0.16664854 -0.15578154 -0.08189243 -0.19651848 0.09521321 0.0025835035 -0.14992815 0.05566626 -0.13798602 -0.47859675 0.20318468 -0.54334754 -0.13048759 -0.00097150786 -0.098181754 0.068087004 0.3076488 -0.08369532 0.53303367 0.39960307 0.4531608 0.12763962 0.017526919 0.19033794 -0.19164436 0.2504422 0.09176057 -0.16272068 -0.05360741 0.31201088 -0.2989839
British 0.4830087 -0.033887625 -0.16167794 0.22920895 -0.6799177 -0.43591776 0.27835897 0.31965616 -0.2034325 0.5133983 -0.2490383 -0.045314286 0.22025329 0.30935708 0.09190101 -0.3547751 0.049889483 -0.35187653 -0.19639556 0.40134516 -0.005082582 0.27840087 0.26551682 0.6922481 -0.3536163 0.046557758 0.516509 0.76592994 -0.35867402 0.28538582 -0.40943012 -0.030245882 -0.4191124 -0.2884802 0.07705547 0.381809 0.56028235 0.24754718 0.123595566 1.0847425 -0.044584952 -0.4026806 -0.3312381 -0.11788049 0.86870015 -0.3953471 0.18983805 -0.15480344 0.21265987 0.10449297
. 0.06979131 0.009026374 -0.0797803 -0.3284072 0.088361904 -0.19416414 0.13728246 -0.1610766 -0.09374617 0.07877956 -0.16183189 0.14460427 0.26057225 0.001045663 -0.03799886 -0.16676599 0.11929011 0.26519218 -0.14500093 -0.15164734 0.058096234 -0.24784262 -0.015128353 0.28984427 -0.20920728 -0.059157312 -0.008804928 -0.000119191216 -0.09123682 -0.1216537 -0.33748946 0.059423596 0.054473333 -0.0058092824 0.04100392 -0.21423075 -0.023354536 0.31917608 0.51990914 0.31619832 -0.23456301 -0.092354946 0.17740744 0.051633168 0.3914953 -0.07867628 -0.21982703 0.1951125 0.12824886 -0.26346925
Peter -0.3820581 0.7939799 -0.82346773 -0.28861883 0.03046531 -0.42503452 -0.43411422 0.4880173 -0.23378584 0.111482345 -1.1159582 0.34278443 0.28874314 -0.13881117 -0.083833314 0.19727856 0.25143203 -0.47737923 -0.43392035 -0.8210901 -0.41434866 0.3192881 0.34478286 0.28165787 -0.103973344 0.010403047 1.4138756 -0.27960956 0.018697886 -0.0029996035 -0.22487156 0.10109601 -0.36277637 0.39537615 0.4695562 -0.7266358 0.81315595 0.3129982 0.43471703 0.45123506 -0.12325843 -0.09088846 0.4860127 0.1224081 0.7710348 -0.14409617 -0.34213558 -0.13023674 -0.12862033 -0.39532432
Blackburn -0.63930345 1.0069431 0.7087201 -0.38965014 0.46686983 0.51877666 0.13782896 -0.24915653 0.28624886 1.3339974 -0.80197525 0.03091697 0.20003206 0.858681 -0.7949613 -0.8464752 0.41191497 -0.54135066 -0.35967255 0.010492161 -0.84032744 0.24018939 -0.342457 0.041610554 -0.4663365 -0.087565325 -0.19140707 0.15821299 -0.25131857 -0.4192839 -0.34485132 0.11882741 0.019685535 0.70786864 1.3821647 0.27397606 0.31568107 -0.22089896 0.48042345 0.4538685 -0.08832886 -0.11001635 0.05058956 0.46705046 1.1911823 0.15182863 0.71752954 0.9113039 -0.41801852 -0.022330167
BRUSSELS 0.08715536 -0.056839474 -0.1581874 -0.46215042 0.054669783 0.32956377 -0.5450856 0.08783483 -1.1816814 0.47043473 -0.18780908 0.92276984 0.03668981 -0.13991164 -0.95279723 0.47260663 0.050132196 -0.36031702 0.30797285 -0.60658103 -0.70595056 0.23148672 0.74071574 1.5596225 -0.184027 0.3434697 -0.63019747 -0.31663677 -0.63757294 0.6640412 -0.4130946 0.7758374 -0.23014717 0.85942084 0.46036375 0.10230082 0.76437634 -0.45398703 1.1208265 1.383206 -0.6756736 -0.30471894 -0.7050728 -0.3094531 1.2632772 -0.7210804 0.10033843 0.22053318 0.08461983 -0.3085863
1996-08-22 0.5396841 0.2669864 -0.30922782 0.24133018 -0.64222723 -0.18170995 -0.021656197 -0.31612653 0.21766543 -0.20324148 0.1402556 0.42747304 1.2463498 -0.2249211 0.097678736 0.36793077 0.36027735 0.18021446 -0.12618288 -0.44701055 -0.32465315 -0.3985276 0.0054305824 1.6415774 0.03322603 0.09913055 -0.16123976 -0.11223286 -0.81194615 0.16286455 -0.41425377 -0.10904179 -0.20132163 0.57224214 -0.38144496 0.19842274 0.13105068 -0.22150262 0.509983 0.8381311 -0.87894046 0.026191266 -0.37126142 0.28951555 -0.0072829244 0.08173294 0.14940774 0.23891538 0.46495163 -0.15381207
The 0.30194333 0.19991532 -0.20355572 -0.051912546 0.08648403 -0.11685972 0.2621982 -0.05117273 0.0091986405 0.5241899 0.14838709 -0.080601424 0.041668687 0.27780306 -0.058031466 -0.2597302 -0.033826005 0.36813238 -0.013206535 -0.4097086 0.025261855 0.00016601056 0.09779733 0.38626182 0.20265126 -0.295964 0.08821679 -0.21092159 -0.23446928 0.18069799 -0.5170022 0.0015791055 -0.07581737 0.022212675 -0.11913307 0.026631491 0.08633657 0.40917242 0.13721105 0.4878957 -0.20622781 -0.26685482 0.09918515 -0.23047353 0.25076592 -0.27734667 -0.34371814 0.17430793 0.050111122 -0.24862996
European 0.37772584 0.3421622 0.20401399 -0.39921397 0.2110931 0.21264361 0.7584018 -0.2811133 -0.3307957 0.52849627 -0.3788063 -0.7294636 0.028428026 0.045873806 0.26210395 -0.1135959 -0.03442531 0.4144705 0.20852342 -0.3251918 -0.10350673 0.014263714 0.057027314 0.89826083 -0.24653645 0.30389336 0.3454434 -0.2674352 -0.5691565 0.14465033 -0.8524421 0.83269215 0.35813823 -0.1796425 1.0011158 0.44892508 -0.65941924 -0.4068329 0.08674497 0.89447653 -0.10353731 -0.21157883 0.13847418 0.2565431 0.9429929 -0.3858716 0.4727844 -0.03318425 0.02276349 0.25980774
Commission 0.44421253 0.15914801 -0.3943174 -1.1374432 0.34296024 -0.39441502 0.54762506 -0.22114079 -0.4238559 0.4268149 -1.1379057 -0.065533504 -0.26372755 0.259101 -0.67114645 0.2619737 -0.4470873 -0.3031308 0.5083278 0.25167137 -1.1815823 -0.118298754 0.014296232 0.27687585 0.3069197 -0.18623635 -0.003596473 0.17312123 -1.0869901 0.1333966 -0.9973942 0.7438911 -0.85454476 0.35562813 -0.26185066 -0.40819716 0.028124398 -0.017073914 -0.40451223 0.9418625 0.3473156 -0.13458063 0.14552565 -0.5259644 0.38093472 -0.019532094 0.3227025 1.518729 -0.4137142 -0.04386755
said 0.029822141 0.077078685 -0.13477172 0.042889707 0.06751578 -0.42988142 0.21472278 -0.031984646 -0.18751284 0.4701885 -0.098667726 -0.05603798 0.2846269 0.09137525 -0.38142118 -0.10053391 0.028805437 0.23537993 0.009992777 0.14521104 0.014654297 -0.30753648 -0.114437096 0.3950219 0.12806687 -0.3812425 0.10446452 0.13470685 -0.63049734 0.16734672 -0.34594816 -0.37439778 -0.057405062 0.19242346 -0.3100575 -0.3745147 0.03137451 0.46284625 0.338977 0.3322477 -0.07242456 -0.12561505 0.47410053 0.061519098 0.59299016 -0.09205754 -0.034566335 -0.035138097 -0.044273563 -0.42022815
on -0.006938897 0.0049352353 0.079347715 -0.09848119 0.019348977 -0.33845323 0.10707734 -0.2897397 0.18292582 0.5144561 0.17122038 -0.06397496 0.3610744 0.040081713 -0.15206876 -0.37077534 -0.2604965 0.07119693 -0.046196494 -0.081500284 -0.17605853 -0.05321287 -0.12831691 0.14800286 -0.21934415 -0.36456865 -0.0029678647 -0.10465546 -0.13634932 0.14522661 -0.5583455 -0.30672368 0.086243026 0.23824531 0.14639415 0.166448 0.19040121 0.28840843 0.43578535 0.48703465 -0.4142124 0.008347325 -0.10410342 0.19183254 0.44916365 -0.22619434 -0.11203207 0.19633932 -0.16919418 -0.12644991
Thursday -0.29386455 0.2622471 0.399556 0.023132844 -0.31234834 -0.47768694 -0.095425546 -0.40487692 0.32680023 0.44853777 0.24484359 -0.15116937 0.44829795 -0.4597931 -0.3627169 0.0630741 -0.33163092 0.070055075 0.054606 0.16511758 -0.23587836 -0.58574384 -0.1895093 0.9223239 -0.43049562 -0.16618837 0.5346745 -0.29034007 -0.5573488 -0.12328511 -0.6030016 -0.21355973 -0.052012168 -0.019546265 -0.107992224 -0.030309705 0.71516716 0.3058645 0.16160892 0.38743708 -0.49272835 0.4024594 0.08492381 0.4134531 -0.10171601 -0.43762693 -0.25091958 0.2166333 0.0022951132 -0.15763606
it 0.4062983 -0.14705557 -0.0622155 0.13451155 -0.064648286 -0.3487889 -0.07256524 0.07001281 0.28408173 0.31674904 -0.021542562 -0.28996393 0.18486811 0.08206576 -0.1967609 -0.51603323 -0.014043343 -0.119056925 0.14617911 0.048830964 -0.21412677 -0.20685546 -0.3000234 -0.06630529 -0.22889416 -0.18443426 -0.024688167 -0.17521466 -0.7195358 0.01249092 -0.19539103 0.2950838 0.01154037 -0.30464405 -0.023458248 -0.24864836 -0.13955511 0.6513404 -0.046048447 0.8041612 -0.09737811 -0.04416152 0.42519405 0.052172195 0.5334863 -0.00928165 0.023406237 -0.21891995 -0.15558356 -0.4483027
with 0.42777392 0.28089663 -0.05464014 0.26790243 0.01607949 0.052076537 -0.027714973 0.03652526 0.10282326 0.5069566 0.028899679 0.20140009 0.38502157 0.20898402 -0.12661588 -0.3355503 -0.1945043 0.13755189 -0.07415214 -0.21687645 0.106340624 -0.01832209 -0.19898064 0.34632415 -0.23691833 -0.036479283 0.10529952 -0.13825066 -0.11899984 0.018781034 -0.7229519 -0.049531996 0.20354374 0.27578312 -0.105522364 0.0637675 -0.037805863 0.50459075 0.319029 0.21402226 0.051007856 0.17595506 0.15531898 -0.079285555 0.083106875 -0.19722183 -0.028133016 -0.28052443 0.15665436 -0.2751637
until 0.32541743 -0.1001292 0.10726349 -0.49658588 0.059460197 -0.061366457 0.12841824 0.47774035 0.036917478 0.5845437 -0.04575119 -0.25429755 0.091294736 0.5604571 0.5195441 -0.5434858 -0.27642408 -0.1299454 0.061968204 0.10823531 -0.45131525 0.2748854 -0.32231805 0.056763027 0.20091838 -0.44667986 0.38822958 -0.3837122 -0.16302823 0.043585245 -0.28243122 0.19673899 0.032009345 0.86673725 0.28779912 0.8756408 0.5628131 0.92283666 0.46343407 0.76728284 0.19518894 0.55434716 0.23051819 -0.38187814 0.5764259 0.40307075 0.56411386 0.8024474 -0.3338224 -0.07583793
determine 0.6064479 0.19904691 0.051050846 -0.5116466 -0.6864356 -0.11339033 0.16537783 1.1135846 -0.4753443 0.9109698 0.33038455 0.32420105 -0.29571196 0.7061245 -0.26281688 0.45211947 -0.24517053 0.42937368 -0.79635125 0.4700735 -1.2259933 -0.22246079 -0.83633417 0.47844684 -0.27835375 -0.5890159 0.387207 0.335494 -0.7047357 1.3481554 -0.27077478 0.4786837 -0.14317173 0.03086704 0.321222 0.65905064 0.10505316 1.1472088 -0.23561165 0.38333204 0.88986695 -0.25658584 0.60139394 -0.6613957 0.6684942 0.42228994 0.28667957 0.75291634 0.3328184 0.27709493
whether 0.5075123 0.06531911 0.50390697 -0.15744981 -0.3274105 -0.7983288 -0.6304718 0.86345404 -0.17464009 0.7713687 0.84053296 0.12418913 -0.1242599 0.60900456 0.14376795 -0.267639 -0.8980382 0.012335598 -0.26950592 0.23406468 -0.73381233 -0.12412852 -0.15807882 0.6232123 -0.15376894 -0.46330112 0.66508704 -0.3868227 -1.1600978 1.0214977 0.18077803 -0.37365317 -0.3556748 0.2698758 -0.5764985 -0.38243625 -0.10418964 0.5845676 -0.72151655 0.7475996 0.9854475 0.6273925 0.6213797 -0.20777424 0.5965344 -0.39888567 0.54144055 0.16666725 0.32555017 -0.3951593
mad 0.70116615 -0.95102674 -0.14488629 -0.47357222 -0.20975308 -0.7694249 -0.2997139 0.9946091 -0.37879494 -0.15520906 -0.6620005 -0.056330375 0.20472969 0.89734393 -0.23270041 0.25631943 0.43307048 -0.41310614 -0.49551657 0.2054194 -0.41406447 0.19665514 -0.43491137 0.797702 -0.7086027 0.6346729 0.5735415 -0.30699205 -0.1506392 0.7603975 -0.68879974 1.1399491 -0.05844688 0.025481777 0.6779327 0.30820647 -0.35274926 0.56501204 0.06884953 1.2680033 0.9567831 -0.21766889 0.5404617 -1.0559481 0.7899043 -0.30797893 0.38506296 -0.5503192 0.02412984 0.1838862
cow 0.55713916 -1.0007049 0.33103982 -0.45197794 -0.2585314 -0.23813027 -0.3098988 0.99877596 -0.21287523 -0.02310406 -0.8352656 0.26167318 0.75526184 0.4194632 0.050471388 0.6658069 0.18023542 -0.488512 -0.30596977 0.4173628 -0.40915328 0.7275129 -0.49002895 0.74931663 -0.98238975 0.40224603 0.59572 0.02800192 -0.274387 0.53209805 -0.84394574 0.9648412 -0.3072136 -0.0070903194 0.7495041 -0.2817676 -0.3356033 0.5348393 -0.13786775 1.554665 0.9418688 -0.010058676 0.62888795 -1.3754604 0.88087606 -0.3307919 0.72392136 0.06633134 -0.14490305 0.1576055
disease 0.24458636 -0.43018037 -0.33437166 -0.11710424 0.068700254 -0.38695624 -0.2701963 1.0700302 0.08062756 0.48852918 -0.49011785 0.2681836 0.39013326 0.8867446 -0.28781754 0.7191309 0.010449927 -0.030136516 -0.81220436 1.1645528 -0.3854247 1.0840658 -0.2005846 0.6402207 -0.5936536 -0.24491934 -0.010613478 0.2371906 -0.66993535 0.25315577 -0.23259552 0.44718403 -0.7006964 0.28298607 -0.03856853 -0.5778709 -0.41220608 1.1238108 -0.35696778 0.68820167 0.9689505 0.28793293 0.22218283 -0.6944566 0.45116085 -0.37948608 0.39899343 0.22343238 0.5896145 0.377427
can 0.5093889 0.033599045 -0.18063982 0.11872411 0.12436506 0.40546155 -0.39277208 -0.08715892 -0.30608398 0.035622858 0.00031755344 -0.142402 0.010514405 0.35426864 -0.78311473 -0.071913436 -0.53486335 0.26823232 0.5060997 0.15047075 -0.58255625 0.2024419 -0.6295598 -0.06585457 -0.3744683 0.24042787 0.2831254 -0.34111187 -0.43974954 0.95534515 -0.1636566 0.4706327 0.12425843 -0.065071546 0.059663743 -0.08040262 0.06748604 1.0466073 0.18311206 0.6622405 0.85158163 0.2508413 0.02460354 -0.28725642 0.7137493 0.12331648 0.53682643 0.5060188 0.060648933 -0.6148504
be 0.6445463 -0.47563627 0.10254881 0.27457452 0.024975693 -0.29190716 0.24840598 -0.08076457 0.19956075 0.08659049 -0.1574536 -0.20083734 0.33100313 0.216771 -0.26012906 -0.78381616 -0.20540495 0.025655786 -0.13374907 -0.100174025 0.019566001 0.18261671 -0.5013936 0.3956424 0.0671691 -0.41857237 0.7038685 -0.39284703 -0.51696324 0.2184579 -0.04314763 0.028834319 0.041946456 0.2146478 0.050284017 -0.008639363 0.107294284 0.41207623 0.12913963 0.5866833 0.5789462 -0.15137547 0.38006103 -0.18624061 0.16255224 0.30896628 0.009009942 0.49389338 0.34553185 -0.2424856
sheep 0.74233216 0.7841956 -0.2171005 -0.40471324 0.3211848 -1.0223321 -0.03189099 1.3518013 -0.67233896 0.629805 0.19272013 -0.30099636 -0.16874056 0.33062157 -0.6732805 -0.025523733 0.06279785 -0.85685426 -0.58481985 0.77622616 -1.3016255 0.8340017 -0.3425411 1.2107341 -0.41320783 0.7712159 0.5964922 -0.14046222 -1.0660205 0.17682543 0.31431982 0.71463484 0.30319682 -0.10656824 1.1087453 0.09824431 -0.81017977 0.85422003 0.11444047 1.7082847 0.927747 0.4339325 0.02844224 -0.47019058 0.33854368 0.2206906 0.96448046 0.47241932 -0.22107264 0.22020169
Germany -0.23243001 0.6411319 -0.54349136 -0.37851202 -0.29602826 -0.5278128 -0.20535243 0.37671375 -0.7538601 0.52283067 -0.5792781 0.3883826 0.0039139977 0.51059014 -0.12968993 -0.6915996 0.10806242 -0.45980278 -0.35365537 -0.47206047 -0.37958232 0.37260866 -0.21276659 0.34737998 -0.22179511 0.6032431 0.5407214 -0.30965194 0.23753743 0.43154535 -0.39812317 0.9223869 -0.20092334 -0.07530443 0.43750706 -0.25218943 0.026239946 -0.46331817 0.5441739 0.28183252 0.3141484 0.34367323 0.05474926 0.049793955 0.53902066 -0.26080903 0.052482665 -0.1755974 0.05488209 0.092618555
's -0.037040927 0.049984057 -0.28125453 0.07469491 0.29832894 -0.32059136 -0.090641566 -0.25507098 -0.2536087 0.27222556 -0.006594949 0.37603745 0.28061906 0.07614821 0.25374463 -0.1814313 -0.41481 -0.19676651 0.11315117 -0.27825168 0.16024384 -0.046146065 -0.24406163 0.38007668 -0.25671622 -0.03649531 0.39332348 0.11342921 -0.2129777 0.09562553 -0.29481763 0.09159944 0.21702896 -0.023636397 0.06323453 -0.106912546 0.15237725 0.22644518 0.4281102 0.57416874 -0.27064598 -0.07459862 0.08274476 0.021339733 0.10626838 -0.28074595 -0.14081824 -0.051821243 0.091307536 -0.26560846
the 0.2852663 0.016005158 0.0645346 0.20462602 0.009842666 0.13402912 0.130038 -0.03439443 -0.12481017 0.49902284 0.095644146 -0.012446193 0.15878981 0.13043591 0.15726952 -0.22907698 -0.1839582 0.13517435 0.11210246 -0.24616952 0.14672038 -0.012142744 -0.19698787 0.3330308 -0.08978217 -0.34317246 0.14154892 -0.10224838 -0.18464911 0.087137096 -0.48043814 -0.008886576 0.004813168 0.010934307 -0.08393058 -0.026288336 -0.029147739 0.37940952 0.31643316 0.5516478 -0.10686046 0.0328549 0.15494089 -0.042524796 0.19910884 -0.34403694 -0.11602901 0.017889557 0.22120786 -0.21982804
Union -0.16439208 -0.06344685 0.13950637 0.1544691 0.779189 0.47376004 0.9313374 -0.055775132 -0.02213139 0.43713033 -0.49144828 -0.4627361 -0.3802653 0.22306661 -0.16758536 0.38566267 -0.4796572 -0.0685999 -0.12081833 -0.31418532 -0.15387549 -0.22765294 -0.044443443 0.7253995 -0.28400186 0.3468087 0.29561844 -0.47431722 -1.1975875 -0.39326924 -1.0990906 0.4334557 -0.21283175 -0.74087703 0.8010359 0.16833997 -0.3055875 -0.43441197 0.11764554 0.9876239 0.7778734 -0.737261 0.6357896 0.58437145 0.8290834 -0.24930114 0.62368697 -0.2677107 -0.6901548 -0.12803811
committee -0.2666787 0.25813657 0.16594633 -0.8327464 0.14717452 -0.61868095 0.86585206 -0.009527166 -0.6737957 0.4567996 -0.1238305 -0.8680818 0.18476306 -0.53454614 -0.43195984 -0.3130103 -1.0272859 -0.3898777 0.13432586 0.20268114 -0.066406645 0.122379035 -0.39840326 0.72060007 -0.19263548 0.19509631 0.020605035 -0.43280974 -0.6023307 0.2251753 -0.46970323 0.19046393 -0.29564428 0.33193535 0.41752344 -0.72646797 -0.43576536 -0.12640916 -0.25632536 1.2385504 0.81812584 -0.49233907 0.4901229 0.005790911 0.62167954 -0.07885707 0.34742677 -0.41399738 0.042948183 -0.447713
Wednesday -0.51665545 0.5009898 0.4076876 0.16423202 -0.08472828 -0.24017926 -0.12311213 -0.49145925 0.028899943 0.63911223 0.28752095 -0.15148172 0.2419798 -0.1409678 -0.25916174 -0.25625354 -0.54856795 0.27908772 -0.10321297 0.07571786 -0.10692037 -0.35671377 0.06514112 0.6604165 -0.5048968 -0.06151381 0.37204275 0.0030394895 -0.51297206 -0.10938892 -0.57330316 -0.5506214 0.06167128 0.12897767 0.20447186 -0.41959137 0.33892563 -0.025932306 0.1631768 0.48309892 -0.37754032 0.20412798 -0.13020623 0.3380453 0.28480288 -0.08840914 -0.167527 0.60682833 -0.14363079 -0.06971409
should 0.36485088 -0.18701552 0.12654747 0.1162828 0.15855916 0.08871223 0.2260705 -0.10908824 -0.61031544 0.2774594 0.006399295 0.0453999 0.03678368 0.24636436 0.25052536 -0.15237656 -0.07675268 0.313709 0.2555778 -0.27997437 -0.7437784 0.5025191 -0.11755868 0.040390532 -0.09617363 0.074960604 0.8990029 -0.25987285 -0.52443045 0.42152628 -0.69679713 -0.205308 0.2986295 0.22032155 -0.5905186 0.099091664 -0.69744843 0.6204864 0.10963238 0.5792916 0.5832617 -0.58946896 0.71519744 0.053486593 1.1044135 0.74487615 0.14940237 -0.09736292 0.032686852 0.14176437
buy -0.079836465 -0.16702133 -0.3004674 0.60671365 0.08690458 0.32818094 -0.64311254 0.7401643 0.49606252 0.494358 -0.4489775 -0.13699846 -0.45087695 0.2133414 -1.3424599 -0.79580903 0.08860033 0.2699326 0.16896704 0.18209504 -0.67741495 0.47362167 -0.12106641 -0.13445237 -0.37449947 0.6301443 0.24011482 0.45363265 -1.3164897 0.550791 -0.21817833 0.6737469 -0.017999502 -0.37495455 0.51114625 -0.20053996 0.21438693 0.058185205 0.49195787 0.85880446 -0.31985897 0.32232162 0.6656891 0.022346158 0.19522896 0.22504015 -0.0976625 0.29641306 0.290795 -0.9841281
from 0.115346 0.09339478 0.08577083 -0.18400492 -0.13652554 0.04924691 0.09382213 -0.03480311 -0.3311458 0.28242922 0.033035252 0.07562203 0.4596679 0.20635019 -0.014880909 -0.27333072 -0.05291099 0.22588268 -0.15916511 -0.01482604 -0.11056146 0.0030114404 -0.27945143 0.20225757 -0.1694973 -0.20344785 -0.1880491 0.13139966 -0.63100874 -0.025132596 -0.55561453 -0.22702515 -0.11556338 -0.13668393 0.41508883 0.21465577 -0.097821124 0.513321 0.43044123 0.41557965 -0.14798374 0.2605501 -0.014041584 -0.06374168 0.016604181 -0.10132671 -0.14023 0.0028806312 0.20864499 -0.05418137
countries 0.37765038 0.16667874 -0.10969165 0.9972156 -0.04322729 -0.66732335 0.7796917 0.7962205 0.14412166 0.4714588 -0.07665975 -0.5708242 -0.4512411 0.141341 -0.71306473 -0.32987747 0.060169782 0.07018665 0.5154742 -0.7842935 0.028197825 0.0079506915 -0.9935009 0.95901924 0.820451 0.5807381 0.06332696 0.14363079 -0.5370521 0.40491045 -0.5957351 0.6699389 -0.6331567 0.16609898 0.78761655 -0.41024727 -0.36810234 0.06870662 0.31145927 0.4016965 0.45073166 0.33440688 -0.17882071 0.5511041 0.5309672 0.3063045 -0.0038793904 -0.44562897 0.5899426 0.55727106
other 0.53109205 0.06658214 0.23015904 0.5112689 -0.22948335 -0.031933613 0.3926693 0.12099756 -0.12478766 0.5789494 -0.016378429 -0.15394476 -0.2231414 -0.21875812 -0.33581266 -0.52621025 -0.25938502 0.19945316 -0.101587534 -0.38554582 0.1384879 0.05048166 -0.4854265 0.5194024 -0.11180061 0.23354197 0.28932098 -0.05061047 -0.46983835 0.5362222 -0.029695796 0.26205838 -0.5290664 0.32471558 0.47203442 -0.12580958 -0.31749892 0.7183828 0.44109115 -0.16790071 0.7484735 0.37058023 -0.16179237 0.4681616 0.18265769 -0.18260022 -0.4106694 0.2646181 0.37037873 -0.2578972
than 0.3488556 0.16506289 0.109040484 0.056397106 -0.10451284 -0.47575334 -0.28938755 0.34154078 0.28160614 -0.14778699 0.33303055 0.722555 -0.37781388 0.28106883 -0.40138212 -1.1666743 0.03009041 -0.2991902 0.69698405 0.07784601 0.5875343 0.3530115 -0.48578873 0.44490457 -0.36209333 -0.6139552 -0.12658338 0.22836787 -1.0606351 0.47937155 0.119076595 -0.0532615 -0.23051529 -0.97945577 0.33206275 -0.008307939 0.07641966 0.39097628 0.80661744 0.3498829 0.11911047 0.25724557 0.32554623 -0.3292412 0.5504452 -0.13449083 -0.23197545 0.44928002 0.34409487 0.13880669
Britain -0.3655562 0.15218286 -0.40441686 0.05634177 0.25040823 -0.6689488 -0.25284976 0.60437006 -0.67706937 0.04965321 0.011777071 0.15114433 0.12647086 1.1973206 0.1183919 -0.41056284 -0.1741702 -0.13110706 -0.24685892 0.019865297 -0.89003605 0.22598784 -0.37212998 0.27322605 -0.47864887 0.2645184 0.8670414 -0.4438692 -0.3351724 -0.4336644 -0.1862766 0.3532969 -0.40216127 0.08861217 0.7806019 -0.13653526 0.21419345 -0.45461944 0.36493438 0.9328285 -0.0033510244 0.16064611 -0.29563046 -0.17460565 0.79165965 0.5178011 0.19020507 -0.40782616 0.3887369 0.5185414
was 0.26548725 0.17550781 -0.064565465 0.09049408 -0.23396632 -0.026817191 0.2558655 0.17861864 -0.35734877 0.29171464 -0.15534079 -0.0851875 0.36556953 0.09886167 -0.060710937 -0.47998998 -0.1859259 0.04874408 -0.10822185 -0.04673336 0.1319865 0.06383435 -0.0698541 0.44319418 -0.5360764 -0.5573348 0.105375655 -0.2341232 -0.46469608 0.09728627 -0.25813687 -0.37442565 0.38867375 -0.17437495 -0.24252413 -0.24761975 0.1089418 0.58341813 -0.032925572 0.2566421 -0.014526259 -0.18805362 0.24892281 -0.04333882 0.26045576 0.21315905 -0.017255953 -0.01917104 0.19012405 -0.26295114
" 0.21102758 -0.120818615 -0.24193332 0.15474533 0.10039487 -0.062689014 0.20531565 -0.1407829 -0.13575318 0.3617141 -0.10869251 0.002429075 0.19439004 0.18523625 -0.1807932 -0.17749582 -0.19155224 0.40182298 0.24759011 0.058525916 0.038395543 -0.5203994 -0.2265992 0.33440638 -0.11517455 -0.23812799 0.10869159 -0.09037764 -0.2469447 0.108514175 -0.066991985 0.0061708493 0.024683347 0.10987108 -0.41826725 -0.46034697 -0.011336611 0.42890635 0.3759394 0.5696052 0.40384296 -0.073049165 0.4850056 0.06527512 0.58845806 -0.16739587 -0.031627703 -0.05616801 0.1794413 -0.26839375
We 0.33355576 0.07334072 0.17516068 0.38575026 -0.009000931 0.33876774 -0.061646536 -0.41539943 -0.012618226 0.33142835 0.44714022 -0.6856815 -0.6119502 0.894972 -0.5378779 -0.5888628 -0.3651814 0.5905009 0.27435705 0.0824412 -0.28202763 -0.7372695 0.0025189833 0.14767855 0.27333474 0.07142965 0.4785875 -0.52248377 -0.5216391 0.64171296 -0.0920596 0.089783326 -0.09700153 0.44056052 -0.50157845 -0.6660711 0.059370454 0.94294935 0.62018216 0.7077665 0.6243532 0.31371868 0.25793862 0.16837926 0.5554502 -0.37918514 -0.042168185 -0.08888306 0.51269853 0.57174116
do 0.056569275 -0.4301473 0.05795957 0.20792395 0.25630933 -0.21232922 -0.14918432 -0.44175202 -0.3930057 0.014499173 0.076109484 -0.28706703 0.15782075 0.097424746 -0.44777906 -0.5264496 0.20299287 0.82307535 -0.022241296 -0.08020066 -0.34650263 -0.8986977 -0.8488365 -0.33700946 -0.573853 0.397062 0.342471 -0.23866965 -0.4822762 0.3507594 -0.24664366 0.12956521 -0.06091335 -0.07843605 -0.5289913 -0.25644276 -0.23718058 0.64372677 -0.077867314 1.1938788 0.6418688 0.08233581 0.5714116 -0.2698171 1.0766492 0.31348702 0.1465088 0.054711036 0.52818805 -0.026124662
n't -0.36236614 -0.17453513 -0.10830665 -0.3205443 0.077731624 0.15257485 -0.8587586 -1.0873685 -0.74806875 -0.2702303 0.02861529 -0.5230658 0.44672194 0.41247135 -0.70130026 -0.6722461 0.109681174 0.47194493 0.41973504 -0.08108733 -0.123592846 -0.42442563 -0.7675168 -0.21357374 -0.5832654 0.396393 -0.2222848 -0.1425223 -0.4178686 0.20565832 0.07197384 0.4458931 -0.180175 -0.60461915 -0.6404982 -0.548002 -0.15126233 1.1057149 -0.32973543 1.249122 1.102881 0.026862886 0.4037665 -0.010811271 1.3659363 0.2210758 0.25664568 0.27233768 0.8465636 -0.16436833
support 0.18577637 0.14134385 -0.087846324 0.085872315 0.27749613 0.35865873 0.43605015 0.010271335 -0.48944348 0.23515244 0.22947893 0.44866297 0.18024835 -0.22065261 -0.22266646 -0.188722 -0.07045926 -0.41066715 -0.104946665 0.23174146 -0.046911247 -0.30143136 -0.5283036 0.6084498 -0.30436975 0.30477512 0.3361348 0.17666422 -0.49461436 0.56215304 -0.9847402 0.3316193 -0.15081313 -0.04303933 -0.171603 0.15277432 -0.8754387 0.2315829 0.06281616 0.42266613 0.28715968 0.20986399 0.29326555 0.082931876 0.41725147 0.3061396 -0.26900455 0.36771965 0.27035707 0.011796038
any 0.20400222 -0.0077344286 -0.2685327 0.09359225 0.3284267 0.039360035 0.10297998 0.07127346 -0.2380913 0.4409874 0.28701955 -0.2775247 -0.122367084 -0.35715657 0.019117247 -1.0502846 -0.33719787 -0.27920657 0.1994117 -0.12891118 -0.370254 -0.41645682 -0.16473338 0.29408512 0.120437175 0.22018093 -0.01721851 -0.018248 -0.5071263 0.4163481 -0.7204461 0.6014093 -0.2492076 0.24259731 -0.6051368 0.2556405 -0.042895973 1.0647137 -0.12160937 0.5826272 0.40697166 0.55786896 0.35854414 0.27377322 0.47607166 -0.34208912 -0.15685506 0.51944524 0.29920888 -0.32036513
such 0.29190066 -0.5888965 -0.76258856 0.6156782 -0.18460037 -0.16611598 0.40276062 -0.04753375 0.12818226 0.36928666 0.3934335 -0.20160593 0.3398034 0.23618224 -0.4614281 -0.00310509 0.41505438 0.13355826 0.22976963 -0.3569782 -0.010259926 -0.017231677 -0.5839913 0.8606382 -0.14902799 0.06874929 0.8877753 0.29439405 -0.61508846 0.53955305 -0.44632638 -0.14693491 0.007774432 -0.43805185 -0.3198781 -0.2200267 -0.7302244 0.5227835 -0.061816104 0.49955308 0.7638969 -0.024818987 0.08827555 0.016337886 0.97534317 0.072211035 0.45545438 0.04786497 0.4381845 -0.5402894
because -0.057070404 0.36620602 -0.033683565 -0.13329035 0.1710342 -0.33347332 0.037013676 0.038908955 -0.11216329 0.49452698 0.7643068 0.4408166 0.44700474 0.5946238 -0.08479576 -0.6693797 -0.6346463 -0.015542735 -0.016366722 -0.30982986 -0.1718081 0.25829506 -0.51059973 0.25345597 0.29684514 0.04319321 0.16685301 0.3960891 -0.8267438 0.040671416 -0.22040506 0.08743901 0.41607422 0.26915652 -0.48289776 0.2893998 -0.19484934 0.59531033 0.13027988 0.42548424 0.5631022 0.4208245 0.52620447 0.050483175 0.5250275 0.2341108 -0.17492034 -0.18328583 0.7176365 0.22593874
we 0.5646842 -0.12219033 0.2422572 0.21017489 -0.06192297 0.53146446 -0.25227937 -0.2833741 0.14358142 -0.12300004 0.11112695 -0.3618352 0.09707486 0.14147352 -0.14793883 -0.68011004 -0.073692515 0.19113322 0.340713 -0.06414933 -0.32869318 -0.5056937 -0.5103558 -0.0010081956 -0.38310608 -0.23873915 0.5216049 -0.44465515 -0.59292305 0.44100243 0.41449133 0.6030758 0.112760626 0.13286051 -0.1797262 -0.09261257 -0.084562525 0.98279816 0.7141979 1.0431043 0.71611595 0.1689236 0.6575528 0.30783474 0.6403806 -0.39799574 0.3484435 0.19884907 0.17189513 0.26384485
see 0.8740282 0.026461521 -0.025943303 -0.14146303 0.14086975 0.44857794 0.58141327 -0.5275365 -0.19386536 -0.28932735 0.2555294 0.21833222 0.5868397 0.31489232 -0.4486065 -0.78712064 -0.019309442 0.35991243 -0.107447155 0.09718374 0.15188955 -0.097570844 -0.7279686 -0.09468009 -0.15128088 0.75809187 0.10378874 0.09838342 -0.561252 0.46449566 -0.37241867 0.6797751 -0.40554053 -0.5145862 0.13981451 0.19535007 0.3696088 0.8982024 -0.082423285 0.20291364 0.6416502 0.44369063 1.0322082 -0.2981936 1.4647621 0.3174958 0.632875 0.7151021 0.22479792 -0.081517205
for 0.33998945 0.036655348 -0.20778626 -0.09822682 0.24821858 -0.13389222 0.24770336 -0.17799966 0.09871442 0.2510755 0.017394278 0.23420668 0.14572267 0.38448724 0.23439033 -0.21749836 -0.06846099 0.09639944 -0.08805446 -0.10684663 0.15332115 -0.14581865 -0.079737544 0.3184741 -0.33697066 -0.1612938 -0.038857073 -0.17251842 -0.045565248 0.12807795 -0.54339415 -0.029364618 0.004131131 -0.059166174 -0.001683304 0.2816725 -0.009146019 0.47735652 0.11249864 0.2423097 0.04004098 0.107228674 0.38584787 0.027745048 0.20324299 -0.12534612 -0.37412092 0.16517012 0.226963 -0.19684584
, -0.10639443 0.23543477 -0.26471454 -0.14301391 0.069896854 -0.18070515 0.11552681 -0.028734516 0.08821892 0.17211056 -0.3393955 0.30992988 0.07938359 0.24932091 -0.12713651 -0.23947759 0.07044508 0.018446958 -0.2093932 -0.11362869 0.25064212 -0.07104349 -0.12074956 -0.029069785 -0.14029668 -0.034773666 0.121379636 -0.15776418 0.00024411274 -0.10959358 -0.38823542 -0.114712656 -0.02564054 -0.08206042 -0.09397347 -0.32587242 0.12216895 0.34460795 0.37919632 0.3353303 0.15323289 0.16496208 0.28907233 0.067551345 0.22144996 -0.15425599 -0.40623486 0.027983477 0.14716044 -0.1585368
chief -0.2942636 0.23769723 -0.28757548 -0.32254404 0.34748226 -0.33634266 0.09278394 0.11024381 0.0726026 0.36219722 -0.6565206 0.8618692 0.99965143 -0.31561336 -0.92413336 0.22793904 0.61248887 -0.734681 0.13479377 -0.3777266 0.5997402 -0.6604756 -0.8041982 0.7916884 0.4219077 -0.30649534 0.2167406 -0.020747172 -0.7873706 0.17822786 -0.45599636 -0.22591618 -0.59610724 0.20850767 -0.25428703 -0.2969455 0.25249237 0.26555502 0.09501379 0.31268233 0.10082961 0.21954067 0.49102136 -0.028836887 0.0891259 -0.13910298 -0.053101365 -0.44883394 -0.057876743 -0.7489129
spokesman 0.07237424 0.32162207 0.003137791 0.025333203 0.15604755 -0.31884834 0.52194726 0.08678981 -0.30426762 0.9092172 -0.511237 -0.33616072 0.7357245 0.062417388 -0.53749275 0.0665434 0.0378795 -0.3596235 -0.43140167 0.27214757 -0.26366657 -1.1522769 -0.011225354 0.6652818 -0.025876777 -0.5589039 0.36674982 -0.1023073 -0.13057369 0.16710813 -0.4274554 -0.35994464 -0.44349173 0.7353273 -0.2755266 -0.65844005 0.32444736 0.69218206 -0.044994477 0.2780874 -0.10251787 0.054570355 0.44689023 -0.1807463 0.4531212 -0.62307423 0.00081363006 -0.29123124 -0.0638697 -0.052616872
van -0.6875074 0.49017808 -0.2686601 -0.10173863 -0.39261046 0.06813366 -0.13075335 0.28092563 -0.5549043 1.9059585 -1.3739352 0.055754818 0.47358483 -0.39693326 -0.17261864 -0.19887358 0.1405022 -0.4648179 0.795488 -0.75095105 -1.1011311 0.009425238 0.51898116 0.42427972 0.19781175 -0.060776427 -0.096803166 -0.8472554 0.024393016 -0.69105726 0.38743895 0.111751765 0.10699796 -0.015347149 0.096445404 0.09291782 0.76602596 0.6066712 -0.2890908 0.5203345 -0.42262468 0.13897173 0.76284844 -0.076778844 0.57365274 0.20630334 -0.16313498 1.299624 -0.13279118 1.0087477
told -0.22782265 -0.01642173 -0.18806653 -0.16091737 0.019552875 -0.41582504 0.49366653 0.06595918 -0.12284365 0.50906724 -0.62604254 -0.43952757 0.49098513 0.1966794 -0.17596646 0.10360398 -0.35363987 -0.05626158 0.29241955 0.00652474 0.19378892 -1.1129304 -0.45576128 0.63961613 -0.036682133 -0.5604394 -0.42330483 0.015550049 -0.58824486 -0.3120503 -0.47779164 -0.73019725 -0.32266968 0.6517463 -0.3002749 -0.4722641 0.50635487 0.5216793 0.4151646 0.44280532 0.9367809 0.23906747 0.24400689 -0.3285926 0.56918085 0.1551831 -0.3014097 -0.17818047 0.18684952 -0.0449782
a 0.4275378 0.027857043 -0.1913042 0.0999892 -0.12932234 0.05411145 -0.08146526 0.045340195 0.12914999 0.5339151 0.042749368 0.018437717 0.2864263 0.15252407 0.15665345 -0.1851356 -0.16933033 -0.03659158 0.12085432 -0.1684145 0.08709643 0.075193636 -0.13465849 0.27283722 -0.09389657 -0.4086429 0.0004923792 -0.14342931 -0.26096842 0.015618866 -0.5249549 -0.08641105 0.22092947 0.11228422 -0.023291506 -0.032968145 0.1208083 0.5824363 0.29033872 0.5372693 -0.00902858 -0.13737124 0.07514642 -0.017050399 0.19187337 -0.15786155 -0.058257896 -0.08640522 0.28138667 -0.25327307
news 0.053143494 -0.31574127 -0.42389157 0.05699787 -0.44797727 -0.2557887 -0.03989644 -0.14225519 -0.18352965 0.8482252 0.003031879 -0.5384422 0.05058473 -0.19014129 -0.670307 -0.2561708 -0.16838416 -0.39823982 0.28948805 -0.12629917 0.5148323 -0.54713637 -0.67425257 0.95475763 0.33143675 -0.9188802 -0.40107435 -0.16060038 -0.20252156 0.3009942 -0.35065144 -0.44574058 0.07452799 0.6050346 -0.17765799 -0.36981887 1.0938066 0.345208 0.51946604 0.9993998 0.16440792 -0.5470639 0.68196607 -0.16486411 0.39702696 0.09078301 0.16728194 -0.1035384 0.16190472 -0.23349969
He 0.6102972 0.26411763 -0.049980197 0.03912259 -0.19100446 -0.018570213 0.2038312 0.18293741 0.16178328 0.95233774 -0.027730394 -0.6392235 0.118830346 0.5703343 0.09633919 -0.4096262 0.037411142 -0.27900895 0.23009527 -0.4039772 -0.043493688 -0.35903826 -0.058359336 0.24469548 0.2721985 -0.46871102 -0.23911166 -0.7597326 -0.044293307 0.36224538 -0.06718118 -0.07947071 -0.04638989 0.22728609 -0.049908616 -0.33259812 -0.018399095 0.4836877 -0.0043935757 0.18789959 0.42919272 -0.3241734 0.030300517 -0.36961332 0.7485686 -0.002565949 -0.40327352 -0.3010573 0.46431264 -0.3634496
further 0.3317108 0.376345 -0.24905922 0.3236385 -0.47209266 -0.3559944 -0.041041724 0.05344527 -0.20233838 0.31054938 0.21835876 -0.85528666 0.38639075 -0.15223311 -0.37845287 -0.79955184 -0.1782801 -0.15447585 0.24819076 -0.03606421 -0.41722772 -0.6507759 0.43083876 1.3280312 -0.16503982 -0.27854666 0.112170786 -0.22210062 -0.59000486 0.21171658 -0.50853884 0.14131181 -0.3659845 -0.40331665 -0.5161507 0.49579528 -0.63218766 0.610445 0.043367326 0.10852156 0.19897376 -0.20907158 1.249266 -0.05396388 0.3246286 0.33836538 0.39948508 0.8375414 0.12571628 -0.2685801
study -0.19019139 -0.5905206 -0.13377601 -0.6347824 -0.47257552 -0.7972247 -0.3486562 0.47505766 -0.39132154 0.02940244 -0.0072331512 0.22487383 0.21213022 0.17493983 -0.6762273 -0.052968062 0.039006785 -0.46698073 0.14405145 0.6849502 -0.5234913 -0.34256008 -0.6967029 0.44403708 -0.886147 -0.0110841775 0.34668937 -0.1521904 -0.5136531 0.093806736 -0.10062524 0.70776016 -0.009780437 -0.062296808 0.13572419 0.03909901 0.636134 0.8205396 -0.7341101 1.1339941 -0.1520713 -0.27729937 0.2948797 -1.1841216 0.9527899 0.17973036 0.16315758 0.6162726 0.38099983 -0.13739383
and 0.30410698 0.09138079 -0.119385235 0.1280745 -0.01821686 -0.058704022 0.19457781 -0.112674035 0.05254756 0.25840512 -0.008430505 0.22723138 0.32775578 0.20543501 -0.12013153 -0.25159395 -0.13857715 0.0665509 -0.1535029 -0.17660974 0.19273074 -0.024463527 -0.16401 0.28113893 -0.039923694 -0.03870242 0.06572674 -0.20173717 -0.18857676 -0.07173466 -0.44565883 -0.07747595 -0.12771891 0.040382892 -0.05073369 0.021374447 -0.27484888 0.45774785 0.4009799 0.1485686 0.11941925 0.154036 0.15804482 -0.026926246 0.21961395 -0.22443475 -0.31731313 -0.04542312 0.16764808 -0.14820646
if 0.14095347 -0.021138724 0.05980976 0.11518971 -0.6259108 -0.5155235 -0.12667379 -0.19637498 0.36660329 0.29020625 0.5778134 0.13023381 0.33896253 0.42197138 0.05265496 -0.4726767 -0.12521398 -0.2637581 -0.08441097 0.15474917 0.06388799 -0.47911933 -0.4522857 0.06470482 0.07646228 -0.031199805 0.5752741 -0.2845896 -0.79072106 0.52935225 -0.31379613 0.1699225 -0.09868784 -0.07266955 -0.4359541 0.15524249 -0.1958092 0.4347773 0.21317804 0.32852155 1.03789 0.39877695 0.69816405 -0.3760155 1.0903518 0.42016825 0.07186407 0.6198525 0.25496694 -0.09306313
found -0.63466644 0.09306962 0.50572604 -0.0563902 0.042199112 0.3106175 0.041837852 0.4954513 -0.3260119 0.39559227 -0.19787638 -0.0020992677 -0.07351982 0.16292183 -0.401521 0.15710664 -0.26374313 -0.283302 0.087794155 0.34770605 -0.11488363 0.05248516 0.35522756 0.5020662 -0.36431515 -0.23693347 -0.4127133 -0.008557028 -1.172861 0.011927981 -0.39373264 -0.30437428 -0.05274226 -0.06860132 0.19486766 -0.29263276 0.22022317 0.9620549 0.3928864 0.16966116 -0.0458698 0.29558802 -0.028426055 -0.6746764 1.0587988 -0.23319247 0.26599205 -0.32169104 0.38737574 0.07279691
that 0.3460829 -0.08623224 -0.09368553 0.12467135 -0.077486426 -0.3382885 0.045925435 0.055953275 0.11067198 0.5267371 0.14801711 -0.018255854 0.26580104 0.033372425 -0.16858451 -0.4604964 -0.10817372 -0.22072157 0.21501064 0.064135805 -0.1671376 0.028709546 -0.29356024 0.17245544 0.055667788 -0.38178334 0.25633198 -0.20569201 -0.6372412 0.16341826 -0.37083206 0.22755872 0.05804033 0.31922725 -0.27737492 -0.1992256 -0.22501765 0.46113205 0.35506913 0.36401218 0.19724742 0.1418819 0.3336522 0.025013981 0.575193 -0.17297125 -0.29458278 -0.040772207 0.10220048 -0.4417438
action 0.6147882 -0.07659485 -0.09276901 0.63448304 -0.7368611 -0.74842113 0.34501782 0.45814592 0.18239754 1.1020144 0.5716172 -0.09802945 0.1589945 -0.3556007 -1.0119663 -0.29095352 -0.7302036 -0.2254798 -0.13914718 0.36613083 -0.5392449 -0.21218376 0.29047707 0.71021837 -0.5120695 0.38596007 0.35319093 -0.38683125 -0.33126017 0.49612418 -0.2067716 0.63585067 0.12422276 -0.28446293 -0.38208875 0.09876905 0.15534024 0.4189744 -0.39595452 0.5320366 0.8134715 -0.33085915 0.06398592 -0.0694232 1.1100101 0.5041708 -0.067766815 0.102676846 1.1721773 -0.069548644
needed 0.7519637 0.55270016 0.06276289 0.600377 0.2502928 0.21689129 0.016595392 -0.33959344 0.44231877 0.37552962 -0.182031 0.252186 0.2606466 0.27300525 -0.9158396 0.029873975 -0.48594707 0.086178154 -0.42608297 -0.15783413 -0.45391858 0.1218339 -0.18793875 -0.2593939 0.4068237 -0.35411996 0.2705738 0.16741134 -0.6183855 0.53087944 -0.42471722 -0.27777004 -0.03399721 -0.5914062 0.27793708 0.72702634 -0.33482477 0.698197 0.039395224 0.44619426 0.6064702 0.48754597 -0.20469196 -0.2860716 0.55395126 0.38943297 -0.501197 0.68077517 0.6589854 0.012393566
taken 0.18042299 0.69375753 0.23049286 0.8335701 -0.0655941 0.008412827 0.080978125 0.35325268 0.6455068 0.6809989 -0.06852605 -0.53715837 0.047305774 0.7171493 -0.01661493 -0.41320825 0.17128552 -0.40032765 -0.87851715 -0.25252935 -0.106227115 0.23290375 -0.14728536 -0.31370372 0.3003898 -0.36788687 0.3359569 0.6201833 -0.32015535 -0.047388643 -0.6422869 0.3020763 -0.14166443 0.19986694 0.28984654 -0.14549688 -0.07866291 0.9912011 0.1741065 0.43873107 0.32637098 0.35394287 0.2986272 -0.3942815 1.1839354 -0.36970377 0.3417501 0.17014576 0.228395 0.5103931
by 0.23652296 0.20132232 -0.24356472 0.015903141 -0.039996885 -0.028609246 0.23875575 0.022474864 0.05604583 0.47837055 0.14877744 0.07796683 0.31138417 0.461494 -0.036527824 -0.15319733 -0.23314929 -0.17777646 -0.07124003 -0.08989458 0.07367029 0.3935131 0.08456439 0.44268504 0.0068789334 -0.13183723 -0.04887764 -0.06685907 -0.2604377 0.01249385 -0.48112607 -0.21371843 -0.006943622 -0.2224763 0.1535827 -0.08013979 0.24643275 0.33536106 0.14306149 0.44035837 0.26467723 0.14231865 0.16286165 -0.3381865 0.16237949 -0.1687496 -0.18561558 0.15738636 0.17668022 -0.35614803
proposal 1.1739229 0.14935756 0.27374315 0.18637116 0.51332027 -0.39970702 0.3163864 0.16963433 -0.4964107 0.85011417 0.00068840606 0.028191281 0.31106237 -0.16631323 -0.604451 0.26859054 -0.36197683 -0.36714035 0.44845885 0.38230076 -0.6187125 -0.14539449 0.14424528 1.0098219 -0.4816487 -0.17215224 0.9347465 -0.54350203 -0.7881495 -0.39286852 -0.6865307 0.2374867 0.48472637 0.015974646 0.42298347 0.038126558 -0.49685842 -0.14376247 0.3441616 0.94661033 0.514207 -0.23276384 0.7799268 -0.5281041 0.24491245 0.32228783 0.66889524 0.6956323 0.33432725 -0.120294586
last 0.22024909 0.33701694 0.1424702 -0.08233294 0.11933983 -0.49410588 0.09515549 -0.083945915 0.113408 0.5581597 -0.05683305 0.32192147 -0.13749005 0.5007592 0.22455944 -0.17979287 -0.41749 -0.19295573 0.24050449 0.09023186 0.58025944 0.48507956 -0.3324125 0.84846467 -0.08846383 -0.14073044 -0.13599317 -0.3236614 0.031190718 0.057377905 -0.34323362 -0.17248532 0.41631243 0.18812801 0.59674203 -0.3045522 -0.2791807 0.73802024 -0.15169837 0.5362264 -0.15355735 0.10647692 -0.05859528 -0.1657182 0.1158124 -0.06139537 -0.01919165 0.26440218 0.25014055 0.011359047
month 0.3370648 0.15138492 0.7383063 -0.097914524 -0.123708874 -0.32431749 0.27488744 -0.34070992 -0.075359724 0.32095572 0.026797904 -0.23618579 -0.043632984 0.21197367 -0.27502826 0.70576346 -0.5198962 -0.33863944 0.4157485 -0.17386957 0.14162396 0.45732275 -0.41346633 0.97061735 0.29023582 -0.5774716 0.36399734 -0.49142006 -0.337723 0.11726959 -0.38073334 -0.1653114 0.4141285 -0.53625154 0.19554581 -0.18658718 -0.078301646 0.6504035 0.02578491 1.3284144 0.11613441 -0.19244573 0.17704427 -0.27371565 -0.2500462 0.5746842 0.13349214 0.019534523 0.51388633 -0.03602467
ban 0.020775512 -0.18289974 -0.10533323 -0.055156264 0.35143512 -1.279789 0.918886 0.54107857 -0.05173624 0.31182486 0.5430819 0.25114113 0.6499216 0.1542495 -0.21138167 -0.16650249 -0.21315789 -0.5619011 0.28715545 -0.07497567 -0.6486009 -0.110695906 -0.5014285 0.56155294 -0.3741658 0.1218654 -0.10126217 -0.0028994447 -0.7365109 0.029154155 -0.80557185 0.48111618 -0.09206921 -0.3074298 0.36503693 0.7764334 0.31009972 1.1684415 -0.55083364 0.64039254 0.12141262 0.14597082 -0.01867496 -0.027035333 0.29855856 0.6301441 0.67432755 0.48724705 0.40377924 -0.064354606
human 0.81501013 -0.020497616 -0.6379732 -0.046214435 0.82331127 -0.6035584 0.49481952 1.4167181 -0.5435143 0.09648833 0.30374128 -0.69324493 0.65433764 0.18128645 -0.82794094 -0.17346227 -0.37250125 -0.57585293 0.17452917 0.35799754 -1.0713596 0.45481926 0.053615108 1.5723013 -1.0279315 0.07958991 0.0043995543 -0.048033003 -0.97232807 0.30997485 -0.54440844 0.8455378 -1.0010155 -0.24194118 0.13212314 -0.010704754 -0.65686435 1.1752579 -0.113776095 0.49442595 1.0621201 0.13979743 -1.3310724 -0.2311029 0.3785988 0.033330355 0.35826346 0.73673344 0.4327841 0.8538772
food 0.73259354 -0.0250099 -0.42994356 -0.81778085 0.2910334 -0.12584111 0.8299888 0.25862628 -0.8832484 0.5660298 -0.015395056 -0.5615704 0.058851015 0.660375 -0.38322228 -0.26110733 -0.47837517 -0.20361549 -0.2482208 -0.025477244 -0.964185 0.036949854 -0.8629779 1.2418929 -0.5318431 -0.26517332 -0.50728035 1.1925662 -0.3571461 -0.19792166 0.26370916 0.17111722 -0.63534504 -0.19344644 0.50237155 -0.06600807 -1.1474086 1.324212 -0.16061214 0.06985108 0.41756007 0.1713621 -0.36668405 -0.5018793 0.39114228 0.5516895 0.12326643 0.46925217 0.52135265 -0.33395806
move 0.8241531 0.61785305 -0.31625816 -1.2108684 0.636531 0.21420555 0.64999413 0.21660396 -0.097411126 0.5478489 0.39354914 -0.49467236 0.94211566 0.47287098 -0.011824154 0.01982452 0.011486001 0.39353284 -0.39736035 0.42150152 -0.354433 -0.5181751 -0.4106275 0.48181814 -0.6056136 -0.031832516 -0.36164752 0.18676248 -0.25412413 0.150159 -0.38103577 0.48238778 0.5502318 -0.19533584 -0.14333831 -0.5437111 -0.42903513 0.40194172 0.3081668 0.6812249 0.38722777 -0.24593462 0.41433853 0.072714254 0.5707601 0.47037718 0.5478614 0.18151961 -0.2991039 0.36073107
health 0.3803189 0.1501067 -0.571631 -0.355268 0.6077081 0.087930895 0.6275896 0.5876134 -0.59412026 0.2808078 0.16606292 -0.7195054 0.83963186 0.71594757 -0.3421003 0.37744704 0.12162884 -1.2808186 0.3987514 0.52809703 -0.58278024 -0.1475602 -0.019025669 0.70941865 -0.23358919 -0.003196718 0.31839862 0.3159346 -0.6042949 0.29335698 -0.4511875 -0.98668253 -0.50581217 -0.06203526 -0.34424478 0.07534224 -0.5068948 0.9562375 0.10740694 1.072303 0.9727541 -0.2195025 0.4584075 -0.06509489 0.18023878 0.28859344 0.20016576 0.052352626 0.8327996 -0.017116986
proposed 0.3622106 0.5066167 -0.20345275 -0.18712972 0.54812974 -0.43644828 0.33347967 0.3853161 0.042443875 0.67035455 0.13213164 -0.66282743 0.3349677 0.48897493 -0.6526701 0.0054815034 -0.08748738 -1.0753937 0.66520894 -0.20862274 -0.66769344 0.31017616 -0.18308759 0.69319576 -0.44807017 0.11813276 0.028106492 0.6951434 -0.2895748 1.0559146 -0.42201844 -0.41793552 0.13931441 0.116234645 0.79125476 -0.553197 -0.74281466 0.12484752 0.7251745 0.7873555 1.0331389 -0.129392 0.5201354 -0.98679715 0.030650523 0.18747416 -0.010309897 1.1892695 -0.34986076 0.31828454
measures 1.0856322 -0.3626092 0.25170475 -0.00581776 0.02431269 -0.003574958 0.24901569 0.95841134 0.17241716 0.09712314 0.18896693 -0.28593257 0.3708311 0.18197796 0.32885772 0.6520993 -0.4684529 -0.2725764 -0.043404195 -0.44676542 -0.43098363 -0.76547885 -0.7198521 0.7098162 -0.25569925 0.39196163 0.19489402 -0.2691541 -0.7194834 0.50190043 -0.63269824 0.0678846 0.54479533 -0.46209797 0.20498691 0.5553793 -0.85103726 1.0217152 -0.16425014 0.8753531 0.34855583 0.077521846 0.0026440744 -0.44576028 0.30657142 0.29166278 0.13579942 -0.6667379 0.53667355 0.12877488
after -0.0022360913 0.353933 0.55470324 -0.0034622347 -0.24842091 -0.23680994 0.29077202 0.03165983 0.06064706 0.5805151 0.17506728 0.017904403 0.72694266 0.65895194 0.006681177 -0.5940064 -0.053590164 -0.15557863 0.3168634 -0.114389494 -0.011463819 0.34191117 -0.16373149 0.2281531 -0.5382814 0.09648218 -0.014438021 -0.25824878 -0.23702472 -0.3763161 -0.44458675 -0.55305696 0.015027953 0.020138985 0.094515994 0.1639854 0.21474154 0.43387708 0.26302132 0.30645904 -0.18104617 0.24509747 -0.3897678 -0.36861804 0.56365293 -0.16497177 -0.19044887 0.0028324726 -0.16674948 -0.13504957
reports -0.20961508 0.28425473 -0.36227974 -0.2428032 -0.3975529 -0.31780434 -0.5296089 0.04961178 -0.6600849 -0.16019045 0.0877989 -0.89436334 0.021979969 0.1290843 -0.27888626 0.1481763 -0.49247897 -0.5908926 0.09558184 -0.017115608 -0.80824476 -0.09805458 0.40859792 1.2859118 -0.17045985 -0.5041585 0.76682544 0.50543976 -0.91526884 0.16808015 -0.57434857 0.25488728 0.0053142947 0.1957919 -0.23077731 -0.76537883 0.022461757 1.1340631 0.18313847 0.8806033 0.27860856 0.32044014 0.49953854 -0.59337926 0.110601015 0.0036450147 0.3491832 0.6126139 -0.21787947 0.38819966
France -0.030231373 0.35843325 -0.5738486 0.056847245 0.16081034 -0.33227974 0.5379357 0.13835087 -0.28129035 -0.0053549143 -0.10023763 0.09563738 0.31182802 0.56724703 -0.21791987 0.049944356 -0.24208638 -0.7218762 -0.583422 -0.9376562 -0.35835513 0.5995694 -0.8805575 0.036880825 -0.6955262 0.3172625 0.8022037 -0.28732762 0.04643887 -0.15602714 0.37875822 0.56193566 -0.10265885 0.14373869 0.3314632 -0.28608525 0.19506127 -0.32014453 1.0658844 0.49331653 -0.36097586 0.7746508 0.47695354 -0.5395545 0.42600688 0.33865613 0.096977085 -0.16188365 -0.34423175 -0.23404498
under -0.14447153 0.6274307 0.034936413 -0.038000017 0.48351032 -0.254367 0.5905963 -0.39670828 0.5360359 0.2094671 -0.31140396 -0.12610357 -0.06298817 0.102480926 -0.29388234 -0.30546868 0.070006415 -0.5843104 -0.18749708 -0.013770112 -0.3299566 0.46549457 -0.80231327 -0.21870229 -0.7723325 0.6299613 0.2962339 0.009676972 -0.32424003 -0.48245332 -0.58649075 -0.4106214 0.11024815 0.22825891 0.14295338 0.14638564 -0.7342145 0.56752217 0.24146588 0.9164889 0.62394017 0.0029792313 -0.032386474 -0.04139746 0.5387482 -0.1729894 -0.2596384 0.37190837 -0.64401597 -0.39198875
conditions -0.12147109 0.31112945 -0.20695585 -0.49559268 -0.33108404 -0.106489755 0.04242779 0.0033855021 -0.10195921 -0.2836179 0.22138244 0.5088008 -0.5667188 0.6309511 0.15398164 -0.52898455 0.13168074 0.061804842 -0.09979858 0.28216723 -0.4999432 -0.11003744 -0.7334629 1.0761647 -0.6389857 -0.071254514 0.42390892 0.23459904 -0.45839974 0.60107744 0.20755221 0.3430886 0.71504116 -0.24561632 0.39652926 0.13575837 -0.7850593 0.15814905 0.17673898 0.69771004 0.29176506 0.19747534 0.99427634 -0.43860966 0.6156897 0.16465542 0.16684279 0.073043495 -0.2854415 0.54235375
could 0.82834387 0.35419887 0.1519541 0.39092392 0.034420654 -0.27582848 -0.2584787 0.16080831 -0.028193071 0.20098433 -0.5040301 -0.113271385 0.14468025 0.15509579 -0.046182904 -0.2915066 -0.20304267 -0.14767955 0.09655727 -0.17423604 0.06785309 -0.12366425 -0.069839776 0.34885967 0.22650336 -0.35088497 0.65387857 -0.31992623 -0.7234552 0.56447864 -0.6420325 -0.10265328 0.45339686 0.03655362 -0.16606863 0.52123845 0.0074642505 0.7303524 0.28643224 0.5257228 0.7871316 0.056030825 0.32456583 0.012585897 0.56595594 0.5151105 0.36832044 -0.09175458 -0.17071587 -0.4848709
contract 0.8366813 0.12731881 -0.59394217 -0.09668459 0.4198488 0.08541095 -0.19371258 0.09127028 0.5609396 0.1732267 -0.7595213 -0.268937 0.34459004 0.5500908 -0.46481717 -0.21081224 0.36103567 0.32072195 -0.65328467 0.72000515 -0.05745045 0.50789285 -0.09328215 0.3993339 -0.12612781 0.05426016 -0.2595147 -0.09196678 -0.8492997 -0.05607018 -0.34588712 0.37434086 0.57999027 -0.075798586 0.7434405 0.04111542 -0.31720012 -0.0693046 0.28198135 1.1544433 0.13021298 -0.51143533 0.9626705 -0.52016103 0.26570556 0.20847957 0.6656101 0.46677685 0.21854953 -0.09416355
( 0.24199747 0.28883407 -0.54964465 -0.074317835 -0.3529808 -0.6562115 0.13044317 -0.45820802 -0.5047737 -0.27355492 -0.5950947 0.2726929 -0.17918369 0.3050348 0.30368897 -0.19271995 -0.3903145 -0.3778583 -0.8978685 -0.49379873 -0.16741404 -0.1067277 -0.26060098 0.16066837 -0.47501144 0.24632533 -0.010588578 -0.8131134 -0.051493987 -0.11433166 -0.19715413 -0.23681559 -0.19569424 -0.32528576 0.07393052 -0.48784477 0.33494723 -0.083917774 0.6705587 0.58375543 -0.37805548 0.35912713 0.38149968 -0.0071036974 0.03316918 -0.5288198 0.124292 0.21679178 0.008399377 0.15205377
BSE 1.2738963 -0.21491492 -0.48032534 0.0077679683 0.1965366 -0.06844672 -0.26768407 0.76434 -0.3792818 0.84663063 -1.2756853 -0.55643684 -0.101027034 0.32422408 -0.4707279 -0.07828702 -0.05694369 -0.18715246 -0.6059558 0.94217837 -0.6578641 0.83138114 -0.085352 0.87624705 -0.17405817 0.49813023 0.9745284 -0.15278797 -0.4108465 0.1637606 -0.15744479 1.0819595 -0.83586305 -0.3991864 0.10656933 -0.60470426 -0.32620287 0.6177515 -0.21877602 1.345031 1.7387953 -0.003540696 0.96747667 -0.48902205 0.20659646 -0.34071591 0.49862137 0.070466205 0.107538626 0.422776
) 0.26735705 0.24114566 -0.5714624 -0.10321383 -0.3126605 -0.69055694 0.06600676 -0.3917576 -0.50045323 -0.26487157 -0.58835626 0.30555987 -0.23703343 0.38454387 0.32494256 -0.15232636 -0.36626577 -0.43726814 -0.8553408 -0.537246 -0.31386885 -0.20453927 -0.14217031 0.14961064 -0.406883 0.28535795 0.021258743 -0.8387424 -0.023206007 -0.008441841 -0.29343352 -0.1693916 -0.19550826 -0.38028547 0.039534263 -0.45352 0.2719832 -0.13620436 0.698589 0.50852937 -0.36853614 0.42558652 0.42179564 0.04922174 0.11356099 -0.51192385 0.16556501 0.17551371 0.056770835 0.1337466
-- 0.23897918 -0.29750562 0.017664105 -0.73301625 -0.08875187 -0.5306631 -0.0054779965 0.73854923 -0.11516152 0.7637879 -0.3532698 0.4880158 0.060351923 0.42241693 -0.16693321 0.1311853 -0.18783247 0.60932326 -0.32700503 0.00048431024 0.56846446 -0.29586357 -0.41611788 0.38806885 0.23864385 0.73803157 0.15733658 -0.40330595 -0.6748672 0.35252938 -0.05830829 -0.3153083 0.025690615 -0.22403283 0.007608173 -0.10862012 -0.1938048 0.46293822 0.7121018 0.17782336 0.22996622 -0.8477616 0.25918067 -0.0426996 -0.21819822 -0.18867241 -0.28476694 -0.20904748 0.03214195 0.36817762
But -0.02955333 0.026870769 0.062258475 0.1670821 0.17936037 0.07209843 0.17208353 0.22789031 -0.06021431 0.8151677 -0.08479816 0.13454399 0.11498077 0.536012 0.06261253 -0.77649957 0.11167998 0.09791544 0.30064064 0.12327097 -0.13089406 0.063458964 -0.55749774 0.40816557 0.4222776 -0.059236784 0.062488828 -0.55034137 -0.69774395 0.22332616 -0.19093773 -0.21468925 0.47015136 0.6487072 -0.59297526 -0.31858477 -0.14797004 0.3194087 0.07764391 0.39730352 0.43838233 0.1200452 0.26998535 -0.33068028 0.569433 -0.6860278 -0.48742932 -0.1292019 0.039498407 -0.02561947
agreed 0.36183602 0.3135909 -0.24133214 0.5594758 0.48643675 -0.4803788 -0.10092364 -0.4546561 0.07873403 0.77237856 -0.45928133 0.1563639 -0.35722825 0.51678276 -0.3981969 0.19754371 -0.35501882 0.6171389 0.30697793 0.97509134 -0.21430138 0.20150493 -0.47184822 1.1068416 -0.19649069 0.10308391 0.13346665 0.03031906 -0.6596885 -0.040420957 -1.0726283 0.0052591623 -0.23620196 0.5269407 0.47391737 0.34785867 0.09824914 0.10646872 -0.11793974 1.1268106 0.32785574 -0.21468751 0.48486495 -0.47618005 0.5398213 0.11798067 0.12942952 -0.22814737 -0.4694133 -0.001677964
his 0.19234577 0.26345485 0.061585184 0.43319473 0.39226148 0.23386438 -0.124331504 0.26694888 -0.11109678 0.86225766 -0.03283332 -0.07534042 0.48105752 0.12459184 0.46159655 -0.13318078 -0.23297465 -0.3789886 -0.12009227 -0.038742427 0.16047964 -0.33646676 -0.23107575 0.18672003 -0.4561903 -0.5250314 0.2687157 -0.6490783 0.28920117 0.3345671 0.049092233 -0.2571012 0.11801312 0.09671208 0.1238614 0.07389784 -0.07004012 0.6357684 0.25572625 0.4403618 -0.27396226 -0.1387225 -0.047884803 0.08396604 0.2535965 0.32839513 -0.20414248 -0.1619914 0.6296605 -0.46219337
officials 0.26566026 -0.24707444 0.27525494 -0.074509084 0.3918681 -0.45089042 0.27122685 0.08557816 -0.098259844 0.3978675 -0.07220323 -0.46595287 0.26211166 -0.5832605 -0.20031704 -0.25062713 0.43291187 0.32529575 -0.45568135 0.079151876 -0.26653063 -0.208443 0.14920473 0.66533005 0.07223491 -0.27882853 0.28610662 -0.036649026 -0.27286616 0.6782936 -0.497681 -0.6615145 -0.27273905 -0.12851119 0.050503828 -0.05830689 0.014740113 0.9311552 -0.14607099 0.8205516 -0.34761447 0.42404413 0.13361011 -0.08538288 0.6662534 -0.19724314 0.37682664 -0.40958956 -0.060764804 -0.52021
questioned -0.18687746 0.27801788 0.76314914 -0.28782743 -0.4325345 -0.7700452 0.35274953 1.3774613 -0.00868776 0.66119146 -0.11049681 0.635704 -0.1199932 0.96250325 -1.009848 -0.13759433 0.04550858 0.04194859 0.39610076 -0.09287486 -0.73091507 0.07842704 0.81841576 0.78129953 -0.57401377 0.45817122 0.2412961 0.4557027 -0.592995 0.8290967 -0.4183519 -0.45165557 -0.24604908 0.53707343 0.050904553 -0.8941587 -0.637719 1.045149 -0.06532844 0.60506916 1.0984639 -0.28574148 0.2202385 -0.25792745 0.7264561 0.023128144 0.56337374 -0.41451186 0.42113018 -0.11755022
as 0.071260415 0.25658116 -0.16906472 0.17618199 0.07053586 -0.00043379253 -0.18099573 0.025942 0.22775081 0.50321525 0.3586003 -0.15870793 0.46458277 0.41569966 -0.0014963292 -0.04137449 -0.061492655 -0.12528485 -0.22858194 -0.3869269 0.6532151 0.094646074 -0.7329799 0.2316978 -0.05470752 -0.42123595 0.4915338 -0.23663536 -0.06734763 0.36822966 -0.5418983 0.039355006 0.47383192 -0.07609393 -0.48489025 -0.39557263 -0.08352746 0.23999843 0.44796813 0.35090965 0.28146696 -0.08256162 0.03619069 -0.27708218 0.37393457 -0.23059264 -0.18117297 -0.058967777 0.28249532 -0.06625397
there 0.49968258 -0.16675723 -0.20554765 -0.45980927 -0.21000773 -0.05539615 -0.080115534 0.1180599 0.123405255 0.08517451 0.06300265 -0.3878245 0.089039005 -0.039912112 -0.28235638 -0.8538776 -0.53821 -0.19270359 0.120132886 -0.09687582 -0.10543471 -0.26600152 -0.078762986 0.6621957 0.0794032 -0.11990721 0.35641897 0.14009185 -0.31531313 0.39871392 0.004583285 -0.12180006 -0.036905892 -0.26094398 0.11351409 -0.45084807 0.12666662 1.008554 -0.01676766 0.26336735 0.6913879 0.31941712 0.8489037 -0.37834457 0.93944436 -0.36987868 0.2602264 -0.42546287 0.3208821 0.021114254
only 0.4258621 0.14892834 0.24660724 0.11589514 -0.10414525 -0.21713494 -0.25698668 0.06530457 0.090646796 0.33393422 -0.021873426 -0.19692563 0.33512017 0.3944779 -0.25956002 -0.32547063 -0.34346893 0.19086142 -0.07289214 -0.48817077 0.20704825 -0.24997254 -0.1520057 0.039722744 -0.35827368 -0.18657391 -0.21509388 -0.016108459 -0.0937429 -0.115473464 -0.22166868 0.3253163 0.14198968 -0.15366165 -0.14912686 0.06028569 0.08693655 0.4614972 0.27208266 0.38357455 0.34536564 0.22664928 0.060945015 -0.06427849 0.37038288 -0.28279543 -0.28889728 0.10462357 0.48890233 0.031379886
risk 0.46342224 -0.3951222 -0.22638 -0.07080823 0.036177594 -0.7021579 -0.142245 0.62068194 0.24659263 0.44151452 -0.0072999704 -0.45436856 0.26657093 0.8055186 -0.7367759 -0.052747052 -0.3360447 0.20551483 -0.26517537 0.40098193 -0.67488617 -0.011772284 -0.65849274 0.27937096 -1.0103195 0.385681 0.424872 -0.20267798 -1.1774491 0.006570171 0.45743486 -0.09839728 -0.33124018 0.3675301 0.022036428 0.18131408 -0.18641397 0.8141582 -0.38581136 0.8646539 1.4559976 -0.29148316 0.31380177 0.09014059 0.15377904 -0.67655694 0.20070523 0.4357149 0.19615588 0.27509305
Spanish 0.09414498 0.33002338 -0.49124983 -0.070241615 0.3551148 -0.0326539 0.42293563 0.02337475 -0.5508423 0.5827373 -0.21867989 -1.0119213 0.46965373 0.29816577 0.40680614 -0.611557 0.5578549 -0.4927313 0.034118112 -0.42588127 0.41611803 0.76717675 0.24391387 0.6518102 -0.03703507 -0.6140439 0.20786577 0.19115034 -0.29588518 -0.23699324 -0.49379608 -0.44442603 -0.24099004 0.46923885 -0.5451062 -0.8523022 -0.021051306 -0.18934949 0.77723414 0.9437179 0.03339008 0.34293604 -0.73334426 0.574075 0.52356315 -0.08382996 -0.75927866 1.0819832 0.42409077 0.8401071
Minister -0.36579522 -0.23035444 -0.42563558 -0.44426897 0.5044358 -0.98868567 0.53061527 0.4665559 0.6290427 0.11870629 0.27280185 -0.7379586 0.7702186 -0.5280635 -0.39443284 0.031773455 0.3631529 -0.56295 0.5213422 -0.28773186 -0.24479944 -0.63633734 -0.14687622 0.67151594 -0.51140285 -0.32319394 0.013143747 -0.18945342 -0.0729178 0.783567 -0.5634949 -0.8210638 -0.87434113 -0.6353352 0.20142601 -0.77086127 0.18674506 -0.2949529 0.5039437 1.1090546 0.34603888 0.4347971 0.07248113 -0.57410717 0.6739809 0.6754026 -0.45429367 -0.22724235 0.39484656 0.058904197
de -0.17851226 0.9513538 -0.62970924 -0.61979246 0.24286652 0.20911437 0.31674188 0.13037854 -0.5242443 0.25402698 -0.6481109 -0.3853947 -0.2641766 -0.3381824 0.12147642 -0.108057156 -0.45442244 -0.8387808 0.11698548 -0.5041027 -0.2207059 0.0009683341 0.39792058 0.7348828 0.2102972 0.12030822 -0.46806753 -0.1750672 -0.2965978 -0.5936704 -0.0905368 -0.06278333 -0.06018168 -0.6040575 0.017415259 -0.84305036 0.29044896 0.21783508 0.4198374 0.3594348 0.18883541 0.47104764 0.09771263 -0.34341258 0.23149697 -0.19948357 -0.91073346 0.609349 0.38899735 0.2814099
had -0.04375473 -0.1917111 -0.09550739 0.7092256 -0.05431058 -0.09391706 0.19166782 0.33017072 -0.16733709 0.6328469 -0.23746133 -0.108576484 -0.3180649 0.18579689 -0.36522976 -0.53864026 -0.19094048 -0.013518688 -0.1623905 0.2505137 -0.097914994 0.0023245146 -0.09709905 0.21775207 -0.33684862 -0.45064798 0.006564321 -0.33775857 -0.55091923 0.25732064 -1.0459803 -0.3316451 0.49858895 0.14796783 -0.20760626 -0.24062604 0.031306118 0.84152925 0.017786238 0.10388781 -0.054937724 -0.1848873 -0.08341558 -0.060291477 0.4398496 -0.002170323 -0.33342537 0.14586298 0.28686294 -0.3821744
earlier -0.029283643 0.53700787 0.5760841 -0.030413924 -0.40746978 -0.61705583 0.2495017 0.12434688 -0.2084303 0.14465506 -0.46435142 -0.22023685 -0.03734873 0.19715422 -0.31038532 -0.048774015 -0.11468733 0.055969857 0.726377 0.02142835 0.059298016 0.061224144 -0.6293423 1.0169625 -0.25682047 -0.7781866 -0.20941298 -0.16510473 -0.5893854 0.22596252 -0.42097378 -0.03650625 0.21885403 0.097428106 -0.02801967 -0.55890226 0.29511204 0.96149176 0.0054849694 0.45889398 -0.25145915 0.006359805 0.054079443 -0.029706597 -0.3037134 0.30835456 -0.39116794 0.028474152 0.28362474 -0.2601745
accused -0.08671 -0.22186273 0.37747458 0.24352767 0.39011985 -0.70785934 0.18884401 -0.08602135 -0.10858457 1.0622635 0.11990703 0.27895343 0.6575969 -0.07180837 -0.33118016 0.30033144 -0.097497344 -0.7432967 0.40197664 -0.6501583 -0.28294393 -0.15271415 0.02678169 1.2867799 -0.20521867 -0.19376853 -0.84367794 0.24491069 -0.4120922 0.36086717 -0.59838456 0.13949521 -0.75872254 0.8760522 -0.49772024 -0.43928596 0.124377325 0.85495263 0.7159289 -0.2911506 0.35217106 0.19978572 -0.61165076 -0.7422724 0.30816188 0.13865903 -0.16751033 -0.10054098 -0.0031149217 -0.23786467
at 0.13381158 0.11945445 -0.12710172 -0.31208837 -0.26831654 0.10195415 0.2590394 -0.12296838 0.11395798 0.17606342 -0.00092435046 -0.05424601 0.16456792 0.08800149 -0.10317688 -0.26143837 -0.35622078 0.49526235 0.010462287 0.01026285 0.06667047 0.17054453 -0.3104572 0.37730166 -0.48111764 -0.29918176 -0.15158194 -0.40907612 -0.14772932 0.08797098 -0.21990849 -0.31931373 -0.05008544 -0.038785875 0.020286871 0.332664 0.19084871 0.3684411 0.4765429 0.5310551 -0.14657493 -0.18392062 0.28704786 -0.5032165 0.16186465 -0.53633046 -0.18643981 -0.13495816 0.10225364 -0.046492696
an -0.14319022 -0.089420594 -0.41549343 0.28911504 -0.42812398 -0.06622571 0.080718026 0.38378796 0.38210166 0.6124775 -0.16937329 -0.077105425 0.09674249 -0.33638757 -0.013187672 0.07934857 -0.21321726 0.27420643 0.12196026 -0.24810949 -0.22146918 -0.14170887 -0.4044451 0.3245204 0.059455995 -0.28144544 0.19863614 0.15272622 -0.07244283 -0.28664353 -0.5714766 0.16620243 -0.0037433037 -0.0014032748 -0.40712398 0.23761068 -0.010737362 0.730465 0.45697287 0.7441599 -0.08020058 -0.39941934 -0.002486658 0.22165027 0.17795053 -0.09665516 -0.27733088 0.015544082 0.3692416 -0.50102335
farm 0.37829858 0.08758847 -0.8372159 -0.837537 0.31031054 0.48811418 0.42989781 0.2942904 -1.1361002 0.9341511 0.03152886 -0.85386145 -0.21726279 0.019868122 -0.65163916 0.46029738 0.10217164 -0.03518234 0.2531229 -0.06727046 -0.3552283 -0.13438937 -0.3342858 0.27480114 -0.60745645 0.75082767 0.26463243 0.67318153 -0.67636263 -0.32268512 -0.6696973 0.06448016 -0.06367137 -0.053906806 0.15710925 -0.49889186 0.062329613 1.0080479 0.12209764 1.0743206 -0.33172265 0.66028947 0.12121024 -0.28941512 0.09611123 -0.2746743 -0.34911224 -0.22493109 0.51948506 0.17578278
ministers 0.33992937 -0.48101807 -0.4899222 0.20382203 1.6949283 -0.34250495 0.6621686 0.45554385 0.17381245 0.48326012 0.3365229 -0.5657175 0.3802806 -0.07531518 -0.3739085 -0.26986936 -0.8591027 0.35048205 0.516504 -0.44959357 -0.8069478 -0.41637585 -0.36522695 1.5337545 -0.75720817 0.6737487 0.8387673 -0.10217283 -0.40253937 0.056289744 0.29146475 -0.21600825 -0.15296791 0.3231855 0.4820784 -0.06352679 0.1134364 0.39302734 0.26420698 1.606943 0.284088 -0.23897281 -0.34453315 -0.719905 0.14323267 -0.4804382 -0.08763457 -0.19205481 -0.43438607 0.04026076
' 0.08022091 -0.22216414 -0.08734161 -0.3199355 0.16197559 0.02479192 0.58305556 -0.105748124 -0.52389324 0.615063 -0.3633975 -0.12227333 0.18020353 -0.41636407 -0.01581145 -0.051665965 -0.31171772 0.13902417 0.4298871 0.16331777 0.43592724 0.0828468 0.19398278 0.3511484 0.2683498 0.39748967 -0.013247665 -0.56661606 -0.6242619 0.017305525 -0.3308568 0.34657586 0.048859227 -0.20043197 0.37909958 -0.41449317 -0.7734389 -0.08289578 0.605819 0.42409799 -0.36787602 -0.071538575 0.34844625 -0.10744564 0.97083724 -0.05733152 -0.39802164 0.3540083 0.28369403 -0.06409882
meeting -0.20445603 -0.21755198 -0.4773605 0.21673569 0.46369496 -0.31166714 0.052811634 0.44473743 0.33643025 0.9157266 -0.6087269 0.021202965 0.30859232 0.02954527 -0.33278885 0.09464197 -1.1163026 0.26755157 0.35889354 -0.036544137 -0.21754216 -0.4873089 -0.1651788 0.803225 -0.2141985 0.030421149 0.020042827 -0.26027477 0.24531524 -0.09194191 -0.51003695 -0.22954799 0.05669805 0.45711353 0.44391719 0.4263971 0.18721046 0.36439717 0.42163175 1.0773941 0.1902348 -0.40602788 -0.17339124 -0.97262806 -0.22351281 -0.38288528 0.08733094 -0.0413619 0.11923388 0.29317403
of 0.28973904 -0.0076455968 -0.01225133 0.02730292 0.21085128 0.010893082 0.2062051 -0.079908006 -0.16603874 0.15148127 -0.0981782 0.0061813192 0.15160239 0.15214708 0.11261836 -0.10459712 -0.22233447 0.13036428 0.10796406 -0.34786335 0.15973796 0.09400612 -0.13270609 0.4862604 -0.2616427 -0.13762589 0.021911187 0.15394339 -0.17565927 0.00910314 -0.49736044 -0.07627872 -0.15656526 -0.044562113 -0.049202085 0.00603235 0.19495696 0.28755102 0.28316113 0.36827815 -0.08386934 0.045008037 0.11046999 0.097994916 0.26468104 -0.42227513 -0.29773512 0.015969116 0.26748636 -0.24317206
through 0.37247303 -0.2806941 -0.5174263 0.012786701 0.0317647 -0.09122581 -0.008645997 0.34912264 -0.10929718 0.3729027 -0.72854143 0.108229466 0.915552 0.038022388 -0.70650506 -0.4443068 -0.4387327 0.15381086 0.1581227 -0.15186478 -0.7441324 1.0686022 -0.36421916 0.003114841 -0.016140707 0.22664684 0.1107677 -0.34839046 -0.011193279 -0.38494983 -0.4542941 -0.33957174 0.060766578 -0.06903595 0.33924246 -0.8044709 0.116167545 0.68164384 0.469468 -0.14595988 0.43211308 -0.0011755219 0.21300107 -0.0220118 0.11353568 0.051452063 0.43667218 0.32791916 -0.0034717305 0.7050038
dangerous 0.1727068 0.24854319 -0.61400956 0.5461746 -0.120186664 -0.42108524 0.8005715 0.58915204 0.6151615 0.63131946 -0.015742831 0.45188528 0.009940558 -0.20974764 -0.65434206 -0.14522453 -0.7331411 -0.13299282 -0.18753478 -0.5196215 -0.67298627 0.2138193 0.022952706 0.5413671 -0.18052813 0.27976966 0.56178284 -0.19647196 -0.7922303 -0.29145986 0.20440812 0.5789549 0.43048075 -0.32614163 -0.0029943772 -0.33368012 -0.32019246 0.713302 0.2066717 0.3258194 1.1134337 0.03107579 -0.16058907 -0.29121938 0.5279277 0.16769311 0.2510183 -0.8790073 1.0064274 0.3380127
are 0.7471962 -0.2849496 0.09551249 0.28167522 0.6758031 0.18652113 0.76343095 0.95808387 -0.34452513 -0.27429822 -0.28345114 0.046547942 -0.21719077 0.17909168 -0.49568343 0.08749886 -0.12307912 0.5507477 0.1306907 -0.42378286 0.010631601 -0.17802532 -0.41814137 0.29782653 -0.4635567 -0.09691377 0.47671607 -0.0895552 0.04017206 0.44323525 -0.3627466 0.07600434 0.51075447 -0.33069575 -0.20560676 0.18816078 0.5260359 0.65912783 0.4816401 0.41280204 0.28738686 0.09415025 0.07825496 0.32534564 0.9669019 0.1362235 -0.40023562 0.7489533 -0.22276819 0.27029747
due 0.5778714 0.54959583 0.24168342 -0.53079855 0.3549488 -0.2000809 -0.6729067 -0.40841407 -0.22264779 0.4117217 -0.062719144 -0.87939066 0.37042022 0.46657914 0.042863183 -0.79360795 -0.47204414 0.76010007 0.3168811 -0.7119248 -0.30027238 -0.23996633 0.07654612 0.991315 0.026346898 -0.50603443 0.16501756 0.30929643 -0.15012231 0.46786737 -0.1140478 -0.35421237 -0.033970706 -0.099733956 0.31640798 0.5142438 0.23793769 0.17725511 0.1036189 0.32938832 0.32488626 -0.06943646 -0.07346984 -0.42821968 0.18978336 0.10993478 -0.0696844 0.33877808 0.6761177 0.18923862
issue 0.4012135 -0.79430866 -0.10466829 0.24053544 0.174647 -0.35849994 0.0342723 0.32611835 0.22878607 0.3776606 -0.14326021 -0.58808535 0.031820614 0.5407518 -0.0843661 0.23223267 -0.306044 0.20473793 0.5362915 -0.12243932 -0.19638531 -0.568631 -0.12208755 0.94089514 -0.6851086 0.05560934 -0.08170473 -0.19230361 -0.7823669 0.4307262 -0.57968086 0.12569082 -0.45262122 -0.3279316 -0.4007962 -0.114623606 0.27292225 0.4164394 -0.33021525 0.40845487 0.4801427 -0.46584043 0.24176522 -0.46430892 0.037126962 -0.27261195 0.34917596 0.455957 0.43325007 -0.75107664
early 0.20775373 -0.032452527 0.70805055 -0.57019305 -0.24936788 -0.5116529 0.31603146 0.47992715 0.16886015 0.8946189 0.20897923 -0.45447293 0.19394675 0.31494588 0.49380833 -0.3316865 -0.49236816 0.4907377 -0.36443093 -0.30815986 0.18047032 0.031136671 -0.35214725 0.6236037 0.041006874 -0.45758912 0.059833646 0.37219286 -0.39828598 -0.05527756 -0.4472983 -0.12383986 0.41577402 -0.13000779 0.02549968 0.09093369 0.2361216 0.6048224 -0.01090305 0.53998727 -0.2547312 0.24676031 -0.21429153 0.075405456 0.5214575 -0.19038454 0.65481794 0.25695845 0.19826877 -0.26617315
next 0.40275916 -0.05416 0.35650724 -0.07952945 0.19478376 -0.39684233 0.6777423 -0.14256728 -0.005064981 0.4186715 -0.3130566 0.16122596 0.29623508 0.5522766 0.32210502 -0.2721118 -0.00048536624 0.029038243 0.62580687 -0.41187745 -0.11455429 0.41057628 -1.051397 0.6466422 0.672225 0.12680031 0.7118832 0.020740127 -0.13382962 0.016265217 0.03971789 -0.25049376 0.3149988 0.25404653 0.1869807 0.21844642 0.4775784 0.5507753 -0.3666136 1.2699069 -0.16957502 -0.02741925 0.25378686 -0.4428792 0.14465435 0.0038969996 0.7325819 0.1994444 0.4721166 -0.016310668
make 0.69957066 -0.4325432 -0.19359143 0.103000544 0.446584 -0.4640183 -0.62148124 0.1828294 0.32289588 0.46355674 0.17065753 -0.004672968 0.5266401 -0.21475886 -0.40384302 0.14502062 0.23104137 0.5712803 -0.1407639 -0.045224972 -0.23389645 -0.49837044 -0.24219069 0.26140565 -0.17129378 -0.1394513 0.31436127 -0.38549063 -0.517328 -0.03238073 -0.15357599 0.123352684 0.5085713 -0.22269122 -0.10645254 -0.23790668 0.55883557 0.5109811 0.5058685 0.42931947 0.021922108 -0.006686274 0.83519745 -0.9673345 0.23494893 0.7524355 -0.3413789 0.3638173 0.7708546 -0.034660794
senior -0.30551383 -0.28366712 0.21473317 0.018029422 1.1696011 -0.4292917 0.11543555 -0.37981248 -0.2569391 0.12428041 -0.08597346 -0.4332431 0.718044 0.113013744 -0.78577435 0.58030754 -0.19028822 -0.15538424 -0.95873356 -0.19152081 0.70493025 -0.060083315 -0.20483641 0.37207955 -0.29838717 0.00069768145 0.6864025 -0.46679592 -1.0488462 0.1034107 -0.2799029 -0.13038245 -0.2603192 -0.1278379 0.01896997 -0.0086371815 0.53041923 0.46986407 0.1718529 1.0476626 0.38118735 0.092098385 -0.35529435 -0.32515603 -0.16399755 0.18905146 -0.2138971 0.31643465 0.33106482 -1.074806
have 0.35894087 -0.4888638 0.18844919 0.3179518 0.18461396 0.08731974 0.27410397 0.01426354 0.13335568 -0.119048804 0.15744208 0.03514533 -0.5598812 0.22943895 -0.42159665 -0.9160858 0.075995184 0.26095358 -0.3038986 0.24862991 0.2551678 -0.08619759 -0.13287741 0.4699935 -0.41004398 -0.017478317 0.29707694 -0.23959215 -0.527209 0.09707289 -0.73021454 0.109215744 0.22775573 -0.009107837 0.0653708 -0.4402095 0.057643015 0.5211137 0.46809226 0.39806843 0.3591935 0.19078162 -0.010755072 -0.314748 0.44144243 0.044194728 -0.28084075 0.14223367 0.7415407 -0.29122284
long -0.14020486 0.11761122 -0.5828769 -0.110118635 0.7774297 0.17401442 -0.38423333 0.40615475 -0.20110974 0.59547895 0.06753443 0.046351705 0.83262587 0.52011675 0.1509398 -0.48131406 -0.40828305 -0.04057809 -0.2644438 0.39100835 0.16680385 -0.13125321 -0.92132807 -0.081332676 -0.08463027 -0.3923644 0.654694 0.22371662 -0.22479618 0.349248 0.024450243 0.12429116 -0.19651209 0.16091654 0.33520952 -0.003920365 -0.31420526 1.0257916 0.44883907 0.5863739 0.3535965 0.3103949 -0.11139976 -0.16071367 0.32621408 -0.45879358 0.51663774 -0.16892141 0.19319803 0.16515027
been 0.1689452 -0.49806693 0.021658938 0.30697706 0.05129234 -0.31211835 0.022276545 -0.0061061108 -0.10031029 0.13528226 -0.24233785 0.13458396 -0.37049818 -0.031975307 -0.21638457 -0.7724776 0.13701753 -0.20302205 -0.40772682 0.3989768 -0.03191893 0.33524612 0.018025612 0.8236463 -0.44731355 -0.4698194 0.05669709 0.1468932 -0.6456816 0.12687087 -0.52735686 -0.18474159 0.10432113 0.41147488 -0.38943112 -0.32348144 -0.34938154 0.7418445 0.42571044 0.6948951 0.31478402 -0.4989002 0.02556739 -0.24204525 -0.10136073 -0.14757115 -0.18337646 -0.17208052 0.9618022 -0.07731106
known 0.4578167 -0.17349611 -0.4421026 -0.17414628 1.0856022 -0.545644 -0.16449456 0.23198786 -0.38233984 -0.04287794 -0.24940363 -0.30329517 -0.08197232 0.3803343 0.10254697 -0.23432916 0.67128634 0.35480258 -0.88123363 -0.048256844 0.46767005 -0.007390641 0.07134577 0.42282423 -0.4699456 -1.1181881 0.42122015 -0.20570064 -0.27265748 0.45859542 -0.19472954 0.41321397 -0.3660065 0.1456035 -0.45467114 -0.34731662 -0.44978374 0.6215809 0.35729933 0.5667211 0.07275348 -0.034489643 0.22439516 -0.31260183 0.25294766 -0.183329 0.38200322 -0.17172383 1.1773732 -0.24599902
similar 0.37128282 0.20301557 -0.16559966 0.700347 -0.17718245 0.17600058 -0.32338026 0.8277539 -0.02327288 0.0884256 -0.3889561 -0.101784855 0.22870909 0.85266995 -0.02099572 -0.020088308 -0.07065994 -0.1072282 0.02461543 0.32647198 0.031637408 -0.012370204 -0.07380011 0.605192 0.10252669 -0.58173585 0.21093808 -0.2952981 -0.6427371 0.60007924 -0.44637826 0.86649287 -0.4307653 -0.18701817 0.46880934 -0.037259363 -0.22020443 0.51903766 0.51433915 0.5239505 0.4511839 -0.36837882 0.6815891 0.04025472 0.033827584 0.40817392 0.30178508 -0.2007852 0.5748008 -0.020140488
which 0.5776689 0.40061852 -0.18202634 0.49347365 -0.08923309 -0.44134828 0.0064382297 0.41703025 0.23943795 0.7213966 0.15491405 -0.35380933 0.18273634 0.25096372 0.06949486 -0.2133147 -0.28708634 -0.07506648 -0.3019467 -0.20774816 0.20168759 0.3548549 -0.24582751 0.19912915 0.333662 -0.21193652 -0.17513588 0.1360713 -0.41343495 0.13001646 -0.5117591 0.15873964 -0.18638232 0.11114222 -0.2550242 0.05367001 -0.242865 0.38747165 0.49966353 0.66143215 0.3311729 0.36172417 0.2604005 -0.21471922 -0.026295356 -0.35995874 -0.17884816 0.014126875 0.2598337 -0.16418386
is 0.59342617 0.0029931462 -0.19310941 0.27244765 0.38485202 0.03011541 0.20182556 0.15756121 -0.42643422 0.0038486486 -0.41886443 0.047024377 0.39446792 -0.011820825 -0.15770653 -0.13656138 -0.20259628 0.2487953 0.16126122 -0.21661814 0.0601866 -0.049865346 -0.51125145 0.33312747 -0.39285913 -0.3807761 0.1695174 0.050081503 -0.43914154 0.31080878 -0.13117275 0.17208943 0.3588179 -0.28513348 -0.21494982 -0.1896516 0.4900127 0.501701 0.30020356 0.46095094 0.48406017 -0.28765953 0.41675952 -0.083048396 0.23601569 -0.03968779 -0.18625261 0.059037663 0.26810524 0.051057387
believed 0.36830655 0.2999587 -0.48740157 -0.3560088 0.030309267 -0.13067709 -0.47045082 0.5408151 0.37077022 0.32482207 -0.6034531 0.021302357 0.046246976 0.27428082 -0.9320241 -0.22177134 0.15443039 0.88879967 0.13348734 0.5763889 0.033491593 0.18555179 0.2614905 0.44756365 -0.079750076 -0.54088783 0.29949751 0.28223303 -0.4953995 0.0216668 -0.83536 0.003823059 -1.0673248 0.04541453 0.5150097 -0.39192784 0.37080443 1.1432343 0.2287997 0.058870446 0.8905489 0.25482675 0.30378738 -0.42555726 0.9528361 0.30008593 -0.180638 -0.054610416 0.41118744 -0.12216053
cattle 0.90026814 0.041498046 -0.2863441 -0.41947523 -0.15471822 0.43404996 -1.1021022 0.61257493 0.41588432 0.36219186 -0.05678031 -0.14750113 -0.20303449 -0.06922394 -0.9061239 -0.46429262 -0.15109368 0.44039255 -0.54479206 0.70850074 -0.91106486 1.0103475 0.05484738 1.5774264 -0.3239224 0.14303055 0.8611728 0.51481175 -0.63554287 0.58488303 -0.26361302 0.24721532 -0.12597424 0.14114875 0.23808782 -0.6471117 -0.93017155 0.75891423 -0.11090075 0.75831074 0.025131304 -0.28514692 0.24114057 -0.72885203 0.28682572 -0.6026334 0.030904958 0.9257985 -0.24448344 0.19667122
feed 1.2421801 0.35383955 -0.5573466 -1.1471945 0.23289289 0.076374434 0.026798585 0.8918712 0.3894489 -0.20113748 -0.12252966 0.22622132 -0.43424112 -0.12055012 -1.4685508 -0.20638068 0.7706748 0.3496736 -0.5676202 -0.050686803 -0.49137563 0.68793386 -0.7395751 1.139494 -0.034784757 0.84716374 0.8630265 0.2932495 -0.74521416 0.52940816 0.092742674 0.6785744 -0.110747695 -0.38297293 0.19009392 -0.85270905 -1.1495914 0.92088366 0.3048018 0.563617 -0.39577472 -0.18841727 0.08240813 -0.18143445 0.33431026 0.9237429 0.36749458 -0.67070884 -0.3624195 0.05549691
farmers 1.170455 -0.59158754 0.2236168 -0.530479 -0.4988499 -0.007992394 0.49949196 0.5635868 0.15114276 0.6020414 -0.515577 -1.0733829 0.61725044 -0.54796314 -0.484732 0.118805476 0.1876238 -0.6406667 0.42420757 0.19346623 -0.26514778 0.84567744 -0.43306646 0.72311157 -0.16276881 0.5337699 0.58318275 0.03031205 -1.0057387 0.6058597 -0.31287965 0.42907283 -0.57056904 -0.06339033 -0.11254721 0.013486851 -0.7223893 0.16693479 0.19073094 0.8768467 0.065211326 -0.2650344 0.25396097 -0.52418774 0.90535057 0.2167813 -0.8961164 -0.27206877 0.012192689 0.56893086
denied -0.061604723 0.17344207 1.1197689 -0.24126886 0.22163136 -0.55364984 0.19642538 -0.12409194 0.057182226 0.49994826 -0.6836448 -0.2494746 0.15194733 -0.118490696 -0.23971586 0.04656701 -0.15920487 -0.5398689 0.5208316 0.32672322 -0.93590856 -0.14862548 0.3602167 1.0641416 0.21643238 -0.32246745 -0.02002414 0.55531234 -1.572003 0.14738806 -0.97980577 -0.52712125 -0.32453382 -0.16264334 -1.0157784 -0.30035475 -0.6407473 1.4616755 0.05329732 0.27468577 0.7615508 0.30804265 0.08968607 0.056992017 0.65728986 0.63782555 -0.40964982 -0.60744387 -0.052583933 0.22719748
danger -0.2469856 0.182441 -0.71416533 -0.083850555 0.8027656 0.38062835 0.5042273 0.5610312 0.025988389 0.15547802 -0.1666171 -0.028533291 0.6112801 0.43643898 -0.2949618 -1.0081073 -0.07429226 -0.21686007 -0.2620714 0.11973285 -0.55143034 -0.029965814 -0.11324177 0.7894385 -0.47194245 -0.91559523 0.899382 -0.080310605 -0.015095915 0.16490631 -0.22657181 0.60190475 0.5893298 0.4755146 -0.11567434 0.5070901 -0.115941636 0.9743417 -0.1453512 0.52233005 0.3164004 0.23663719 0.7699182 -0.8588967 1.4457598 -0.44354013 0.15589094 0.058073476 0.21834938 0.42013097
their 0.8049983 0.034174558 0.36208093 0.34378412 0.579767 0.20181803 0.3199478 -0.18910566 -0.15785347 0.29709205 0.6428432 -0.020480514 -0.19802481 -0.2665602 -0.19097844 -0.08867761 -0.22117414 -0.2881607 -0.37480605 -0.5575581 0.06651055 0.42935592 -0.045174163 0.17247689 -0.20276831 0.085306525 0.14875196 -0.524952 0.090965085 0.38149813 -0.3012801 -0.17794405 0.12888117 0.27475736 -0.05844166 0.54655087 -0.19414377 0.86404705 0.2944042 0.7016786 -0.30722567 0.16051932 0.35095564 0.25964394 0.15764484 -0.05783638 -0.2706069 0.4429778 0.7663765 -0.014957396
but 0.1452452 0.6384097 -0.010859339 0.046475753 -0.13911054 -0.07293501 -0.19785044 0.12939888 0.33986008 0.21482709 0.27946326 -0.400184 0.10519958 -0.062134117 0.117980145 -0.6547767 -0.17656739 0.015106753 0.031617183 -0.0587854 0.009774765 -0.07095245 -0.27195713 0.45308694 0.19569644 -0.2561434 0.38408962 -0.39845663 -0.624471 0.044583566 -0.43996298 0.06252665 0.3677908 -0.06334949 -0.2897221 0.03845981 -0.3308242 0.85916764 0.22992758 0.19053155 0.07680302 0.4407805 0.29004008 -0.31914225 0.50329274 -0.20501772 0.008884444 -0.011165432 0.3397354 -0.29889566
expressed 0.3000441 -0.35296884 -1.013827 -0.45691374 -0.15473035 -0.5557935 -0.23387022 0.3255861 -0.3510543 0.7475499 0.025920099 0.4083191 0.6882892 -0.6598152 -0.40686575 0.18500634 -0.057591014 -0.051754612 0.3129814 -0.27337945 -0.25623757 -0.18336654 0.16126056 1.2010802 -0.4671563 0.65770984 0.26175767 0.3914455 0.46729478 0.6128243 -0.8376572 0.4576976 0.1744407 -0.04739134 0.46258417 0.058183003 -0.55261815 0.5031729 0.094159774 0.4172369 0.64873004 0.46725246 0.36397126 -0.090749726 0.55074275 0.4733522 0.2565286 0.15577248 0.37789005 0.33965203
concern 0.8047833 -0.16671523 -0.29379332 -0.22858685 -0.26333386 -0.5715739 0.10780079 0.34342542 -0.074285276 0.73689234 0.09168691 -0.47941136 0.45975006 0.2567706 -0.3365909 0.015928632 0.072271675 0.3385432 -0.052525368 0.090040244 -0.3961 0.35356343 -0.35620168 1.413139 -0.1773574 1.2078115 0.3426719 0.7225432 0.5256795 0.33494753 -0.54933155 0.66024935 -0.13381518 -0.39514568 0.5085714 -0.90037143 -0.2600844 0.16659313 -0.58927214 0.36862656 0.3188924 -0.20153037 0.27825928 -0.16348742 0.7100664 -0.3187759 0.66241276 0.4858667 0.47733533 -0.02270843
government 0.1944468 -0.4145608 -0.11858826 -0.11636915 0.21610479 -0.6472269 0.1704642 -0.15954703 0.21489683 0.39892548 0.039376155 -0.07462079 -0.1449066 -0.10243276 -0.1040949 -0.10298835 0.052487053 0.28216282 0.0020880739 -0.054606542 -0.1445618 -0.43453726 0.11753732 0.81578654 -0.05571437 0.052049655 0.2992407 0.491898 -0.5056499 -0.010555136 -0.6911876 -0.21836224 -0.2717085 -0.16480331 -0.41335294 -0.11183555 -0.39710185 0.11262068 0.027922299 1.2959856 0.14767541 0.12794058 0.2807939 -0.410531 0.3049764 0.76495093 -0.50413674 -0.1434454 0.2548447 0.27065682
avoid 0.48502296 -0.44664982 0.050286286 0.04281155 0.14375253 -0.34080717 0.9013525 0.8489676 -0.26417866 1.0236164 -0.21010382 -0.023546217 0.5559854 -0.23238617 0.46520963 -0.38440743 -0.6668655 -0.40104336 0.29538313 0.22690429 -0.516984 -0.22811718 -0.7703384 0.5740283 -0.5676337 -0.08687757 0.5087718 0.3276229 -0.23499826 0.6132289 -0.3348698 0.575724 -0.0630731 0.3161877 -0.10123558 0.36688647 -0.6480735 0.49176773 0.41973442 0.8548048 0.32448316 0.5144567 -0.13734712 -0.77181154 0.10362236 0.004396573 0.19950785 -0.3392461 0.5577703 0.39959118
might 0.5872451 0.508464 0.032478772 0.017126322 0.3753773 0.23661602 -0.23504275 0.036756873 -0.59433216 0.7360458 -0.11099824 0.4047608 0.114244215 0.34419367 -0.4289028 -0.41084042 -0.24353792 0.0857757 0.4113596 0.60771555 0.5153626 -0.42937818 -0.24135917 -0.038501035 -0.45646983 -0.38447297 0.5992445 0.18005535 -0.9546938 1.3281652 -0.5851031 0.013338624 -0.39413723 -0.3259107 -0.41862726 0.22732948 -0.2451434 0.35120267 0.6034719 0.9565295 0.8940566 0.06781616 0.06778062 -0.12821604 0.72183174 0.5335814 0.15231186 -0.55633205 0.111241505 -0.20063786
across 0.96112436 -0.50096107 -0.15281615 -0.1486953 -0.14426173 0.39463446 0.29922333 -0.10309498 -0.25381526 0.6203776 0.26165095 0.04597231 0.075832166 0.30116922 -0.43659544 -0.3090201 0.18501323 -0.26938182 -0.111832894 -0.35799637 0.21406105 0.28339514 -0.46479043 -0.023449365 0.09552669 -0.154496 0.123041764 0.45751202 -0.30316758 -0.035629164 -0.6326007 0.46326184 -0.43651342 -0.007858633 -0.024404386 -0.51875484 -0.40372014 0.88227606 0.46633577 0.6199381 -0.23299018 0.5956103 0.31269357 -0.7711729 0.40919536 0.6336368 -0.30534723 -0.017565604 -0.018448845 0.3724197
Europe 0.7597287 0.22286172 -0.021430364 -0.5169572 -0.39586768 -0.18797544 -0.04523105 0.07361545 0.10691981 0.008620729 -0.73663104 -0.036709595 -0.20984045 -0.12901127 -0.23439933 0.24620138 -0.16454954 -0.49259317 -0.09310222 -0.8379941 0.29226258 -0.3866672 -0.94710946 0.63151145 0.31229424 -0.54834306 0.26732388 -0.41385534 -0.24449858 0.13456033 -0.16674024 0.9217124 -0.3138103 0.1312931 0.6770863 -0.055563465 -0.5293802 0.14889692 0.24801047 0.47966862 0.7744242 0.060940847 0.020890456 0.09538316 0.24597982 -0.4171049 0.34292066 -0.21879327 0.01745212 0.76498383
What -0.032830954 -0.27402708 -0.3659783 -0.15713798 -0.034850612 -0.43933043 0.33984426 -0.06303473 0.2716656 0.27785367 0.3898589 -0.30901954 -0.040548902 0.32159612 0.07671204 0.016912818 -0.16751939 0.05878706 0.7536377 -0.49510238 -0.2767668 -0.5535395 -1.6335977 0.19599141 0.09463524 0.05001771 -0.21226598 -0.46621764 -1.0077746 -0.37443766 0.20401527 0.69088197 -0.17186864 -0.112839475 -0.11089255 0.12962972 0.50276047 0.4648545 0.9693484 0.50760055 0.6960448 -0.44405347 0.24975903 -1.2358559 0.80884343 -0.073055774 0.24603988 -0.15413637 0.40037498 0.48819318
how -0.114974946 0.17271066 0.20535395 -0.08611859 0.43788454 -0.081044145 -0.0329464 -0.13403457 0.22164346 0.0080721 0.18809904 -0.036062878 0.17216595 -0.4375786 -0.50932044 -0.39883912 0.12693489 -0.515686 0.5055493 0.22338755 0.3219783 -0.03589885 -0.48510277 0.53430676 0.14349174 -0.03485235 0.24706696 -0.308447 -0.82211405 -0.13598673 -0.17218128 0.41533297 0.26308942 0.05597757 -0.1811099 -0.38078 -0.4650131 0.92015654 0.4875841 0.21719004 0.49913844 0.569127 0.101952076 -0.1225631 1.4829034 -0.06066902 0.053416327 0.6848481 0.44594085 -0.51048726
going 0.807569 0.3969133 0.012346472 -0.07151514 0.8113693 0.20464717 -0.38476318 0.2199165 -0.22227901 0.18895122 -0.2462452 -0.41673088 0.68585896 0.021518786 -0.28637564 -0.18911271 0.049959753 0.36048293 0.6066194 -0.28132337 -0.13896015 -0.40167874 -0.90642595 -0.03510535 -0.58121496 0.5225301 -0.21384309 0.32031456 -0.4131733 0.29522645 -0.05889245 0.58817035 0.11570049 -0.2299091 0.3753982 -0.33005032 0.6447953 0.9349427 0.29349536 0.47062087 0.4140246 0.74147964 0.45557994 -0.33601603 0.5717205 -0.19339451 0.59950644 -0.16940121 0.28605887 -0.2933586
take 0.54574037 -0.020970512 0.5248039 0.3424956 -0.00084791286 -0.14130023 0.07037151 -0.09131365 0.24720441 0.6596033 0.21049923 -0.49022335 -0.13185434 -0.10601578 0.14496405 -0.2743065 -0.5902404 0.0152922245 -0.29434183 -0.24739993 0.08341731 -0.4140189 -0.3687345 0.38433048 0.2772847 -0.144737 0.47744182 -0.41126835 -0.81463087 0.45881087 -0.7354008 0.34636754 -0.21347085 -0.8137207 0.00024250554 0.46248057 0.2121739 0.022930533 -0.1253835 0.58557105 0.34148684 0.20973584 0.12480546 -0.6183557 0.94193983 0.39216474 0.001659987 -0.6473312 0.4861493 -0.34135512
lead 0.024642797 0.17039292 0.10490151 0.21461892 -0.23901124 0.21629475 -0.4645057 0.4513611 0.22410911 0.8334852 -0.27162725 -0.026608765 0.34662592 0.25369546 0.24634261 0.1639367 -0.13121834 -0.7273022 0.47304127 -0.18132177 -0.15755172 0.012363981 -0.42592442 -0.09697761 0.00024845952 0.10016408 -0.26082176 -0.38617855 -0.02301445 -0.026580244 -1.2984611 0.1482291 0.2321971 0.045644633 -0.03741752 0.14207761 0.45739415 -0.03963145 0.2942214 0.24668904 -0.4193223 -0.09899898 0.972276 -0.5994994 0.08314805 -0.3254457 0.6895168 1.1644282 1.3937556 0.33173418
National -0.14348322 0.22564949 0.5705297 0.06909838 0.5109022 0.5508456 0.41857123 -0.8990778 -0.07465742 0.87360495 0.073320195 -0.093123 -0.15568437 -0.29066625 0.3890268 0.87167925 -0.51104355 0.047019448 0.11522079 -0.021821642 -0.60185134 0.15914056 -0.41931143 0.383593 -0.2047063 -0.12956646 0.44973192 -0.5170028 -1.0353291 0.38926658 -0.12813908 -0.53363705 -0.83165985 -0.8277771 0.08628958 -0.57987946 -0.018005453 -0.2450454 -0.13794123 0.9947225 -0.2941952 -0.22355884 -0.058569506 -0.46542087 0.2649946 -0.43119684 -0.25647298 0.6188712 -0.08709666 -0.14672817
chairman -0.86075544 0.3570845 -0.3166828 0.22355081 -0.05878257 -0.40983146 0.5085029 -0.15315819 -0.27601692 0.1532379 -0.3557955 -0.43167058 0.3878192 0.0076854094 -0.41709873 0.065049194 0.38722664 -0.29708955 0.432251 -0.14513253 0.08126872 -0.8737955 -0.6015208 0.11466232 -0.6749425 -0.10764793 0.91670114 -0.35343608 -1.2120259 0.78471017 -0.8318688 0.35137808 -0.5036045 -0.050062213 0.31594032 -0.374451 0.43336153 -0.2988876 -0.23656258 0.99651 0.37804657 -0.15543085 0.3545888 0.20399329 0.64453053 -0.3212785 -0.012441848 0.030289432 -0.21839356 0.13864718
John -0.6348827 0.18275592 -0.2636767 -0.24389383 0.028904617 0.09198317 -0.4776267 0.18226975 -0.2347127 0.8138744 -0.8275287 0.09423683 0.5724673 -0.08585326 0.66734505 0.24635588 0.590844 0.20492595 -0.22275592 -0.3304255 0.09670676 -0.30255556 -0.37241328 0.37615564 -0.101101264 0.4282017 1.2246573 -0.93248904 0.18812416 -0.45677572 0.036288675 0.070925206 -0.08254651 -0.1529883 0.44202954 -0.75005966 0.22630906 0.85208356 -0.443325 0.39918736 -0.040441636 -0.2005801 0.32566416 -0.15200873 0.43495175 -0.31354347 -0.20531861 0.11054446 0.03029189 0.38292557
Lloyd 0.12785204 0.32327938 -1.1573772 -0.6736982 1.0033073 -1.3897573 -0.9034957 -0.05877075 1.3896444 0.9521639 -0.6690929 0.7001833 0.5030999 -0.48131594 0.09526779 -0.08253834 -0.13932969 -0.31678805 0.022910746 0.24832594 0.37589338 -0.48548287 -0.6963293 0.40166292 -0.51618075 -0.0073152115 1.1323438 -0.3787098 -0.884668 0.37409616 -0.3177703 0.06669066 -0.85362035 -0.23520757 -0.5589816 0.34578994 0.6146114 0.25958398 -0.8142852 -0.14813499 0.61279094 0.33250016 0.23861626 -0.04914913 0.71759164 -0.093254544 -0.53047866 0.19725548 -0.3609024 0.3785354
Jones 0.26379752 -0.3283533 -1.2754734 -0.6510007 -0.12132864 -0.23465618 -0.85269487 -0.5146514 0.14371525 0.8653964 -0.27538097 0.029738592 0.3891536 0.13571408 -0.38066533 0.27001688 0.012760638 0.23037761 -1.2383803 -0.34341827 -0.614303 0.032940604 0.22785822 -0.29991776 -0.40080962 0.8738071 0.46260664 -0.4292934 -0.061015192 0.68854445 -0.34504512 0.25636375 0.25207976 -0.927085 0.68809 -0.25290552 -0.25206295 0.5276658 -0.62090087 0.54407257 -0.20864545 0.68386084 0.43291748 -0.018037833 0.2715621 -0.25784093 0.3811727 0.5324824 0.6639753 0.7735587
radio -0.28829327 -0.4197331 0.31829503 -0.49154383 -0.19707315 -0.06668969 -0.11717438 0.01254086 0.037474573 0.6555267 0.10491793 -0.2813786 -0.16053183 -0.12115763 -0.38873452 0.08045587 -0.11113559 -0.8509859 -0.5547503 -0.2171377 -0.47763085 -0.67232335 0.015307396 0.39529842 0.3507042 -0.4604462 0.68038744 -0.5598085 -1.3350903 0.22557904 -0.53182334 -0.46599743 -0.62992454 -0.01519656 -0.53875095 -0.11391489 0.37299362 0.52165854 -0.24023008 0.55085826 0.49130654 -0.3056407 -0.023570992 -0.5975899 0.554355 0.1996096 0.083540104 0.22065847 -0.015050672 0.1084594
has 0.20016712 -0.22506791 -0.10544279 0.42599183 0.32137445 -0.09470085 0.35373402 -0.009453537 -0.136252 0.2534834 -0.25067443 0.27341044 0.040442947 0.213457 -0.13628471 -0.4745989 -0.0747587 -0.11860123 -0.29779565 0.19456324 0.10175462 -0.18400069 -0.25356317 0.756616 -0.60572034 -0.10411697 -0.17322193 -0.01183929 -0.42417312 0.093821615 -0.71900725 0.14201075 0.47222057 -0.45244136 -0.3162027 -0.41128343 0.032844465 0.5480135 -0.17698517 0.25194705 0.2547698 -0.45066342 -0.29349628 -0.12790199 0.08446875 0.1585701 -0.7652733 0.16275267 0.51093465 -0.12859285
led 0.5693202 0.35318473 0.63382244 0.15646303 -0.12017403 0.23460707 0.09563265 -0.36347938 0.00320852 1.144415 -0.59507453 0.4513786 1.0315568 0.08205011 0.16812883 0.93439835 0.26957864 -0.8197792 -0.5113202 -0.38840562 0.7447477 0.5240701 -0.07054651 -0.040464997 -0.6359865 -0.46874157 -0.06865169 -0.19057289 -0.22965346 0.021144329 -0.4281763 0.09586124 -0.51815164 -0.15599583 0.23288101 0.43247503 0.35184953 0.4642616 0.2257911 0.88107705 0.61088693 0.09822522 0.21533646 -0.42587858 0.10925616 -0.4934383 0.1872314 -0.084478706 0.015571449 -0.17432156
efforts 0.37417087 -0.16403621 0.15613694 -0.19115506 0.3032306 -0.21453078 -0.19868852 0.749695 0.61854523 1.2096528 -0.15450864 0.34105185 -0.04029908 0.80393183 -0.0373426 0.70838386 0.10550625 -0.47138888 0.33687913 0.17792872 -0.69532573 -1.1441327 -0.2529631 0.22284685 -0.52124643 0.3108787 0.4718671 -0.623253 -0.55459255 0.27891746 -0.5819343 0.28510576 0.28679016 0.12983805 0.16271946 0.6165537 -0.4230724 0.55671835 0.511518 0.9758136 0.41468096 -0.42726615 -0.5991799 -0.33501053 -0.22056934 0.33169296 0.19826315 -0.17985374 0.09469242 -0.16285221
public 0.44237304 -0.8032651 -0.036801532 -0.4307525 0.26122707 0.24492957 0.33729455 0.21422307 0.36325932 0.7175529 -0.21509685 -0.44789663 0.58817655 0.261529 0.36763525 -0.36521554 -0.5607758 -0.72780913 -0.5048617 -0.13200527 -0.17971545 -0.54825294 -0.062774464 0.31254676 -0.22793928 -0.25068933 0.01778511 0.73566544 -0.11677222 0.95613766 -0.6398187 -0.029415302 0.09436009 -0.08713266 -0.3214977 0.43381408 -0.49574158 1.0384524 0.54902655 0.5406856 0.2384563 -0.8453327 0.03917967 -0.3134357 0.033191986 -0.116209716 0.754275 0.31571987 0.28397202 -0.31192613
consumer 0.9848217 -0.091291204 0.116322815 -1.0714625 -0.26422587 -0.91060334 0.4976868 0.715915 0.44730642 0.39480457 -0.30792022 -0.33737707 0.34872475 0.4136934 -0.75549155 0.405275 0.09763317 -0.5446877 0.004267187 0.6708063 -0.48301604 -0.6379136 -0.33582488 -0.23918614 0.12733789 0.094725884 0.5489883 -0.5134569 0.14129156 1.2868794 -0.55996203 0.43407527 -0.31220466 -0.28281122 0.10855401 0.031667646 0.0022190707 0.5721102 1.2225525 0.48557994 -0.08895388 -0.13992408 1.1272604 -0.46762866 0.015555465 0.66839916 0.9845626 -0.21997958 0.8418768 0.40181643
confidence 0.5755842 -0.42880633 0.79843956 -0.2692553 0.059138205 -0.8905783 0.11815978 0.34743702 0.6241377 0.58585966 0.104026556 0.026162054 -0.36871496 0.7414461 0.2634359 -0.5964499 -0.22730294 -0.18279533 1.0933481 0.18793932 -0.50730276 -0.65299714 0.42923582 0.54357135 -0.21557543 0.2832135 0.4578211 -0.1787423 -0.3438564 1.0816776 -0.4145287 0.37017262 0.12598862 -0.16518824 -0.4820038 0.22157319 -1.0357192 0.4963595 0.9218965 0.71223474 -0.008880101 -0.16260701 -0.009845276 -0.36835423 0.5973777 0.30037263 0.6277141 0.15459648 0.44898552 0.6069571
in 0.24401046 0.08002196 0.042903036 0.1277934 -0.045704696 -0.03499766 0.21559438 -0.082160875 -0.05093805 0.38181987 0.08223864 0.06315049 0.23408578 0.35230255 0.21163152 -0.1672675 -0.015104838 0.08049332 0.028498806 -0.24515432 0.20365801 0.041620318 -0.14509998 0.4082979 -0.044605322 -0.37124982 0.03513327 -0.09476519 -0.11057695 -0.00072077004 -0.5889097 -0.024029434 0.033743504 -0.07589763 -0.02657913 0.09747041 -0.078228064 0.41199654 0.54924667 0.37011772 -0.14958692 0.17694001 0.007842523 0.023029933 0.2149881 -0.17797995 -0.1507411 -0.062047493 0.13780956 -0.14361946
March -0.7997845 -0.32437292 0.96543956 0.2504304 -0.38431093 -0.34866032 0.24530816 0.06903142 0.14187428 0.23777051 -0.4735282 -0.30212805 0.11770818 0.419532 0.33594793 0.10416901 0.19457646 -0.06550878 -0.077803135 0.55644214 -0.29975346 0.7130005 -0.04297815 0.9328874 -0.22065203 0.036946397 0.040710244 -0.02008641 -0.6547226 0.51599574 -0.9336143 -0.18682913 -0.6022204 -0.24805796 0.33089 0.15594053 -0.4590765 0.59563273 0.2858798 1.3280199 -0.3369889 -0.28896788 0.80153257 -0.15099052 -0.6662832 0.4937782 0.5377079 0.07776908 -0.034498695 0.27249137
report 0.3090372 -0.06331108 -0.044478863 -0.23689719 0.07190821 -0.9424486 -0.019899499 0.61479604 0.3021752 0.07242639 -0.040362198 -0.20501386 -0.13547519 -0.012090961 -0.5334737 -0.5223862 0.54252607 -0.21503733 0.27659184 -0.07189198 -0.32721296 -0.69092304 0.29606932 0.33286667 0.124824755 -0.24968603 0.22543626 -0.031106867 -0.9720029 0.4410635 -0.7787343 0.05444643 -0.04569301 -0.1088031 -0.6105087 -0.41510633 -0.29986057 -0.042282443 0.25446004 0.97296906 -0.5423808 -0.22878903 0.5423757 0.06485474 0.3266715 0.78844255 0.36144447 0.4758703 0.02163979 -0.032571796
beef 0.43979877 0.6397711 0.04630368 -0.009499774 -0.28720307 -0.15657856 -0.19478251 0.50204307 -0.6253404 0.36820722 -0.33482385 0.028181849 0.29929695 0.64175904 -0.93034834 0.021081911 0.21721119 -0.787881 -0.0024291493 0.8162067 -0.78161055 0.73298585 0.102753185 1.4391485 -0.27358672 0.5314063 1.0320832 0.35061184 -1.1070185 0.9754519 -0.88680196 0.7170655 -0.10748958 0.16494294 0.41059655 0.30438194 -0.5768403 0.48883915 -0.7024444 1.2242438 -0.03120218 -0.25626758 0.30681452 -0.62031347 0.5662503 0.57358396 0.5571043 0.279771 -0.035962656 -0.20286718
year 0.20767064 0.7291778 0.43726188 0.2037987 0.09405684 0.03437628 0.14883018 -0.016994301 -0.20005025 0.058347564 -0.283256 -0.12909777 -0.05419177 0.6456268 -0.15918155 0.076223165 -0.054528102 0.25845033 0.6747779 -0.17716888 0.46807557 0.030008862 -0.45946446 1.0279926 -0.25451058 -0.35368833 -0.1690329 -0.5048301 -0.880946 -0.091841176 0.23259868 -0.029358951 0.16379273 -0.4650057 0.3927782 -0.06374383 0.004118917 0.577958 0.020600952 0.93948054 0.19543906 0.25243226 0.22422174 0.33628199 -0.4477183 0.18620642 0.11709712 -0.091020755 0.615071 -0.27129507
nearly 1.0391365 0.959013 0.02559714 -0.4127436 0.18820447 -0.05033546 -0.22550854 0.3888403 -0.14261465 0.28915352 -0.53422004 0.41502792 0.10654927 0.75377274 0.1801606 -0.08464483 0.21198806 -0.26874274 0.03963434 0.08476898 0.7114063 0.8977527 -0.27881292 0.49018994 -0.5339784 0.10747772 -0.101246 0.6738465 -0.782101 0.0990572 -0.56898457 -0.73359275 -0.43613645 -0.1990719 -0.14845686 0.6464544 0.2639746 0.7179943 -0.0349359 0.37104362 -0.037584662 -0.2147671 -0.14143988 0.071302354 0.37921682 -0.4377171 0.1915127 -0.4318991 0.7018779 0.14485206
half 0.034570046 0.44443193 0.064333655 -0.045441076 -0.16674604 -0.041090086 0.0381062 -0.12601727 0.51674473 0.6171501 -0.82219684 -0.35176158 -0.12208233 0.8476437 0.24476679 -0.68563926 -0.25814778 -0.30102712 0.7133296 -0.27268073 0.6623128 0.14866063 -0.62170637 0.13204443 -0.19035682 -0.14687207 0.44674817 0.34320173 -1.1649939 -0.05609375 0.0809674 0.8919815 0.34215695 0.045586817 -0.09403974 0.20669676 0.0765996 0.49369168 0.46899387 0.37123716 -0.44960013 0.05503433 0.6373227 0.8013298 -0.0750933 0.009376452 -0.0890442 0.3597902 0.5205051 0.29356372
total 0.08451539 0.3363081 -0.16078319 -0.32576868 -0.13093124 -0.49697882 0.4070973 -0.6564183 0.64645714 -0.0451874 -0.6298229 -0.035499386 -0.95170766 0.6815835 -0.7882219 0.21232753 -0.4630669 -0.16981588 0.048489075 -1.1736931 0.13037145 -0.054370917 -0.59260976 0.30587563 -0.07791037 0.10882032 -0.35639954 0.5111401 -0.044759337 0.24425247 -0.41961873 0.07151764 -0.22639677 -0.21391039 -0.36455542 0.48929256 0.09861075 0.49033406 -0.57728916 0.46243173 -0.31462336 0.0046102526 0.8154754 0.5974268 0.16744946 -0.18877201 -0.61390513 0.15767506 0.42086375 -0.1781754
imports 0.49861783 -0.18423648 0.4489048 0.23355672 -0.37043697 0.5052022 0.52815634 -0.6229095 -0.16063651 0.6310957 -0.5558951 0.00036706025 -0.33173072 1.2127753 -0.9626976 0.2886646 -0.4080082 -0.67367864 1.1000179 -0.2642087 0.52258325 0.31441996 -0.79045427 1.1289403 -0.62962943 0.96928954 0.18505782 1.0899615 -0.23074284 0.057264537 0.041561335 -0.07871902 -0.9267146 -0.6915856 -0.480039 -0.21159698 -0.11660954 0.6432893 0.30511877 0.7023104 -0.75310177 -0.25314566 0.85570526 0.12655562 -0.009780535 0.29906783 0.02741763 -0.06622779 0.16987944 -0.6253422
It 0.48402455 -0.04143251 -0.18955672 0.013870598 0.27061027 -0.4071457 0.04668716 0.21866708 -0.16804776 0.76951003 0.31427354 -0.32562047 0.017646866 0.51967394 -0.25581443 -0.7730792 -0.030646572 0.09562621 0.16249418 -0.33245793 0.20734805 -0.050583955 -0.1563267 0.314537 0.117517754 -0.1500836 -0.3564354 -0.6890459 -0.5751336 0.27056846 0.047928292 0.21620423 -0.02072754 -0.29725233 -0.6332737 -0.34906024 -0.05627486 0.36634326 -0.14240085 0.48525012 0.049952693 -0.31280383 0.16439532 0.028630678 0.35089338 -0.084992565 -0.023804894 -0.40142044 0.23644228 -0.48118743
brought 0.67439246 0.6311683 0.060918003 -0.5104197 -0.09994896 0.18041256 0.011993041 -0.4367673 -0.1987252 0.91149294 -0.35383084 -0.021876186 -0.42294678 0.14702049 -0.5909667 0.52204204 -0.03718649 -0.028708389 0.17692794 0.22194384 0.20109439 -0.23040096 -0.564556 -0.006196937 -0.2612071 -0.4844974 -0.4204845 -0.08643345 -0.66199905 -0.08181799 -0.27816236 -0.06429662 0.3280388 -0.22347116 -0.2237683 0.1340796 -0.100154415 0.6211806 0.075013265 0.55679905 -0.0006447145 -0.008122385 0.110442676 -0.090122916 0.6531717 -0.012509773 -0.5775649 -0.06061336 0.57484007 -0.53784955
tonnes 0.23906787 0.08410874 0.19052695 -0.78974265 -0.29011965 0.016307073 0.25996876 0.23373124 -0.15631627 0.07485813 0.03468133 -0.71774274 -1.2039042 0.7412592 -0.8439277 -0.1358961 -0.3489792 -0.11276941 -0.49548802 -0.10502556 0.38388005 0.56319135 -1.0178872 0.92304415 0.1669535 0.330671 -0.104025126 0.46864474 -1.6305794 0.37576494 -0.04343568 0.24290854 -0.5092941 -0.42028785 0.16045976 -0.052242264 0.3011422 0.16223145 0.18392855 1.0621411 -0.4487378 0.78937364 0.97483873 0.21295412 -0.29294536 0.57680607 0.42093086 -0.24631418 0.0403861 -0.53955203
some 0.579295 -0.3587404 0.4731072 -0.33569577 0.14177096 0.23403023 0.1365643 0.5609102 -0.10757548 0.06560512 0.042470206 -0.15300196 0.1787605 -0.165798 -0.06276746 -0.20983922 -0.23400466 0.06645007 -0.09359948 -0.24725382 -0.10060089 0.42017207 -0.30143976 0.56986254 -0.31783393 -0.2616225 -0.15367301 0.25803658 0.03864094 0.08074134 -0.33334628 0.12861566 0.043154888 -0.52954334 -0.068713136 -0.15776852 -0.4701564 0.27770695 0.28783688 0.7346725 0.09768246 0.13591407 0.5047413 0.16939849 0.5505631 -0.3697003 -0.21174349 -0.021943424 0.11400343 -0.37843537
10 0.25208685 -0.100866914 0.31950346 -0.88413185 -0.36342862 -0.60477257 -0.8180087 0.14569977 0.45383584 0.29881352 -0.38179222 0.49065 -0.40261868 0.119127 0.022258295 0.3498436 -0.49915093 0.48797792 -0.008818657 -1.2530563 -0.5230274 0.7564085 -0.35272703 0.26703498 0.18653178 0.11894457 -0.20598365 -0.1471685 -0.12854427 -0.6087229 -0.11026256 0.17511886 -0.46885407 -0.3159428 0.23741806 -0.6000412 -0.10042615 0.26291642 0.62345064 0.07573036 -0.11724737 -0.50753903 0.40794668 0.01112559 0.5288497 0.23997949 -0.39569917 0.33802578 0.07499799 -0.44293317
