2475 50
EU 0.23959254 0.70852035 -0.23859176 -0.25129992 -0.04070867 0.18377198 0.8409392 -0.7674132 0.1439864 0.03272451 -0.22558184 0.14198987 -0.28043476 0.3260208 -0.39365923 -1.3948634 0.16669041 0.93477875 0.57675064 -0.11715094 0.11763083 -0.30563062 -0.9881736 0.6754822 -0.052324157 -0.2720322 0.13590562 -0.21014039 -0.81827 -0.035309944 -0.38914576 0.27346617 -0.69893575 0.12279075 0.29585588 0.5438515 -0.5326325 -1.0352833 -0.23080967 0.6970892 -0.5621794 0.07302971 0.8176109 -1.7175405 0.6101965 0.28029206 -0.8176973 0.5847115 -1.072927 -0.47541827
German 0.2711141 0.17360893 -0.5750573 -0.017650174 0.4850046 0.41141188 0.4021154 -0.7024353 0.057372082 -1.0766568 -0.8648491 0.5058618 0.31371304 0.6247012 -0.32753438 0.29578397 -0.086712085 0.3508038 -0.30738023 -0.60177666 0.15109782 0.20921922 -0.79461133 0.10153511 0.22594604 0.075937845 -0.33798 0.31960312 -0.19920236 0.082201324 0.06752938 0.15404195 0.25837958 0.8289097 0.22523135 0.63113284 -0.62165 0.11912031 0.2075946 0.4637112 0.11264753 -0.36678413 0.44999975 -0.17877898 -0.510709 -0.039859444 -0.3992455 0.7021366 -0.082697764 0.0005320292
call -0.75824094 -0.06476332 0.032956026 -0.33072418 -0.3209273 -0.13288447 1.0839111 -0.49196035 0.6472651 -0.6941765 0.22952576 -0.30406094 0.08077043 0.11133728 -0.55535436 -0.64397997 -0.26641092 0.42258143 -0.31999928 0.9361504 0.4871074 0.14185216 -0.34985337 -0.13821183 0.25588286 -0.8071744 0.09044834 0.7186009 -0.72964656 -0.10774254 -0.4893898 -0.496988 -0.24762952 0.07448917 -0.13646719 0.09485286 0.18835695 -0.5280597 -0.31339353 -0.2813948 -0.13928287 0.38616276 0.7080258 0.28468972 0.045883104 0.5023799 -0.19808355 -0.280911 0.5130489 -0.45203885
to -0.16634366 -0.0962501 0.18809195 0.028256774 -0.14160869 0.0051238337 0.17158133 -0.26475412 0.3428785 -0.30442986 -0.12829648 -0.08382353 -0.016690075 -0.047413744 -0.13655812 0.4014598 -0.35408324 0.12595953 -0.37891433 0.14298429 0.338949 0.07228113 -0.21792886 0.3772353 0.16387601 -0.4750973 -0.16877049 0.08037028 -0.05127776 -0.081620194 -0.13144436 0.18827863 -0.20915532 0.110794805 -0.053697012 0.02171077 0.09703889 -0.2008415 -0.21632001 0.2925534 -0.097522855 0.28866267 0.16661309 -0.3428929 -0.13062851 0.3381734 -0.053450607 0.47982988 0.08795335 0.051145416
British -0.4042212 0.57263 -0.54978025 -0.20768797 0.040519524 0.41803467 0.32781872 -0.8955067 0.3071404 -0.5321939 -0.77425843 -0.3639778 -0.107813574 0.27588084 -0.4744603 -0.33028072 -0.57595754 0.034714352 0.19058944 -0.15364555 0.27352577 -0.03435956 -0.4318198 0.4106626 -0.39218572 0.18272738 0.32191622 0.18686378 -0.21223474 -0.31006056 0.16086097 0.35454676 -0.14415693 0.13958088 0.017644558 0.233355 0.21967496 0.2422598 -0.08655071 0.2512426 0.4509117 0.110948786 0.54489225 -0.5163342 -0.079746775 0.13041185 -0.048332207 0.46759936 -0.27771875 -0.17090961
. -0.1678652 0.029828679 0.044870883 -0.001564224 0.025994726 0.04451069 0.05154193 -0.31788737 0.06672387 -0.574755 0.13976383 -0.36466944 0.035769526 0.06636668 0.10377231 0.13623473 -0.22218205 0.33605453 -0.502792 -0.10227438 -0.024482284 0.14929654 -0.20607717 0.049890187 0.13054489 -0.21434309 -0.15630144 -0.18068987 0.035375446 -0.12165412 -0.18045545 0.025314305 -0.08809054 0.0023374339 0.35637966 -0.11309353 0.116818756 -0.01967649 0.17662306 0.10019061 0.11563297 -0.044851143 0.3595484 -0.10820707 0.10737337 0.1897175 -0.08255667 0.36353624 0.07648358 0.005865333
Peter -0.6456439 -0.029136904 0.3116367 -0.61378723 0.38201082 -0.5088147 -0.13568261 -0.8269557 -0.6152855 -0.80230117 -0.47296518 0.19212605 -0.71475834 -0.0080908025 -0.20161416 -0.29487118 0.0799722 -0.32736015 -0.31472087 -0.16375901 0.14841472 -0.50744355 -0.6002263 -0.50581396 0.26751634 0.06589976 -0.1226791 -0.660147 -1.1114713 0.007959767 -0.31152293 0.39727488 -0.632527 0.77505016 0.8599604 -0.09256619 0.33558804 1.3294758 -0.11116675 0.79370284 0.5804668 -0.13056645 0.6580431 -0.43145216 0.2427475 0.4020816 -0.933566 -0.043244444 -0.21779811 -0.23531401
Blackburn 0.2643815 -0.03808455 0.026127787 -0.62350804 0.023742745 0.1758225 -0.37173054 0.038110223 -0.4523659 -0.9848248 -0.3019574 0.42617628 0.63078815 0.15574123 -0.42452654 0.25231463 -0.06601418 -0.28139505 -0.43849128 -1.0314993 -0.50320554 -0.15660654 -0.6416397 0.42981946 -0.8590032 0.102948494 -0.81986624 -0.36843845 0.264293 -0.31167835 0.16832632 -0.29776224 -1.2727754 0.3259289 0.088725686 0.9881241 -0.18872516 0.3459883 -0.13550393 -0.42417565 0.9776866 -0.19164059 1.8225195 -0.5134618 0.23562832 0.52489126 -0.035499644 -0.25598207 0.7815253 0.02306933
BRUSSELS -0.12848209 1.1859148 -0.61758184 0.27364954 0.45260063 0.24895367 -0.13535984 -0.21012756 -0.06617544 -1.9209396 -0.057822965 -0.6521694 0.058395326 -0.22717229 0.21284267 0.49224865 0.7460322 0.43434474 0.0033681572 -0.9608316 -0.43551868 -0.78623253 -0.29005304 1.1264224 -0.048604157 -0.30483207 -0.5546084 -0.37374565 0.18737645 0.35373038 0.0846495 0.7816007 -0.37838665 0.52978593 -0.11411862 0.13845824 0.10963621 0.5221261 -0.7747007 0.6742703 0.77057135 -0.09127141 0.7269912 -0.22012526 1.3813252 0.00066569523 -1.5203512 0.786554 -0.16620313 0.27995515
1996-08-22 -0.051852074 0.2877921 -0.69216955 0.6329937 0.1222892 -0.097359605 0.5106938 0.068414085 0.43703568 -1.0976176 -0.25406092 -1.0107223 -0.34189275 0.15462719 -0.37681857 -0.15890822 0.13189489 -0.07245755 -0.16701473 -0.37090138 0.62014264 -0.9866369 -0.23784682 0.59140867 -0.22759657 -0.816456 0.0020693247 -0.238815 0.29197112 -0.15079047 -0.25969926 -0.27635336 -0.13020527 -0.6548079 0.47160542 -0.32056808 0.14258589 0.5333435 -0.82652295 0.29877007 0.2010039 0.06213525 -0.24906461 -0.21014664 0.26760006 0.6631002 -0.27111945 0.81509405 0.55673796 -0.2183558
The -0.103064395 0.040705137 0.016686382 0.15184113 0.13118583 0.23987079 1.3967336e-05 -0.31188437 0.40132317 -0.65061975 -0.097352795 0.0014934514 -0.08935857 -0.113945164 -0.24741842 0.055578563 0.01893514 0.42683524 -0.4154572 0.03789774 0.25628415 -0.089196704 -0.5021434 0.20320988 -0.14501241 -0.5127963 0.02651637 0.03394536 -0.2096455 -0.28857183 0.10506637 0.14418316 -0.20209768 0.27590084 -0.23929988 0.1083632 0.17720857 -0.10467213 -0.056630105 0.15876165 0.25941038 0.11181588 0.19160059 0.20507477 0.014426829 0.35911587 -0.08678648 0.42961216 -0.28016824 0.073376775
European 0.08366303 0.4052123 -0.31825605 0.56377584 -0.09132509 0.88508373 -0.058269028 -0.27764833 -0.7536116 -0.59461564 -0.47306332 -0.30674213 0.173657 -0.010052712 -0.15075368 -0.68423307 -0.2797431 -0.02089126 -0.8696448 -0.18204622 0.3021862 -0.34861562 -0.47873768 0.23741694 0.011797985 -0.25119373 -1.0914916 -0.19527008 0.0065728035 -0.21877259 0.05073173 -0.1791937 -0.4661986 0.4392666 -0.8447626 -0.10281007 -0.40016678 -0.01583174 0.20242205 0.080408975 -0.029791871 -0.46198383 0.6664035 -0.6569767 0.3939228 0.6360019 -0.1062194 0.9431321 -0.40978009 0.09253666
Commission 0.21102493 0.74495995 0.23387197 -0.47748023 -0.048815712 0.021286957 0.35422078 -0.5488285 -0.018802045 -1.48032 -0.48193058 -0.491317 0.27157813 -0.1512614 0.522402 -1.3386657 0.31706575 0.63554895 0.24906218 0.375149 -0.5788652 0.2775883 0.08818396 0.17536125 -0.22913593 -0.33966932 -0.44548884 -0.10771318 -0.12231011 -0.19850276 -0.42930076 -0.1951705 -0.8701448 1.0578802 -0.007123722 0.6621032 -0.48588783 -0.56220543 -0.34756243 0.765148 -0.10648777 0.14179857 0.7682733 -0.58300704 0.56077695 1.1249424 -0.30784333 -0.38394484 -0.16680709 -0.22575656
said -0.29570284 0.32726422 0.18306749 0.17036293 -0.16312785 0.08260485 0.40237007 -0.12975743 0.14854532 -0.71973187 0.14419685 -0.11294131 0.007827618 -0.04588876 0.035275165 -0.09648442 -0.24232386 0.22935794 -0.32190296 0.019986432 0.17906103 0.4047717 -0.2910709 0.15824126 0.13207817 -0.39647233 0.075872846 -0.096530326 -0.5371065 -0.094733015 -0.036472455 0.022775972 -0.36807707 -0.111162126 0.40162194 0.099912554 0.33274266 0.009593231 0.07170729 -0.17349212 0.15566002 0.41753477 0.36954585 -0.11018141 0.19565046 0.39486095 -0.32139197 0.28713742 -0.21459767 0.025391066
on 0.13485208 -0.08710812 -0.08345275 -0.22147068 -0.26881984 0.42279333 0.07588527 -0.05050616 0.2836578 -0.6236492 -0.045149338 -0.22429588 -0.11074475 -0.15866925 -0.34432456 0.20300429 -0.13036658 0.41065037 -0.45962647 -0.17803812 0.123209074 0.10819514 -0.4471104 0.0934568 0.025909483 -0.29110503 0.0972358 0.12377524 -0.1647636 -0.16802333 0.26003364 -0.17469274 -0.116997056 0.009114955 0.24096562 0.30844858 0.13144372 0.041697282 -0.1264561 -0.21539842 0.21268697 0.036289595 0.4071378 -0.313166 0.05930831 0.20351507 0.044233568 0.4517918 0.04945283 -0.06016965
Thursday 0.63635683 -0.14754154 -0.2778444 -0.13960007 -0.26187423 0.26331696 0.3498851 -0.05623754 0.47118258 -0.43205103 -0.22733313 -0.34875086 -0.465596 -0.110883504 -0.44871977 -0.34855777 -0.28097194 0.13103229 -0.3444769 -0.07336349 0.57263947 0.26044923 -0.85665417 0.14573303 -0.18762909 -0.1721707 0.12637158 0.10710141 -0.22595511 0.16895851 0.28748587 0.08756324 -0.08322994 0.1790202 0.68727946 -0.016590547 -0.0711942 0.20903336 -0.34958622 -0.6037019 0.0852745 0.20349084 0.26637924 -0.38504955 0.16165048 0.06570799 -0.53568935 0.55701834 0.16196384 0.0033032019
it -0.28019607 0.022118257 0.15651883 -0.5300558 0.023470724 0.079633474 0.57014513 -0.007898535 0.5120287 -0.60767245 -0.06097768 0.0891523 -0.044907875 -0.3380523 0.16770837 -0.030788999 -0.40851104 0.014539296 -0.30435374 -0.024194589 -0.030420301 0.3892088 -0.29176447 0.27881494 -0.1806597 -0.28070626 -0.2816598 -0.0329851 -0.39408404 -0.31104603 -0.31622607 0.02476275 -0.051210735 0.046220977 -0.045827832 0.020746734 -0.062880814 -0.0226343 0.3033658 0.15483165 0.03399422 0.5810034 0.20270193 -0.3673783 -0.318935 0.26188904 -0.10498776 0.53226143 -0.2620032 -0.042366736
with -0.05622 -0.09240667 0.056165185 0.06250423 -0.21270804 0.059866637 0.12650394 -0.20257604 0.40274042 -0.24751483 -0.08849731 0.1705028 -0.0012869347 -0.03248603 -0.24656746 0.353603 -0.29264066 0.077235855 -0.55339277 0.29267874 0.50008464 -0.09990459 -0.27424878 0.6235921 0.022896597 -0.082474165 0.065121785 -0.008085707 -0.014621926 -0.097583994 -0.2381303 -0.19955827 -0.30293655 0.04544347 0.13109814 0.040816814 0.40011564 -0.0021772885 -0.08261744 0.3003084 0.28215837 0.18736778 0.3328304 -0.13393779 -0.01997285 -0.10105694 -0.08680335 0.4477862 0.04132429 -0.12994416
until 0.009923243 -0.3576631 -0.202129 -0.9358209 -0.44338414 0.21941015 0.6703542 -0.86075264 -0.103999995 -0.39834335 0.048141055 0.1946998 -0.045457996 -0.4336688 -0.37752956 0.37852466 -0.3036996 0.27015364 0.15160772 0.15197855 -0.109418675 -0.27459848 -0.13475555 0.62645555 0.37399787 -0.06766125 -0.17581432 0.0020574403 -0.550214 -0.099069506 0.4576489 -0.734906 -0.41278842 -0.15565386 -0.36678192 0.3030044 -0.52192783 -0.14713518 -0.19791782 0.33664268 0.11437598 -0.12314881 0.91161454 -0.31557804 -0.27705088 0.781235 0.03996453 0.44439954 0.4147408 0.018609177
determine 0.018084235 0.093017735 0.40040642 -0.5266574 -0.8032638 -0.15773435 1.0234437 -1.2344728 0.75046235 -0.17313874 -0.5407906 -0.04365346 0.6693813 0.36129096 0.49393636 0.060022153 -0.61547697 0.039773162 0.20650405 0.37722978 0.00414336 -0.22247842 -0.45172945 1.1535816 -0.017351557 -0.060814988 -0.084445894 -0.04923056 -1.256501 -0.18160933 0.89028233 0.18077716 -0.05941999 -0.36291388 -0.06330873 -0.29932487 -0.46621495 -1.3902168 -0.65500426 0.63737726 0.33896944 -0.1953918 0.8249623 -0.51191646 -0.14041525 1.2835244 -0.8938739 -0.22378388 -0.0015871779 -0.20990033
whether 0.4043119 0.8708485 0.64259964 -0.4096178 -0.30267456 0.39682978 1.0371548 -1.0474906 0.7855639 0.04796766 0.14686984 0.24755202 0.11882294 0.10655067 -0.078223765 0.036688406 -0.30114374 -0.16017707 0.38857138 0.44380283 0.34033728 -0.15196621 0.24423252 0.62596846 -0.20310184 -0.90402263 -0.18802662 0.4392229 -1.4364657 -0.0015603415 0.6367208 -0.2379918 -0.5652908 -0.49647656 0.20123369 0.29892 -0.22765733 -0.4021126 -0.3669731 0.12009018 0.35480973 0.96449596 0.4157838 -0.29918176 -0.4229133 0.6046597 -1.0739269 0.2802478 -0.7197671 -0.916024
mad -0.11035431 0.5739429 -0.044320315 -1.3175557 0.28906974 0.62748474 1.1843603 -1.0691298 0.1334693 0.29811186 -0.1667505 -0.30577174 -0.14420533 0.30084816 0.36869922 -0.38544703 -0.98002666 0.24019842 0.1914249 0.19058953 0.30222735 -0.6023274 -0.6396683 1.0639529 0.7218475 1.0677062 -0.53544104 -0.05817365 -0.5856363 -0.5608312 0.23791806 0.7034084 -0.095765196 -0.09356159 -0.12898543 -0.08802524 -0.27530482 -0.46314883 0.53843 1.2234908 -0.026281975 0.39578286 0.6754062 -1.4107238 0.64348483 -0.06752862 0.20194179 0.10757604 -0.41790777 -0.27269483
cow 0.2528931 0.67476636 0.18551104 -1.1077033 0.049038015 0.29221907 1.3616928 -1.2538702 0.20017609 0.10183297 -0.2606489 -0.9066381 -0.26524913 -0.26732934 0.8402764 -0.51789594 -0.86898667 -0.35014334 0.00029282435 0.11060896 0.52934813 -0.626116 0.13735712 0.84036815 0.590788 0.76044303 -0.5224556 0.020764831 -0.43211213 -0.743826 0.30582193 0.5314474 -0.53060174 0.15386301 0.03377494 0.28474113 -0.1618861 -0.473453 0.53844064 1.3042852 -0.63444334 0.0580966 0.7269516 -0.9645366 0.27111238 0.12240963 -0.004539069 0.13878444 -0.023330241 -0.37912646
disease 0.21225873 1.1026328 0.2177534 -0.89642805 -0.35754696 0.26756114 1.5366644 -0.7146253 0.53727156 0.24732153 -0.4597256 -0.31123632 0.20093518 0.13068333 0.19449443 -0.42434815 0.18492946 -0.15913653 -0.08551681 0.43644288 -0.019278422 -0.5324927 0.3354597 0.60258037 -0.07719494 -0.054419983 0.44261077 0.20812367 -0.45348367 -0.90958095 0.23348014 0.49316445 -1.0155649 0.22809128 0.46043277 -0.5116072 -0.097907715 -0.95558614 0.5641607 0.82846975 -0.52120113 0.29521492 0.9041509 -0.6931058 0.26708016 0.22932942 0.13666484 -0.5243835 -0.011511372 -0.34483087
can 0.7164934 0.43828958 0.35886097 -0.32457972 0.0039299815 0.040757287 0.6695523 -0.40734112 -0.040417586 -0.300861 -0.09277693 0.39772514 0.21945532 -0.43395838 1.1825056 0.31840155 -0.12486129 0.33077565 -0.22637917 0.2748796 0.13139746 0.06180102 -0.023441084 1.0090348 0.4669038 -0.106510736 -0.03575435 0.50212985 -0.1458749 0.22270209 -0.11527823 0.19965951 -0.09633527 0.10445543 -0.004311421 -0.439329 -0.19542128 -0.28328383 -0.3651351 0.6447288 -0.27423012 0.83403796 0.6672349 -0.8869273 -0.26982114 0.28106764 -0.028168272 0.60852957 0.07261896 0.13580672
be 0.011930787 0.21550801 0.13085277 0.21555355 0.03548886 -0.07403935 0.51766837 -0.54457414 0.30100253 -0.43486592 -0.04802066 0.3581491 0.14285058 -0.37163123 -0.14938504 0.08381604 -0.8415004 0.2137193 -0.14863402 0.12966266 0.3632963 -0.041628264 -0.30073476 0.19937992 -0.050924614 -0.39227718 -0.28257906 -0.16485468 -0.52224505 -0.16944176 0.11201398 -0.33854097 -0.41697946 -0.021416733 -0.1421635 -0.33485904 -0.1350667 0.18203862 -0.08088578 0.5520536 -0.21064083 0.40464658 0.31232458 -0.4741035 -0.48019102 0.571433 0.32089835 0.16812323 -0.10841925 -0.4041438
sheep 0.016592534 0.3343875 0.46791756 -0.72980404 0.21259128 0.39960217 1.6679001 -1.0716166 -0.35205182 0.70096123 -1.0008701 0.44622234 0.37844667 0.21838817 -0.2548264 -0.73003346 0.5138279 -0.37653443 0.029233921 -0.47288743 -0.41069856 -1.0183457 -0.3473176 1.4047627 -0.3736831 0.13658758 -0.11014846 -0.0063396674 -1.219743 -0.123987556 -0.69299674 0.29748404 -0.73627067 -0.012029807 0.49865055 0.5187308 -0.5100234 -0.61181206 0.20812994 1.0081865 0.01907277 -0.06612277 0.6261756 -2.214739 0.3253498 0.94924855 -0.45853728 0.77102184 -0.4444011 -0.1287915
Germany 0.25378957 0.8750428 -0.18439457 -1.0960615 0.9122499 0.24929915 0.0330768 -0.64935803 -0.583625 -0.22132604 -0.6347826 0.18270043 0.026976451 0.2829372 -0.19407624 0.112064764 0.2949487 0.12751608 -0.44453242 -0.1877248 0.10559267 -0.41807145 -0.36587158 0.8203212 0.2717143 0.20865506 -0.39381632 -0.35569757 -0.3903016 -0.076413676 -0.3392524 -0.41876698 -0.40136606 0.418116 0.3268532 0.21784392 0.3935608 0.18091676 0.27369848 0.55703545 0.5819 -0.52214265 -0.039912444 -0.6436908 0.017448038 -0.045000553 -0.48033231 0.07050488 -0.26795092 0.41363668
's -0.034382004 0.23212956 0.10707654 0.23167907 -0.015567815 0.2988501 0.13455571 -0.44315508 0.08512151 -0.5912357 -0.09335451 -0.162534 -0.040723864 -0.47221154 -0.33342296 0.19612233 -0.12646274 0.21097474 -0.28287387 0.17950815 0.23079462 0.010114983 -0.45053288 -0.084624365 0.26235574 -0.07208022 -0.32333958 0.30537948 -0.051184867 -0.08581931 -0.4201158 0.095301814 0.015374943 0.014597329 0.2701071 0.14085007 0.20715079 0.16278814 0.109544285 0.05346332 0.3685498 -0.08884373 0.06716471 -0.30776206 0.12564282 -0.071356855 -0.23705137 0.3678949 0.041727126 -0.1962419
the 0.11259708 -0.010412565 -0.03979457 0.27121064 -0.16221528 0.1335426 0.19353144 -0.22262946 0.29850835 -0.464844 -0.20082578 -0.032378808 -0.012290556 -0.1568035 -0.2680995 0.18440321 -0.27627113 0.26274842 -0.36910826 0.18440597 0.29580218 0.059227 -0.19752319 0.21489349 0.003929497 -0.34751782 -0.21070282 0.13633923 -0.18703218 -0.23645253 0.006730312 -0.014721347 -0.2545412 0.19577447 0.003180299 0.18677711 0.19654298 -0.087740794 0.03473014 0.16592078 0.15413359 0.07018607 0.13765162 -0.06415288 -0.25874105 0.042381253 -0.18781115 0.44952828 0.16000251 0.09230049
Union -0.4137215 0.4170722 0.122674756 0.5915979 0.14201705 0.306529 0.13429807 -0.0007627099 -0.04406663 -0.18327315 -0.43410686 -0.42894047 0.38328472 -0.25015733 0.14404485 -0.65415996 -0.4382273 -0.1393644 -0.7671929 -0.307401 0.9360661 0.34722933 -0.09419288 -0.14938675 -0.31713206 -0.23269922 -1.3867795 -1.174724 -0.210227 -0.38696662 -0.4016852 -0.15568608 -0.4782241 0.63086736 -0.5441982 0.4454133 -0.11637325 -0.120511115 0.2240033 -0.7298622 -0.007846675 0.14798202 0.6200945 -0.8270413 0.76155365 0.11028145 -0.52963346 0.51546127 -0.20374106 -0.43935806
committee 0.47063228 1.2570353 0.6320103 -0.18040223 -0.012154215 0.17047659 0.66071427 -0.028580222 -0.28107673 -0.2520818 -0.0667858 0.21098103 -0.49149653 0.6604958 -0.07330431 -0.40629566 -1.4589905 0.7928356 -0.6530687 -0.27371988 -0.062348105 0.097154684 -0.24253663 0.062395725 -0.11832069 -0.48987052 -0.32415858 0.026518166 -0.7362856 0.0010886696 -0.64229727 -0.20384993 -0.9249892 0.2524289 0.24895686 1.127236 -0.5755468 -0.29088035 0.20631294 0.2592252 -0.19946055 0.18039769 -0.002564085 -0.93226844 0.6783574 -0.0563177 -0.21238571 0.12572517 -0.6985936 -0.33574855
Wednesday 0.96431 -0.073165365 0.13381125 -0.06584077 -0.10137916 0.5950076 0.348379 -0.085637756 0.21860285 -0.6573547 -0.0869757 -0.092993274 -0.19999574 -0.1375849 -0.21064235 0.06825696 0.034090526 0.2224311 -0.42345896 -0.20998314 0.6589805 -0.015002933 -0.5078625 -0.24728236 -0.26269916 -0.27231377 0.17192124 0.23645574 0.032588467 0.31636056 0.30012158 0.06736459 -0.33864024 0.0676223 0.7369017 0.36665487 0.029172726 0.12996446 -0.089233175 -0.70608586 -0.030110696 -0.0026404646 0.426789 -0.60509616 0.15741672 0.1383612 -0.29203147 0.5861284 0.22500896 0.26148608
should -0.26786056 0.26861614 0.45728236 0.2681255 -0.31150416 0.059579905 0.19492947 -0.4402988 0.080774345 -0.19425185 -0.35649726 -0.34018555 0.19149588 -0.09530409 0.550791 0.20632318 -0.196513 0.21015978 -0.59180164 0.3315294 0.5333969 -0.093564816 -0.065636985 0.8131418 0.44696975 -0.12781538 -0.8161572 0.1446599 -0.7689051 0.09818079 -0.15501906 -0.2836494 -0.3690314 0.15591352 -0.26594567 0.1784504 0.066403836 0.3144741 -0.058480438 0.1459933 -0.61262006 0.6002555 0.18079244 -0.45897636 -0.5357557 0.6918105 0.0644836 0.37903967 -0.785778 -0.04175052
buy -0.38481462 -0.253731 0.21818602 -0.80561996 0.3294068 0.28413305 0.23079087 0.08744569 0.06245217 -1.221008 0.4449015 0.6360054 0.48219413 -0.20058134 0.2867485 -0.36586016 0.22487977 -0.52452976 -0.20598692 -0.23502652 0.7384624 0.43392265 -0.2092719 0.1431114 0.25699818 -0.13025594 -0.16757266 0.6417161 0.108652316 -0.20967068 -0.3217305 1.0198094 -0.530025 -0.1723057 -0.3247338 -0.16482875 -0.08447805 -0.11776534 0.15451212 0.6918722 -0.06172351 0.7153237 0.4766733 -1.3297043 0.0073437514 0.3866924 -0.5496464 0.08732075 0.3296576 -0.3467321
from -0.16590373 0.042711616 -0.18808453 -0.081389695 -0.27336413 0.10191702 0.1922561 -0.014908958 0.113574244 -0.4278867 -0.115683705 -0.38728842 -0.06946333 0.02619776 -0.3317525 0.42767718 -0.10713328 -0.011411044 -0.5639425 0.14884986 0.23435803 0.15332446 0.0038744477 0.3524939 0.04433742 -0.37659934 -0.044268988 0.027705988 0.13977633 -0.34575218 0.025304483 0.3188758 -0.32496226 -0.019581204 0.002614653 0.0687663 -0.020332957 -0.43091732 0.023781264 0.06647513 0.086230256 -0.07511282 0.28132185 -0.47207537 -0.12568845 0.46403816 -0.07446274 0.46361265 -0.032667916 0.043964487
countries -0.09805562 0.7101336 0.3296568 0.48256782 0.61407244 0.69912016 0.40887186 0.29696172 -0.4302846 -0.2421659 -0.04486665 0.30363107 0.23684919 0.278917 -0.28581327 -0.58412457 -0.83797216 0.43732315 0.25634167 0.321683 -0.11444707 0.11880777 -0.39818436 1.252169 -0.22329085 -0.7802704 -0.08938215 -0.7954793 -0.7635406 -0.15445721 -0.53614664 0.40452385 -0.53475153 0.41313368 0.036061764 0.33990246 0.2891512 0.25372908 -0.07646234 0.61722666 -0.0944086 -0.44455558 0.25376618 -1.4090601 0.20459993 -0.2144865 -0.2760898 -0.4112466 0.7408632 0.22929427
other 0.28042674 0.39879358 0.24202707 0.3092029 0.38090992 0.061805107 0.34773585 -0.18947074 0.091897935 -0.3517713 -0.003753293 0.90275615 0.63814163 0.5388551 0.07072425 0.026678396 -0.36238462 0.2770273 -0.49544027 0.15470475 0.30229694 0.24220039 -0.25314412 0.6969765 -0.20709832 -0.49124795 -0.09132838 -0.33109772 -0.38654068 0.17712854 0.20185798 0.33589223 -0.44095844 0.14307614 0.47599706 0.08683026 -0.043647088 0.008860071 -0.051265255 0.5454993 -0.26734778 -0.31261113 0.2190779 -0.63668483 -0.5548945 -0.25414258 -0.29206118 0.25685602 0.35017514 0.42616093
than -0.14932822 0.06528829 -0.09361154 0.08730185 0.32457435 1.1562452 0.25027198 -0.59583354 0.6451577 -0.5959421 0.35791576 0.19871767 -0.23846577 -0.25307924 -0.06722201 -0.05652457 0.07898041 0.013155777 -0.19180484 0.003959618 -0.2849676 0.82357126 0.044880092 0.7261905 -0.25922716 -0.3783082 -0.33835837 0.2020232 -0.07241078 -0.42812788 -0.14674352 0.815169 -0.6044107 -0.05372214 -0.14265585 -0.5456648 0.24595214 0.14418262 0.39554378 0.20577379 0.38875207 -0.26300666 0.10551919 -0.5192984 -1.0088999 0.061968282 -0.0871033 0.2576049 -0.16432369 -0.6450512
Britain -0.14169101 0.8370155 0.2679694 -1.1176856 0.39346293 -0.0015569673 -0.11105713 -0.73402363 -0.18785244 -0.18325542 -0.46684596 -0.5117063 -0.09706951 -0.019789778 -0.8057646 0.5287285 0.27139157 -0.3389615 0.64770854 -0.3907659 0.00020444828 -0.5652308 -0.4375498 0.21064402 -0.11689158 0.06063496 -0.44403794 -0.13957657 -0.41355488 -0.6506941 -0.41728956 0.058440585 -0.80447686 -0.47051963 0.19966461 0.73027 0.23033638 0.36532733 0.27924004 0.55908835 0.03679712 0.19320206 0.58008826 -1.4529691 0.014090749 -0.0071952892 -0.051907934 0.16764586 0.20781802 0.53949946
was 0.09445872 0.12274087 0.13743319 0.10545564 -0.08856474 -0.12373235 0.34761748 -0.106940635 0.3691047 -0.47788146 -0.2789681 0.0754361 -0.18300873 -0.18818186 -0.25441742 0.36253467 -0.44496822 0.4986964 -0.53088856 0.06098134 0.12138118 0.046696976 0.005450067 0.271498 -0.18457627 0.12074861 0.12269082 0.3041365 -0.41537276 0.02597467 -0.24725719 0.12796798 -0.36643726 -0.18314196 0.18719082 -0.019064547 0.11657992 -0.18222079 0.09344076 0.064653926 0.048068292 0.0004292037 0.24241701 -0.04860419 -0.41042274 0.4930865 -0.23089166 0.3816193 -0.42404172 -0.13772395
" -0.01544512 0.3303421 0.16657776 0.32937804 -0.08437771 -0.047072116 0.31833798 -0.36114174 0.19432199 -0.52689797 -0.0054608607 0.12431695 -0.020925004 -0.17680776 0.31311715 0.091871575 -0.31642726 0.42742005 -0.1859694 0.22215466 0.063372046 0.4030627 -0.18991266 0.25688854 0.2317941 -0.41300902 -0.29125234 -0.07378476 -0.4643866 -0.24034293 -0.30025882 -0.0065450673 -0.2924548 -0.16483289 0.14449123 -0.09570313 0.11339081 -0.054005705 0.061948016 -0.12568723 0.28274906 0.49272802 0.41617906 -0.085972935 -0.059284676 0.059046894 -0.005749681 0.3679196 0.004640535 0.10027363
We -0.1300352 0.15518191 0.10880837 0.3024056 0.16110185 0.37416542 0.35764205 -0.26242563 -0.1443773 -0.44485936 -0.22710109 0.33583567 -0.13520065 0.49210238 0.29194477 0.4234908 0.02120615 0.5356859 0.26904085 0.52324533 0.41196737 0.2791429 -0.32370904 0.8253263 -0.6127373 -1.1556154 -0.5057744 0.52788496 -0.79322344 -0.6251184 -0.16293703 -0.227243 -0.67370576 -0.366846 0.11476948 0.12189137 -0.42262787 -0.23778597 -0.21414237 -0.0420657 -0.090986624 0.98940474 0.68413347 -0.44185463 -0.25608805 -0.47380674 0.13921213 0.3315261 -0.4232436 0.5685695
do -0.21910109 0.6974842 0.7684122 -0.24791233 -0.33457136 -0.08232903 0.6491672 -0.4794026 -0.079683445 -0.42605644 -0.0799135 -0.12310586 -0.051157795 -0.10632428 0.9038503 0.2474572 -0.27876303 0.4365389 -0.17409922 0.17212874 0.114750646 0.3740946 -0.20061675 0.5348006 -0.020313095 -0.5667027 -0.73116916 0.40669158 -0.5628318 -0.1694043 -0.46620783 0.14403445 -0.3473705 -0.25087118 -0.5323386 -0.22976418 -0.09525404 0.2323389 -0.35859093 -0.18008317 -0.21185833 0.9940239 0.50491685 -0.61059 -0.41355073 0.09656406 0.24120055 0.77342576 -0.01904256 0.2896174
n't -0.22190566 0.80632776 0.7985975 -0.55072796 0.029318823 -0.4556205 0.41996852 -0.34016603 -0.582767 -0.67303044 0.13134493 -0.25099984 0.17294645 -0.5107744 1.0316024 0.5967585 -0.41776899 0.39015543 -0.8510882 -0.27684483 0.11816159 0.755009 0.23361991 0.8718183 -0.028229417 -0.3230151 -0.56119466 0.53871244 -0.4228021 -0.3287595 -0.8604666 0.32399967 -0.35081518 0.2535087 -0.18086034 -0.10013415 -0.6908045 0.05179163 0.12094101 -0.2685939 0.15310682 1.6185935 0.27755517 -0.37385672 -0.22297521 -0.16608535 0.23523934 0.66437227 -0.008939452 -0.1517407
support 0.09974395 0.2973295 0.38852572 0.096198365 -0.47807893 0.11415159 0.6800115 -0.10436697 0.553595 -0.64662766 0.11206249 -0.16596676 0.54897225 0.19156834 0.00026612962 -0.39496824 -0.50261605 0.116012655 -0.69526094 0.453021 0.66762376 -0.51843405 0.1221114 0.7342804 0.004032925 0.003930308 -0.91621274 0.38362026 -0.12902021 -0.3457902 -0.22627875 0.13617302 0.11460884 -0.32752943 0.12279658 0.07310877 -0.055711847 -0.13721278 -0.2558713 0.35863402 0.0007159037 -0.25645193 -0.16905992 -0.6513974 0.32630458 0.06112453 0.13726766 0.2008088 -0.08408657 0.117799126
any -0.2520369 -0.30154368 0.28188813 -0.10060405 -0.073995374 0.15782194 1.0593804 -0.7133423 0.56325865 -0.7213516 -0.22764902 0.34837124 0.38076335 0.117895044 -0.3495701 -0.19958428 0.109484844 0.70215344 -0.37738648 -0.025239963 0.15641758 0.55118597 0.3316808 0.6541886 -0.052315716 -0.38242996 -0.603734 0.47918054 -0.8825001 -0.12803355 -0.29418388 -0.4547381 -0.54446924 -0.021333048 -0.031141212 0.19662324 -0.31108466 0.08188197 -0.48393112 0.34724084 0.020786203 0.40707716 -0.026232176 -0.38855958 -0.033540312 -0.054685175 -0.16500655 0.24775732 0.20446426 0.5297707
such 0.20972389 0.94626075 0.5664513 0.65734434 0.28247875 0.15687937 0.6806441 0.12623288 0.28515226 -0.3256932 0.48433185 -0.035532936 0.33611307 0.10460791 0.23281465 -0.82041365 -0.59569865 0.025217913 -0.6788166 0.10596187 0.48230952 0.1605911 -0.34337673 0.77775097 0.4858737 -0.11827439 0.06808052 0.02198159 -1.0157793 -0.67830515 -0.2470449 0.37400582 0.087582186 0.29810134 0.014329519 -0.5302593 0.56077015 0.26506183 -0.70409 0.24936031 0.2753818 0.57133377 0.15745209 -0.5507852 -0.5400966 0.4501321 -0.05485697 0.53260255 0.03497799 0.036660608
because -0.034599118 -0.11180218 0.65774447 -0.1300897 -0.13882494 0.444709 -0.0021548418 -0.59572107 0.29846048 0.04729563 -0.03311334 -0.1259475 0.36555758 -0.17999107 -0.7628618 -0.052744024 -0.019045504 0.20456709 -0.2520348 0.5298191 0.25533575 0.07091816 -0.12605451 1.0421479 0.39656544 -0.44292524 -0.16579513 0.34015185 -0.5427592 -0.40494674 -0.08888491 0.14157832 -1.1316333 -0.46572423 -0.21968947 -0.0019200988 -0.5115067 0.2970291 -0.46242696 -0.1879727 0.5444306 0.52015644 0.1322057 -0.37455362 0.21188296 -0.025056638 -0.029260164 0.5699946 -0.038241435 0.09438586
we 0.39750692 -0.07015484 -0.14650643 0.21218473 -0.23182243 0.3972596 0.572526 -0.52089745 0.1236221 -0.65691173 -0.35582218 0.351788 0.10690969 -0.0037373048 0.8258583 0.5195716 -0.5390448 0.08882379 0.085685365 0.061497156 0.286238 0.5540854 -0.06910583 0.5752646 -0.21889581 -0.61360216 -0.947699 0.23281416 -0.74213135 -0.3193895 -0.4276937 -0.16589119 -0.4762878 -0.24240617 0.17911828 -0.35456187 -0.53696775 0.07029417 0.08585523 0.3810242 -0.03152235 0.8006297 0.3443354 -0.54970944 -0.7074349 -0.115363576 0.06933684 0.37318495 0.09427246 0.10251607
see -0.019442543 0.15651879 0.36956382 -0.46791956 -0.49978703 -0.3400084 -0.10472301 -0.6344573 -0.36540812 -0.8241014 0.6406356 -0.122766666 0.3702551 -0.33354545 0.686111 -0.22752377 -0.35765538 0.41436115 -0.5830079 0.1948484 0.5675926 0.56921107 -0.12124131 1.2490759 0.045395054 -0.15793167 -0.554287 -0.22646686 -0.34670147 -0.36566067 -0.22169578 -0.05951738 -0.6528639 -0.16254534 -0.39968777 -0.89055544 -0.4968152 0.0784892 -0.27467915 0.5154635 -0.07358703 0.50120324 -0.28072315 -0.6822057 -0.3680549 0.2369055 0.2094264 0.47872183 0.22136755 -0.21897233
for -0.10088778 0.033876613 0.059198286 -0.017291129 0.023443993 0.12250925 0.0148472665 -0.42335194 0.5190561 -0.15404142 -0.08626262 -0.050389532 0.11480505 0.023502551 -0.28701878 0.23803566 -0.18674344 0.6694107 -0.53758645 0.08078896 0.4247249 0.11462873 -0.08429379 0.37440675 0.045998324 -0.26490766 -0.17500237 -0.020231368 -0.065572955 -0.37718293 -0.12534222 0.010583104 -0.16821192 -0.12782528 -0.022934632 0.12052931 0.16156262 -0.37359405 0.14587048 0.17409158 0.1014075 0.006880235 0.092459045 0.057353005 -0.10076147 0.31017473 0.06295166 0.18621926 0.31509346 0.094589174
, -0.2434374 0.06317153 0.21064314 -0.32889602 0.034082253 0.025484726 0.04458015 -0.37804413 0.05446835 -0.12712048 -0.123102136 0.094624646 -0.16788347 0.09208648 0.06341716 0.13548304 -0.13460466 0.51006687 -0.5651125 0.18756141 0.16477367 0.08461154 -0.06964346 0.0040850462 0.003131888 -0.26858172 -0.035668567 -0.15983278 -0.183304 -0.20441093 -0.14569104 0.16675733 -0.17906019 0.032577317 0.38640106 0.124837466 0.23279247 0.07054008 0.3770042 0.14429268 0.18622385 0.055218216 0.15369219 0.060474936 -0.0323195 0.10104663 -0.22268854 0.14336333 0.2801729 0.05484513
chief -0.40328446 0.71946937 0.101899326 0.09690912 0.015657393 0.0030712846 1.0458443 -0.3113232 0.15489832 -0.7168304 0.5447907 -0.25891703 -0.22677566 -0.25893268 -0.14612477 -0.91241044 -0.93290955 0.2448549 -0.20712955 0.23711206 0.41974023 -0.0626905 -0.13321729 0.29624334 0.3871183 -0.08538269 -0.08579586 -0.3379544 -0.14676872 -0.20056827 -0.6015492 0.7643695 -0.76936007 -0.18399645 0.544165 -0.04369326 0.66780347 0.694874 0.16505681 0.166911 0.5381541 0.18031575 -0.12217116 0.63365227 0.3469884 0.8165248 -0.72790366 -0.0977452 0.13506517 0.096502356
spokesman 0.28340435 0.31245378 -0.19957541 -0.041524805 -0.98878366 -0.4877375 0.9549941 -0.28768712 0.16007718 -0.83867943 0.14293557 0.1311841 -0.29826608 0.15532069 0.02160612 0.0038560552 -0.29669893 0.12714382 -0.13184465 0.3329531 0.2839553 0.18963724 -0.44642064 0.31204644 -0.1539776 -0.31223893 -0.23632598 0.05417761 -0.43666902 -0.11890245 -0.14000241 0.061096206 -0.40408581 0.22557816 0.58787894 0.47379544 0.9009746 0.04579749 0.09303915 -0.49288294 0.62543327 0.42954886 0.9360179 0.13113338 0.57630473 0.70624644 -0.28879544 -0.10342104 -0.42037773 0.22396548
van 0.7798066 -0.31623533 -1.030447 -0.6985921 0.07324543 -0.21348305 -0.111953884 0.083053425 0.045537837 -1.0869243 -0.012465201 0.6987919 -0.89049137 -0.91660583 -0.20126086 -0.0301645 -0.28511912 0.25741655 -0.28762743 -0.1946449 -0.43833253 -0.7983769 0.26988137 0.4895559 -0.65600693 0.7463051 -1.3824918 0.55473465 -0.8803372 0.06550649 -0.53309685 0.13309738 -1.1799457 1.473688 0.5906057 -0.12889937 0.30747843 -0.28010997 -0.21032849 -0.82810163 0.7598087 -0.57214874 0.2752525 -0.44929948 0.41819045 1.0117075 -0.36071703 -0.598534 -0.01601888 0.22938915
told -0.006291556 0.6351072 0.35494614 0.2689257 -0.20124671 -0.103838906 0.5555847 -0.05612416 0.49100566 -0.61873835 0.25452113 -0.20014589 -0.32185757 0.16604345 -0.025290605 0.3412752 -0.7176806 0.52698123 0.00779517 0.7703447 0.066606365 0.3021731 -0.20828645 0.13426769 0.4322414 -0.41002318 -0.0036650493 -0.637495 -0.66763264 0.007643899 -0.32879284 0.03164403 -0.8435003 0.018224498 0.19043131 0.4878723 0.096053086 0.06632615 0.075785376 -0.6060963 0.20174673 0.30086803 1.2900308 0.16758151 0.43069875 0.3355733 -0.18730982 -0.07179824 0.025017247 -0.07103831
a -0.04569343 -0.074704364 -0.07573439 0.10073783 -0.18473515 0.28824943 0.15473785 -0.22011136 0.4939176 -0.49214 -0.19615988 -0.049721997 -0.17111956 -0.22056134 -0.32796788 0.30854586 -0.42145586 0.25600377 -0.32142034 0.20190497 0.20378965 -0.09725517 -0.18509899 0.2533176 -0.030804265 -0.1348013 0.027650798 0.06851125 -0.29153368 -0.27220824 -0.19447447 0.026580432 -0.3047549 0.13441153 0.26469606 -0.0014544505 0.12379634 -0.2500418 0.010181992 0.30028883 0.10571202 0.1902626 0.24433914 0.077824704 -0.22290887 0.13776721 -0.18095557 0.43606538 0.0812407 -0.016730404
news 0.29705033 0.28702903 0.11877875 0.23460908 -0.31306052 0.6519605 0.7848537 0.11509246 0.43874702 -1.2371424 0.18943934 0.23026948 -0.52029073 -0.044790298 -0.08249297 0.46519926 -1.2788409 1.1481616 0.4998675 -0.09127796 0.07018516 -0.025003085 -0.48350444 0.32831728 -0.039345115 0.06790539 0.015639186 -0.21255639 -0.50075185 -0.169014 -0.12747823 0.16808622 -0.54673064 0.32772347 0.20154794 0.39111117 0.23169468 -0.2842533 -0.16154528 0.038800538 0.519139 0.66993517 0.31929973 0.23179257 0.24752477 0.2264517 -0.19851461 0.1566682 -0.04044444 -0.21200332
He 0.12953423 0.26006183 0.37908015 -0.037581388 0.3102913 0.22332652 -0.07717564 -0.25445864 0.2678355 -0.5277111 -0.065548085 0.5620548 -0.27585742 0.04586411 -0.3944877 0.32212424 -0.6612064 0.2832386 -0.28687832 0.44563624 -0.17426892 -0.6051266 -0.50957143 0.8308131 -0.11936587 -0.80772775 -0.07235536 -0.008920489 -0.4205701 -0.06468888 0.048036262 0.18667738 -0.34759992 0.25964838 -0.03945829 -0.054644484 -0.02714534 -0.37071878 -0.071542434 -0.08180123 0.46728963 0.44925538 0.51976156 0.37632206 -0.11066813 0.2581353 0.27388638 -0.019994374 -0.57490635 0.42160314
further -0.06266617 -0.14568907 0.19103146 0.36094385 0.2453117 -0.2163851 0.6188267 -0.41169333 0.69870925 -0.9609551 0.2540586 -0.2142463 0.053459793 0.20373794 -0.14746338 -0.50765455 -0.46790314 0.21793169 -0.56299466 -0.69831157 0.35582712 0.22698821 0.10191859 1.0122856 -0.1878607 -0.63284296 -0.34724492 0.37678313 -1.0204026 0.66901183 -0.6316625 -0.98698103 -0.46135306 0.32756588 -0.25766754 -0.40694663 0.0018407855 -0.5613364 0.036873765 -0.1406487 0.23873371 0.05537756 -0.13166973 -0.71396756 -0.18231127 0.8886257 -0.21866545 -8.264328e-05 -0.57489413 0.0701196
study 0.459426 0.76472723 0.52752215 -1.2036172 -0.14886127 0.3293621 0.55453837 -0.56651527 0.8561117 -0.8995852 0.07822936 -0.73264086 -0.038217798 -0.4546856 0.17175649 -0.023626897 -0.8169112 0.37368128 0.75759983 -0.40484822 -0.8461732 0.04471998 -0.22312266 0.56510943 -0.013884983 0.33597133 -0.17276146 0.71720034 -0.080583796 -0.30344412 -0.37570518 0.5192348 -0.58011013 -0.025632668 0.03462905 -0.4145668 -0.07364322 0.06582069 -0.010281939 0.58301497 -0.21738526 0.22641213 0.6537187 -0.9069103 0.29201794 1.0339571 0.15178725 0.39374477 -0.29466543 -0.1610041
and -0.19929639 0.08069979 0.109446175 0.040528443 -0.019480066 0.024054866 0.118442215 -0.21521766 0.31028846 -0.1647588 0.081531525 0.015157707 -0.029255414 0.10124799 -0.14323485 0.097373396 -0.19518963 0.23112822 -0.46596366 0.34123304 0.42724475 0.037292305 -0.23130174 0.39333725 0.021797225 -0.3038883 0.011841603 -0.072796315 -0.12223956 -0.18315735 -0.053754106 -0.00071293133 -0.33163893 0.0542985 0.2606916 -0.11694239 0.18629427 0.0004227151 0.15879475 0.2902972 0.2884382 -0.045228217 0.17073603 -0.18657558 -0.07968631 -0.079300314 -0.027584134 0.353286 0.13751142 0.18892175
if 0.2848746 0.37447876 0.6981686 -0.33462822 0.18201482 0.7561152 0.3544584 -0.6887697 0.5721574 -0.11533386 0.5487176 0.0252917 0.05517921 0.37702712 0.3489364 0.00086475344 -0.6916753 -0.2213016 -0.13011517 0.6414538 0.48981574 0.48798162 -0.20920767 1.0788585 -0.10976331 -0.3253989 -0.545319 0.3479232 -0.71618056 0.2362141 0.08532169 -0.16885582 -0.55357784 -0.08543794 0.15246406 -0.15953317 -0.16854239 0.09034278 -0.32085034 -0.41010347 0.47082895 0.5958475 0.18274891 -0.38494816 -0.35918075 0.46042117 0.21315642 0.19778682 0.3156445 -0.1018518
found -0.22438504 0.5713854 -0.6282384 -0.12689099 -0.30039766 0.35608074 0.59794056 0.36961505 0.380657 -0.43965045 0.20741981 -0.50896573 0.074940264 0.43999255 0.12793685 0.41147062 0.029754354 0.058829125 -0.55537206 0.13265409 -0.32497978 0.07161651 0.22816299 0.37792593 0.3942338 -0.3641782 0.1427754 0.078542374 -0.56414944 0.18503202 -0.40314817 0.8374509 -1.5367532 0.15446427 0.33171344 0.1063349 -0.061131284 0.03688561 0.59721947 -0.08433448 -0.5289626 -0.07390776 0.73700094 0.061660618 -0.087657385 0.23867111 -0.92949295 0.23941751 -0.87608874 -0.053377837
that -0.032192964 0.14539681 0.11811165 -0.15701373 0.027358977 0.32292697 0.41175768 -0.16493817 0.5688436 -0.70571136 0.08042349 0.28472754 0.02369801 -0.10135872 -0.14748847 0.0555296 -0.2761702 -0.046430297 -0.3692888 0.2756159 0.03113196 0.24598838 -0.322486 0.5367366 0.14128552 -0.3247247 -0.33210185 0.0070867306 -0.5370239 -0.20460075 -0.08604736 -0.145137 -0.20786552 0.05609647 0.30015463 0.08153903 0.07817196 -0.0017099327 -0.04133018 0.28674418 0.1127805 0.35865974 0.2557569 -0.08643745 -0.098172374 0.046808675 -0.03922632 0.42662606 -0.16766518 0.06994598
action 0.41645074 0.75509965 0.19521606 -0.43994024 -0.22370426 0.04895144 0.28273085 -0.62337023 1.2068068 -0.32184607 0.021151382 0.30605778 0.30246088 0.37077612 -0.12213463 -0.20332561 -0.8840668 0.29902607 -0.104852915 0.16371629 0.19701213 -0.13988653 -0.5494867 0.88549024 -0.24657586 0.4386621 -0.65002644 0.30179176 -1.28933 0.15304852 -0.15116154 0.43402845 -0.26564303 0.3086099 0.45713723 -0.34795794 -0.21644212 -0.122173674 -0.37660018 -0.20356579 -0.47309443 0.23900136 0.107686125 -0.7235253 0.3198393 0.22353545 0.15693448 0.42596483 -0.085168205 -0.26516822
needed -0.018284973 0.056878157 0.5644341 -0.019835683 -0.12331904 -0.06532316 -0.08030897 -0.11382624 0.3811289 -0.0662763 -0.03787868 -0.15627985 0.51350266 -0.27653185 -0.16835983 0.5166401 0.03423064 -0.19174138 -0.46718374 0.40085405 0.6218468 0.2832794 -0.4559495 0.6788318 -0.16683364 -0.4229064 -0.30439225 0.44251084 -0.22718991 -0.14997275 -0.11161857 0.3105837 -0.3194043 0.9687111 0.16611414 -0.14283395 -0.5382515 -0.24401847 -0.0065858397 0.8244338 0.04213826 0.04346386 0.64598715 -0.45567656 -0.11275601 0.82994235 0.24576727 -0.12556279 0.49996108 -0.101009056
taken 0.05341056 -0.48423514 0.03868291 -0.16786717 -0.38074598 0.8439932 0.746045 -0.38326812 0.21365334 -0.28896394 0.03062185 -0.25335887 0.548871 0.62329865 -0.20228457 0.25375363 0.1457368 -0.43180996 -0.043853678 0.48921725 0.14057626 0.526844 -0.013189911 0.63093746 -0.1931676 -0.06786204 -0.3585057 -0.070791565 -0.6082709 -0.19362259 0.28363124 0.3305972 -1.2662172 0.74001634 0.122633666 -0.040074755 0.29790956 0.21720743 0.6439198 0.271524 0.3514234 0.1658227 0.89627415 -0.23529021 -0.530114 0.47374147 0.41874218 -0.19182087 0.65666366 0.080936186
by 0.06034297 0.00024010369 0.16369683 -0.016256703 0.063311525 0.028611336 0.102413975 -0.3424017 0.533173 -0.1521916 -0.03787237 0.028053496 -0.23527521 -0.15505579 -0.37329808 -0.049727377 -0.2421073 0.17367035 -0.3803546 0.19943309 0.28193757 -0.17179424 -0.112160355 0.24557935 0.21608719 -0.015128391 0.22305088 -0.22827464 -0.10683676 -0.39491597 0.2826755 0.13477442 -0.5459289 0.17681497 0.07796517 0.22524795 0.13389042 -0.07666982 0.0022341183 0.107779354 0.23811497 0.29445475 0.14276727 -0.17268325 0.041665953 0.26894158 -0.24576652 0.5948378 0.18886432 -0.15636438
proposal 0.65409267 0.47721237 -0.047248825 0.194579 -0.54535735 0.6426274 0.062469386 -0.5834596 0.64498657 -0.27422437 0.090716854 -0.04815075 0.084748924 -0.28438634 -0.44771165 -0.8478807 -0.34556958 0.12918603 -0.13877387 0.24832445 0.46072784 -0.9050476 -0.4561338 0.50226164 -0.14950116 0.047577072 -0.8278213 -0.22873926 -0.8706029 0.09533192 -0.8260104 -0.2572248 -0.9895099 0.23167421 0.4450928 0.22225623 -0.19878122 -0.6866366 0.024859771 0.2074538 -0.7264339 0.35308087 0.22930962 -0.9708366 0.18271154 0.64167684 -0.0026014422 0.74276584 -0.6239825 -0.19816439
last -0.13498367 0.112995535 0.4374172 0.47757217 -0.24318212 0.20549923 0.35538453 -0.28469238 0.2728469 -0.05396708 -0.05277331 0.22879201 -0.30068895 -0.6108352 -0.49733472 -0.11946412 0.058545526 0.20587805 -0.62976253 -0.07292855 -0.4354204 -0.3252151 -0.32331207 0.61084324 0.049356773 -0.34915236 0.042718895 0.014399585 -0.06909599 -0.33895797 0.08655397 -0.24274985 -0.52047926 -0.19574295 0.1125771 0.3042335 0.28313208 -0.10292523 0.49588853 0.07247066 -0.0535442 -0.278443 0.24986903 -0.2232156 -0.23144798 0.06841958 -0.24667813 0.51828504 0.46161962 -0.5389192
month 0.4454868 0.16068494 -0.21291387 0.8194278 0.05366296 0.34887207 0.75211436 -0.22157806 0.14422199 0.2818751 -0.2414427 -0.56546867 -0.3048444 -0.52715224 -0.30383226 -0.09204169 -0.5983187 0.41415825 -0.21572979 0.464831 -0.20359898 -0.37746012 -0.7646996 0.66108364 -0.102111496 -0.27484697 -0.16515593 0.29462177 -0.3568317 -0.19358516 -0.14863363 0.086894795 -0.33778527 0.5201991 -0.03162321 0.39673597 -0.17319676 -0.3344596 0.79187566 -0.06993032 -0.7036537 0.3868441 -0.06826629 -0.3036136 -0.27192986 0.685217 -0.7275593 0.5146691 0.19763601 -0.5802299
ban -0.2449276 0.17941521 -0.023216413 -0.892232 -0.15579602 -0.08285198 0.5053859 -0.70895237 0.70536155 0.0366973 0.054835342 -0.6286353 0.28814584 -0.53274596 -0.67156607 -0.63429374 -0.45467567 0.48064393 -0.36172 -0.024504632 -0.37309787 -0.0870019 -0.20342083 1.1207521 -0.2080602 0.09104518 0.28407496 0.04578865 -0.8249386 -0.44551265 -0.5382335 -0.36207125 -0.24396601 -0.016526263 -0.18962084 0.21725819 -0.014179667 -0.25182992 -0.5584513 -0.38496324 -0.10096772 -0.05023746 0.2073631 -1.208722 0.47486848 0.56785387 0.25509733 0.264529 0.44747096 -0.25962585
human 0.99780107 0.60251224 0.18565565 -0.46797234 0.2513555 -0.35318035 1.2867314 -0.30817342 0.49751207 -0.18761282 -0.24352482 -0.6292702 0.7363718 0.15350233 -0.3247813 -0.63304377 -0.2041089 0.417526 -0.44391108 -0.16677576 -0.37694252 -0.74471474 0.59790885 1.1373732 -0.32273248 -0.3994554 0.39211065 -0.06889983 -1.1067138 -0.43617865 -0.6698768 0.67310256 -0.413297 0.36147904 0.009862584 -0.1075044 -0.07689557 -0.54961044 -0.5012712 0.7856543 -0.20799445 -0.121782444 0.7559106 -2.2157536 0.65510607 0.10188949 0.55213577 0.10160733 -0.54572433 0.44897944
food 0.25002432 0.44288284 0.51789105 0.2510228 0.37439853 -1.1321422 0.9681307 -0.319672 0.28119367 -0.20704307 -0.239618 -0.14209057 1.0209782 -0.016596433 -0.37201878 -0.00036116256 0.16745082 0.3311957 -0.4588536 -0.2965747 -0.5609457 -0.037172932 -0.37690467 1.1427963 0.76436853 0.031389568 0.44352916 -0.058395904 -0.23777911 -1.2895439 -0.3160561 -0.06337415 -0.5840383 0.17224173 0.09508159 0.0750863 -0.56283784 -1.4356295 -0.12672131 0.38014466 0.48462838 -0.5012071 0.9774584 -0.94509727 -0.019563124 0.39359343 -0.059630334 -0.15249471 -0.53947395 0.2060896
move 0.74697757 -0.4583145 0.7862692 0.18205327 -0.21399319 -0.12886196 0.5020709 -0.16280323 -0.3633149 -0.09132234 -0.552975 -0.65806675 0.2186715 0.58389646 0.5187051 -0.22294462 -0.25517145 0.32869828 -0.7343102 -0.052314892 -0.063516684 -0.25475225 -0.110091016 0.66898686 0.3238979 -0.5114102 -0.5770083 -0.25549343 -0.62581104 -0.6347668 -0.59458804 -0.07119038 -0.49278396 -0.86633027 -0.34082007 -0.24591146 0.2657084 -0.8442827 -0.09709764 -0.0007183722 0.18191274 0.16412118 0.61736554 -0.29075992 0.7077024 1.1081238 0.5354552 0.84488297 -0.19739021 0.18115781
health 0.5558185 0.49235654 -0.0049202014 0.31205413 -0.13551617 -0.21274501 1.1024177 -0.29286987 0.45616603 0.20294887 -0.17630595 -0.093796596 -0.1609785 0.38562927 0.018170787 -0.6732012 -0.65515554 0.71382177 -0.40250087 0.1301983 0.42541432 -0.9676391 -0.06770419 0.575625 0.33423153 -0.34492916 0.42793944 0.5010598 -0.6818625 -0.60054475 -0.87154526 0.2537703 -0.020780362 0.23765789 0.45513612 0.4472021 -0.13504972 -0.40755644 0.14777784 0.38210353 0.12012588 0.87549394 0.88905203 -0.8778944 -0.08457278 0.89667654 0.4535101 -0.10077675 -0.47348306 0.8680148
proposed 0.7143856 -0.22403859 0.42559862 0.4599557 0.44351304 0.6530881 0.48296311 -0.7232888 -0.046241138 -0.320625 0.31392968 0.22273785 -0.43639532 0.20987408 0.5265023 -0.9644913 0.061680686 0.15395206 -0.4413776 -0.08367294 -0.03701842 -0.51322085 0.12722285 0.76700944 0.25734243 -0.15064085 -0.20081145 -0.122932985 -0.97982496 -0.21373174 -0.83312315 0.18378954 -0.56201404 0.69007593 0.035491038 1.108774 0.22290018 -0.9343162 -0.30391738 0.54250234 0.06816329 0.10141111 0.8634337 -0.9802072 0.17306054 0.67558 0.22077943 -0.42732075 -0.12738398 -0.50357103
measures -0.1163008 -0.23445019 -0.10916629 0.20170254 -0.24000913 0.017985366 0.58604115 -0.44855052 0.69013935 0.3575877 0.089147285 -0.79573005 0.21277013 0.0879153 0.34581295 -0.24067402 -0.83756137 -0.049240064 -0.4983955 0.8616747 0.23467332 -0.80703276 -0.62962484 0.68471235 0.1344661 0.02372856 -0.3974949 0.11607534 -0.80768704 -0.077150285 -0.6739197 0.41907525 0.18710053 -0.21268746 -0.383548 -0.17811075 -0.28040364 -0.53149915 -0.23367207 0.9207303 -0.08663053 -0.15674219 0.61424816 -0.8942874 -0.36853972 0.35774863 -0.41279888 0.4270006 -0.025502197 0.2822625
after -0.033853285 0.22626318 -0.5108606 -0.22329259 0.11899402 0.21212865 -0.08996004 -0.31040782 0.31566304 -0.04088039 -0.2093736 -0.42869195 -0.5309461 -0.37959895 -0.5246416 0.15513593 -0.19659889 0.07896786 -0.67033076 -0.040513024 0.17424941 -0.15455973 0.0022694345 0.6790618 -0.121762946 -0.11711357 0.292808 0.12057062 -0.16498227 -0.0105304755 0.16207473 0.017142458 -0.5908136 -0.17527702 -0.023015764 0.5619861 0.09132683 -0.091443464 -0.057566576 -0.33321422 0.17555346 -0.15368041 0.6962983 -0.19332424 -0.22385915 0.029485201 0.071323656 0.56605715 -0.10738235 -0.08727125
reports 0.6424635 0.011494808 -0.09262742 -0.10905324 0.0097994795 0.20164727 1.6813916 -0.1297452 0.13338125 -0.77761954 0.2114703 -0.45680058 0.15282142 0.5685897 0.09910428 -0.40023655 -0.14806329 0.016019737 0.12101953 0.7214569 0.19429958 -0.14682609 0.02364311 0.33964378 0.3142322 -0.22330247 0.3202067 0.5603699 -0.9594471 0.005666881 -0.674273 -0.05548372 -0.65389323 0.23688824 0.8630193 0.7356942 -0.65644544 -0.045517046 0.11994027 0.36458308 0.2485496 0.2026025 0.51200444 -0.8289473 -0.080998674 0.5597217 -0.6619515 -0.09319668 -0.81665283 -0.124643
France 0.15379015 0.6050076 -0.21452864 -0.5419736 0.6374045 -0.35294262 -0.08480347 -0.71714485 -0.1453048 -0.16005293 -0.13888285 -0.4417151 -0.10848682 -0.0034863763 -0.14690484 0.17426263 0.26297155 0.06614504 0.051574282 -0.31848598 0.37268975 -0.5361574 -0.3367058 -0.055533696 0.73020536 0.38008738 -0.17515968 -0.53513795 -0.9603571 -0.41786906 -0.41540903 -0.35325712 -0.79206765 0.22551115 0.2447749 0.25604463 -0.14712869 0.19337273 0.12221662 0.5030968 0.5496269 -0.18778586 -0.14338815 -1.0154353 -0.36470246 -0.22875123 -0.37288257 0.3175023 0.31104138 -0.38708237
under -0.24784492 0.07280971 0.46573192 -0.3379 0.358715 0.11175326 0.6799021 -0.021606758 0.6184501 0.28757727 -0.59348255 0.2737631 0.43567607 -0.2278618 0.42418462 -0.37951663 0.3588753 0.49749175 -1.0133431 -0.19671682 0.15211876 -0.12224021 -0.027121127 0.11886386 0.06921156 0.14622055 -0.2015713 -0.16935292 -0.18354191 -0.12857823 -0.20872179 -0.2169793 -0.58583426 -0.008832029 0.22920476 1.3919249 -0.08594836 0.37238437 0.3216453 0.12134411 0.29352733 0.09014652 0.72485775 -0.45117894 -0.4157961 0.2654151 0.876223 0.6597373 0.4788271 0.13033108
conditions 0.7262354 0.17258075 0.6191288 -0.29031533 -0.46196082 0.92636937 0.78001606 -0.4249612 -0.22583392 0.29266173 -0.010851654 0.1659439 -0.25708467 -0.028221637 0.60122174 -0.48535502 0.020744974 0.18103483 -0.55480963 -0.049781587 0.18068267 -0.1690328 -0.2468921 0.8105053 0.6528597 0.27957684 -0.42939225 -0.16268726 -0.43753403 -0.32217234 0.11742932 0.26994696 -0.058270566 -0.88654697 -0.11774015 -0.4245384 -0.85628575 -0.47206908 0.18730967 0.030423468 0.8476329 -0.32256982 0.11953669 -1.1303052 -0.32660925 0.62732196 -0.44674745 0.084192105 -0.04901946 0.27065775
could -0.14105831 0.22983839 0.12396586 0.19491985 0.09138658 0.5355615 0.73565894 -0.5748705 0.032640558 -0.019797305 -0.3636681 0.18157713 0.08603043 -0.33415225 -0.112691216 0.21172786 -0.7530909 0.39566252 -0.16772403 0.34037843 0.751422 0.08700712 0.1226739 1.0638632 0.093054704 0.13987888 -0.2665612 0.22885628 -0.4452966 0.7128948 -0.08254378 -0.21814372 -0.15335311 0.27990633 0.19202045 -0.01624808 0.029620644 0.22312613 -0.1674752 0.122717865 -0.01632222 0.64248526 0.515824 -0.31672224 -0.21243337 0.7444968 -0.028528344 0.23471904 -0.19175997 -0.28595364
contract -0.34618282 -0.2978137 0.28182757 -0.7254048 0.08982389 0.7905199 1.0494207 -0.36283475 -0.28807068 0.11756916 -0.41865787 0.45334294 -0.37502593 -0.60955507 -0.062102884 -0.82163453 -0.37292707 0.4614764 -0.3096639 -0.617221 0.4191811 -0.6141254 0.12043634 -0.18517856 -0.26582155 0.2395423 -0.3458527 0.10433516 0.25774366 -0.4918126 -0.056198157 0.27204397 -0.72211707 -0.30429906 -0.094025336 -0.5639858 -0.0523873 -0.7828333 -0.12372776 0.94372696 0.4644068 0.5469671 0.74236053 -0.62990683 0.7824495 0.9929621 0.49137133 0.580211 0.31222093 0.1498776
( 0.007004076 0.43385625 0.02130415 -0.6986269 -0.059928767 -0.30547905 0.13206388 -0.3148552 -0.1658598 -0.13061273 -0.18700351 -0.23563385 -0.6135525 0.33336228 -0.20573564 0.034342762 0.40769038 0.7634939 -0.37182507 0.38435677 0.12977214 -0.5201714 -0.018786367 -0.36964482 -0.0828244 -0.4297523 -0.733653 -0.5701033 0.123547174 0.028186768 0.04613436 -0.20581028 -0.14178367 0.17339738 0.7087911 -0.0723877 0.25551903 0.05503381 0.17156337 -0.008813577 0.7791486 0.049041066 -0.3980658 -0.976617 -0.2850806 0.011373532 -0.34676054 0.5123681 0.0346935 -0.44714877
BSE 0.15834008 0.6683702 0.20081633 -0.9486072 0.10880375 -0.22368196 1.4353741 -1.0517136 -0.002969892 0.36843818 -1.0562528 0.3407101 0.41985902 0.21761258 0.42808786 -0.73886836 -0.6724485 -0.093377985 0.17057951 -0.0079148365 0.6996628 -0.29290152 0.07605588 0.48774472 -0.5323644 0.42635402 -0.90157187 -0.3670975 -0.80028415 -0.578669 -0.4375204 0.13387652 -1.0982348 0.66309273 0.34407744 -0.32062027 0.15113989 -0.8563262 0.43607053 1.3112445 -0.4968181 0.77034754 0.53834754 -1.4295577 0.41871467 0.18953861 -0.038428083 -0.23943159 -0.5530914 0.15318753
) -0.012268898 0.39565706 0.005698895 -0.68644947 0.017968893 -0.3102749 0.0177718 -0.3720673 -0.16906773 -0.12793979 -0.18183884 -0.2571339 -0.6243652 0.31489795 -0.119573586 0.078911126 0.35239804 0.7777193 -0.34169072 0.4495278 0.15197185 -0.54883903 -0.042029947 -0.29762867 -0.005680459 -0.37427154 -0.76078814 -0.57779086 0.11830858 -0.04989688 0.02413328 -0.20919524 -0.06126147 0.23287454 0.73725504 -0.20550773 0.3216741 0.10210885 0.23120014 0.0016504782 0.75873744 0.037272822 -0.41741663 -0.96046215 -0.3070604 0.060211238 -0.4661305 0.48085585 -0.004193448 -0.4072711
-- -0.5240411 -0.16163062 -0.08340803 -0.235987 0.54148215 0.21907465 0.15678304 -0.10649784 0.028191328 0.14323281 -0.44962275 0.19354136 0.18477297 0.072259255 0.8198147 -0.00096606597 -0.684721 0.5537421 -0.21318841 0.4332973 0.13166611 -0.3962934 -0.7667272 0.25833192 -0.04270537 -0.5854445 -0.20150965 -0.26752475 -0.561013 0.3952971 -0.02754384 0.84490895 0.026246706 -0.51069564 0.011800584 0.18350801 0.5864741 -0.5944122 0.69687146 0.13970326 0.088632554 -0.24183016 0.06264372 -0.22627361 0.0874613 0.14518392 -0.24109085 0.38932472 -0.15288126 -0.3969099
But -0.009731512 0.5034233 -0.021849021 0.062467646 0.053505417 0.5109933 0.4806555 -0.084859364 0.28832778 -0.35117418 -0.18153885 0.5593755 -0.38351187 -0.5532448 -0.11383644 0.085349165 0.03998095 0.14047834 -0.7045307 0.458683 0.15954942 0.023201415 -0.17470053 0.5837063 0.021392066 -0.5821251 -0.33748636 -0.08398886 -0.69837546 -0.17179188 0.0021550162 0.16549982 -0.78203833 -0.3564146 -0.2575097 0.15256289 -0.1633822 0.0063952673 -0.07548268 0.3563078 0.49325803 0.42887855 0.32820037 0.4893676 0.015283399 -0.08432279 -0.14027439 0.2736743 -0.4709768 0.32379594
agreed -0.34917012 0.7946244 0.51126015 -0.029204873 -0.8376108 1.023171 0.77656007 -0.5436 0.3961114 -0.48016474 -0.57764816 0.09954348 -0.39702007 -0.48292786 -0.24864297 -0.7305145 0.18888597 0.09329818 -0.05164728 -0.10267312 0.72988355 0.024447853 -0.8223046 0.51754165 0.47243994 -0.101890266 0.039482642 -0.9251518 0.102274895 0.19050898 -0.3527672 -0.008892699 -0.9087498 0.23995695 -0.41965935 0.15329279 -0.08727657 -0.067680806 0.22884227 0.22509766 -0.48469684 0.119263075 0.91857606 -0.56138754 0.2826527 -0.06856669 -0.39941064 0.40814435 0.10769235 -0.3682469
his 0.10540746 0.076315045 0.14846188 0.25631443 -0.41757518 -0.13040967 0.19786386 -0.148619 0.4866992 -0.45125684 -0.36207232 0.111755855 -0.1682241 -0.14972198 -0.7068502 0.6920599 -0.5334766 0.04090359 -0.4173883 -0.021689972 -0.010340521 -0.8791612 -0.38236445 0.10499964 0.027465764 -0.34593624 -0.2748913 0.37068272 -0.57581985 0.04749802 -0.29543495 0.06846471 0.17348726 -0.18160854 0.26741397 -0.2765393 0.25040182 -0.031656243 0.11510946 -0.017857568 -0.03402551 0.31390554 0.44117448 0.028223658 -0.3967333 0.034949865 -0.28133747 0.090878725 0.2823005 0.18233573
officials -0.21851473 0.2966505 -0.25425312 -0.16647433 -0.511926 -0.031717267 1.2826005 -0.23381288 -0.15458216 -0.07616327 0.16841537 -0.075505115 -0.24733907 0.24066773 -0.15451917 -0.12676008 -0.58307177 0.2924292 -0.6409442 -0.4023548 0.122815356 0.20344163 -0.3468754 0.49644005 -0.17539263 -0.56241417 0.082678616 0.1585861 -0.32606915 -0.42036963 0.2018921 0.3807763 0.29178298 0.25906202 0.28714824 -0.08548534 0.30681652 0.318217 -0.75143695 -0.05985085 -0.019391958 0.07978083 0.32833484 -0.3253019 0.07746965 0.7027337 -0.5949914 0.3695786 -0.3297708 0.083950855
questioned -0.15494666 0.7200546 0.29206818 -0.17550416 0.6483488 0.27556863 0.25332505 -0.84733266 0.77126366 0.26827046 0.27413994 0.26406735 -0.20920876 0.6597899 0.58707935 -0.40443307 -0.6767779 -0.21036276 -0.13196686 0.12009626 -0.3309617 -0.17796965 0.058502976 1.5099972 -0.035339467 -0.25330636 0.3656612 0.10830129 -0.6485322 -0.46660182 0.12977333 0.5801309 -1.0194879 0.1702031 0.6061557 0.9254132 0.57670027 -0.03381725 0.0026903495 -0.36381242 -0.43083587 0.35109526 0.89141846 -0.8639815 0.21663712 0.44392458 -0.69517744 0.21849164 -1.0024126 -0.33039537
as 0.5297398 -0.22748835 0.45064098 0.36757424 0.31343335 0.33028716 0.3035064 0.19472438 0.30344737 0.005490756 -0.051355068 -0.30968213 0.043069948 0.02536925 -0.27352306 0.13969983 -0.46726364 0.036452297 -0.4055711 0.3638309 0.2322293 -0.07371685 -0.35988283 0.44525334 0.268811 -0.12485238 -0.3449055 0.19429444 -0.6420999 -0.29266167 0.098150656 0.11468621 -0.4570274 -0.07722906 0.28532714 0.041708164 0.6879689 0.06600447 0.118466705 0.23680235 0.42678896 0.567867 0.16573863 0.35381323 -0.28734237 -0.023561023 0.1868994 0.61473846 0.32050532 -0.04111878
there 0.15218706 -0.09502163 0.1773741 -0.44510046 -0.121778615 -0.11368899 0.58699507 -0.41871014 0.27686808 0.05915625 0.5172837 0.36599794 -0.0001902619 0.11329414 0.13920087 -0.040062517 -0.5046956 0.497217 -0.37701064 0.049108952 0.13397518 0.575814 -0.3194778 0.60444903 0.4003732 -0.66452926 -0.33813515 0.28866175 -0.4290785 -0.2819056 -0.28331617 0.36016548 -0.8047836 0.03977681 0.22383456 -0.17178367 -0.09635474 0.09918294 -0.07474006 0.08657846 0.30474547 0.24040452 0.09693362 -0.4151364 -0.22669935 0.33863863 -0.08487144 0.23623522 -0.93604827 0.29092783
only 0.3315766 -0.09345703 -0.029994335 -0.1546044 0.028609568 0.13476425 -0.08586082 -0.11654294 0.38578188 -0.12833606 -0.15621383 0.015427831 0.28779078 -0.059604596 -0.05642834 0.49288338 -0.6269462 0.38770586 -0.3299282 0.22393768 0.21052654 0.08192855 0.16297007 0.4887754 -0.032073587 -0.4827499 -0.019555368 0.10589944 -0.22208437 0.114129834 -0.16797403 0.13286808 -0.24635385 0.33687314 0.13935652 -0.081796415 -0.051064983 -0.12356026 0.2239736 0.19661903 0.25573707 0.48678556 0.5112703 -0.28891763 -0.08017875 -0.14853479 -0.052172843 0.42294356 0.12378751 -0.051264133
risk 0.25316465 0.9076321 -0.037306048 -0.7649336 0.17534204 0.20516735 1.2672743 -0.2701297 0.893167 0.26964673 0.04739999 0.4802474 0.53896254 -0.30835268 0.67842865 -0.3999595 -0.3298777 0.36192557 0.23941372 0.11062772 0.4595607 -0.14047079 -0.094242506 -0.06830402 0.23174275 -0.2186744 -0.22400475 0.5449905 -0.82356435 -0.29050535 0.61595184 0.3729455 -0.4682254 0.005001235 -0.16052802 -0.014571922 -0.04524002 -0.640865 0.25482297 0.3690792 0.1735661 0.531228 1.3066 -1.2165318 -0.10377212 0.42037246 1.2060981 0.47787452 -0.26190412 -0.44869706
Spanish 0.8920256 0.065098986 -0.49599454 0.6194455 1.0084021 0.44763815 0.38048947 0.32048315 -0.5849569 -0.83754796 -0.27509114 -0.56813824 -0.10539269 0.57740283 -0.6500099 0.42212388 0.07380973 0.7890277 -0.48354185 0.22446471 0.19131675 -0.36570898 0.6027793 -0.06668984 -0.32810345 -0.30070516 -0.013207707 0.025066385 -0.6545688 -1.2267097 -0.19704545 -0.14993559 -0.84984255 0.7763564 0.7926023 0.33562028 -0.0019552559 0.2860046 0.5353941 -0.16809765 -0.1778498 -0.16739957 0.8628652 -0.14490491 0.18377729 0.191385 0.5345183 0.36296538 0.30447125 0.14163862
Minister 0.40142876 0.08601979 0.164574 -0.5103778 0.56130046 -0.04957238 1.196107 -0.66921955 0.06650077 -0.23995715 0.45959237 -0.63398635 -1.4174737 0.4238589 -0.41301504 -0.39063665 -0.4436487 0.6373065 0.13772139 -0.33768255 -0.09901616 -0.46214122 -0.65173775 0.15031718 0.4377728 -0.8390874 -0.33479902 -0.069915526 -0.9024644 -0.8938465 -0.43348867 0.7679688 0.04930001 0.28168124 -0.0058121113 0.66484386 0.48946154 0.30790406 -0.48371777 -0.47821662 -0.5572837 0.06352238 0.79946935 -0.13039163 -0.087809324 0.437491 0.6681257 0.047131643 0.038728457 0.10930294
de 0.19171567 -0.34139466 0.3073017 0.20259632 0.49159658 -0.64981765 0.18910982 -0.18555409 -0.3232255 -0.26914063 -0.08424112 -0.333531 -0.52822536 0.031076135 -0.44592363 -0.18814896 0.07975967 0.7736352 -0.61351275 0.19759445 -0.50292534 -0.31063125 0.68359965 -0.30115107 0.1887985 -0.15117744 -0.51372457 -0.25621006 -0.42324936 -0.057226278 -0.19240227 0.59057915 -0.8325706 0.83438796 0.7273324 0.40010208 -0.24481721 -0.0113912355 0.093264975 -0.1770833 0.28065848 0.13844684 0.08915903 -0.25428477 0.44213748 0.15450996 -0.64738 0.062258895 0.32046264 0.23727226
had -0.2898568 0.15825014 0.42559525 0.055582028 -0.10951701 0.20831138 0.56472224 0.20993763 0.82733405 -0.52046096 -0.18771492 0.38749114 -0.19657667 0.02292814 -0.4027255 0.21190573 -0.19462217 0.51095504 -0.70978457 0.33058694 0.18269166 0.23030986 0.08380372 0.5943094 -0.27874652 0.1463769 0.15446791 0.2732117 -0.43056378 0.07356255 0.14051712 0.021749465 -0.2171402 0.049840946 0.34948653 0.1593128 0.589527 -0.14894538 -0.27569258 -0.011924252 -0.16900533 0.29983124 0.6491701 -0.1771343 -0.145058 -0.02787421 -0.28370482 0.32096738 -0.29747325 0.09285107
earlier 0.32425395 0.15969984 -0.29396227 0.4694107 0.056431267 -0.047025863 0.6733111 0.047415104 0.41918907 -0.679748 -0.14846781 -0.20991382 -0.6530278 -0.25222147 -0.748936 -0.118166395 -0.41241348 0.34782764 -0.3775172 0.41701728 -0.4849312 0.5738464 -0.11307386 0.9725631 -0.08660231 -0.081709825 -0.013944706 0.00833796 -0.14522839 -0.20693031 0.25517678 0.27656654 -0.6646855 -0.27557972 0.37033144 0.47334227 -0.163965 -0.46466258 0.23604278 -0.35657635 -0.48873073 0.23414536 0.4325475 -0.2591219 -0.08093059 0.42877015 -0.56426024 0.13343588 -0.044385374 -0.8195668
accused 0.039483156 0.36904192 -0.2873507 -0.07649317 0.21817137 -0.00092955475 0.8537471 -0.47627982 0.7744512 -1.0852586 0.5576973 -0.418795 0.20303415 -0.03558579 -0.42953023 0.23235688 -0.123516396 0.15730216 -0.35803112 0.5919069 -0.3107 -0.8573724 -0.28258032 1.1280421 0.29200622 -0.42200676 0.5298048 -0.47014186 -0.5738759 0.16711864 -0.3903521 0.08882199 -0.4002003 0.31135806 0.28670177 0.48021892 0.2659464 -0.15712392 -0.39850453 -0.5500973 0.1633855 -0.11972798 0.4582814 -0.02767881 0.7388622 -0.7516939 -0.2222337 -0.35519812 0.029505877 -0.2000418
at 0.16352564 0.18632515 -0.08543814 0.11390447 -0.25081316 0.00034606887 -0.005998297 -0.06513463 0.5625126 -0.18327114 -0.22412181 -0.16551432 -0.56602156 0.08064204 0.20831923 0.31351107 -0.38778904 0.48541543 -0.45660728 -0.33127832 0.20482716 0.20819494 -0.30509984 0.039439265 0.26574823 -0.3244218 0.036158305 0.06279391 -0.104725845 -0.13459225 0.2720423 0.12246065 -0.5272237 0.033823535 -0.118629426 0.053921573 0.1854718 -0.38185024 0.051373113 0.23235355 0.25664827 -0.046359137 0.24839136 -0.18921287 -0.10247468 0.027322032 -0.08712307 0.68664277 0.044763703 -0.093207985
an -0.32967225 -0.16597551 -0.18087795 0.11811815 -0.00566652 0.011247971 0.47708222 -0.051363364 0.67737484 -0.55055374 -0.37823445 -0.19983087 0.07374097 -0.1705332 -0.3035629 -0.03842336 -0.5550889 0.23217247 -0.42246932 0.050044417 -0.10318539 0.15417798 -0.49283978 -0.028583469 0.31928602 -0.08956724 0.02359351 0.18522006 -0.63119215 -0.05204275 0.024816964 0.27152175 -0.123583 0.16180666 0.29593745 0.18637714 0.08219734 -0.10602336 -0.18430172 0.41603237 0.37948382 0.21560153 0.1490149 -0.035588253 -0.28724918 -0.039267894 -0.16280629 0.22859193 0.4787916 0.27030703
farm -0.13557912 -0.17525826 0.067229144 -0.27646947 -0.55771613 -0.6488678 0.7612916 -0.53328 -0.54532814 -0.6305106 -0.2761743 -0.28024998 0.1884555 0.5245037 0.47064716 -0.31776646 0.34086862 0.7552869 -0.18310687 0.4393285 0.431485 -0.24671502 0.028604316 0.3436623 0.41391224 -0.004325403 0.43411878 0.30971804 -0.7271454 -0.7560323 -0.942114 1.1644098 -0.8548789 0.027363084 -0.15683854 1.0041465 -0.23642142 -1.0254198 -0.1766804 -0.04542513 -0.4278183 0.4612346 0.84354347 -0.40917346 0.41115057 -0.39228657 -1.27575 1.3281932 0.17889316 0.2563
ministers 0.8864225 0.49879357 -0.12808163 0.29975313 0.30895203 -0.20551145 1.1108636 -0.6382496 0.6198322 -0.10833215 -0.08029346 0.20983148 -0.07120616 -0.7289308 0.38496038 -0.27185395 -0.21395092 0.49138916 -0.17911185 -0.5532767 0.49422354 -0.03411477 -0.691032 -0.5559651 0.42601365 -0.6201204 0.05054539 -0.5422806 -0.65003675 -0.49359497 -1.0992059 0.5863244 -0.22790717 -0.009319601 -0.57244676 0.67957705 0.3366473 0.3728982 -1.0021832 -0.005342702 -0.11658836 -0.035786614 1.2090262 -1.7043408 0.7522543 -0.044174433 -0.19495091 0.84512514 -0.067664765 -0.053548213
' -0.30921772 0.563165 0.01212383 0.21088472 0.37829894 0.30162743 0.09992581 0.02110308 -0.18677676 -0.6478184 0.005208439 -0.16783798 -0.15280356 0.036449593 0.09468858 -0.2256132 -0.32130605 0.45574185 -0.64646363 -0.038130544 -0.052388113 0.10602442 0.072911754 0.21487744 0.33843222 -0.7515015 -1.1343904 0.34782732 -0.2898741 0.10411049 -0.3151016 0.17349719 -0.41721863 0.38466212 0.24894834 -0.049399275 0.14132687 -0.4760221 0.41201234 0.015598512 -0.45367438 -0.88188803 -0.0048286933 -0.037167713 0.47723395 0.08998054 -0.0026562691 0.6187223 -0.020187508 0.37348592
meeting 0.29186374 0.38365978 -0.12913784 0.20112851 -0.47627133 0.28052112 0.5625922 -0.23913737 0.8920498 -0.1424605 -0.3455799 -0.04540577 -0.43377525 -0.38809395 0.09870252 0.45421505 -0.6198229 0.068329535 -0.015828516 0.14534098 -0.17077169 -0.047801543 -0.50701797 0.010547223 0.35934573 -0.34651858 -0.20424338 0.4406035 -0.0042378213 0.3398845 -0.6280529 -0.037829444 -0.40058368 0.7337884 -0.48570642 0.4344247 1.020244 -0.26376376 -0.17358989 0.059525263 0.26170346 -0.24977852 1.2273897 -0.8359156 0.940153 -0.02909558 -0.08241893 0.06313348 0.65168107 -0.5038147
of 0.003904052 0.10725854 -0.20537299 0.24925168 -0.029092528 0.060695767 0.07645094 -0.19285223 0.20699129 -0.48158467 -0.049387608 -0.20001076 0.105758876 -0.029317463 -0.31922936 0.022141678 -0.118833594 0.4987573 -0.46746498 0.16095522 0.2607922 0.19500461 -0.1282396 0.18699016 0.14858377 -0.38005784 -0.13055855 -0.07448307 0.02768547 -0.30922422 -0.05890813 0.25302774 -0.16428412 0.06877208 0.030845834 0.07937234 0.0835127 -0.0036627173 0.0860895 0.24071802 0.17522186 0.0012442681 0.18469869 -0.15608418 -0.16531827 -0.043859933 -0.1743331 0.37515262 0.032608964 -0.0049445024
through 0.3031967 -0.63851136 -0.009273547 -0.8641635 0.43125376 -0.6222313 -0.11556191 0.41387287 -0.07438921 0.049497485 -0.051749103 0.4654055 0.13659096 -0.8702773 0.47189918 -0.2153775 -0.24489547 0.3681188 -0.43266448 0.4982868 0.13775322 -0.33944735 -0.24689163 0.38569325 0.011362925 0.34756514 0.35008577 -0.45416299 -0.47880387 -0.5242085 -0.06581082 -0.4410992 -1.308412 -0.04277846 0.617129 -0.076777294 0.8149778 0.06326709 -0.44517493 0.43538848 -0.11480889 0.0882587 0.45729372 -1.0403122 0.06401419 -0.09080556 0.14078937 0.3057935 -0.22407192 0.00088663446
dangerous 0.1729314 0.52743936 -0.16773824 -0.22657065 -0.08008253 0.3750768 0.67042536 -0.86093694 1.0529022 0.49247128 -0.39632568 0.39349806 1.0808784 -0.30016384 0.23320913 0.15672511 -0.6045015 -0.018670613 -0.12129894 0.77887386 -0.16118947 -0.4430247 -0.14351116 0.10103598 0.3832447 0.18143669 -0.3112148 -0.36883727 -0.54729164 -0.6474723 -0.74648404 0.60180926 -1.0982147 0.65317297 0.66137797 -0.8104156 0.22157188 0.4155147 -0.0155096995 -0.40239912 0.24158756 -0.17452393 0.03809819 -0.87234944 0.30753824 0.13902897 0.5009593 0.29909027 -0.20022114 -0.45713842
are 0.24258314 -0.35175878 -0.006213475 0.5123954 -0.02205339 -0.2884545 0.025675846 -0.33120596 0.08497921 -0.36228484 0.1131385 -0.10440561 0.37037143 -0.3470697 0.29247862 0.14810786 -0.12086208 1.2230895 -0.18430337 0.43317848 0.25253257 0.4099248 0.046598956 0.41765198 -0.31180263 0.14967117 -0.5522142 -0.23043008 -0.8561128 -0.053206652 0.11818607 0.7070785 0.29236966 -0.16681935 -0.26944503 -0.25956282 0.21503462 0.41609278 -0.3016982 0.584364 -0.174757 -0.036618236 1.0791042 -0.66814643 -0.097221054 0.13347179 -0.06966114 0.29965785 -0.0126360245 -0.27455214
due 0.5091185 -0.5444982 0.39097127 0.45458132 0.17190851 0.019490251 0.0811433 -0.82707715 -0.19728896 -0.44711193 -0.10876548 0.08213074 0.07618693 0.08002699 -0.8010498 0.28809956 -0.36209297 0.047140934 -0.26393932 -0.41169572 0.29379004 0.03498468 -0.26317862 0.44235668 0.4231705 -0.81329566 -0.22610992 0.4586823 0.20534278 0.11194935 0.20688431 0.06048985 -0.53995657 0.15938272 -0.4560489 -0.01299956 -0.038783494 -0.39241737 -0.79160315 -0.14890619 0.14440702 0.39057586 0.69553494 -0.50808835 -0.0019675833 0.41537073 -0.19097243 0.21169914 -0.10817774 -0.47998348
issue 0.13689433 0.7326431 -0.13997602 -0.34785667 0.59761584 -0.09126202 0.7351086 -0.18834223 0.79549086 -0.23637256 0.16299587 -0.12332703 0.12453618 -0.09126863 0.29738927 -0.5676462 -0.95514584 0.7969276 -0.34541568 0.078494094 0.49121964 0.16423188 0.22126314 0.26300067 -0.1426133 -0.7355925 -0.013565256 0.0704796 -0.37635383 0.07688856 -0.6864224 0.13392998 0.15911034 -0.016067438 -0.16197522 0.32667065 0.041573398 -1.2337332 -0.13534364 -0.05721533 -0.27235338 0.5150643 0.36700624 -0.23120168 0.034905914 0.011680891 -0.47259662 0.05970013 -0.14789985 -0.4801979
early -0.19492413 -0.4772237 -0.1418938 -0.11538631 -0.15891317 0.474597 0.557953 -0.30164418 0.08115596 -0.115746096 -0.32094318 -0.3726058 0.5610259 -0.42367822 -0.36436325 0.09840555 -0.6958327 0.29126358 -0.644334 -0.26139414 -0.29366833 -0.2837969 -0.28277636 -0.2341142 0.08238137 -0.5994548 0.50422525 -0.026248313 -0.53526735 -0.094788164 0.6544046 -0.12682958 -0.2111637 -0.31735852 -0.4453272 0.033754516 -0.106713824 -0.006403332 -0.10309565 -0.07283131 0.13512558 0.15569116 0.58607197 -0.25036174 -0.5922259 0.44716504 -0.8691067 0.9175735 -0.0309156 -0.32081237
next -0.108085744 0.46996766 -0.610723 0.34497285 -0.26730722 0.17259246 0.545897 -0.7766499 -0.19281422 0.1537102 -0.35391048 -0.002629385 0.049926054 -1.366171 -0.21255286 -0.14715357 -0.5734883 0.6340567 0.12200837 0.1666725 -0.23262763 -0.2727409 -0.67752427 0.30734715 0.12378216 -0.46283522 -0.048752464 0.3727336 0.02709571 -0.36986896 -0.14977366 -0.2559133 -0.5033594 -0.06500048 -0.6041278 0.3904804 -0.052068014 0.12072668 -0.16851082 0.34509486 0.11016254 0.18004914 0.28328893 -0.26352984 -0.40691626 0.80349 -0.36147717 0.38725358 0.56363475 -0.40654424
make -0.16246247 -0.379276 0.006773212 -0.44552067 -0.134568 -0.092653394 0.3676752 -0.52818304 0.46307573 -0.3787906 0.41956308 -0.29490283 -0.31443617 -0.48504 -0.092641234 0.23482428 -0.45703095 0.20182292 -0.078287475 -0.04744014 0.193414 -0.42640573 -0.42040837 0.11459102 0.32356638 -0.2531901 -0.46908426 -0.109013334 -0.9347751 0.05942457 -0.41660392 0.4598357 -0.42395732 -0.17107417 -0.028304558 -0.5843241 -0.11457165 -0.5203499 -0.6433704 0.38599065 -0.54816186 0.8326479 0.29834783 -0.02320592 -0.18007784 0.33945253 0.01712634 0.34410143 0.12166368 -0.053558435
senior 0.14866072 0.75876147 -0.091623515 0.4752264 0.3773907 -0.4755141 0.9519418 -0.2642399 -0.15840456 -0.35123664 0.34785625 -0.6081652 0.05218421 -0.05731138 -0.39451274 0.14855693 -0.6738826 -0.2860824 -0.51957005 0.09886755 0.965746 0.07539891 -0.324089 -0.10001672 -0.5537166 -0.023132607 -0.26157865 0.2967232 -0.21083683 0.03591574 -0.18833862 0.9230681 -0.13532396 0.6399882 0.108330704 0.37071642 0.27473632 -0.19297442 -0.07773405 -0.3050606 -0.16110204 0.9887549 0.5957184 -0.28121778 0.5685588 0.4098855 0.0875369 0.77419555 0.70205516 -0.52788126
have -0.3337222 0.23361497 0.2253278 0.23615319 0.024642808 0.3179256 0.67724043 -0.21149726 0.6260104 -0.31430823 0.42777947 0.45067132 0.1327217 0.3747032 0.030004028 0.22678259 -0.42009762 0.4256804 -0.5549784 0.343535 0.062683426 0.05668604 -0.022637444 0.27502376 -0.20514381 -0.2136385 -0.34409273 -0.059250724 0.2073088 -0.45338008 0.14169966 0.25357717 -0.4306554 -0.2379379 -0.029356353 -0.15593341 0.20991252 0.3730888 -0.1973265 0.45604986 -0.36065197 0.4132445 0.4281589 -0.49686566 -0.3438209 -0.22496727 -0.031333823 0.6781048 -0.18666688 0.046010558
long 0.3451188 0.124794945 0.6378482 -0.37302616 -0.52184135 0.38678017 0.6181796 -0.5635246 -0.42466906 -0.23933068 -0.3927588 0.015062221 0.074436896 -0.6005919 -0.17046277 0.17418991 -0.110186964 -0.05480573 -0.16462435 0.24497281 0.16790321 -0.015948132 -0.36951447 0.13814038 0.13835476 -0.310183 0.36612165 0.67364585 -0.6495209 -0.5855529 -0.17442036 0.47269157 -0.28583556 -0.2507063 -0.08502302 -0.500349 0.4014627 -0.06941049 -0.089937806 0.33849964 0.8314327 0.53522086 0.7035067 -0.7492108 -0.045247246 -0.3326555 0.08449206 0.24134348 0.21865095 0.7859126
been -0.6005887 0.40915528 0.23127122 0.5069923 -0.25332603 0.3257296 0.9964111 -0.38828996 0.7725103 -0.72303843 -0.21975584 0.1373685 -0.057687208 0.5177913 -0.45311838 0.06599075 -0.28633946 0.2195837 -0.5868873 0.17009228 -0.27189055 -0.172244 0.13065083 0.3110491 -0.33744332 0.20907283 -0.1784138 0.28834298 -0.062123016 -0.5764726 0.043951605 0.43036473 -0.42702454 -0.01388731 0.25601348 -0.054760765 0.17780006 -0.0300296 -0.20423849 0.38724047 -0.06674243 0.5247937 0.3040392 -0.41862342 -0.20463485 -0.30624193 -0.0808457 0.082965754 -0.4198793 -0.18108778
known -0.21541396 0.23972912 0.0015810657 0.21037148 0.030734478 -0.16756621 1.3871653 -0.66235375 -0.17120428 -0.1885689 0.14004706 0.06962416 0.26928914 0.26620534 -0.4165398 0.076893896 0.07361875 0.54483324 -0.31854194 0.07317615 -0.092714064 -0.642946 0.049286347 -0.17871219 -0.0915752 -0.28975704 -0.095627405 0.4596409 -0.5755004 -1.1327072 0.46575698 -0.03616147 -0.32858184 -0.1645908 -0.18345602 -0.86455107 0.80490625 -0.18523686 0.2641663 0.573666 -0.035631336 1.3838989 0.6054989 -0.054912597 -0.12613703 0.19534911 0.14847298 0.378008 -0.21966517 0.3299344
similar 0.13334629 0.48631865 -0.091301546 -0.4059239 0.039289325 0.37311682 0.48140922 -0.3532106 0.070832126 -0.2761809 -0.1975144 0.118366405 -0.13951848 -0.070017174 -0.5446544 0.059107188 -0.9217149 -0.093966335 0.13379359 0.46773487 0.50910175 -0.15965462 0.30575684 1.1677086 -0.122170836 -0.17237686 -0.3631657 0.023928978 -0.023346955 -0.45824105 -0.19348003 0.36415264 -0.018860355 -0.09146367 0.038096048 -0.5757591 0.27930695 -0.58987147 0.5412308 0.42523968 0.29039598 0.47606418 0.5149488 -0.726538 0.113499254 0.539168 0.32558933 -0.42476708 0.055232063 -0.04846095
which -0.101053774 -0.17372558 0.08208121 0.061001413 0.18781725 0.49331054 0.41282445 -0.41672063 0.3046399 -0.33583468 -0.18572457 0.17175697 -0.10594956 0.2601816 -0.5644968 0.01620347 -0.11688952 -0.045217905 -0.22995968 0.4630765 0.39865062 -0.09343042 0.056417495 0.4948898 -0.30406916 -0.4088462 0.0974274 -0.0327619 -0.58924127 -0.31513795 0.11131855 0.07552207 -0.5328947 0.326066 -0.12818976 0.28088433 0.28429222 -0.38855442 0.10011384 0.53056115 0.44351012 0.39015773 0.15374859 -0.2698266 -0.051466104 -0.16738231 -0.03556915 0.26316503 0.18551591 -0.18991676
is 0.16182198 0.0036046896 0.032661747 0.35482967 -0.041190505 -0.20144716 0.2449071 -0.41569075 0.11857666 -0.5722698 -0.34101972 0.027294451 0.11564018 -0.38837674 0.0025163398 0.2380271 -0.4257077 0.6300132 -0.21286008 0.5090411 0.19870959 0.33408648 -0.13554017 0.08731187 -0.055207726 0.059530977 -0.374493 -0.13901134 -0.5731568 -0.024827875 -0.4625233 0.5898184 -0.26685983 -0.122479685 -0.088195145 -0.30008453 0.21777989 -0.076125585 -0.0329141 0.49388525 -0.015045822 0.31187 0.41513106 -0.21260676 -0.078244 0.19389692 -0.033866998 0.19964574 -0.13073 -0.2519583
believed -0.5206719 0.041697267 0.28399602 -0.44376558 -0.2884347 -0.4353768 0.46219063 -0.7788755 0.054530207 -0.59895176 -0.03103591 0.3415482 0.27198517 0.4549179 0.055821996 0.006554115 -0.5482968 -0.37666023 -0.40267748 0.031907696 0.2874637 0.5376158 -0.2565571 0.724859 0.28674543 -0.86472094 0.34360307 -0.3154539 -0.34976217 -0.3745445 0.062897235 0.63227844 -0.9981182 0.22410409 0.4818764 -0.38646245 0.57722133 -0.014269317 0.23400347 0.43287703 -0.7680468 0.18037431 1.1268426 -0.15200989 -0.072953284 0.20469439 -0.064314574 -0.10589221 -0.30466485 -0.12478326
cattle 0.5865486 -0.31984356 0.49081916 -0.324099 0.068632625 0.34044743 1.2826362 -0.5733626 0.29235202 -0.21637078 -0.08907014 0.056289125 0.1695299 -0.1438423 0.44161114 -0.6400038 0.5248589 -0.38069355 -0.31811965 -0.87650496 0.9100556 -0.36064443 -0.49735612 0.6882651 -0.6003457 -0.37721586 -0.081373885 0.5515869 -0.1629156 -0.2670653 0.016482089 0.4178065 -0.7936055 -0.34140307 0.68054694 -0.31417915 -0.23254442 -0.52501 0.059517436 1.488019 -0.53479433 0.022697309 0.9673608 -0.6137076 0.15861458 -0.0003838184 -0.40023255 0.5115314 -1.147345 -0.45986843
feed 0.06869487 -0.60345924 0.32384464 -0.26674637 0.99548304 -0.42870244 1.4480526 -0.4154123 -0.50821817 0.5797709 -0.29185912 -0.062441975 0.5713533 0.17483267 0.80731755 -1.0465966 0.07332259 0.024032021 0.24405353 -0.6520059 0.11010668 -0.49447617 -1.345656 1.6835324 -0.040423583 0.06940923 -0.14173576 0.030622134 0.19194478 -1.1768899 -0.013646782 1.0390242 -0.8435613 -0.8083073 0.6529384 -0.7277468 -0.15228143 -0.01937268 -0.32694635 0.9482989 -0.0758948 -0.08674151 -0.025781425 -0.5709265 -0.027497113 0.27999437 -0.6305832 0.65897703 -0.8825746 -0.27165875
farmers -0.07612016 -0.11407151 -0.7104655 -0.43338615 0.96139 -0.06941223 0.7242551 0.0791864 0.61321783 -0.33616385 -0.59138 -0.47970164 -0.31122357 0.3636033 0.393183 -1.2017777 -1.120043 0.04744433 0.16126716 -0.06578447 0.75561273 -0.2730885 -0.49281827 1.0681554 0.16797112 -0.3092679 -0.99578714 0.4763511 -1.0425133 -0.70961964 0.14387207 0.41153717 -0.61996675 0.48451367 0.09300688 0.4035653 -0.26348218 -0.4845951 -0.0728579 0.85956883 -1.0187432 -0.2245768 0.4083111 -0.2429915 0.14715537 -0.15449578 0.02595248 0.3074181 -0.8565691 0.09847191
denied -0.59423226 -0.21148248 0.094523154 0.19249016 0.4064923 0.3048315 1.4500813 -0.53697604 0.67056054 -0.372436 -0.24173675 -0.46670428 0.30138266 -0.27280876 -0.34198436 -0.5912699 -0.023211565 0.24556984 -0.7622057 0.7253553 0.17444469 0.094577566 -0.10248391 1.1004093 -0.008475173 -0.3260356 -0.1941659 -0.057473265 -0.6660952 0.025040634 0.16320264 0.1711815 -0.8156552 -0.2685109 0.06610474 0.6470803 -0.65792346 0.25980046 -0.06531158 -1.1155533 -0.64831203 0.63279426 1.0147967 -0.042122174 0.07586969 0.38237017 -0.63366055 -0.45413733 -1.1613196 0.2640067
danger 0.7331512 -0.09653003 0.11734508 -0.23371705 -0.6275779 0.31879926 0.8076037 -0.48620963 0.5023937 -0.32099068 0.40060332 0.43561605 0.21670584 -0.32989198 -0.396766 0.14831421 0.068369 0.28783125 -0.836578 0.1612901 0.057299383 -0.20201406 -0.35241878 0.3324935 0.29512778 0.18982784 -0.1887636 0.55370086 -1.3287343 -0.6978676 -0.4345069 -0.044611428 -1.232259 -0.0108804805 -0.39966744 -0.6888346 0.06502663 0.7335118 0.21685995 0.7358688 0.6482671 -0.12539485 0.9201389 -0.51905066 0.21737598 0.73974484 0.2611793 -0.049563713 -0.6040322 0.9315026
their -0.33989108 -0.2535547 -0.1121749 0.6552987 -0.57344973 -0.10107412 0.026820783 -0.09658236 0.62819564 -0.21339932 0.085005514 0.064824104 0.4900237 0.111055896 -0.00012824812 0.52253634 0.16555052 0.6279131 -0.5676711 -0.014202982 0.30857328 -0.56628776 -0.3195664 0.5219222 -0.3895292 -0.51064277 -0.44849268 0.5767531 -0.5135529 -0.23366708 -0.019474324 -0.1263661 -0.053015146 0.5242627 -0.053216685 0.12826279 -0.081088826 0.1996762 0.03504617 0.41867197 -0.3295582 0.12874912 0.018399237 -0.45623922 -0.3648608 -0.013903371 0.049863778 0.58089983 0.4599621 -0.2582218
but -0.24729936 -0.13367799 0.19135106 -0.07181541 -0.0098595265 0.38626188 0.5846566 -0.33449087 0.0780984 -0.08729323 0.08628353 0.114507385 -0.27027544 0.030824894 -0.3127265 0.15558277 -0.30863976 -0.12907259 -0.81741965 0.25600025 0.17550503 0.25003368 -0.22253951 0.653561 -0.23729755 -0.37904873 -0.040049747 0.52772367 -0.5459202 0.058839094 -0.2726331 -0.31031558 -0.429058 -0.030723741 0.02823762 -0.19394384 -0.2169952 0.05927578 -0.03097832 0.27968854 0.5024536 0.14366361 0.4883744 0.017198391 -0.27315375 0.0012861546 -0.1904378 0.49958456 -0.110765345 0.03923399
expressed -0.27056715 0.21169797 0.43743876 0.121845365 0.09883238 0.3571715 0.65467525 -0.72294873 -0.17648213 -0.13092558 0.03681506 -0.107293904 -0.18612978 -0.1595246 0.1883262 -0.55740386 -0.021190047 0.37865934 -0.3494958 -0.29769957 0.21339342 -1.0607175 -0.2884247 1.4696065 0.78144765 0.54419166 -0.5261913 0.42348483 -0.8848339 -0.06699708 -0.47921237 0.12682739 0.3540847 0.28747532 0.08632209 -0.26335824 0.86983114 -0.2671542 -0.7885821 0.1463449 -0.35029933 -0.37962425 0.23110892 -0.5705379 0.7835423 -0.096229315 -0.17217866 0.26380396 0.11750359 0.12069977
concern 0.99483407 0.088683456 0.25107005 -0.12216664 0.5338027 0.19850738 0.83792686 -1.1336246 -0.49833134 -0.104980625 0.17653613 0.072548784 0.43598995 0.07470949 0.37802485 -0.94789505 -0.12845738 0.0043363636 -0.1988464 0.097203724 0.13964435 -0.3632352 -0.6632744 0.86112386 0.2183677 0.12643766 0.0356297 0.3527343 0.11888642 0.13572957 -0.23081057 0.3028398 -0.09690927 0.19777398 0.22575852 -0.26091263 0.97831064 -0.8371346 -0.36228955 0.41396767 -0.020888044 0.02519942 0.6308759 -0.9694804 0.4262412 -0.121259786 0.3038959 0.26571944 0.09020883 -0.38203257
government -0.396015 0.16299093 0.44238546 0.048130475 -0.059269857 0.06669091 0.8417416 -0.5302637 0.6281698 -0.36664742 0.096500695 -0.3615597 -0.024584873 0.4160261 -0.17693903 -0.4020593 -0.5616758 0.35173216 -0.15415843 0.11814119 0.2312433 -0.27071932 -0.23674509 0.2296961 0.11803837 -0.4642541 -0.37944964 -0.09071509 -0.2900955 -0.44707212 -0.29657775 0.37429848 0.09337871 -0.043324497 -0.4956046 0.6065398 -0.12132151 0.16035041 -0.38802359 -0.2213044 -0.2562441 0.21690391 0.111456715 -0.561232 0.01165347 0.2739495 -0.37015104 0.24483943 0.07861937 -0.03125417
avoid 0.108821355 0.30410457 -0.38178974 -0.40110868 -0.60526925 -0.16301762 1.1846715 -0.94476026 0.42410204 -0.33204475 -0.99379826 0.004662814 0.38388425 0.009867529 -0.24695997 -0.10258532 -0.4562331 -0.09564032 -0.30608678 0.7529763 -0.06753088 -0.49408054 -0.43176073 0.3744105 0.6790646 -0.19599885 -0.47936413 0.3818167 -1.1718028 -0.38998303 -0.5487509 -0.2560364 -0.12776592 -0.45808285 -0.6410841 0.3956826 0.18174265 -0.2926018 -0.29426044 0.34978852 -0.114828244 -0.47075215 0.6781285 -0.6906917 -0.09549627 -0.48755214 -0.19607644 0.3374573 -0.24450164 0.32283422
might -0.04006692 0.57366014 0.7349842 0.14918718 0.0071316566 0.75156236 0.34320283 -0.6929027 0.31220374 -0.27576065 -1.332363 0.14021462 0.28156066 0.15052427 0.3248429 0.016740872 -0.79928493 0.25713024 0.12537937 0.06651951 0.8171113 0.42303458 0.19414826 1.2468699 0.542516 -0.28714123 -0.36777255 0.23733316 -0.4279321 -0.056302674 -0.43619564 0.5248694 -0.48272604 -0.22199275 -0.14673029 -0.020724142 0.6189402 0.30231598 0.003970701 -0.24917203 -0.28209576 0.79727507 0.46009737 -0.17327985 -0.26805225 0.23437038 -0.44483438 0.39068556 -0.40525556 0.45080724
across -0.08881159 -0.47691205 0.52037907 -0.040036492 0.1904984 0.05588109 0.7376554 -0.24438734 0.22855276 -0.8005302 0.08596721 -0.22913337 0.119905084 -0.10482107 0.08598747 0.2417406 -0.2623649 0.28117827 0.5301034 0.7841648 0.68634814 -0.19729419 -0.5318598 0.93282443 -0.046482358 -0.017187664 -0.32776362 0.3021872 0.03238663 -1.2009149 0.17954214 0.113986395 -0.92631763 0.37410724 -0.07043849 0.18898547 -0.31239206 -0.41601443 0.040161334 0.14566864 -0.36685157 -0.29840493 0.08370775 -0.5205294 -0.3880872 -0.29704463 0.0980255 0.57536113 -0.41002202 0.60813695
Europe 0.4346213 0.29429302 0.15349418 0.48186445 0.28928035 0.65090644 0.2774698 -0.03633299 -0.2664607 -0.0044032508 -0.740442 -0.18052234 0.7721716 0.048648607 0.15130262 -0.051995836 -0.59065366 0.19502912 0.5209921 0.3754091 0.013198138 -0.2821698 -0.523638 0.5340445 -0.08297679 -0.55417556 -0.9527727 -0.43755308 -0.28591216 -0.2488367 -0.120276615 0.17724067 -0.82008415 0.63898623 0.2560496 0.07299172 0.046318274 0.14924756 0.46530813 0.9253065 0.16357298 -0.28907916 0.11670894 -0.11819752 -0.28909284 0.4456216 -0.1413645 -0.23427615 -0.2925686 -0.13271606
What 0.2087222 0.5089897 -0.42022628 -0.4254841 0.34376112 0.53026485 0.5503167 -0.16528821 0.25159857 -0.13063732 -0.25541964 -0.5502287 -0.11555582 -0.60542417 0.17005906 -0.049113672 -0.834858 0.6078818 0.46669763 0.25804776 -0.6081746 0.6127256 -0.8316309 0.49274695 0.6920306 -0.52232325 -0.84942085 -0.23177218 -0.4719194 -0.24352327 -0.50372183 0.80071837 -1.2675079 -0.28453884 -0.62172544 -0.069810554 -0.43096116 -0.6614121 -0.4712866 -0.14307982 0.5022884 0.46820557 0.35283157 -0.46321616 -0.29898787 -0.25106168 0.8199807 0.45747286 -0.13150613 0.5100085
how 0.19782071 0.21472606 0.36542696 0.06438903 0.1381848 0.14418945 0.61498785 -0.29350296 0.10807032 -0.486304 0.8733233 0.24028544 0.37195614 -0.24655032 0.14250144 -0.084298566 -0.38325706 -0.05948946 -0.8654061 0.41761392 -0.51642555 0.31231293 -0.16434321 0.8432176 -0.098026924 -0.38438314 -0.6807134 0.323575 -0.5667698 0.33705503 -0.3154462 0.3180359 -0.47071865 0.117253385 0.46627218 -0.35800964 -0.3863816 0.37269428 0.15096626 -0.20074631 -0.055659488 0.3382166 0.54604775 -0.16555297 -0.16173708 -0.05103432 0.042845145 0.81416565 0.16503385 0.09781874
going 0.7282673 -0.34418437 -0.1692337 -0.42234173 0.040299334 -0.14509417 0.7287407 -0.63184136 -0.5092011 -0.17877266 -0.13771734 0.47617614 0.028091554 -0.3897944 0.57453066 0.18906337 -0.17971276 0.32747573 -0.036815315 0.10982607 0.023249762 0.6883745 -0.039305456 1.0306455 0.3976838 -0.5138058 -0.33087054 -0.09554807 0.0459454 -0.11046098 -1.1267394 0.4647278 -0.60978633 0.17345291 0.105631076 -0.481933 0.20374402 -0.26355183 -0.21156812 0.21520765 -0.39743036 0.4107045 0.8028007 -0.3409379 -0.19999453 0.056426078 -0.06886942 0.83664 0.4001376 0.28864396
take -0.13526648 0.34172648 0.36568108 -0.011289705 -0.36615473 0.2718453 0.46458253 -0.46526212 0.41026136 -0.38689244 0.030886099 -0.5132267 0.253663 0.46024108 -0.50563663 -0.024313621 -0.9918705 -0.1884801 -0.4505382 0.29673454 0.44457248 0.14961988 -0.5037874 0.474613 0.19327049 -0.6691429 -0.5795361 -0.5153811 -0.21932021 0.40485242 -0.33225775 0.23793314 -0.23204018 0.46881878 -0.7278178 -0.3398287 -0.139016 0.31880805 -0.12813874 -0.057083793 -0.106465854 0.46110263 0.053723462 -0.12118875 -0.46492404 0.27896708 -0.6521155 0.44308054 -0.0050533675 -0.16048759
lead 0.04643287 -0.31687054 -0.73208815 -0.53150177 -0.6687104 0.043367986 -0.36204538 -0.19995141 0.13481538 -0.5546589 0.048009083 -0.3554982 -0.5503033 -0.18986356 -0.31622648 -0.3676954 -0.52472883 0.08390844 -0.3140238 0.04705136 0.09942581 -0.7135591 0.20927753 0.35230076 -0.049200743 -0.21433087 -0.8932496 0.47159404 -0.29376537 0.3733417 -0.32375395 -0.282523 -0.69160235 0.28582546 0.13992585 0.3199514 0.27549124 -0.85557634 0.007453012 0.73267865 -0.014333435 0.50830245 0.24561955 0.20035712 -0.49962127 0.020350263 -0.55215055 0.06495808 0.97944015 -0.19389848
National 0.70618993 0.9048815 0.30780387 0.2249661 -0.19078021 -0.38796678 0.060970575 0.05207953 0.02798356 -0.5887517 -0.3110183 -0.9438796 -0.14347266 -0.6057711 0.16017343 -0.47188547 0.2287868 -0.2653627 -0.6457428 0.099710114 0.6111635 0.05178125 -0.25628507 -0.24774103 -0.15297681 -0.98411244 -1.3212016 0.062279075 0.1863832 -0.3632954 0.19631425 0.6627158 -0.13948806 0.53702396 0.0028826154 0.6977181 0.021660946 -0.78368837 -0.25470898 -1.1452564 -0.34983575 -0.12169988 0.24999517 -0.09351446 -0.1542424 0.37088513 -0.274 0.25920397 -0.112114 -0.36009964
chairman 0.44700357 0.9284164 0.4192602 -0.30813268 0.24856557 0.0017423489 0.21528006 0.48946667 -0.10899413 -1.1664252 -0.12534584 0.20398287 -0.6646766 0.2903811 0.3029387 -0.94416577 -0.6558981 -0.19688912 -0.4982779 0.048734974 0.53975326 0.57183534 -0.16805537 0.22503571 0.14780644 0.13014185 -0.7724241 -0.34123808 -0.9368068 -0.55824953 -0.18525565 0.44802526 -0.13263711 0.1902479 0.033532716 0.8280245 0.39773297 0.93584937 -0.22772159 -0.2397226 0.35127366 0.47625044 0.59450513 -0.31996217 0.5744965 0.597822 -0.20205061 0.36395454 0.0057407483 0.021101423
John 0.10107058 -0.037983805 0.3611458 -0.50116444 0.26705316 -0.19493687 0.23606297 -0.7541155 -0.46367747 -0.15345643 -0.11618571 -0.04128393 -0.85663235 -0.25900108 0.19034019 -0.11957018 -0.12074108 -0.56006914 -0.54345757 0.26848418 -0.068323866 -0.45326555 -0.7887918 -0.3084258 -0.50892866 0.33057016 -0.78773564 0.21182886 -0.62220937 -0.27989972 -0.18372588 0.523434 -0.8789485 -0.1477083 0.77461076 -0.16808349 0.55910224 0.11855411 0.47458327 -0.026369715 -0.32459852 -0.41903234 0.33672822 0.13963185 0.049635738 0.05032841 -0.575132 0.2681213 0.28717926 0.5408232
Lloyd -0.24005057 0.73276573 0.9606772 -1.5405257 0.23681256 0.4991412 0.4043475 -0.57141674 1.0539197 0.037210822 0.13649316 -0.2516659 0.2699086 -0.1675178 -0.55566514 -1.3886393 0.10659798 0.1592036 -0.15345012 0.035988174 0.4324775 0.35396588 -1.2006508 -0.34366736 0.01996878 -0.2013501 -0.54522824 0.28066278 -1.1586567 0.31589615 -0.18463224 0.66050607 -0.78629273 -0.38349763 0.06401418 -0.2276302 0.6962695 0.69168556 -0.60066044 0.08795939 0.24874298 0.24676932 0.7838455 0.8276089 0.09850997 0.32544228 -0.37531042 -0.5563893 0.29297376 -0.39138526
Jones 0.46957192 -0.08598939 0.47939944 -1.657475 -0.05004952 0.21092576 0.033392854 -0.34232467 0.11295198 0.20376073 0.28631097 -0.04646843 0.09204373 0.4701501 0.5594664 -0.057779435 0.6673456 -0.14682193 -0.57818127 0.31314978 0.589921 -0.9292941 -0.6367217 -0.21809663 0.13424131 0.2776105 -0.52801836 0.7551111 -0.4611249 -0.6621369 -0.12027581 0.4734055 -0.32751834 0.79167897 1.0015765 -1.0600365 0.35585836 -0.91090775 -0.017675843 0.22224405 -0.45787644 0.39285573 -0.17512934 -0.9271673 0.45628348 0.26402786 -0.21756995 0.5866194 0.59480715 -0.56189394
radio -0.026086261 0.2671612 0.16467412 -0.44964057 -0.016622692 -0.048534904 0.9715797 0.04730358 0.56181073 -0.5273965 0.16827986 -0.6909307 0.30391002 0.06540687 0.25021166 0.052405365 -0.7570972 -0.0674407 0.15170625 0.29113615 0.33082178 -0.23733073 -0.29798576 0.32971948 -0.35367495 -0.5994661 -0.6763021 0.33351377 -0.54981685 -0.19133055 0.18336229 0.051978666 -0.3350475 0.796999 0.37219143 0.67869824 0.03157207 0.11034353 -0.05922638 -0.75346774 -0.066094406 0.42395604 0.45421374 0.06911859 0.08392059 0.7122976 -0.043851882 -0.19140758 -0.72836596 0.083379455
has 0.082970686 0.16576687 0.64891136 0.19438547 0.22094384 -0.107918315 0.6635646 -0.22482929 0.7151189 -0.65660995 -0.23777822 0.052326996 0.17122564 -0.10025456 -0.39929846 0.06465753 -0.22898093 0.7130061 -0.8583325 0.5814923 0.056967188 -0.017899372 -0.07627069 0.28882656 -0.36006758 0.46858558 -0.12540032 0.077919506 0.16118741 -0.12514473 -0.15956628 0.66812605 -0.06635192 -0.41408414 -0.038459413 0.072776936 0.27822852 -0.21851102 -0.069377765 -0.053621165 -0.15519628 0.26462114 0.31833306 -0.2679512 0.109902106 -0.13614981 -0.013093837 0.10651338 -0.16504146 0.07326398
led -0.11534005 0.3631728 0.214502 -0.08805467 -0.50130737 -0.2702522 -0.11881681 -0.70047015 0.055781394 -0.8775891 -0.42826697 -0.4430849 0.0542789 -0.30163985 -0.46580002 -0.17220652 -0.5729912 -0.572125 -0.36833748 0.9621132 0.27377647 -0.7173509 -0.104516216 0.20634276 -0.26554894 0.49583957 -0.07716554 -0.28516844 -0.35084292 -0.18921083 0.6314935 0.68972677 -0.4101447 0.8295776 -0.2291875 0.11366324 0.21976362 -0.17994148 0.52552825 -0.16495015 0.36845106 0.026761072 0.8517112 0.28161785 -0.21672693 0.41981575 -0.005969397 0.3687642 0.6328094 -0.58132243
efforts 0.060109362 0.07875164 0.3605879 -0.49210784 -0.3715267 0.42480037 0.6567423 -0.7854906 0.86286074 -0.25970715 -0.60681015 0.14051321 0.060068868 0.09034807 0.2266182 -0.38869256 -0.5908715 -0.07049781 -0.112811655 0.68634367 -0.31959856 -1.1108726 -0.3883926 0.5239122 0.36804122 -0.38808328 -0.46160892 -0.012991194 0.4064281 0.43985865 -0.6078091 0.5332086 0.5136129 -0.49833703 -0.6068554 0.33100998 0.7432456 -0.4848913 -0.119650565 -0.4599809 -0.03664877 0.6802345 0.9838531 -0.5229225 -0.08814539 0.33660147 -0.14049758 0.34680897 0.44587907 0.16761346
public 0.24632943 -0.67019993 0.18868506 0.07348863 -0.1918084 0.21687223 0.8603653 -0.4942731 0.6787222 -0.6226651 -0.32627577 -0.54429364 0.5163249 0.5930832 0.26350138 -0.3321377 -1.1576353 0.4992992 -0.68267053 0.1846483 -0.011521696 -0.5178043 -0.18760373 0.020194171 0.15619041 -0.09592617 -0.008074855 0.7776418 -0.3540349 -0.3391896 0.035227038 0.037541345 0.37339088 0.08206371 -0.03914263 -0.10111401 0.11933957 -0.526919 -0.25782102 0.21942364 0.49850878 0.61122566 0.23961084 -0.4622883 -0.36774758 0.4004586 0.22413121 -0.34677586 0.08590907 0.32914308
consumer -0.34311008 -0.80726874 -0.71013945 -0.76677877 -0.4045831 0.41057163 0.45472527 -0.5376804 0.12726559 -0.32418987 -0.20203108 0.009682174 -0.32709503 0.8612314 0.9793959 -0.87828434 -0.956555 0.89812285 0.5150919 0.55889976 -0.70423 -1.2221705 -1.3790464 0.6171964 0.45411813 -0.024765158 -0.32899243 0.29216623 -0.908312 -0.48846766 0.069267206 0.034549937 -0.6911865 -0.4135353 0.14502864 -0.15993689 0.48488227 -0.7279984 0.3749211 0.7706841 -0.726892 0.9805361 0.00081174873 -0.7869844 -0.20982753 0.92342395 -0.11202196 -0.3415659 -0.32157525 0.13909352
confidence 0.09897776 -0.024366245 0.049271666 -0.2419527 0.2319662 1.4600351 0.42166942 -1.1389573 0.37101543 -0.4015985 0.0108827045 -0.10392103 -0.13644616 0.6664909 0.47507477 -0.59118336 -0.8245745 0.6049766 -0.22559799 0.45936576 -0.47923625 -0.7946459 -0.25564432 0.975344 0.12728348 -0.78697187 -0.36598706 0.6645687 -0.1370861 0.4074879 -0.5898966 -0.4907255 0.13601741 -0.6105835 -0.80742913 -0.0019254778 0.1762733 -0.18386947 0.13685177 -0.10482529 -0.47103664 0.39109406 0.53246975 -1.1075696 -0.55243343 -0.11005574 -0.46391907 -0.15752855 -0.2831713 0.27837205
in -0.08007837 -0.032982796 -0.13255379 0.19037329 -0.11443563 0.20412214 0.1394603 -0.18894409 0.26109543 -0.39509305 -0.005507687 -0.1778197 0.0034498617 0.06281996 -0.38928065 0.22765997 -0.1849674 0.2664904 -0.57186496 0.36482418 0.16493268 -0.06463486 -0.2254171 0.39896646 0.06974554 -0.25881866 0.016296413 -0.1583864 -0.10153217 -0.20910989 0.0027414777 0.031920824 -0.13305423 -0.026349094 -0.053152584 0.09626543 0.2119945 -0.027246548 0.20792466 0.10495908 0.19690877 -0.042447113 0.23642473 -0.07614383 -0.32014126 0.105392955 -0.20213844 0.42819008 0.1806109 0.10510413
March -0.5405426 0.08800365 -0.37482703 -0.22824393 0.25386113 0.66298634 1.1516793 0.006413269 -0.061053418 -0.6429043 -0.5495916 -0.21411149 -1.2353091 -0.12422266 0.14720908 -0.35071984 -0.77485645 -0.12556972 -0.46612993 0.1533592 0.4644692 -0.5928086 -0.26804844 0.42444715 -0.3783177 0.3368986 0.0009058357 0.35899407 -0.0030008086 -0.30138752 0.59601706 -0.06772431 -0.035478648 0.0814813 -0.7093778 0.9602862 -0.22124912 -0.7055045 0.6064719 -0.11395862 -0.10450967 -0.063110724 0.17995599 -1.3222536 -0.18523712 0.42356908 -0.4014722 -0.7134024 0.2947972 0.14508532
report -0.18824866 -0.36346537 -0.08146055 -0.5604185 0.4467031 0.61707515 1.0167135 -0.017712563 0.3232951 -0.9093266 0.24240349 -0.10433225 0.15201524 0.12066309 0.32818568 -0.6097334 -0.40358797 0.5036638 0.035649963 -0.008932295 -0.06387522 -0.26323897 0.04399763 0.51771903 -0.15842009 -0.81055486 -0.002108563 0.38925743 -0.3151414 0.03812807 -0.49402094 -0.16160661 0.15051058 -0.29493532 0.01092636 0.22721802 0.5411382 0.34618068 0.058361053 -0.018476442 -0.24511708 0.56828743 0.28850946 -0.38796246 0.04231149 1.0371345 -0.17129476 0.014006757 -0.29221013 -0.04745651
beef 0.020401068 0.64939123 0.29990542 -0.1146986 0.30978298 0.45366186 0.9028237 -0.6822192 0.4654124 -0.83678055 -0.49193355 -0.5474304 0.2728533 0.1687823 -0.32465094 -1.1700075 -0.18937407 -0.6098602 0.0050377958 -0.20565794 0.44702277 -0.60428387 -0.35038674 1.464261 -0.12972516 0.95817316 -0.27341136 0.59407747 -0.39319146 -0.23553142 -0.09253078 0.42208388 -1.0335312 -0.011587752 0.025878951 0.44054 -0.5687441 0.15884723 0.11574055 0.99539 -0.28748414 0.33725667 0.43161213 -1.2926978 0.5460249 1.0192509 -0.58463967 -0.04372641 -0.83704036 -0.48171136
year 0.42743474 0.4068892 -0.054708336 0.81012386 0.12038881 -0.01407656 0.3887816 -0.08028501 -0.30484036 -0.1791462 -0.10345593 0.6287785 -0.44213164 -0.45600557 -0.36073014 0.011524558 -0.63213277 0.14104615 -0.55146277 0.30353945 -0.084315315 -0.0881352 0.008844311 0.77028614 -0.36421573 -0.37652057 0.080775596 -0.09519687 0.24134333 -0.35484514 -0.53828067 0.4370041 -0.41268983 -0.28951377 -0.16192542 0.095302 -0.27743155 -0.30916116 0.77056724 -0.10710102 -0.03587376 0.55709934 0.22894256 -0.76687235 -0.4295002 0.43914372 -0.690054 0.37590608 0.5469053 -0.45932525
nearly -0.39042318 0.1537734 -0.26061416 0.4465855 -0.19184496 0.24058439 0.2620267 -0.5185709 0.03000661 0.010820344 -0.9378421 -0.018986937 0.0848595 0.20272306 -0.9742922 -0.23505387 -0.085648336 0.5017569 -0.19460626 -0.06098191 0.33490163 -0.26491696 0.22133397 1.1926454 -0.36727607 -0.00351536 0.07499127 0.88136417 0.6272068 -0.4316408 -0.15072864 1.0847269 -0.51177263 -0.26743287 0.44769463 0.06502536 0.57346785 -0.35147312 0.27412874 0.06463236 0.6448911 -0.16538157 0.63011515 -0.08466348 -0.36764014 0.19074376 0.21559389 0.015221164 -0.08480272 -0.7381997
half -0.44556063 -0.4667426 -0.33879492 0.04217851 0.42610392 0.60574144 -0.12161999 0.44453847 -0.149852 -0.84160066 -0.48333418 1.0716802 0.3119609 -0.3226549 -0.40578392 -0.6400179 -0.6553476 0.03312769 -0.5577223 0.598756 0.013224245 0.2940221 -0.14916755 0.33862796 -0.19754918 -0.41723374 -0.45393977 0.36268565 -0.13230033 -0.46952796 -0.5368015 -0.13985069 -0.3752261 -0.39656594 -0.20854755 -0.15522826 -0.24927625 0.21407984 0.6137527 -0.17775483 0.60555065 0.38275546 0.5030982 -0.6167726 -0.67969286 -0.1359344 -0.42964405 0.12964495 0.50385493 -0.77147996
total -0.5245605 0.021500437 0.29044127 0.29294002 0.19800991 -0.21534549 -0.5109768 -0.043165743 0.8421523 -0.2532308 -0.40661702 -0.16128352 0.49192142 0.47050822 -0.10214284 -0.70877343 -0.25387266 1.1673543 -0.00026544108 -0.0118538635 0.17646942 0.55903393 -0.34778777 0.55460125 -0.0071237828 -0.06347357 0.045548484 0.3054639 0.021696398 -0.6480197 0.014049398 -0.08915607 -0.4159784 0.47864988 0.28464547 0.45584014 -0.43568042 -0.010956666 0.34450278 0.14079084 0.6588349 0.2654135 0.30025667 -0.20832443 -0.024811473 0.100546785 -0.5833684 -0.32455373 0.8645876 -0.9800837
imports -0.50348955 0.5633736 -0.4909304 1.073662 0.5728939 -0.8313571 0.10381334 0.13349128 0.7963281 -1.001621 -0.28701505 -0.16926834 0.056755703 -0.31871325 0.32179207 -1.271784 -0.28191897 0.62106663 0.49248496 -0.212214 0.57158506 0.056311425 -0.703189 1.1306068 0.40522122 0.17379674 0.05244335 0.6507318 0.5482512 -0.89180297 -0.5889532 0.20228492 -0.5304269 -0.12025741 -0.20259659 0.54711765 -0.15627696 -0.20441616 0.75828487 -0.21435481 0.5161423 0.1544139 0.504394 -0.72910327 -0.7623471 -0.39148086 -0.68633777 0.091723956 0.2543269 -0.72323817
It -0.05940796 0.2696122 -0.1528756 -0.44530132 0.3895195 0.1073886 0.6787613 -0.1415607 0.22742803 -0.5237911 -0.014666835 0.5042787 0.1602671 -0.41810906 -0.42355287 0.346718 -0.27209386 0.63214934 -0.18057145 0.10757199 0.013565785 -0.022584585 -0.38340715 0.5644008 -0.1920822 -0.75353897 -0.24401277 0.24433064 -0.41979772 -0.36525685 -0.20987499 0.14580673 -0.020438462 0.115403116 -0.3886893 -0.09039588 0.19355026 -0.5149604 0.48632017 -0.058398303 0.41117167 0.43127334 -0.1585542 0.35588682 -0.13422953 0.13119021 0.21302864 0.6254727 -0.50316644 -0.17924915
brought -0.25772348 0.43931437 0.20033967 0.5866571 -0.49716777 0.3931783 -0.10931341 0.3704929 0.76904887 -0.1739866 -0.4928571 -0.25099775 0.2993435 0.14751385 -0.040036526 -0.06937486 -0.25133273 0.45536828 -0.31791222 0.08071415 -0.2484562 0.19231997 -0.3776672 0.8121194 0.19292061 -0.0034418704 -0.47046506 0.2601559 -0.14518017 -0.09652636 -0.1967651 0.41883036 -0.5668645 0.35727704 0.54591376 -0.04248574 -0.21536553 -0.50524163 0.25986755 0.015442226 0.063810095 0.40228787 0.7305511 0.37672836 -0.23042457 0.56554556 -0.46870673 0.6321614 -0.029595211 -0.009539093
tonnes -0.6387864 0.24458116 0.11303112 0.39754072 0.30137408 0.36139688 0.7036013 0.13406578 -0.41059697 -0.6063935 -0.2590761 -0.35142982 0.18723568 0.8046968 -0.015774354 -0.32198843 -0.50925165 0.13912259 0.96452516 -0.12417675 0.2617302 0.4534392 -0.3968313 0.76836675 0.012625622 -0.18205254 -0.1982109 0.26900357 0.109368496 -1.1856165 0.19210742 0.37699872 -0.95022583 0.24936579 -0.32847235 0.11795668 -0.69376063 -0.7535635 0.37198094 0.3672452 0.64067894 0.10692789 -0.0510628 -1.0945168 0.066051684 0.50893337 -1.4423846 0.29220945 0.07469089 -1.2397498
some 0.061189786 -0.3013509 0.2791734 0.28630084 -0.011353005 -0.079430684 0.24857163 -0.3305647 0.37056983 -0.026866391 -0.14022604 -0.39012325 -0.006581192 -0.27178392 -0.22816429 -0.15489212 -0.39816573 0.29800516 -0.5029964 -0.19784297 0.07700567 -0.021103293 0.07237725 0.2840661 -0.0276461 -0.22148322 -0.45004234 -0.046297174 -0.38144213 -0.83049065 0.47607088 0.13091153 -0.004540548 -0.084863245 0.019014722 -0.29332116 -0.22657578 -0.052384686 0.022719037 0.5864586 0.05252997 0.15282659 0.43870243 -0.51675475 0.006591326 -0.3717305 -0.48002362 0.63155174 -0.51461375 -0.17746039
