4912 50
EU -0.789915 1.0216293 0.4659624 1.345826 0.5993055 0.09412291 0.4199649 0.3967416 -0.75972855 0.615497 0.5624341 -0.11761192 -0.2819703 0.20923144 0.13219027 -0.5783518 -0.52806306 0.02326426 0.51928097 0.7532025 -0.4802303 0.04481856 1.2944074 0.5939315 0.11298148 -0.7644791 -0.30549815 -0.37914252 -0.6369081 -0.34614202 0.7572471 -0.09570447 -0.589809 0.8212677 -0.9120575 0.292756 -0.7131036 0.62067944 -0.16035107 -0.27845624 0.92046094 0.017992584 -0.43784335 -0.4471411 -0.24280375 0.08691133 0.41040283 0.59775543 -0.62500393 0.80267346
German 0.75975066 0.35551193 -0.4661068 0.05454766 0.25335005 0.117689036 0.66318077 0.36476043 -0.18039158 -0.29861555 -0.32440373 0.43288982 -1.0937208 0.34101456 -0.9465419 0.9203666 -0.42879334 0.5106503 -0.01748695 0.68145066 -0.55693656 1.0025301 0.8576041 -0.18501376 0.015899211 0.27244842 -1.4727157 -0.79382265 0.19813663 -0.114892416 1.0013808 0.3054402 0.04174439 0.74681866 0.55065274 0.18143189 -1.0047063 -0.14907946 -0.3823884 0.58167815 1.0762532 0.36069748 -0.27712202 -0.57396615 0.1092276 0.32926762 0.507651 -0.18380637 -0.4994739 0.48877272
call -0.6662492 -0.07903519 0.8869693 0.14883424 -0.0043981057 -0.24712475 0.6743318 -0.42020068 -0.2506901 0.2123974 0.06717485 -0.003166822 0.11811108 -0.07372917 -0.31014496 -0.4446127 0.35428977 1.0877808 -0.90303373 0.18516964 0.9150216 0.32025012 -0.1266115 -0.77754754 0.090669416 0.44380146 -0.841735 -0.28365672 -0.90911615 0.17455731 0.10205438 -0.6472096 -0.61279935 1.0194224 -0.38554657 0.44990113 -0.68930256 -0.026612693 0.7191679 -0.049048986 -0.2595946 -0.07385696 -0.46120846 -0.8506067 0.6376969 0.8568935 0.29966483 -0.6129305 0.10520851 0.99763376
to -0.3797375 -0.37438682 0.39320257 0.14733136 -0.03189615 -0.37117085 0.32885966 0.13577925 0.28918839 0.38645765 0.072702885 -0.12619628 0.09617688 0.2235633 0.24212903 -0.35984108 0.25780398 0.3361142 -0.18927962 -0.43831596 -0.3354109 0.002594965 0.38568652 0.06667347 -0.009037429 0.20493983 -0.43374577 -0.2170664 0.20937374 0.13293633 -0.11586653 -0.27166274 -0.22311775 1.0432582 -0.21331328 -0.07004408 0.0964709 -0.5002959 -0.23593958 -0.22760509 0.09932917 -0.08024484 -0.6680681 -0.36093357 0.119567014 0.46270844 0.23384282 0.05973511 -0.5959841 0.47970515
boycott -0.03415221 0.4204153 0.8089133 0.23366842 0.360627 -0.26815906 0.7310315 -0.04159582 -0.2009427 0.18549067 0.15971664 -0.078452684 -0.179181 0.06708247 -0.612131 -0.36242837 0.2670651 0.2968156 -0.94396436 -0.12866612 0.89630246 0.06855262 0.31005678 -0.2099825 -0.22792235 -0.17759405 -0.114953116 -0.04747562 0.51791126 -0.18051726 0.4657583 -0.36499354 0.33293757 0.77136457 -0.14907031 -0.29371673 -0.4369672 -0.3309598 -0.6544645 -0.2193857 0.6255194 -0.15527602 -0.13206087 -0.8114357 0.17339166 0.6949463 0.6783961 -0.21195759 0.17454016 0.54192
British -0.074538216 0.2378078 -0.4656323 0.154563 -0.105284475 0.4556495 0.44144666 0.10188883 0.12053282 0.64335006 -0.5469874 0.4241809 -0.90209764 -0.3182693 -0.4626159 0.03240464 -0.22441387 0.1883866 -0.09810316 0.9791641 0.18212366 0.789356 0.14274554 -0.93913543 -0.65205425 -0.5294384 -1.16841 -0.080753416 0.43123758 -0.21554098 0.31393933 -0.037161574 0.61685973 0.9883848 0.62207115 0.07916495 -0.6830461 0.019745123 0.24985154 0.030213613 0.3948228 -0.5394888 -0.39983597 -0.6194899 0.39513406 0.634164 0.42194468 0.19951054 -0.1915615 0.12247863
. -0.29140913 -0.18435283 0.52772295 -0.37507877 0.21062393 0.09754054 -0.0096813645 0.16487157 -0.11917585 -0.14869794 -0.6532688 -0.19803987 -0.12571238 0.2957903 0.303296 -0.098459244 0.38426 -0.056393936 0.060500324 -0.13448389 0.102338694 -0.24196504 0.31061745 -0.006435371 0.03650695 0.21899877 -0.22682858 -0.20556402 -0.010075358 -0.20980076 0.08892171 0.31877226 0.04912741 0.38405845 -0.017776785 -0.34409145 -0.49091968 -0.3646439 -0.21679817 0.20790903 0.3212489 -0.13812457 -0.08596586 -0.63052934 0.16917393 -0.21856418 -0.3798981 0.21581982 0.27638885 0.23704913
Peter -0.0565549 0.008499924 0.278397 0.64019525 -0.0984693 -0.06188517 0.17472215 -0.0024883896 0.13826755 -0.07310591 -1.3664205 0.83692694 0.91884613 0.19536105 0.011971998 -0.29246756 -0.34774658 -0.15328068 0.5901056 -0.44289032 -0.8618791 0.93737483 0.7363711 -0.021308703 -0.42434955 -0.45969987 -0.11090532 -0.7242063 0.5948342 -0.68654346 0.77656585 0.47256103 -0.5779015 0.6536995 -0.26417235 -0.6043239 -0.31248036 -0.77223873 -0.79348177 0.2022523 -0.28691098 -0.5848238 0.27170727 -0.79266447 0.19566451 0.06318672 0.35162383 -0.04362927 1.0282997 -0.43846333
Blackburn 0.040702518 -0.3453835 1.0166763 0.16620086 0.29498056 -0.52891916 -0.47324145 -0.046452943 0.39967492 0.5449485 -1.3319106 1.1089706 0.017700233 0.9088614 -0.5574363 0.17161337 0.1396365 0.1620564 0.22420022 0.33663407 0.20227231 0.7956324 0.58458406 -0.20286712 -0.091052935 -0.29246584 0.19776113 -0.505782 0.18153669 -0.67933434 0.14319266 -0.56945807 -0.104748376 -0.31817853 -0.27134553 -0.35249203 0.041283544 0.38252276 -0.2520602 0.6438693 0.5723734 -0.5936813 0.24665713 -0.74117947 0.012729044 -0.20637102 0.18749832 -0.04254648 0.1501467 0.9130559
BRUSSELS 0.64566386 -0.21792008 1.0395656 0.81995076 -0.4281165 0.19431731 0.035853576 0.44577885 -0.25200087 0.28212094 -1.19058 -0.30323383 -0.037316658 -0.3481341 0.44644532 0.19727102 -0.12862502 -0.24994427 -0.8034559 0.11255368 -0.9701413 -0.18554868 0.3331333 0.18678434 -0.49004778 -0.948362 -0.15270545 -0.5344393 0.21220858 -0.81379783 -0.3805956 0.80161476 0.10880086 0.42814484 0.007156235 -0.9271754 -1.4528155 0.08134579 -0.33539858 0.5870231 1.0969278 -0.2456682 -0.7631893 -0.80344015 -0.43980557 -0.30247554 0.71337026 -0.7242775 0.53874904 0.4561584
1996-08-22 1.1950177 -0.03442194 0.9250023 0.041092973 -0.7046122 -0.050125856 -0.36400098 0.48764393 -0.30817983 -0.19189917 -1.6191531 -0.46450225 0.024627862 0.22511457 0.62481964 -0.4294601 0.8595974 0.14352025 -0.35680842 -0.25029302 0.76256025 -0.33764634 1.409741 -0.02831451 -1.1748128 -0.24252851 -0.47483718 -1.2266061 0.041747943 -0.94414794 0.09140727 0.31492448 -0.0969158 0.3000823 -0.41777742 -0.29092824 -0.96793354 -0.27616364 0.9194991 0.3831787 -0.19364643 -0.79289496 -0.87086636 -0.3088095 -1.0754224 -0.1278149 -0.6000274 0.790777 0.83518636 1.1611516
The -0.6666335 -0.23249461 0.56850934 0.18543172 -0.13536593 0.51707107 -0.3788787 -0.25190094 0.3929947 -0.23923756 -0.27241927 -0.14625223 -0.554937 0.08985834 0.27301875 0.15111308 0.39037406 0.5763701 -0.5909674 0.21446328 0.04277437 -0.7420093 -0.1386573 -0.56185955 0.092031635 0.07819839 -0.47024268 -0.50479174 0.5018352 0.062972985 0.09342323 -0.21469323 -0.72830063 0.5851597 0.1093506 -0.5857994 -0.7364185 -0.33563715 -0.28415802 0.09732356 0.42937505 -0.044765443 -0.49620885 -0.42259994 -0.06985178 -0.112004235 0.24688253 0.11827739 0.6419187 0.1888137
European -0.52166826 0.06992463 0.970639 0.25541806 0.6371756 0.41148832 0.038327705 0.25275016 -0.3932347 0.102556795 0.25054297 1.1283413 -1.0657835 -0.13396856 0.8565425 0.3107759 0.19068992 -0.04141998 -0.25036597 0.38820657 -0.5653906 -0.13029414 0.55643874 -0.20759295 -0.18967777 0.0910342 -0.91882455 -0.8931606 -0.07336309 0.8909443 0.009330225 -0.017498117 0.7095651 -0.67553985 0.21539289 0.13417669 -0.7222936 0.370504 -0.2308674 0.44495317 1.5892678 -0.45792288 -0.21353278 -0.35785082 -0.87851715 0.36564827 0.7177777 0.6028264 -0.059531584 1.0502366
Commission -1.0195987 0.9579422 1.0927861 1.0104798 0.59492487 -0.46319523 -0.070589066 0.47428972 -1.725125 1.0669012 -0.23791723 0.2678496 0.15392229 -0.07143325 0.3806597 0.5143659 0.09029213 -0.46996054 0.18900762 1.3178897 -0.44284406 0.4247559 0.9950164 -0.33689994 0.10481521 -0.45195717 0.012066482 -0.5838943 0.236019 0.26281053 0.8744465 -0.02124501 -0.6325059 0.5169213 -0.15116489 0.8869215 -0.44203496 0.32299957 -1.0541595 0.8136086 0.37081462 0.4337516 0.04056748 -1.3140339 0.37160146 -0.3231264 0.7577508 -0.8102232 0.4906293 0.35048714
said -0.6726213 0.019923648 0.32666522 0.07633556 -0.043173686 0.0064948434 0.47554109 -0.11172949 -0.5171785 -0.123376295 -0.7364114 0.05286604 0.105688974 0.0557692 0.38436309 -0.5330451 -0.023417907 0.14836273 0.026806481 0.27969155 0.33444884 -0.7421349 0.1324176 -0.67993635 -0.2901652 -0.37946007 -0.15430555 -0.22011347 -0.25745437 -0.6406927 0.69710916 -0.0011946883 -0.13611361 0.45553073 -0.12614875 -0.18197519 -0.80463034 -0.35575357 -0.5556475 -0.061797254 0.2155387 0.26602247 -0.121992506 -0.65799797 -0.09376347 0.38677517 -0.3503622 0.006922776 0.5377605 0.23463486
on -0.11592153 -0.13280302 0.3824854 -0.108222894 0.39202338 -0.084091716 0.08834688 -0.19770911 0.24423844 0.45453206 -0.4795999 0.5329104 -0.2679182 0.48857695 0.32596377 -0.2717479 0.030673917 0.28939927 -0.2931667 0.15215991 -0.7054769 -0.5001112 0.27407554 -0.101684265 -0.26237327 0.1894318 -0.08004777 -0.5621609 -0.09260661 0.23090556 0.09118232 -0.25211665 0.04975432 0.77919257 0.19224273 0.044527467 -0.4906489 0.00628148 -0.14507596 -0.11541251 0.22591998 0.17561978 -0.5119282 -0.59948725 0.45970973 0.12683706 -0.2713484 0.36975136 -0.42210206 0.59051114
Thursday 0.3718279 -0.2112074 0.036944054 -0.12732185 -0.049363185 -0.7566351 -0.3391073 -0.35762417 0.006639611 0.39814213 -0.776767 0.624737 0.60247517 0.12600873 0.1749153 0.13642152 0.022479685 -0.32891467 0.20343804 0.24163827 -0.98296916 -0.6689589 0.41527656 -0.6065469 -0.15198606 0.11143079 -0.002936823 -0.1751307 0.5371307 -0.1902341 0.81875414 -0.7531179 -0.30286807 0.9820915 -0.6083659 0.0770093 -0.63014203 0.2366725 0.11086853 -0.80322903 0.5157166 0.09915174 -0.2974133 -0.9918461 -0.12908174 0.46948484 -0.1214759 0.60774565 -0.24642573 0.9524775
it -0.26588485 0.38364673 0.66071415 0.27685916 -0.12950873 -0.09893893 0.6408005 -0.34467602 -0.038046595 0.31159145 -0.39886588 0.41310605 -0.6198949 0.47347727 0.22519404 0.24593696 0.07367689 0.43442035 0.80426824 0.50175434 0.29489678 -0.16912511 1.2088642 0.2343987 -0.28805068 0.15662432 0.020262755 -0.24258958 -0.16717573 0.5419495 -0.1526833 -0.6949227 -0.105480924 0.35218233 -0.38769597 0.022930548 -0.48263183 -0.61146414 -0.15720536 0.02782573 -0.074000254 0.57113135 -0.5006631 -0.6493766 0.59595376 0.95321745 0.020331679 0.1121759 0.11106885 -0.39461848
with -0.13814907 -0.56613064 0.40047923 -0.027526625 0.27146664 -0.06766941 0.3051677 -0.1415675 -0.10469702 -0.017074382 -0.04009668 0.22171988 -0.39130768 -0.027437236 0.52727395 -0.23059198 0.49042523 0.3827038 -0.5323391 0.16474083 -0.3719436 0.056870565 0.9109081 -0.30080494 -0.8009769 0.006461757 -0.60597324 -0.72171116 -0.34815317 -0.07734189 0.040643044 -0.38997653 -0.34198165 0.6860792 -0.31366 -0.36913413 0.2836444 -0.16632368 0.33324182 -0.4037867 0.28378814 0.7140694 -0.76114184 0.5359517 -0.16038713 0.091756396 -0.2407124 -0.09971334 0.38865522 0.11406116
advice -0.05410195 0.10481876 0.5292684 0.44362915 0.40344954 -0.5781913 0.24752966 0.42180273 -0.23188215 0.19906256 0.2823163 0.36292282 0.40199625 -0.08039468 -0.096772216 0.0061047296 0.35067254 0.48066747 0.20289163 0.64874506 0.5613887 0.022735514 0.5136797 0.04847343 -0.7240535 0.24239649 -0.70711976 0.018791815 -0.14350069 0.107188 0.36752272 -0.42030844 -0.06346567 0.7851449 -0.21067937 0.13761446 -0.4885513 0.270321 -0.7827793 -0.09300031 1.0094374 -0.20732266 -0.523899 -0.80482733 0.38094425 0.87322134 -0.0047420203 -0.24444051 0.39438322 0.22442809
consumers -0.6093463 0.2230319 0.33388466 0.76305276 0.4141877 0.07722732 0.08252471 0.02126193 -0.6528959 0.3177901 0.048254855 0.26376194 0.037149575 -0.76807994 0.07598112 -0.3224053 -0.06809202 0.8710844 0.08940579 0.42212653 0.5375586 0.19741662 0.7297565 -0.4165381 -0.832954 -0.23960465 -0.429874 0.11384831 0.06266297 0.61686915 0.6337454 -0.5294828 0.42568073 0.91811794 -0.56432855 0.3685753 -0.5904833 -0.04735723 -0.752836 0.85144097 0.974426 -0.58548754 -0.86014396 -0.47894397 0.19362025 1.3217463 0.6190168 -0.17926173 0.039725643 -0.1368129
until -0.6331364 0.23108327 0.78982395 0.24347937 0.5490139 -0.5010098 0.680671 -0.49849388 0.9393223 0.38192654 0.03716174 1.0076958 -0.43485716 0.17030613 -0.38229328 -0.6247776 0.08801812 0.5502014 0.101684056 0.18530706 0.32434008 0.18218678 0.5354274 0.037814546 -0.85002905 -0.19412862 -0.464757 -0.6776094 -0.4163212 -0.024065856 -0.85402054 -0.3555552 0.21942961 1.1935451 0.4894285 0.32752672 -0.24672198 0.039951734 -0.66588235 -0.20895812 -0.02446666 0.60609823 -0.5581335 -0.6366116 0.21796842 -0.28896624 0.0021987476 -0.40586928 -0.24423136 0.54629266
scientists -0.1265554 0.08274772 0.5238597 0.36093557 -0.26788342 -0.42766875 0.14524888 -0.47536677 0.22676092 0.49466562 0.42573574 0.26904404 0.38553086 -0.48059016 -0.12693663 0.09205392 0.017042778 0.29884505 0.46627071 0.98167884 0.23576668 0.05015838 0.9970031 0.35415176 -0.08591553 -0.13024898 -0.27126008 0.2507827 -0.2813624 0.08135681 0.3282141 -0.8872925 0.67793816 1.0306431 0.33346674 -0.24456011 0.062559195 0.49354085 -0.7192058 -0.20469426 0.7579016 0.15045917 0.0865347 -1.2175461 0.6328305 0.58885634 0.5404482 -0.10586662 0.15978344 0.5137243
determine -0.23974164 0.3807854 0.79712456 -0.2719934 0.6800818 -0.007494524 -0.47561783 -0.108588755 -0.10499423 0.5564965 0.41210043 0.86106557 0.13004105 -0.38589156 0.1978399 -0.51873994 0.04045144 0.12622562 -0.1869048 0.398948 0.25331894 0.14630976 0.57005626 0.5620791 -0.45506325 0.20526794 -0.8223475 1.1161141 -0.11270299 -0.10728073 0.12423984 -0.4103054 0.60405064 1.6752847 -0.47132763 0.23983389 0.0070666107 -0.31431395 -0.6444345 -0.6764233 0.92509395 0.5343855 -0.066189595 -1.3120288 0.58441335 0.6390876 0.93030345 -0.62183946 0.29639572 0.21919999
whether 0.5491711 0.68058664 1.5432674 0.5561855 0.048629753 0.03676307 0.38019213 -0.11926607 0.2965326 0.14094998 0.83864975 -0.6176007 1.4809393 -0.3667861 -0.27222794 -0.32287222 -0.1531443 -0.3911867 0.04835819 0.53230745 -0.2544436 -1.1379511 0.7128981 -1.1893423 -0.733788 -0.99674827 -0.592069 -0.114490986 -0.8532689 0.71810234 -0.10402813 -0.832707 0.62183106 1.5087129 0.35349667 0.28408495 -0.40978554 -0.42559248 -0.84497154 -0.520125 0.4103213 0.42978117 0.23161672 -1.3069721 0.4774309 0.79330117 -0.3053402 -0.56690085 0.33541015 0.1419518
mad 0.03373267 0.8028511 0.7287811 0.2632413 -0.47475618 -0.23935463 0.16327271 -0.62102264 -0.34003103 0.3533868 0.58672816 -0.7530657 0.70629007 0.41961014 0.03611865 -0.48583728 -0.06266977 0.24911837 0.40540224 0.43235946 -0.16507241 -0.62293375 1.5120326 0.77429587 -0.5623511 0.17083147 -1.5525835 0.4060381 -0.050850015 -0.17945114 -0.1866211 -0.49713403 0.39401776 1.3720964 -0.82549906 0.1258382 0.2563769 -0.19443047 -0.17448542 -0.33759534 0.16109754 -0.80349517 -0.101472095 -1.0873032 0.40251815 0.29536816 0.24160142 0.1597559 0.894322 -0.5900573
cow -0.22835928 0.8819785 0.8525802 0.29084828 0.006573171 0.26948288 0.64488935 -0.3336388 -0.3931079 -0.274746 -0.096614614 -0.60661364 0.16610327 0.45018435 0.09728039 -0.2780162 0.22133122 -0.19167915 -0.35348007 -0.30894563 0.3596984 -0.2850252 1.7971027 1.0723279 -0.2485385 -0.421879 -1.1083448 0.969684 0.056618202 -0.28142044 0.11997563 -0.89867544 0.26830932 0.8891335 -0.24942566 0.14455302 0.2361887 -0.3944016 -0.58451134 -0.62396777 0.076928824 -0.68929905 0.0840758 -1.4717208 0.24446271 0.14357279 0.33466622 0.43694788 0.758593 -0.0017801702
disease -0.05714026 0.7848009 0.69824 -0.21175525 0.15450107 0.7291529 0.619869 0.4880058 -0.5951042 -0.21918097 0.11246306 -0.56118894 0.26635176 0.6695015 0.40987647 0.16491975 0.23915435 0.033146873 -0.074868456 0.22733766 0.24806726 0.31181446 1.3328682 0.42412606 0.6313065 -0.7315557 -1.440566 0.3249442 -0.27864873 0.051641066 -0.06341366 -1.1048476 0.050076295 0.1958899 0.09147041 0.3502584 0.6950438 0.34234017 0.055600453 -0.7450809 -0.08634595 -0.4558077 -0.026903527 -1.175418 0.4438754 1.1834875 0.19569694 0.3961143 0.38704783 0.055293754
can -0.18178259 0.2998403 0.2880404 0.07795262 0.7042854 -0.7515059 1.3991983 1.0922376 -0.28875408 -0.61211324 0.45311767 0.17357069 -0.15896443 -0.02313931 0.21816443 0.8712906 0.5099066 0.54376 -0.016273085 -0.042789724 -0.66088665 0.004148204 0.8456533 0.5283154 -0.04367031 0.054361917 -1.310528 -0.8953496 -0.6344145 -0.474504 -0.024075422 -0.4774078 -0.2621852 1.0226953 -0.15309092 -0.08840162 0.5931608 -0.02305107 -0.5145525 -0.1341813 0.24939388 0.41698882 -0.40324742 -1.6917753 0.2782201 0.9465901 -0.19417833 -0.64382684 0.13851467 -0.4601128
be -0.7416089 0.6982423 0.5139386 0.02659956 -0.31857753 -0.6869668 0.6240403 -0.6065924 0.28560033 -0.016498746 0.26846996 0.22701713 -0.024098694 -0.11484648 -0.27966186 -0.1260317 0.30500764 -0.58449626 -0.10022801 -0.3351664 0.63697153 -0.27287966 0.7514411 -1.0254048 -0.8748287 -0.25579795 -0.5151609 0.44703966 0.7431976 -0.23236617 -0.5678665 -0.87915134 -0.69114625 0.76907843 0.12016244 -0.6250513 0.0474487 -0.479833 -0.16730382 -0.21013118 0.4154008 0.27230838 -0.119612634 -1.3605251 0.15751043 0.4197847 0.32893723 -0.62214637 -0.85758376 0.17077123
sheep 0.22552867 0.33641043 1.2144786 1.1391507 -0.5851712 0.5642467 0.8232801 0.637079 0.56795806 0.20126465 0.35967988 0.7287191 0.37123054 -0.24454884 -0.06681174 -0.14124086 0.72026855 0.4412958 0.37405774 0.8280074 0.5061829 0.73490036 0.75063974 0.330736 -0.93199664 -0.87884814 -0.41130626 -0.5764786 0.20545672 0.4417334 0.41806692 -0.903007 0.6204599 0.43206587 -0.6748761 0.2624788 -0.44248012 0.23455663 -0.11336135 0.11934189 0.6429526 0.49033648 -0.49713442 -1.1929663 0.052666377 0.59421426 0.032792978 0.27499044 -0.05483669 -0.17487396
Germany -0.025674177 -0.12039852 -0.035061356 0.39066035 0.1494105 0.8381491 0.21854675 0.6905848 0.19449164 0.6130315 -0.87684107 0.6372023 0.46414533 -0.43019518 -0.018013 0.63449967 -0.8258981 -0.016378302 1.0219246 1.0333976 -0.34934464 1.589189 0.38835794 -0.14097261 -0.47944924 0.3189771 -0.6863615 -0.3894423 -0.07041451 0.39537215 -0.41898644 0.82387406 -0.28879803 0.8290684 -1.1017255 -1.038891 -0.124542184 0.2571517 0.22111718 0.17379096 0.37282357 -0.60068923 0.09081513 -0.7101261 0.45033026 0.50911003 -0.19971266 -0.5864191 0.57046694 0.86021066
's 0.1522187 -0.5129245 0.35641223 0.055737004 0.3141272 0.4528364 0.91239184 -0.042150486 0.33986506 0.31623524 -0.3338927 -0.65761936 0.2967814 -0.07080562 0.25978726 -0.17405388 -0.006672772 0.16702217 -0.19484235 0.64737225 -0.18020292 -0.36259437 0.20277423 0.08836926 -0.3126086 0.58521414 -0.3271613 -0.46321836 -0.5466697 -0.20331298 0.43055224 -0.09222541 -0.47671846 0.34077874 -0.19424754 -0.32092664 -0.7313972 0.1467287 -0.6674598 0.23729084 0.65816015 -0.2170314 -0.3923161 -0.5472635 -0.38940305 -0.64604527 -0.37185562 0.07680944 -0.19029789 0.0070094783
representative -0.7093078 0.30781737 0.99256545 0.099838644 0.25228548 -0.32371697 -0.024121316 -0.3765257 -0.8605868 -0.040747456 0.03748365 0.09240149 0.20671819 -0.27998272 0.032250755 -0.46300772 0.9026222 -0.42184988 0.22017275 -0.08677558 -0.21149549 -0.22928275 0.26503333 -0.44807568 -0.39991793 -0.5078552 -0.49420682 -0.12285311 -0.18040298 0.07897613 -0.034676638 -0.32508397 -0.17201376 0.38518757 -0.41075277 -0.4130258 -0.49439538 0.5159694 -0.41890898 -0.0124894185 0.7079519 0.05672517 -0.5263423 -0.20701613 -0.29393956 0.2551828 0.34849063 -0.10191371 0.11942507 0.40799946
the -0.2596632 -0.3389411 0.27560705 -0.13864365 -0.16407783 0.12093066 0.112998694 -0.22696067 -0.058370113 -0.09642822 -0.25253782 0.037506655 -0.2512822 0.114108875 0.24782707 0.022860644 -0.03426919 0.15570174 -0.28050035 0.28489238 0.048386607 -0.094999865 0.23769712 -0.057712268 0.010882685 0.33923492 -0.62502944 -0.5506989 0.20129439 0.4287282 0.20944315 -0.68054223 -0.29397374 0.5267104 -0.056828022 -0.13672683 -0.3429411 -0.19916259 -0.4618056 -0.27050737 0.47797158 0.034419425 -0.27898613 -0.2950409 0.06497461 -0.30287552 0.27574396 0.071417496 -0.1356823 0.2555115
Union -1.0111233 -0.24542774 1.4427279 -0.28468874 0.4233624 -0.4430252 0.29402882 0.75658876 -1.8247132 0.43663335 -0.1811187 0.7041297 -0.62960434 -0.54006267 0.15048738 0.15913798 -0.7153314 -0.38484156 0.23880653 1.2267847 -0.07752373 0.0100402925 0.85395634 -0.038929958 -0.11112099 0.17335355 -0.26064458 -0.32098588 -0.26319095 -0.07044776 0.5469973 -0.32709002 -0.4516539 -0.43105373 -0.27170506 -0.036211777 0.21062662 1.429702 -1.2520188 0.57356817 0.85591966 -0.7489786 -0.64216816 -0.70927536 -0.12482553 0.42004034 0.32996723 0.53851914 0.65700686 0.85978866
veterinary -0.36683285 0.29370254 1.0269983 1.2490474 -0.3019532 -0.278022 0.018458575 0.18711066 -0.79103357 0.4587883 0.4794928 0.6273231 -0.36092153 -0.45198315 0.4672814 0.42412236 0.031506002 0.11964459 0.39777893 0.5161316 -0.26812163 0.117029525 0.80429333 0.19764274 -0.39514604 -0.471313 -0.3432199 -0.061141 -0.5143395 -0.0971317 0.95145106 -0.4666508 0.7758219 0.91102725 -0.17309527 -0.046062455 -0.47156087 0.37001303 -0.51816183 -0.23965561 0.5468446 -0.49518895 -0.77549595 -1.096823 -0.048744064 0.30547917 0.33976364 -0.13082722 -0.27532154 -0.07062394
committee 0.20575164 -0.035955533 0.6725147 0.9214019 0.16180563 -0.15121181 0.44564715 0.18034193 -0.53537005 1.2093039 0.29249662 -0.18820283 0.09583451 0.3229011 -0.4553031 0.6320991 0.12193301 0.055431563 0.8751337 0.19577396 -0.7477678 -0.7168281 0.5466481 -0.031894498 -0.0035623363 -0.37252992 -0.2511255 -0.72673786 -0.018158015 0.07972682 0.58874667 -0.5829205 0.12530534 0.48250052 -0.19006291 0.420951 -0.8721326 -0.1511761 -1.3584055 0.17846648 0.48278192 -0.3330491 -0.13963369 -0.64875746 -0.1343021 0.10065404 0.5102184 -0.57286555 -0.81711394 0.79279774
Wednesday 0.67261535 -0.4200113 0.0618967 -0.12154977 -0.109030165 -0.68560493 0.0062782904 -0.14278856 0.027332978 0.31215966 -0.6818953 0.87509596 0.580591 0.02888063 -0.122731924 0.08347535 0.38633072 -0.10552193 -0.03352071 0.5090859 -0.9578073 -0.6928748 0.13286822 -0.31854457 0.020303462 0.21408613 0.26056904 -0.10884062 0.34504086 -0.3855033 0.5141447 -0.6395552 -0.08656987 0.33693478 -0.31338847 0.2137297 -0.90212214 0.22187535 0.018191883 -0.66158056 0.58282477 -0.03803487 -0.3369966 -1.2624986 0.25867993 0.7128002 -0.16119795 0.20729685 -0.36081022 1.1981429
should -1.2710768 -0.43089002 0.3526517 0.42256948 0.439926 -0.48643294 0.30354884 0.25801793 0.42830062 0.22853187 0.30302206 -0.18350579 -0.028383015 -0.16002591 -0.122941874 -0.087542854 -0.29554835 0.42389366 0.00010282746 -0.6159606 -0.2950824 0.03005711 0.96741474 0.9651325 -0.37090012 -0.08218674 -0.9261523 -0.44237712 -0.26306844 -0.33228856 0.18448512 0.046926357 -0.68175817 0.9033598 -0.24399509 -0.5413334 -0.22092985 0.2582695 -0.73555374 0.11371302 0.34506714 0.29088607 -0.1328937 -0.73900104 -0.5318215 1.2226211 -0.11193481 -0.45990625 -0.43487555 0.72510165
buy 0.37228042 0.8795274 -0.166582 0.1546547 -0.21297215 -0.38770735 0.78577816 0.8578787 0.018831776 -0.19676737 0.0020473814 1.1170511 -0.1360235 0.82241493 -0.1921053 -0.6520851 0.43411392 -0.0044094147 -0.35356164 1.0594959 0.19043434 -0.4388675 0.021638822 -0.3600254 -0.04052616 -0.52439094 -0.64465207 -0.121460795 -0.1358988 -0.28420526 0.45395127 -0.4854907 -0.70897615 0.87816393 -0.35205474 0.19890454 0.2139354 -0.35533205 -0.025245953 -0.31460693 0.29512188 -0.5954255 -0.68251574 -0.9518851 0.15142138 0.76994663 0.17962247 -0.5902783 -0.22119838 -0.5089983
from -0.74169374 -0.20473881 1.0026479 -0.012623566 0.0278637 -0.20997106 0.7116793 -0.2417445 -0.16299394 -0.06968582 -0.2236542 0.3808964 -0.4646716 0.18869889 0.27073574 -0.12658618 0.089496024 0.98644984 0.34321442 0.34275338 -0.38385728 0.38134143 -0.16048034 0.1647959 -0.11515089 -0.60095096 -0.23435147 -0.05052466 0.05725051 0.26547298 -0.04467998 -0.46938652 0.6920716 0.74175465 -0.202974 0.09594019 0.09730489 -0.72476655 0.37006152 -0.15122998 0.18114957 -0.30721223 -1.0777484 -0.23027642 -0.30503216 -0.43702143 -0.115218125 -0.021707853 -0.23718219 0.64822215
countries -0.17725445 0.5200388 0.40415397 0.86663663 -0.9277724 -0.63924724 0.092400745 0.029203316 -0.6019838 0.33707902 -0.087923095 -0.22182325 -0.26830593 0.52191126 -0.62744176 -0.19482203 -0.8643968 -0.05498388 0.18638176 0.02290145 -0.30122942 -0.528019 0.44046924 0.5616154 -0.28503096 -0.35006675 -1.11915 -0.8565737 0.43612754 -0.24841338 -0.32024336 -0.26307687 0.6597988 0.589173 -0.7988247 -0.5832761 0.32926446 -0.6809585 -0.8271939 -0.33769414 0.8027783 -0.77187884 -0.47115275 0.13870524 0.4143373 0.7090506 0.6604691 0.4989088 0.20898338 0.3647533
other 0.09929598 0.550959 -0.47211716 -0.5855209 -0.6278478 -0.10731228 0.60697776 0.4095527 -0.56522685 0.12656888 0.43046445 0.32459682 -0.4772152 -0.076079935 -0.615378 -0.33237803 -0.7753603 0.35107034 0.0038574745 0.3058864 0.037290484 -0.36295894 0.8081837 0.08377681 0.26710197 0.14653778 -0.8246404 -1.234555 0.2948675 -0.7346212 -0.072858684 -0.079898216 0.14733493 0.7187112 -0.1460115 -0.95408 -0.29260588 -0.679542 -1.018516 -0.91719586 1.4923717 -0.4282478 0.139094 -0.24613975 0.07060228 0.24340872 -0.0037715405 -0.066717066 0.013865804 0.07071539
than -0.5862653 0.17409685 0.42547056 0.57621723 -0.526626 -1.0014484 0.4437645 0.83448726 0.7116351 -0.051558085 -0.18080257 -0.07168468 0.35900813 0.5574925 -0.013018072 -0.5157125 0.37147975 -0.5175166 -0.3589679 0.8557955 0.14196843 -0.41922408 1.2500064 -0.4883165 0.8865203 -0.0014416401 -0.27056125 0.654391 -0.55310816 -0.81950366 -0.13620044 -0.85371053 0.55848205 1.0101153 0.55885214 -2.0990448 0.56396526 -0.17358485 -0.18527937 -0.10763834 1.9198134 0.118339986 -0.30803868 -0.072007485 -0.22766848 0.81212777 0.6331839 0.79521835 0.26866 -0.015678115
Britain 0.3777889 -0.059382092 0.6342758 0.91431755 -0.7826539 0.3495754 0.01477927 -0.026586678 0.85889417 0.18545139 -1.5069139 0.25119165 0.20272657 0.6855601 -0.23174101 0.19980326 -0.7257495 -0.8763944 0.008822836 1.1293826 -0.5609089 0.82169205 0.5319209 -0.15455899 -1.4852374 -0.86302257 -0.3211725 -0.089570515 -0.37961215 -0.28018108 -0.44589913 -0.2273877 0.378197 0.9489518 -1.2590653 0.07566245 0.70930016 -0.15385292 -1.0826343 0.63381314 -0.50135463 -0.6217426 0.21842176 -1.6540328 0.077020325 0.60616624 -0.12019713 0.19475599 -0.3426526 -0.2020139
scientific -0.8113286 0.2341169 0.98259455 0.89712435 -0.03686511 -0.33751583 -0.40212616 0.27416253 -0.4190406 0.38507962 0.22381647 0.33723834 0.29215407 0.1844191 -0.0005693102 0.19792883 -0.0078585455 0.44358855 0.6140251 1.0696529 0.693581 -0.07386237 0.9671889 0.26669818 -0.31258595 0.18844779 -0.4381416 0.14266987 -0.76118475 -0.32236287 0.51197666 -0.5376315 0.2538481 1.1417952 -0.28430218 -0.1750899 -0.49579436 1.0604439 -0.7252418 -0.11047989 0.6191919 -0.0065486045 -0.5528712 -0.83418995 0.05984378 0.50285995 0.4033366 0.35408643 0.19958955 0.051741436
was -0.21869193 -0.5378321 0.27469504 -0.4366665 0.33369112 -0.08684123 0.6321407 -0.74123454 0.43201283 0.43296593 -0.31736684 0.3364945 0.0027525814 -0.2920091 0.75525504 0.17432246 -0.598649 -0.091899484 0.31366268 0.14411166 -0.13732228 -0.30387807 0.4917497 -0.19685136 0.10712124 -0.41772425 -0.52709234 0.48238322 0.27558973 0.27346477 0.0818342 -0.27989575 -0.3049081 0.86614156 0.28701866 -0.26898104 -0.021129884 -0.79487586 -0.24111362 0.3430074 0.86160105 0.2994686 -0.15065101 -0.6433621 -0.3602137 0.0017215995 -0.14210932 -0.02547087 -0.18864578 0.21367516
" -0.42704117 -0.14339122 0.31094304 -0.17521867 0.37509206 -0.08383335 0.3613326 0.0031590567 -0.51096976 0.07127107 -0.34391198 -0.21990797 -0.058187496 0.037609532 0.547181 0.046155274 0.0037770732 0.09333455 0.26398015 -0.16460697 0.14897731 -0.6848565 0.5254435 -0.5084026 0.055212058 0.17026287 -0.56300825 -0.59512156 -0.2810451 -0.17500582 -0.1699292 -0.080972545 0.017463887 0.4468412 -0.25873476 -0.41084996 -0.56547076 -0.26246005 -0.50220525 -0.080211155 0.107034765 0.10760679 -0.07792483 -0.5532576 -0.14108643 0.42722422 -0.12480422 -0.009213363 0.123708 0.075314045
We -1.0867326 0.13068932 -0.04065117 0.8717594 -0.4783115 0.7436557 0.0976102 0.18434033 0.27891994 0.104910426 0.4137948 0.122438386 -0.34635118 0.6950491 0.7712767 0.029003043 0.40081003 0.8658781 0.7043711 -0.59317994 0.1051831 -1.342182 0.18762848 -0.8492239 0.34964207 0.5903824 -1.024622 -0.6807868 0.41141236 -0.4248819 0.16761327 -0.42381355 0.31345138 0.7284834 -0.13318063 -0.38278016 -0.4998916 -0.29546633 -1.004547 0.080485456 0.06999401 -0.1846185 -0.4079057 -0.7290905 0.0889272 0.69810754 1.0282052 -0.78521496 -0.36873928 0.08654106
do -0.6279377 0.9793355 1.0925084 0.404468 0.28014395 -0.23714085 0.59888995 0.09145962 -0.012219716 -0.025122637 0.004722587 0.6933767 0.011846599 0.045683887 0.50714886 1.0934986 0.7132851 1.011534 0.35007024 0.25533682 -0.38592118 -0.74289596 0.98910624 0.12851106 -0.82885396 0.5180783 -1.4620936 -0.112808 -0.5859407 -0.24368326 0.5221276 -0.60619 0.3880089 0.4520699 -0.73846346 -0.27103844 0.716433 -0.634134 -0.82320464 0.28253898 -0.2913633 -0.53696924 0.17953013 -1.038471 0.016049568 1.4676822 -0.032274928 -1.1151671 -0.18342525 0.083628
n't -0.73324203 0.685817 0.48707566 -0.51732916 -0.037538752 -0.1728804 1.1370186 1.1938239 -0.015751684 0.46890378 -0.26536986 0.46892834 0.9491731 0.4129052 0.345014 0.41059846 1.0023488 0.7232683 0.43743235 -0.085711755 -0.5464749 0.45331046 1.120873 -0.18152137 0.19922194 0.5130849 -1.7089136 -0.46482015 -1.2131336 0.118848935 -0.670797 -0.6114457 0.8408999 1.3122445 -0.778543 -0.7302358 0.43871188 -0.3012374 0.015672252 -0.14881887 -0.32612735 -0.24186882 -0.07728071 -1.5155815 -0.009148811 1.7006414 -0.6798264 -1.047884 1.1617154 -0.05462783
support 0.26697525 -0.103666 1.0535548 -0.01888734 -0.23549838 0.10022843 0.5340577 0.23858817 -0.4321685 -0.33628324 0.7840771 0.19616254 -0.23862493 -0.2625327 -0.18833824 -0.29488924 0.7064091 0.5367779 -0.82296693 0.28384224 0.19020039 -0.118908174 0.44748703 0.20701236 -0.84170884 -0.22360593 -0.715383 0.06883346 -0.39498314 0.25229707 0.06324902 -0.80657834 -0.29804516 0.33537447 -1.111126 -0.32657072 -0.44055963 0.0876477 0.18375489 0.18835877 1.0077149 -0.24401377 -0.16613974 -0.2698461 -0.17620777 1.2675439 -0.10358194 0.2621758 0.26881832 0.3752219
any 0.120293304 -0.19370958 0.16624027 -0.06209823 -0.79045624 0.14222135 0.31362802 0.3338606 -0.18356211 0.7677779 0.23193754 0.91666144 -0.13099062 0.4625891 0.019815892 -0.79892427 0.07127433 0.34728196 -1.0143979 0.22692867 0.2240003 -0.37965867 0.8224156 -0.1775148 0.08378909 0.09598123 -1.010836 -0.6089347 -0.30419406 1.0743997 -0.031047797 -1.4335157 -0.7006796 1.5342907 -0.25520357 -1.1801935 -0.51424605 0.4628409 -0.614115 0.5117677 0.19120774 0.30049333 0.20188138 -0.5626394 0.10653102 0.21707205 -0.26555696 -1.0675137 -0.25506318 -0.5125149
such -0.38136676 0.94349056 0.5637116 -0.2972616 -0.6185883 -0.27654567 0.651982 -0.20461519 -0.54297525 -0.020770488 0.22600171 0.002571209 0.03182264 0.038467657 -0.023706479 0.33919537 -0.27524218 -0.13374874 -0.224401 0.03307465 -0.48142275 -0.01585309 0.9351169 -0.2660721 -0.85946715 0.17494704 -1.585553 -0.4266444 0.1411627 0.3972266 0.26960728 -0.23448579 -0.016836533 0.6836645 0.04381502 -0.42756948 0.04942895 -0.629086 -0.45539764 -0.8907254 0.57533705 0.20594937 -0.0698987 -0.76151216 -0.36499363 0.4121683 -0.15392072 -0.02040492 0.7005608 -0.3152665
because -0.12260566 -0.56650203 0.7284109 0.5715423 -0.41915944 0.035896048 0.16817787 -0.28296387 0.6317741 -0.01867697 0.42680544 -0.48245367 0.4530604 0.63725793 -0.17721789 -0.4166772 -0.20479885 -0.027263233 -0.3874269 -0.6542586 -0.037134077 -0.9853575 0.49237838 -1.3418217 -1.16197 -0.5708853 -1.1237222 -0.4476069 -1.052584 0.779129 0.059089545 -0.87241584 0.2328145 0.759107 0.18589936 0.41094643 0.09203756 0.29821515 -0.90181553 0.3721877 0.8269781 0.08815646 -1.0199118 -0.5499534 -0.5385908 0.41947544 -0.45645282 -0.83147806 0.0636038 0.49170285
we -0.8525681 0.51170385 0.3064909 0.61934227 -0.23775378 0.2890483 0.8493146 0.19554429 -0.4103965 0.2790953 0.21128559 0.6697988 0.25563225 0.06836647 0.30050528 0.40548974 0.10007266 0.41264573 0.7800272 -0.59413064 0.36455727 -0.2717498 1.3920081 -0.15579253 -0.29859194 1.0555851 -0.71737236 -0.7514619 -0.58038425 0.7831818 0.1746788 -0.95995575 0.833353 0.6729827 0.39387834 -0.0067430986 -0.2927664 -0.45619568 -0.6900795 0.15863344 0.49500147 0.0070509906 0.071589015 -1.1375194 -0.0075883465 0.39371225 0.49267724 -0.4189839 -1.0514327 -0.40612277
see -0.9725016 0.91251546 0.43270195 1.1974493 0.21228386 -0.06377447 0.7427475 0.23487571 -0.5719939 -0.648216 0.60622436 0.5974523 -0.14203922 -0.032137934 0.08039806 0.4453968 0.6985807 0.2797648 0.042521775 -0.14262441 0.36323532 0.60078114 1.0076915 0.039545882 -0.1824071 0.5858864 -1.0309815 -0.43355832 -0.40354875 0.2544022 -0.1279286 -0.075036705 0.7253295 1.199466 0.11452745 -0.9191567 -0.10296347 -0.5583369 0.18505739 0.043289796 0.78397256 0.40959865 -0.061960794 -0.500195 0.06629451 0.40000522 0.06880415 -1.1644132 -0.5302475 -0.35576588
grounds -0.1850251 0.13850386 0.41017184 0.4769929 0.15871806 0.08353522 0.66167915 -0.15875383 0.045365587 0.22467028 -0.089234166 -0.20686997 0.40457103 0.0013038531 0.15204939 -0.34328112 0.34082496 0.023814501 -0.28525746 0.6630466 0.4707484 0.030655243 0.066727705 0.41205776 0.06438705 -0.02762262 -0.517592 -0.4760826 0.12805022 -0.14744146 0.20358714 -0.6694899 -0.07616723 0.33095145 -0.7936619 0.10820437 -0.041310985 0.05882787 0.25020218 0.011948682 0.83822906 0.28538302 -0.2309876 -0.5815324 0.359247 0.4214947 -0.3928125 -0.14856954 0.050297268 0.4914528
for -0.506766 -0.5204278 0.555403 0.06147669 0.40617806 0.49383453 0.5924926 -0.29353938 -0.14262973 0.28797248 -0.14231539 0.43168604 -0.032306794 0.41877055 -0.2610255 -0.45760247 0.32416618 0.09921104 -0.4416422 -0.20060143 0.15742509 -0.2741196 0.2456239 0.0048242477 0.0047331583 0.10440474 -0.70404375 -0.17481793 -0.095571436 0.42360342 -0.34110695 -0.24513698 -0.17418358 0.88913 -0.12549299 -0.24248081 0.107386194 -0.2969407 0.12477665 -0.41150966 0.12738022 0.27453557 -0.18933256 -0.3403122 -0.025466535 -0.45381042 0.19378516 0.5295576 -0.02770401 0.4363518
, -0.23801954 -0.42839858 0.081605375 0.018113 0.2327598 0.35161182 0.62569946 0.017722141 -0.12781899 0.16074708 -0.31006637 0.21069205 0.0046607987 0.24674529 0.01522939 -0.40062103 0.07106758 -0.009226012 0.1900078 0.16677676 -0.008429109 -0.09270269 0.08849084 -0.21674593 -0.27100128 0.16458099 -0.25931552 -0.095121294 0.24026904 -0.12125809 0.39349717 0.006152402 0.045271393 0.19678634 0.11241949 -0.42136768 0.10282855 -0.44012108 -0.26311868 -0.03749715 -0.030354047 0.018313408 -0.10962873 -0.49865276 0.3256269 -0.18873993 0.14024663 0.07390253 0.19955611 0.019782705
chief 0.6508799 -0.12231439 0.067437254 0.47344977 -0.06232598 0.58610076 1.3077244 -0.8542799 -0.6225929 0.61693263 -0.778938 -0.2004047 0.2109907 -0.1694156 0.37475494 -1.1711649 0.56602025 -0.45045236 -0.30954674 -0.05863728 0.077018626 -0.08729635 0.12694798 -0.7415531 -0.61354476 -1.0228066 -1.0397441 0.0585606 -0.253418 0.028444106 0.41961682 -0.41591078 -0.5607126 -0.024455737 -0.27766803 -0.7432754 -0.45089242 0.0024825276 -0.4772988 -1.1839607 0.43745875 -1.1455792 0.19297166 -0.7625803 -0.006581317 0.42856878 -0.013727289 0.07059594 0.49531576 -0.107746966
spokesman 0.17467685 -0.9096362 0.91322744 0.32753316 0.53367734 -0.34160304 0.42901397 -0.8141793 -0.8627393 -0.045383077 -1.1660933 -0.48807442 -0.27883488 -0.4659951 0.49606714 -0.7745659 0.19130845 0.38313755 -0.047607403 1.1880991 0.7559188 -0.4418963 0.24150464 -0.83322746 -0.21262039 0.03599587 -0.6179885 0.19696133 0.36349583 -0.35959566 0.92872864 0.50569814 0.0055087707 0.7801862 -0.73924685 -0.10389319 -0.8912041 -0.059527237 -0.08936007 -0.6476294 0.073008224 -0.020899396 1.0155866 -0.5287113 0.7280766 0.9728602 0.1424676 -0.1537191 0.87068075 0.635173
van 0.07965338 -1.4793346 0.63055885 -0.02725876 0.30404043 -0.48209205 0.3466305 -0.38286433 0.5688338 0.17695253 -1.1265831 0.32014322 0.63248587 -0.49471706 -0.2071779 -0.092265435 -0.43069166 -0.16453312 0.17972754 0.6842922 -0.27189073 0.28695196 0.6993861 -0.71485716 -0.13267644 0.2492303 0.2147664 -0.8135277 1.0817751 -0.023242602 0.20099823 0.02149542 -0.18154027 -0.3508007 -0.047233403 0.17824541 -0.67414105 0.5441748 -0.7425945 -0.05138387 1.1148 -0.66081274 0.3752955 -0.3515376 0.6798564 0.39161864 1.2634604 -0.68762124 0.7819604 0.12722427
der 0.32663873 -1.3747814 0.7293858 -0.17517336 0.58563584 0.67518616 0.5414376 -0.6738831 -0.21058404 0.1144122 -1.009176 0.44026276 0.083101064 -0.114720054 -0.3978433 0.18465894 -0.70912355 -0.21887523 0.20047592 0.36500365 -0.18056832 0.16077137 0.5695409 -0.60658824 0.31423137 0.31073365 -0.035240885 -0.62327033 0.9472122 -0.68231726 0.10869448 0.075195104 -0.353677 -0.041312777 -0.18117507 0.04960654 -0.69549733 0.3831293 -0.1488978 -0.087212674 0.74415433 -0.236063 0.3954261 -0.2464909 0.24779537 0.47915274 0.54893184 -1.0183686 0.3384599 0.05536371
told -0.3352998 -0.3449415 0.990712 0.066263 0.95131844 -0.16414669 1.0058542 -0.08605134 -0.79908663 -0.2972066 -0.4743319 -1.1351535 -0.2041863 0.007721184 -0.23698922 -1.0521632 -0.64462435 0.4964864 0.20699468 -0.5227112 -0.23876745 -1.2461376 0.32309833 -1.4235517 -0.34588483 -0.5707043 -0.47726306 -0.27933177 0.09678648 -0.66191214 0.37208995 -0.8303132 0.9388368 0.4425423 0.36749315 0.39308822 -1.3385942 0.26467875 -1.0526483 -0.30785546 -0.033462062 -0.11887627 -0.13358746 -1.0322986 -0.6100143 0.53169346 0.26141596 -0.47817636 0.67323244 0.09988946
a -0.12728173 -0.5922954 0.4239362 -0.08611739 -0.15629819 -0.16916779 0.45949644 -0.0991803 -0.0035779562 0.07480275 -0.22808795 -0.03690284 0.12709175 0.42090052 0.407624 -0.27120796 -0.17702535 0.33201897 -0.3782862 0.2050868 0.07205744 0.0024686714 0.5534095 -0.012553147 -0.05781009 0.18655577 -0.37898278 -0.19649644 0.4931497 0.19743644 -0.07599482 -0.800843 -0.45592386 0.45833766 0.094746575 -0.02582868 -0.34468994 -0.44061923 -0.3022106 -0.09119519 0.19375652 0.14993007 -0.41724232 -0.18389097 -0.077036306 -0.120414615 0.28387305 0.26059213 -0.024317833 -0.121732645
news 0.23465627 -0.10677601 1.274386 0.78309685 0.7451181 -0.8186997 0.5220067 -0.39200556 -0.54329264 0.2631584 -0.6506837 -0.11710281 -0.25681236 0.30687734 0.061996706 0.38503724 -0.36260736 1.2434736 0.029881556 -0.2586544 0.16889884 -0.89974004 0.8708197 -0.56914926 -0.26574367 0.1962782 -0.72617435 0.26454708 0.6212738 -0.3967541 -0.2341253 -1.4119222 -0.39990744 -0.2872837 0.4963819 -0.1471855 -1.7048428 -0.57837343 0.024039362 -0.6031652 0.32243454 0.34864378 -0.38042417 -1.0465066 0.23505583 -0.32274276 0.85816264 -0.15054105 0.1114333 -0.034506947
briefing 0.12378185 0.113504425 0.77117825 0.5733708 0.7209798 -0.50740415 0.58732504 -0.51884466 -0.6990227 0.31923342 -0.77266526 -0.40739644 -0.48152313 -0.18464029 0.7500084 0.15949923 -0.49197942 -0.50385004 0.13488355 -0.10705448 -0.22636321 -0.523834 0.68955046 -0.2846151 -0.23870018 -0.32598296 -0.45828292 -0.13757966 0.3989088 -0.34375736 0.56672573 -0.29902643 0.04481401 0.12919797 0.31955177 0.47223157 -1.5153481 0.3841348 -0.22419854 -0.19370629 0.71394056 -0.46576875 0.10235279 -0.8883859 0.042921 -0.23547003 0.691506 -0.027185993 0.41832685 0.52172804
He -0.5799293 -0.0068405345 0.5061619 -0.0727311 0.053708035 0.25633538 0.41129914 -1.0239897 0.79129887 0.12851316 -0.52632076 0.00070916396 -0.76442903 0.29307318 -0.19597809 0.24763839 -0.029574255 0.60961074 0.07613893 -0.31584254 0.16796766 -1.38079 0.47064352 -0.66976124 -0.03943536 0.20994018 -0.08682688 -0.040672246 -0.050832603 0.0072561065 -0.60868734 -0.27527472 -0.64983064 0.40160993 -0.14540416 -0.13990371 -0.6872276 -0.5295818 -0.7724394 -0.21868789 0.4351711 -0.35554993 -0.782771 0.030700807 0.6899015 0.67458683 0.79118985 -0.34720266 0.7735608 0.0133956075
further -0.8438539 0.42411882 0.8527516 -0.3703221 -0.38413975 0.14436646 -0.0881172 -0.28458583 0.13299973 0.88192755 -0.18702582 0.54124856 0.46109962 0.41009292 0.5201737 -0.16132864 0.20239833 -0.095487095 -0.050458215 0.5142429 0.99370086 0.119374804 0.7749559 -0.20535986 0.570539 0.77576184 -0.9996206 -0.17215846 0.53574157 0.17011787 -0.35443887 0.374228 -0.18046932 1.0111554 -0.10006406 -0.09932278 -0.8181078 0.20050117 0.63487434 -0.54016477 1.3302603 0.711037 -0.61206555 -0.5043309 0.23157942 1.0355372 -0.22642429 -0.22204402 -0.040591527 -0.3528673
study -0.31926104 1.2266923 1.200061 -0.39692584 0.20371902 -0.27234492 -0.06836162 0.5528776 -0.011210045 0.06481333 -0.49525294 -0.35729355 -0.28142914 0.42201528 0.22644788 0.25039232 0.5395562 -0.08857169 0.2911868 0.2719052 0.23221497 -0.35246566 1.0396185 -0.14234462 -0.0015870811 0.15972084 -0.4020427 0.56796026 -0.39969897 0.08176821 -0.46454042 -0.40518206 0.32240474 1.0512878 -0.00054126664 -0.09049013 -0.6911952 0.27111527 -0.27236003 -0.020427458 0.4610214 -0.14984567 0.44575933 -1.0006634 -0.13465507 0.27105063 0.3312712 -0.1708245 0.55820256 -0.13147148
required 0.05710654 0.27935803 0.8617361 -0.18942358 0.5485536 -0.55772066 0.46130627 -0.025753913 -0.25806564 0.19644772 0.33659583 0.3792101 0.46544772 -0.053236388 0.3800134 0.023058966 0.27879646 0.5943985 -0.48565173 -0.1076386 1.0670412 -0.04533348 0.57533884 0.25462723 0.45199552 0.37993875 -0.50167114 -0.36700952 -0.32398784 -0.24407709 0.015933977 -0.716672 0.11695421 1.2391058 -0.27030978 0.2736715 0.010019369 -0.10951992 -0.40113804 -0.35241786 0.44190893 -0.87039304 -0.33164147 -0.8643004 0.28039008 0.9401926 0.24030717 0.29813173 0.5508637 0.012822419
and -0.16324958 -0.35399973 0.07786889 -0.11440173 -0.05867979 0.1359449 0.38693872 0.012251566 -0.09219485 -0.009517845 0.09850895 0.07468561 -0.06596651 0.2907454 -0.050450485 -0.40715337 -0.0017759821 0.022154262 0.11257192 0.06221121 -0.10635504 -0.13843381 0.32214028 -0.0963928 -0.38442048 0.09933736 -0.41352394 -0.096874885 0.16587017 0.2463391 0.22626385 0.040667918 0.07797176 0.7266975 0.024460614 -0.33297652 0.11716995 -0.4564061 -0.4284645 -0.14534669 0.5216085 -0.21887545 -0.34027427 0.062417883 0.31213135 -0.034474842 -0.11548462 0.20627737 0.17418443 0.43925846
if -1.1646174 -0.10549116 0.6634922 0.61218643 0.039692678 -0.42924845 0.23559865 -0.47002774 -0.41998664 0.19203778 0.63902235 0.37073383 0.96766174 -0.038148817 -0.80796397 0.6506471 0.24406591 0.20746858 -0.3371939 -0.62348664 0.10103929 -0.20403169 1.1992548 -0.45120624 -0.91835505 -0.18852188 -0.40411708 -0.05532812 -1.065578 0.77995384 -0.35976377 -0.15437461 0.17791204 0.59536684 0.6728014 -0.22193366 -0.25453398 -0.09041478 -0.3452267 -0.7289979 1.0415674 0.35473213 -0.24584605 -1.1024696 -0.13520928 0.7407604 0.035183962 -0.49492946 0.61592245 0.814618
found -0.58789915 -0.9898788 0.7706242 0.37929636 -0.15780778 0.14494795 0.4477284 0.06010641 0.20149283 -0.32578847 -0.7910785 -0.50515515 -0.11818345 1.2972463 0.4883966 -0.33528778 0.4242444 0.8787256 0.6052266 -0.1810003 0.36903572 0.10646691 0.4947848 -0.5485193 0.19697608 -0.74316704 -0.76653945 0.29629108 0.3128498 -0.3133598 1.7415477 -0.22624128 0.43462828 0.34514168 0.29009965 0.14063549 -0.0927966 0.13022403 -0.263044 -0.25271836 1.2967323 0.09312417 0.2820994 0.17168342 -0.21542914 0.10472499 0.19873264 -0.39246958 0.7204169 0.13776462
that -0.430733 -0.045778044 0.41141057 0.078147985 -0.18279755 0.11843582 0.7224604 -0.15646544 -0.44985396 0.28958973 -0.2164688 0.26424477 0.110121906 0.61861974 -0.0018693147 0.012439896 0.05497432 -0.18202211 0.017839368 0.4983777 0.44806316 -0.3925949 0.66478616 -0.2225904 -0.72875583 0.13109793 -0.054377828 -0.33384812 -0.314049 0.5440462 0.062259205 -0.44873258 -0.044869296 0.73607135 0.19688717 -0.34955966 -0.31687933 -0.082465656 -0.89211845 -0.21687001 0.37423027 0.8646051 -0.5096129 -0.33909956 0.5703827 0.38602394 -0.14817892 0.10255408 0.4139467 0.19020613
action -0.02433529 -0.647795 0.49557787 0.21278878 0.66185063 -0.29678628 0.6590084 0.0036039278 -0.1479677 0.96689767 0.051992044 -0.2930731 0.38268426 0.6286546 -0.45039874 -0.017056866 -0.1200026 0.51601726 -0.7277132 0.6016142 0.057196572 -0.3280848 1.3611271 -0.6003293 -0.39357772 0.0011811267 -0.47150335 0.2549339 0.8812752 0.45688024 -0.2879777 0.050679147 -0.067415066 0.7293077 -0.7505298 -0.30249313 -0.69175076 -0.5188021 -0.13569564 -0.70005107 0.95328736 0.19856614 0.53495675 -0.59799916 -0.49612367 1.0695103 -0.31905386 -0.58768624 0.10001692 -0.3608897
needed -0.014923621 -0.30855486 0.7244223 0.10352411 0.3318017 0.20188756 0.56247324 0.9772487 -0.7457688 0.35211492 0.161808 0.05665193 0.76982343 0.34005496 0.16168019 -0.3683988 0.6202455 0.61814725 -1.0941266 0.40995198 0.2861806 -0.2409019 0.13761608 -0.4406114 0.51722115 0.16969514 0.2664045 -0.739169 0.34780002 0.2696598 0.38679257 -0.40666574 -0.22848642 0.8110537 -0.42957574 -0.4662116 1.0392133 -0.47345343 0.028191943 -0.91698325 0.8864257 0.38459 -0.40013158 -0.6158679 -0.45031327 0.2636006 0.089693606 -0.25660992 0.16460216 0.11161902
taken -0.80463654 -0.13858327 1.0917753 -0.5184916 -0.28576714 -0.07887549 1.0432029 0.00067079207 0.4770231 -0.3204264 0.6684297 0.17151925 0.22158714 0.41357648 0.34707603 -0.9429008 -0.16139786 1.0045296 -0.18173997 0.855895 1.0261397 -0.0967732 1.1504524 -0.44188824 0.284189 -0.22003888 -0.20972353 -0.7932402 0.42284715 -0.399946 1.0726476 -0.48300555 0.60043246 0.29515493 0.45576426 0.22040623 -0.15874772 -0.046660237 -0.4133034 -0.52249044 0.38973543 0.29606918 0.119318224 -0.25992236 -0.63463086 -0.12808983 -0.2750246 -0.19933607 0.5054913 0.54619074
by -0.19931944 -0.64777863 0.4871376 0.4862213 0.43237674 -0.5536926 0.5145834 -0.47453883 -0.09229616 -0.6978765 0.03569381 0.033216927 -0.54767966 0.219739 -0.2532754 -0.7216262 0.096980065 -0.21089958 -0.5590479 -0.09179097 -0.1682672 0.2948167 0.51449835 -0.24443571 0.07083798 -1.1560758 -0.025460495 -0.2513856 -0.013882713 0.44469094 -0.09452344 -0.60141593 -0.45361483 0.48549196 0.33041176 -0.060580853 -0.29851925 -0.14846617 -0.254989 -0.64194065 0.256082 0.090982564 -0.9557317 -0.63359594 0.49476042 -0.3681306 0.1716041 -0.0069979527 0.21121852 0.08506905
proposal -0.7784146 0.65529704 0.79339665 0.40375495 0.24519642 -0.23892473 0.55354804 -0.03961443 -0.06807233 0.069336504 -0.40149632 -0.56522274 0.12297074 0.050400965 0.041922122 0.18510956 0.26801687 -0.50061005 -0.096803665 0.7226287 0.08643228 0.23152713 -0.015286429 -0.13495581 0.27029106 0.12285107 -0.5812725 -0.1333551 0.17380032 -0.24143144 -0.121873416 -1.1202214 -0.20445651 0.62143236 -0.56363714 0.5146656 -0.39153647 0.36258987 -0.38079715 -0.5987183 1.1110966 -0.3671239 -0.29741582 -0.77356714 -0.3507086 0.5244532 0.48348647 0.40173823 0.17162786 0.34644142
last -0.25217962 -0.468993 0.28640914 0.41258976 0.093637034 0.2433182 -0.036282685 -0.86225694 0.48575607 0.15132912 -0.60407656 -0.502633 -0.153076 0.79221 0.027435726 -0.18244225 0.12038286 -0.06386075 0.006953062 0.34350923 -0.05176648 -0.00044950467 0.83507663 0.6812929 -0.044706073 -0.49669293 -0.442157 -0.9841049 -0.4384777 -0.0115893325 -0.33910453 -1.4484758 0.35166708 -0.49166793 0.16218653 -0.57281786 -0.45589626 -0.97402143 0.27208215 0.01626176 0.78879786 0.019280685 -0.41182858 -0.41186696 0.53076154 0.56441885 -0.33054495 0.73987615 -0.518606 0.86890084
month -0.7392715 0.47226137 0.6809273 0.16153282 -0.07096699 0.36081308 0.65207547 -0.07368949 0.097351044 0.6410606 -0.46456856 -0.6431681 0.35856858 0.07793442 1.0014821 0.6827306 0.15904069 -0.20290066 0.06802956 0.5050274 -0.59863657 -0.32394937 0.92971456 0.18454313 -0.18661852 -0.45938605 -0.28050578 -0.8430255 -0.37958804 -0.15894747 -0.005333034 -0.90717614 -0.018773075 -0.5680825 -0.72490263 0.7711708 0.044092435 -0.28069326 0.112849034 -0.9463623 0.8602724 0.3417904 -0.2551884 -0.93896186 -0.17293547 -0.40688932 0.64571553 0.2209417 0.6786888 0.49248543
Commissioner -0.21799082 -0.22419384 0.2348263 -0.108582206 -0.30743095 0.57402277 0.040403098 0.4450115 -0.34339195 0.2540301 -0.17586416 -0.6936047 0.007028442 -0.28412932 -0.13051999 -0.47489318 -0.0395822 -0.3249355 -0.5732256 1.209177 -0.6253009 0.14480318 0.123293504 -0.46720243 -0.5177404 -0.51715523 -0.174105 -0.11685697 0.12729277 -0.6439755 0.7840331 -0.6095519 0.5027333 0.21603376 -0.29339063 0.595017 -0.70302385 -0.07899944 -0.24740732 0.053451344 1.1681637 -0.4752683 -0.25875995 -0.71124434 0.6365641 -0.22708474 0.57942826 -0.026611643 0.8353244 0.24169025
Fischler -0.015472786 0.442894 0.91501015 0.028733084 0.029553646 -0.015666239 0.39752287 0.104417294 -0.53106165 0.4492803 0.2286056 -0.3570618 -0.6434101 0.08552242 0.06789707 -0.070073396 0.6377605 -0.20583086 -0.20552406 0.50896347 -0.58052725 0.67646873 0.9791677 0.20289509 -0.3695571 -0.88111645 0.1727202 0.17628318 -0.16861881 -0.08177352 0.23185474 -1.1697091 0.0007531188 0.92286134 -0.59095275 0.12546308 -0.81634957 0.303786 -0.15853667 -0.048253722 0.7710038 -0.05006217 -0.50487566 -0.78510046 0.10479592 0.36036742 0.80238664 0.5125404 0.350541 0.011101952
ban 0.17371869 0.7295605 0.885012 0.7935284 0.39593706 -0.2584726 0.7120971 -0.21990831 0.11901612 0.5129805 0.13822044 -0.30126876 0.23284408 0.88914734 -0.21408421 -0.17876108 -0.4165033 0.3321528 -1.0215665 0.5724558 -0.0074283346 0.4379117 0.92339766 0.27737164 -0.56782687 -0.67592937 -0.25892693 -0.5358447 -0.09215154 0.67149067 -0.37630844 -0.33955956 0.27691573 0.937285 -0.34089848 0.4052059 -0.7937845 0.015876006 0.04643704 -0.014526274 1.0105036 0.01785713 0.061104912 -0.65697175 -0.47692856 0.4421317 -0.45222175 0.25186935 -0.26481956 0.5387509
spinal 0.49707654 -0.19946395 0.8340918 0.3774185 0.07476507 -0.017499767 0.5440986 0.42372513 -0.5254629 0.55020434 0.2400257 0.09106283 -0.25614005 0.10493094 0.34300208 -0.5774278 -0.036520995 0.4693608 -0.22351491 0.808356 -0.25756907 0.42439 0.68286127 -0.28099275 -0.20033991 -0.57431746 -0.44480696 0.00202294 -0.4801991 0.17089567 0.43353873 -0.8518036 0.19577691 1.148381 0.025302881 0.34437814 -0.045541454 0.4738854 -0.40035164 0.5019679 0.70212317 0.2762214 -0.5311112 -0.20307468 -0.16210157 1.0128735 0.32692707 -0.05267516 -0.31003463 0.30023825
human -0.18762867 0.93860424 0.73525596 0.3677218 -0.557164 0.35440356 0.61454225 1.1762329 -1.2504874 0.11298823 -0.06951235 0.10733205 0.15478618 -0.02269524 0.96991706 -0.14420572 -0.37406468 -0.33375612 -0.6866817 0.3271477 -0.06108961 0.15358855 0.71396476 0.19779919 0.10977969 -0.9119848 -0.85212207 1.154585 0.69336915 0.15143788 0.1928856 -1.7548579 0.27457204 1.5553677 -0.3725678 -0.2000783 -0.22916734 0.6000611 -0.06546054 -0.43242028 1.3638822 -0.7752265 -0.75133276 -0.49454963 0.49325997 0.45140246 0.17088287 -0.24956393 -0.61205155 0.031449348
animal 0.19275796 0.11720135 0.25899974 0.30888432 0.2150249 0.04136122 0.42585212 0.5709776 -1.534795 -0.21814735 0.16460674 0.56277466 -0.36896893 -0.24946606 0.80501676 -0.38983244 -0.008443648 0.34785992 -0.3284861 -0.20096707 0.11115475 -0.010741018 0.39412224 -0.12286323 -0.26623735 -1.2503927 -0.8634182 -0.040450633 0.08986866 0.08456855 0.55470115 -0.472705 0.74207443 1.1480906 0.032068145 -0.1880249 -0.049097154 0.055159178 -0.5081907 -0.26231673 0.8630409 -0.5700466 -0.16870534 -0.63303894 0.08078445 0.045468792 0.73602444 -0.6270988 0.70948863 -0.24614775
food 0.5535434 0.62074083 0.8809444 -0.19101436 0.18564636 -0.6542879 0.82815987 0.73835045 -0.5746807 0.09848586 -0.108150296 -0.6739226 0.6698829 -0.50574607 0.0021390878 -0.47902453 -0.73199064 0.12745075 -0.5889719 0.057590302 -0.027458338 0.11686676 1.0038369 0.2800907 0.32568946 -1.1419125 -1.5070673 0.27294514 0.17978486 0.76891315 -0.34365684 -0.60642177 -0.00645859 0.77502024 0.21267107 -0.87416494 0.11453194 -0.44299647 -0.10096452 0.071116455 1.1728349 0.08660223 0.049269553 -0.6018767 0.98478144 0.10050678 0.18121096 -0.34520108 0.5610396 -0.37050432
chains 0.7852393 0.2130313 0.30550647 0.3218148 0.30308014 0.04513512 0.9591674 0.4857823 -0.09294713 0.11828554 -0.18664159 0.29274788 -0.25869057 0.3250352 0.2854435 0.15498942 -0.47596702 0.0262522 0.40221366 0.032984726 -0.061237834 -0.05708412 0.7825833 0.12277314 0.092634566 -0.61916155 -0.9827681 0.8147369 -0.2550806 0.4567474 0.36708593 -0.8843587 0.5755119 0.57017756 -0.39961514 -0.26110595 -0.33233285 -0.5276443 -0.32473665 0.06865455 0.90722615 -0.32741708 -0.12990364 -0.6873748 0.1351968 0.058731925 -0.2016577 -0.44921896 0.9152666 -0.15791798
highly -0.1352016 -0.26757604 0.26310498 -0.0040863357 0.21712786 0.030166509 0.6259863 1.0836583 -0.52273196 0.06835314 0.48521414 0.0591154 -0.07310398 0.5636165 0.3869714 -0.17623064 0.32108074 0.27265128 0.50761807 0.10059411 0.46861967 -0.6898402 0.92210025 -0.07376368 -0.24783851 -0.11674065 -0.92946714 0.17523052 -0.053369924 0.31340596 0.023066003 -0.4430479 0.5115031 1.2535013 0.29917154 -0.47417936 -0.0031128097 0.004080008 0.13377091 -0.70814335 0.03600308 -0.2551031 -0.17457809 -0.5039831 0.17967993 0.7959107 0.34459123 -0.60152704 0.27167356 -0.33059984
specific 0.3898216 -0.0630835 0.8384121 -0.33521166 -0.31790388 0.3797565 0.23381822 0.48056638 -0.41845098 0.0951727 0.5411963 0.10181636 0.10852808 0.6013747 -0.06924908 -0.35378 -0.014370753 0.29367545 -0.027379364 -0.11418241 0.41304144 -0.2733409 0.43930322 -0.057097293 0.2361421 0.14248072 -0.87493634 -0.40789118 -0.019659953 0.5397405 -0.50435144 -0.80357677 0.122408465 1.4733595 -0.25060153 -0.5428036 0.07567489 -0.33519837 0.29788345 -0.2981478 0.130791 0.1862064 0.19827917 -0.57900006 -0.5337145 0.87234175 -0.062541954 -0.47431234 0.34736228 -0.16580637
move -0.16511562 0.560937 0.5911949 0.44964737 0.7848238 -0.67928576 0.17029531 -0.2548161 -0.31419724 -0.3476798 0.3940885 0.042259183 -0.101546116 -0.20854796 1.0223817 -0.47361872 -0.29717913 0.17806868 0.39709082 0.04778625 0.69341004 -0.6032342 0.23058927 -0.044115447 -0.6724724 0.06316049 -0.5105038 0.51294464 0.22060685 0.046657275 0.23133028 -0.3874286 0.95018286 0.47176313 -0.33806252 0.56708616 -0.27241573 -0.1321083 0.01475555 0.18249267 0.583411 -0.67965806 -0.1865057 -0.82236594 -0.0021887585 0.8834168 0.6891733 -0.14382279 0.7440313 0.54083383
health 0.4592423 0.2827225 0.6564373 0.2546529 0.3257833 -0.1896361 1.0770241 0.63124764 -1.0454412 0.96263534 0.09087917 -0.10588709 -0.22316904 0.23537174 0.96218854 -0.25043285 -0.28857213 0.79385227 -0.4852242 -0.5662076 0.19716893 -0.23897031 0.51818424 0.16088283 -0.16076824 0.18495965 -0.85927135 -0.058817316 0.18039592 -0.30435425 0.461387 -0.58943754 0.0038884005 1.1214198 -0.084806845 0.24194731 -0.5727122 0.10860425 -0.3181439 -0.37077326 0.4170011 -0.9174658 -0.13646378 -0.522195 0.044376913 0.7090633 -0.11751686 0.12667602 0.54792345 -0.4323179
proposed -0.52920926 0.4248931 0.8155481 0.12451549 0.42873833 0.28234228 0.7527737 0.5111767 0.062296513 1.1240269 0.6072836 0.14990339 -0.28760526 0.1960358 0.35213047 -0.09628997 -0.01204727 -0.25703284 -0.5268991 0.5426261 0.099855825 -0.16850136 0.7336897 0.2838567 -0.44883788 -0.25873277 -0.51564217 -0.3152791 -0.32306057 -0.348179 0.64848435 -0.4940072 -0.11339194 -0.016587574 0.3420962 0.7194241 -0.3135475 -0.08464278 -0.124019794 -0.07245413 0.2948073 0.04019557 -0.45628634 -1.0430287 0.39016816 -0.007359011 -0.41858068 0.06266968 0.15609628 0.9190223
measures 0.19044393 0.2357226 0.6400822 0.9986457 -0.5270948 0.3559632 0.9263657 0.04183732 0.2557516 0.40586132 0.754567 -0.18329139 -0.06961418 0.19548124 -0.23770599 -0.36689067 -0.03179342 -0.008158695 -0.47205508 -0.20028637 0.7184996 0.043935932 0.8386062 0.7275162 -0.55398893 0.8177297 -0.8029433 -0.48585734 -0.6585038 -0.0875667 0.3384272 -0.8758349 0.040334027 0.46489853 -1.30257 0.40070015 0.094334334 -0.036087092 0.21722604 -0.24705124 0.83507174 0.42149502 -0.39933154 -1.057556 -0.0898343 -0.1908445 0.36791813 -0.22783239 -0.39496997 0.25538248
after -0.37993836 -1.5959451 0.07673651 1.0290565 0.63941216 -0.2661162 0.07067401 0.45481288 0.045711614 0.5230128 -0.8680529 -0.054690238 -0.8736603 0.10945537 -0.25900164 0.34450755 0.00031091392 1.0243738 0.10052036 0.3239724 0.342872 0.39514908 0.3932627 -0.44624606 -0.9888261 -0.02861553 0.4150457 0.21228933 -0.5362771 -0.62504315 -0.63704455 -1.6154251 0.7017635 0.8516227 0.4175485 -0.4386002 0.46276602 -0.062056433 0.6240352 0.029371439 0.7005398 0.24159445 -1.4870888 -0.50604284 0.26005 -0.17172234 0.24956073 0.15720633 0.34472477 0.56751114
reports 0.48562598 0.27343112 0.089267485 0.65843135 -0.9260546 0.060887605 0.88832456 0.0051910537 -0.120407 0.6393732 -0.29702765 -0.44629943 0.9502679 0.06043425 1.1837773 -0.18340576 0.13037258 0.7352203 0.4104057 0.614367 -0.08311351 -0.5445654 1.1470466 -0.16929181 0.015055152 -0.60088605 -1.107004 -0.40185377 0.15383892 0.027888905 0.506573 -0.34240267 -0.024251362 0.3085606 0.2518117 0.35672444 -1.3828155 0.74651414 -0.55853015 0.013945827 0.44598907 0.7952027 -0.11027071 -1.2508397 0.21200664 0.11470437 -0.16543742 -0.12120908 -0.37331235 0.43817717
France 0.35201705 0.0125698615 0.57129365 0.8828559 0.08743551 0.23291449 0.10516499 0.6679743 0.29698837 -0.478628 -0.7965297 -0.033976667 0.1445538 -0.4645811 -0.11767698 0.10316506 -1.1054022 -0.33684722 0.9549139 -0.072733365 -0.28718838 0.897811 0.39427677 0.27254367 -0.26494807 0.4573749 -0.51344895 -0.7300479 -0.18118256 0.15766822 0.38860357 0.4082632 0.40758315 0.5837468 -1.3483078 -0.29267564 0.2641634 0.23737562 -0.39260763 0.5143359 0.58461356 -0.0462363 0.0642284 -1.3862677 1.0227104 -0.058693696 0.022821836 -0.17109643 -0.023584887 0.5496095
under 0.65551656 -0.6216441 0.39237157 1.1882408 1.0798227 0.78696406 1.1050022 0.8366934 -0.119505286 0.157229 0.7606352 0.726607 -1.901055 0.11895667 -0.2555402 -0.43178648 0.37789327 0.38708395 1.1392156 -0.38838074 -0.05083493 -0.24499168 1.5323011 -0.34616873 -0.012451694 -0.42588046 -0.921362 -0.45109093 -0.20201223 0.24212022 0.1528878 -1.7103243 0.044444993 0.31213084 -0.43042102 -0.503324 -0.23526955 0.6432333 0.21355993 0.9525897 -0.3222227 0.7691837 -0.9999154 -1.1267833 -0.009987512 -0.09005178 -0.90532756 0.106770255 0.14682777 0.8758158
conditions 0.15111715 0.015461078 0.22822568 0.1226445 -0.47312376 -0.5112549 0.30984274 -0.18110843 -0.41108543 0.8790448 0.34552294 0.5728365 -0.07120452 -0.3309133 0.5310189 0.19705805 -0.3304002 -0.7479986 0.60487074 0.6569622 -0.0562916 0.068391696 0.41395405 -0.20385788 0.035135515 0.15753496 -1.054679 -0.03615835 0.122546025 0.31134483 -0.14695981 -0.5010478 0.5701287 0.53114593 -0.72731394 -0.27111855 -0.038149055 -0.2601105 0.28252167 0.28510627 0.78799427 0.5985326 -0.53213066 -0.93097365 0.28662646 0.5897209 0.6900697 -0.08363661 0.109731175 -0.032487728
could -0.5829114 -0.03192522 0.42936513 0.2836479 0.29447916 -0.719673 1.194166 -0.2479403 -0.026450373 0.27324206 -0.388297 0.10644395 0.014696726 0.09099844 -0.3340699 0.26749045 0.59040576 0.74492645 -0.30066153 -0.49631095 0.014463323 -0.08299043 0.60662425 0.3241401 -0.3115447 -0.30074483 -1.0303329 -1.1413957 -0.46991408 -0.82733786 0.11301665 -0.536488 -0.910685 1.4866097 -0.09715792 -0.61796623 0.21549301 0.67003214 0.0483365 -0.17843573 0.23595564 1.0164019 -0.08172316 -1.0247113 0.0384981 0.6350082 -0.051749293 0.14911588 -0.24509244 -0.30168852
contract -0.058840163 0.5556982 1.4412253 0.04708125 -0.1034695 -0.30788487 0.70246637 -0.0049709864 -0.34542304 0.7852703 -0.15108038 0.7151502 -0.4760873 0.528054 0.007225756 -0.35173106 0.98721033 0.33832127 0.8452398 0.00018849775 0.0407155 -0.45949933 -0.046863064 0.20015074 -0.28651854 -0.35927564 -0.52471447 -0.12936567 0.057714775 0.41304925 -0.35431924 -0.39589003 -0.9725772 -0.282481 -0.35937387 0.052094538 0.3219263 -0.76621175 0.33185983 0.16855665 0.4101396 -0.37135807 -0.10082268 -1.0246367 0.3284165 0.24416052 -0.08948158 0.17764696 0.031408716 0.013045404
( -0.11784823 -0.03447729 -0.06593619 0.1757478 0.3585373 1.1135249 0.32605055 0.033414364 0.33852917 -0.6025768 -0.16639718 -0.0652402 0.16941543 -0.4005307 0.53067935 -1.2766613 0.002594692 -0.25791505 1.1116359 0.5844619 -0.12112768 0.30718225 0.37547147 -0.18683471 -0.32258493 0.7764604 -0.07585708 -0.77118456 0.55545974 -0.30626634 0.58926857 0.4251433 0.37071523 0.26363227 -0.2908182 -0.8207908 -0.39145473 -0.4223606 0.45151952 0.40137237 0.031297497 -0.2884889 -0.42441532 -0.48895645 0.100841455 0.040745158 0.13568366 -0.4990874 -0.64994836 0.7871067
BSE -1.0854193 0.50793093 0.25566837 0.23518719 0.23934571 0.5369836 0.35077825 0.5337676 -0.9912861 -0.14301069 0.110297464 -0.1704819 0.3150404 0.0019334413 -0.16464406 -0.11887724 0.22590834 0.4473779 0.3686863 0.75292885 0.14779913 0.07551259 1.0236462 -0.19156322 -0.19498126 -0.31879824 -1.217065 0.32684186 0.57328 0.5525727 -0.013092786 -1.0638088 -0.9040553 0.5926587 -0.19467393 -0.1873458 1.0853224 0.24949795 -0.19962849 -0.26152667 0.47053605 -0.37028667 -0.15152267 -1.0164051 0.71736526 0.31947243 0.042845346 -0.22335024 -0.030256609 -0.9026791
) 0.07715465 -0.27093527 0.18843853 -0.042840123 0.13104758 0.94196874 0.44344482 0.00928063 0.3343019 -0.51109797 -0.3630506 -0.1268707 0.07165418 -0.11023824 0.27024198 -0.81139714 0.35760203 -0.49041703 1.06301 0.61367637 -0.032227464 0.05905941 0.5709743 0.01179965 -0.28671086 0.70139533 -0.30462196 -1.0091726 0.6249507 -0.391615 0.35874194 0.6348603 -0.068324015 0.26844802 -0.55537045 -0.37320766 -0.1847855 0.022267578 0.39193243 0.088212386 -0.19502164 0.08263825 -0.6537697 -0.47254637 0.55676126 -0.0093090525 0.36734265 -0.656604 -0.65339273 0.54554427
-- -0.4387007 0.30585638 0.71908164 1.2956748 0.026710914 1.5364182 0.04907811 -0.6312555 0.21913046 0.06626318 -0.29112926 -0.17975496 0.015508073 0.08204634 -1.0221931 -0.8132327 0.6087314 0.10599721 0.33421215 0.575359 0.40757957 -0.7241894 0.064029306 -0.2812089 -0.09461497 0.87403536 -0.717431 0.19457844 -0.48547825 -1.6807401 -0.004550869 -0.03946322 -0.6380863 0.32172853 0.055237174 0.5377077 0.22367854 -0.79253286 -0.4446988 -0.8440256 0.88999814 -0.08398537 -0.6945928 -0.5955383 0.21811822 0.35593778 0.26080465 -0.00069681124 0.32630596 -0.96243906
But -0.19427153 -0.48452446 0.1858543 0.37257293 -0.80511695 0.14780544 0.44545346 -0.41893786 0.2832233 1.019861 -0.09935567 0.04255468 -0.54009265 0.4741752 0.05155198 -0.37466806 -0.38167697 -0.02630984 0.17930803 0.76443106 -0.03285051 -0.8744511 -0.47177613 -0.62382686 -0.21977325 -0.17537871 -0.9799128 -0.38522226 -0.11502464 -0.30955964 -0.6451325 -0.3360631 -0.18603894 0.95712537 0.3788179 -1.1358577 -0.28544378 -0.73094666 -0.9848298 0.12020338 -0.09066062 0.33630648 -0.24163811 0.07749632 -0.2979056 0.50745344 0.25802097 -0.8829245 0.9099258 0.80335397
agreed -1.0871569 0.70951515 1.0377395 -0.03146068 0.4866969 -0.31998104 0.3848948 0.23135503 -0.22246708 0.24654667 0.35360113 -0.27452123 -0.2654803 0.52888215 -0.15103328 -0.6715023 -0.024773251 0.13035226 -0.2762269 0.96306974 0.25869906 -0.16528492 0.93549925 -0.37729326 -0.49505624 -0.8925297 -0.7113148 -0.8413721 0.15886731 -1.0096766 0.09894824 -0.9886945 -0.4840454 0.060151074 -1.1494797 -0.29502934 -0.32651272 -0.029398328 -0.4330846 0.45816937 0.36611557 0.56809556 -0.5572701 -0.15729706 -0.48231512 1.0562099 0.11122966 0.9959157 0.67450446 0.5335352
review 0.026944943 0.8844312 0.5873969 0.15306115 0.30907834 0.29963273 -0.22195537 0.74090016 -0.38050586 0.22574277 -0.18057248 0.13824055 0.1872739 0.14860955 0.048014574 0.2580154 0.09511173 -0.38048735 -0.27550083 0.63213384 0.29709437 0.19838075 0.8160377 -0.33620992 -0.535506 -0.48671588 -0.34748486 0.62504613 -0.14073789 -0.081725605 0.17133115 -0.6283278 -0.33084258 0.761964 0.27955997 0.22802576 -0.08506642 -0.5491189 0.32471 0.25170928 0.3757052 -0.65853256 -1.1152493 -0.93417996 0.26737794 0.7071493 -0.64542514 0.3578226 -0.046638858 0.69633025
his -0.058929022 -0.88245845 -0.045673095 -0.79452956 -0.40054047 0.10398072 0.87816304 -0.38370213 0.6768807 -0.119060196 -0.40795085 -0.12737791 -0.33347344 0.52857864 0.51292557 -0.38322857 -0.34977347 -0.22792377 -0.47791883 0.18886252 0.06385991 0.30996245 -0.15015532 -0.7663885 -0.20173304 0.58852893 -0.1286861 -0.7865942 0.119343035 0.06676085 -0.14951378 -1.2175174 -0.53443545 1.2895267 -0.65343505 0.21171194 -0.4066047 0.34527934 -0.65463245 -0.08983574 0.6554926 -0.72977746 0.14355828 -0.5340385 0.3741202 0.4796458 0.4334278 0.0927427 -0.030526808 -0.4744327
standing 0.045794364 -0.5607904 0.31194472 0.6939186 0.14764394 -0.4026562 -0.008706608 0.04005272 -0.33558828 0.64288384 0.12064852 0.28587914 -0.1813329 -0.22038779 -0.049066752 -0.11022962 0.29367557 0.82167965 0.21615265 0.25133312 -0.26276818 0.16747282 0.14340088 -0.21989141 -0.47587693 0.2513682 -0.26634198 -0.19210933 0.009940344 0.3600949 0.77963406 -0.033571683 0.32970604 0.32435524 -0.2606825 0.26742214 0.034014907 -0.33204982 -0.6350871 -0.5177671 1.003822 -0.23949175 -0.029157128 -0.9973083 -0.041093517 0.46566913 0.7596197 -0.25534043 0.21532226 0.43663913
officials 0.03706036 0.74999595 0.20820229 0.37870046 -0.027905162 0.58422494 0.30704486 -0.70301807 -0.039109375 0.56332165 0.097213395 0.28119692 -0.66934305 -0.2098418 0.83974355 0.24706008 0.31536147 0.9049669 -0.18985792 0.013934035 0.11666145 -0.24261619 0.43971568 -0.32643053 0.12198532 -0.37638324 -0.55697984 -0.8034629 0.35699707 -0.674088 1.0437645 -0.2759822 0.5836465 0.55867004 -0.3391036 -0.47519597 -1.0899765 -0.7102549 -0.13657095 -0.24833876 0.9568152 0.1039277 0.23238291 -0.69310945 0.7358478 0.3556756 -0.14507574 0.2695412 0.03492785 0.61145544
questioned -0.47869706 -0.26862162 1.0801408 0.16029897 0.38489592 -0.041348334 0.1134957 0.41430664 0.11980098 0.6519031 0.2636243 -0.12047817 -0.099650346 -0.015898764 -0.35761708 -0.28447744 -0.12275817 0.5303712 0.06429046 0.39437833 -0.09777689 -0.5213169 1.0773691 0.25471947 1.6624323e-05 -1.0435888 -0.5093132 0.014496386 0.060015958 -0.1402447 1.5468183 -0.72615933 0.7208747 0.1403215 0.086354084 -0.42315638 -0.10949233 -0.38116086 -0.77874 -0.47526464 0.47020054 -0.15554786 -0.29786038 -0.9995795 0.43982905 0.28704435 0.10622803 0.1383823 0.6929958 -0.33892766
as 0.23749466 -0.5451914 0.7891323 0.6686345 0.28331086 0.10961213 -0.36769676 -1.320914 0.70281816 -0.20146856 0.07071909 -0.03665414 -0.0426222 0.64384216 0.31178752 -0.07835229 -0.23274279 0.3273646 0.08067624 -0.095277295 -0.2240057 -0.4507206 0.47760424 -0.44926763 -1.3543015 0.343964 -1.2342484 -0.13201337 -0.41299865 0.52254343 0.49579602 -0.89694697 -0.16218783 -0.040382154 0.72550434 -0.6090761 0.23931141 -0.35536402 -0.46892494 -0.95052975 0.0072757206 0.2210523 -0.31791854 -0.46340287 -1.0403486 0.5217424 1.0419612 0.19933996 0.45520848 0.2661922
there -0.9056906 -0.007227573 0.44236717 0.05278857 0.26918888 -0.07649039 0.13790898 -0.57860136 0.19570749 0.14541909 0.07857002 0.45995206 -0.35172138 0.19265693 0.9573661 -0.11625254 0.24144554 0.29189909 0.19693384 0.6282527 0.9598622 -0.16127065 1.1966354 0.13120027 0.45235807 -0.055668544 -1.2008673 -0.40588284 -0.29342797 0.18302579 0.1809046 -0.6743037 0.6102126 0.04360357 0.4174679 -0.628647 -0.82134736 -0.5923005 -0.5739455 -0.5743386 0.2085663 0.047272712 -0.48470983 -0.5717206 0.9992068 0.73169583 -0.27674773 -0.44540936 0.6754684 -0.3086837
only -0.2607131 -0.5029321 -0.09686072 0.16648737 0.3264674 -0.3326394 0.34637737 0.20534399 0.25720736 0.013240084 -0.25733694 -0.3501545 0.101919726 0.4245001 0.012371529 -0.0058457074 -0.17530043 0.35485536 0.44148907 0.12895355 0.4237242 -0.38059643 0.9252936 -0.5001596 -0.1254389 0.66570777 -0.27984682 -0.41771144 0.11471347 0.52714133 0.35469407 -0.3646586 -0.009225685 0.45213354 -0.015227324 -0.6684484 -0.12855339 -0.31174386 0.18063265 -0.6438859 0.39023033 -0.02803362 -0.43423802 -0.14250319 0.1383469 0.5702112 -0.0054616546 0.019823246 -0.2643534 0.21816981
slight -0.42471954 -0.19107085 0.48291507 -0.11513312 0.24408883 -0.06696654 0.4646622 0.30178946 -0.010862128 -0.2530193 0.25337452 -0.37038976 0.2600722 0.6932046 0.27149242 -0.5021833 0.325256 -0.06870587 -0.42930454 0.376177 -0.051572356 0.19208133 0.60369647 0.20500934 0.119772576 -0.4854552 -0.7097551 0.45908624 0.07090181 0.43111625 -0.46149433 -0.76714987 -0.5425273 0.8967338 0.120710894 -0.14550067 -0.48566025 -0.5311897 0.0044411547 -0.5775521 1.1113124 0.0015558586 -0.26101792 0.021092279 -0.16877203 0.5942068 0.35268438 -0.7204666 -0.5096171 0.1241759
risk -0.33561793 0.71663815 1.2998594 0.3287705 0.5186651 -0.33972296 0.29175004 1.4567312 0.021536158 -0.23507766 0.5498947 -0.013840527 -0.91504985 0.56349957 0.115312114 0.043902215 0.117028214 0.47157797 -0.13657457 -0.040130965 0.27537718 -0.8178005 0.8517916 -0.3732486 0.1760283 -0.34130606 -0.8762877 0.14814469 -0.46287423 0.18360132 -0.5558098 -1.187274 -0.3826955 1.0355548 -0.6739476 -0.34125283 -0.6160077 -0.044545688 0.3442992 0.21029064 0.36434296 -0.18412426 -0.009317409 -0.7274133 -0.2641688 1.1834404 0.19732502 -0.23702149 0.070831746 -0.23336335
Spanish 0.51559573 -0.062559724 0.6838895 -0.029603172 0.38128638 0.22954848 0.70754254 0.19104002 -0.32636678 -0.06362555 -0.14349774 0.021849738 -0.089592256 0.99848294 0.90984833 0.3001987 -0.62447965 0.5394734 -0.6376138 -0.36378 -0.67921215 0.034095436 0.29883233 -0.14199801 -0.22176471 -0.14918107 -0.62164783 -0.42919526 0.9774238 -0.041502926 0.10531741 -0.84198546 0.20529282 -0.10574025 0.6274992 -0.13315266 -0.5614139 0.8104342 -0.38116556 0.28785437 0.33207503 -0.51648736 -0.5688564 -0.52063245 -0.12214347 -0.3038077 0.8165529 0.41921383 0.005581496 0.8141276
Minister 0.83204365 0.12034773 0.2548694 1.2666677 0.31775057 0.20240779 0.4930878 0.17838366 -0.38869303 0.42884803 0.341005 0.13507193 -0.7362159 0.43211314 0.38265908 -0.6005454 -0.2458142 -0.5646144 0.4348073 -0.47522056 -0.83517236 0.83635545 1.2705876 -1.1372288 -1.056744 0.072753765 -0.22793292 -0.37299347 0.11586597 -1.050809 1.0041472 -0.7439678 -0.5338631 0.5944901 0.33825397 -0.0010577443 -1.1168419 1.2333935 -1.3285385 -0.15155494 0.13673423 -0.8216813 0.1942477 -0.95851034 1.5053545 0.7863082 -0.19745219 -0.11545962 1.2601162 0.13230601
de 0.47527632 -0.5017238 0.45308623 0.34549275 -0.08856103 0.16067058 0.8199096 0.15644589 -0.5293129 -0.0044330284 0.131359 0.09679472 -0.30269405 -0.3528132 -0.009262559 0.2640685 -0.37892073 0.031255353 0.79721624 0.8998223 -0.9771421 -0.10785528 0.5459669 -0.41890678 0.3496919 -0.21999377 0.39681554 -0.7408773 1.0446618 0.14408982 0.8229898 -0.41074157 0.27068728 -0.28144324 0.5192911 -0.5273622 -0.1705107 0.35854802 -0.7823932 0.3657643 0.3235669 0.286048 -0.21684387 -1.0228541 0.41193163 -0.43753603 0.8641998 -0.64469004 0.315319 -0.19089097
had -0.097973995 -0.5857128 0.11573376 -0.72928184 0.6345882 0.16519952 0.40535647 -0.58473456 -0.516247 0.14643502 0.0077344305 -0.022910846 -0.61141783 1.4538738 -0.30617926 -0.32821634 -0.07971898 0.687402 -0.2601431 0.35063806 -0.4167197 0.46550578 0.5388935 0.23672783 -0.2667116 -0.8891916 0.11736399 0.07119748 -0.3148014 -0.11107983 0.08865273 -0.32934466 -1.018531 0.60440505 0.17477328 -0.90134054 -0.47425935 -0.4698517 -0.6584701 -0.5511602 0.9065746 0.9014157 0.1404006 -0.99902195 -0.068334885 0.84338146 -0.0027253546 -0.55669177 -0.36984423 0.09044365
earlier -0.39715037 0.33889237 0.5463703 -0.45835778 -0.33372575 -0.89658284 0.50012994 0.0682969 -0.50394845 0.42728567 -0.9394488 -1.0449688 -0.38602546 0.45101497 1.2555233 0.06873436 -0.0986113 -0.41148436 -0.050968885 0.43804115 -0.84700376 0.25757113 0.13584532 -0.62968475 0.34880832 -0.16808453 0.30979005 -0.17942306 -0.23404022 -0.32306227 0.21388139 -1.2460643 0.6642683 0.3310622 0.50996435 -0.91450304 -0.6038125 -0.91837186 0.54698706 -0.08870932 1.1715617 0.853049 -0.6564078 -0.93049276 0.30672744 0.22102681 0.6797924 -0.14013352 0.03261299 0.43208683
accused 0.37240934 -0.18072803 0.6484183 0.28823262 0.10333966 0.24720602 0.008462661 0.09441506 -0.56372315 0.57541585 -0.5773286 -1.9260082 -0.009302549 0.700767 -0.7512945 -0.36970633 0.09887763 0.5126169 -0.608406 -0.49011436 -0.12650415 -0.2403916 1.1054604 -0.5438311 -0.9614405 -0.7766514 -0.043965083 -0.46532944 -0.059008624 -0.50905895 1.1628523 -0.7778862 -0.04284476 1.0848509 -0.26447716 0.057333604 -0.66053617 0.012614782 -0.004882306 -0.10399864 0.97917426 -0.10809774 -0.3454195 0.20396368 0.25017717 0.10313931 -0.7893563 -0.8652625 1.126261 0.23560871
at -0.4071873 -0.1577532 0.648097 0.09035201 0.81883633 0.604773 -0.22842489 0.17799471 -0.19208878 0.47758543 -0.2570205 0.5398822 -0.26502344 0.18877839 0.07428568 -0.17713499 0.27871192 -0.38915816 0.3801885 -0.044137817 -0.668935 -0.13387057 0.6853373 -0.07749436 -0.0339179 0.12343075 -0.34065804 -0.11554701 0.07054583 -0.10266602 -0.011586218 -0.7376986 0.08247306 0.74850106 0.3558224 0.2891568 -0.4480174 -0.7830753 0.17482057 -1.0267968 0.37339297 0.5352152 -0.7011266 0.12515832 -0.3655917 -0.6571331 0.3809105 0.06044518 -0.259776 0.43898717
an 0.6064193 -0.26448318 0.8826679 -0.53928846 -0.41206264 -0.42372686 0.38078308 -0.114124075 -0.38463914 0.6771318 0.14590196 -0.2610395 0.18729201 0.2818538 0.2504787 -0.5021671 -0.27507982 1.1853243 -0.45322692 0.77249867 0.0100377565 0.78443533 1.0005611 -1.0726628 0.0057024257 0.69748205 -0.31456262 -0.82264686 0.10373401 0.21726534 -0.10169061 -0.7105017 -0.33827898 0.6937829 0.10061773 -0.49871144 -0.88222516 -0.79942626 -0.16674821 0.017139684 -0.2690976 0.14127348 0.24484937 -0.8396509 -0.3661221 -0.73299265 0.14984953 0.22294234 -0.19599688 -0.5980133
farm -0.7147912 0.0086613735 0.7613754 0.71558964 0.30773517 0.3243931 0.66584915 0.8300019 -1.1978737 0.0053348267 -0.40181044 -0.28107327 -0.35545096 0.2938092 0.44913945 -0.13053536 -0.6875368 0.4862898 0.18655616 -0.38989145 -0.2516017 0.33665964 -0.31836858 0.06908706 0.5223604 -0.53189135 -0.6090324 0.17640223 0.5859894 -0.036200125 0.24081911 -0.52678937 0.002048492 0.04004088 -0.8406197 0.5677176 -0.27728218 0.24223006 -0.043750748 -0.34736073 0.5571669 -0.35535228 -1.2415195 -0.9682266 0.6846104 0.831341 0.3587102 -0.4660666 -0.4135776 0.91847485
ministers -0.5721382 0.44742122 0.6143695 0.51088476 0.5177362 -0.0052500265 -0.039193675 0.23041055 -0.741442 0.80984896 0.20431794 -0.8126362 -0.52265257 -0.45180795 0.5947035 -0.1554919 -0.2133033 -0.6063812 -0.23009098 -0.12037857 -0.0511495 0.23624228 1.082483 -0.6389639 -0.14941524 0.02109857 0.014924886 -0.51706785 -0.031949103 -0.6440409 0.51282114 -0.99473536 0.08124527 0.28125888 -0.25774708 -0.88964725 -1.136077 0.58336246 -0.9412021 0.053957224 0.85516804 -1.1313987 -0.6253672 -0.44942155 0.38584015 0.6912988 0.23453166 0.2262891 -0.46743718 0.15135548
' -1.2832171 -0.51652503 -0.18447636 0.47521773 0.47612116 0.29999542 0.5783363 0.9516414 -1.0006334 0.19640727 0.33028966 0.67188877 0.24319033 0.43831882 -0.37021872 0.2384753 0.4260669 0.47520846 0.268507 0.10602476 -0.17144573 -0.630246 0.5418449 0.3855308 -0.7981807 0.14332382 -0.09865935 -0.034795232 0.27146125 -0.5095289 0.08242687 0.033500798 -0.06624676 -0.33944166 -0.13657998 0.1502956 -0.7942005 -0.33479276 -1.0251206 0.31277075 1.3963273 -0.8077378 0.15324458 -0.6908044 -0.2332768 -0.42515516 0.5347607 -0.022535164 0.26066232 0.67153865
meeting -0.6668255 0.16594955 0.36935028 0.18741444 0.87603056 -0.41995803 0.005505614 -0.27646905 0.038666982 0.8544443 -0.13767095 -0.9471382 -0.2949072 0.42844728 0.05798189 -0.34174338 -0.22393864 -0.55793446 -0.11918768 0.7095382 -0.8476737 0.38338932 0.8838556 -0.5992775 -0.19718227 0.48286882 -0.30041116 -0.39948148 0.30559143 -0.6953209 0.17266808 -1.1292179 -0.53671473 0.09263384 -0.23574784 0.3594369 -0.794577 -0.53503406 0.029641524 -0.74417394 0.54613274 -0.27357295 -0.5058536 -0.019341087 0.028888976 0.06031758 -0.027508592 -0.16343132 -0.26357976 0.7355582
of -0.35889673 -0.07862783 0.278162 -0.019940803 0.12870756 0.1512797 0.5737819 -0.1592868 -0.32505476 -0.31057116 -0.1648287 0.050225373 -0.38795632 0.2119836 0.36421797 -0.31990162 -0.062249973 0.006842005 -0.25191662 0.24156359 -0.3968629 -0.21380773 0.06268643 -0.06534496 0.22457847 0.19063802 -0.7625452 -0.27556536 -0.017642666 0.26817945 0.4151854 -0.42527145 0.07023173 0.5946884 0.116886884 -0.53075594 -0.28486565 -0.07786248 0.07309255 -0.30471888 0.34722662 -0.123371 -0.6002273 0.07637456 -0.021006996 -0.4989761 0.12863658 0.047655627 -0.09463466 0.26914945
through -0.2681257 0.4504967 0.19629124 0.58809066 0.71993405 -0.48392168 0.54084486 0.024799928 0.11788746 0.26577443 -0.7608539 0.5192392 -0.7570262 0.01753352 0.1022659 -1.3743589 -0.51544124 0.26513514 0.6668416 0.12551036 -0.19126785 0.0036115434 0.75386107 0.6356567 -0.835366 0.13245533 -0.64689463 -1.1403784 0.12278928 -0.62684023 -0.41391665 -0.044777434 -0.8491449 0.044782832 0.6002127 -0.4043779 1.1787395 -0.5398479 -0.9057238 0.30062273 0.1432631 0.14056683 -0.28387272 -0.31427822 0.4143612 0.2489316 -0.90371233 -0.8109976 0.34663168 -0.15706983
dangerous -0.6996015 -0.1809456 0.061889876 0.35214877 -0.08039343 -0.027666261 1.2514763 -0.35661098 -0.71357286 -0.18722403 0.36208418 -0.2387562 0.33915952 0.20714615 0.3968308 -0.20226218 -0.13035329 0.18734206 -0.23983751 -0.46236104 -0.48506117 0.31444043 1.0934466 -0.61871547 -0.29643854 -0.3217176 -0.7703887 -0.18173483 0.68132126 0.6522934 0.15007278 -0.85607463 -0.25554985 0.39246815 -1.1098558 -0.5564045 0.30835903 -0.7045031 -0.10410386 -0.36768708 0.3494991 -0.4436192 0.271114 -0.25546867 0.04275535 0.19537319 0.08642208 -0.101212054 0.1326685 -0.37516114
Only -0.4349307 0.11885639 0.40980458 0.55214435 0.044046283 0.14064115 0.6922879 0.17075229 -0.20291102 -0.28283495 -0.10030489 0.010847755 0.14913666 0.18504992 -0.6096935 -0.32152474 -0.36347333 0.3949962 0.1084133 0.36619905 -0.31811017 -0.5426144 0.67458135 0.040284913 -0.19150968 -0.32100877 -0.652684 -0.7648176 -0.47917107 -0.18953247 0.38435376 -0.07971357 0.25597242 0.28604624 -0.7271452 -0.609619 0.16811185 -0.16451913 -0.5109099 -0.79574776 0.07223251 0.44201788 -0.36010242 -0.0025226106 -0.052709874 0.28403172 0.40625933 -0.36827514 0.29080266 0.091995075
backed 0.52213794 0.112898916 0.5484786 0.25519592 0.08481781 0.30134368 1.0084751 0.3009108 -0.21733046 0.20567575 -0.046351727 -0.57565254 -0.41189593 -0.16596752 -0.16726616 -0.21994296 -0.17972326 -0.026295802 -0.22800532 0.021339376 0.33869413 0.9639922 0.81457704 0.16432086 -0.28294483 -0.39470237 -0.71163994 -0.01795541 0.5816313 0.1877147 0.9373811 0.08653851 0.41622117 0.6650748 -0.35701224 0.3540876 -0.2340595 0.08754346 -0.25291502 -0.03432147 0.3461209 -0.47446835 -0.6178878 -0.830614 -0.19261312 -0.08569952 0.62783164 0.42945397 0.7470183 0.18899493
are -0.28252825 -0.4644749 0.81656826 0.57948333 0.4681683 -0.5765757 0.7652978 0.13493122 -0.31832826 -0.293353 0.6075254 0.5239036 -1.3239256 -0.50518 0.3151407 0.20909514 -0.3876137 0.16310787 0.08401748 0.06919825 -0.17354381 -1.3935984 0.42387733 -0.044561442 0.044837095 0.19852312 -0.46275446 0.025406124 0.34999168 -0.4354937 -0.23866233 0.012903168 0.18997777 0.4645736 -0.4893108 -1.592482 0.64787745 0.7458966 -0.3830577 -0.40392473 1.0997293 -0.24912967 0.20351988 -1.893796 -0.2023949 -0.08653291 -0.3009989 -0.25257355 -0.7863155 -0.5672101
due -0.09122326 -0.44224447 1.1718173 -0.25260082 0.29317027 -0.6337094 -0.26065567 0.56353253 0.6582646 0.5712962 -0.2603702 -0.09467999 0.28124917 -0.07129711 0.528516 -0.38423377 0.61286086 -0.0026026026 -0.70272535 -0.5994992 1.0660493 0.15213874 0.47952285 -0.5083456 0.14307989 -0.19614859 0.29908785 -1.1088384 -0.29511994 0.20525034 -0.014184653 -0.6488184 -0.39274862 0.728 0.14457019 0.0414922 -0.39660096 -0.20839623 -0.16409335 -0.44974932 0.8478394 0.22191694 -1.6107874 -0.56042886 0.09019205 0.25567904 0.46930566 -0.56514263 -0.77660555 0.46702597
issue -0.024050975 0.9870013 0.9523971 0.34016633 0.8079797 0.10618894 0.72718763 0.27996203 -0.6769331 0.8184186 0.3833354 -0.34697965 0.070088804 0.03931844 0.01329193 -0.039902873 -0.49874762 0.40407467 0.54688746 0.23241219 0.535511 -0.29329818 0.7019767 -0.16169438 0.69880366 0.037835274 -0.22078638 0.20342998 -0.4595957 0.094747044 -0.40439898 -0.45205528 -1.0852977 0.3171203 -0.5748727 0.20540556 -0.5776101 -0.45808685 -0.25856963 -0.7142744 -0.01972653 -0.2951546 -0.18041766 -1.3609467 -0.2876875 -0.37668836 0.30874902 -0.24611548 0.30145323 0.75020057
early 0.13142264 0.870935 1.0372674 -0.034671374 -0.33430058 -0.024009263 0.3646956 -0.15411906 0.90477675 0.06338594 -0.90178925 0.30494562 -0.5308695 0.07644046 0.16225557 -0.70749116 -0.1814668 0.6887033 -0.29697806 0.6598824 -0.058828242 -0.48225415 -0.005681122 -0.07374248 -0.42182162 0.957905 -0.4903083 -0.36545578 -0.7764302 0.8130552 0.025655381 -0.8026964 0.5705645 0.7410897 -0.2783843 0.22205567 -0.1381906 -0.069224596 -0.2104077 0.09668639 0.7146771 0.6746393 -0.026873324 -1.3904696 0.179179 -0.3907672 0.1256394 0.43898797 0.10456254 0.8645566
next -0.31006902 0.21070549 0.57564193 1.3576499 0.10736366 -0.5592677 -0.06371373 -0.41573265 0.24071531 0.48208332 -0.5054141 -0.5288097 -0.19836009 -0.46050537 0.32891473 -0.18305287 -0.11397195 0.08412705 0.079175465 0.052191854 0.11179888 0.20209765 1.0758728 0.2237046 -0.31511134 0.07734359 -0.765012 -1.2980522 -0.1355503 -0.870214 -0.892537 -1.3667593 0.09720465 -0.04645703 -0.89063174 -0.7721673 -0.20592397 -1.2218323 0.21784562 0.22909787 0.34176195 0.3324394 0.23393878 -0.9418105 -0.53969157 -0.424631 0.090821765 0.830149 -0.535149 0.7404694
make 0.24901253 -0.18070778 0.45391497 1.3668085 0.25522912 -0.5555861 1.0279642 0.07062469 -0.42444995 -0.16285335 0.4495969 0.0054919384 0.591399 0.6380544 -0.023594633 0.45359692 0.91390777 0.48279253 -0.88774174 -0.66637176 -0.20528586 -0.31003156 0.83078563 -0.89795303 -0.61502314 0.48565575 0.12322867 0.32352275 0.31805655 0.004658101 -0.02722266 -1.13079 -0.81968623 0.7246954 -0.5100107 0.035470285 0.25370625 -1.1178665 0.32494882 -0.6842297 0.6409757 -0.11362662 -0.32907048 -1.089513 -0.43610176 0.80719143 -0.39417884 -0.93591577 0.35561898 0.10683273
senior -0.17574714 -0.12989931 0.9300428 0.61213326 -0.10578694 0.1135534 1.0977135 0.57994854 -0.58196807 0.5272313 -0.23763764 -0.49747252 -0.18383867 -0.5622601 0.30674553 0.22513174 0.3024409 -0.03959154 -0.07400089 0.044045478 -0.34957606 0.7114459 -0.52055776 -1.006898 -0.61138535 -0.10765436 -0.28236496 0.2697604 -0.20705323 -0.34623554 0.7134152 -0.42091507 -0.048060372 0.5040715 -0.025847616 -0.6411373 -0.42243743 -0.254801 -0.023450354 -0.58899593 0.8682304 -0.13791978 -0.64003056 -0.78823334 0.15716498 -0.20523673 0.12586907 0.025806623 -0.08098257 0.46091288
have -0.30382365 0.10818779 0.14447181 -0.49864817 0.14547744 0.37557432 0.6851067 -0.06305907 -0.3828914 -0.5526914 0.6135643 0.7133121 -0.29683664 1.3331785 -0.055549968 -0.4674999 1.1837013 1.117579 -0.0967734 -0.09528548 -0.20531075 -0.40756533 0.57496405 -0.08539789 -0.31076482 -0.5875558 -0.14620946 0.4892549 0.0056907246 -0.32178217 -0.409638 -0.69831663 -0.37789333 -0.2178056 -0.7474662 -1.3091239 -0.4143256 -0.31274775 -0.89972043 -0.7018647 0.9159031 -0.31706777 -0.11517348 -1.0676544 0.32553855 0.52569276 -0.21939076 -0.30716228 -0.4537609 0.37566078
long -0.13319837 -0.2727162 0.6123017 0.4587392 0.097088315 -0.07115346 0.40945628 0.51462156 0.3424984 0.24340408 -0.48412722 -0.27438298 -0.067420505 0.45717877 0.5094951 -0.2890668 -0.39725205 0.39272016 0.746619 -0.22548246 -0.55663955 0.04131548 0.36577633 0.14118029 -0.14103849 0.3258678 -0.82215774 -0.2551221 -0.8617991 0.24505387 0.48055798 -1.0676105 -0.01854203 0.924951 -0.07504733 0.21133082 -0.23923191 0.046237856 -0.47489303 -0.08087545 -0.2661829 -0.079189084 0.06313216 -0.39857137 -0.19495846 0.9346668 0.816351 0.08048979 -0.72733337 0.044636317
been -0.3554707 -0.13468331 0.91349685 -1.3544273 -0.86653066 0.4417661 0.67452836 -1.1043005 -0.22596337 0.46749556 0.29827264 -0.38555253 -0.6601934 0.92421895 -0.34125382 -0.42797145 -0.23527792 -0.2725144 0.5659194 -0.4551596 0.09330598 -0.52413905 0.8768244 -0.6579736 -0.64796835 -0.7643288 -0.4602388 1.2504131 0.79472643 -0.5830641 0.6146063 -1.0662228 -0.50981367 0.46336448 -0.6885907 -0.6092486 -0.19684337 -0.7082311 -0.1981076 0.29690897 1.032556 0.6780856 -0.31360438 -0.84663486 -0.4663178 0.6213006 0.38260233 -0.7485159 -0.97511816 0.3216382
known 0.33609897 -0.066554084 0.4847316 -0.34516302 0.014976316 0.5157335 0.69537914 0.03875045 -0.39935607 0.06653018 -0.81754535 0.22441408 0.079629205 0.81619644 1.233427 -0.36608812 -0.11437426 0.5086402 -0.3371902 -1.1705023 0.7778204 -0.3433137 -0.15064904 -0.48047623 -0.3517182 0.28456193 -1.0450304 -0.26626348 -0.66626745 0.54055035 0.9181226 -0.80146164 -0.28638685 0.33479536 -0.78505266 -0.8085988 -0.20538267 -0.092378885 0.047446147 -0.56758964 0.22839934 0.10960245 0.07939722 -0.9683988 0.069942415 0.5887907 0.2986041 -0.8952445 0.52147985 -0.3735676
similar -0.38218316 0.7062933 0.9752669 -0.48027754 -0.4327047 0.08559702 0.7719223 0.10763686 -0.54853386 0.16153903 -0.23275524 -0.122703895 -0.0833265 0.56836265 0.40421644 0.013108632 0.2742881 0.1078335 0.016764665 -0.08320068 0.7781442 -0.40492 0.27023715 -0.31049618 -0.046050303 -0.12186287 -0.8032106 -0.084807865 -0.24808834 0.16145472 -0.19924374 -1.0239522 -0.07468448 1.0900532 0.02529542 0.44764444 0.3617845 -0.50639623 0.343955 -0.8838404 0.743994 -0.049239237 -0.31541225 -1.011248 0.07801706 0.38796753 0.44754672 0.37840766 0.33025807 -0.5928434
which -0.63538176 -0.29776037 0.5704611 0.24763341 -0.829615 0.77237153 0.6324311 -0.1385363 0.063729785 0.27602595 0.8494289 -0.36785612 -0.30285308 0.04734238 -0.1087121 -0.13702752 -0.8556405 0.6902693 0.49500477 0.39483047 0.68244874 -0.4700549 0.32816342 -0.9515472 -0.9025037 -0.2626196 0.026085334 -0.7776901 0.3847614 0.8629875 -0.45709577 -0.8269083 -0.8711967 0.7333948 0.40348008 -0.22359554 0.12910503 -0.279248 0.13080534 -0.58102083 0.4426806 0.2105497 -0.63668394 -0.47547096 0.461395 0.43008223 -0.192568 0.20650817 0.26570538 0.9206527
is -0.44965547 -0.3219746 0.5464227 0.348562 0.4250072 -0.17275904 0.9171655 -0.2846874 -0.10745227 0.31317848 -0.035843175 -0.29126576 -0.19061413 -0.5035996 1.0836457 0.5210515 -0.29120716 -0.122695416 0.2787394 0.055820305 -0.030396542 -0.7544598 0.57056206 -0.15583819 -0.024325386 0.22595702 -0.44631585 0.041456506 0.26851556 -0.10582384 0.27473414 -0.47307143 -0.3787138 0.655322 -0.061250348 -0.8366387 0.2754502 -0.13015114 0.014014013 0.07041205 0.67773837 0.2456199 -0.29014945 -0.5628783 -0.82345396 0.39309734 -0.041299067 -0.093358785 -0.7000719 -0.057877705
believed -0.42136523 0.3362401 0.66060907 -0.16552371 0.94851613 0.49821457 0.19151528 0.95663154 -0.16166683 0.11788409 -0.48166358 0.13897464 0.6644278 -0.41830772 0.7057631 -0.42548382 -0.016998312 1.1971341 -0.05631426 0.18607357 0.6520841 -0.48661003 0.95265985 -0.7931601 -0.08959788 -0.64560986 -0.0051030773 -0.23421164 -0.14982913 -0.66340977 0.9709053 -0.71098214 -0.20696011 0.61264503 -0.40949088 -0.4874042 0.5234776 -1.0004743 -0.71992975 -1.1943774 0.37690902 0.0802302 -0.78988194 -0.43497396 -0.017325139 0.9163442 -0.1219136 -0.20729367 0.2609444 -0.11904893
cattle -0.066094786 0.18614487 0.5930837 -0.023084668 -0.1304757 0.27049097 -0.39645344 0.5586099 -0.12577118 -0.11870158 0.39164874 0.23281826 -0.17768048 -0.0525577 0.30293444 -0.31521383 0.24103105 0.2089894 0.26752064 0.5680639 0.3225161 0.12095592 1.1742097 -0.4755591 0.07099076 -0.6910193 -1.426106 -0.38040873 -0.44237205 -0.13887385 0.39777818 -0.702121 0.05248363 0.07258855 0.21502918 0.56365585 0.42647585 -0.27975258 0.671869 -0.865809 0.44904545 0.049499758 -0.8875978 -0.7578627 0.23691854 0.2369853 -0.17139895 -0.27979797 0.19605625 -0.44600508
feed 0.038006414 0.9388963 0.5607011 0.8033863 -0.381347 0.29342005 -0.5316988 0.22720997 -0.48268148 -0.18950614 0.20169218 0.9273908 0.22251186 -0.4828071 1.0280727 -0.09737161 0.0072457204 -0.18922041 0.49422863 -0.5151175 0.24313232 0.15465665 0.59753114 0.66502446 0.37795967 -0.52275765 -0.9815156 0.094984934 0.06907278 -0.4118757 0.42865404 -0.3680789 0.4143377 0.8610212 -0.19194958 -0.28968555 0.7483331 -0.56592584 0.6129896 -0.1578271 1.5467157 -0.38367528 -0.50644934 -0.35602018 -0.18307666 0.7328243 0.2517764 -0.29858497 0.8682812 -0.11770066
containing 0.116119675 -0.3793544 0.08901099 -0.21127225 -0.42053354 0.008909353 0.23067129 0.37669596 -0.390449 -0.38014668 0.098068915 0.5329511 -0.3374089 -0.21018085 0.14354977 -0.12509717 0.00046182345 0.43401667 -0.24987133 -0.04328596 0.19066708 0.089706615 0.8281281 -0.09007916 -0.13186131 -0.21987687 -0.5964754 0.1254686 0.59356344 0.30289966 0.59470356 -0.52152157 0.6146533 1.0343951 0.7544452 -0.404099 0.30060166 -0.9287862 0.2669637 -0.03800998 0.7273902 -0.43132693 -0.10547131 -0.25276148 0.23667175 -0.14284497 0.15489295 -0.9246474 -0.009475736 0.17402783
waste 0.095462844 -0.0026575364 0.38116682 -0.15378329 -0.15358315 0.191259 0.025627181 0.7527405 -0.9592547 0.7163624 0.029897602 0.4459102 0.11464021 -0.09213651 0.16009219 -0.7221233 -0.50236195 0.24815294 -0.8236623 -0.19480525 0.38933352 0.041982 1.1081176 -0.06261737 -0.12432003 -0.69508874 -0.91621476 -0.38559237 0.5552053 0.15074651 0.928524 0.05717185 -0.3438496 0.68752444 0.22608939 0.591117 -0.20780165 -0.6479974 0.2566592 -0.79700905 0.5513424 -0.22868812 0.22982657 -0.7280882 -0.013465142 0.49466947 0.5269095 0.1934127 0.44981173 0.05334454
farmers -0.23682845 0.32403246 0.4273328 0.27202743 0.2122627 -0.6850123 0.016378835 1.0175486 -0.70886505 1.0450797 0.24366929 0.4723738 -0.06593762 0.38786843 -0.2332591 -0.5830563 -0.18469192 -0.07309992 -0.5000835 0.092700996 0.051118877 0.05174721 0.68235135 0.59677434 -0.5585031 -0.5263879 -0.44714534 0.29725048 0.22778855 -0.12350792 0.46819162 -0.37400377 0.2604707 0.6934192 -0.12510464 -0.01041489 -0.6689231 -0.5997638 -0.29907805 -0.6315013 1.1859183 -1.0105274 -0.14989652 -0.26634237 0.14540452 0.5698147 1.4907876 0.36439785 0.021833334 -0.15616527
denied -0.85634357 -0.08611675 -0.11768463 -0.012515434 -0.15226959 0.088284925 0.50894696 -0.14707619 -0.58657193 0.98550606 -0.3838367 -0.7027602 -0.29525772 0.23136632 -0.18251556 -0.38009673 -0.46643865 0.6101573 -0.53020847 -0.020907458 0.007708534 -0.23714305 0.5037622 -0.3505995 0.075968504 -0.51782924 -0.40236512 0.35977432 -0.16887859 -0.5224906 1.2813146 -1.204663 0.377056 0.464928 0.34954748 -0.50167805 -0.18361932 0.48934004 -0.28168076 0.42604044 0.75694567 0.07297717 -0.2841142 -0.991609 0.14684108 1.4366559 0.038766887 -0.26660228 0.9533954 0.8392943
danger -0.019392848 0.19596028 0.37521225 0.26948822 0.23948853 -0.16058145 0.4880466 0.2860366 0.21875131 0.6710897 -0.33365688 0.57375956 -0.34955016 -0.13641568 0.9060113 -0.5710979 -0.012376305 -0.17238931 -0.064416885 0.16908829 0.7111012 -0.39758587 0.43758819 -0.19026509 0.42263827 -0.3905834 -0.7741552 0.45561564 0.44220653 0.6746068 0.03856791 -0.545879 -0.021579253 0.58210504 -0.101853065 -1.0720241 -0.422348 0.35243163 -0.6357358 -0.5295761 0.8547166 -0.17970325 0.17353727 -0.57043195 0.17588599 1.1731249 0.07591056 -0.77313966 0.118572235 0.15114558
their -0.53840464 -0.9086968 0.1631026 -0.06357184 -0.5678861 0.37306932 0.059578754 0.3585247 0.23671734 -0.40043923 0.5094087 0.55660063 0.16380328 0.482452 -0.08671681 0.2803856 0.11882543 0.4230242 -1.3013628 -0.35169896 -0.22078392 -0.28896016 0.6193403 -0.27040806 0.44204405 0.40448073 -0.5569219 -0.7790737 0.4132551 0.19799143 0.37247065 -0.91172737 -0.3471435 1.0233978 -0.9894425 -0.084071286 -0.044933062 0.2538018 -0.0890337 0.11484003 1.1789918 -0.10587294 -0.013405499 -0.83012336 0.43911827 -0.69094527 0.118529946 -0.11921688 -0.2730981 -0.37274837
but -0.27758068 -0.5507527 0.8010172 -0.07559093 -0.672112 0.1019532 0.23387149 -0.29068586 0.28700316 0.6762953 0.48515162 0.20151037 0.42792484 -0.037193812 0.5385726 -0.4473146 0.29147708 0.6191452 0.502688 -0.3135103 -0.39039987 -0.06088618 0.5136683 -0.5151533 -0.3538979 0.30809587 -0.17712395 -0.46707237 -0.80989736 0.9146289 0.07111173 -0.59645426 -0.5215155 0.5872191 0.2740668 -0.93183494 -0.08840327 -0.6921974 -0.37889627 -0.026662368 1.0734444 0.81378627 0.047448914 -0.26362342 0.80331725 0.17689213 -0.4139564 0.11046449 0.36474493 0.95914155
expressed -0.3915582 0.10850894 0.5632811 -0.23663197 0.53090554 0.45926166 0.6183983 0.1446357 0.45976037 -0.12837113 0.32754967 -0.3737294 0.69824433 -0.059401136 -0.109545045 0.4722254 -0.11974467 -0.34197435 -0.63148683 0.18393353 -0.5301479 0.34058467 1.1974179 0.51648366 -0.42640036 -0.44911748 -0.7540412 0.27322307 0.020380741 -0.35533625 0.05343173 -0.13832738 0.011336038 -0.12555459 -0.1538832 -0.4947637 -1.0817271 -0.30255392 0.13922611 -0.5228357 0.8426648 0.06004269 -0.3982503 -0.70922863 0.2756355 1.1297853 -0.82337 -0.18904993 0.66161346 0.11453898
concern -0.22663154 0.65699846 0.55584365 -0.40517324 -0.14859486 -0.15671647 -0.20035784 0.38944238 -0.039530423 -0.4509177 0.6299598 -0.28849077 0.8858229 -0.4079875 0.5264375 0.46088484 0.07185919 0.0030703968 0.023650134 0.7419587 0.021465622 -0.38235235 1.2273253 0.37066567 0.10065397 -0.61308134 -0.60720146 -0.4729782 -0.24651323 0.15695806 -0.3230196 -1.0198957 -1.153984 -0.18560539 -0.17608252 -0.1443554 -0.59488165 0.39796594 -0.4256183 -0.6879193 1.3354475 -0.44061303 -0.49293792 -0.92359734 0.32351717 0.15609796 -0.038312696 0.0035568732 0.59025395 0.31438968
government -0.43811297 0.889544 0.9689713 0.4283918 -0.27073985 0.13871732 1.0456479 -0.70743066 -0.3320202 1.4438527 0.4568551 0.40373194 -0.028992996 0.021255646 0.3428435 -0.11837941 -0.13427305 0.37523982 -0.41502395 -0.1641193 -0.5207065 -0.015838398 1.5726212 0.009979425 -0.2323022 -0.3828385 -0.24605387 0.14303732 -0.43190464 -0.19613682 0.27750358 -0.36605296 -0.44715554 0.17777109 -1.3261063 0.2066611 -0.86621845 0.11922964 -0.40950832 -0.3442876 0.18249024 -0.48423102 -0.65859896 -0.07226257 0.27349436 -0.21492362 -0.10223516 0.07283255 0.28509167 0.5159901
avoid -0.5223732 0.16630234 0.37160325 -0.31756076 0.76915306 -0.32683536 1.036499 -0.43509758 -0.28642675 0.5882871 0.5506007 -0.19211602 -0.28110126 -0.2535332 0.009375569 -0.29301906 -0.15288916 0.08109037 0.056430187 0.046012796 0.12568742 0.5564756 0.47958767 -0.52883023 -0.5000968 -0.47406706 -0.8068002 0.3798029 0.12674305 0.2086974 -0.4876464 -0.76635116 -0.19376847 0.87833434 -0.7231177 0.30031177 -0.21742232 0.041150857 -0.5964203 -0.8019193 1.4342761 -0.50278175 -0.6680314 -0.10333516 -0.21474053 0.83585894 0.3939499 -0.7128119 0.08254806 0.79861724
might -1.0755181 0.100315325 0.030928101 0.037432827 0.40542832 -0.047541842 1.6163346 0.23895212 -0.102147944 0.81069547 -0.4442883 0.21960029 0.18581487 0.17503768 -0.2729595 0.38797668 0.029538052 0.43741336 0.07344746 -0.60517704 0.3062783 0.13114005 0.43110752 0.110703334 -0.2413629 -0.19819829 -1.6672251 -0.7051765 -0.78442305 -0.77704144 0.26424873 -0.09070066 0.060629614 1.0811328 0.10030458 -0.15273081 0.083195895 0.5330844 -1.0712177 0.04952151 0.53721595 0.0028951173 -0.13896191 -0.8416153 -0.1992076 1.1844692 0.6863556 0.5119253 0.0119738085 0.30613774
across -0.5901755 -0.5250519 0.31883386 0.52069986 -0.5264812 0.31833893 0.48364767 -0.12663868 -0.08956723 0.16223618 0.07966549 -0.39112008 -0.26006013 0.13646848 -0.27711302 -0.45302266 0.33516747 1.1341801 0.24069056 0.28918988 -0.027774373 -0.50481766 0.94400644 0.61734605 -0.41861048 -0.07569622 -1.4956306 0.0136966985 0.572325 0.4364343 -0.22326416 -0.080061756 0.07797717 0.02707893 -0.41217786 0.24446072 0.6697059 -0.5129754 -1.2158278 -0.2480303 0.8454194 -0.15678751 -0.68391365 -0.28907695 0.31230807 0.38067883 -0.1996347 -0.36454913 -0.07826951 0.9151448
Europe -0.5867655 -0.08310336 0.33702645 0.38254482 -0.25971285 -0.058877457 0.37455708 -0.71617705 -0.9234099 0.36934245 -0.31762886 0.5922302 0.60337186 -0.20641947 0.4399317 -0.031876814 -0.50174737 -0.18308012 1.2568381 0.95459384 0.5230693 -0.7077894 0.9959205 -0.13244621 -0.27953884 0.04552436 -0.64755315 -0.49075904 0.5886184 0.020584883 -0.63354343 -0.44104505 0.27693915 0.15549646 -0.48380053 0.14333992 0.5629404 0.6016481 -0.52836037 -0.96013993 0.15045023 0.5180615 -0.07644715 -0.6174759 -0.11057016 -0.34380323 0.500451 0.07079414 -0.2831701 0.92568344
What -0.9082838 0.35210904 0.91861457 1.2588657 0.42920655 -0.101685375 -0.316107 -0.15062712 -0.08704198 -0.023925228 0.005712667 0.07450302 0.2143322 0.76529413 0.27558842 -0.04548425 0.14914179 0.6201901 0.6916602 0.4605366 -0.20699602 -0.70268744 0.3548012 0.17725174 -0.23722552 0.48243135 -0.6063377 -0.14569736 -0.8337581 -0.3798451 -0.35157302 -0.54201394 0.8291093 1.0459006 -0.56426793 -0.8243214 -0.6567011 -0.5305354 -0.7933218 0.26262274 -0.26279068 -0.062367022 -0.4478622 -0.22683978 -0.066070475 0.21014687 0.052084032 -0.58044934 0.46261698 0.025217265
extremely -0.57351106 -0.22665463 0.8164049 0.71464455 -0.13801451 -0.28624675 0.32220647 0.18281198 -0.12788714 0.4933377 -0.36709863 -0.4380894 -0.05448391 0.6389767 0.57661545 -0.48673356 0.16480966 0.30716902 0.43287197 -0.440591 0.37891436 -0.34638152 0.61279047 -0.5269993 -0.4384541 -0.13598712 -0.81386244 -0.12926821 -0.21291457 0.7619306 0.06165378 -0.30016246 0.60126907 0.8559755 -0.18071853 -0.63044035 0.0732892 -0.3233266 -0.46764386 -0.85007 0.37845474 0.06457417 -0.1960161 -0.6800408 -0.2629585 0.45993915 -0.19325957 -0.66137755 0.6320706 -0.56133616
how 0.51782346 -0.6518391 1.0021044 0.5867686 -0.85952955 -0.2966715 0.40524378 -0.20063485 -0.1067384 0.6640411 0.67749125 -0.08562782 1.3121953 1.1694288 -0.10042815 0.5382626 0.26611537 0.6265505 -0.037728664 -0.35250115 -0.44202524 -0.31977704 1.0800173 -0.61941767 -0.2105845 0.058088534 -0.0716694 -0.30629605 -0.20151429 0.61319506 0.07166499 -0.66858786 0.30999056 0.4996423 -0.070425674 -0.6688029 0.031099437 -0.4118943 -0.09780794 -0.6674068 1.0396744 0.67577255 -0.27259555 -0.54766583 -0.4968135 0.7794778 -0.1562862 -0.9287779 0.16785973 0.008805014
going -0.04921144 0.06272362 0.61521834 0.75841844 1.0339205 -1.0092793 0.17344356 1.03114 0.21229827 0.18924105 0.4216165 0.65923446 0.86454356 -0.33896872 1.2111703 0.24694903 0.32475814 0.7255238 0.6514077 0.7065777 0.82314557 0.43217763 1.1260685 -0.12238589 -0.18775263 0.9667214 -1.1117722 -0.48619556 -0.4074534 -0.7126012 0.13044578 -1.2117633 -0.36029416 0.50657475 -0.5338607 -0.66922015 0.32091942 -0.11514911 -0.550279 -0.25146955 0.48963308 -0.5345114 -0.42876813 0.44776848 0.030772148 0.277625 -0.06304728 -0.72323114 0.5042557 0.2895574
take -0.79909533 0.053747322 0.4849106 0.49154362 -0.3633956 0.08532048 0.9170849 -1.377315 0.56028336 0.27931055 0.338386 0.09124444 -0.17712422 0.60528725 -0.18274674 -0.78252214 0.24553333 0.33904532 -0.51080745 0.46809584 0.58853936 0.3525316 0.98172873 -0.60283685 -0.7013978 0.045152813 -0.23037732 -0.57006294 -0.0021889159 0.24085371 -0.18079899 -0.09572081 0.35508007 0.54699725 -0.59718084 0.121229544 0.018788362 -0.36367652 -0.50097185 -0.5949589 0.20134068 0.24568667 -0.6282676 -0.69998103 -0.68052715 0.68813276 0.028090583 -0.5894407 -0.91365945 0.23888738
lead -0.46903285 0.029278986 1.3723731 0.7195981 -0.18613395 -0.14017753 0.47307694 0.093833394 0.21859717 -0.6057635 -0.10746837 -0.10574446 -0.04354427 0.33126655 -0.33172905 0.31200582 -0.41201183 -0.057842497 -0.20555079 0.17842704 0.73293465 0.32935062 0.8820402 -0.5306246 -0.85997903 0.90186757 0.33362508 -0.4117404 0.27139053 0.014181745 -0.14756961 -0.29086486 -0.4891323 0.2796901 -0.40317777 0.25603247 -0.43331704 -1.5856751 0.8397917 -0.027651608 0.3996857 0.37978005 0.6877111 -0.30381376 -0.8770014 -0.20412698 0.3600855 -0.72759897 -0.19483691 1.0401429
National -0.7679061 0.18117677 1.9513854 0.699013 0.56766474 0.5733802 -0.12265212 0.13752444 -1.0801468 -0.4394628 -0.29523197 -0.015254445 -0.54539484 -0.72649 -0.39402366 0.06617225 -0.3213825 -0.0059659653 0.22482015 0.7738461 -0.06051345 0.5565297 -0.5899926 0.4328746 -0.10024806 0.42687696 -0.55478317 -0.81120414 -0.0645363 -0.26740122 0.86123604 -0.9525571 -0.2437559 -0.23605582 0.3731357 0.17601389 -0.70413077 0.4423652 -0.32344177 -0.3844444 -0.18696022 -0.639603 -0.027497157 -0.79876024 -0.38805658 -0.08983261 1.0652683 -0.34789354 0.39407754 1.2749798
