4912 50
EU 0.10116119 0.0697031 -0.086072564 0.8721925 0.6003412 0.25058785 0.5479575 -0.16468725 -0.5230241 -0.24333891 -0.5888011 0.85759246 0.039961062 -0.0027838466 -0.7730575 -0.84855545 -0.56566066 -0.14627732 0.6368246 -0.3295281 -0.78713435 -0.5496535 0.49606988 -0.21009937 0.75403863 0.8362489 1.6242998 -0.47526187 0.419126 0.15915819 1.0483721 0.15641949 -0.69557184 0.33220902 0.8105165 -0.25833088 0.040898174 0.74099797 0.25155067 0.7709786 -0.38687813 0.33788493 -0.06768699 0.47983706 0.55387616 0.22778948 0.4231784 -0.73660135 0.17730041 0.33581018
German -0.10862852 0.71422386 -0.70123273 -0.0036543803 -0.0771978 0.17256437 -0.06287728 0.2486668 -0.13156478 0.15982664 0.41025856 1.0655239 -0.030149076 0.269638 0.6071559 -0.50566167 -0.22820042 -0.092130974 0.7502941 -0.008852431 0.51076037 0.052445445 0.5449927 0.5746655 0.14183806 -1.0092473 0.7008051 -0.4392867 -0.7364656 0.6494867 0.77375877 -0.2411287 -0.5482149 -0.08955077 1.3466191 -0.59901917 0.79806405 -0.42323184 -0.32381886 0.6741297 -0.06778015 -0.07114669 0.39681977 -0.32230806 0.40591276 -0.46159443 0.50280136 0.18739292 0.10816065 -0.3723365
call 0.25922555 0.08968606 -0.29381278 0.36197934 0.9314242 0.5205142 0.6254437 -0.0721097 -0.39763278 0.67836195 -0.2611075 0.10399058 0.30172727 0.8896586 1.4962968 0.2027894 0.36437407 -0.75012296 -0.07178783 -0.71980387 0.31093216 -0.19731626 0.7085501 -1.0513283 1.0633132 0.85771394 0.60944253 0.25513607 0.536089 0.6583199 -0.17270952 -0.35289103 -0.5858064 0.026748477 -0.1338127 -0.65355635 -0.5127051 -0.19337577 0.33922318 1.2797207 0.06227867 -0.44578737 0.3700051 -0.22335438 0.35937575 0.11785903 0.051781256 0.27667382 0.4886132 0.53384894
to -0.2276863 0.085046835 -0.2395436 -0.114089414 0.1673057 0.45992517 0.4553127 -0.017852284 0.0033642594 0.46663368 -0.1504225 0.37897867 0.49951157 0.3150252 0.5029437 -0.26161468 -0.13567527 -0.112953134 0.2547429 -0.38430142 -0.74306303 -0.17798503 0.7098889 -0.44802287 0.1304088 -0.020434033 0.3614094 -0.47948 -0.013120977 0.14912786 0.44216725 0.01473089 0.04705436 -0.14143905 -0.032564256 -0.18904611 -0.21670395 0.17528668 -0.17489143 0.15536353 -0.15025538 -0.2989315 0.30656558 -0.1361998 -0.57847804 0.034122135 0.06352941 -0.019233767 0.47798088 0.48563445
boycott 0.305638 -0.30651918 -0.29002547 0.22496952 0.10500716 1.0964934 -0.009505816 0.19990586 -0.2653776 0.2219019 0.14450392 0.2897463 0.28020382 0.020200824 1.1267736 -0.31824395 -0.48457313 -0.18214956 0.011612636 -0.34273702 -0.08381825 -0.37913927 0.31533518 -0.8196334 0.015156484 0.029418379 0.3176897 -0.590701 0.6432411 0.3697588 -0.17098938 -0.059866425 -0.4444437 -0.12138458 0.6760234 -0.90824604 -0.25086176 0.05880452 -0.05549222 0.18276404 -0.65215147 -0.07238474 0.32822996 -0.20312193 0.2633701 -0.24891593 0.0057332856 -0.8725627 0.79222447 0.009715903
British -0.74313647 0.832791 -0.7017767 0.087371945 0.4129125 0.9717844 -0.47518316 -0.29854056 -0.34744528 -0.30619058 0.20641203 0.58581614 0.5968068 -0.15558 0.56703043 -0.5408167 0.052490875 0.50483465 0.37849095 -0.09244415 0.2973907 0.087628454 0.18471009 -0.15270866 -0.33729464 -0.3689995 0.97654337 -0.21052143 -0.4396784 0.23794472 0.41681305 -0.8557493 -0.24166699 -0.101945326 0.32239926 -0.69743276 0.4556089 0.10731076 -0.09892066 0.47633523 -0.31101483 0.5645661 0.28833488 -0.55668694 0.55998844 -0.2882546 0.44299632 -0.2683176 0.3571479 -0.02755022
. -0.04849589 0.091484174 0.22770344 0.17167944 -0.11042351 0.5733154 0.627097 0.44933358 0.1672724 0.010365225 -0.10777522 0.39354774 0.555526 -0.15138677 0.06464651 -0.291243 0.31643242 0.07606516 -0.042330936 -0.316667 0.20316118 0.120652735 0.13934729 -0.021462 0.2425446 0.45717576 -0.24938148 0.015775232 -0.11949636 -0.014481422 -0.13155131 -0.10753939 -0.14861505 -0.14869702 0.40108478 0.059232492 0.30221036 -0.27682012 -0.49536267 0.0101866545 -0.42585796 -0.28343123 0.22189341 -0.3781129 0.08602346 0.08161432 -0.053447835 0.038638357 0.27604744 -0.048747484
Peter -0.23753688 -0.81354564 -0.28318623 -0.06013605 -0.5735266 0.58270407 -0.30539373 0.111084364 -0.50702935 -0.7504434 -0.8818413 0.34133065 0.8466234 -0.37804583 -0.5476031 -0.4449571 0.0642906 -0.0628981 -0.14324744 -0.63647324 -0.1548424 -0.1231216 0.7085032 -0.049982175 0.47636998 -0.36664364 -0.506331 -0.10891913 0.21650486 -0.13241734 -0.6983424 -0.17690025 0.44200933 -0.39059424 1.1908352 -0.6367339 0.2613297 0.009149824 -0.9541396 0.36633858 0.7494337 0.23623459 0.76718855 -0.7937013 0.6281792 -0.400605 0.54025984 -0.86797047 0.22464216 0.1295964
Blackburn -0.35236362 -0.11789311 -0.0053803083 -0.016900895 0.13710196 -0.71685994 0.23701675 1.2151043 -0.63660306 -0.08573472 -0.47090116 0.011947606 0.7198109 -1.0304072 0.8365892 -0.73742884 -0.32347855 -0.8236078 -0.21514358 -0.6072443 0.22778308 -0.17541412 0.15790133 0.7934556 0.79042137 -0.4469373 0.1789987 0.0702171 -0.28354725 0.2522101 0.02647799 -0.12279434 0.2289019 0.15852153 0.344388 -0.697503 0.42454425 -0.02264576 -0.65117365 -0.36594123 -0.32369006 -0.2868017 0.33804172 0.28220344 0.617125 -0.2647274 0.28338706 -0.6554759 0.41549802 -0.03363648
BRUSSELS 0.35605583 -0.3103643 0.17795177 0.32300916 -0.17202373 0.21915786 -0.42253765 0.6316878 0.34785524 -0.58249956 0.0042406153 0.47432804 0.73642826 -1.3636218 0.7641859 -0.87588036 -0.14643343 0.5402058 -0.19455682 -0.5129574 0.06910725 0.22389595 1.4919066 0.10478071 0.22201751 0.30641595 0.42582232 0.5473963 -0.114886306 -0.14296468 0.70162684 -0.2251726 -0.29914016 0.107624814 0.95163023 0.6977136 -0.23663934 -0.38704792 -0.6739408 0.06800387 -0.1954308 0.2878568 1.2185894 -0.4838324 0.8450004 -0.1439338 0.39630005 -0.57726365 1.1059908 -0.26794657
1996-08-22 -0.40389016 -0.25201327 -0.2036945 0.85570997 -0.7423259 0.72656417 -0.15854052 1.3436693 0.67243606 0.22196834 -0.47591564 0.4449488 2.125777 0.25293535 0.6433387 -0.2763459 0.4139414 -0.112212 0.13931088 -1.3947653 0.3392922 -0.080070175 -0.15969066 0.38800743 0.88229424 0.14325581 0.23847243 0.49502072 0.6983954 -0.5233672 0.15377209 -0.8854518 -0.37537143 0.06755293 -0.32428715 0.6163716 0.97272575 0.7325473 -0.24117483 -0.28094566 -0.6715615 1.178376 1.1821545 0.12815018 1.0085186 0.25411323 0.06218635 -0.10192734 0.21207863 -0.7132837
The 0.05094851 0.035475224 -0.46324506 0.22907823 -0.059382692 -0.12335861 0.41839597 0.43675798 0.12827936 -0.29148784 0.3393495 -0.09485706 0.375897 0.04389831 0.3182955 -0.7672886 0.32183146 -0.027176237 0.25965065 -0.23268028 0.04342066 -0.012565321 0.6818194 -0.8015346 0.27050492 0.8383743 -0.22635865 0.48342535 0.16560908 0.21827336 -0.111640565 -0.30535978 -0.12161329 -0.45001858 0.24327415 0.20015308 -0.25957048 -0.24371992 -0.39364758 0.32061872 -0.8487837 -0.2977064 0.9329984 -0.3356696 0.020586025 -0.28414628 0.35627878 0.30742234 0.3500384 0.15547499
European -0.21769656 -0.071509056 -0.024618018 0.702883 0.09550472 -0.24706489 0.63494164 0.05352632 -0.120405786 -0.52737385 0.23739909 -0.22150847 0.13520746 0.07865457 0.86859643 -0.89882445 -0.50251716 -0.30529463 0.11555566 -0.80269974 0.15959103 -0.09953375 0.25571424 0.49306187 0.110148765 0.93133694 0.58399713 -0.27328807 -1.3057417 -0.064808905 0.92705125 -0.37422732 -0.93142563 0.36816418 0.36898264 -0.4349131 0.04338011 0.7040043 -0.44901338 -0.27926022 -0.5042092 -0.31708598 -0.0070599318 -0.17601287 0.4717205 0.30786404 0.38423583 -0.88693005 1.4029275 0.023212494
Commission 0.60182405 -0.22672863 -0.24802619 0.58543086 1.0688201 0.22569524 0.3967373 0.24285662 -0.555237 -0.24226387 0.10997056 0.5060109 1.0255286 0.17844719 -0.6722961 -2.1860416 -0.29249847 -0.37198332 -1.3180448 1.0075046 0.6480723 -0.40152624 0.39807668 0.46083492 0.62646776 0.3079616 1.3724713 -0.24994524 0.063206784 0.120881 0.27782914 0.35752305 0.095208965 0.14381 0.5920254 -0.46585706 -0.055612657 -0.2166179 0.04910853 1.0571834 -0.027772196 0.17425571 0.39675686 -0.39233598 0.8164965 -0.51459634 0.96014583 -1.171829 1.0593214 0.8884575
said 0.023061574 -0.24075831 0.026136754 0.53694093 0.5243103 0.5866665 0.20954485 0.3369109 -0.4003788 0.184663 -0.18686926 0.17120485 0.1994228 0.06593386 -0.21827434 -0.69078577 0.1688866 0.3012239 0.29075453 -0.5861676 0.27055612 0.31590325 -0.041049153 -0.3355418 -0.094799615 0.24770975 0.49661115 -5.1535986e-05 0.3954224 0.53192455 -0.5015126 -0.24923097 -0.42088962 -0.38972017 0.26154456 -0.19511259 0.3138256 -0.3908467 -0.6523769 0.17054202 -0.5708971 0.063910946 0.31297973 -0.82154495 0.73723555 0.1597409 -0.015616 0.38640597 0.56924254 0.10778654
on -0.24839337 0.24201342 -0.41900682 -0.17937219 0.194675 0.19445218 0.23384398 0.47753173 -0.38487327 0.49155274 -0.18024664 0.17905667 0.160326 -0.45642516 0.22266488 -0.37044308 0.3566528 0.13268737 -0.11778887 -0.5762938 0.0042523956 0.17411457 0.2785495 0.009738584 0.46313554 0.61039037 0.3195542 -0.65550756 -0.5007548 0.45986164 0.49653256 -0.33383062 -0.0325051 0.02399525 0.1483289 -0.28351843 -0.37645045 -0.17737246 -0.10015255 0.16265829 -0.5774089 -0.6722791 0.5705139 -0.24683687 -0.19570276 0.08330623 0.030053616 0.1337403 0.3027782 -0.014869333
Thursday -0.25765198 0.030995626 -0.6475833 0.5993625 -0.45899093 0.31073293 -0.37167057 0.63010377 -0.8237206 0.5697557 0.015284612 0.64736867 0.27942064 -0.5798898 -0.19424905 -0.9039626 0.23993246 -0.39681843 0.080121644 -0.45742354 -0.4156242 0.47903425 -0.3826538 -0.15826279 -0.12547411 0.18503463 0.6915777 -1.0977598 0.53932637 0.30143225 0.4361264 -0.3361106 0.51022637 0.74750006 -0.0236714 -0.6952758 0.34540117 0.23630856 0.06321871 0.35030797 -0.6763396 -0.94899833 0.97771114 -0.09617566 0.23814328 -0.014835994 0.14765316 0.5888687 0.56153625 -0.45677292
it -0.15484588 -0.2521825 -0.19300815 -0.34020782 0.33640382 0.39218768 0.8859017 -0.5841121 -0.7604375 -0.16579306 -0.326005 0.55696183 0.12612914 -0.2844363 -0.073345676 -0.4492066 -0.05828776 -0.46041068 0.4668773 -0.42553937 -0.038026154 -0.14075565 -0.0011779089 -0.059042342 0.22921367 0.11506948 0.38902447 -0.8759849 -0.2303783 0.5830973 0.8539421 -0.22644265 -0.08171134 -0.91653806 -0.34192967 -0.2912617 0.32673687 -0.23319933 -0.35856998 0.12696289 -0.20210232 0.49768597 -0.07402656 -0.19482943 0.28192845 -0.2877601 -0.2739505 0.2826995 0.7373379 0.32796663
with -0.016455729 -0.18700606 -0.22477596 -0.0032505454 -0.009797305 -0.10787867 0.20694946 0.074804686 0.13997349 0.43307018 -0.34061435 0.59431446 0.88428915 0.11389174 0.38655603 -0.26137424 -0.121911965 0.28675514 0.12557185 -0.79472506 0.38785985 -0.13920729 -0.11705822 -0.26862168 0.17257848 -0.08426524 0.4154809 -0.055923134 -0.19300447 0.4692885 -0.112797976 -0.180188 -0.54922545 -0.019212738 -0.24533622 -0.095138 -0.55942684 0.80960435 -0.2770814 0.34488264 -0.6599026 0.13054633 0.334248 -0.6295066 -0.48744243 0.42965782 0.561613 -0.04625427 0.05474403 0.2028101
advice -0.25338578 -0.0049260887 -0.8339526 0.29426536 0.24730785 0.6780523 0.413416 -0.073678404 -0.76087445 0.027661476 0.040805463 0.5090054 0.052879084 -0.07713366 0.3704082 -0.3134325 -0.425034 -0.8918238 -0.33218288 -0.14813344 -0.067239515 -0.16097003 0.16437213 -0.81712073 0.36541286 -0.00041325134 1.0453719 -0.6242994 0.35710657 -0.004091098 0.13650857 -0.34132424 -0.3734834 -0.095601335 0.23301823 0.15334406 0.31664732 -0.17438065 0.3146664 0.7094236 -0.40870002 0.15814047 -0.15918379 -0.66741586 0.3344146 -0.16500227 -0.0067068483 -0.7785086 1.000747 -0.24506064
consumers -0.2055103 -0.07666689 -0.39605373 0.41733703 0.31889814 1.0858197 0.8061352 -0.46423125 -0.62168837 0.06151672 -0.035740227 0.33319864 0.041997433 0.6840997 0.68424886 -0.8208672 -0.040896725 -0.18011522 0.16824608 0.29995608 0.2356434 0.19231464 0.7071083 -0.6893085 0.77505153 0.22711316 1.4268359 -1.1300813 0.1855155 0.28883865 0.21524608 -1.0206585 -0.10314499 -0.57795775 0.49376866 -0.2727106 0.22902364 -0.53010213 0.36582762 0.5089977 -0.13283747 0.034733772 -0.2752169 -0.6832507 0.5866818 -0.57307565 -0.005749693 -1.0179135 0.31663388 0.094500154
until -0.5700015 -0.57072544 -0.509464 -0.59329665 0.49157304 0.049980387 0.76375496 0.079858005 -0.35898095 0.55710083 -0.49716777 0.8299971 0.42435172 0.34861636 0.15053068 0.03681834 -0.48031205 -0.0032143109 -0.6453831 -0.99941534 -0.6336126 -0.7230765 0.34279004 -0.022253932 0.71217346 -0.40267304 0.7220776 -0.6168194 -0.40686324 0.72419494 0.06424748 -0.06796935 -0.47308946 -0.49834144 0.24154711 -0.5433478 -0.6766972 -0.85848576 -0.27464902 0.41261733 -0.2154429 0.17458422 0.3428969 -0.13311969 -0.5717771 -1.0104228 0.1367417 -0.4394376 0.56137764 -0.013734981
scientists -1.0614108 -0.78884554 -0.73477143 0.10089948 0.27308074 0.24294586 0.2653703 -0.46202838 -1.0650271 -0.107239395 -0.35071886 0.4461655 0.56563497 -0.32473505 0.48043847 -0.6601452 -0.37536353 -0.07736961 -0.18571213 0.25136048 -0.031243226 -0.37246186 0.119260415 -0.11415272 0.2274229 0.17437686 1.0856332 -0.60263574 0.37675905 0.33939043 0.22143371 0.38904607 -0.038898744 0.08565322 -0.19848415 0.21982118 -0.32694286 -0.19048631 -0.17977963 0.77171564 -0.24095982 -0.008511442 -0.6852802 -0.12665975 0.24779819 -0.4247917 -0.05421681 -0.101418264 1.205339 -0.34739137
determine -0.597774 0.42899114 -0.42775205 -0.19987498 -0.055715308 1.1416281 0.31825534 0.30323172 -0.8765163 -0.17357042 -0.38208866 0.5769981 0.19407065 -0.059793103 0.7014982 -0.28833717 0.41142806 -0.026766827 0.40451872 0.26952264 -0.089851364 0.14861411 0.081754364 0.091909036 0.5002534 0.009995278 0.6148163 -1.3422428 1.0281758 0.48956499 -0.1860512 0.15146664 -1.1391511 0.038588706 -0.009123865 0.101907276 -0.7936004 -0.5037369 -0.16817164 1.2009429 0.022099797 -0.18346654 -0.9293551 -0.14572842 -0.48446572 -0.3543384 0.6707343 -0.7025282 1.1438354 0.478349
whether 0.14061588 -0.3880718 -0.8373136 0.29317045 0.43908703 1.1668664 -0.671103 0.11725935 -1.338886 0.74093866 0.18272318 0.46325135 1.0403056 0.14883815 0.36399803 -0.5617471 -0.23949718 0.15994546 -0.8706408 -0.6504648 -0.8803867 0.047374953 -0.012447557 0.19608109 0.7876278 0.32571423 1.2150017 -0.9333037 1.0261285 0.281861 -0.4136094 1.0041015 0.123534694 -1.0047069 -0.4993893 0.17059307 -0.860519 -0.32864758 0.15138276 1.5674735 -0.6064988 0.81566304 -0.5555261 -1.115107 0.38842615 0.43114743 0.48002794 0.41157624 0.3314419 -0.3130356
mad -0.12606956 -0.5031433 -0.7712126 0.00092050544 0.12629725 0.89626 0.47933924 -1.1837093 -0.0134080285 -0.46238655 0.043322936 0.40520856 1.0380361 -0.14459267 0.021118408 -0.6928251 -0.31100687 0.12703697 0.1284339 -0.42202082 -0.35307667 -0.50831604 -0.018909259 -0.8325816 0.6913855 0.6912806 0.55975896 -0.8750418 1.0041163 0.04575709 -0.36366338 0.07549697 -0.34786552 -0.43394187 -0.06973769 1.0437171 -0.7208677 0.2943367 -0.5172339 1.4271008 0.052622728 0.16699949 -0.8003906 0.75484395 0.31709388 0.26429102 1.0163132 -0.14214289 0.61492604 -0.05907945
cow -0.6049253 -0.3362141 -0.17207873 -0.23100235 -0.28010163 1.6412948 0.3840454 -0.5577899 -0.27336633 -0.31652674 -0.1305956 0.4336052 0.9723354 -0.21761562 0.42793375 -0.37193447 -0.13676725 0.28686804 0.36282483 -0.50087523 0.66447586 -1.3186727 0.16183746 0.022958724 0.43520418 0.5968994 0.33027777 -0.41740853 0.8428207 0.101290695 -0.4333043 0.30490103 -0.55012196 -0.48096946 0.38425097 0.23495653 -0.20487592 0.23701717 -0.59031326 1.159983 -0.22641574 0.18276563 -0.8823662 0.6987732 -0.11760079 0.22743236 0.3969418 -0.16610788 1.0817125 -0.27763268
disease -0.27042568 0.09744926 0.14569907 -0.42970896 0.045962058 0.7204009 0.24595968 -0.83322865 0.05006381 0.084662735 -0.31977656 0.15104726 1.0938401 0.32955638 0.18658584 0.07318522 -0.44943425 -0.28682855 0.29168966 -0.31267497 1.3563545 -0.518175 -0.09171554 0.12619697 1.0251477 0.21009 0.35285017 -0.3358615 1.0157454 -0.23535228 0.2602932 0.42102197 0.5477787 -0.116540805 -0.100140244 -0.14870034 0.13948615 0.43804324 -0.2620916 1.5209311 -0.3420137 0.13642932 -1.2346605 0.27103633 0.31033713 0.29095778 0.8230338 0.38334793 1.3737288 0.17078918
can 0.24039067 0.97613305 -0.21611647 -0.36713058 0.3531853 0.40618607 0.8437117 -0.2137521 0.3555222 1.1313202 -0.6815706 0.7509945 0.81257325 -0.3676092 -0.4453893 0.24745977 0.3373533 -1.1792241 0.15976284 0.13466582 -0.59169394 0.03775513 1.2935961 -0.41832516 0.15523806 -0.62786967 1.1230572 -0.986225 0.105376326 0.43030936 -0.3074786 1.2034559 0.23701689 -0.33742517 0.18162048 0.43849778 0.08362665 0.39346945 -0.15871449 1.0978334 -0.27155477 -0.12770502 -1.1044909 -0.5874424 -0.27559045 -0.50028545 0.92584866 0.22350973 1.5378833 0.14598316
be 0.18544586 -0.7372412 -0.20471415 0.2281681 -0.5060102 1.2433304 0.558495 0.15963273 -1.1054485 0.7992075 0.736782 0.47444943 -0.083084695 -0.3563734 0.6000203 0.03723477 0.19855534 0.26867524 -0.15895219 -0.42756495 -0.44784522 -0.83196986 0.57500124 -0.23933475 0.51981026 -0.6977635 0.16682489 -0.05073589 0.15344517 -0.07375077 -0.36900645 0.23544084 -0.37386122 -0.89563024 0.0693079 -0.5658327 -0.46233654 0.49543616 0.39724588 0.8175682 -0.09915236 -0.5809258 0.42320827 -0.11608195 0.39302605 -0.30232355 0.4563004 -0.05396084 1.5840254 0.11687873
sheep -0.9520581 -0.25391415 -0.3879258 -0.111051306 0.42911717 0.5964972 -0.11629818 -0.53711426 -0.4086231 -0.19546065 -0.024922768 0.6644078 0.2120784 0.114022285 0.10699264 -0.83597606 -0.25647867 -1.2566031 0.45723525 -0.7789416 0.2740762 0.2595517 0.8352234 -0.1080169 0.7727848 -0.3757885 0.92702353 -0.40470752 0.2739917 0.28991514 0.5650484 0.19873689 -0.18004917 -0.6632651 0.0673073 0.2068536 -0.6893543 0.121345714 0.3180285 0.7290296 -0.6864783 0.075306095 -0.5548071 -0.24416855 0.94092524 -0.9161986 -0.2760383 -1.0622964 0.5866164 -0.2672127
Germany -0.16661261 -0.41994113 -0.3033271 -0.20574327 0.069294 0.07326729 0.41375846 -0.25807375 0.12771642 0.0049801236 0.18186216 0.728625 -0.7373699 -0.3373846 0.55649954 -0.92338943 0.0050554182 -0.13974705 -0.1279203 -0.51483625 0.8939035 0.12674879 0.9075088 0.35024297 0.24207844 -0.6742304 0.7051477 -0.116928086 -0.48950687 0.10227449 0.23245941 -0.53581655 0.6499747 -0.5546722 -0.17630158 0.36435553 0.237761 -0.2165286 -1.0135995 0.57405144 0.65221983 0.0671129 0.6910713 -0.09717054 1.3736291 -0.052623075 0.6251944 -1.3173972 0.055689447 0.1190421
's 0.41863677 0.0591078 -0.55758315 0.09780306 0.07899069 0.5571277 -0.09268227 0.25856286 -0.35024205 0.1652505 -0.115420826 0.38179475 0.01931328 -0.4756599 0.52185214 -0.78214735 0.47109863 -0.23037872 -0.16796674 -0.5295094 -0.115843095 -0.3291364 0.45668107 -0.2571707 0.24900512 0.5891118 0.46231973 0.53077567 -0.48003158 0.21214487 0.19896181 0.24972247 -0.41459846 -0.10385448 0.37555254 0.57688373 0.4357169 0.35991034 -0.5350802 0.39227238 -0.3954515 -0.4751719 0.10238702 -0.51018447 -0.42518595 0.15566261 -0.3028832 0.38122734 -0.18578549 -0.26278883
representative 0.19786571 -0.35807493 0.44449437 0.5730712 0.13327222 0.4519708 0.5928971 0.035711475 -0.017754704 0.18292214 -0.23581791 0.4332788 -0.016668284 0.26824918 0.3835638 -0.6168433 -0.14458631 -0.18887742 -0.76428205 -0.04006664 -0.644939 0.33467203 0.3674498 0.014605859 0.41136286 0.6592854 0.6046054 -0.1275305 0.4250426 -0.36820415 -0.018788232 0.13781007 -0.46329367 -0.29617083 0.3282719 0.16189407 -0.0780366 0.17165305 -0.23665534 0.6575951 -0.72947943 -0.22507739 0.6826283 -0.21024323 0.34533235 -0.10239863 0.27020535 -0.5716557 0.74821573 -0.16470306
the -0.06324706 -0.15235719 -0.39316717 -0.040520396 -0.24746531 -0.11018801 0.15179758 -0.0024848948 -0.16461134 0.017254215 0.1566813 0.28807896 0.3905731 0.37364095 0.4142199 -0.41430548 0.20282973 -0.119706474 0.3883755 -0.21458595 0.05257441 -0.4855944 0.08886153 -0.20922412 0.24676959 0.42707053 0.4979869 -0.058405027 -0.2598054 0.02894758 0.10334301 -0.016171664 -0.19856508 -0.03392639 0.12365486 -0.20455725 -0.055508394 0.13343495 -0.50250775 0.3827471 -0.56874484 -0.5073805 0.39630422 -0.3532603 -0.18605599 -0.18141064 0.059726834 0.16245095 0.20240326 0.14344934
Union 0.10354014 -0.70620894 -0.061278652 0.9057473 1.3666115 -0.5513427 0.8548696 0.23307618 -0.26599526 -0.3223974 -0.20176421 -0.36537558 0.046279453 0.114073075 0.17040215 -1.5651616 -0.67891526 -0.8416026 -0.41416472 0.05550745 0.50853133 -0.80733526 -0.004377635 0.23635283 -0.34796184 0.07710861 1.6615862 -0.5858632 -0.45780578 -1.1567949 0.34261578 -0.34885904 0.19056503 -0.0780032 1.5480338 -0.24154559 1.1691895 0.60854447 -0.5155878 0.6815735 -0.5771117 -0.08746169 0.13924572 -0.34631932 0.29465437 0.38982713 0.2147216 -0.38883168 0.80644006 0.24274313
veterinary -0.81120175 0.15601373 -0.5133327 0.45275056 0.3826867 0.2254298 0.5110421 -0.33757243 -0.64347875 -0.4975683 0.06368967 0.6258131 0.6085127 -0.20406167 0.08800109 -0.6386744 -0.17258762 -0.14125274 0.015280467 0.047893006 -0.42873794 0.033990543 0.8639558 -0.031307805 -0.2858502 0.5846484 1.1846318 -0.8824519 0.258872 0.008657243 0.94873226 0.13251403 -0.1442222 0.2380452 0.20716016 0.06452042 0.22500046 0.076154746 0.04648846 0.9800552 -0.7996666 0.8805276 -0.19030611 -0.41005272 0.38591594 0.39764616 0.008471665 -1.1309654 1.1559868 0.0013898682
committee 0.2818419 0.33908606 -0.76664126 0.37374935 0.25745347 -0.051392443 0.391346 0.25361753 -1.0668141 -0.30624676 -0.102550104 -0.08047598 0.64714116 0.13277212 0.12877962 -1.1561077 -0.9041933 -0.17171504 -0.29081973 0.071973965 -1.6237806 0.12785596 0.5915678 -0.12710069 0.27542478 0.71091616 0.95178765 -0.72872657 0.16941859 -0.08666017 0.7839616 -0.037335392 -0.30333853 -0.18473405 0.90654576 -0.42656603 0.36378196 0.2689754 0.093235016 0.59651667 -0.07974084 0.048916157 0.053623524 -0.9300731 0.24725516 -0.089939706 0.029328378 -0.09644401 0.6903011 -0.09214784
Wednesday -0.6793531 0.1859689 -0.62192106 0.24729368 -0.43588635 0.340064 -0.61083966 0.8036594 -0.65103954 0.5709477 -0.11880658 0.50744337 -0.24313036 -1.0314294 0.26678157 -0.9023474 -0.04692677 -0.74830097 -0.34171644 -0.18904369 -0.33952278 0.5807625 -0.15269738 0.025878869 -0.03247866 0.34533224 0.38675496 -0.8894819 0.49896023 0.39478734 0.43438756 -0.33508912 0.46976894 1.05866 -0.10172417 -0.6621995 0.14270358 0.49278095 -0.034193188 0.4332399 -0.8080888 -1.2381827 1.087212 -0.22407965 0.5315693 0.018238496 0.013605658 0.44795704 0.95347977 -0.3848157
should -0.15037103 -0.48681846 -0.060221497 -0.096923046 0.33208087 0.19990844 1.0312029 0.20650613 -0.36566004 0.5518078 0.26791683 0.3453361 -0.0002786671 0.23190428 -0.0746976 -0.09123408 -1.1494035 0.009870055 -0.35659185 -0.3461562 -1.0358242 -0.15493949 1.1325629 -0.7110246 0.041168556 0.17563532 0.8315589 -0.74111515 0.294608 0.8446762 0.25151536 0.69016033 -0.2459361 -0.16236381 1.0709649 0.48326102 -0.27693164 0.23004909 -1.1497312 0.4606737 0.51874775 -0.5346865 0.42301357 -0.20802388 -0.265682 -0.3113682 0.52423346 -0.3851656 0.9928432 0.122410975
buy 0.21632788 0.99387246 -0.29804218 0.29005697 0.05987146 0.66571987 -1.0044789 -0.25318468 -0.4669066 0.69469076 -0.3437491 0.64059436 -0.4710936 -0.28628296 0.1982484 -0.43805525 0.6326983 -1.3617588 0.5618012 -0.13672467 -0.19695047 -0.5384175 -0.052331552 -0.812838 -0.30883604 -0.6380252 0.21714342 -0.8393148 0.3927038 0.2217565 0.49171105 0.33978724 -0.4066441 -0.9503255 -0.29211894 0.089621246 0.334202 -0.27399212 -0.10355408 0.7260887 -0.7221579 -0.034529716 0.5698676 -0.119128175 0.5605337 0.19776778 0.73422915 -0.55485725 0.7780491 0.66318965
from -0.23075666 0.737016 0.18655574 0.12339138 0.25579095 -0.010615986 0.12258403 -0.6465837 0.05094186 0.57082504 -0.5897717 0.37109083 0.6420055 0.7959047 0.37220123 -0.56300735 -0.27606535 0.35710588 0.5021726 -0.5404367 -0.278502 -0.022997651 0.30519423 -0.43949997 0.4067641 -0.17688835 -0.071953356 -0.361032 -0.8914691 0.38865677 0.64863247 -0.41179264 -0.25677726 0.27675113 0.08227121 -0.19276612 -0.007854806 -0.3070503 -0.40763184 0.22650854 -0.97255623 0.18584594 -0.02145838 -0.31261313 0.031784967 -0.572344 0.018878795 -0.11179174 0.50774604 0.2522926
countries -0.25295255 -0.20508572 -0.62145805 -0.10695294 -0.5499219 0.24455084 0.071663655 -0.7679132 -0.09168958 -0.1880868 -0.35696048 -0.28911966 0.08485517 0.08498323 0.5051833 -0.325983 -0.17136307 0.11807847 0.7068195 -0.57527596 -0.44759083 -0.46926114 0.56034315 -0.8996064 0.20992093 -0.501725 0.9419037 -0.7097615 0.94373393 -0.36133772 0.42839256 0.70581967 -0.70345217 -0.107766755 0.019989857 -0.2912367 0.10326773 0.5194328 -0.9217223 -0.56969815 -0.82545316 -0.53287035 0.19310883 0.4791144 1.4111109 0.31866318 0.4137627 -1.0554723 0.48727185 0.14556578
other 0.27827647 0.17777972 -0.15943064 0.14420171 -0.7029391 -0.16071218 0.11256125 0.23867288 -0.06180179 0.10439475 -0.010918694 0.49394184 0.68678534 0.22631735 0.03881433 -0.10957494 0.18579961 -0.028893124 0.36976808 -0.609413 -0.23416486 -0.72904646 0.20075731 -0.32067445 -0.4036149 -0.9220217 0.9128544 -1.060436 0.9692551 -0.23533584 0.08597766 0.891642 -0.5341523 -0.7826247 0.78281504 -0.008964497 0.22591136 0.32997474 -1.1572176 -0.05758621 -0.6616198 -0.5556756 0.12383435 0.18773015 0.8271163 0.13015348 -0.10546962 -0.15840776 0.28093207 0.41947597
than -0.60324466 0.58952886 0.14648627 0.24734695 0.27525893 0.96372926 0.50637114 -0.63776964 -0.5182501 0.2346285 -0.64726037 1.6530935 -0.40316796 -0.9827481 1.5151721 0.1527243 -0.57546216 -0.62127626 0.3965708 0.18297075 -0.49032226 -0.7126364 0.5332399 -0.42206272 0.5822755 0.19728836 0.63558525 -0.4956616 -0.16788033 -0.17481935 -0.13856056 1.5104526 -0.23779349 -1.0039332 -0.011348089 -0.64090717 -0.16576694 -0.86366785 -0.5008867 -0.11357049 -1.5569639 0.02094116 0.3288241 0.0018879882 0.8273516 0.78242636 0.4967612 0.5133014 0.33733827 -1.0282371
Britain -0.00610461 -0.3905076 -0.9962492 -0.8786036 -0.41383347 1.2548772 -0.3860391 0.15072274 -0.060555354 0.31203464 -0.060611486 0.18108274 0.31297606 -1.066447 0.55727553 -0.70226866 -0.32018688 -0.54987234 -0.18811779 0.045453638 0.11206933 0.53570974 0.8474278 1.0901583 0.41759112 -0.42892623 1.2743347 -0.11230106 0.12580198 0.50451446 -0.049951322 -0.14426099 1.015566 -1.1517875 -0.3708515 0.056035038 0.12896429 -0.44194803 -1.2171097 0.7736139 -0.48255035 0.2726422 -0.23153205 1.2380837 1.4681774 -0.5985121 0.5429772 -0.8962232 -0.3330056 0.17355658
scientific -0.6267628 -0.55098563 -0.8307724 0.37950546 0.85856694 0.14200327 1.0659132 0.084787846 -0.6656898 -0.48738828 -0.13634945 0.8570412 0.20889288 -0.13891284 0.10430861 -0.62564844 -0.46289614 -0.619889 -0.41553897 0.15285484 0.018128272 -0.31026694 0.1713405 -0.27108365 0.25547618 0.47051793 1.5231807 -0.4343865 0.29333264 0.022006195 0.081793815 0.07758113 -0.1266341 -0.08210355 0.23450206 0.67686933 0.2888667 -0.35994086 -0.2665276 1.0629349 -0.5244469 0.21602552 -0.13426442 0.30791515 0.55261743 0.16237015 -0.41534707 -0.4378657 1.317695 -0.15785049
was -0.1654951 -0.24505232 0.41094747 0.12496344 -0.48071355 0.31288642 0.19300689 0.53885317 -0.9223673 -0.11436928 0.29018015 0.80707353 0.10688689 0.11546927 0.11918937 -0.66467637 -0.014828969 0.55763423 0.15290554 -0.18430538 -0.20116878 0.071903065 0.43172067 -0.3241276 0.1990176 0.0013353807 0.37855902 -0.55383456 -0.4941635 0.48162034 -0.16247746 0.14869444 -0.24558197 -0.31488973 0.13864695 0.04411611 -0.015584919 0.00893032 -0.64867586 0.4154084 -0.02241175 -0.08809158 -0.15870003 -0.3222184 -0.5203006 -0.48990914 0.5602249 0.8036579 0.5257811 0.032908402
" 0.35842338 -0.19198927 -0.07450436 0.062048133 -0.019058594 0.32337812 0.90517706 0.01940067 -0.18251589 0.14264026 -0.013888143 0.42557436 0.5685672 0.10162824 -0.030194815 -0.3588377 0.361905 -0.10790631 0.06639826 -0.37541947 -0.10053709 0.09303165 0.32205012 -0.22490178 0.26854548 0.47249642 0.24704874 -0.26512936 0.40541407 0.097404845 -0.2689543 0.050028622 -0.36660793 -0.09834022 0.26161042 -0.0937018 0.30612093 0.06501552 -0.42782292 -0.122678556 -0.2288031 -0.18818945 0.07019649 -0.8698144 0.36055085 0.39714086 0.20523064 0.41009808 0.4050344 0.065593496
We -0.36419535 -0.40980297 -0.731718 -0.69013846 -0.08003993 -0.5687948 1.4628779 -0.05046259 -0.042204697 0.28440866 0.6317928 0.20008811 0.45159855 0.05113075 0.55746084 -0.76664907 0.86359054 0.021923255 0.87681615 0.22722544 -0.9685126 -0.022117283 0.98796314 -0.6011473 0.49388054 0.29057834 0.037114516 -0.07102047 0.25493097 0.19083199 -0.13143112 0.10897576 -0.43998864 -0.46626854 -0.17256016 -0.2634397 -0.18459854 -0.21877044 0.17316711 0.63434213 -0.4855921 0.22591016 0.6776875 -0.9940196 0.80371773 1.0982138 0.17184655 0.08459679 1.3149008 0.34500426
do 0.32256082 0.6542381 -0.6611698 -0.19640404 -0.22463468 0.39708316 2.1203146 -0.328115 -1.1025738 0.81281507 -0.36250967 -0.30646074 0.7780811 0.14041512 0.65293515 -0.8670979 -0.2857894 -0.5691624 -0.31389293 0.24617688 -0.20472786 -0.0373891 0.29157102 -0.18384397 0.44297847 -0.21718095 0.30011863 -0.37060893 -0.1659241 0.66906834 -0.6555512 0.6984506 0.10498142 -0.7205972 0.5884214 0.30408195 -0.0061743953 0.28114092 -0.29160023 1.5496063 -0.2703908 0.4990167 -0.8897963 -0.63501734 0.6703818 0.47157708 0.35317647 -0.76460344 1.2982202 0.2610682
n't 0.6876747 0.32256982 -0.55488396 -1.0005896 0.69189817 0.808646 1.6027014 -1.1551101 -0.12094756 0.89973533 -0.78559756 0.9806263 1.6562881 -0.187733 1.1751584 -0.20349039 -0.69793874 -1.2517838 -0.36941698 -0.79817015 0.7524624 0.4660077 0.093256235 -0.87840354 -0.22360191 -0.588575 0.18411197 -0.55423146 -0.028093448 0.20738964 -0.011281751 1.1850318 0.6895496 -0.2165226 0.11642825 0.5711357 0.47485587 -0.10984198 0.38628253 1.5769773 0.14417025 0.203637 -0.6701272 -1.9906409 0.6415654 0.42472064 0.9619188 -0.028267939 1.413611 0.58749723
support 0.18142599 0.18119206 0.40707567 0.4683674 -0.20647664 0.49585274 0.34538648 -0.17557426 -0.09883913 0.103301175 0.1065789 -0.08735645 0.0686869 0.023213513 0.99677014 -0.074829474 -0.4095968 -0.97916716 0.16124226 -0.5906069 0.20179392 0.25241417 0.23560435 -0.9550143 0.42298877 0.07340797 0.83094215 -0.84540236 0.7117399 0.21397887 0.4480194 0.013068659 -0.63931906 -0.63249415 -0.01980019 0.65129554 -0.07460445 0.3901153 0.05432454 0.8602913 -1.0531555 0.014071456 0.086494505 0.18874757 0.0004644755 -0.19302511 -0.2517976 -0.4869573 0.15712531 -0.5751214
any 0.8833631 -0.30784386 -0.72479343 -0.8071038 -0.17810953 -0.11711877 0.58178115 -0.13467641 -0.56719947 -0.5155846 0.4712155 0.49034157 0.8393723 0.059576325 1.0168314 0.07113295 0.24620795 -1.1993917 0.22679189 -0.2687639 0.37323457 -0.61344224 0.14148228 -0.5040629 0.28472292 -0.38529947 0.7635856 -0.9133954 0.6333633 0.51897514 1.0985184 1.1137117 -0.07030555 -0.5422144 0.60996795 0.20761704 -1.1160583 -0.46610183 0.16580258 0.9648909 -0.56725717 -0.08663172 0.7234883 -1.0716981 -0.13168475 -0.47525427 0.61314744 0.5606156 0.11962558 0.30544215
such -0.09281249 -0.015602045 -0.5290843 -0.36205813 -0.43856418 0.7442212 0.13854791 -0.60247874 -0.47606912 0.7506273 0.766765 0.053240452 1.0881473 -0.06333628 -0.3356502 0.022966947 0.68991995 0.38079208 0.4285572 -0.84860337 0.2834788 -0.097644664 -0.22013946 -0.9985391 -0.04811775 -0.45941395 0.6406186 -0.9926629 0.033356335 -0.2440728 0.23510881 0.9853422 -0.6017158 -0.71872044 0.5010228 -0.16250123 0.41168258 0.17649543 -0.5852149 0.5275261 -0.2243215 0.07992469 0.45751485 -0.7188091 0.24369705 0.114615865 0.40777892 -0.28082228 0.99824166 -0.23611748
because -0.15101483 -0.8740508 -0.7335442 0.25006855 0.30082944 0.293828 0.5791297 0.6470918 -0.33715641 0.9640343 1.6065829 0.1782151 0.68171376 -0.16034585 0.59878737 -0.023490375 -0.8264943 0.5181731 0.30221766 -1.1377676 -0.6259811 0.21569856 0.18901798 -0.40426683 0.830301 0.59380645 0.45390096 -0.21475765 0.26475695 0.14336237 0.72325534 1.0598289 -0.2100169 -0.37417763 -0.081724696 0.03600966 0.37965095 -0.89065224 0.45997372 0.4261631 -0.7610672 -0.1338519 -0.31208774 -1.1609006 -0.35422137 -0.17528707 0.8332723 -0.2925283 0.42970797 -0.5961303
we -0.6639194 -0.40254852 -0.6417963 -0.47910774 -0.1279361 0.27853382 1.5636073 -0.8862634 -1.0673046 0.008744619 -0.11277374 0.2036802 0.63066894 0.392852 0.5240735 0.08603683 0.07456984 -0.6021088 0.7232423 -0.31823337 0.19843505 -0.769275 0.5021985 0.45129704 0.27996352 0.46296352 1.0220758 -1.1181003 -0.7826188 0.22205713 -0.24091236 0.3879045 -0.40735975 -0.47197706 -0.040550496 0.047997523 -0.15359166 0.37711146 0.042395875 0.512272 -0.06294263 -0.29777408 0.016017757 -1.0385786 0.73160017 0.5119077 -0.117164634 -0.07886661 1.2648443 0.275195
see 0.1853141 0.8888773 -0.66489345 0.014546234 -0.3230944 0.76552975 1.3435371 -0.66466564 -0.056726698 0.08562413 -0.081606746 0.6087997 0.20766649 0.5540292 0.5977234 0.14430316 0.50444376 -0.45250425 -0.13463093 -0.17086288 -0.34285834 -0.6041418 0.5235905 -0.17038159 -0.15904577 -0.6518476 0.20900442 -0.28975078 -0.13015501 0.6536134 0.30250004 1.0517604 -0.20587666 -0.28391162 0.055774085 0.2205718 -0.1355527 -0.30584174 -0.1904352 0.95602685 -0.4023986 0.10951789 -0.10170067 -0.7984294 0.53963345 -0.31395814 0.5598906 -0.6838686 1.013348 -0.19086212
grounds 0.031823736 0.060275827 0.11920145 -0.20227386 0.32943934 0.39239126 0.2292101 -0.055587515 0.19679286 -0.030669741 -0.01944561 0.19920512 -0.13057737 -0.16625209 0.39853734 -0.6237432 0.36935818 -0.35974988 0.16792738 -0.32445028 0.25518706 -0.3366922 -0.25138775 -0.6582706 0.91941035 -0.21242389 1.0274141 -0.47000313 -0.016627334 0.633454 0.33671638 0.39111918 -0.0390982 -0.10073114 -0.30448642 -0.20218505 0.07188921 0.052870963 0.046888623 0.19169623 -0.5876955 -0.12828887 -0.07402626 -0.12899569 0.042735584 -0.35108006 0.22900206 -0.37102395 0.3045054 -0.61380655
for -0.14686698 -0.15688108 0.3063704 -0.17227279 0.07516843 0.4750013 0.6651315 -0.18980925 0.026194243 0.056852385 -0.3875503 0.008157644 0.48399314 0.26901713 0.33758137 -0.07723668 0.19470029 -0.0085008945 0.23697866 -0.9702819 0.18345065 -0.4003942 0.2713678 -0.10835916 0.0053015565 -0.14376009 0.48195463 -0.42785785 -0.052364595 0.08681623 0.21898928 -0.31478176 -0.7656826 -0.5343331 -0.2253741 -0.4965452 -0.59179896 -0.09402566 -0.6020337 0.29543355 -0.42865026 -0.6031551 0.46176684 -0.19363222 -0.59094816 0.19981332 0.17571858 0.1656874 -0.3330204 -0.022081982
, -0.1253716 -0.12871803 -0.2247755 -0.29844192 0.19741781 0.34434345 0.17324457 0.2630634 -0.0019455489 -0.021483913 -0.25362116 0.005389503 0.21733522 -0.22475162 0.044541385 -0.5283518 0.47764614 0.025847822 0.053123806 -0.049564295 -0.043094695 -0.11139946 0.23329024 -0.20997387 -0.21606146 -0.22892182 -0.1721007 -0.21864156 -0.11393754 0.09643345 -0.056341693 0.11923742 -0.1675005 -0.33046356 0.06869524 -0.33021268 0.1377522 0.09003283 -0.68319273 0.35694274 -0.3586104 -0.0581483 0.07401462 -0.60302895 -0.04096503 -0.13078204 0.15665072 0.11752214 -0.11599616 0.10778657
chief 0.64739984 -0.5117727 0.11859209 0.74547863 -0.41273573 1.0321689 -0.81785613 -0.25100824 -0.28123045 -0.88294405 -0.4391712 -0.35353374 0.3307937 -0.5749673 0.43745148 -0.5636632 0.007387113 0.4922249 -0.30037355 -0.82939047 0.15455537 0.62201977 0.020321717 -1.0308833 -0.5427282 0.74429905 0.8919379 -0.4494726 0.73046064 -0.1930421 0.21041551 0.03237554 -0.3137394 -0.9644548 0.29045787 -0.15369982 0.58367777 0.7675466 -1.0199505 0.70032054 -0.42924994 0.430892 0.010757454 -0.86822194 -0.028760213 0.40124616 0.6058428 -0.20962887 0.32873204 0.18832734
spokesman 0.20283741 -0.54030985 -0.21681482 0.7512556 -0.11741205 0.9496446 0.48584512 0.25224754 -0.3323981 -0.5538124 -0.77091974 -0.20856285 0.25232008 -0.23907283 0.6447514 -1.1939267 0.8540702 0.21814854 -0.25376025 -0.19432816 0.49027508 1.1608936 -0.19820365 -0.82562107 0.4668795 -0.19856092 0.8259418 -0.31353846 1.1714915 0.17912528 -0.59806615 -0.82600904 -0.27825543 0.6518242 -0.0024468522 -0.9798864 -0.22334325 -0.25867924 -1.4100713 0.3652738 -0.8170879 0.3783129 -0.2648444 -0.4418679 0.36007476 0.14785065 -0.41220522 0.52497935 0.44120416 -0.13480878
van 0.31348407 -0.5305615 -0.023466399 1.090528 -0.102626845 -0.52060324 -0.35676762 0.24949479 -0.7749343 -0.32482588 -0.44101566 -0.027951606 -0.036064886 -0.68346477 0.65022284 -1.3197421 -0.12783323 -0.26640373 -0.32847643 -0.81766605 0.33012006 -0.10470096 0.6610698 -0.5178172 0.76832294 -0.35788164 0.08269446 -0.5675798 -0.03146393 -0.50561285 -0.6325826 -0.50261277 0.7973416 -0.046785645 -0.02029942 -0.60925543 0.4645153 -0.33057675 -1.2135785 -0.025458796 0.6090745 -1.148109 0.04837152 -0.84926325 0.23983282 -0.9255989 -0.3233636 -0.51524377 0.23007007 -0.47093672
der 0.36807975 -0.4498032 0.13346581 0.6224377 0.16509503 -0.9272634 0.021159478 0.27815068 -0.37172437 -0.47528878 -0.24095985 0.12393172 -0.048398357 -0.86388296 0.77177477 -0.9356057 0.018632872 -0.22904377 -0.16954327 -0.34799668 0.20541716 -0.019589005 0.4812708 -0.53303957 0.5607808 -0.36766773 -0.02690971 -0.4143504 0.099268325 0.32589677 -0.34950483 -0.754248 0.24326403 0.73656714 0.5328466 -0.61083645 0.59395415 0.22628056 -1.5219843 0.44868085 0.58962035 -0.50202525 0.06023599 -0.6580713 0.34206524 -0.3900085 0.035830274 0.076235116 -0.03141896 -0.4830298
told 0.96799767 -0.18873285 -0.6980979 0.7346052 1.4745553 0.42217597 -0.3890653 0.22042954 0.1047487 0.48836917 -0.09466491 0.30809227 0.96695936 -0.20454834 0.21537295 -0.4283379 -0.12661093 0.9470086 0.4542223 -0.5903562 0.04826119 0.021216042 0.4265044 0.07675644 0.22606146 0.06838124 0.89249825 -0.2575857 1.143174 0.04920772 -1.234192 -0.18098931 -0.4752875 0.3623015 0.26172277 -1.0479835 0.338794 -0.41259316 -0.6437012 0.74304295 -0.34078866 0.023660123 -0.00068438397 -1.4926106 0.27955338 -0.12331458 -0.17666817 0.6190725 0.8927798 0.3594646
a 0.10301009 -0.2571494 -0.49326292 -0.2620731 -0.033277422 0.16481932 -0.018750207 0.03368392 -0.1570071 -0.083567224 0.3786598 0.6357225 0.26219755 0.18791753 0.31400785 -0.22808406 -0.14389491 -0.12943035 0.45959854 -0.2320814 0.28251734 -0.6230183 0.40365574 -0.49282327 0.5370279 0.4816076 0.27869806 -0.3643836 -0.41412562 0.055788767 -0.082209475 -0.5339769 -0.11684422 -0.30006093 -0.14099716 -0.21656439 -0.31384236 0.23643228 -0.55047244 0.17509492 -0.38822898 -0.16649076 0.3158569 -0.30285954 -0.34242904 0.03831657 0.12715863 0.22810334 0.38708314 0.055329863
news 0.88432175 0.04511052 -0.8459152 0.25595614 0.58949494 -0.14564122 0.50395006 -0.061705746 -0.48255664 -0.26252627 0.46171364 0.95561874 0.5763206 -0.6164819 -0.10081647 -0.13835984 0.09131999 0.16691233 0.011162969 -0.5403765 -0.27679908 -0.37858146 0.65762407 -0.025606735 0.8716113 0.23523955 0.2613487 -0.1274023 0.6002965 -0.36818975 0.16059974 -0.80512613 -0.9765748 -0.4679445 0.14884096 -1.3086662 0.09094887 -0.5870934 -1.0635421 0.58067733 -0.20714447 -0.25572613 0.13429657 -0.2641499 0.111360066 -0.7746991 0.25784445 0.6964819 1.4501255 -0.34665477
briefing 0.46665016 -0.094686165 -0.18232505 0.80990005 0.15398744 0.3079475 -0.099156655 0.31777263 -0.35800728 -0.43103367 0.020443225 0.28013772 0.7751258 -0.45248044 -0.17879698 -0.85936975 -0.21911776 0.4757406 -0.31535676 -0.3215164 0.050991863 -0.09665373 0.41390347 -0.21822791 0.4934076 0.7237182 0.81482196 -0.40940762 0.0831385 -0.43096262 -0.2625784 -0.2522285 -0.58746815 0.61914814 0.67905945 -1.235118 0.54184633 -0.2640983 -0.7206548 0.4507606 -0.07128555 -0.12468983 0.3377264 -0.120248824 0.19122909 -0.40853682 -0.07737358 -0.049382795 1.4128188 -0.4935774
He -0.08096038 -0.21660556 -0.48647067 -0.07660467 -0.33113432 -0.6296428 1.1541034 -0.2477413 -0.23197336 0.24022183 -0.22523217 -0.5119956 0.09492145 -0.5495006 0.3901164 -0.65956986 0.030074507 0.5647878 0.3923078 -0.79549396 -0.42969242 0.16589801 0.8042441 -1.0760483 0.46598122 0.68808734 -0.26045302 -0.2394263 0.64029306 -0.04362863 -0.08607719 -0.3612512 -0.2156799 -1.1377437 0.03546425 -0.22419871 0.20402212 -0.5825216 -0.16379397 0.37830698 0.035380628 -0.3632795 0.6488492 -0.20111533 0.032328323 -0.5379902 -0.02498642 0.7419139 0.78308576 0.28304893
further -0.07654595 0.1745089 0.064831726 -0.047178727 0.2009787 0.4982548 0.9079419 0.09543537 -0.84871954 -0.4366168 0.23311801 1.3824526 0.403936 1.1031736 0.2416369 -1.0888386 0.803084 -0.5368192 -0.023318432 -1.209037 0.5099505 -0.44651535 -0.33753198 -0.8378982 -0.046681643 -0.0834868 0.1550325 -1.0525112 0.6199186 0.24632709 0.36555108 0.0628349 -0.2815828 0.57684195 -0.4831945 0.2971555 -0.32288167 -0.61390805 -0.039928485 0.67141587 0.18073352 -0.27970082 0.6649128 -0.043535247 0.20108356 -0.40950722 0.36586314 0.46466547 1.0170099 0.08400363
study 0.06146874 0.19591497 -0.042415477 0.304601 -0.27094278 0.840813 0.700846 -0.4537255 -0.48610988 -0.09434475 -0.16573587 0.8138055 0.7445296 -0.63327485 0.45166993 -0.23005402 -0.36798176 -0.33721828 -0.095032565 -0.29038414 0.22910617 0.080081515 -0.4800974 -0.39397794 0.83387476 0.28634346 0.21554556 -0.18093948 0.5114832 -0.46965113 -0.32048723 0.06836455 -0.2162653 -0.5458927 0.53335625 0.45117375 0.08720764 -0.86958057 -0.06968035 0.6955884 -0.13911818 -0.09428558 0.28084427 0.23691364 0.019005723 0.18683757 -0.04605153 -0.19150157 1.425651 -0.1629513
required -0.040480226 0.037113998 -0.33453664 0.2969323 0.35554525 0.5195876 0.58635145 0.23943003 -0.32372823 0.07191436 -0.29764277 0.19271912 0.5276243 0.39294657 0.39920107 -0.042772487 0.3194913 -0.6827364 0.41590562 -0.53301924 0.5864243 -0.48225805 0.36259675 -0.5558531 0.09277791 0.5156048 0.6219681 -0.7166463 0.6498026 0.48646438 -0.47337407 -0.0008904508 0.19111918 -0.06457373 -0.2999535 0.17845693 0.4064415 0.24913493 -0.17096196 0.4995512 -0.11601207 -0.1202661 -0.46142605 0.102666594 -0.475469 0.23928756 -0.0026911525 -0.30036718 1.6612148 0.38349846
and -0.33378696 -0.069440424 -0.2938517 0.02207294 -0.17177449 0.06954409 0.16663168 0.0722381 0.09448987 0.15802103 -0.2391652 0.1124245 0.1947565 0.2494502 0.16860208 -0.35608956 -0.032166414 0.1902611 0.09528977 -0.42672664 -0.11958598 -0.08537037 0.25735694 -0.42709762 -0.10437722 -0.16169827 0.14344753 -0.4952289 0.044357993 -0.03614741 0.15461606 0.09611802 -0.22061075 -0.40213355 0.033010684 0.0015886383 0.048382506 0.001959367 -0.47510675 0.43183804 -0.6229038 -0.14464167 0.1883362 -0.3876615 -0.21430755 -0.07572057 0.0057138894 -0.028851014 -0.08388802 0.06999253
if -0.6810455 -0.72039014 -0.2338763 0.24039991 -0.0058810296 0.5751982 0.88283473 -0.07248437 -0.69814306 1.3606262 0.23609138 -0.018903978 0.24601284 0.38594243 0.25380337 0.1879993 -0.3025515 0.04048842 -0.7560181 -0.6699855 -0.27070197 -0.20975874 0.41626644 -0.31895477 0.36123544 -0.009961179 0.70614904 -1.175303 0.61492044 0.16001788 0.35654047 0.7998412 -0.5399393 -0.8779397 0.09242915 -0.43024844 -0.12208904 -0.44108897 0.15457797 0.55133307 0.1420514 -0.49846977 0.41599128 -0.9293292 0.21004885 -0.116301544 0.34287578 -0.10221038 0.754472 -1.0023512
found -0.75121456 0.42032567 0.6564207 0.33249363 0.9010635 -0.89898694 0.05126518 0.09393881 -0.850874 0.17841545 -0.122065544 0.41744828 0.8459956 0.13379596 0.77921015 0.15136087 -0.39602008 0.19467862 0.59779 0.0006849793 0.7347871 0.36899644 0.38392138 -1.133839 0.7534156 0.4791771 0.263466 -0.22806646 0.056100547 -0.34305093 -0.6333567 0.09791947 -0.21405992 0.22308345 0.16138345 -0.30260053 0.46929258 -0.7360777 -1.2496648 0.7741217 -0.70960414 0.0096287895 -0.54436904 -0.8079744 0.038541578 -0.061201926 -0.16566442 -0.33263603 0.409398 -0.46558705
that -0.18712702 -0.8687262 -0.6553726 -0.11898769 0.25731978 0.15473865 0.71402967 -0.046635903 -0.83706164 0.5147052 -0.13400462 0.25764713 -0.04726284 0.09491876 0.15356062 -0.45560005 -0.22155277 -0.039110277 0.25556788 -0.57834876 0.5262371 -0.18170519 0.20776887 -0.14252017 0.31438228 0.29425368 0.39992306 -0.65897375 0.37583306 0.12668508 0.20997088 0.28810638 -0.5712065 -0.8407732 0.16760309 0.023178149 -0.0342327 -0.2117723 -0.15589042 0.118561536 -0.4255295 -0.2333967 0.2589478 -0.59270966 0.26586297 -0.28128862 -0.068809435 0.06339094 0.1921241 -0.5134998
action 0.8260023 0.34540784 -0.37683773 -0.24072781 0.23727731 0.52281654 0.7790396 0.07474238 -0.6436547 -0.217022 1.4442772 1.3898433 0.2080258 -0.7756754 0.65463275 -0.4950917 -0.47338 0.07761277 -0.41900504 -0.13344407 0.006496519 -0.25400692 0.43992323 -1.0957363 0.12818019 -0.30240834 0.6100793 -1.0327365 0.98856294 0.61156803 0.85357356 -0.4201519 -0.25746748 -0.25638914 -0.56278807 -0.54449934 0.06489031 0.16083114 -0.30489492 0.59693766 -0.3372393 0.05043724 -0.16203958 -0.8254905 0.004689964 0.26132518 0.5192645 -0.49928483 0.5789496 -0.54897946
needed 0.36080182 0.35169205 0.34252942 -0.010835058 0.43728808 0.22353266 0.2936674 0.703085 -0.34710667 0.73782855 -0.41218174 0.3759903 0.5463442 0.33224913 0.2759515 -0.15089954 0.49538046 -0.6987612 0.53351426 -0.14685377 0.3776246 -0.5866112 0.77700317 -0.8546016 -0.27738285 -0.27956495 0.3396254 -0.6819257 0.52402234 0.0031637102 0.098101065 0.31133363 0.45220113 0.11883759 -0.84671575 -0.26316285 -0.50745445 0.12937833 0.07308593 0.55258316 -1.0886927 -0.36106825 -0.093530595 -0.5752934 -0.22569562 0.026082167 0.4914876 -0.26850456 -0.27298644 0.25220147
taken -0.3281375 0.04705286 -0.041646037 0.19046085 0.9471181 -0.43947414 -0.09582202 0.32563508 -0.5837262 0.620775 0.24251266 1.0866808 0.936111 0.46743298 0.6847028 -0.67935765 -0.034254357 -0.5613139 0.09676821 -0.45626128 0.14263579 -0.8489965 -0.14510815 -1.3356342 0.38724357 0.6117061 -0.3778226 -0.5912637 -0.24264044 0.28449348 -0.72444046 0.48699707 -0.025418447 -0.0148429135 0.19554523 -0.471829 -0.64459705 0.09528988 -0.99001074 0.40180475 -0.82713157 0.7637162 -0.3137056 -0.46207333 0.65759474 -0.24256626 -0.8012935 -0.27055597 0.62747437 -0.17001556
by -0.14735882 -0.53404397 -0.23530263 0.6768985 0.038798854 -0.18927129 -0.61059254 0.13247095 0.32967865 0.2916363 -0.08575737 0.421747 0.15248337 -0.3639576 0.30694684 -0.058560636 -0.03607953 0.11763566 -0.21250263 -0.41657588 -0.35589078 -0.114533864 0.78435844 0.06508129 0.18212825 0.19663839 0.18223254 -0.11372495 0.19621684 0.44142953 0.8888115 0.3386583 -0.4602482 -0.9441557 -0.18891542 -0.9204738 0.019403756 0.12941054 -0.5470289 0.45419288 -1.0142463 -0.07580269 -0.12038487 -0.019317018 -0.74789816 -0.2913747 0.36397675 -0.0027350448 0.6249265 -0.12136606
proposal 0.21393828 0.17812489 -0.19892731 0.50259274 -0.008034311 0.44321778 0.31130454 -0.43956348 -0.4658203 0.083877444 0.101059295 0.49030346 0.2435116 0.1582696 0.2245789 -1.0918725 -0.51775867 -0.28388694 0.10330594 -0.30278584 0.058428273 -0.22561614 0.17376196 -0.57968086 0.32913527 0.48873338 1.2530465 -0.098939896 0.16423003 0.017740598 -0.078407325 -0.30740857 0.2955938 -0.29226935 -0.4876391 -0.62623954 0.8016774 0.3810935 -0.14028816 0.49534976 -0.5943629 -0.6212623 0.45647487 0.5804959 0.21901415 -0.18836738 0.41243768 -0.32887986 0.78882754 -0.11130713
last -0.69463223 0.14783749 0.13169216 -0.81513125 -0.21431275 0.48821872 0.23812993 0.10879375 -0.3381494 -0.06437811 -0.48145863 0.06775728 0.26211575 -0.29288688 0.057363633 -0.06386058 -0.48195568 -0.14927426 0.06183551 -1.0081198 0.004445398 -0.4004428 0.0074189254 0.05965554 1.3210105 1.0739449 0.19912088 0.0031510666 -0.20716336 0.79790187 0.7180129 0.2626587 -0.23419416 -0.005211522 -0.55094665 -0.1451836 0.19790052 0.5233456 -0.8557436 0.14472349 -1.0732638 -1.0198663 -0.18648183 -0.14294402 0.4741178 -0.49360308 0.34765854 0.1257956 0.04328934 -0.26701218
month 0.03240971 0.0923037 0.40501738 -0.6420647 0.24525422 0.45954517 -0.6975075 -0.68189627 -0.38395578 0.23589042 -0.094265305 0.3026887 0.8841474 -0.41165963 -0.5044045 -1.3821077 -0.57223845 -0.16622768 0.6092766 -0.5201053 -0.73226154 -0.74047875 -0.35277107 -0.2404079 0.5532304 1.2451166 0.7279006 -0.039220277 -0.1413956 -0.34521642 -0.053277295 -0.23888658 -0.25176403 -0.16995133 -0.058995485 -0.56648725 0.2573458 0.701532 -0.11520737 0.44874296 -0.04444942 -0.56425583 -0.41304237 -0.47105435 0.38399494 0.17263438 1.1402429 0.010697042 0.971219 -0.6733422
Commissioner -0.54290646 0.27048928 -0.4531317 0.47967315 0.44179797 0.39229515 -0.98415583 0.120048195 0.11997439 -0.6238749 0.4134483 -0.2041169 0.3649233 -0.60528624 0.52240586 -1.371884 -0.4091958 0.3641159 0.25846675 0.2835448 0.2907174 0.16045608 0.15076776 0.13545068 0.51096696 0.3951583 0.6407832 -0.6566148 0.32527646 -0.21982375 -0.13849403 -0.5629834 -0.24059966 -0.3313236 0.40908027 0.26830402 0.51859385 0.47798234 -0.3834033 0.5383311 -0.95547193 -0.1706921 0.06477701 -0.37938032 0.42512703 -0.3400341 0.13990639 -0.31486896 0.15197061 -0.22781524
Fischler -0.23214719 -0.15844597 0.04515849 0.29425263 0.054227687 0.71192443 -0.18067 -0.8107609 -0.6946162 0.094386406 0.10703706 0.59915644 0.8486305 -0.56492335 0.12383651 -0.6009473 -0.64401126 -0.16034153 0.5725805 -0.045946002 0.40429023 0.053075094 0.93438715 0.14340673 0.75943136 0.5031861 0.64854175 -0.73592967 0.52859634 0.2584549 0.702708 -0.19304243 -0.64623046 -0.0826146 0.2794868 -0.12309168 0.13140939 0.29739082 0.047585394 0.7092072 -0.9840423 0.15570286 0.32165715 0.36300611 -0.13548383 -0.61426044 0.09932516 -0.6568128 0.54584146 0.2548499
ban 0.8339444 0.39138776 -0.29776996 0.33253783 -0.38189122 0.86112607 -0.12403075 0.009322803 -0.2673246 0.3104441 0.17571284 0.6945816 0.5111643 0.01849321 0.33723938 -0.53071326 -0.80831975 -0.07804598 0.13883124 -1.4556845 -0.02250725 0.101486534 0.13946334 -0.19003825 0.74774355 0.4716396 1.2172804 -0.76173663 0.35476506 1.0665793 1.3289697 0.007812432 -0.2882048 -0.26340494 0.10899328 -0.14661434 -0.5684015 -0.017088475 -0.042999446 0.034132984 -0.22276177 0.2241046 -0.36466363 0.4306018 0.20305805 -0.43353507 0.32186303 -0.7620709 0.51043516 -0.4515709
spinal 0.012618311 -0.32783997 -0.48071015 0.2657441 0.4717633 0.32445028 -0.22857325 -0.2474231 -0.8456133 0.51173174 -0.1419681 0.3168547 0.46301076 -0.016961752 0.4970054 -0.4778387 -0.6891093 -0.41306296 0.6480213 -0.14590825 0.5287747 0.44068143 0.7235984 -0.30147928 0.74875134 0.04749894 1.0237371 -0.8150943 0.07839175 0.09381411 0.6414888 0.10210622 -0.21329737 0.28886566 0.47251064 -0.045803953 -0.53022444 -0.3123113 -0.15575175 0.53019124 -0.6034508 -0.08233938 -0.61918044 -0.16574252 -0.1932853 -0.0781599 0.3753894 -0.3785611 0.34400293 0.24278188
human 0.5181493 1.1685406 0.47772065 0.16246848 -0.49896997 0.6636052 -0.14023566 -0.18174274 -0.3942761 -0.19093111 -0.30961645 0.87740654 0.46491772 0.7115802 0.49267793 -0.52017546 -0.54312587 -0.08127585 0.91507393 -0.027248584 0.72252756 -0.34970215 0.7470326 0.46016562 0.5249639 0.10122584 1.9447969 -1.4340365 1.1468697 -1.1836761 0.21243937 -0.056751497 0.5946374 -0.1388072 0.39689353 0.34488147 -0.70773184 0.040809624 -0.10039842 1.5968561 -0.84211725 0.4229723 0.025893677 0.43811783 0.23393472 -0.35543635 0.8407935 -0.25296378 1.057887 -0.062495362
animal 0.05895761 0.102066934 0.12477674 0.61828077 -0.2304587 0.22301419 -0.449402 -0.31664276 -0.11540786 -0.46427178 -0.30113488 0.47617024 0.9967952 0.38255057 0.60620975 0.13339539 0.016435742 0.11508496 0.43843156 0.06617797 0.5938481 0.090762034 1.0707272 -0.19178404 -0.13688818 -0.102333315 1.0912511 -1.0008416 0.6070448 -0.13804378 -0.053288523 -0.061889526 -0.4947055 -0.056392744 0.87542266 -0.33969814 0.10423009 -0.7633254 -0.02836812 0.5213825 -0.9007398 0.5036073 -0.5388831 -0.89034617 0.20525594 0.45367968 0.79966843 -0.63660824 0.8159842 -0.08719267
food 0.122250535 0.19519754 0.4906068 0.30672494 -0.19097377 0.8209243 -0.25071266 -0.46322888 -0.06334515 -0.7344711 -0.2800922 0.75601286 -0.035486005 0.35827205 0.8524009 0.30435696 -0.04875669 0.49080765 0.042455573 -1.0363587 0.6391495 -0.29017437 0.8092493 -0.5242209 1.1406158 -0.020808615 1.3545687 -1.2923651 0.7151947 -0.5175229 0.094155826 1.3145863 0.045496482 -0.24894321 0.459046 0.58423376 -0.2992158 -0.38474768 -0.5579454 0.27956304 -0.41435117 0.470721 -0.9088578 -0.38295427 -0.16903083 -0.8566271 0.81934476 0.5265233 0.6174768 0.59177357
chains 0.09919162 0.44494566 0.1151853 -0.20862392 -0.567604 0.14220586 -0.2252351 -0.6183188 -0.12565294 -0.5969646 0.10320275 0.553387 -0.042282496 -0.6371838 0.2802922 -0.35875088 -0.39311898 -0.17943092 0.58530456 -0.76655674 0.48456594 -0.03023645 0.41068432 -0.5810967 0.28103483 0.17075782 0.5213464 -0.8424065 0.5521998 -0.055954784 -0.05254799 0.5983936 -0.38043657 -0.3866176 0.31265536 0.11875714 0.4395265 -0.52914006 -0.12799324 0.69598585 -0.3835142 0.6627256 -0.61924493 -0.49931553 -0.12121271 -0.5058672 0.49897364 0.11631188 0.7570322 0.19444293
highly -0.10247494 0.35150594 -0.13475478 0.2139004 0.4160733 0.43785188 0.8822873 -0.21094386 -0.24522498 0.015007607 -0.2706846 0.34912968 0.67611325 0.099235475 0.63315195 0.16023551 0.04463282 -0.12548868 0.45952684 -0.13305299 0.32945272 -0.40227735 0.19347464 -0.28944033 -0.029812064 -0.628838 0.5451855 -0.8913797 0.6286618 -0.63493115 0.30329615 0.32823813 0.117745735 -0.45224625 -0.62576985 0.26084426 -0.20817286 -0.08207395 -0.07265182 0.83475953 -0.4387042 0.42792538 -0.3338236 -1.1973706 -0.38002047 0.48594573 0.35223925 0.06685542 0.84746206 -0.052030433
specific 0.30192918 0.15350927 -0.02316025 -0.2848101 0.027273268 0.3489287 0.5584211 0.15467203 -0.02665675 -0.13249996 -0.13974558 -0.01194478 0.91418743 0.43635198 0.93030393 0.26781017 -0.0574549 -0.75405896 0.6656573 -0.45302922 0.2641312 -0.11637291 0.031417772 -0.40255013 0.24328133 -0.40732616 0.5320212 -1.1072814 0.7994289 -0.0019201032 0.03529282 0.54951686 -0.35519806 -0.22914946 -0.3029965 0.56319743 -0.63702816 0.087894596 -0.3231056 0.65204066 -0.1618317 0.12614919 -0.021105142 -0.55900383 -0.18961732 0.06401315 0.4938885 0.64547986 0.62426525 0.25043124
move -0.1271699 0.08579814 -0.16210955 0.46192846 0.05305497 1.0782336 0.46285284 -0.119378984 -0.15098745 0.05178992 -0.549445 -0.37912515 0.5242674 0.5892339 0.48749834 -0.5153405 0.33364502 -0.44195375 0.27392268 -0.1902824 -0.31029108 0.37138796 -0.252415 -0.52843416 0.81791896 0.40057826 0.3802643 -0.79202265 0.30903494 -0.21934828 -0.9095679 -0.14774801 -0.73813075 0.28468567 0.21505322 0.101819925 0.017657934 -0.5961386 0.101499796 0.43883896 -0.16091858 0.390136 -0.55749476 0.06036009 -0.10412052 -0.09196535 0.30613682 -0.44188434 0.99169713 -0.44761047
health 0.49190605 0.84661525 -0.17274763 -0.4749278 -0.17095864 0.6975082 -0.049514618 -0.034568094 -0.37107286 -0.22511238 -0.14107504 0.32143253 0.92427707 0.5165047 -0.18908045 -0.12525038 0.15342169 -0.54026544 0.43330142 -0.61562705 0.61290437 -0.26826635 1.0577778 -1.0327125 0.15793128 0.5557244 1.0933813 -1.3481615 0.7936502 -0.42721975 -0.1220679 -0.21540274 -0.252276 0.7187321 0.45357 -0.109064996 0.14091393 -0.14142847 -0.30096304 0.44847277 -0.09036783 0.44760272 -0.09662792 -0.63530004 -0.22308017 0.18748547 0.09565906 -0.15200678 0.7643511 0.029186172
proposed -0.3667145 0.41447923 -0.21716122 0.19521956 0.86787033 0.47689444 0.3912978 0.28994226 -0.0784897 0.70477384 0.22941792 -0.5036869 0.79060477 -0.24488828 -0.3921399 -1.1392092 -0.17994884 0.13535917 -0.33721286 -0.40677118 0.93323547 -0.38810515 0.6396068 -0.041296374 1.0821698 -0.078276426 0.68804187 -0.4912576 0.034052555 -0.018103726 -0.014317026 0.7081408 -0.75829405 -0.12345855 0.118960656 -0.6098994 -0.20481202 0.071367286 0.050325677 0.7603778 -0.45909613 -0.27590558 -0.43835625 0.09039 0.13685726 -0.5796917 -0.43804017 -0.73990935 0.99651223 0.13762149
measures -0.08104535 -0.42694715 -0.30336073 -0.5100221 -0.04865146 0.7988577 0.44231096 0.061713006 0.39684668 0.042360857 0.46899036 -0.016184766 0.44500417 0.15854315 0.46893227 -0.55180794 -0.35093927 -0.50969225 0.75629574 -0.74597526 -0.52804923 -0.84579754 0.24141605 -0.5365062 0.08964444 0.6803975 1.1845119 -0.9881838 -0.34439173 0.32403323 0.15126556 0.57256067 -0.9187292 0.2799946 0.0734422 0.084603064 -0.3003182 0.17444168 0.26936662 0.94498396 -0.32540882 -0.17015111 -0.7815571 0.52554214 -0.024775134 0.088922195 -0.017666167 -0.6099464 0.29290166 0.021866117
after -0.90130895 -0.15275155 -1.0751337 -0.42377618 0.2165105 -0.08821409 0.581483 0.5052958 -0.12724447 0.4177479 -0.2699285 0.5873632 0.20575027 -1.2361714 0.6329417 0.22926274 -1.0077251 0.82524526 0.35746768 -0.31118828 0.31154314 -0.386864 0.8278417 -0.55186003 0.27976388 -0.06349186 0.71753955 -0.5507427 -0.22872554 0.65719324 0.31729496 -0.88482475 -0.21588278 0.6741368 -1.1540619 -0.6996444 0.61976415 -0.40037283 0.28972924 -0.16244364 -1.4991709 0.08234234 0.18725073 -0.19875078 -0.009185686 -0.606886 0.8113716 -0.008281169 -0.05499585 0.2633531
reports -0.43494394 -0.34490177 -0.06329789 -0.5380627 0.42630905 0.3264388 -0.7710277 -0.17864527 -0.5662312 -0.1697207 0.16864851 1.437779 1.0826865 0.081420995 -0.42699966 -1.1717992 0.8621766 -0.62748 -0.3315281 0.09414802 0.09021343 -0.034905918 0.3089634 -0.7069031 0.952496 0.03542075 1.4512987 -0.2659801 0.5138837 -0.41598997 0.2768077 0.6861258 0.10181734 0.24568634 0.30210203 -0.151088 -0.18209243 -0.6456488 -0.17032646 0.7996778 -0.4943556 -0.122530825 0.32799658 -0.6894651 0.68385386 -0.24599615 -0.5077605 0.6717207 1.1251979 -0.8410018
France -0.45156363 -1.2603351 -0.20854764 -0.13389114 -0.35193744 0.38965142 0.6101839 -0.059103265 0.90399665 -0.28155753 0.048345663 0.68289715 -0.54357713 -0.77396065 0.39021328 -0.3423166 0.5277438 -0.03551921 0.077076085 -0.5145249 -0.13871707 0.42590854 0.5564389 0.45749626 0.52335024 -0.026846321 1.0102522 -0.41004503 -0.46509627 -0.0578392 -0.5978829 0.11258243 0.5432111 -0.23968767 0.39191353 -0.39559639 0.7006806 -0.43063256 -0.5237047 0.6732527 -0.47791538 -0.2332592 -0.22367172 0.6857219 1.2616318 -0.28029063 0.40531301 -1.1639047 -0.013282222 0.16095221
under -0.22232288 -0.38034204 -0.43223837 -0.03649122 0.58929884 -0.564094 1.217836 -0.118517876 1.1505457 0.40626287 -1.0460368 -0.15599751 0.14840741 -1.2381973 -0.46935678 0.39570078 -0.14440018 -0.6922273 0.3217974 -1.3222427 0.04276456 -0.1372424 0.963997 0.40240505 1.0287322 -0.44153932 1.1296953 0.023144748 0.40722686 0.5296043 1.182975 0.20868357 -0.7058534 -0.2991316 0.7096062 -0.8996282 -0.10395741 0.08875581 0.83172625 1.8254721 -1.1969142 0.001979569 -0.95386446 -0.8279046 -1.0149187 -0.7942397 -0.086366326 0.8143691 0.82746875 0.24478976
conditions -0.5589141 -0.10694297 -0.68103164 -0.001070437 0.074440815 0.15979047 0.53290564 -0.46798012 -0.05168197 -0.39949828 0.099945955 0.31384948 -0.10838372 0.35934725 0.5360444 -0.9771385 0.4154432 -0.24493352 0.58651036 0.26106122 0.47794396 0.3494317 0.16635531 0.020383554 0.9366607 0.053092867 0.8206462 -1.218317 -0.30257335 -0.2808841 -0.1941767 0.4640778 -0.52537555 -0.17419933 -0.40740907 0.002500288 0.09833193 -0.03162866 0.5606491 1.0401695 -0.06127553 -0.47100985 -0.25999182 0.0998097 0.2732074 -0.4206382 0.5524506 0.085842006 0.8726048 -0.12174719
could 0.14875059 -0.26720226 -0.1929292 -0.33432582 0.8362418 -0.18992618 1.2171144 -0.058843914 -0.5391961 0.15258117 -0.5885028 0.78799224 1.4814159 -0.24940212 -0.16251072 0.6178526 -0.19603771 0.016737903 -0.11014218 -0.575702 -0.12641881 -0.5390567 0.92087084 -1.1858361 -0.1561244 -0.8118264 1.4425426 0.40172392 0.0049548936 1.0968245 0.25266248 0.18195869 -0.37396753 -0.5519388 0.09104508 -0.18532993 -0.17757867 0.52368176 -0.23205093 0.88346344 0.16594248 -0.2763537 0.19166969 -0.3088856 -0.060766127 -0.27871045 0.29767638 0.24037294 1.0917572 -0.122188635
contract 0.13600749 0.062633336 0.28922608 -0.26304975 0.43947688 0.88258487 0.82931685 -0.6477321 -0.2928072 -0.1944134 -0.44254884 -0.022793237 0.4809835 -0.3833511 -0.5888019 -0.9161593 0.20682213 -1.1159719 -0.5448088 -0.3469938 -0.16177142 -0.305815 -0.43785372 -0.8467862 0.76943856 -0.5942611 -0.36521223 -0.26761323 -0.1428039 -0.5089475 1.1255862 -0.31789675 -0.5275374 -0.120598964 -0.4236611 -0.43438655 -0.44259885 0.2418538 -0.44049767 0.41008013 -0.40713608 0.24728234 -0.30844793 -0.09444589 0.4011158 -0.907443 0.5605125 0.3327717 1.149358 0.043412145
( -0.11201122 -0.9530464 -0.22349304 0.31251216 0.20537533 0.3059063 0.19906236 0.89912844 1.0477893 -0.10748532 -0.7830257 0.7372474 -0.07964419 -0.07185774 0.2880479 -0.6280682 0.7826464 0.39308763 0.11831309 0.05607863 -0.87780815 0.058324907 -0.25839975 0.06297807 0.8248279 -0.05423125 0.084471375 -0.69270605 -0.9210452 -0.20614265 -0.13742286 -0.3149884 0.4852113 -0.26621753 0.16005924 0.27250913 0.45379028 0.48815164 -0.29111764 1.1981357 -0.19027443 0.17883341 0.17125447 -0.4841083 0.69728976 0.22181424 -0.0504308 -0.50040555 -0.35603777 0.023531437
BSE 0.35477075 -0.027571363 -0.61151963 -0.05932493 0.33584467 0.83342576 0.49451697 -0.59850484 -0.24359903 -0.13898279 -0.014772708 0.07657882 0.30736545 0.5382725 -0.4308758 -0.43523294 -0.039208233 -0.2016296 0.08356787 0.16639996 0.5646248 -1.0279609 -0.008610329 0.04664782 0.6140186 -0.48645613 0.62940323 -0.54266703 0.97472596 -0.35251772 0.34423587 -0.3475372 0.4887517 -1.0042952 0.0038453678 0.24291903 -0.24006009 0.18421581 -0.3427314 1.492849 -0.45085737 -0.3447487 -1.1289618 -0.22103314 0.30806583 -0.4506181 1.6521345 -0.057497818 0.6737724 0.11008669
) -0.20822246 -0.9033078 -0.013998779 0.23243283 -0.08739052 0.42521662 0.30308768 0.6582207 0.8167907 -0.037153143 -0.5995371 0.8755424 -0.040478405 -0.27084702 0.2282469 -0.7873005 0.92724425 0.35873225 0.3372762 -0.0662123 -0.786288 -0.05316365 0.034708418 0.07274821 0.41646457 -0.45076934 -0.049286723 -0.21157978 -0.351342 -0.2178935 0.07940825 -0.2012813 0.4652928 0.22837271 -0.44361898 -0.12258481 0.30830017 0.25261593 -0.3728802 1.1416751 -0.19388947 -0.36902785 0.19736119 -0.43127313 0.5034293 0.14251503 -0.20790954 -0.5750552 -0.25148666 0.12996943
-- -0.82893 0.35547444 -1.4222326 0.12580349 0.67239565 0.76447845 0.7185672 0.11126604 -0.42088583 -0.5958949 -0.714667 0.02306311 -0.67748535 -0.72803074 -0.04507425 -1.100964 -0.25551686 -0.30847162 0.5550888 -0.1300247 -0.62878585 -1.1735035 0.2773075 -0.9777905 -0.27086225 -0.10737049 0.09289052 0.7417529 0.86310035 -0.0028263368 -0.42450356 -0.9137449 -0.52040124 -0.6159727 -0.101741835 0.14743268 0.5279353 0.15656675 -0.25480664 0.90594476 -0.2928117 -0.09281325 -0.048300944 -0.113471285 -0.11725609 0.62341857 1.372351 0.120298885 -0.29147288 -0.37015262
But 0.2838135 -0.13918486 -1.4967061 -0.61016494 -0.21218064 -0.68845636 0.13909325 0.53461075 0.05817802 0.13181125 -0.2594178 -0.2887486 0.069943614 -0.16613701 1.0404431 -1.3929126 0.037336484 0.21897456 0.13452078 0.30674708 -0.23096292 0.30680737 0.6022753 -0.68158174 0.49923676 -0.20331673 0.16660535 0.15916343 0.6782783 0.33555377 -0.16993047 0.7563311 -0.7880634 -0.88918144 -0.33483636 0.12595652 -0.16208594 -0.017330974 -0.56486243 0.27418405 -0.6709625 0.6103509 0.8357891 -1.0910496 0.102809966 -0.20222321 0.58496976 0.6838058 0.47563633 -0.1073047
agreed 0.22872643 -0.3855974 0.06073367 0.20297208 1.0358534 0.37783745 0.66521376 0.29720858 -0.017266603 0.097448565 -0.11298028 0.62370896 0.513135 0.07119087 -0.27452272 -0.8642515 -0.73046774 -0.5925776 0.32835817 -0.776222 0.019899422 -0.094588146 -0.105233744 -0.8866486 1.1521201 0.07574224 0.8701017 -0.48288274 0.62091637 0.45148903 -0.1850604 0.34823674 -0.47282073 -0.5538263 0.5715405 -0.09364261 0.32349014 1.2000781 -0.39271474 -0.045882814 -1.033358 0.37724057 0.78608984 0.3804666 0.5957974 -0.503145 0.015609919 -0.38170224 0.24519119 0.29662243
review -0.6152793 0.59241194 -0.21670167 0.5798613 0.15816775 1.50282 0.051920984 0.4026656 -0.3944542 0.57168275 -0.037578788 0.1923194 -0.2801838 0.07385857 -0.0788963 -0.43054062 -0.2529683 -0.42093936 0.10273786 -0.52990645 0.458909 -0.06706394 -0.055319224 -0.09612262 0.68076944 0.053005192 0.3593327 -0.3850659 0.22219546 0.31313527 0.5910644 -0.17772776 0.4869388 -0.36808965 0.114525594 0.12295214 0.436971 0.22826658 0.19626783 0.81766784 -0.5936988 0.5055713 0.48319054 0.3499148 0.40781477 -0.007882499 0.5734137 -0.2418908 0.830781 0.013328017
his 0.72737116 0.030093644 -0.43809745 -0.3900498 -0.19043633 -0.1064418 -0.3332111 -0.051282752 -0.3892689 -0.028211715 0.33011046 -0.018662376 1.2077048 -0.12479408 1.1327496 -0.26414552 0.57883376 -0.44520065 0.6976009 -0.57018375 -0.28637162 -0.0573864 0.3897303 -0.662369 0.19395876 0.13930646 1.0838994 -0.6308482 -0.32814583 -0.007358599 -0.5249018 -0.5541937 0.39019412 -0.6024924 -0.39059162 0.05678427 0.63578695 -0.14247142 -0.4126907 0.9308474 0.029033609 -0.9346787 0.28990245 -0.0621553 -0.6144245 -0.4389432 -0.41205266 0.7218078 -0.1889394 0.32432136
standing -0.48920098 -0.08039278 -0.75446165 0.07817428 0.09778777 -0.15444164 0.22281021 0.08109502 -0.7873914 0.19188981 -0.27391556 0.22721203 0.2084295 0.2261312 0.73724926 -0.69873583 -0.30151618 -0.62125856 -0.348657 0.7232991 -0.38782582 0.17643805 0.6849905 -0.7821916 -0.04042494 0.49851713 0.54827267 -1.0133282 0.34278336 -0.24104732 -0.08098504 -0.48963654 -0.728772 0.13423036 0.12878479 -0.47417033 0.21034504 -0.083738916 -0.24256773 0.75856155 -0.5801651 0.067680344 -0.3877372 -0.41412503 0.2075562 -0.4407481 0.17237589 -0.6897171 0.19645837 -0.051591378
officials -0.755544 0.46840644 0.14183 -0.16701475 0.017756047 0.15603003 0.61707586 -0.22127898 -0.6245202 -0.90456057 -0.22547475 -0.1528392 0.6665237 0.3207157 0.21719384 -0.8689623 0.625314 0.35849664 0.28283516 -0.829905 -0.49088246 0.5307653 0.36254138 -0.7253369 0.5891207 0.34160382 0.5288739 -0.45390812 0.18113144 0.7494426 0.1431356 -0.21086062 -0.047248147 0.08671954 1.2235457 -0.509115 0.14019577 0.26254952 -0.04234529 0.51949793 -0.7653262 0.08642321 0.04819808 -0.37529495 0.5113456 -0.10282752 -0.50919527 0.15479465 1.0063916 -0.35404125
questioned -0.84999007 0.37053043 -0.13987578 0.26546562 1.1584096 0.29917517 0.11727409 -0.10064741 -1.0220966 -0.61510694 0.18657005 0.46827915 0.8406785 -0.5388223 -0.12486632 -0.39693946 -0.50023276 0.24649267 0.26817822 0.06312565 -0.21760787 -0.41782323 0.35411394 -0.60976595 0.2128156 0.41750336 0.5740122 -0.923636 0.61485136 0.2944537 0.25709796 0.504743 0.013100455 -0.73366064 0.56815964 -0.655629 -0.10637955 0.092594065 -0.70327693 0.38082325 -1.0808944 0.39067906 -0.4674185 -0.7917083 0.17972656 -0.012035981 0.15959392 -0.6439047 0.33713844 0.07787268
as -0.12993757 -0.8258694 -0.8191947 -0.46234626 -0.3006913 0.2644041 0.399953 0.4025329 -0.48514858 0.806624 0.23911197 -0.16846868 1.006102 0.024823295 0.24914089 0.069498055 -0.0076390435 0.35478985 0.0851559 -0.29207158 -0.15927285 0.2204755 -0.14698772 -0.43932292 0.21658677 0.38162 0.07556174 -0.2863018 -0.4954737 -0.51308066 0.20774592 0.42352685 -0.84298694 -0.637028 -0.07695362 -0.61555797 0.32719252 -0.25210235 -1.1485561 0.8479316 -0.41576838 -0.083872125 -0.16561334 -0.31497297 -0.5997559 0.23115678 0.39976782 -0.29204106 0.18653408 -0.7735355
there -0.251204 0.09674361 -0.6596493 -0.4610519 -0.08291368 -0.07427111 0.7117726 -0.46735856 -0.54555136 -0.23041448 -0.31657612 1.0465099 0.11149505 -0.22951987 -0.1892778 -0.480766 0.5782989 -0.34892964 0.31923547 -0.8385806 0.38884658 -0.32276836 0.16941166 -0.58316743 0.31055462 0.777349 0.010261189 -0.6995229 0.9642138 0.20679465 -0.0067731133 0.6653235 -0.4875499 -0.3277746 -0.013068872 -0.14944053 -0.17436469 -0.44587508 -0.7738196 0.25385055 -0.304628 -0.2917453 -0.41548616 -0.9784718 0.24650215 -0.13491312 -0.36243406 -0.53934544 0.79190916 0.40576535
only 0.14242595 -0.50759697 -0.8135725 0.07754006 0.30131155 -0.19540079 0.7915446 0.094270684 -0.5844914 -0.08523253 -0.15840499 0.87201864 0.40614524 0.38775325 0.44948372 0.15809521 -0.6314711 0.17151082 0.0849211 -0.6735863 -0.07465068 -0.47931555 -0.32460713 -0.7270093 -0.36346662 0.4478684 0.04454764 -0.41084704 -0.2545379 -0.32024184 0.14077815 -0.15274878 0.22465208 -0.16425721 -0.34207428 -0.36456096 0.07898247 0.34619048 -0.41514465 0.8844192 -0.46436998 -0.22622153 -0.050954632 -0.58894336 0.3187028 0.23603135 0.07912838 0.30939072 0.30236155 0.27040583
slight 0.5805656 0.21818565 0.26088795 -0.02438598 -0.49007577 0.0816587 0.16841136 0.34506196 -0.387383 0.42461398 0.11115657 0.8740935 0.02286423 0.30276647 0.4835957 -0.21216711 -0.6571385 -0.2204554 0.09516977 -0.06133398 -0.02095683 -0.08467334 0.56803644 -0.7391635 0.77993536 0.19042334 0.61611575 -0.6171308 0.07113228 -0.25788522 0.42115083 0.10378654 -0.17259158 -0.7348629 -0.5867145 -0.028912023 -0.50398284 -0.28478628 -0.46058103 1.1217893 -0.3444451 -0.16963094 0.11774416 -0.12683135 -0.42345056 0.17206673 0.55169016 -0.11585407 0.49143302 0.3018143
risk 0.95188344 0.90638536 -0.12719202 0.15735115 0.063903466 0.5803292 1.2162225 -0.035464752 0.0025782872 0.13479856 0.13751315 0.6178988 0.9460859 -0.66481453 0.3712095 0.51364523 -0.61783147 -0.86269 0.44905972 -0.15728806 0.09663668 0.124715306 0.45658305 -0.55255514 0.8559218 0.39352345 0.5586424 -0.4511033 0.7621391 -0.564172 0.025783895 0.16002946 -0.34407154 -0.67487955 -0.37519804 -0.082316674 -0.6330292 -0.066119574 0.2511208 1.101692 -0.73710334 0.2521167 -0.029783713 -0.09250485 0.54379535 -0.12171496 0.48371413 0.11405297 1.0650446 0.45301268
Spanish 0.6173844 -0.07924377 -0.21266496 -0.7540168 -0.014018876 -0.098345004 -0.67771477 0.62329084 -0.026922096 0.32298258 0.16843843 0.04356788 0.5390355 0.07349917 0.58434385 -0.27514768 -0.35256323 -0.08489757 0.5039225 -0.4060708 0.705505 -0.48977375 1.5531373 0.32352614 0.81434596 0.3526788 0.27557176 -0.44905603 -0.35295638 -0.87753963 0.42001507 -0.59222674 -0.41187045 0.71783644 1.0977325 -0.5953868 -0.3427117 -0.13355802 -0.43973485 0.4553471 -0.40692288 -0.19809602 0.2385122 -0.10544514 0.16784087 0.021568576 0.26139787 -0.10251625 0.619888 -0.48476505
Minister 0.81014055 -0.6086223 -1.4622298 0.29580444 -0.13042556 0.18230069 -0.6026046 0.37111697 -0.78150195 0.50544983 0.15467453 -0.08247687 0.93518686 -0.8711663 -0.24169044 -0.5814323 0.7097712 0.004141394 0.1988209 -0.7241196 0.7274417 0.5562849 1.6717758 0.350292 0.45538568 0.57577914 0.64144224 -1.2483103 0.46783462 0.51941234 -0.3175331 0.45474547 0.44521952 0.21676661 1.0924412 -1.2639165 1.234475 -0.6128112 0.081889786 2.317113 -0.25964305 1.2806449 -0.42093053 0.1008907 0.5191411 0.22147492 -0.6744111 -0.8602582 0.11630424 -0.40919647
de -0.07940205 -0.70844 0.053402197 0.82088953 0.13072206 -0.15293013 -0.5433418 -0.25862873 -0.5292556 -0.47641224 0.0375774 -0.45268202 0.48261026 -0.36570504 0.3547475 -1.7982908 0.6647147 0.44408727 -0.0855331 -0.043776628 -0.48828888 0.3598514 0.9358772 0.36129728 -0.121665165 -1.1311553 -0.08762491 -0.67122597 -0.039040264 -0.80092734 0.48000848 0.91972226 0.33490908 0.6945274 0.07773429 -0.24652667 0.47338828 -0.0075369133 -0.7819067 0.5339805 -0.59660494 -0.46830457 -0.4547934 -0.31515667 0.30488625 -1.7476882 0.13067353 0.77556026 0.55414367 -0.0102591
had 0.7657189 -0.3177255 0.5071535 -0.70940113 0.39686108 -0.045574423 -0.1466179 0.8090437 -1.3024253 0.49307173 -0.296024 0.48396197 0.21128847 -0.1991581 0.22583553 0.020241067 -0.43961307 0.18254143 0.46021864 0.22300063 -0.033566885 0.112911165 0.17742766 -0.41728494 0.06815604 -0.29278743 -0.07946219 -0.99172026 0.19077113 1.0277096 0.7624847 -0.10274837 -0.93841195 -0.98030615 0.5087284 -0.069964044 0.02660221 0.30195794 -1.313515 0.8174799 -0.72426265 -0.39205584 0.43099654 -0.09547267 -0.3042585 0.07891055 0.5199007 0.21889777 0.49448258 0.260185
earlier -0.29971066 0.10091913 0.4008828 0.0599028 0.34457648 0.76384234 0.047596153 -0.52721816 -0.9734253 0.27083692 -0.22538836 1.1149471 0.15155485 -0.37258896 0.53440773 -0.51381737 0.3114106 0.8005334 0.8857717 -0.26247552 0.5741196 0.07970343 0.62552863 0.5862239 1.6951753 0.40053457 0.18621926 -0.35398003 -0.086348124 -0.0051063667 0.14739957 0.8007673 -0.640359 0.6759881 -0.9946737 -0.8584816 0.4641225 0.20571421 -0.3648652 -0.42436007 -0.9504909 -1.0914211 0.5250132 -0.099340625 0.8983071 -0.2371946 0.47224116 0.7713772 1.2757442 -0.37494907
accused -0.08036829 0.04235072 0.2120319 0.17979433 0.67525864 0.3138313 -0.11225806 0.84271604 -0.6469432 0.06958669 0.08420565 0.24408011 1.3535978 -0.1616718 0.90820676 -0.02971586 -0.82198584 1.0264802 -0.011808708 -0.8719707 0.2840403 -0.06959976 0.5680238 -0.49625316 0.8238921 0.4657675 0.435708 0.18099864 1.6782117 0.5950602 0.45383048 0.19116811 0.14619733 0.27322045 -0.028634641 -0.3386091 0.7595507 -0.15303846 0.08507134 0.5373428 -0.9917756 0.64963776 0.6013833 -0.63084906 0.059359808 -0.21457167 0.5122569 -0.11380138 -0.6518234 -0.009316114
at -0.5988553 0.81348956 -0.11497085 -0.029413052 -0.39098692 0.100636825 0.31511134 0.5269872 -0.21275583 0.010179581 -0.41187376 0.5644452 0.070776716 0.19805372 -0.23563509 -0.5594218 -0.24296594 0.1473165 0.41321322 -0.34707114 -0.5519336 -0.2774145 0.2903989 0.81526786 0.6544834 0.46117038 0.051162556 -0.5165503 -0.30485895 0.044209734 0.09682837 -0.2013938 -0.51802003 0.060931616 -0.000121577774 -0.718151 -0.18658224 0.23806658 -0.25187534 0.87829405 -0.39168397 -0.029635 0.40161648 -0.84216523 -0.9686774 0.4553213 0.74832875 0.25755435 0.059734516 0.06863202
an 0.9972673 -0.29564527 -1.7055004 0.4971615 0.012404437 0.4299831 -0.23205255 0.86353785 0.02899556 -0.08143513 0.9962541 0.6237494 0.39391112 -0.016399475 0.28625035 -0.471944 0.25035718 -0.3312469 0.85615754 -0.59938365 0.56219757 -0.34097505 0.6511628 0.06731186 0.7922158 0.41596273 -0.024180016 -1.0420232 0.19983013 0.7764715 0.9828596 0.07381116 -0.39359578 -0.29754135 -0.1870004 0.093160346 -0.41770965 0.5544932 -1.1395936 -0.60554296 -0.26299894 0.38691846 -0.70222557 -0.27308977 0.24673237 -0.07037535 -0.3046229 0.760176 0.46496767 0.88187176
farm 0.27691692 0.38102937 0.3454305 -0.4900324 0.38613105 0.32682338 0.52370715 0.06872308 0.4827834 0.63562834 -0.002373208 -0.07036726 -0.50684327 -0.028174628 0.06914535 -0.5935377 0.07339283 -0.4774341 0.88743466 0.066525824 -0.51877826 0.19990917 0.8330857 -0.61149055 0.30637673 0.22132836 0.90116465 -0.78352684 0.29976615 -1.0529554 0.6356109 -0.6731607 -0.111392796 0.5582374 0.7824516 -0.78321505 0.5316116 0.12996237 -0.12549794 0.6868798 -0.28098986 0.18392871 -0.19671819 -0.34869185 0.12555571 -0.49976936 0.87276244 -0.45313877 0.8625962 0.5066009
ministers 0.44466627 -0.037682123 -0.51267296 0.40873277 0.4179104 0.5809351 0.8041985 -0.21494545 -0.77941793 -0.2689077 0.2497603 0.3008003 0.3573545 -0.81085116 -0.05968713 -0.6580707 0.19113566 0.27571443 0.488883 -0.34958398 -0.27985042 -0.31593454 1.1364452 0.22766389 0.6002342 0.84187835 1.2505906 -0.7001251 0.57300955 -0.4369631 0.119994044 0.20848596 0.12875569 0.40207225 0.5535933 -0.2769202 0.93065476 1.121358 0.081288114 0.30605787 -0.9604272 0.43290448 0.41173285 -0.30438402 0.17187375 -0.29830453 -0.2878267 -0.7719552 0.6473021 0.27430516
' 0.21803035 -0.0913434 -0.16563404 0.95499694 -0.30802733 -0.24277546 1.3531358 1.1338625 0.5178795 -0.28084838 0.3983454 -0.7429386 0.6142156 0.47461495 -0.37386617 -1.2217256 -1.3690535 0.15441099 -0.16407256 0.15332645 0.5435381 -0.4024089 0.7722389 0.06556374 -0.3712828 0.40712243 0.7151213 -1.6103678 -0.28186402 0.044143952 -0.13745788 -0.7152226 -0.32896477 -0.7985429 0.105012976 0.18751226 1.027824 -0.36753026 0.026673768 0.13882032 -0.6406621 -0.7451425 -0.6176806 -0.6132185 1.0999547 -0.49761197 0.34513274 -0.48148936 0.13781273 -0.075787164
meeting 0.24285828 0.66561806 -0.48279685 0.3082812 0.36331668 0.29856473 0.28838813 0.2329143 -0.52863216 0.20962626 0.32806605 0.18915546 0.025611207 -0.41326407 0.07745123 -0.8488206 -0.25352022 0.8450717 0.11488654 -0.6307319 -0.24498597 -0.6635639 -0.17504637 -0.106182836 1.5307262 0.8471817 0.68200463 -0.7075144 -0.2669822 0.25013497 -0.40255144 -0.11552447 -0.063244134 0.6203793 -0.483988 -0.6375886 0.72057885 1.3015008 -0.37854993 0.48455888 -0.3117466 -0.029893745 0.8581134 0.030726412 -0.4768771 -0.047684528 0.41619915 -0.008957676 0.543803 0.4466577
of 0.31920812 0.23765814 -0.3702583 0.24582969 0.016310092 -0.059630547 0.018129416 -0.31525293 0.09107074 -0.0009461108 -0.432746 0.5388408 0.24599819 0.3875425 0.22527477 -0.236764 0.00965455 0.11189263 0.6712284 -0.32489824 0.06366912 -0.45525682 0.17567824 -0.15141617 0.07008517 0.307375 0.1315944 -0.033272494 -0.14621003 -0.052866325 0.27253163 0.22646251 -0.4581898 0.34129655 0.26279905 -0.28925028 -0.064424 -0.002173241 -0.5254158 0.45729667 -0.63954985 -0.37956548 0.38898993 -0.4487795 -0.23756301 -0.0356813 0.42105177 0.0801971 0.047494154 -0.1809643
through -0.079135485 -0.69076806 -1.4775946 0.062845565 -0.2883956 0.052964613 0.67912143 0.7640856 -0.16868658 0.22767462 -1.0720944 -0.36942202 -0.47700733 -0.752898 -0.049116746 0.16257206 -0.18722163 0.21680538 -0.27791002 -0.16987875 -0.3180384 -0.59501946 0.40397915 -0.9278957 0.6849442 -0.65115565 0.49395218 -0.37590602 -0.40607002 0.8505411 0.17707737 0.53409845 -0.013979534 -0.20690978 0.80997795 -0.07305785 0.035560835 0.2967947 -0.61030614 -0.48307216 -0.150527 0.34708735 -0.67776215 -0.49688223 -0.055651166 -0.53302586 1.5017127 -0.62667614 0.26107055 0.7568799
dangerous 0.69717693 -0.3789889 0.46660152 0.094680175 -0.38270423 0.41776013 0.10002708 -0.9024381 0.046230413 0.09479842 0.7925659 0.2016808 0.007888288 -0.18036233 0.07307703 -0.312838 0.059698883 0.0628444 0.2808504 -0.35190597 -0.1531362 -0.5934586 0.58953875 -0.56874233 0.57291824 0.35142046 0.5145591 -0.8167022 0.42107448 -0.10378297 -0.017366957 0.17536992 -0.0040469994 -0.7320777 -0.07144677 -0.24721834 -0.033667814 1.4231274 -0.88412684 0.46083808 -0.27346864 -0.22141717 -0.7660443 -0.971898 0.014794106 0.0060548033 0.6280092 -0.6030547 0.19131008 -0.16253154
Only 0.24623112 -0.28586057 -0.40051955 -0.008652109 0.31362295 -0.14308217 0.3009069 -0.6161964 -0.09564588 0.30922082 -0.39986083 0.55213356 0.023593942 0.0684261 0.5243452 -0.58661735 -0.33367062 0.16201268 0.30708575 -0.47486398 -0.45365188 -0.29995033 0.23584476 -0.42400226 -0.15774707 -0.15596807 0.4463019 -0.31042922 0.74528337 0.062179785 0.11334553 0.72537196 -0.16817357 0.013084996 0.073785685 -0.34947988 0.11692184 0.1587507 -0.29897365 0.38668394 -0.5669709 -0.083861575 -0.048064522 -0.56497556 0.6659498 0.29115272 0.48937505 -0.37172332 -0.16541043 0.28360698
backed -0.09125037 0.059813417 0.1079625 0.58965045 0.22741063 0.8475382 -0.17652477 -0.24529389 -0.011701239 -0.09911358 -0.15897922 0.60970247 0.9171544 0.32610193 0.65871394 -0.4998707 -0.16574024 -0.26041597 0.33646068 -0.22590433 0.65960157 -0.20472443 0.9574488 -0.32777914 0.10684721 0.5692638 0.45574543 -0.2399521 0.26758555 -0.07024802 0.39351222 0.030383857 -0.5142233 0.14373255 0.9119763 -0.39596814 0.17944282 0.29761449 -0.37095988 0.8712736 -0.1105972 0.47343534 -0.29641697 0.29617453 0.019779779 -1.1189651 -0.06803553 -0.8756468 -0.2778417 0.08463103
are 0.72909355 0.013920306 0.5107392 0.5544565 0.20230101 -0.07679222 2.0325782 0.07193055 -0.3643058 -0.08569718 0.19163212 0.35279152 0.19168435 -1.3492163 0.03778595 0.22057073 1.3691617 0.32380164 0.41044345 0.21429388 -0.88173395 -0.62861735 0.8889214 -0.31596637 -0.833168 -0.23256156 0.97965056 -0.76906824 -0.34100443 -0.10394398 -0.2942358 0.7290397 -0.21468352 0.25796893 0.34010834 0.02368522 -0.5730139 -0.041701946 -0.333109 0.66863453 -1.5766457 0.15835114 -0.4776533 0.056470577 0.15414569 -0.4379854 0.45160672 -0.072342515 0.4294689 -0.31152472
due -0.10849114 0.14591616 0.059307866 0.24561286 0.30682707 0.68572557 0.30038327 1.4825665 -0.6754231 0.3874485 0.11288044 0.9887615 0.49492058 0.31555596 0.41812196 0.10207569 -0.07284373 -0.3402632 0.88096994 -1.1271409 -0.7592054 -0.48195457 0.7745608 -0.04335725 0.34860405 0.9103289 0.4416367 -0.45158672 0.19206621 -0.060742654 0.6806839 -0.049227744 0.29861102 -0.045097165 -0.7114268 -0.3676405 -0.35796642 -0.020513935 0.34762815 -0.24133407 -0.20164192 -0.48471016 0.3716312 -0.7036412 -0.58917093 -0.23641302 0.20814215 -0.5548035 0.7522495 0.7059164
issue 0.500176 -0.26121995 0.3988182 0.27005622 0.16037261 0.44430518 0.9166374 0.2817062 -0.14512657 0.37033027 0.08864219 -0.16385347 0.48485008 0.015407884 -0.46187627 -0.90074456 0.14289019 -0.057711836 0.007764911 -0.4486354 -0.0544572 -0.54976493 0.5267327 0.11187833 0.46431112 0.25882924 0.9917114 -0.3423417 0.63387525 -0.020566847 0.38331297 0.44001427 -0.74807304 -0.31437692 -0.5696549 -0.7198057 0.47144735 -0.09012537 -0.31287113 0.91255575 0.20726179 0.649026 -0.16968174 0.4799303 -0.1487016 0.079746075 0.03531269 0.4356754 0.7886965 1.1363716
early -0.32506567 0.0054314616 -1.1611406 -0.8668584 0.23076469 0.7247374 0.7371202 0.22486739 -0.21807504 0.21055771 -0.34940207 0.3888108 1.0599989 -0.7797861 0.8190759 -1.2066483 0.19520466 -0.3840079 0.4638278 -1.1244928 -0.48414057 0.1671658 -1.061354 -0.6604036 0.5202159 0.25488436 0.529118 -0.17347614 -0.5632952 -0.08037255 0.8030729 0.32769498 -0.46232793 0.5357694 0.5570708 -0.48336127 -0.80067563 -0.6372526 0.13207467 -0.22325107 -0.2549688 -0.103870824 -0.17245565 -0.11720339 0.10899096 -0.9219065 0.32761472 0.7324619 0.10342683 0.051199317
next -0.15207642 0.2019286 -0.7702984 -1.0257893 -0.19530727 1.1940235 0.48654744 0.00955004 0.7741801 -0.4391425 0.050048564 0.46151328 0.1815303 -0.834448 0.22876212 0.020677896 -0.16797645 -0.19548821 -0.21298273 -0.6695084 -1.0611559 -0.9534831 0.07527119 0.08248137 1.046524 0.8880789 1.3410674 0.04962029 -0.33468112 1.0318738 -0.19685774 0.031466965 -0.351584 0.4963079 -0.41508913 -0.1799595 0.0368411 0.99557877 -0.75081724 -0.40277484 -0.97691727 0.11426532 -0.13912067 -0.12483379 0.94197005 -0.49696878 0.9862542 0.24255958 0.90930355 0.18678257
make 0.520079 -0.3418662 -0.49906656 0.4529662 -0.18257776 0.7086746 0.45606703 -0.011766329 -0.7246667 1.0226341 0.48724958 0.07802911 -0.21813872 0.0076447213 0.5540173 0.12367464 -0.4029633 -0.52598065 0.27157903 -0.49570152 -0.20743296 -0.4251912 1.0128655 -1.0734503 0.5497311 0.3117779 -0.44804808 -0.7082214 0.37619066 0.82832485 -0.6674396 -0.32443643 -0.55403405 0.033253286 -0.8857131 -0.54277366 -0.19787274 0.42130014 0.16954516 0.92657185 -0.4662991 0.44214615 0.36334246 -0.16547497 -0.029103167 0.5522346 0.6447188 -0.33285147 0.96977437 -0.51873684
senior 0.2596301 0.55138296 -0.5163264 0.4665895 0.57836676 0.99288994 -0.1214942 -0.20210378 -0.3226876 0.017764263 0.30741566 0.2829729 0.3074003 -0.56517655 0.4183156 -0.83748335 -0.52423733 0.8799988 0.33032262 -0.23766479 0.0029517466 0.34958774 0.7456705 -1.3924719 -0.44305035 -0.009048447 0.47859558 -0.0028487407 -0.3777011 -0.38764104 0.663987 -0.15053658 0.23575631 0.3387214 0.21911547 -0.60529304 0.8612017 0.5887816 -0.12343965 0.52660555 -0.930884 0.16884303 0.54160833 -0.8223742 0.011000273 -0.18145894 0.34538662 -0.23907305 0.655563 -0.24596398
have 0.81584114 0.44353002 0.7884911 -1.1456103 -0.2894229 0.1904653 0.29222244 0.24853617 -0.63478386 0.89072794 -0.334792 0.26461893 -0.062193554 -0.7438191 0.17521127 -0.09722089 -0.014496671 -0.66271055 0.28758386 -0.32932305 -0.5908552 -0.46597198 0.17494375 -0.34615818 0.18397295 0.027463017 -0.31635737 -0.58948094 0.613853 0.35353282 0.62614566 -0.3388641 -1.1083006 -1.2774619 0.6306626 0.11342458 -0.32175767 0.4011452 -0.6373488 1.2230052 -1.4705875 -0.43130228 -0.14697887 -0.4543316 0.4224656 0.6698459 -0.3472613 -0.3691977 0.618779 0.2016864
long 0.41619316 0.50193495 -0.7222527 -0.505419 0.23755226 0.29776487 0.49592885 0.07384428 -0.44505617 0.62183034 -0.7136087 0.47548428 0.82067376 -0.24975911 0.27991673 -0.40382335 -0.47130314 -0.8704923 1.028467 0.3821124 -0.29330942 0.45545083 0.30827007 0.085776575 0.4084375 0.4240174 1.2396752 -0.56761444 -0.3165217 -0.22428426 0.1501075 0.20420586 0.52913624 -0.1482879 -0.037197437 -0.3178181 -0.23491271 -0.073064856 -0.65820146 0.39078516 0.21907885 0.38393128 -0.2982012 -0.58815575 -0.21034032 0.52548707 0.21708299 0.1915751 0.061668027 0.45010135
been 0.11386371 -0.925031 1.3321321 -0.4757167 0.0074089724 0.6446541 0.49802455 0.5496497 -1.2917212 0.42449602 1.057738 0.7180348 0.24199782 -0.5594919 0.84103155 -0.66687363 -0.99571824 0.70738715 1.2319012 0.33268672 -0.7584404 -0.3954726 -0.26136303 -0.6890513 0.7690173 -0.3989765 -0.078890234 -0.9013102 0.37213072 -0.02295426 0.48398373 -0.031924475 -0.7475707 -0.46865505 0.70922023 0.018854652 0.22423294 0.6237449 -0.3673356 1.180103 -0.4655528 -0.027540091 0.4755837 -0.025328992 0.26697898 -0.043930218 -0.23877355 0.85001403 0.60835296 0.05732665
known 0.40894464 -0.14327794 0.03670667 -0.6482135 0.22946943 0.3801926 0.21649706 0.8711328 0.0059701568 -0.26162258 -0.042748414 -0.07477235 0.13495529 0.46277413 1.3601018 -0.16616136 0.7439369 0.08510542 1.127311 -0.115725435 0.2272829 0.5734543 -0.095620304 -0.2663665 0.11608272 0.8422127 0.5858147 -0.43361104 -0.19727217 -0.2984182 0.036537535 -0.046666168 -0.7295128 -0.92443 0.23577537 -0.52709806 0.20761003 0.43376708 -0.87181354 0.93831515 0.08923182 0.009520045 -0.58508 -1.1083281 0.14877138 0.92927635 -0.12495635 0.1600506 1.3521 0.034030937
similar -0.09078502 0.2583597 -0.3099286 0.3809796 0.19482352 0.78770715 0.60626733 -0.5049331 -0.56231844 0.15522736 0.05015357 0.36958906 1.1325405 0.115754135 0.5246251 -0.049588047 0.37743592 -0.074382216 1.125856 -0.5220535 0.5664095 -0.15345961 -0.36675102 -0.7099485 0.33240744 0.02221428 0.30031338 -0.6320857 0.15549283 -0.648208 -0.20353523 -0.081550546 -0.32509077 -1.1443597 -0.57615125 -0.06739684 0.08187493 0.3199383 -0.08192822 0.28710678 -0.32209545 -0.06676839 -0.046169247 0.30274358 -0.022277804 0.30664364 1.0233489 0.38614374 1.4057335 -0.18787959
which -0.50687444 -1.487242 -0.29868105 0.06369794 0.38780573 -0.14433432 0.3842992 0.30497196 -0.43164366 0.8567284 0.49228865 -0.21749115 0.17495286 0.64431053 0.048984513 0.26882452 -0.14458007 0.13007103 0.3803827 -1.1710122 -0.28224552 -0.6514126 0.42733347 -0.8353642 0.3970906 0.3295022 0.6127493 -0.437893 0.34825334 -0.4574415 0.57498544 -0.5210896 -0.30071613 -0.75595057 -0.67732817 -0.04226409 -0.53510416 0.3777904 -0.22565365 1.0442363 -0.82534045 0.46594194 0.1126501 -0.35750145 0.46123558 -0.9043635 0.080890246 0.8516732 0.17061579 0.11397275
is 0.34202084 -0.080811866 0.22496927 0.4664342 -0.128072 0.5517259 1.2978795 0.07251907 -0.81105447 0.1919413 0.099369526 0.79475105 -0.078219615 -0.07428247 0.05056491 -0.3040456 0.47506008 0.24156563 0.724921 0.2397058 -0.23402904 -0.36567506 0.7145074 -0.22799768 0.24684808 0.40087336 0.707512 -0.2765683 -0.38374695 0.09879773 -0.34773389 0.5001789 -0.055749346 0.31294486 -0.046025682 0.14490892 0.019293014 0.7339616 -0.44701278 0.28772533 -0.2741629 0.07283571 -0.068772495 -0.41720614 -0.31877452 -0.22180212 0.6941874 0.40481555 0.378915 -0.6563608
believed -0.4913312 0.27486348 0.09121653 -0.17407948 0.5242182 0.9311605 0.36186028 1.018071 -1.1764649 0.21191944 -0.54219264 0.9140352 -0.06735676 0.25023183 0.026449146 -0.021815944 0.13321489 -0.12718937 0.63779724 -0.37860924 0.19668084 -0.51231146 0.21397682 -0.9488496 0.3347029 0.23931524 0.38538054 -0.93719774 1.0774876 0.2351664 -0.7197833 -0.36907494 1.013663 -1.0248505 0.32251653 -0.7265024 0.25185695 0.45964974 -0.1786406 0.5189627 -1.0848238 0.52035266 -0.019779183 -1.3689448 0.15906923 0.7278221 0.86123216 -0.1815511 0.013298414 0.7970058
cattle -1.1248313 0.5417662 -0.34293163 0.5952558 0.32996264 0.042820975 0.21094382 -0.12156793 -0.2559612 -0.07519438 0.25194427 0.3748146 0.6496063 -0.07415855 0.011870801 -0.401625 0.26760212 -0.05255531 0.51600194 -0.7234691 0.57134825 -0.1954125 -0.38526398 -0.3981292 0.34774876 0.09222448 0.20046806 -0.5368472 0.057340104 -0.38581213 0.6555556 0.20041682 0.30065095 -0.24029861 -0.29581872 0.19617984 0.15966229 0.4399636 0.11018028 0.9365049 -0.6009893 0.036040176 -1.0362693 0.036624543 0.2035084 0.61907774 0.9199915 0.098047696 1.1165483 0.69704705
feed -1.2769864 -0.047969066 0.19121107 0.6106647 -0.73499817 0.5476346 0.828271 -0.16835645 0.13085268 -0.5241113 -0.23189005 0.44360432 0.0685927 -0.4580857 -0.29386908 -0.13417877 -0.12621261 -0.4728057 0.9018467 -0.1785505 0.22047663 0.32402113 0.4464082 -1.2128276 0.82053155 -0.36949396 -0.09378705 -1.1020204 0.55125546 -0.21422657 0.4410789 0.7568558 -0.22831453 0.29355094 0.3163887 0.3423856 0.15056787 -0.009709324 0.1628733 -0.16396022 -0.605349 0.71269083 -0.55825853 -0.050037224 0.41295752 0.7287427 1.5308944 -1.2177938 1.1570544 -0.49707016
containing -0.7725542 0.22836296 -0.16436034 0.56310326 -0.68010056 0.16461457 0.16967686 0.07089873 0.20446843 -0.116369314 0.057734594 0.37723762 0.5306751 0.2867079 0.81784385 0.51924306 -0.13380687 0.11289348 1.1245065 -0.004205408 0.17737435 -0.52028465 0.49124813 -0.3969722 0.17828287 -0.4240937 -0.23111235 -1.1599466 0.21503304 0.17189525 0.39395255 0.21156603 0.1654801 0.020297566 0.40904322 -0.119793706 -0.19440472 -0.22249548 -0.45097432 0.19493969 -0.6629065 -0.09686398 -0.20311026 -1.0018742 -0.096881896 -0.28334215 0.36770928 -0.090323895 0.39717028 0.17568198
waste -0.6883867 0.35999945 0.15391591 0.68636054 0.12667088 0.7516938 -0.26152065 0.2337141 -0.016251445 -0.026436608 0.6642931 0.28669348 1.0378363 0.518752 0.36051622 -0.15133098 -0.0064882804 -0.24242316 0.2524801 -0.040178604 0.66650844 -0.1937156 0.01807559 -0.7992504 0.08743462 -0.10534113 0.53609073 -1.0483146 0.75247455 -0.10239972 0.39612442 -0.12302762 -0.28039503 -0.31494436 0.7643786 -1.0487417 -0.38528636 -0.102053486 -0.6198731 0.6312658 0.28845525 0.18494388 0.24907468 -0.37115037 0.052961767 0.357621 0.6404458 -0.36080566 0.42660943 0.091646984
farmers -0.29625875 0.4865903 -0.27905068 0.8759248 -0.21592648 0.8940877 0.50676024 0.043472823 -0.4919642 -0.61820155 0.08725977 0.22954676 0.7434278 0.39729777 0.187153 -0.50190425 -0.9713657 -0.15072228 0.5684616 0.07333851 0.2377225 -0.24228258 1.1540021 -0.162518 0.45682648 0.077097826 0.60511714 -1.5009671 0.4543536 -0.46257916 0.34065193 -0.084551685 -0.9211399 -0.26716256 0.36115015 -0.94528157 -0.099900186 0.073932335 0.12855446 0.26921606 -0.25065383 -0.17513412 -0.24778357 0.16975719 0.35139385 0.35926956 0.09522491 -1.1508512 0.31578636 0.023749191
denied -0.20815882 0.016409488 0.30768672 -0.005430555 1.0178006 0.7148706 0.38888636 0.29586902 -0.7738891 0.5140379 -0.15077731 -0.12921198 0.5818264 0.011318633 0.88050425 -0.53347605 -0.31346482 0.72201645 0.87469923 0.13726492 1.0311104 -0.021751378 0.2699167 -0.8118355 0.34136915 0.7030059 0.8630263 -0.7811359 1.1556485 0.7715936 -0.017458452 0.5263885 0.056839477 0.2088798 0.7357925 -0.31430236 0.5912079 -0.30653235 0.16311236 0.3656486 -0.45663124 0.024050653 -0.04856615 -0.69075805 0.8486239 -0.81592095 0.34593847 0.5988965 0.3629817 -0.4469226
danger 0.48423353 0.21452469 0.18182008 -0.21205986 -0.47783256 0.28892052 0.4751058 0.35299107 -0.6451967 -0.34365156 -0.38171408 0.581193 -0.24509065 -0.3322548 1.180248 -0.4689592 0.5282706 -0.22636113 0.1882793 -0.054589655 0.39793333 0.25771728 0.22098207 -0.42939356 0.049102593 0.41464564 1.0078675 -0.698141 0.4969219 -0.42277238 -0.24960995 0.328188 -0.062500946 -0.4595534 -0.12411879 -0.40178177 -0.6171596 -0.107906625 -0.18872839 0.5312616 -0.37602147 0.53258145 -0.049536332 -0.45448735 -0.07465645 -0.25659436 0.09810417 -0.43401077 1.4736885 0.021192435
their 0.062036626 0.15794379 0.19269422 -0.097666204 0.10012363 -0.6638846 0.4514423 -0.024061302 0.41906857 -0.5264905 0.89730597 0.12059357 1.1838789 0.415022 1.0293393 0.0009301986 0.1210531 -0.64491 0.4803362 -0.23768894 -0.3183153 -0.74681747 0.48126268 -0.28069165 -0.23068815 0.027829893 0.7671144 -0.7232569 -0.28581178 0.39180955 -0.1787708 -0.36572212 0.59638244 -0.75017285 0.37068874 -0.26087666 -0.2537771 -0.2449248 0.28183183 1.2548434 -0.94006866 -1.2234559 0.20644699 0.078432724 -0.027473643 0.014207594 0.4618062 0.28135705 0.08451042 -0.26921982
but -0.70569587 -0.8795938 -0.22687882 -0.9065043 -0.33981106 -0.08023722 0.6647268 0.056110993 -0.80473256 0.3671117 -0.20754673 -0.045249328 0.5740939 0.57977676 0.022432126 -0.480914 -0.3422311 0.22083853 -0.1130941 -0.8914299 -0.6453063 0.1850675 0.08914523 -1.3137252 0.7709856 0.47377798 0.18948865 -1.2036949 -0.45454657 0.042171445 0.5932463 0.38459754 -0.120349094 -0.2577479 -0.52016664 0.050142955 -0.49541622 0.014127579 -0.28738353 0.45322868 -0.7272561 0.25713396 0.24049455 -0.94412553 0.29230237 -0.5836667 -0.130314 0.90303075 0.04689631 -0.05398726
expressed -0.21640441 0.20432562 0.08608042 0.035931416 0.028030716 0.65099186 0.32861367 -0.22173543 0.3499954 0.049846306 0.39226055 0.7787017 0.15764895 -0.29959452 0.11044829 -0.6819665 -0.48647657 0.4869944 -0.18156357 -1.2755828 0.7791566 0.36707732 0.5591416 -0.70104617 0.40408078 -0.40442196 0.317276 -0.7304545 0.4360248 0.4214123 -0.26849836 0.7859087 0.33059213 -0.48964298 0.2618295 0.7109983 0.4331057 0.59999347 -0.71965456 0.82288617 0.08239233 -0.34670746 -0.075179994 0.2736894 0.2843215 0.03170507 -0.27935317 -0.24698812 0.38765952 -0.48797932
concern -0.13541417 -0.06726755 0.05342148 0.2138399 -0.24958922 0.082539156 -0.02790553 -0.0012059957 -0.24197827 -0.046911556 0.5157919 0.8617129 0.30222642 -0.40835425 -0.7200776 -0.36290145 -0.38812453 -0.4969665 -0.3687782 -0.7959594 0.17629704 -0.6055804 -0.0013744544 -0.6394082 0.9003566 0.6837782 0.5590889 -0.33428544 0.7403837 -0.33799756 0.45858678 0.7890342 0.25816575 -0.59914577 -0.14600089 1.1060725 0.49544644 0.40566233 -0.43316686 0.5967294 -0.66552854 -0.78757423 0.09965317 0.29028058 0.59212923 -0.044187393 0.1617531 -0.54907554 0.9331584 0.013412853
government 0.30556893 -0.20316327 -0.20531894 -0.03261329 -0.0034295018 0.22225131 0.3128386 -0.56967866 -0.41035247 0.2742095 0.25829047 0.42021823 0.28356275 -0.06926737 -0.09639462 -1.3916602 -0.2730553 -0.09220316 0.20974302 -1.2798057 -0.3240088 -0.40638986 0.16764121 -0.26835993 0.43925917 0.84684694 0.59743017 -0.45410186 0.6794466 0.6555066 1.1851555 0.22778322 -0.31934693 -0.2829481 1.1990113 -0.5868869 0.16264777 0.36847615 0.2188194 0.5886715 0.12728754 0.57134795 0.14835954 0.09035598 0.14814118 0.34195167 -0.09072883 -0.38656104 0.30556607 -0.46246907
avoid 0.53790635 0.29932562 0.59051037 0.13595667 -0.2769437 0.6049124 0.18703869 -0.33428884 -0.79324275 0.8574726 0.18246938 0.6953173 0.09304207 0.1565137 0.85941386 -0.4543818 -0.47612453 0.39381772 0.19581938 -0.5564944 -0.5737864 -0.40544087 0.4551206 -0.5866266 0.7491942 0.106660224 1.55066 -1.1112117 0.94670874 -0.006631117 0.12565662 -0.6893744 -0.9640056 -0.3853664 -0.19981857 -0.21804528 0.26869762 0.41890168 0.123878546 0.41491455 -0.059977144 -0.069495164 0.014311523 -0.5631291 -0.4245304 -0.30562538 0.32427406 -0.7001009 0.7035766 0.1342851
might -0.46335465 0.10991502 0.06716817 -0.6541401 0.57833886 0.5201592 1.1808599 0.118135646 -0.45291996 0.7066305 -0.44480234 0.19961205 1.1453929 0.4244765 0.35034385 -0.58296025 -0.5046266 -0.27206028 -0.018528955 -0.49565628 -0.15524735 0.120929785 1.3917389 -1.2111212 -0.42761576 -0.31512263 1.9067053 -0.39051545 -0.3056094 0.48222375 0.022207463 0.5998795 -0.08387913 -1.128224 1.0374299 -0.43735325 0.9855235 0.09930252 -0.64596003 0.15143783 0.5060973 -0.19906469 -0.08829902 -0.42569512 -0.069992095 0.52153397 0.19456445 0.1498996 0.7957199 -0.25717115
across -0.8219876 -0.2869627 -0.12703846 -0.26471058 -0.23549537 -0.18070449 0.6672301 -0.7040737 0.0442478 1.0222067 0.098040685 0.3860788 -0.31510746 0.4975299 0.7058384 -1.3298832 0.05416983 -0.44576868 -0.10859003 -0.42932144 -0.6198607 -0.79734266 0.38985658 -1.0542446 0.16362213 -0.08379889 0.37990236 -0.516409 0.9351214 0.03565373 0.53790396 -0.1375428 -0.22569872 -0.53071874 0.81250703 0.034671392 -0.06572644 -0.1624155 -0.7231784 0.2358799 -0.93868667 -0.4260973 -0.43640122 -0.16790457 -0.47223347 -0.16235174 0.36685622 -0.5624469 0.29678857 0.16007313
Europe -0.18386234 -1.0138528 -0.25370774 -0.110132985 -0.20466931 -0.3501013 0.3825865 -0.14301448 -0.27063847 0.32933 -0.29888925 0.15689367 -0.21531238 -0.1883443 -0.22341788 -1.374355 0.5579748 -0.054855004 0.044305846 -0.62034273 -0.22195324 -0.78127664 -0.2613954 -0.048850533 -0.2560038 -0.25666457 1.1845739 -0.19177754 0.5013354 -0.7281339 -0.14549369 -0.50557387 -0.4972403 0.13142736 -0.27060193 -0.022876171 -0.30249694 0.4284249 -0.9256599 0.13689427 -0.14490242 -0.9318618 -0.5190993 0.05924188 0.53644866 0.53615695 0.14723548 -0.38787785 1.0777433 0.24149635
What 0.36308008 0.20079668 -1.2535728 -0.37302658 0.51002294 0.10908605 1.3179795 -0.6261596 0.030420706 -0.1786553 -0.86775064 0.44695857 0.18361555 0.0453806 0.1493536 -0.79289055 -0.30517092 -0.12803808 0.14869982 -0.6807092 -0.9080676 0.021169238 0.20014443 -0.004539232 0.92771524 0.38161865 0.2620635 -0.2667714 0.5114805 0.3945455 -0.333788 0.22290795 -0.67565197 -0.20886803 -0.017661566 0.7211582 0.18632905 -0.8246425 -0.2864267 0.08629652 -0.6946544 0.3338683 -0.03202131 -0.71982986 0.4123968 0.3248928 0.20416863 -0.22126892 0.78197384 -0.06582174
extremely -0.061775345 -0.24900441 -0.1528931 -0.39289638 0.26216343 0.34552094 1.0625218 -0.12222722 -0.69152874 0.1173974 0.2415309 0.3219129 0.506071 -0.32754782 0.58240473 -0.06736943 0.50089824 0.49002925 0.49431804 -0.5970121 -0.014715142 0.12094392 0.1640427 -0.39307687 -0.15558264 0.52422285 0.3802439 -0.46120572 0.47478 -0.41718927 0.021779329 0.5867538 -0.43149924 -0.4043752 -0.7681515 -0.20064756 0.016704334 -0.18431343 -0.7221605 0.14217424 -0.55061555 0.5322425 -0.2873657 -1.2860626 -0.04787861 0.21982856 0.6995142 -0.4468362 1.0633852 0.30599117
how 0.14159343 -0.43647608 -0.13965285 -0.8398576 0.00036459343 -0.031598795 0.5956919 0.37212503 -1.6514672 0.5149154 0.36448058 0.49796632 0.4215528 -0.30196372 0.57838386 0.04503598 -0.54529274 -1.0236506 0.14235829 -0.5682612 -0.527926 -0.18489236 0.7674532 -0.7266389 0.3557446 0.20919977 -0.3456334 -0.82009876 0.8348759 -0.3688477 0.7399599 0.9007638 -0.30838448 0.17531663 -0.4280271 0.31440327 -0.39880505 0.22021471 -0.319737 0.6988942 -0.54075444 0.13433108 -0.31007716 -1.1440051 0.29948577 -0.025314508 0.12588556 -0.025524084 0.0016259371 -1.1248726
going 0.36280465 0.5558068 -0.95898104 0.13037935 -0.44926548 -0.02176695 0.7199705 0.33963534 -0.14918876 -0.08681792 -0.7272453 0.9139312 0.16776012 0.22786254 0.1885839 -0.56808317 0.24260598 -1.32611 0.592464 -0.5834175 -0.4550208 -0.48841304 -0.2097909 -0.72445554 0.9567199 -0.25764257 0.9592161 -0.7693627 0.1991252 0.04167306 -0.6185833 0.8537421 0.33052212 -0.05449515 -0.47546726 0.113793 0.5992545 0.3408951 -0.2610863 -0.30852735 -0.33701277 0.92246234 -0.5320631 -0.9055454 -0.47612646 0.5066942 0.26491752 -0.9806025 0.69758874 -0.09149074
take 0.15178537 -0.80099016 -0.114120096 0.08810087 0.45328608 0.65145725 0.7791215 -0.4081689 -0.9589522 1.4535744 0.540236 0.66365564 0.42909065 0.6439357 1.0279485 -0.13186045 0.0733066 -0.09100246 0.5657793 -1.3697115 -0.5972404 -0.33708695 0.042684786 -0.06615606 -0.37327302 0.32216015 0.42226335 -0.556519 0.33685982 0.8653412 0.4767245 -0.15553224 -0.54049814 -0.5395012 -0.1688642 0.019876352 -0.07713792 -0.1202301 -0.8154421 0.3919449 -0.18824555 -0.2981081 -0.14512563 0.17606482 0.2532052 -0.4437491 0.017952831 -0.85125613 0.1646384 0.17718709
lead 0.30130777 0.021666484 -0.5930796 0.37275457 -0.5525031 0.78380126 0.83036005 0.4121531 0.59905964 0.55982554 0.66935295 0.3114678 0.04533978 0.70154697 0.89778763 -0.24089725 -0.641722 -0.63698196 0.16746368 -0.27658466 -0.39296755 -0.95415115 0.1649716 -0.049882323 1.142012 -0.50851643 -0.32477954 -0.0068034506 -0.4420077 0.7121388 -0.37700382 -0.044804875 -0.5448921 0.6526211 -1.0220615 -0.96438634 0.044274975 -0.49062064 -1.0905854 0.9587627 0.016132465 0.50432795 0.21359314 0.18180178 0.6156205 -1.149379 -0.13407685 0.06916775 0.28307572 -0.29678404
National -0.12996526 -0.28150275 -0.1193143 1.03989 0.14441723 0.13139234 0.20236544 0.38684267 -0.28241414 0.08254805 -0.0950902 -1.384787 -0.14250237 0.60359514 0.48250365 -0.80658245 -0.4699825 -0.32862973 0.15212202 -0.10708613 0.34512687 -0.6971073 0.20464446 0.5722783 0.65122634 0.7006724 0.8958241 0.48966333 -0.22098123 0.064622484 -0.0906335 -0.014278818 -0.4131123 1.407774 0.14786173 -0.1228464 1.0678406 -0.4002117 -0.93796635 1.5315061 -0.100545846 -0.16731349 0.3416642 -0.58595896 0.1693164 -0.50791293 -0.4021358 -0.75587535 0.91999584 0.94580007
