2475 50
EU 0.71184605 -0.0836259 0.96225095 0.1889415 0.2867019 -0.7934261 0.15438938 -1.0064976 0.8423599 -0.07232903 -0.42166972 0.085748985 0.17533536 -0.8907126 0.08135125 -0.48016167 0.31288648 -0.7209257 -1.0060683 0.8178469 -0.93281275 0.34094515 0.81206936 -0.3289627 0.75407684 -0.7515383 -0.84065187 0.13704298 -0.43642032 -0.17382823 0.08025678 -0.07951422 -0.6701529 -0.07148656 0.25128686 0.8166718 -0.026356852 -0.19935066 0.35584638 -1.010842 0.19454645 -1.1264821 0.27028438 -0.15624954 0.02470297 -0.73268807 0.67575854 -0.37147936 0.23749037 -0.526302
German 0.75779116 0.4423208 0.20988081 0.4876753 0.14159389 0.024606425 0.13260345 -0.3919876 1.093728 -0.20346615 0.12531368 -0.1861342 0.48447102 -0.37405962 0.15672916 -0.23592958 0.5844148 0.2634504 -0.6177751 -0.4167912 -0.07333611 0.2343201 -0.078312814 0.52327293 0.15242954 -0.27374563 -0.35398585 -0.082494274 -0.66161406 -0.32094976 0.4023209 -0.190519 0.066223554 -0.21019551 1.0086006 0.62964153 0.32199818 -0.21268335 0.6123141 0.42150703 0.5940656 0.054780565 0.0369452 -0.6212436 -0.123509355 -0.38054916 -0.04996658 -0.8005657 0.008129826 -0.46523935
call 0.4941446 -0.88346225 -0.018991357 0.07297575 0.054639068 -0.163094 -0.13848464 -0.47480485 0.2835726 -0.18467058 0.3158882 -0.17412022 -0.008804669 0.06573292 -0.58000255 -0.13541287 -0.1006785 -0.322407 -0.70452106 0.06070008 0.37473422 -0.34122482 1.3291782 0.072479896 -0.15099469 0.026827406 0.34098694 0.32689267 0.22763796 0.17226945 -0.7056129 0.2631923 0.17189576 0.9706723 -0.44781452 0.21227328 0.39900547 -0.061326623 -0.17395388 0.050783224 -0.85749054 -0.48086366 -0.54596037 -0.62542886 -0.5120068 -0.08523303 -0.221318 0.12717213 0.1228755 -0.38558573
to 0.31287897 -0.13516328 0.08346868 0.1932059 -0.07732585 -0.105664596 -0.26849535 -0.07834422 0.39410362 -0.20759872 0.3360311 -0.059680145 -0.27025205 0.07141738 -0.16075096 -0.003845837 0.019851293 0.20132123 -0.5730796 0.27086028 -0.19468485 -0.24919933 0.7081218 0.2009347 -0.0067295604 0.015760053 0.014928016 0.09665981 0.18046378 0.012734434 -0.08728461 -0.12809211 0.08724745 0.07281144 0.15010825 0.2810143 0.13835946 -0.10369845 0.12870984 0.034041896 0.015733922 -0.12208318 0.45972028 0.017096827 -0.2356347 -0.19352627 -0.23138592 0.22230822 -0.08670261 -0.21716729
British 0.41883382 -0.059813045 -0.07342151 0.60310954 0.27241853 -0.04296535 -0.05953257 -0.7121327 0.4526583 -0.39288536 -0.050864182 -0.06442391 0.66173154 0.10749233 0.48503032 -0.32660848 0.42466596 -0.05317494 -0.5664419 0.07411498 -0.2548574 -0.14664534 0.23436928 0.1039319 0.17489386 -0.31799653 -0.3997942 0.29671016 -0.30768368 -0.02989899 0.08317924 0.2690919 -0.55994755 0.22524099 0.5333617 0.6845452 0.29580674 -0.17511423 0.27410167 0.62205464 0.42810664 -0.5039135 0.6017903 -0.17870103 -0.09859877 -0.099892326 0.020782582 -0.8486124 -0.0024271505 -0.108638056
. 0.330862 0.16145776 0.0859766 0.15781905 0.030119924 0.38585204 -0.58221614 -0.21880892 0.39198595 -0.15949811 0.004160072 -0.2611125 0.07845485 -0.023650091 -0.23402637 -0.10744441 0.1295753 0.040975958 -0.32479087 -0.056477055 0.10827741 -0.040099803 0.26667863 0.12913528 0.08624815 0.11351136 0.1194307 0.0006733476 0.021096565 -0.010059716 0.09640704 -0.2794951 0.063333824 0.08964398 -0.011408502 0.080248825 0.1916698 -0.25658756 -0.13407552 0.09533488 0.09445502 0.027814388 0.1411957 -0.18900073 -0.4168051 0.13273326 -0.15042791 0.15993263 0.1747734 -0.09996935
Peter 0.16376287 -0.22800484 0.019760566 0.46300983 -0.74217296 0.01835111 -0.1996918 -1.058521 1.4760896 -0.07205513 0.1861985 -0.32744107 1.3465718 -0.5494788 -0.609191 0.27070445 -0.25265992 -0.28686863 0.48019508 0.44409493 -0.049737137 -0.03558832 -0.5376192 0.14096047 0.45908406 -0.29975644 0.5108505 0.00047642348 0.15480742 -0.103679866 0.003491576 -0.64563704 -0.12485203 0.19987783 -0.25497356 0.95032 0.32931355 -0.5192044 0.76520056 1.0730338 -0.09641839 0.3003373 0.26955014 0.21732017 -0.37748048 0.36529994 0.3531919 0.44208187 0.062988825 0.0024818792
Blackburn 1.0623466 0.030697457 0.29392216 -0.21502405 1.0175141 -0.47049773 0.4977249 0.28490505 0.7538395 -0.39252174 0.27072164 -0.6736664 1.1215372 -0.73313695 -0.81888866 0.058629997 0.6836829 0.19396788 0.19793195 0.14275178 -0.18861961 0.42258835 -0.6475978 0.41508198 0.29610303 -0.5778156 -0.013200755 -0.0703908 -0.13736428 0.09384009 -0.35974368 0.7589226 0.55275494 0.5892799 0.7503 0.8640577 -0.01915882 -1.4342649 -0.5219457 0.040990014 0.11907156 -0.09711827 -0.057079047 0.8584255 -0.62797004 0.7964886 0.15542482 -0.2980661 0.15524903 -0.35898122
BRUSSELS 0.90969545 0.03809381 -0.18353255 0.8495553 -0.49359772 -0.35271782 -1.1409376 -0.9064971 2.0251188 -0.5388322 -0.39625424 -0.087701224 1.0792458 -0.2307889 0.011237874 0.45217684 0.5532486 0.3973992 0.058944877 0.06017952 0.5521502 -0.8365487 -0.23754133 0.73995507 0.066077426 0.20216773 -0.609018 0.2589828 -0.6313965 0.08184405 0.63101053 0.10933991 0.9244477 0.06333421 0.604253 0.08942489 -0.54375464 -0.90841997 -0.68547785 -0.29743484 1.2994684 -0.8256915 0.38955066 0.26878482 0.6065567 0.558462 0.16154335 -0.5142915 0.055582404 -0.5589891
1996-08-22 0.8167658 -0.29634222 -0.9339022 -0.44254583 -0.29323578 0.1314121 -0.36451656 -0.311976 0.7608974 -0.65575206 -0.65877354 0.16626333 0.3298041 0.14232084 0.30603352 0.08649592 0.37676567 0.120681755 -0.9134513 0.30309314 -0.06494709 -0.5557411 0.97216755 0.058211636 -0.31206775 0.45646587 0.80792946 0.60687125 -0.52284926 -0.1315924 0.25746095 -0.091180325 0.25287265 -0.24925357 -0.39449713 0.06590078 -0.40945593 -0.6991934 -0.16550232 0.5103032 0.7821513 -0.23321101 0.40199465 0.08445947 -0.025299301 -0.131505 0.3959596 -0.07415675 0.083913855 0.10173317
The 0.27204505 0.09607803 -0.0051266868 0.1429179 -0.10602233 -0.07706597 -0.41804713 -0.15005207 0.6332556 -0.22855513 0.3225232 -0.15168788 0.30457103 0.1929423 -0.20850317 -0.22835144 0.15604535 0.03580734 -0.5978585 0.18584883 0.29781905 -0.17010157 0.3109674 -0.017760772 0.02874806 0.015147155 0.22508952 0.031911813 0.22377549 0.031073952 0.060886893 0.13315935 0.224532 0.28237686 0.21969329 0.26314482 -0.029097468 -0.054544173 -0.19984463 -0.018359365 0.04957036 -0.23781075 0.3080855 -0.07636751 -0.24352196 -0.3215016 -0.0720515 0.050673377 -0.070619725 -0.16170466
European 0.6161838 0.06368189 -0.3029198 0.2143543 -0.06459714 -0.5018274 -0.4046984 -0.10952538 1.4080801 -0.91191745 0.18234526 0.08634304 -0.2316124 -0.6090765 0.29622653 0.040669207 0.119063586 -0.100886725 -0.11385679 0.21029396 -0.07657518 0.37933433 -0.12499847 -0.29339057 0.020064017 0.033010468 -0.30455777 0.48161566 0.067708045 0.20007639 0.49388972 -0.028573034 -0.10870445 0.3534753 0.8125752 0.94876873 -0.07507196 -0.4959098 -0.56476253 -0.6549307 -0.16320126 0.007136181 0.0839363 0.27057862 -0.5520377 -0.20225622 0.098849036 -0.041898035 0.009363858 -0.72119105
Commission 0.36032757 0.05321911 1.0975777 -0.48151556 -0.041154925 -0.6078528 -0.31884918 -0.78030604 1.0639907 0.29257536 -0.3034166 0.50862557 0.60526496 -0.6624303 -0.79180866 0.03695697 0.21276014 -0.58034295 -0.2210746 0.18591408 0.61355215 -0.17844842 0.11469483 -0.29241726 0.2088647 0.009559368 -0.3569405 0.2177403 -0.11108287 0.40223092 -0.6376199 0.5632718 0.41822505 0.92137694 0.5853172 0.95600563 0.5378035 -0.7222355 -0.12757036 -0.56912 -0.35598412 -0.5988683 -0.42048195 -0.7765847 -0.4773466 0.44061816 0.84669423 -0.39888355 0.5976974 -0.9058457
said 0.7125009 -0.001395945 0.33496806 0.13849592 0.20389158 0.029168827 -0.5292815 -0.23672493 0.23087794 -0.3950801 0.024414068 -0.17061928 0.34638464 0.24653023 -0.009643283 0.06251416 0.27389753 0.022637583 -0.2715948 0.40709397 0.32533056 -0.26741794 0.4704277 0.1753075 0.36101148 -0.12254501 0.25062978 0.093390584 0.111467615 0.12545903 -0.22558136 -0.23545259 0.08576064 0.25688547 -0.129588 0.10596614 0.27835137 0.02876268 0.09435611 0.18815093 -0.12583166 -0.3737643 0.057811014 -0.20232469 -0.39791116 -0.091429405 0.17245544 0.050307345 -0.07214261 -0.45169607
on 0.49860284 -0.10783841 -0.06617463 -0.06120447 0.29863614 0.14914453 -0.119822755 -0.106027775 0.6071837 -0.5137163 0.23107944 -0.25407162 0.23630247 -0.08237924 0.086906284 -0.27827892 0.2932634 0.14154641 -0.6283419 0.1499407 -0.039960083 -0.18825701 0.0133261 0.25992998 0.2011601 0.055898998 0.15189849 -0.16182739 -0.011233572 0.08781804 0.08246763 0.045794226 -0.10926249 0.40097818 -0.1425846 0.19687076 0.26693982 -0.16941866 -0.14384927 -0.10264008 0.09765302 -0.13114515 0.3384869 -0.09205003 -0.07058914 -0.037790205 -0.36128548 0.07903697 0.026032686 -0.38067877
Thursday 0.7001394 -0.1547776 -0.7301012 -0.4135606 0.2273281 0.21374506 -0.40493792 -0.12018901 0.6133187 -0.48346242 0.13732226 -0.54831064 0.23384646 -0.3071795 0.4559798 0.05414136 0.25965467 0.26688442 -0.9386346 0.3494685 -0.15938535 -0.12735125 0.16919504 -0.1750153 0.3589576 0.40057763 0.33591205 -0.030593086 -0.16999495 0.13309442 0.007470443 0.21086094 -0.33529434 0.028172478 -0.64757353 0.3691698 0.36818367 -0.14480653 0.38974744 0.22922844 -0.20270188 -0.6363677 0.24437508 0.13469192 -0.11154183 0.12902552 0.14917794 -0.33543894 -0.21912837 -0.19513236
it 0.568835 0.09560671 0.340971 0.14595036 0.045790542 0.07888973 -0.32435158 -0.34590298 0.36450005 -0.11610709 0.14399013 0.21450248 -0.27794245 0.10706081 -0.27765617 0.2601698 0.05531662 0.17181054 -0.25119007 -0.048076335 -0.270668 -0.07053444 0.4632976 0.37462968 0.08651171 -0.1604842 0.520368 0.10417784 0.13922854 0.35800457 -0.12884192 0.17379798 -0.41456383 -0.029862257 0.106494986 0.5095724 0.7906095 0.14344333 -0.056877058 0.0736199 -0.2432541 -0.47742745 0.46767595 -0.19513805 -0.209933 -0.17538759 0.083049245 0.13134784 -0.033001002 -0.31175077
with 0.40576267 -0.211639 0.08289205 0.3583385 0.0028192247 0.2514817 0.0075814878 -0.076602764 0.4079943 -0.22922501 0.45696315 -0.035179798 -0.2058889 0.35339716 -0.042930827 -0.21222495 0.16985026 0.060591158 -0.6317656 0.3724219 0.20752181 -0.1842442 0.45260525 0.1298763 0.002601781 -0.34643793 0.095110625 -0.042716697 0.036425315 -0.21123832 -0.06744316 -0.016142942 0.03751588 -0.048347857 -0.015215662 0.16464025 0.04303805 -0.3953563 -0.09798411 0.29291916 0.14756687 -0.0046265074 0.31219926 -0.03808416 -0.3501789 0.071462385 -0.10207795 -0.04640725 -0.038684662 -0.084133014
until -0.026594216 0.4177916 0.24114114 -0.38404 0.40988517 -0.096804745 0.15062518 0.17894134 0.7712462 -0.15704864 0.5088901 -0.038793877 -0.13332887 -0.30499756 -0.739285 -0.35765582 0.2897897 -0.23995401 0.022391446 0.061016593 -0.46378553 -0.54089665 0.6516948 0.77458787 -0.24977966 -0.46942696 -0.22525534 0.42980814 0.4279737 -0.30097628 0.08274056 0.38872898 -0.172829 0.5763429 0.054362148 1.1302047 0.40826896 -0.34381276 -0.13455884 -0.01291082 0.18410553 -0.284957 -0.010187596 -0.5889931 -0.045167062 -0.3425543 -0.11791012 0.15578745 0.3073552 -0.34317175
determine -0.12938273 0.5353357 0.41331345 -0.6451024 -0.39015663 -1.0397987 -0.3059136 0.061252773 0.67740816 0.13277124 -0.46046966 -0.51405287 0.0025929725 0.19336286 0.3254974 -0.36336523 0.2889737 0.11478764 -0.30575216 0.33302113 -0.5147841 -0.69526964 1.9970052 0.020530347 0.7141034 -0.79154766 -0.65346384 -0.034194395 0.55775744 -0.50553143 -0.60116696 0.33644968 -0.538124 0.30308914 0.48976249 1.2829914 0.10082115 -0.30692765 0.120893165 -0.040271606 -0.73207235 -0.40027457 0.34029374 -0.5684973 -0.35868338 -0.48646024 0.031328116 -0.5065898 0.17907831 -0.3872809
whether 0.48447645 0.069780074 -0.23048061 -0.14985622 -0.08620949 -0.95211506 -0.339301 0.066852055 0.37144983 -0.029109836 0.5908326 -0.20353095 0.13131675 0.008612146 0.2745634 0.4482563 0.15461259 -0.05719713 0.27959296 0.5842303 -0.72197753 -0.7509156 1.343795 0.13708834 0.74323314 -1.0078797 0.1312413 0.03500976 1.0548044 -0.88391274 -1.2366049 0.39735967 0.01954003 0.5119569 0.002257426 0.5464523 0.25655827 0.7408905 0.48437572 0.035999835 0.09994332 -1.4012513 0.64233816 -1.1194808 0.26684955 -0.7320548 0.34360594 0.05431076 -0.1099992 -0.46936738
mad 0.30528325 -0.3645717 0.18068449 0.07910373 -0.8256569 -0.38518256 -0.5739028 -0.959557 0.670872 -0.16664957 -0.3635878 -0.21102518 -0.5792457 -0.19070588 -0.47230205 -0.0971731 0.04717765 -0.13233782 -0.047584552 0.05315723 -1.4386045 0.7230072 0.8644409 -0.4324314 0.47643247 -0.90593326 -1.4264625 0.3570669 0.40000364 -0.63586104 -0.080598414 -0.75419825 -0.88032126 0.41729897 0.5313627 1.4302849 0.110612504 -0.07743276 -0.34129938 0.21250916 0.06843148 -0.8576661 0.18786916 -0.674497 -0.1826498 0.034420017 0.30888307 -0.54049 0.4565571 0.20513648
cow 0.29154426 -0.24587952 -0.25019068 -0.36105978 -0.7149488 -0.31886348 -0.4401525 -1.1406373 0.82325375 0.041006323 -0.0031303142 -0.07058365 -0.6334313 -0.7112908 -0.1858932 -0.045674972 0.087577865 -0.5470025 -0.040585723 0.1475213 -1.0528963 0.5796146 1.098969 -0.5108296 0.40638348 -0.88110423 -1.4261775 0.4842765 0.32990435 -0.1767015 -0.8142532 -0.7085563 -1.1214681 0.15238038 0.5583981 1.3265208 0.2225522 -0.18439111 -0.2773412 0.28975734 0.62866503 -0.58539647 0.1342746 -0.87486863 0.081794865 0.39505178 0.43968192 -0.6507447 0.22303118 -0.19940816
disease 0.19202596 -0.6798786 0.42586175 -0.48527578 -0.3520181 -0.14987698 0.072012804 -1.3500863 0.5870207 0.532977 -0.11401862 -0.59979814 -0.3687567 -0.36748987 -0.1844183 0.5531962 -0.06728282 0.120197944 -0.10981077 0.526696 -0.361018 0.1888951 0.8982672 -0.4310894 0.26440048 -1.3882067 -0.6646883 0.2363612 0.6350631 0.5879434 -1.5308295 -0.76314646 -0.33296245 0.5170085 0.20342508 0.75401056 -0.023873223 -0.1355954 -0.3279848 0.14028941 0.18805927 -0.56583667 -0.07907196 -0.6577712 -0.14528939 -0.35429838 0.025573535 -1.0812463 0.23926444 -0.0038967696
can 0.59257406 -0.27527332 1.0586853 -0.2498193 -0.54226 0.1543458 -0.32396924 -0.5204498 0.45331365 0.38202113 0.25144845 0.02125065 -0.8190768 -0.12706344 0.22365752 0.38563162 0.57373744 0.16678894 -0.17925721 0.23077406 0.016822178 -0.65465844 0.40101668 0.55905455 -0.16015524 -0.72927254 -0.68843794 0.0015569647 0.31309325 0.23380114 0.117938325 -0.47451338 0.103407174 -0.09770475 0.4589681 1.0868963 0.096947476 0.043463215 -0.0051228334 -0.28081316 -0.06391869 -0.73450893 0.50616115 -0.43228617 0.11426783 0.24836041 -0.31593087 0.41957915 0.084046446 -0.21851
be 0.40127012 0.24355772 0.017537287 -0.1513862 0.07040949 0.073928066 -0.3265832 -0.094009645 0.18073079 -0.5263931 0.3873567 -0.015595431 -0.23094368 -0.2598774 -0.14265336 -0.023523577 0.39573082 -0.31354314 -0.30331746 0.33931905 -0.38647437 -0.06441312 0.48235285 0.27308512 -0.46128055 -0.34631208 0.035514645 0.026714914 0.4248955 0.0072990996 -0.30175653 -0.3262645 0.017643144 -0.1808319 0.238394 0.78719056 0.014911221 -0.057371065 0.31704572 0.48780078 -0.19650386 -0.77494806 0.32264355 -0.34659028 -0.40525168 -0.4715046 0.29304376 0.27718702 -0.09195022 -0.16567902
sheep 0.57080716 -0.53555036 1.1607506 0.08864862 0.49346042 -1.0544297 0.3965014 -0.34359452 1.1804004 0.34890586 -0.6016356 -0.0017572147 -0.12268122 -0.7389522 0.032615524 0.6633138 -0.15656987 -0.13066092 -0.06246566 0.42787963 -1.0513357 0.6153448 0.058450118 -0.12453041 0.5866384 -1.5743523 -0.23393393 1.3764303 0.6276786 -0.74551576 -0.17682725 -0.29382056 -0.5337832 -0.6555408 0.4678859 1.9895312 0.43177244 -0.37254426 -0.18655764 -0.35601985 0.8213787 -1.4514861 0.43025157 -0.27517295 -0.061630733 -0.36414096 0.048257057 -0.49778253 0.45670533 -0.40114725
Germany -0.020253552 -0.30263823 0.21752562 0.32840487 -0.5406778 0.13760616 0.04857441 -0.53035146 1.1630694 -0.3293192 0.13144201 -0.22452785 0.35111004 -0.20169322 0.13582215 0.20860288 0.08151872 -0.14201398 0.21195202 0.37010494 -0.36597928 0.33823904 -0.35547572 0.15149392 0.67376167 -0.49102962 -0.19106208 -0.21687675 -0.61117786 -0.6928162 0.19922301 -0.41229385 0.10521889 -0.27149817 0.43621397 1.198376 0.6772897 -0.77103 -0.4886622 0.24372455 0.41933218 -0.046731263 0.2543208 -0.3429719 0.011394938 0.32106388 0.3730796 -0.2908462 0.56420517 0.47785425
's 0.44476587 -0.21669295 -0.021358209 0.42015344 0.17956829 0.18302342 -0.47091183 -0.22411314 0.7359006 -0.18576126 0.3570033 -0.03382628 0.08937017 0.09749951 0.11698677 -0.117082596 0.0054160478 -0.19563086 -0.29040584 0.18771778 -0.27930105 -0.07793618 0.10353993 -0.21746908 0.11326726 0.0358016 0.13126501 0.010780493 0.06199278 0.04731421 0.26269552 0.2203518 0.20929213 -0.021693276 -0.0011759367 0.04955236 0.24773012 -0.09947885 0.074158415 0.13742474 0.30280837 -0.13130164 0.029734887 -0.34039038 -0.2633419 0.16247587 -0.0308152 0.26355952 -0.015156771 -0.10858493
the 0.44016373 0.108207636 -0.04119684 0.17749739 0.04603853 0.11514596 -0.2804662 -0.034822907 0.52250737 -0.3233123 0.5766067 -0.10887404 -0.1414003 0.21482092 0.031610817 -0.062075026 0.09301843 -0.009066483 -0.48529255 0.25861916 0.10894042 -0.14878552 0.32106256 -0.041142054 0.071108535 -0.013249359 0.044954717 0.03773153 0.13619246 0.15470581 -0.06671857 0.18389897 0.060089257 0.043894425 0.17217104 0.30150062 0.14773217 -0.115226746 -0.06167731 0.10840393 0.20704627 -0.0051780264 0.14382347 -0.21999018 -0.23842739 -0.22054017 -0.13394366 0.023997106 0.093598045 -0.22880404
Union 0.7277805 -0.06899051 -0.1086104 0.37459475 0.8320246 -0.60008734 -0.42704043 0.008501183 1.0109813 -0.98516804 0.46665496 0.040932294 0.16611607 -0.2598419 -0.36885333 0.5958665 0.69159985 -0.81541723 -0.656594 0.36841705 -0.23595233 0.3593201 -0.5145286 -0.44517186 0.60260594 0.08566777 -0.46774033 0.4690914 0.09906624 -0.15948102 -0.6137733 -0.41825727 0.057775002 -0.5460303 1.1771381 0.41125983 0.7103277 0.039756835 -0.32287115 -0.4448765 -0.71266353 -0.16984358 -0.25663567 0.4468601 -0.5659325 0.4430511 0.4264831 -0.10029123 0.13434982 -0.28212383
committee 0.91450137 0.1644159 0.30127978 0.4863601 0.611086 -0.12449599 -0.16617467 -0.2192566 0.77978104 -0.8399497 0.16945678 0.64658463 -0.16089544 -0.5303325 0.097826965 0.24171366 0.20567061 -0.2913981 -0.2231518 -0.03317496 -0.11602071 0.8612806 -0.13167514 0.06271034 1.1389574 -0.2836193 -0.7795784 0.05974572 0.05125007 -0.39325827 -0.6780044 -0.4783781 -0.21364273 0.83186984 0.025360418 0.61206865 0.36936224 -0.0027222398 -0.34622315 -0.1470265 0.09121487 -1.0132446 -0.10542152 -0.5194326 -0.8238881 -0.43371934 0.8968896 0.21984749 -0.6314367 -0.28639162
Wednesday 0.6445806 -0.114735544 -0.14672473 -0.15520172 0.38442814 0.27060032 -0.12518883 -0.039046153 0.5155233 -0.72598153 0.45796794 -0.36626634 0.39530465 -0.6122405 0.41127965 0.069045305 0.37017196 0.11450568 -0.53843313 0.14250113 -0.13895251 -0.18566242 -0.019237347 -0.1337049 0.46005458 0.2545826 0.24593537 0.010181282 0.18122385 0.3036213 0.11550517 0.30532837 0.0057779266 0.36312926 -0.58646256 0.45971227 0.3610158 -0.20981492 0.0034625367 -0.036646813 0.22310236 -0.31245595 0.25909913 0.14329824 0.044305764 0.29253444 -0.098000914 -0.06401727 -0.14188969 -0.3107646
should 0.48098087 -0.17998764 0.26614577 0.5180046 -0.068514094 0.022141777 -0.248091 -0.071177125 0.61956656 -0.7027758 0.15762424 -0.15059274 -0.6068237 0.27979425 0.23286301 0.24883634 -0.083969705 -0.55313444 0.029961187 0.10563686 0.07039575 -0.5681505 0.68976694 0.23419756 -0.04072007 0.06507189 -0.28543848 0.48248088 0.4679984 -0.2974744 -0.46998972 -0.5475277 -0.38877696 -0.043493375 0.5560455 1.2656516 0.017916132 0.21736011 0.4460673 -0.17936061 -0.38267672 -0.020481268 0.05181191 0.035116464 -0.1715546 0.2437676 -0.16050044 0.84340036 -0.48383135 -0.872051
buy 1.6118171 -0.08442487 1.0831695 0.17830607 -0.13543725 -0.68015194 0.007686345 -0.5654051 0.1894603 0.1006815 0.35392645 0.039687824 -0.208726 -0.65557075 -0.2876822 0.6276608 0.46854693 -0.082823224 0.47254118 0.25216487 -0.03754799 0.043628022 0.56399584 0.59136546 -0.32076862 0.48473924 0.5749148 -0.104502864 -0.10768749 0.27682084 0.12555327 0.078508206 -0.731219 -0.0012852026 1.2512612 0.2342869 0.45194793 -0.50785434 0.5139018 0.1890146 -0.055243507 -0.7838984 0.9834956 -0.01793832 0.083151236 0.17584282 -0.013594825 -0.17607401 0.049812973 0.41439176
from 0.2837659 0.075883664 0.3027126 -0.03452912 0.34468085 -0.25534454 -0.24525695 0.10619535 0.35396194 -0.2463799 0.2789907 -0.080474705 -0.19970936 -0.06880672 0.0046826964 0.13568456 0.16155364 -0.01865612 -0.53200024 0.2508365 -0.16693287 -0.1705369 0.5655675 0.14471912 0.14211437 0.13652122 0.028030733 0.22244394 -0.07246567 0.16847658 -0.05472532 -0.07293289 -0.03837065 0.114152014 0.012164161 0.029714935 0.29512846 -0.39368623 -0.02162831 0.0049069156 0.53141105 -0.12695575 0.5396323 0.08814964 -0.379136 -0.19382846 -0.3301676 -0.17731242 0.16148825 -0.10005575
countries 1.3568401 0.2384781 0.26345292 0.19120303 -0.17034064 -0.8146163 0.024975147 -0.28708002 0.40507928 -1.0336411 0.42245913 0.72877526 0.24664892 0.17598708 -0.14181724 0.3795718 -0.64870346 -0.014526063 -0.2984351 0.554981 -0.21585982 0.20659257 0.112739176 -0.34303257 0.071111895 -0.6561059 -0.98134834 0.036508277 -0.16469435 0.14299488 0.36876222 -0.26927745 -0.26113096 -0.6060609 -0.103451766 0.33218652 0.26490363 -0.5564842 -0.54952455 0.019824684 -0.533529 -0.6160171 0.32833073 0.16753338 0.07771898 -0.6535291 0.23161839 0.22087273 0.8762411 -0.16473395
other 0.70194113 0.32381853 0.61728066 0.07364118 -0.111912146 0.00016386357 0.02636684 -0.22770703 0.39888677 -0.43947747 0.37602642 0.0947035 0.24571489 -0.0063773193 0.25235838 0.5217593 -0.045947853 0.5662476 -0.5361013 0.13772364 0.093044154 -0.28250986 0.28936008 0.06336359 -0.04667773 -0.5947568 -0.62707907 -0.066423744 0.20111397 0.13446885 -0.0288201 -0.093657576 0.21848115 -0.56469744 0.3090799 0.32336235 -0.16604567 -0.32428515 -0.13407394 0.3898506 -0.092722565 0.16195132 0.28094727 -0.27083677 -0.24752986 -0.38609847 0.21876082 0.04677461 0.52458 -0.35972032
than 0.71622115 0.27732757 0.26250046 0.40606135 -0.087565444 -0.07865701 -0.29824176 -0.6663554 0.14394902 -0.09276169 0.513242 -0.5738089 -0.48823822 0.19171724 0.10620228 0.46553785 -0.20546184 0.6327036 -0.11084678 0.46331644 -0.29398835 -0.24116829 0.2866151 -0.69825095 -0.10101381 -0.79395324 0.46544266 -0.3137434 -0.034834474 0.12972644 0.14352024 0.59550965 -0.4145734 0.3407843 0.32395196 -0.05835921 -0.23045535 -0.5324374 0.091458924 0.39458892 -0.27510425 -0.8467524 0.9529236 -0.38147673 0.02622978 0.14501432 0.006643364 0.04535307 0.803496 -0.369686
Britain -0.12754919 -0.66683155 0.24501754 -0.07372703 0.1998129 -0.55956036 0.42297345 -0.678556 0.9492272 -0.23264705 0.032516025 -0.42167333 0.39955527 -0.01520787 -0.37447983 0.19675416 -0.16893625 0.18499397 0.2793172 0.7750411 -1.1649196 0.20076269 0.095704526 0.31943047 0.4215402 -0.08911033 -0.5730063 0.57380146 -0.40328446 -0.3824054 0.21603136 -0.14816484 0.13759309 0.11672109 -0.11973114 1.048896 0.37418544 -0.37199172 -0.26885232 0.19434267 0.5756213 -0.50756 0.46146792 -0.33700475 -0.105679214 0.3941576 -0.3454462 0.25751194 0.5976411 0.6132675
was 0.08417872 -0.07741525 0.26782846 0.3014409 0.13494726 0.04775301 -0.408319 -0.03929004 0.56153035 0.029793428 0.45574167 -0.32875478 -0.21387257 0.12245445 0.38425565 -0.16079505 0.45452094 -0.102063194 -0.349072 -0.04598576 0.0057508345 -0.33450058 0.35778913 0.046323936 0.1746062 -0.41006818 0.17966783 0.0076326276 0.22257002 0.03228983 -0.19803828 -0.05127845 -0.24447905 -0.048116274 -0.20711283 0.33053026 0.29482147 -0.12605646 0.08203426 0.3432445 0.075075075 -0.21810526 0.1800644 0.12184077 -0.41360846 -0.5118365 0.084864005 0.084984824 -0.18690166 -0.4443729
" 0.6854917 0.14428204 0.19006352 0.2771075 -0.033476524 0.35613647 -0.46380025 -0.3057761 0.08783368 -0.17454104 0.296974 -0.032009218 -0.008806714 0.36596525 0.112886146 0.031848412 0.29648504 0.009812536 -0.1867711 0.3149734 -0.05248848 -0.25026992 0.45510957 0.21171816 0.30895293 -0.199284 0.02000514 -0.0032925792 0.18022479 0.19639535 -0.06291421 -0.14914742 0.3632786 -0.052420966 0.060009662 0.26208878 0.394981 -0.16258211 0.23729244 -0.03927492 -0.20953673 -0.39292753 -0.0913576 -0.2667581 -0.32858986 -0.14247139 0.16259745 0.42935786 0.031103328 -0.24733691
We 1.1240729 -0.15980668 0.13814653 -0.20215961 -0.22713776 0.13300212 0.08202431 -0.049214788 -0.0009042754 0.041377388 0.82017195 -0.23602234 -0.3584511 0.8658754 -0.21163788 0.31486702 0.33987793 0.35726804 -0.3351538 0.5562044 -0.24066944 -0.6770736 0.35337114 0.42438668 0.6807126 -0.10771723 -0.6047862 0.3564408 0.20221688 -0.07438138 0.009102909 0.012022972 0.98064643 0.08324044 0.20033233 0.7516763 0.21486636 0.18775395 0.25750905 -0.518362 -0.30634168 -0.5779729 0.73817897 -0.35428968 0.09055225 -0.9758955 0.39326626 0.019473972 0.24221149 -0.3425777
do 0.8059752 -0.25101075 0.34576622 0.072227225 -0.35179412 0.119665064 -0.63539094 -0.57266647 0.090948015 0.10707442 0.16091497 0.065825604 -0.5684576 0.51196146 0.05759326 0.43217966 0.39185604 0.5935449 -0.06305218 0.33597237 -0.46983007 -0.4214093 0.31125778 0.5889037 0.26758048 0.2807885 -0.5970002 0.119366065 0.2928381 -0.04059866 -0.3930558 0.19174318 0.13280912 0.085118234 0.1631702 0.9893348 0.09367977 -0.2533438 0.4440132 -0.15396224 -0.48571074 -0.57305837 0.50837874 -0.8332153 -0.64198744 0.010992715 0.068859145 0.5824266 -0.33401686 -0.17609698
n't 0.8410629 -0.2858911 0.4343214 0.82123125 -0.11590368 0.42012417 -0.36410803 -0.2362353 0.11155139 0.5934499 0.3401743 -0.106587976 -0.652874 0.098171756 0.10713132 0.6826326 0.5668406 0.9978263 0.17081048 -0.27843854 -0.028796224 -0.32917097 0.30551183 0.53527147 0.543298 0.55383295 -0.9364639 -0.31158468 0.20424782 0.60219014 -0.36452875 -0.2866571 0.38718203 0.029298423 0.21334541 1.4145344 0.40100545 -0.43486986 0.49777806 -0.21746388 -0.30422434 -1.1094201 0.4907326 -0.8420265 -0.65969574 -0.09495355 0.27876675 0.8037397 -0.15335745 0.13263153
support 0.34372193 -0.4022577 0.48563734 0.20484161 -0.25450572 0.106922366 -0.21663108 -0.48679668 0.23765087 -0.64153725 -0.07556115 0.14873253 -0.573865 0.05957038 0.31373036 0.27530482 0.06916335 -0.07620301 -0.43948835 0.2447445 0.14530808 0.2961447 0.9136525 -0.13318424 0.54348 0.44487125 -0.08590998 0.36612844 0.39009532 -0.17561878 -0.22821257 0.20633012 -0.13840444 -0.25702024 0.2795556 0.2585554 0.031700365 -0.89589256 -0.6004172 -0.10605865 -0.016068751 -0.40976787 0.05374615 -0.5986033 -0.3104381 0.266011 0.13213354 0.018091766 0.07633097 -0.36161357
any 0.42029798 -0.4371038 0.2023049 0.19500455 0.18349141 0.034223642 -0.14643136 -0.21201183 0.5988292 -0.092863426 0.28827477 0.024985198 -0.4985536 0.23763333 -0.06973366 0.5725058 -0.24044606 0.49351618 -0.5731291 -0.0657628 0.35503373 -0.64714354 0.19351566 0.4121922 0.5507153 0.16259734 -0.028857289 0.079146855 0.65791947 -0.17799804 -0.39625338 0.5304147 0.40383762 0.19998568 0.6147592 0.8289747 0.10203057 -0.44537488 -0.044425566 0.056061003 -0.5467606 -0.73900825 0.025288943 -0.7574615 -0.32233164 -0.36474985 0.038100056 0.15115346 0.55944717 -0.62375116
such 1.3185829 -0.1289789 0.3104353 0.3207403 -0.26493812 -0.3195968 -0.5346318 -0.39883262 0.38888207 -0.51828635 -0.061265383 0.63858306 -0.13094571 0.10783963 0.51104444 0.39352143 0.2782004 0.022546755 -0.13124551 -0.036984034 0.37641504 -0.2413579 1.0850495 -0.23888405 -0.021353742 -0.43755 -0.21306047 -0.035076708 0.63906467 0.03073315 -0.087775804 -0.26899287 -0.31451997 -0.6424357 0.29330447 0.5132291 0.32368833 0.17851979 0.13693579 0.38803753 -0.19870648 -0.4892686 0.049943782 -0.14102161 -0.27379563 -0.4150668 -0.5848102 0.5653967 0.2823859 -0.1275077
because 0.48904333 -0.045380875 -0.4261046 0.55881226 0.32660803 -0.18864956 0.014937148 0.27273676 0.29937077 -0.26464304 -0.07915508 0.046250574 -0.44495288 0.4121212 0.042549282 0.48250276 -0.09954053 0.14856227 -0.11115416 0.54165083 -0.08708655 -0.26317585 0.7016542 -0.026820246 0.06583778 -0.24985321 -0.08575616 0.13855188 0.8624557 -0.15695283 -0.2899975 0.6313946 0.3823616 0.5450855 0.25560075 0.27489075 0.5298849 -0.70086837 0.4478117 -0.10198817 0.34474894 -0.7949403 0.35034126 -0.3506571 -0.42803076 -0.28691292 -0.35597813 0.5770398 -0.01984636 -0.35182703
we 1.3157007 0.3564546 0.015307785 -0.12983052 0.020473847 0.37246016 -0.39529082 -0.2658881 0.16782002 0.18785523 0.6177929 0.06853053 -0.9907252 0.19286892 0.13388729 0.37169966 0.3577628 0.2619607 -0.22444443 0.046141744 -0.7186438 -0.1966526 0.66438174 0.73522806 0.3500985 0.038489964 -0.34654585 0.17340758 0.27810946 0.12338043 0.064252995 0.15505137 0.22635643 -0.25267833 0.5108986 1.1021911 0.12096255 0.25862363 0.36824232 0.14395753 -0.32902253 -0.19005926 0.42230508 -0.31917518 0.020163937 -0.047234274 0.5486443 0.49883336 0.4036476 -0.25105506
see 0.9851235 0.3791498 0.31395265 0.08395127 -0.09172313 0.11838464 -0.55136496 0.041262064 -0.17195344 -0.10709265 -0.24302346 0.29570043 -0.6980344 0.0770186 0.14520417 0.25860387 0.16988805 0.021232171 -0.26874065 0.09653498 0.46375963 -0.55506396 0.8175438 0.5680169 -0.2912568 0.07452953 -0.66412866 -0.20906836 0.4292258 -0.222235 -0.4871811 0.20727336 -0.32365718 0.19439532 0.98718804 0.8803155 1.0748094 -1.0269095 0.0889842 -0.31938916 0.10717435 -0.5703771 0.41026106 -0.253008 -0.054009162 -0.3409671 0.4816476 0.85579515 0.42265654 0.20042068
for 0.2712952 -0.055108692 0.06535024 0.053158794 -0.085786425 0.074360624 -0.039048072 -0.01433364 0.4914358 -0.21048227 0.4074141 -0.5200013 -0.055580355 0.22177102 -0.06269494 -0.30899438 -0.004398328 0.12534167 -0.7075386 0.02550515 0.07221381 0.0026292102 0.5307632 -0.025459338 0.036778014 -0.019687481 0.15062527 0.1348429 0.32746544 -0.15709922 -0.01924776 -0.15783931 -0.0068615023 -0.11812438 0.12571889 0.08641942 0.30925497 -0.29826292 -0.15042216 -0.067558154 -0.11052101 -0.012490643 0.03818159 -0.19553451 -0.3007055 -0.09863825 -0.036024105 0.15193066 0.22315885 0.12343212
, 0.4049592 0.14438635 0.15569553 0.10648522 -0.12825519 0.15249488 -0.18690754 -0.22470708 0.3468327 -0.040516708 0.42181113 -0.31122413 0.23430619 0.20438749 -0.22210868 -0.111192256 0.0014000902 -0.040157285 -0.2415173 -0.020233972 0.04230689 0.09871093 0.0024345133 -0.0019039371 0.116508245 -0.044445153 0.11047725 0.020528998 0.19990434 -0.12438264 -0.08989102 -0.28697208 -0.023603518 -0.04422174 -0.1729635 0.094088994 0.46763998 -0.24339111 0.1178469 0.09176429 -0.032589678 0.11804708 0.3194033 -0.24464695 -0.495689 0.054844446 0.045740772 0.045709975 0.09453817 0.16038196
chief 0.9207511 0.08684662 -0.3489253 0.22493835 -0.56955844 -0.04640411 -0.90326107 -0.9643627 0.38820425 -0.5146219 -0.17975728 -0.033550657 0.4033022 0.5208734 -0.011114014 0.26790336 -0.22061716 -0.54048187 0.2158543 0.4668638 0.7005469 0.21947208 1.059308 -0.13404693 0.49941704 0.017514963 0.37660256 0.27701297 0.22394468 0.4189758 0.0872713 0.079918385 -0.29422536 -0.14870837 -0.75065947 -0.28919026 0.36800352 -0.35235795 -0.046020098 0.8420543 -0.0032994635 -0.96626294 0.07769155 -0.06499243 -0.6303633 0.38761693 0.6250335 0.033872884 -0.34596172 -0.04337388
spokesman 0.55561924 -0.08627634 0.24956197 -0.008328929 0.08359875 -0.118012175 -0.24760984 -0.9580617 0.27189922 -0.33233714 0.112101085 -0.55789435 0.40757498 0.3347514 -0.010131542 -0.42153358 -0.01996651 -0.48294505 -0.32339975 0.8777963 0.5631183 -0.28643098 0.474957 0.60290736 1.0579768 -0.179956 0.29943663 0.34919956 0.024172444 0.32530344 -0.195441 0.071265265 0.24654962 0.24243923 -0.7782889 0.3506481 0.28761965 -0.36332157 -0.14346083 0.35169545 -0.2844747 -0.4111409 -0.25587508 -0.31709528 -0.37997416 0.003166108 0.1257151 -0.19212782 -0.17236026 -0.5345907
van 0.04137106 -0.35841545 -0.11796734 0.24379912 -0.4591018 -0.5765957 -0.16250895 -0.14004321 0.806826 0.5593466 0.5246057 -0.46119714 0.40901378 -0.12866576 0.0017596453 0.6822775 0.36783224 -0.80231285 -0.67845976 -0.2115166 0.41645387 0.6991331 -0.28617838 1.4276758 1.0154872 -0.3046115 0.6337183 -0.7209652 -0.7812893 0.81400466 0.20068717 1.2582021 -0.067613296 -0.25334123 -0.60850793 1.087723 -0.4806524 -1.463173 -0.12411121 0.096762516 -0.05051361 -0.26304385 -0.26945004 0.3801341 -0.44081882 0.90505 0.7904786 0.49103934 0.03308885 -0.77531135
told 0.6755829 0.31142458 0.29997528 0.13904917 -0.08095022 -0.2431893 -0.102077305 -0.61809045 0.11150866 -0.5294845 0.21489382 -0.026167827 0.29286006 0.5095013 -0.626528 -0.035244346 0.5455711 0.06854261 -0.43725732 0.5386321 0.0075163846 -0.1251596 0.6883131 0.15353036 0.70447344 -0.16297396 -0.4237053 -0.09359411 -0.06364818 0.22320722 -0.47525 0.13516037 0.5817327 0.48336086 -0.94839936 -0.25096324 0.45556954 -0.32759166 0.23767062 0.5346509 -0.02180769 -0.5621608 -0.483282 -0.3000617 -0.7152099 -0.0737944 0.28962436 0.46913275 -0.31235385 -0.7897819
a 0.3213964 -0.08915922 -0.020509923 0.16927962 0.038534116 0.12747547 -0.2700109 -0.14320797 0.53295356 -0.19984105 0.42919108 -0.12130636 -0.12594052 0.22250508 -0.16405994 -0.17821436 0.0983355 -0.01918974 -0.46970695 0.061600395 0.043307997 -0.11740281 0.5061281 -0.0599407 0.11673882 -0.3559879 0.12163215 -0.019797921 0.21015647 0.24000558 0.06449613 0.25180763 0.100458674 0.031858448 0.004345868 0.27283883 0.20774497 -0.056516506 -0.098555595 0.22405116 0.21961768 0.016938586 0.31421852 -0.046588417 -0.27117318 -0.26467445 -0.15593275 0.14003082 -0.12179915 -0.22212395
news 1.0942203 0.6645506 0.3130193 0.2097257 -0.15149933 0.30519903 -0.29747653 -0.4171826 0.25379688 -0.78826445 0.20220163 0.022112815 0.068048045 0.35173526 -0.5126877 -0.20186688 0.7956206 -0.3837439 -0.33999035 0.44952583 0.08413838 -0.041924987 0.7983512 0.4350251 0.62413615 -0.1491806 0.08934086 -0.75449216 -0.1243404 0.45552248 0.6175181 0.37266412 -0.1470301 0.48776454 -0.85430366 0.2837991 0.32039943 -0.06379488 -0.3084869 0.5175029 -0.10317479 -0.731623 0.00538899 -0.18020569 0.1368031 -0.3782469 0.45518884 0.38031763 -0.7635295 -0.42737168
He 0.401979 0.051941738 -0.0018478662 0.26872492 -0.60789603 -0.27328974 -0.11398445 0.02631329 0.20823887 -0.45001438 0.5968214 -0.35154432 0.1710352 0.37452874 -0.34980562 -0.36719882 0.26935986 0.3222522 -0.31659707 -0.013955049 0.09429704 -0.06829878 0.41980848 0.44030938 0.27833837 -0.907582 0.0053950003 0.14576063 -0.20131223 0.29688942 -0.35751304 0.14508112 0.60994136 0.01540109 0.10507119 0.62821865 0.4540373 0.11669547 -0.16381614 0.19585766 0.09828142 -0.3736561 0.21630496 -0.057982303 -0.09438708 -1.0704026 0.22677734 0.22465104 -0.38771996 -0.31350595
further 0.35603437 -0.5366687 -0.0861548 0.6359908 -0.28771937 0.002456178 -0.5445688 0.37074015 0.3148163 0.09468926 0.16413362 -0.16467932 -0.3360644 -0.633687 0.29107738 0.32938325 0.03643866 0.08524537 -0.9357706 0.1059729 0.24951214 -0.6057377 0.76766527 0.24336293 0.7295951 -0.24002786 0.53575677 -0.088316336 0.07911398 -0.2385919 -0.08740558 0.27019557 -0.0396655 0.16654925 0.29231867 1.1307898 -0.16179751 -0.29219022 -0.57330817 0.3044904 -0.876045 -1.217765 -0.5483874 0.1193675 -0.3404691 -0.36976147 0.27230647 -0.0056936196 0.5137764 -0.6982922
study -0.011510881 -0.4946476 0.25047973 -0.16828465 -0.41387114 -0.211962 -0.56176615 -1.0435102 1.0653979 0.2792857 -0.73174006 -0.58695364 -0.44218454 -0.37364057 -0.43301484 -0.2474475 0.5874095 0.7533027 -0.013868626 0.20730844 -0.50652444 -0.05296134 0.712069 0.3545407 0.45366406 -0.3895543 -0.5166298 -0.2196867 -0.29510295 0.35498926 -0.28058943 0.34864601 -0.83569133 0.32697716 -0.12227505 0.5421974 0.57347625 -0.12007708 0.09768488 0.13245343 -0.06793488 -1.287742 0.34266967 -0.5778298 -0.18834993 0.27046704 0.4748796 0.25268567 -0.016757607 -0.43989688
and 0.3709519 -0.011504108 -0.0019614936 0.29228398 -0.1643124 0.10337915 -0.19157562 -0.13492031 0.23637658 -0.28136528 0.30550185 -0.07073097 -0.0118998615 0.1760644 -0.078036316 0.031935953 -0.11168256 0.15269646 -0.6007849 0.24855801 0.1049089 -0.096473485 0.4062541 -0.011850599 0.0533505 -0.19004963 0.05118677 0.032806527 0.19566944 -0.084057 -0.19010065 -0.12049346 0.02156235 0.022070788 -0.035756107 0.13309765 0.16475758 -0.26718292 -0.15332106 0.179197 0.16962284 0.028271768 0.2462939 -0.11407191 -0.4363743 -0.10572168 0.007317772 -0.05147736 0.25139415 0.012351255
if 0.71554995 -0.004392882 -0.55895925 0.09144173 -0.37274268 -0.047859266 -0.2580934 0.04749766 -0.28793487 -0.596315 0.31456596 0.016335908 -0.515266 -0.0489931 0.013353156 0.62798345 -0.11519626 0.16625924 -0.19414629 0.048688877 -0.22834614 -0.88588816 0.92832136 0.23932695 0.22852764 -0.76700836 -0.09210322 -0.122393206 0.74872166 -0.36991337 -0.1498437 0.27102846 -0.060818814 0.3451428 -0.08963703 0.8441926 0.77739257 -0.21566243 0.25498062 0.1939125 -0.35942066 -0.71526194 0.18609133 -0.7015753 0.03880081 0.17770042 -0.040449414 0.3881285 0.11324844 -0.3269066
found 0.6361072 0.05194017 0.29824436 0.16777119 0.43131658 -0.46062505 -0.37755075 -0.6971899 0.5639402 -0.21849985 0.3839187 -0.98992276 -0.32444057 0.27714562 0.055017967 0.47550833 0.24515973 0.18130246 0.21922897 -0.16496298 0.35291538 -0.1151892 0.82461625 0.58692646 0.68944997 -0.41934428 -0.6927675 0.8108057 -0.25669354 0.15461093 -0.6646793 0.05823739 -0.2605165 0.81805384 -0.40493903 -0.113311864 0.31699234 0.045833644 -0.17798279 0.16074532 0.52386755 -0.27673346 0.112673365 0.5928052 0.25165623 -0.018696062 -0.0338235 -0.3297674 0.3590197 -0.55699074
that 0.56542337 -0.15405665 0.14792989 0.1523231 -0.026950322 0.17641862 -0.19300282 -0.21664937 0.41584948 -0.5901906 0.21821477 0.16510679 -0.2389263 0.20881 -0.20616728 0.19238527 0.049075052 0.23029642 -0.3469979 0.1485556 0.07606299 -0.18561539 0.47625116 0.32686555 0.19665077 -0.4857196 0.37968847 -0.016208528 0.20152465 0.16230595 -0.1922768 -0.024374364 0.14210045 0.0019235694 0.2037595 0.30883652 0.49763286 0.033839 -0.044244435 0.14005533 0.004124216 -0.2801201 0.2600412 -0.39220387 -0.20026323 -0.136184 0.08199403 0.2123383 0.030964222 -0.55237097
action 0.23843706 -0.30422825 0.025978507 0.18244995 -0.4420971 -0.19996688 -0.1819211 -0.69351816 0.14867422 -0.6338424 -0.4133135 -0.13087402 0.04832136 -0.1431186 0.33416858 0.33344206 -0.08378249 0.032444425 -0.30517775 -0.45537663 -0.28503758 -0.28035668 0.8809995 0.5484427 0.6579702 -1.0647666 -0.6999044 -0.26945534 0.6806215 0.1744408 0.42846274 1.050158 -0.5352332 -0.18984164 0.024606341 0.60882866 0.47779053 -0.9034683 0.1737164 -0.23572919 -0.48078966 -1.2410384 0.7700776 -0.5008648 -0.25912106 -0.40546864 -0.03298034 0.076111786 -0.49299875 -0.5772326
needed 0.42507067 -0.3016189 0.54718906 0.06504875 -0.44592303 -0.80442756 0.2840867 -0.05856952 0.4194475 0.074736565 0.25514662 -0.23896892 -0.049503535 -0.28178412 0.18251221 -0.16328536 -0.36902606 0.34287825 -0.7108045 0.25513813 0.33557358 -0.17706068 0.6787387 0.24576561 -0.3305843 -0.002838537 -0.6803781 -0.05213751 1.032819 0.5545304 0.11552387 0.22160575 0.37356216 -0.42327294 -0.19294247 0.55927265 0.7457827 -0.69641274 0.008695349 -0.041307896 -0.096633784 -0.3835742 0.66875386 0.11904101 -0.33282685 0.03641342 -0.25812635 -0.1363295 0.37769294 -0.25604096
taken 0.89756405 0.18597955 0.05575281 -0.15569797 -0.025311261 -0.6828939 0.0134742465 -0.16652511 0.18497057 -0.033742618 0.31419906 -0.35567564 0.089312285 0.4471987 -0.7206906 -0.20698437 -0.11592082 0.4353752 0.14849909 0.2946824 0.24200052 -0.21430823 0.30547905 0.3649479 0.040191438 -0.29213142 -0.29222777 -0.20579594 1.1117368 0.2211331 -0.24577086 0.4655209 -0.059186015 0.35634518 0.1549698 0.98405313 0.84137595 -0.31109926 -0.07737523 0.5545846 0.44018584 -0.13378277 0.05738002 0.40584636 -0.19923495 -0.22054224 -0.31125897 -0.46821862 0.87127054 -0.54172224
by 0.19096608 0.18054307 0.027808802 0.30400744 -0.06748268 -0.26121464 -0.16515855 -0.16409972 0.4395813 -0.23776174 0.49100676 -0.1403457 0.05946627 0.04771879 -0.27226573 -0.05359843 0.14249602 -0.1043132 -0.46604818 0.100042015 0.22717609 0.02767546 0.4116012 -0.17919733 -0.03402938 -0.29200834 0.26119697 -0.022350874 0.21941335 -0.03500123 -0.22161315 -0.006827464 -0.098833695 0.25417614 0.10012767 0.20913784 0.33235487 -0.2814218 0.123735055 -0.00066933624 0.51461494 -0.3956426 0.2128413 -0.12843138 -0.19998154 -0.27950585 -0.22564995 -0.08459842 -0.06784255 0.062861755
proposal 0.87300193 -0.7802191 0.101189755 -0.03563288 -0.07640931 -0.5234936 -0.5388312 -0.1828165 0.38764125 -1.1254257 0.13541691 -0.30204248 -0.7809013 -1.1160718 -0.10887222 -0.23345225 0.13670143 -0.5458425 -0.53231144 0.91726106 -0.29019362 0.6521828 0.73422164 -0.22408716 0.23459093 -0.60330784 -0.15995283 0.4837837 0.083720386 -0.12605384 -0.3635623 0.3162687 -0.22134586 -0.335163 0.066452764 1.0671566 -0.22178012 -0.20828183 0.16637641 -0.42540917 0.34130168 -0.9302457 -0.17387635 -0.07222909 -0.46915618 0.30196464 0.35727823 0.043509822 0.13948551 -0.5888797
last 0.6199919 0.08474811 0.3004351 0.30703267 0.44346875 0.06630417 0.15530652 0.22901362 0.75596154 -0.139121 0.7932056 -0.25057954 0.056940705 0.20745943 -0.20830387 -0.13016813 -0.39629257 0.15114205 -0.11015337 0.20688666 -0.21049976 0.16819665 0.32493734 -0.4836103 -0.19984774 -0.60039204 0.28815743 0.07165425 0.22093324 0.121271685 -0.15550436 -0.052699544 -0.27438903 0.19503166 -0.17140344 0.01861943 -0.34365067 -0.47663286 -0.3659534 -0.31398448 0.5202517 -0.46509245 -0.03401455 -0.38954833 -0.33249953 0.025963172 -0.044933207 0.2339942 -0.24168181 -0.3035998
month 0.66586846 0.12715434 -0.044494346 0.0540955 0.071404 -0.8515855 -0.30688846 0.21919137 1.0273612 -0.0020549179 0.5405735 -0.3376676 -0.5091744 0.23757418 -0.08598868 -0.118018575 -0.29824048 -0.3315689 -0.54819405 -0.2051841 -0.16307259 0.40670592 0.6882881 -0.70600367 -0.19855049 -0.27860156 -0.5354222 0.20139149 -0.046951972 0.36080614 0.106940344 -0.016531393 -0.16955517 -0.023286546 -0.70947385 0.6646627 -0.41240215 0.37121555 -0.032935005 -0.06342121 0.2029937 -0.8683393 0.29290253 -0.5730614 0.029969497 -0.05232807 0.20375165 -0.11271226 -0.47767976 -0.43647322
ban 0.12117898 -0.5087275 0.098159984 0.048527986 0.9893181 -0.80406994 -0.13549404 -0.26022613 0.6188499 -0.49271244 -0.28113902 0.28700462 -0.25094163 -0.23453692 -0.2959712 0.04731694 0.2498376 0.034664344 -0.9084554 -0.22987866 -0.3690755 -0.054926153 0.5262147 0.039663967 0.05670137 -0.3732725 -0.0645588 -0.04399146 0.17061959 -0.19987817 -0.59597015 0.3978552 -0.9835442 0.082282715 -0.35874832 0.56952095 -0.08667375 -0.64499724 -0.11778206 -0.14363469 -0.22805095 -1.3734483 0.27984968 -0.8935386 -0.23904994 0.063440286 -0.34628856 0.4390997 0.5097898 0.28290078
human -0.10434219 -1.0001646 0.5286178 -0.30508038 0.38239273 -0.74241436 -0.186884 -1.4519279 0.33879477 -0.13139534 -0.46651047 0.13106264 -0.1339417 -0.5588835 0.37704867 0.39357808 0.4588616 -0.03466203 -1.1058695 0.12625624 -0.6754398 0.13043326 0.5663999 -0.38808554 0.9731791 -0.6378348 -1.0249144 0.514536 0.45386982 0.27207816 -0.6405935 0.25763804 -0.18014395 -0.23308422 0.25491828 0.89680296 -0.10335771 -0.6844346 -0.79317117 -0.12251251 0.36259618 -1.6144804 0.36656827 0.048700757 -0.13691577 -1.4483207 -0.4153687 0.23798272 1.2907962 -0.6834019
food -0.07490788 0.5076375 1.5153595 0.45091498 0.5236235 -0.5183576 0.39116582 -0.086889595 0.73504525 0.4281663 -1.0585597 -0.09937286 -0.15619688 -0.3810082 -0.09246784 0.54341465 0.26728603 0.23462568 -0.55169064 0.22914313 -0.13714235 -0.03622444 1.3654054 -0.39178562 0.6674837 -0.61639977 -0.556152 -0.027980806 0.09616257 0.77104306 -0.5889197 0.15442336 0.59244037 -0.33486488 0.0054517975 0.5702749 0.07575318 -0.7855351 -0.698527 0.034157407 0.17297041 -1.005493 -0.28112987 -0.227611 -0.58552796 -1.1336305 -0.77945685 0.21965136 0.650018 -0.28980145
move 0.65652907 0.16886199 -0.3537662 -0.3098529 0.2601316 -0.3929719 -0.6406797 0.17541817 0.1479679 0.14067261 -0.8533256 0.03831221 -0.59999335 0.178911 0.27833518 -0.52939814 0.9363173 -0.21132582 -0.14004648 -0.005802824 -0.2745272 0.023804016 0.522756 -0.26192912 0.56155574 0.026728364 0.28401956 0.53806746 0.8224378 -0.1372825 -0.18288304 -0.5969767 0.50469637 0.07426703 0.23114613 0.91656184 0.6439947 -0.6413604 -0.28544116 -0.53681415 0.14120397 -0.43428552 -0.04688658 0.13428195 -1.0241724 -0.92527664 -0.5097767 0.4967172 -0.0013088662 -0.69819736
health 0.9859641 -0.48530674 0.6593272 0.3719436 -0.20490125 -0.6155598 0.88372606 -0.22355212 -0.054140758 -0.3328796 0.23492779 0.26005858 -0.094080985 -0.052954465 0.17083097 -0.14269376 0.43143418 -0.27916154 -0.9525814 -0.4288085 0.175746 0.5689125 1.0065124 0.08304808 1.334809 -0.52379715 -0.6452 0.9864496 0.41732058 0.3398884 -0.3865084 -0.46034154 0.11962031 -0.0076842275 -0.3053703 0.8201032 0.44187957 -0.18646449 0.14526357 0.3740517 0.027416876 -0.8881341 -0.17929748 -0.24279267 -0.42780903 -0.5948202 -0.08469044 0.10811346 0.45088258 0.11703704
proposed 1.3223115 -0.084170245 0.7044066 0.07064075 -0.28653204 -1.0596074 0.36733168 -0.1173657 -0.06782476 -0.057906568 0.36753812 0.46305063 0.09897471 -0.58305043 -0.2578189 -0.5317795 0.4702393 -0.3419676 -0.43624848 -0.18808739 0.07937532 0.3210971 0.83607435 -0.62454504 0.9996723 -0.81003124 0.10696455 0.26226187 0.070734836 -0.37022164 -0.21799487 -0.16256921 0.08812545 0.28179687 0.7148017 1.1738948 -0.11010928 -0.35473093 0.10757918 -0.34714997 0.4627159 -0.9010671 -0.511161 0.19063221 -0.024466455 0.12152275 -0.5038346 0.28241298 0.43844855 -0.88379425
measures 0.29807737 0.085950196 0.30408067 0.15114626 -0.38793367 -1.0175687 -0.07093227 -0.07103297 0.50345254 -0.3335531 -0.2504437 0.38769174 -1.066723 0.2510883 -0.047554247 0.16297156 0.2133844 -0.19032001 -0.91259056 -0.20178105 -0.8525447 0.099968836 1.523861 -0.20423487 0.2620358 -0.31411374 -0.5962093 0.9179177 0.39788926 0.083014004 -0.15714148 0.34505287 -0.26741594 -0.18596926 -0.011700254 0.35619214 0.024280861 -0.080281444 -0.48861653 0.22943582 -0.05177338 -0.24383551 0.6202224 -0.6399841 -0.040586077 0.10033593 -0.3849213 0.57434124 -0.07155344 -0.3659792
after -0.0077107362 0.06637436 -0.25253892 0.10112685 0.29749563 -0.017279651 0.31532386 0.09050064 0.3694706 -0.28896707 0.66516167 -0.3166659 0.18025762 0.25061837 0.12889788 -0.14330716 0.298779 0.08216364 -0.48781997 -0.076478496 -0.012497993 -0.27627423 0.23016271 0.020501494 0.25721824 -0.53547126 -0.07896907 0.33695105 -0.21972331 0.170966 0.0045020445 0.19627114 -0.43228966 0.41885418 -0.12760417 0.25341055 0.39551803 -0.43951207 -0.19604121 0.109862626 0.7669012 -0.5029772 0.5896811 0.12374921 -0.2990995 0.10066408 -0.3767209 0.25303864 0.08428611 -0.26038837
reports 0.53733534 -0.4798815 0.6662296 0.021988291 0.36997014 -0.347137 0.05099763 -0.5385693 1.0289352 0.46506688 -0.29998726 0.18911302 -0.4168118 -0.1666944 -0.17517631 0.37839943 0.30666006 -0.3312365 -0.20712323 -0.034982685 0.18152139 -0.62226534 0.69107217 -0.15213917 1.2689377 0.11416738 -0.16726081 0.52404624 0.22387414 0.13882905 -0.2016993 -0.016095795 0.1879093 0.63327867 -0.34214818 0.998454 0.14562786 0.2611111 0.13986948 0.6900588 0.26831752 -0.80194783 -0.5303639 -0.43030226 0.0368177 -0.23384364 0.101776585 0.015385926 0.8339903 -1.0036709
France 0.3651942 0.15706618 0.30113104 0.41254595 -0.12824759 -0.4468498 0.3628744 -0.75924945 1.0545492 -0.10721504 0.07027508 -0.09490539 -0.18247455 -0.31026787 -0.27477053 0.36643878 0.4539928 -0.16939959 -0.10672043 0.36647794 -0.72139966 0.60550815 0.24993964 -0.10674122 0.20832841 -0.3554629 0.10004192 -0.10823895 -0.5212811 -0.90924644 -0.061632823 -0.26465762 -0.23563844 0.46057403 -0.16277237 0.95398265 0.2625864 -0.71524864 0.01008455 0.32390934 0.42906946 0.2765741 -0.23358436 -0.62465614 0.28286028 0.4909939 -0.03720491 0.33795324 0.6831869 1.1489425
under 0.6708606 0.13666163 0.5311849 0.12000829 -0.017218702 0.3347972 1.2933298 -0.3590813 0.5654441 -0.47363254 0.013218509 0.1435224 -0.07507388 -0.11054854 -0.37325087 0.32992882 0.29750878 -0.14206366 -0.78731686 -0.50889903 -0.070583045 -0.32554156 -0.5247115 0.16396576 0.19174027 -0.58535624 0.21018413 0.5176078 0.937896 0.33853397 -0.2662309 -0.5030764 -0.44699922 -0.2930616 0.035804246 0.78731096 0.5528043 -0.12033214 -0.12969884 -0.534953 0.3885044 -0.4069278 0.027847074 -0.17568025 -1.0731639 0.7411839 -0.4581695 0.33522132 -0.07180298 -0.1510218
conditions 0.83421046 0.74854684 0.5178257 -0.30992663 -0.07602727 -0.11852415 -0.3680134 0.3981904 0.41714618 0.3208616 -0.050438143 -0.03886846 -0.5395297 -0.08481689 0.66590685 0.09678205 -0.14179267 -0.25254276 0.13229404 -0.009677421 -1.0215609 -0.09591235 0.72503644 0.15577215 0.52957207 -0.83031654 0.07165775 0.64784604 0.4491601 -0.76566386 0.14228344 -0.05939346 -0.13536708 -0.13397461 0.664481 0.41840795 0.38576367 -0.48077857 -0.1661894 -0.03925852 0.34475285 -0.6194058 -0.33093044 -0.4552612 -0.19720198 0.10693908 -0.42312306 -0.2586734 0.351849 0.043905757
could 0.4298192 -0.32841763 0.13244508 0.45670334 0.055092834 -0.0658565 -0.04083173 -0.31028113 0.42206088 -0.36464012 0.6303869 -0.14197846 -0.5055858 0.04066751 0.051791076 0.02204711 -0.027213499 -0.27673304 -0.22946672 0.0072248047 -0.009686311 -0.53267145 0.7641797 0.33987185 -0.4523023 -0.85236716 -0.16890499 0.1854863 0.4875283 -0.39257342 0.30423066 -0.26775473 0.0073662507 -0.20957595 -0.22000697 0.97289395 0.2621427 0.06832985 0.11024733 0.477476 -0.46016884 -0.48352256 0.15242223 -0.071161926 -0.08541869 0.1869087 0.19821166 -0.031253774 -0.08289324 -0.71832055
contract 0.64106274 -0.19080135 0.45113906 -0.16901672 -0.1799411 -0.33379725 -0.0977925 -0.57237065 0.26725242 0.46979737 -0.20587502 0.13863127 -0.38788483 -0.85306114 -0.5358944 -0.1500136 -0.1510418 -0.5274406 -0.04038874 0.12678608 -0.48433727 0.2062511 0.63369316 0.17143331 -0.55217105 -0.48783705 0.2517948 0.170683 1.174942 0.29623348 0.7596303 -0.20351556 -0.08648917 0.24224044 0.24968825 0.915673 0.5247276 -0.6070139 -0.8066562 -0.42808664 0.0026903714 -0.45360446 0.51927483 0.48664364 -1.170494 -0.09377626 -6.39495e-05 -0.45069593 -0.062371917 -0.02722516
( 0.31461164 -0.1647516 0.37937054 -0.009020453 -0.25208217 0.09518738 -0.50418985 -0.4749493 0.5997157 -0.008212643 0.104981504 -0.6825817 0.19956338 0.1364251 -0.06139936 0.24602585 -0.32413736 -0.6556121 -0.42373785 0.018201562 -0.8004563 -0.17028894 -0.30856633 -0.35093045 0.27648896 0.10499868 0.37750325 -0.3060247 -0.47620314 -0.92637646 -0.33182564 -0.012215769 0.23924272 0.374804 -0.28344104 0.4278377 0.23940344 -0.22766088 -0.011550035 -0.22391674 0.705419 0.2875771 0.24318752 -0.3172384 -0.4344854 0.012980537 0.3257058 -0.005662669 0.48470378 0.3739637
BSE -0.23071985 -0.3251295 0.8258648 0.1742152 -0.49240512 -0.19359867 0.06328986 -1.4039705 0.3453931 0.35785678 -0.024483979 -0.090899915 -0.43229884 -0.16944148 -0.40523228 0.808681 -0.15833771 -0.99996006 -0.25473645 0.81291044 -0.48511103 0.918278 0.6090778 -0.04546853 0.40568507 -1.0895497 -0.8386416 0.0056984387 0.71687245 0.24443345 -0.41478926 -0.6078209 -0.11688875 -0.03968821 0.67885554 1.9908093 0.2845031 -0.36833093 -0.5593686 -0.019397 -0.47768638 -0.81953424 0.38471633 -0.5753375 -0.467266 -0.04192624 0.6951932 -0.8067895 0.026819952 -0.1225507
) 0.271491 -0.14362901 0.3398243 0.062633716 -0.34554386 0.13717732 -0.5296859 -0.4329468 0.5886709 -0.011429167 0.062315226 -0.68003833 0.22934249 0.18034564 -0.12727395 0.25216585 -0.36864465 -0.67228097 -0.41853508 -1.4277699e-05 -0.77119523 -0.23418541 -0.251099 -0.31258205 0.20531914 0.07872326 0.40360522 -0.29101682 -0.42906967 -0.9260431 -0.2740365 0.005109774 0.33982778 0.30138746 -0.33849436 0.4478213 0.25631815 -0.19367814 -0.030521821 -0.16498621 0.62128437 0.3073327 0.317809 -0.29436547 -0.3872189 0.027295308 0.3582967 0.006790762 0.55602443 0.38688332
-- 0.6722574 0.3620168 0.21148528 0.5340681 -0.29741728 -0.658193 -0.6537761 -0.091075055 -0.1844812 0.0049143746 -0.17769773 -0.31221363 0.2730277 0.23430476 -0.072899126 -0.021538135 -0.015840022 -0.16271059 -0.3649445 0.25572664 -0.38448092 -0.2634256 0.31099862 -0.22536261 0.010890911 -0.51455367 -0.29940537 0.7769415 -0.26144958 -0.3523386 0.12970795 -0.49593103 -0.16313218 -0.06859899 -0.22256443 0.035004996 0.24225084 0.20921764 -0.75208235 -0.22390597 -0.3217275 -0.0008863012 0.67841357 -0.28744006 -0.9539812 0.16288106 0.24370617 0.11811141 -0.12248749 -0.02463171
But 0.72832483 0.06536635 -0.2354619 0.099558435 -0.3208654 -0.077087454 0.10179901 -0.32592714 0.587216 -0.29265592 0.73045605 -0.023091953 -0.44713247 0.7533988 0.03813174 -0.048504476 -0.037402675 0.53793234 -0.17418095 0.48210838 0.22545229 -0.38668928 0.2642514 0.12603268 0.42017365 -0.9282992 0.25840244 0.30382517 0.13214543 0.10618093 -0.4559145 0.021933766 0.5149459 0.08064241 0.18646829 0.17646639 0.17406172 -0.26135737 -0.082151756 -0.18449414 -0.1311147 -0.3815537 0.147255 -0.014053464 -0.40086496 -0.03460617 0.570657 0.078731164 -0.0015437222 -0.39140108
agreed 0.9483041 -0.041004278 0.5006883 -0.12134566 0.24291877 0.22420934 -0.30494243 -0.8711764 0.97070557 -0.3604717 0.2139825 0.13742778 0.3277081 0.10074484 -0.5071713 0.07000645 -0.2818872 0.043918375 -0.67655474 0.9004056 -0.35502514 0.14037986 0.70252717 -0.27113008 -0.38049257 -0.24087492 -0.48738003 0.2419985 0.06029585 -0.33819637 -0.14136429 0.4744518 -0.18618174 0.20397504 0.7729367 0.39647678 0.56600606 0.08241419 -0.23232286 -0.28605542 0.054347947 -0.81323075 -0.4311265 0.6922198 -0.50793296 0.4009556 -0.00074138807 -0.30165392 -0.76722187 -0.5333249
his 0.20291547 -0.54988205 -0.01783238 0.40224603 -0.084854014 -0.012902561 -0.19120778 -0.061706103 0.47122532 -0.31354004 0.6636475 -0.5846807 0.08394992 0.23056361 0.03580336 -0.36575675 0.18277662 0.32037237 -0.2133688 0.011406559 -0.5490431 0.2989292 0.47051013 0.32786155 0.14546753 -0.26052073 0.26187518 0.17671737 -0.083020866 0.3057145 -0.19856629 0.31959012 0.22268197 -0.093427695 -0.04351149 0.29113463 -0.11856461 -0.29781923 -0.18869425 0.6308424 0.15948768 0.24420221 -0.041445848 -0.4801499 -0.2906902 -0.39942023 -0.15708937 0.3178803 -0.43300807 -0.16816097
officials 0.6213407 -0.28652877 0.06868416 -0.049244005 0.42780927 -0.026180787 -0.601301 -0.3879393 0.82072777 -0.17454232 -0.16307296 -0.02814999 0.5094333 0.17082074 0.026870813 -0.2149418 -0.22018553 0.24972558 -0.26427186 0.33419672 0.077038385 -0.11664697 0.4548027 0.3123307 0.39886615 -0.21692799 -0.013761099 0.35469115 0.3487014 -0.2293885 -0.49582902 -0.32276574 -0.32813993 0.087541305 -0.28981423 0.33694497 0.12855496 -0.25273678 0.15502812 0.17321783 -0.4062834 -0.3676886 0.56144685 -0.02035264 0.053981546 -0.726087 -0.1752813 -0.21204719 -0.049812123 -0.5860022
questioned 1.2348273 0.19116218 0.64127266 0.252388 0.13348794 -0.31249657 0.103370994 -0.18315867 0.27989012 -0.34939742 0.16694774 0.20973799 0.73670745 0.097592756 0.023079945 0.06848258 0.100280166 0.015383922 0.5021448 -0.048576962 0.089249246 0.1896791 1.2042409 -0.1962867 1.276753 -1.2055776 -0.5641695 0.75441575 0.00072302227 -0.7524784 -1.1102011 -0.14218785 -0.7279706 0.16552095 0.11073681 0.014831681 0.18147586 -0.14002989 0.7189225 0.21595456 -0.03289418 -0.99015933 1.224863 -0.068825044 -0.033463802 0.052587323 0.13230835 -0.2917478 0.39974767 -0.7738655
as 0.81572026 -0.1430776 -0.48613077 0.31706658 -0.27628115 -0.17128396 -0.24990363 -0.17334646 0.16227387 -0.26207206 0.46238068 -0.2524421 -0.5028501 0.511572 -0.0036584716 -0.26921663 0.24813086 0.020186108 0.030676099 0.21300735 0.14076549 -0.27735576 0.25599372 -0.40853608 0.13677904 -0.3003101 0.119284004 -0.3780233 0.49528134 0.129939 0.089235306 -0.35742962 0.06117097 0.02291032 -0.055503484 0.40435687 0.4129222 0.054142844 -0.27736506 0.40974903 0.31455255 -0.1606195 0.18927194 -0.27382448 -0.2690218 -0.117138006 -0.44135675 0.30628797 -0.17843756 -0.118923835
there 0.631006 0.32754225 0.34646246 0.4105968 -0.22821373 0.21082798 -0.4936812 -0.20303415 0.322769 0.25929374 -0.041295387 -0.19304131 -0.48857605 -0.2627795 0.029247142 0.06789103 -0.43749827 0.041559853 -0.23796646 0.43699 0.21944612 -0.10928301 0.39244917 0.32129136 0.77135664 -0.6692559 -0.3689876 0.2857391 0.42015067 -0.06919423 -0.43336725 -0.0007762543 0.21309358 0.3772811 -0.06583723 0.4553007 0.6298749 -0.25076753 -0.048501767 0.16846135 -0.5415494 -0.70157486 0.3588858 -0.20831929 -0.025941495 -0.5823162 -0.15403625 0.40166292 0.44941947 -0.42862403
only 0.3406917 0.095398545 -0.2698306 0.3238445 -0.13926248 0.2632046 -0.01918504 -0.09810235 0.08437388 -0.022636537 0.38221 -0.25225583 -0.34014136 0.11394267 -0.060315594 -0.07400096 0.40837988 0.18936928 -0.62050897 0.21439359 -0.112744115 0.18269704 0.33459806 0.33142567 -0.030162748 -0.26711932 -0.15471065 -0.3973404 0.090468384 0.0038057803 0.107475646 -0.06906872 0.025184399 -0.16197221 -0.10089942 0.21633537 0.44836494 -0.22371787 -0.058579948 0.024409512 0.15501423 -0.2623147 0.48238626 -0.21577209 -0.35372302 -0.03418775 -0.16355753 -0.0026284014 0.4844841 -0.43406713
risk 0.650111 0.24996957 0.71519464 0.050093442 -0.114539064 -0.4255979 0.24150456 -1.4153073 -0.49898455 0.112219244 0.14956905 -0.10476507 0.0011240271 -0.7050145 0.07647032 0.6457527 0.87454927 0.4495149 -0.6032259 0.08055976 -1.0975916 0.28989893 1.120107 0.09336607 0.04693722 -0.84375733 -0.5159142 0.31948406 1.0585353 0.01799246 -0.17854904 0.10940954 -0.43598086 0.7218457 0.031534716 0.9259473 0.2838839 0.3843069 -0.14288726 -0.39900753 -0.222459 -0.99549115 0.17773677 -0.17543645 -0.8382161 0.050137315 0.024737697 0.1486404 0.6288113 -0.025456972
Spanish 0.6357045 -0.19876218 0.03466244 -0.31695214 0.32520908 -0.15526645 0.34919822 -0.7355045 0.56418115 -0.6550466 0.7483712 -0.20178048 0.020240596 0.075063124 -0.38046667 0.7848078 0.7495187 -0.10718818 -0.49931666 -0.32731268 0.7226312 0.34330824 -0.21451247 -0.49276546 0.45662847 0.3270116 -0.0010697816 -0.22243163 -0.031399656 0.27966574 0.55304223 -0.43887126 0.74719244 0.41048804 -0.6177115 0.8209278 -0.05749501 -0.5363818 -0.49569842 0.5430319 0.8962317 0.36962506 -0.20403105 -0.46279874 -0.052367415 -0.8349406 -0.12722112 0.26661757 0.5978615 -0.67095834
Minister 0.9740141 -0.32228073 0.08314404 -0.21034424 -0.53957605 -0.8364056 -0.21690817 -0.8636753 -0.16634889 -0.35814103 0.2499733 0.4244718 0.8723266 -0.097220905 -0.36414224 -0.384364 0.31842524 0.1342338 -0.40407145 -0.016754778 -0.08085257 0.640188 -0.04678445 -0.3015109 1.2005173 -0.1525754 -0.07697824 0.38268214 -0.5073419 -0.017928112 -0.3453999 -0.36478317 0.14673996 0.17832793 -0.42969373 0.55246 0.4213442 -0.7854837 0.003084836 0.69865113 -0.04709196 -0.93816924 0.25644773 -0.48337376 0.0043749963 -0.51884305 -1.1201828 0.7487326 -0.15657577 -0.35944104
de 0.46201858 0.8269743 0.2612933 0.41632172 -0.14469211 -0.7410251 -0.17167638 -0.4842274 0.532529 0.21288465 0.5830554 -0.55091137 0.0139187155 0.023325264 -0.23469006 0.665008 -0.15463263 -0.24162929 -0.4770309 -0.7590954 0.6217824 0.6304619 -0.23556599 0.26684114 0.6069734 0.31277564 0.46966723 -0.18054038 -0.233796 -0.15061913 -0.16021395 -0.099660076 0.5208691 -0.039772775 -0.56708527 0.23597151 0.3823805 -0.4444284 0.115491115 -0.08167433 0.69875956 -0.2520219 -0.31424007 0.059039302 -0.09808753 -0.09308351 0.073057316 0.34460685 0.17710495 -0.2048362
had 0.396055 -0.6748576 0.73394847 0.2934245 0.1266381 -0.1394897 -0.13401215 -0.3835951 0.512354 -0.6148744 0.8867443 -0.5279715 -0.32453874 0.250777 -0.22334528 -0.29625538 0.24640556 0.15587354 -0.20251939 0.018803727 0.02131897 -0.9215691 0.17729653 0.16532245 0.270116 -0.41881293 0.23513666 -0.26815692 0.17311539 0.18826921 -0.33992156 -0.0066228886 -0.3730538 -0.088819265 -0.058754105 0.072025776 0.08307039 -0.25686693 0.0020085166 0.009973374 -0.107743025 -0.27251709 0.28048602 -0.042377047 -0.22179142 -0.41582075 -0.12607968 -0.26387474 -0.29000518 -0.53896207
earlier 0.3379781 0.3059815 0.4552284 -0.28140914 0.31654674 -0.3301158 -0.11634294 -0.08296985 0.8527441 0.043843433 0.6974153 -0.5439736 -0.31816122 0.12145173 -0.07063652 -0.07884582 -0.0334599 0.10777873 -0.34704164 -0.101627775 0.04755143 -0.1472634 0.6712297 -0.4428425 0.32690224 -0.17327045 0.29219276 -0.37415788 -0.5007669 0.67080456 0.11921447 -0.08764018 -0.39350924 0.018156381 -0.6975111 -0.031548403 -0.14709342 -0.4049499 0.033428453 -0.066572115 -0.029453589 -1.0743287 0.23475178 -0.2965962 -0.15422393 -0.19726792 0.2787727 0.22415276 -0.14526877 -0.8526401
accused 0.47757897 -0.51904374 0.051216684 0.39640114 0.1678846 -0.22420456 -0.49731195 -0.70393974 0.044144955 -0.686987 0.04890114 0.3203633 0.6873973 0.6872521 -0.4196095 0.29107782 0.49446112 0.25009254 -0.8600113 -0.20851436 0.6052025 -0.088815466 0.95959073 -0.085151285 0.4286296 -0.7571119 -0.52316886 0.026174592 -0.6270805 0.10074059 -0.60731775 0.5240593 0.38340268 0.12021452 -0.6402573 -0.3953567 -0.18790373 -0.9580858 -0.6434387 0.4615325 0.67995137 -0.99558336 -0.09254354 -0.14738832 0.37807494 -0.0050084773 -0.45363647 0.07594672 0.108315066 -0.71103126
at 0.3448456 0.51935196 -0.098802805 -0.059521817 -0.1778655 0.16673635 -0.23938899 -0.2673185 0.5837988 0.013378065 0.4665892 -0.3388779 -0.2664614 -0.0044212695 0.17693678 -0.06711288 0.3030614 0.056568783 -0.7807909 0.21928322 -0.1591113 -0.29676646 0.25759283 0.20668285 0.293695 -0.2398109 -0.01564371 -0.19323884 -0.09152276 -0.110411674 0.02800004 -0.31374583 -0.27579027 0.45731065 0.035761647 -0.023036728 0.037649367 0.058450077 -0.2019961 -0.16641262 0.12524945 -0.050621983 0.24524379 0.1388004 -0.44618633 -0.12856044 -0.2636995 0.15306568 -0.14737952 0.12085355
an 0.36062986 0.11206406 -0.12174422 0.063637875 -0.07595728 0.013773426 -0.47676957 -0.0006828061 0.6902861 -0.051769838 0.01665683 -0.041475505 0.10081365 0.17476037 -0.23307513 -0.040630177 -0.05725536 0.103674136 -0.7185961 -0.2222861 -0.074061446 -0.4589167 0.3193723 0.09723891 0.3096478 -0.003338242 -0.030880805 -0.33288506 0.2517859 0.59378767 0.2032676 0.37738824 0.010857148 -0.20044957 0.038384505 0.113164805 0.095569044 0.08353171 0.054205444 0.5727489 -0.079360105 -0.1527588 0.21027216 -0.32317665 -0.76462513 -0.10851167 -0.35166845 0.08721025 0.042767644 -0.1968728
farm 0.66279066 0.33432642 0.8274894 0.6546154 0.7512088 -0.5581379 0.12319251 -1.077545 0.6595982 0.32797563 -0.07665224 -0.30525872 -0.64302087 -0.0037320517 -0.30458173 0.6543287 0.5415075 -0.40680152 -0.24249317 0.28451556 0.55567735 -0.2782909 0.85610324 -0.249868 0.9989129 0.593094 -0.3330726 0.9814181 -0.2191041 0.45919654 0.16629212 -0.009542017 -0.37683928 -0.07595764 -0.2535316 0.91229033 0.23749249 -0.60230756 0.22247304 -1.0471196 0.48360586 -0.115900666 0.084642075 -0.6817429 -0.41833767 -0.6607951 -0.5488007 0.027858201 -0.26419693 0.061857592
ministers 0.84047526 0.42407414 0.09386792 0.45707065 0.58384174 -0.72751653 -0.40149745 -1.7600461 0.9610699 0.1996666 0.07639874 1.0762012 0.5154528 -0.34802768 -0.0633851 0.20107551 0.5691552 -0.20158117 -1.0974107 0.6713715 -0.99617064 -0.05722904 0.15613632 -0.021761425 0.59235877 -0.5670217 -0.6446435 0.74909556 0.3679453 0.08685456 0.035270512 0.57639956 0.30642235 0.13749065 0.20325822 0.007998465 -0.1587323 -0.4368291 0.08262926 -0.2451709 -0.3193637 -0.9618588 -0.09652863 -0.15775762 -0.15722881 0.40420943 -0.84558696 1.1635584 0.01330141 -0.18298022
' 0.85230315 -0.061151296 0.2185743 0.19740693 -0.2355405 -0.12312447 -1.1622612 -0.00567144 0.40506428 -0.51987845 0.41767624 -0.21652228 -0.15819052 -0.33905905 0.056762237 0.34633452 -0.14606686 0.08985425 -0.32415166 -0.026692271 0.37208912 0.4716627 -0.018542659 0.3657082 0.14722332 -0.025599292 -0.36756572 0.4842924 -0.40618756 0.04868473 0.014088819 -0.43977025 -0.10219011 0.08711219 0.29294056 0.09099956 0.5764359 -0.28641012 -0.6129773 -0.3457663 0.22438522 0.4247469 -0.3437424 -0.25500315 -0.5230019 -0.04066584 0.19597633 0.22799201 0.3075615 -0.4736927
meeting 0.68281084 -0.17803937 0.122754574 0.048037287 0.248879 -0.15120004 -0.63863176 -0.6798071 0.56620884 0.04928043 0.857434 0.07857759 0.13552853 0.034122836 -0.21257149 -0.39877135 0.29590452 -0.8491323 -0.85426164 0.6514566 -0.6788138 0.055972572 0.044231072 0.380524 0.054093465 -0.2961077 -0.59882224 -0.021198424 -0.07228194 -0.066113934 0.18107471 0.4585623 0.31207883 0.31948897 -0.2525315 -0.3250996 -0.41646507 0.019621542 -0.22170757 0.2845481 0.14832775 -0.7446339 -0.20581102 0.010783017 -0.7278996 0.4765948 -0.7454098 -0.06689538 -0.65466774 -0.3375379
of 0.3890763 0.20139919 -0.013374674 0.22606823 0.085882075 0.10439485 -0.17617369 -0.2854113 0.5077645 -0.32194427 0.3103506 -0.2998375 -0.09263175 0.11963405 0.026612772 -0.01321224 0.04037257 -0.047538217 -0.5446336 0.1610537 0.06661164 -0.041418314 0.32021397 -0.22113359 -0.053621456 0.10439139 -0.08566798 0.01227567 0.025266264 0.1888619 0.0075506945 0.0133804735 0.0479199 0.113169916 0.22153175 0.0400812 0.13399805 -0.18311916 -0.037336387 0.12275273 0.2356441 -0.089917794 0.10765427 -0.14895397 -0.22091281 -0.25500554 -0.02796352 0.14810286 0.29548305 -0.10671368
through 0.09569488 -0.5903943 0.6553174 0.32473806 0.20685184 -0.1976942 0.19492826 -0.10376103 0.04985532 0.25714248 -0.08203263 0.25797382 0.02277164 0.26555353 -0.0972813 -0.07045164 0.53552943 -0.6224899 -0.46334147 0.73611706 0.1462455 0.27016136 -0.47421417 0.08413348 -0.081376486 -0.7400863 -0.14245617 -0.33724904 -0.2295776 0.30596787 -0.6813635 -0.75510454 -0.18994716 0.004398853 -0.12081913 0.8831976 0.5801643 -1.0583091 -0.058621455 0.11721834 0.23907892 0.16016832 0.7439369 0.40282977 -0.45245367 0.16978127 0.080902636 0.7401106 0.29144335 -0.2956907
dangerous 0.17510734 -0.090383604 0.0048536723 0.43603855 -0.055543546 0.3392424 -0.78765464 -1.0795422 0.7037102 -0.31793582 -0.41283223 -0.02111059 -0.4629027 -0.18614143 -0.064139724 0.31527713 -0.07414486 -0.5106566 -0.35408252 0.14022426 -0.3033298 0.54070145 0.26293412 0.13667095 0.35709113 -1.2807175 -0.54236144 -0.21161674 0.78451955 0.13967684 -0.58700186 0.556861 0.13019897 -0.45391914 -0.10778722 0.29971987 -0.17519285 -0.30215493 0.40719602 0.123736456 -0.15234439 -0.4843453 0.68644756 0.10515549 -0.41222903 0.2285449 -0.15005393 0.17004253 0.3252149 0.29104945
are 0.5122664 0.44919017 0.7221187 0.2150955 0.031290654 -0.5973496 -0.47469023 -0.67023224 0.18430097 -0.15417601 0.27085716 -0.35917965 0.061446868 0.56869954 0.11989269 -0.52427065 0.9265941 -0.05361825 -0.36062875 0.08612871 -0.27328426 -0.09829732 0.20639764 -0.037751142 -0.3660804 0.32193646 -0.52912486 0.009531052 0.6742107 -0.24314371 0.16894774 0.00336751 -0.27387115 -0.2648718 0.47367755 0.16133739 -0.14050393 -0.5203089 0.13378881 -0.0043791556 -0.21504007 -0.023126567 0.3445747 -0.17313528 0.06854886 -0.101308644 0.31572804 0.8575627 0.59796387 -0.8079115
due 0.25463766 0.30622607 -0.5612773 0.62290114 0.35494986 -0.2361599 0.34408852 -0.09113977 0.66977274 0.31783324 0.5635718 -0.3523898 0.18675931 -0.6239071 0.07865544 -0.20059364 -0.032086987 -0.020552343 -0.32347956 0.41805765 -0.35734174 -0.30516312 1.1793239 0.19489966 -0.06705813 0.21200687 0.046237104 -0.45685855 -0.06645859 -0.15646207 0.3147279 -0.06263148 0.5485679 0.3009596 0.21573685 0.5994462 -0.3063122 -0.18244253 0.24437627 -0.20292576 -0.2291355 -0.59473836 0.22661482 0.10053774 -0.14404131 -0.6402812 -0.58543456 0.4147486 -0.21869835 -0.7977879
issue 0.45031303 -0.45529693 -0.05063003 0.01538517 -0.012402037 -0.42228344 -0.6754775 -0.62887466 0.44351617 0.26513097 0.53487813 -0.06930437 -0.039161745 -0.5622313 -0.6452846 -0.37297234 0.49464396 -0.38630423 -0.680857 -0.06713234 -0.301963 -0.6427401 0.99193573 -0.2780266 0.19288105 -0.55687314 -0.44756997 -0.033793844 -0.2522132 0.14627136 -0.48220536 -0.08055462 -0.27112758 -0.13400465 0.36691302 -0.12979902 0.42867506 0.45179364 -0.266613 -0.3532648 -0.5547775 -0.7038741 -0.07549598 -0.602418 -0.3070264 -0.4828558 0.13144733 0.12406778 0.524467 0.0003663334
early 0.11902161 0.33798948 -0.3183433 0.17920533 0.6661885 -0.31554326 -0.013227495 0.716825 1.0689812 -0.20052025 -0.07326298 -0.13487771 0.21617074 0.24871518 0.038499147 -0.24250673 0.6344307 0.10665042 -0.24873234 0.37512776 -0.22238924 -0.41315168 0.118395425 -0.07309552 -0.24430336 -0.6208579 0.23992509 0.028211096 0.29738125 0.2618234 -0.31741065 0.05105504 -0.23010296 0.4860777 -0.24934359 0.46922728 0.117061704 -0.11378485 -0.085490815 -0.015704077 -0.11128147 -0.3516486 0.53687835 -0.6039043 -0.48452225 -0.6539888 -0.542303 0.03721411 0.15460065 -0.7999347
next 0.48989755 0.17049885 -0.12382273 0.09079312 0.40877873 -0.17922617 0.42971674 0.0417033 1.3965299 -0.07983578 0.2994816 0.1752075 -0.13029079 0.21792457 -0.10899775 -0.54947376 -0.08015095 -0.48991048 -0.16230643 0.68464965 -0.2811013 0.17065008 0.35689437 -0.117570505 -0.6194887 -0.68381757 -0.28602934 0.51284134 -0.20247498 0.55973965 -0.0032515677 -0.0012233562 -0.11765808 0.46398383 -0.21960606 0.72902876 -0.37743732 -0.35424668 0.2717653 -0.20417984 -0.33112577 -0.55773604 0.35003218 -0.6748233 -0.21738152 0.10560925 0.4717728 0.7831227 -0.033391256 0.112183616
make 0.51676047 -0.21160017 0.072947904 -0.33021083 -0.21178105 -0.42238724 -1.2323734 -0.16574322 -0.065069616 0.19074172 0.060668435 -0.51725525 -0.2947578 0.042651407 -0.6276124 -0.35908753 0.17965415 0.18693535 -0.42004845 0.37704718 -0.21005109 0.22939853 1.0318791 0.60345805 -0.19803125 -0.030493647 -0.025520986 0.065027595 0.08836649 0.0802369 0.05258805 0.1195875 -0.09372045 -0.27821442 -0.047801245 0.47433448 0.39879712 -0.44002026 0.3163886 0.14943454 -0.24824093 -0.21826608 0.36322242 -0.1777597 -0.2891809 -0.010562288 -0.37932417 0.5505868 -0.2387105 -0.07436608
senior 0.8620517 -0.422367 -0.25813827 0.3914604 0.7495173 -0.7812986 -0.6381145 -0.977589 0.3062352 -0.3205115 0.50728863 -0.55028796 0.052573834 -0.06896422 -0.22248006 0.4365407 0.463531 -0.34098503 -0.54326963 -0.116930276 0.28842303 0.31813288 0.8258688 0.23239307 -0.13464113 0.6180635 -0.53193134 0.50529 0.3742175 -0.0072803767 0.07658275 -0.8432335 -0.13768487 0.020710045 -0.37710762 0.17945132 0.13881381 0.45276275 0.27661863 0.23607044 0.4697796 -0.7649301 0.0858238 -0.38056424 -0.27170706 0.30389357 -0.046252225 -0.20267256 -0.28493536 0.31009972
have 0.4320449 0.09326881 0.5179778 0.23147301 -0.065312855 0.45295596 -0.22453341 -0.6382139 0.19658902 -0.8980656 0.5149906 -0.33881912 -0.50472754 0.1630522 -0.51806957 -0.06605579 0.22954817 0.33461684 0.13272594 0.31235656 -0.23954076 -0.3705178 0.38692322 -0.16953918 -0.11366866 -0.071385816 -0.17562135 0.19843839 0.49669224 -0.06814844 -0.19981833 -0.13370433 -0.08013875 -0.03940469 0.25941107 0.20250274 -0.095289126 -0.6928009 0.1236301 -0.06530123 -0.18913026 -0.41202548 0.7252 -0.2585071 -0.31134388 -0.37901136 -0.07756185 -0.09243323 0.15251878 -0.121449195
long 0.65672094 -0.45799202 -0.06458216 0.68676263 0.40206438 0.03635738 0.60184705 -0.2825444 0.30530515 0.29582852 0.39812523 0.24009526 -0.37623584 0.60203 0.3677084 0.0338763 0.4371878 0.035104264 -0.0758269 0.9656593 -0.9564135 -0.20564005 0.26209658 0.7202161 0.36581585 -0.48498344 -0.014644023 -0.15560533 0.7654062 0.89671314 -0.03635581 -0.38962132 0.1773944 0.1088561 -0.12724678 0.94833326 0.19447623 -0.20269753 0.04555983 0.123322345 0.14921616 -0.20495781 0.21339107 -0.68862027 -0.094908126 0.10528175 -0.44735745 0.08862288 0.013428951 0.10949182
been 0.5413968 -0.21278332 0.26183257 0.20809376 0.32316446 0.30207172 -0.32068768 -0.65112984 0.41658008 -0.54473335 0.19126259 -0.21264985 -0.36645913 0.3993065 -0.34693193 0.17934985 -0.17442341 -0.13893746 -0.033608098 -0.28084895 -0.41297182 -0.2912334 0.71811306 -0.113618165 0.37460485 -0.32208556 0.05830147 -0.14963368 0.3881102 0.05771666 -0.4841036 0.022527302 -0.1130341 -0.079916306 0.3717054 -0.051373 -0.4255383 -0.17137587 0.294489 0.43639433 0.32443753 -0.39592618 0.40308434 -0.2145726 -0.5718236 -0.77133495 -0.026400382 -0.53699934 -0.11506034 -0.567332
known 0.17661631 -0.51768756 0.16281548 0.13234493 -0.2293844 0.48980162 -0.3215881 -0.5381811 0.40184757 0.14216004 0.18989101 -0.6163371 0.07634472 0.7586971 -0.5367118 -0.16326419 0.40316364 -0.1502256 0.5189983 0.6175028 -0.3404241 0.44939566 0.73105145 0.25077063 0.15882955 -0.17512968 0.26948008 -0.34766978 0.96769345 0.15021484 -0.24351916 -1.0095292 0.09092603 -0.23464257 0.053432178 0.78662914 -0.6395974 -0.08680187 0.18953714 0.11504081 0.07222496 -0.47689185 0.03072665 -0.8867448 -0.7527994 -0.9146438 -0.18616815 -0.44469464 0.5320082 -0.04001789
similar 0.23387194 -0.27083978 0.50057083 -0.25521177 -0.5655589 0.17686105 -0.513578 -0.104333095 0.061330903 0.13926558 0.73969734 -0.25137532 -0.20313394 0.017196083 0.27117184 0.06340885 -0.37632632 -0.29117507 -0.03978367 0.15571469 -0.41717795 0.4162796 0.93891317 -0.083915606 0.14533466 -0.37537488 -0.23923118 0.21210553 0.46729007 0.46271428 0.5897302 -0.42234975 -0.03822818 -0.37103158 0.20126891 0.7394902 0.45058137 -0.24266873 -0.6648674 0.6915057 -0.3045193 -0.91912526 0.3847091 0.09808968 -0.414548 -0.11397724 -0.044384863 -0.5422318 0.5641203 -0.17754106
which 0.39718762 -0.016103042 0.017673329 0.18755393 -0.12946725 -0.3714816 0.13817045 -0.114052646 0.021564212 -0.26147076 0.5045523 0.058439936 -0.036895785 0.5817659 -0.4187864 0.27091435 0.02972662 -0.11830909 -0.60001576 0.57358384 -0.0057818764 -0.0068706404 0.3910289 -0.17024302 0.061756596 -0.30960786 0.4179806 -0.1740019 0.30705744 -0.009564503 -0.015088982 0.1704356 0.16267982 0.20530407 0.32026744 0.5279725 0.027782906 -0.13712011 -0.024711587 0.29291108 0.56861866 -0.4008116 0.39452603 -0.3808417 -0.2096913 -0.4099425 -0.16567463 -0.29331592 0.07219299 -0.33892125
is 0.26930776 0.12506483 0.19529268 0.22070117 0.008304878 -0.19750407 -0.64997417 -0.5676276 0.26823238 0.03886466 0.30194405 -0.1398299 -0.31368902 0.47307608 0.28206146 -0.2658147 0.4870347 -0.38477054 -0.36763588 0.19622335 -0.22949143 -0.049072605 0.35004482 -0.016536593 -0.029749501 -0.098130755 -0.15014006 -0.13549103 0.35357586 0.26870555 0.028065376 -0.111495264 0.15437232 -0.27702492 0.26842263 0.33410352 0.22249836 -0.20935012 0.3593309 0.124324776 -0.068465054 -0.3615582 0.24526666 0.07299258 -0.46963018 -0.28152034 0.2664809 0.44261575 0.03155686 -0.40349552
believed 0.55943304 0.050819073 0.28295562 -0.2150799 0.013272277 0.36900368 -0.03047117 -0.47664556 0.19654645 0.19126025 0.41534248 -0.2520269 0.69796634 -0.058602713 -0.45977917 -0.15858822 -0.05545508 0.2092178 0.07199298 0.67137474 0.40079796 -0.24786562 1.4662883 0.31157985 0.5893962 -0.09742733 -0.79879695 -0.47387862 0.31344008 0.23906362 -0.5044277 -0.6306737 -0.3334458 -0.30465668 0.1405299 0.56085616 0.5189677 0.008518659 0.34014028 0.29852203 -0.25702828 -0.58958405 0.7436664 0.7261526 -0.82194716 -0.3690906 -0.053028505 -0.030359609 0.29543898 -0.506453
cattle 0.9072859 -0.010606084 0.5269088 0.13502459 -0.044912815 -0.26241702 0.14402993 -1.0218878 0.6147124 1.1258485 -0.22883366 -0.16379063 -0.40718737 -1.3187654 0.08000966 0.26700377 0.17309795 -0.06517314 -0.14770357 0.6730657 -0.08311237 -0.45760402 1.0230999 -0.21660616 0.3552604 -0.4346865 0.13334805 0.27168596 1.0533402 0.116736576 -0.47206992 -0.3674705 0.0365509 0.07619604 0.8057601 0.800883 -0.41694915 -0.22062182 -0.5268098 0.21470498 0.49376032 -0.7118736 0.6493068 -0.09471757 0.46888575 0.14708714 0.09033675 -0.79591984 -0.13279442 -0.7131736
feed 1.2007494 0.34529507 0.4615783 0.21571645 0.20389962 -0.42645845 -0.35722697 -0.35793692 0.5829307 1.0447642 -1.9834721 0.13772193 -0.43067202 -0.14563148 -0.09457238 0.3554232 0.062392358 -0.32225856 0.33475074 0.3579751 -0.1405663 0.454699 1.2923076 -1.0272838 0.3715162 -0.72001874 -0.29970405 0.9612135 -0.060397718 -0.43281615 -0.47903016 -0.57223713 -0.55534387 -0.62933713 0.66189826 0.9126527 0.021897633 -0.6755064 -0.4760711 0.33018726 0.13101763 -0.39164373 1.1929706 0.21360324 0.17642584 -0.47914523 0.50172603 0.14050415 0.29059795 -0.22521408
farmers 0.355835 -0.049808443 -0.529615 0.46590236 -0.70125353 -1.0035049 0.32695538 -1.0976301 0.24195439 -0.26041943 -0.19626684 0.22683764 -0.73956776 -0.15320896 -0.095161565 0.75620085 0.5961429 -0.07557504 -1.1057397 -0.13186471 0.10452836 0.44301727 0.94559246 -0.11736142 0.68219143 -0.5946714 -0.6830161 0.59507126 -1.0181376 0.2903907 -0.3423552 -0.703689 -1.0885787 0.007968901 0.63462275 1.0719889 0.4040813 -0.41202638 -0.5257915 0.36332813 -0.18045047 0.024039822 0.586262 -0.7267983 0.18138267 -0.6735022 0.5937231 -0.18248619 -0.19513625 -0.86938906
denied 0.6231059 -0.39972854 0.6341249 -0.099582165 0.52813137 -0.6571092 -0.1783869 -0.030030975 0.29672083 -0.52205634 -0.22137487 -0.18437324 -0.02200507 0.6593982 -0.2058014 0.6836971 -0.09050398 0.36887667 -0.89710146 -0.55478966 0.46075895 0.23125081 1.2468309 -0.014373795 0.71676165 -0.11161097 -0.43204892 0.8880569 -0.13632958 0.18762195 -1.3433532 0.42139924 0.41298655 0.22149916 -0.568483 0.29586282 0.25699845 -0.3929427 0.2620025 0.47235072 -0.29526606 -1.5966396 0.10591018 -0.091799796 -0.06477802 0.16796003 0.41820893 -0.42323154 0.07414245 -1.7698153
danger 0.22760782 -0.22789955 -0.05891738 -0.029965764 -0.12940028 0.1684693 -0.1986614 -0.27652058 1.2765806 -0.03732103 0.18030144 -0.32325554 -0.6481372 0.2615884 -0.006990579 -0.8055549 0.610719 -0.22139916 0.117038466 0.7250872 -0.31610897 0.11669279 0.177743 0.9093265 0.90321004 -0.6603509 -0.2789086 0.10861503 1.8558395 0.14772953 -0.30240113 0.005070621 -0.025925089 0.38895792 0.28037608 0.8325092 0.22998703 -0.7212186 0.07289648 0.28073245 -0.055468816 -1.0126587 -0.24129772 -0.009818587 -0.57180935 -0.5806972 -0.18146504 0.2879181 0.46808076 -0.2152301
their 0.63650864 -0.12451023 0.16010995 0.2528136 -0.17620912 0.18403362 0.09723343 0.053603124 0.65631926 -0.33717278 0.36100718 -0.4835549 -0.25734967 0.14622317 -0.17842223 0.29456452 -0.08798875 0.26465806 -1.0569409 0.050372828 0.09944395 -0.012280463 0.15461059 0.20622875 -0.47242978 0.033882786 0.04032639 0.17465842 0.6441301 -0.23665774 -0.078632556 0.20496747 -0.19889858 -0.29577857 0.04242593 0.52206826 -0.7068609 -0.32309413 -0.055926844 -0.10262858 0.060081996 0.3665723 0.019690929 -0.44732177 0.11060845 -0.4125997 -0.26973087 0.33223525 0.047109324 -0.40709606
but 0.45252797 0.0011487805 -0.10326506 0.16815564 0.13860674 0.07641465 -0.0994165 0.060211945 0.482506 -0.12798886 0.5683322 -0.31570345 -0.6485029 0.18101548 -0.08132377 0.15559478 -0.18001658 0.35106087 -0.17807807 0.08787422 0.18057016 -0.41387376 0.44921196 0.25293812 0.18460985 -0.46485823 0.5116409 0.29588905 0.53641707 -0.22863537 -0.1200628 0.12052884 0.15814076 0.22645071 -0.040848576 0.49500427 0.28526875 -0.021888774 -0.17462136 0.35544273 -0.13281335 -0.45436966 0.42279842 -0.06896051 -0.38011533 -0.2814093 -0.075745724 0.11541745 0.13949805 -0.28561923
expressed 0.75006145 -1.0463003 0.4771842 0.2616397 0.10874663 -0.42132246 -0.80685663 -0.08394997 0.09426082 0.20699187 -0.0993654 0.20447418 0.3456224 -0.23204601 0.45680487 0.06487322 -0.3763934 -0.46358278 -0.4325903 -0.26190925 0.40494728 0.07217732 0.7945857 0.0923933 0.5593591 -0.5198275 -1.0777116 0.21405493 0.14620982 -1.0384282 0.2953884 0.31184998 0.20488615 -0.5244169 0.17279683 0.405287 0.015363495 -1.0862747 -0.77335703 0.20876352 0.30895376 -0.46257377 -0.26932946 -0.28230366 -0.085056014 -0.17609367 -0.92634404 0.313676 -0.025272263 -0.5601014
concern 0.87300533 -0.12565331 0.48620316 0.79000545 0.1926343 -0.20376153 -0.55880183 -0.4350092 -0.13647404 0.06806842 -0.52368116 0.21512921 0.3754674 -0.8846293 0.40190145 -0.18623947 -0.20107538 -0.4537132 0.2262066 0.42807636 -0.01678732 -0.15225096 0.7754777 -1.1168648 0.130612 -0.86536497 -0.61319387 -0.12203372 0.3099507 0.23831567 0.4616319 -0.0048473747 -0.15943798 0.22072339 0.856134 1.2759304 0.1693997 -0.9961564 -0.81100345 -0.0040591946 0.23573895 -0.6047076 -0.37993553 -0.10506959 -0.02153198 -0.040530853 -0.40302622 0.312688 0.11001978 -0.35280222
government 0.54619443 0.16430412 0.0065051257 0.3083755 -0.18887505 -0.080151364 -0.26133367 -0.572981 0.50069296 -0.59355044 -0.17478469 0.3722275 0.11133828 0.13477659 -0.31960487 0.24079764 -0.20899287 -0.18869254 -0.42819282 -0.011155098 -0.25942162 -0.004683698 0.79385823 -0.21212007 0.14670387 0.3459818 -0.019325687 0.5312377 0.14618644 -0.14293876 -0.21414906 0.26136056 -0.13610493 -0.10935098 -0.10472574 0.28592798 0.14524421 -0.14208953 -0.019151164 -0.15496409 -0.51298976 -0.666984 0.10703929 -0.41611913 -0.30185303 -0.23941001 -0.88024855 0.015534232 -0.27517775 -0.5519413
avoid 0.16315341 -0.18335131 0.15328978 0.36637208 0.45160225 -0.09188165 0.098700784 -0.7792408 0.491317 -0.4756104 0.12978046 0.36437488 -0.7444493 0.0933493 0.4272781 -0.3674472 0.16367003 -0.47215003 -0.5581248 0.5262108 -0.9231801 0.32089567 0.7660754 0.31302992 0.47663793 -0.4786352 -0.6078005 0.7405704 -0.61828953 0.020163365 -0.7658645 -0.018029697 -0.093146704 -0.16087523 0.5388992 0.73830324 0.08613859 -0.64383715 -0.2037398 0.20113893 0.016846986 -0.1083858 -0.25041124 -1.0030667 -0.57813483 -0.34054694 -0.5467737 -0.0698875 -0.14556317 -0.5392823
might 1.0260212 -0.72133803 0.3049826 0.4402644 -0.09144642 0.5148809 -0.3227092 -0.40730417 0.26670188 -0.36733428 0.48066273 -0.101830825 -0.145168 0.57261074 0.93060213 0.40625632 0.42008376 -0.0007994455 -0.115060754 0.7901266 -0.016420009 0.30823126 0.7931711 0.40156624 0.29601792 -0.20770934 -0.4633304 0.5579595 0.08535764 -0.1956161 -0.22680393 -0.4990774 -0.017019622 -0.10898622 0.71318305 0.4957566 0.41448593 0.27340207 0.35689375 0.32331854 -0.3456255 -0.64282674 0.6017862 -0.27325603 -0.3273696 0.41358262 -0.3677954 -0.2732222 -0.5776177 -0.9012373
across 0.60198987 0.13763732 0.5225483 0.65066314 -0.29973432 0.4401986 -0.14474007 0.0014799292 0.3461799 -0.3651535 -0.028436618 0.415168 -0.73190224 0.25713933 -0.27837974 0.14240786 0.31973165 -0.019621816 -0.42590246 0.82485586 0.22906746 0.29681867 0.87417114 -0.06341681 0.08857609 0.19606324 -0.38668635 0.27869737 0.06092592 0.44778812 -0.6632206 -0.17581187 -0.4029998 -0.056908015 -0.1033027 0.7868084 0.32367668 -0.49735844 -0.384514 -0.1763585 0.27241272 -0.07196645 0.56089735 -0.30366072 0.35756838 -0.07445554 -0.28965828 -0.2746249 0.3285117 -0.44427434
Europe 0.6416803 0.014337729 -0.25615805 -0.5536907 -0.38137078 -0.10188534 -0.2727399 0.117159374 0.5895342 -0.19848973 -0.067897946 -0.082007915 -0.19139181 -0.06331984 0.026406253 0.26124302 -0.16839594 -0.7021728 -0.24288023 0.7250063 -0.49279815 0.37117466 0.26142192 -0.526271 0.46569845 -0.6983221 -0.9703785 -0.047917426 0.5850843 0.051577296 0.01246162 -0.04209887 0.71316653 -0.45034784 -0.13220343 0.77203494 0.08077501 0.45837915 -0.8321514 0.29486856 0.32436252 -0.21772124 0.097162835 0.052168 -0.30904564 -0.37094855 0.9180071 -0.22358 0.43022713 -0.5634789
What 0.7904537 0.57960063 -0.5170923 -0.22496629 -0.29771313 -0.5682828 -0.6204905 -0.41782063 0.3952078 -0.2214885 -0.37383112 0.017905591 -0.96463037 0.41542894 -0.373152 0.25498912 0.4717798 0.4022908 -0.58788604 0.30576158 -0.7752185 -0.37570438 0.17034206 0.037185557 0.42932594 -0.60039496 -1.0006895 -0.06019802 -0.5286473 0.6750183 -0.34938258 0.29821473 0.19095299 0.2550921 0.09330458 0.52490383 0.7345046 0.28588745 0.026469018 -0.2849493 -0.34346396 -1.0075542 0.12192003 0.005116727 -0.48733637 0.0020836506 0.08771275 1.0318394 0.3790281 0.35365668
how 0.92066735 -0.09823397 -0.31779557 0.24945866 0.09746023 0.24139707 -0.65735024 -0.050926328 0.21483825 -0.51547927 0.31548956 -0.37825516 -0.5843401 0.068945825 -0.29751703 0.6209804 0.105377816 0.671555 0.4010341 -0.37725356 0.2630464 -0.46150357 0.2625913 0.09143672 0.20594764 -0.5728822 -0.23510197 0.19758452 0.8014178 0.42338905 -0.20933467 0.08571183 0.14899206 -0.31775594 -0.30217648 0.37831667 0.5522604 -0.56026727 0.091922045 -0.24606445 -0.1843371 -0.9241815 0.23002338 -0.16695532 -0.38048887 -0.15695871 0.39328706 0.34127086 0.45214048 -0.58363587
going 0.9460045 0.2482965 0.24659705 -0.07403714 0.135297 0.2599142 -0.5297091 -0.58978087 0.3602422 0.9875123 0.13135229 0.2689877 -0.6727233 0.23805232 -0.1687069 0.06981547 0.25391138 0.048365187 -0.17748344 0.48286474 0.3503704 0.18349208 0.364395 0.62355775 -0.04665718 -0.46049348 -0.61596906 0.2825624 -0.21514665 0.2236608 0.3295805 -0.29889512 0.12865934 -0.42408708 0.29068038 0.7094979 1.1158007 -0.7037347 0.11232701 -0.20407379 -0.14093678 -0.3358296 0.39735138 0.25291872 -0.15966383 0.08254146 -0.3543314 0.76784736 0.4930979 -0.31358692
take 0.23984405 0.26162925 -0.082109 0.5928266 -0.23492984 -0.62244564 -0.35740426 -0.35678425 0.63591623 -1.0577856 0.23437516 -0.06905257 -0.16796231 0.36456367 -0.21092281 0.11616754 -0.12675513 0.32962856 0.049867902 0.36907858 -0.08914829 0.047991026 0.95035243 0.18719073 -0.37557665 0.33212835 -0.31310585 0.12887704 0.019446736 -0.16590078 -0.3549112 0.65721387 -0.06684789 0.41655016 0.28399175 0.5887544 0.62744784 -0.18528025 -0.20081423 0.40356758 -0.5732252 -0.57295823 0.43152866 -0.25360873 -0.05662839 -0.18829918 -0.19808593 0.10521692 -0.5345648 -0.12996832
lead 0.7024804 -0.79959816 -0.521078 -0.62260365 -0.5547849 -0.7418662 0.09381876 0.8571655 0.32909688 0.22433782 0.7616022 -0.6587316 -0.6216299 -0.198824 -0.7590551 -0.79871243 0.24627036 -0.5634071 -0.18025857 0.102540955 0.30332384 -0.2894694 0.49969023 0.2554397 0.23494825 -0.024428593 -0.14021526 -0.30955723 -0.6783479 0.18511122 -0.362941 0.7899996 -0.2345557 0.31169167 0.32455567 0.5957426 0.1491089 -0.66452986 -0.23243645 0.09538176 0.5142712 -0.039871544 0.08620942 -0.2992406 -0.7673666 0.109927416 0.36386552 0.2040364 0.4789124 0.14949104
National 0.778636 0.27657306 -0.11232565 -0.54337144 0.32667652 -0.7394436 -0.8638428 -0.09576249 0.5231308 -0.22136064 0.8791652 -0.48587507 0.5288867 -0.54959667 0.31406397 0.47165272 0.0056446535 -0.5208414 -0.15977034 0.19685678 0.044430133 -0.19264367 0.07868025 -0.53061223 0.18508187 0.60371614 0.0014949167 0.53898144 -0.009679489 0.62071824 -1.0836985 -0.052168436 0.24544613 0.19048426 0.44264048 0.39014563 0.5787737 0.093730114 -0.19379292 -0.9957112 0.19181992 -0.11342622 -0.34335077 -0.33560607 0.009497628 0.35808274 -0.44192612 0.25584614 -0.46565166 -0.02365724
chairman 0.7748544 -0.42027363 -0.018113215 -0.6156862 -0.30223504 -0.7835127 -0.08745602 -1.2410605 0.6320271 -0.85810393 0.30482253 0.15066485 0.33993313 0.017674034 0.18355818 0.07766751 0.5866991 -0.14223829 0.22128433 0.20616157 -0.20499198 0.23928927 0.23464973 -0.21392986 1.2347134 0.44332165 0.16264908 0.03454091 -0.024000999 0.28847897 0.24551514 -0.16889328 -0.55946845 0.35247746 0.3288389 0.4790725 0.6570378 -0.38708767 0.16409186 0.29719776 -0.37385792 -0.42244703 -0.30366784 -0.50825024 -0.7355314 0.16090056 0.6556395 0.29273337 0.027671441 -0.28364837
John -0.13339345 -0.38492316 -0.532967 -0.0214946 -0.3017787 -0.42656538 -0.76841664 -0.2766172 0.85416543 0.7069834 0.43498617 -0.61805224 0.47646058 0.09250616 -0.14921756 0.24136853 -0.47848523 -0.048245076 0.50332844 0.017473113 -0.35773423 -0.10816411 0.007227955 -0.31006855 0.9241759 -0.45045263 -0.08378447 0.3423852 0.2395404 0.7332933 0.14157347 -0.024811365 -0.16791727 -0.2066264 -0.74106747 1.0456604 0.010035906 -0.6353349 -0.26058722 0.13883759 -0.12541261 0.50728124 -0.01672912 -0.19362667 -0.7476584 0.34399685 0.5955311 0.7659312 -0.39815745 -0.019346185
Lloyd 0.63168955 -1.0980263 -0.61265475 -0.75025207 -0.26758993 -0.6200336 -0.4420748 -1.4599724 0.02991084 0.22590269 -0.22507133 -0.6421618 1.013916 -0.043128 0.1624092 0.3978364 -0.3997072 0.0719508 -0.28328884 0.40391716 -0.1501861 0.069237225 -0.02957634 -0.22594896 -0.27951938 -1.1355883 0.3129942 -0.006119894 1.101793 -0.5330587 -0.8813248 0.5837487 0.031923905 0.39176065 -0.086562574 0.10453108 0.80708563 -0.26571053 -0.29306462 0.6775878 -1.0137331 -0.92341745 -0.07036484 -0.7868529 -1.0307983 0.29914075 -0.19929855 0.35210124 -0.47242773 -0.03508696
Jones 0.7294108 -1.2700533 0.28760827 -0.24401113 -0.6836779 -0.43251872 -0.6160718 -0.67704374 0.119208135 0.9685345 -0.47657973 -0.52216846 -0.16320418 -0.8827755 -0.06425704 0.6474805 -0.30469373 -0.18522894 -0.19037502 0.010592359 -0.17760535 0.32721668 0.43899766 -0.20437026 0.2176824 -0.5438019 0.09588275 -0.5859258 0.41503012 -0.356806 0.029490424 0.14117847 -0.14800636 0.13818805 -0.43220687 1.0990067 0.26946735 -1.1092216 -0.15239182 -0.8433618 0.18411167 0.61780566 0.6602721 -0.6125685 -0.2543339 0.106552266 -0.58609587 -0.25340077 -0.096222736 0.5023087
radio 0.3226993 -0.13253357 -0.10434677 -0.026264733 -0.13777827 -0.3245798 -0.40171456 -0.29775476 0.39441445 -0.5106695 0.08978968 -0.34484845 0.19249271 -0.27972603 -0.5946622 0.28405923 0.59279895 -0.32700154 -0.20491137 0.066900976 0.40255058 -0.5407342 0.3275341 0.5539475 0.7485084 0.014201995 -0.12051749 0.3850261 0.19718681 0.008246466 -1.0228058 -0.29968593 -0.14429492 -0.33613288 -0.65738386 0.7369737 0.46148372 0.5143843 -0.37890074 0.17821634 -0.59157956 -0.62737715 0.08107992 -0.37089512 -0.10611313 0.40191722 -0.19128558 -0.20338443 -0.32317173 -0.6061091
has 0.18075395 -0.1508938 0.4432425 0.6120056 0.100105956 -0.12934214 -0.31213853 -0.8398871 0.35142517 -0.56570584 0.26975942 -0.27097777 -0.38067058 0.42353383 -0.08703705 -0.37282735 0.25716266 0.00875865 -0.1600155 -0.4804917 -0.31597686 -0.34130052 0.5561922 -0.29807785 -0.10268483 0.17818385 0.19121419 -0.11865748 0.31277984 0.42794648 -0.34705082 -0.09023514 -0.15835999 -0.48715776 0.054563187 -0.0831053 0.1261681 -0.60063505 -0.08765336 -0.2307802 0.060596813 -0.59169084 0.12015384 -0.059287164 -0.47942352 -0.24991614 -0.041419487 -0.042034283 -0.3846796 -0.23626398
led -0.043514162 0.1918508 -0.4109044 0.11586251 -0.17477535 -1.0143113 -0.7397211 -0.015633773 0.084504165 0.14508855 0.7716817 -0.16439465 0.86093986 0.6003692 -0.2554521 0.18032178 0.38343725 -0.48183692 -0.49917474 -0.07955304 0.5243035 0.24238476 0.47780192 -0.40024376 -0.21984434 -0.66923016 -0.38480282 0.08338805 0.4783466 0.25465557 -0.2561597 0.69416153 -0.07438908 0.23254733 0.28265238 0.5683931 0.15703897 -0.5239194 -0.18995933 0.5935532 1.1670097 0.14243443 -0.0645953 -0.3464355 -0.88612634 0.14554007 -0.22942738 -0.5127554 -0.3060961 -0.40638942
efforts 0.4907068 -0.6385046 -0.1942729 -0.12512884 -0.26131475 -0.36257562 -0.07566712 -0.5171255 0.15281883 -0.121528655 0.66578007 -0.14811537 -0.2808909 0.24660748 -0.75550205 -0.3822497 0.37858683 -0.5895223 -0.3173678 -0.1783144 -0.80919474 -0.54552245 1.3128107 -0.009696528 0.33515075 -0.79138327 -0.40336362 1.023227 -0.36049095 -0.4066401 0.22152928 0.31411853 -0.11965688 -0.69063747 0.16913237 0.305259 0.14311805 0.19302158 -0.34525445 -0.61552507 -0.29028648 -0.44388524 0.23196574 -0.28798494 -0.5878654 0.5655032 -0.57596034 -0.30300015 -0.228718 -0.14751348
public 0.7965217 -0.29722005 0.16373679 0.63560444 0.08234337 -0.70371246 -0.5323514 0.23655933 0.12699889 -0.28245085 -0.28403202 0.014953801 -0.5358543 -0.118178315 -0.062321994 -0.72426367 0.7217598 -0.41213632 -0.5609464 -0.71658105 -0.09313792 0.045767307 0.53869057 0.15803118 0.39053637 -0.16070594 -0.20920764 0.3393832 0.346898 0.2248673 -0.6669325 -0.026649617 0.26697794 0.5335913 0.5031369 0.6086557 -0.059948064 -0.10457071 -0.4139199 0.8267987 -0.52304035 -0.1070397 0.14845985 -1.101002 -0.38720688 -0.36310902 -0.7637919 -0.50095785 0.42615095 -0.20705874
consumer 0.9567307 -0.0507509 0.63539934 -0.53647953 -1.173297 -0.7091204 -0.4128241 0.21124056 -0.3180338 0.17730837 -0.8408703 -0.22911988 -0.19452375 0.4559967 -0.6728714 -0.81576616 -0.25517857 -1.0775417 -0.29971159 0.030279517 -0.547098 0.13274287 0.79372954 0.32454714 0.5418517 -1.0405289 -0.7384 0.4420099 -0.41650158 -0.08529732 0.4044113 -0.05696914 -0.49456722 0.95068175 0.08507961 1.3607404 0.19625856 -0.5935354 0.16645442 0.09333841 -0.82882315 -0.21776217 0.77172583 -1.0626969 -0.27448043 -0.50802153 -0.017502887 -0.1230678 0.101786375 -0.03937487
confidence 0.839381 -0.58832926 0.006860508 0.064027354 -0.5355229 0.47616255 -0.36731037 0.42808363 0.2217755 -0.43344384 0.25090173 0.16934504 -0.2611933 0.4600981 0.033438314 -0.38256785 -0.044535194 -0.3427835 0.09631351 -0.44393465 -1.1026978 -0.08347364 0.7305638 0.15874042 0.039270323 -0.7393077 -0.47111252 1.0685849 -0.22376055 -0.3891692 -0.008229524 0.25499555 -0.11429989 0.531514 0.36105564 0.85480404 -0.41672164 0.06740222 -0.5548485 -0.57773685 -0.9009108 -1.0067546 0.45849591 -0.87036866 -0.20769353 0.005067736 -0.7728454 0.012141555 0.7821506 -1.0806267
in 0.31556392 0.062115442 -0.04755228 0.16713354 0.015321965 0.08740962 -0.16380596 0.069659755 0.53528255 -0.45924765 0.4278317 -0.2083527 -0.0036634312 0.46308962 -0.06748988 -0.22165987 0.032886453 0.091003686 -0.39984238 0.15121704 -0.029285384 -0.1309041 0.42963478 -0.13589782 -0.014813941 -0.054238196 0.09697424 0.06454168 0.052408397 0.12429199 0.07612887 0.029297117 -0.039371584 0.062844604 0.012381716 0.1823753 0.15376501 -0.2547445 -0.16449848 0.16427268 0.23731089 -0.026161924 0.15667666 -0.09553509 -0.29309392 -0.16594045 -0.1910643 -9.9292345e-05 0.24156651 -0.18921576
March 0.5716362 -0.058259882 0.041801933 -0.6033474 -0.08092601 -0.27191794 -0.038083248 0.9042971 0.84112775 0.0036492646 0.7570801 0.34205613 0.42736745 0.09990291 0.057964433 0.35338098 -0.5251817 -0.55488265 -0.27107045 -0.41895804 -0.89588785 0.1512447 0.591064 -0.66140085 0.48025674 0.3089892 -0.40765867 0.8435768 0.23523846 0.42707893 0.031372383 -0.3248324 -1.0149173 0.62776434 -0.24780214 0.7161716 -0.031179633 -0.413067 -0.5269 0.28806138 -0.4546467 -0.910623 -0.027438736 0.21562222 -0.61554885 0.24460596 -0.114530645 -1.032948 0.29703164 -0.41252598
report 1.0765934 -0.5115222 0.43363246 -0.2383624 0.015421295 -0.099471785 -0.59459925 -0.09790015 0.1571656 -0.00045898755 -0.061504506 0.32902047 0.019053796 -0.18625183 -0.6416089 -0.12140177 0.19056623 -0.5072791 0.015257662 -0.10404462 0.25753593 -0.44096506 0.2488475 0.3063814 0.09462231 0.022252904 0.88459855 0.66677076 -0.2820312 -0.33989376 -0.023695242 -0.08890438 -0.1309294 -0.15373625 -0.15745297 0.50655985 -0.09077328 0.028718306 -0.27974236 0.32217616 -0.57451975 -0.9771955 0.44650984 -0.6634867 -0.28955123 -0.024759386 -0.114294186 -0.1374701 0.45969146 -0.8111214
beef 0.4963146 -0.7524779 0.34802088 0.25903395 -0.40904948 -0.6949366 0.052140836 -0.64889085 1.4895256 -0.04954423 -0.6092944 0.12617038 0.11798224 -0.76728886 0.33263344 0.1535742 -0.2082094 0.15355174 -0.05354196 0.2914948 -0.15819494 0.1539934 1.1563287 -0.45084494 0.24056366 -0.3672655 -0.2824738 0.7624159 0.24058743 0.05492087 -0.18006288 0.20668836 -0.79944795 0.107772924 0.83732265 1.2690164 0.06886208 -0.6304108 0.13553643 0.40675172 0.29849738 -1.6378332 0.20639732 -0.29401365 -0.068626255 -0.0221604 0.674168 -0.92239964 -0.21792674 -0.8987709
year 0.6320583 0.3431848 0.26681626 -0.090000115 0.40968218 -0.18218608 -0.18861325 0.114858724 0.67370516 0.27087882 1.1359897 -0.35318315 -0.39544967 0.2881525 0.111377135 0.39247745 0.07523119 -0.17852172 -0.2137876 0.07445127 -0.3644762 0.45216346 0.6409095 -0.43348858 -0.28272834 -0.3614055 0.27561 0.5774921 -0.29336342 0.42599353 0.3540526 -0.15446317 0.037905063 -0.33169168 -0.22149225 0.10553577 -0.291022 -0.33485493 0.24135561 -0.0011674049 0.21038973 -0.93341017 0.15099047 -0.16539158 -0.5237956 -0.49335784 0.5469653 0.021433156 0.09996178 0.09618619
nearly 0.7100288 -0.067655675 0.029685147 0.43196812 0.60403895 0.23317738 0.6084114 -0.48172295 0.2101854 0.18973498 0.23721276 -1.0123901 0.02976011 0.17991197 0.18069127 0.024821054 -0.33019918 -0.61449283 -0.3458056 0.088502154 0.36535963 -0.39162365 0.8398508 -0.50037074 -0.22501226 -0.67022663 0.20684758 0.59550387 -0.11591448 -0.19062398 -0.110248044 -0.014282192 -0.3935643 -0.057899643 0.64268386 0.03732055 -0.025488697 -0.14994659 -0.07157241 0.4835222 0.6991399 -0.24620038 0.6381208 0.3534227 -0.48145655 -0.7698757 0.049704093 -0.06094085 0.15112811 -0.12381036
half 1.0782589 -0.21288447 -0.16436023 0.41101906 0.5057103 0.030842403 0.34402305 0.40068454 0.47155568 0.03572777 0.8913131 -0.215208 -0.24868889 0.19829407 -0.23071156 0.6055007 0.4216649 -0.23664805 0.07034215 0.18031234 -0.36089343 -0.16978173 -0.18915959 -0.33635163 -0.5412127 -0.32535213 0.686006 0.29019278 -0.3606961 0.55212265 0.3640431 0.47548538 0.13882023 0.087401256 0.6590433 0.24210082 0.07477391 -0.635425 0.2718743 0.3434122 -0.7352459 -0.23616526 0.3000422 -0.62494534 -0.8710169 -0.2444648 0.6458005 -0.06858989 0.44748038 -0.53061736
total 0.97466666 0.40383998 -0.18991803 0.37608922 -0.56339 0.26463 0.87827927 0.36452425 0.652521 0.3667571 -0.20146696 -0.6143291 0.5952709 0.345151 -0.3595805 -0.14936745 0.16493589 -0.5272476 -0.76301825 -0.18838556 0.15596206 -0.011960317 0.7162468 -0.51909465 -0.2185386 0.5035586 0.057967935 -0.8070358 0.41996917 -0.21616417 0.1293351 0.19843876 -0.35226285 -0.09956571 0.042636637 -0.4994544 0.44680005 -0.19971168 0.28258124 -0.40114412 -0.5086048 -0.94523007 0.39734983 -0.14550874 -0.4306778 -0.3017077 0.18424623 0.01908531 0.021819064 0.009117706
imports 1.6321 0.5034163 0.6402022 1.1748855 -0.32965225 0.21672542 0.529741 0.17990641 0.52993876 0.38798475 -0.051080972 -0.17414694 0.004111916 0.38160077 0.5466668 0.8411736 0.475828 -0.76793766 -0.77466625 0.058138974 0.63197136 -0.043514412 0.82028705 -1.2867835 -0.07665416 -0.13670325 -0.2917892 0.6122468 -1.1954591 0.729162 -0.11215222 0.6118746 -0.3566696 0.018323846 0.38379437 -0.37971157 -0.24206436 -0.38330534 -0.3236882 0.5741877 -0.13358153 -1.2675763 -0.109895885 -0.45199654 -0.2643894 0.22621429 0.2687858 -0.03410084 0.248936 0.25071025
It 0.52427536 -0.029682249 -0.017750505 0.39179474 -0.07802947 0.12026353 -0.5496091 -0.23548266 0.2506795 0.054942865 0.5259037 -0.19995385 0.04742537 0.51391846 -0.0109637575 -0.08102207 0.07991142 0.2843678 -0.3102041 -0.014254832 0.16970794 0.088362366 0.32674882 0.23411517 -0.049155537 -0.4643824 0.27913994 0.15693331 -0.19560967 -0.08752884 -0.032810304 0.023797797 0.18075234 -0.34332487 0.08184226 0.5453068 0.60233265 0.35221654 -0.5421972 -0.23093882 -0.09041911 -0.73986876 0.33142015 -0.20727722 -0.24119693 -0.98549724 0.14124201 0.094947256 0.10347786 -0.047062274
brought 0.9017137 0.2151838 0.45419675 -0.03154478 -0.16643815 -0.28222352 -0.3051786 0.020022579 0.58041364 0.061723135 -0.27370232 -0.9400848 -0.26853013 0.55456406 -0.084071174 0.36989686 0.37710813 0.47309086 -0.6400058 0.18388815 0.6809712 0.2754514 0.7792713 0.059727624 0.1300268 -0.44169745 -0.009068886 -0.11220228 -0.32429862 0.045242645 -0.18450597 0.5636891 0.4677937 -0.00868913 0.19977316 -0.3021432 0.028408539 0.18425374 0.097013 0.0685335 0.2505186 -0.2004155 0.29445148 -0.35921472 -0.98525864 0.06535242 0.09055238 -0.27060306 -0.8299213 -0.5670923
tonnes 1.2146506 0.66207856 0.49593136 0.14879362 0.46583384 -0.5821788 0.3518188 0.60258275 1.2106109 0.17929359 -0.5780543 0.10282281 -0.40095496 0.25905937 -0.42566872 1.6097783 0.5493193 -0.6602267 -0.054653578 1.0753338 -0.2197465 0.057364423 0.8044813 -0.6660258 0.3765263 0.065027826 0.09030311 0.0021444568 -0.41415796 -0.46303114 0.030860918 -0.16707811 -0.5795027 0.49247918 0.50714 -0.21225235 0.03729073 -0.3218339 0.31652024 0.3901085 -0.17342457 -0.93005085 0.67273796 -0.3198328 -0.17205958 -0.5136329 0.6717219 -0.5395494 -0.047002874 0.12682106
some 0.29231223 0.41460243 -0.05112497 0.5166522 -0.03499253 -0.2608689 -0.064313225 0.023313465 0.5201957 -0.21445064 -0.027469445 -0.094542444 -0.3197649 0.034385853 0.22389093 0.11925526 0.28798273 0.09217159 -0.47905293 0.20244648 -0.29077846 0.38925576 0.32957068 -0.15477303 0.41120958 0.19625895 0.04232184 -0.33675355 0.2940417 0.036394145 -0.54683286 -0.23983489 -0.2075279 -0.28349006 0.62642705 -0.058529533 0.105063275 -0.16720013 -0.16350304 0.0064929524 0.26205772 -0.16357137 0.81310636 -0.38122243 -0.082307465 -0.54855806 0.11359053 0.32836077 0.18858579 -0.7882937
